-0.000109578
4.50772e-126
-4.89988e-233
-0.032092
0.00303187
-2.99269e-08
-2.55375e-10
0.0639143
0.0678772
-2.55375e-10
0.00480902
-3.50787e-322
-0.0749378
0
0.0391926
-1.25669e-19
-0.109178
0.0294658
-0.000107896
-0.020122
0.0552723
-0.115951
-0.117724
-5.19637e-14
-5.40068e-07
0.0391926
-0.0354504
0.015531
-0.0152977
0.00114752
-0.0601277
0.00302507
-8.75332e-14
-1.38102e-14
-0.00598169
-0.00157945
-0.000106626
0.0139443
-8.11149e-06
0
0.048436
0.140312
9.54584e-122
-4.45219e-07
-0.0372987
-8.08567e-05
0.0155465
-3.23081e-05
0.0134379
0.0150905
-0.000143739
0
-1.76234e-10
-0.0185444
-1.31119e-262
-4.52918e-07
0.0359266
0.00254338
-5.59393e-16
0.0139112
0.000912421
-0.00602515
-1.46243e-321
-0.0475417
8.39912e-322
0.0229812
0.108651
0.00426714
0.00825173
0.00512485
-0.104046
0.00336301
-0.0023526
0.0126321
-0.00253068
-0.049454
0.0117922
0
-0.0412111
-0.0508258
-0.0481942
-0.065847
-0.000233104
0.0142475
0.035604
0.0300293
0.188665
0.0969984
0.112235
0.0229812
0.043387
-0.0257623
-0.0988306
0.000892423
-0.103993
-7.0181e-11
0.082795
0.0417094
0.0514966
0.00222312
-1.76234e-10
0.000912421
-3.46286e-08
0.0011585
1.1966e-124
-7.81516e-09
0.00393116
-1.5353e-05
-9.87213e-07
-0.0915151
-0.0897987
1.09683e-321
-0.0183707
0.0314482
6.32404e-322
-8.22764e-13
-0.0577049
-1.61554e-08
-0.0384835
-0.00360452
0.167792
0.0182153
0.091804
0.0260356
0
0.00861199
-0.0484029
-0.0749804
0.0491214
3.55136e-05
0
-0.0437304
-0.00854757
0.023186
-0.0782694
0.0455024
-0.0031517
-4.52918e-07
-0.0612359
0.00839783
0.0841045
0.000609538
0.0275852
0.0644994
-1.40388e-05
-3.78421e-10
0.0708504
0.030821
-1.325e-09
0.111448
-0.000278721
0.0242413
0
0.0036615
0.29554
-0.00157945
0.0107612
0.0181405
-0.0457498
0.0624457
-0.044948
-0.000191726
-0.0559301
-0.0870756
0.000912421
-0.070121
-0.0576799
0.0185397
-0.000235072
-0.0205444
-0.0535533
-0.110334
-0.0492026
-1.16255e-07
-0.195842
-0.00702931
0.0161768
0.044927
-0.00560004
-9.42252e-08
-1.76234e-10
0.0170513
-0.0496895
-0.057031
-0.0186425
-1.3294e-10
-0.00899335
0.18506
-5.03242e-43
-5.19637e-14
-0.0570972
0.0743156
-0.0194297
0.0359266
-0.011352
0.0190048
0.0293284
0.00416115
-7.02021e-07
-0.0483264
-0.0407303
-0.04261
-1.05844e-10
0
-0.00905842
0.000912421
0
0.342071
-0.0612489
1.09683e-321
1.80057e-124
-0.0206339
-0.0456076
0.342688
-0.0265459
-2.55375e-10
0.0120704
0.0141699
0.0170092
7.32596e-125
0.0273454
-0.0505855
0.000494759
0.0857603
2.81617e-322
-9.24041e-09
0.0117922
-0.0770963
-2.48268e-05
-4.52918e-07
0.0973963
0.0352017
0.00366035
-0.00845156
-0.0197126
0.0819972
0.069481
-0.00596301
-2.26639e-08
-2.03542e-06
0.0857255
-0.0580453
0
0.0685082
-0.0367652
0.000432799
-3.52984e-10
0.00258823
-0.0512451
1.59073e-125
-0.0825661
-0.0650146
-1.38057e-118
0.049822
0.0170513
0.014059
0.0113256
-2.26625e-09
-0.000178273
-0.029633
-0.0202938
-0.0392356
-0.0191466
-0.00560004
-0.020122
-0.0345709
0.0095764
0.0243873
0.00385735
-0.16645
-0.0322838
0.00820758
-0.00845548
0.0328782
-0.0058384
0.0600881
-0.0699872
-4.89988e-233
0.0870708
-3.59928e-06
-1.29872e-222
0.0639143
0.194423
0.0154048
0
-3.21279e-06
0.0498606
-0.00566087
0.10822
-0.0311805
0.00710618
0.0622095
-0.00699462
0.0158105
-0.00186604
-0.0230634
-0.026058
-0.150712
-0.0510246
0
-1.02884e-06
0.0134863
0.000114598
-1.61554e-08
0.00437038
0.115408
-3.50787e-322
0
0.0334667
0.0019714
-2.23849e-06
-5.92075e-13
0.0841792
0.0518469
0.0241322
-0.0135262
-0.0186425
-0.0518204
-0.145116
-1.16928e-07
0.0899506
0.812957
-0.108015
0.0181651
-0.0258815
0.0251398
0.00299044
-0.00174263
0
-0.272186
0.0762089
-0.0971833
-0.0433418
-0.0023526
-0.0148813
-0.00813131
-0.00260828
0.0171501
0.0291362
-0.0410998
-0.0343049
-2.1778e-06
-0.0917621
0.0231319
7.32596e-125
-3.16173e-12
0.0342364
-0.0200598
-0.0471312
-0.113129
0.0651897
-0.0734058
0.00527896
0.215379
0.0155465
0.0475672
0.0126321
-0.0473203
-0.0773818
-2.03542e-06
0.0397762
-0.00965739
-1.17345e-13
0.0410344
-6.13567e-06
-0.0156385
-0.0452054
7.16395e-322
-0.0143922
0.0139112
0.142425
-1.87496e-05
-0.0172837
-4.0145e-30
5.69019e-05
0.000912421
-0.0750573
0.023686
-1.30743e-05
0.000912421
-0.0969502
0.00416115
0.227439
0.0134379
-0.0382091
-0.0286593
-0.0677592
0.0627787
4.01139e-06
0.00820758
-0.0407325
0.000912421
-0.00730459
-0.0591472
-2.26625e-09
0.0229026
3.55136e-05
0.0220318
8.82767e-07
-9.24041e-09
-3.46286e-08
0.0857215
-0.0145489
0.00290211
-1.22923e-06
0.0036615
0.102901
-1.05844e-10
0.032671
0.00624603
0.109561
1.31413e-06
-1.29872e-222
0.019301
0.00244835
-0.0164421
0
0.0844226
-0.00598169
-0.132746
0.0966646
-4.95977e-08
0.334537
0.00587943
-2.26639e-08
0.00998998
-1.38057e-118
-0.045413
-0.0561813
-8.06739e-06
-0.00774766
-0.00388
-5.50245e-05
-0.0108127
0.0142475
0.0359266
0.0445414
-2.4249e-07
-0.1445
0.0864356
0.0257517
0.0436614
-5.03242e-43
0
0.0145036
1.14129e-321
0.0886002
0.087275
-0.0732548
-0.0772402
-3.16173e-12
-0.00014748
0
1.09683e-321
0.000912421
0.0002563
0.0160153
-5.08678e-12
0.0247041
-0.0550093
-5.40068e-07
0.0156443
0.00710618
0.0511355
0.0308201
0.0067782
0.0145012
0.0333551
-4.07381e-08
-1.46876e-05
-0.000265076
0.0194314
0.0911672
0.0259841
0.0163451
-0.000115108
-0.111819
0.0352017
-0.086677
-0.0526948
-0.339651
-0.034722
0.0288971
2.05576e-05
-0.196057
-4.45971e-05
-0.0830541
-1.81527e-05
0.0164735
-0.146146
-4.52918e-07
0.0354447
0.0212214
-0.0343105
-0.0534056
-0.0322838
0.000618943
-0.000140052
-1.16255e-07
-0.0244272
-0.0680258
1.09683e-321
0.0240799
0.0562312
0.035604
-1.87496e-05
0.00710618
-0.0227662
-4.67573e-07
4.92603e-05
0.011436
-0.0339434
0.00980359
0.0543694
-5.76153e-12
-0.128396
4.30421e-124
-0.0148613
0.0424714
-1.87496e-05
-1.62678e-09
0.18555
0.336878
0.0400067
4.74327e-05
-1.36173e-05
-1.2992e-07
-0.107358
-0.032092
-4.07381e-08
0.00871146
-0.135372
0.00558753
0.146087
-0.0148541
1.14748e-05
-0.0727866
-2.85582e-09
-0.000165413
-8.65393e-09
0.000308094
0.135116
-2.09263e-07
-0.0137599
0.000998657
-0.0311588
-0.04203
0.187211
0.00526093
-0.0164333
0.0397019
-0.00868918
0.0207988
-0.0222095
0.0989067
-0.0176337
0.0683722
0.0811065
-0.0312746
-0.0133561
0.00336491
0.0800382
0.0652432
0.191696
0.00250141
0.000171047
0.00245384
-0.0522004
0.0543639
-0.0749804
-2.26625e-09
-0.00491566
0.0199168
-0.0389831
0.219233
-0.0719629
0.0135497
-0.0709762
-0.0178014
-0.00852437
0.0231613
-0.0240743
0.150341
0.000343016
0.0383826
2.96926e-05
-1.30942e-05
-0.019652
-6.36003e-05
-0.0537246
0
0.00776031
-0.119245
-0.0111748
-0.00598214
0.000912421
-3.46286e-08
-3.17028e-08
-0.132898
0.00952349
0.0408169
-5.40068e-07
0.0392629
-0.077636
0
-0.0396184
-0.000264455
0.371544
0.0653399
0.0308595
-4.05343e-263
-0.0581053
-0.0742523
-0.0490317
0.00250275
-0.00671461
-0.00459527
-1.3012e-07
-0.0659114
-0.145331
-0.066691
-1.37996e-118
0.0729063
0.182973
-0.0536238
-0.00976316
-4.67573e-07
0.00448051
-0.0130899
-3.16173e-12
0
0.0340991
-0.0749804
-0.0183706
9.54584e-122
-4.52918e-07
0
-0.176181
0
0.00776436
0.107361
-0.0139441
0.245955
0.0036615
-0.00376711
0.0360987
-0.175247
0.00185311
-4.76813e-07
0.0358424
-0.0200392
-0.130068
8.5648e-05
-0.0693479
0.0399553
0.0258776
-5.19637e-14
-1.11711e-05
0.00566608
-0.0114331
-0.0347139
0.026629
-0.0227662
0.00114913
0.0634562
-0.0291414
9.28843e-322
0.000398034
0.112482
-3.78663e-05
0.0472852
-0.0286593
-1.39061e-05
0.00947195
-0.122974
-2.18097e-08
-0.0350266
0.0070008
0.159193
-0.0371039
-1.97733e-07
-4.89988e-233
0.388082
0.0344348
-0.0782026
0.00272291
0
-9.87464e-05
0.0875538
0.0388707
-0.000565176
0.027781
0.0158492
0.0137258
-3.74395e-07
0.135304
-0.0202938
0.0608369
-0.0503488
-1.29872e-222
0.227922
0.00234419
0.000912421
0.0115772
2.91492e-124
0.0154215
-0.00908224
-0.00837689
-0.0754742
-5.13132e-05
-0.044464
0.0518469
-4.52918e-07
-0.159336
0.0403167
-0.120657
-0.0665604
0.0171683
-0.000148939
-0.262008
-0.079887
-1.13524e-08
1.09683e-321
0.0139443
0.0233163
0
0.139452
0.0389691
0.112786
-1.02893e-09
0.0151942
-2.26384e-13
-0.0838534
-7.02649e-07
0.0479276
0.195911
-0.202678
0.0957854
0
-0.111006
0.0465792
0.0630518
-0.0845323
-0.0021224
-0.000148405
-0.0262395
-1.2992e-07
0
-0.0600414
0.172745
4.64422e-322
0.0289981
0.0874474
-2.07157e-05
0.0306304
0.0374715
-8.06739e-06
-0.000145329
-9.27463e-06
-0.0727094
-5.6536e-14
-4.95977e-08
-3.52984e-10
-1.38102e-14
-3.35965e-322
0.36622
-1.36173e-05
-0.170008
-0.0559096
-0.0559648
0
-1.38057e-118
-1.15358e-06
4.02236e-07
-0.0199001
-0.0153963
-0.0533731
0.0311461
-0.0460822
0.136693
0.00972389
0.063651
-5.03242e-43
-0.019833
2.91492e-124
-3.87313e-09
0
-0.0507947
-3.46286e-08
0.0118782
-0.292197
-0.00702931
0.0393372
0.097153
-0.134157
-0.00702931
0.0287289
-1.97427e-05
-9.11244e-06
0.133452
0.0103441
0.0714998
-0.0388913
0.00185607
0.0036615
0.0207892
-6.19318e-06
-5.13132e-05
0.000912421
0.132083
0.0529023
0.0115777
-8.99717e-09
0.0229812
-5.30406e-05
0.000334127
0.147484
-0.0119371
0.00671104
0.104962
0.104279
2.05576e-05
-5.76847e-05
-0.121863
0.0226028
-0.0519034
0.159904
-0.0202938
0.0562638
0.211515
0.0250352
0.0282488
0.144246
0.00443333
0.0115777
-0.0164421
0.03828
-0.00109688
0.0190763
0.0618235
0.0109096
0.0231613
-0.0239403
-0.0145238
0.039155
0.00529048
0
-0.0186425
0.000912413
-7.376e-09
0.0024472
-2.26639e-08
-8.75332e-14
-0.045608
-0.0173466
-0.0343105
-3.57115e-05
1.1966e-124
0.0191716
0.0156443
-0.000110414
0.0115777
0
0.0181023
0.0624457
0.000877344
-0.0708859
-0.0642728
-0.0547208
-4.52918e-07
0.0176577
-0.0590004
0.0176477
0.0684695
-0.0372986
0.0865067
-0.0209112
-1.29872e-222
-0.0366806
-2.23849e-06
0.0181651
-0.0699703
0.123838
0.185464
0.0752745
-0.0506532
-0.0612736
-3.16173e-12
0.0961384
0.0294658
-0.0030281
0
0.098358
0.314341
-0.0930329
0.00448051
-0.0575222
0.0693401
-0.0583697
-0.0359224
0.0615469
5.28624e-122
0.0178237
0.00422816
0.000912421
0.0134379
-1.3012e-07
1.13141e-321
0.0522916
-1.25669e-19
-4.67573e-07
-0.000147275
0.0171683
-0.0104384
-5.19637e-14
-2.7238e-15
-8.05283e-05
-0.0156629
0.0220318
-5.98814e-07
-0.0438547
0.0036615
-0.0123773
-6.36003e-05
-0.0438799
0.00894981
-0.0194702
-1.76234e-10
0.00170637
0.0430343
0.0164317
-7.54139e-06
0.00360537
-0.0552751
-0.0349369
0.000150627
-0.0231809
0.0972483
0.00258823
-1.25669e-19
-5.99707e-05
0.00876974
0.0122632
0.0820432
-2.23849e-06
0.00416115
2.91492e-124
0.0318522
-0.0438799
-0.104484
0.000286131
-2.81962e-06
0.00776436
1.80057e-124
-0.0456442
-0.15633
0.0191369
-0.024701
0.00584072
1.92633e-143
-0.0589759
0.140215
0.0237419
-0.000923295
0
7.16395e-322
0.00672946
0.0812688
-0.0956161
-0.0185935
0.0776602
-0.0946784
0
0.0100525
-3.52984e-10
0.0073399
-0.0163584
0.035236
0.0201073
-0.0583949
0.000855241
-0.0097461
0.000155075
-0.00376711
0.0127641
0.0352017
-0.132453
-0.0788661
-0.122802
0.100905
3.71792e-124
-0.00238213
0.000912421
0.00894509
0.0159925
0.0889212
0.217283
-5.49474e-05
-0.000146573
-0.00961298
1.80057e-124
0.0978038
-0.00682779
0.0220318
0.0295629
-7.0181e-11
-1.18257e-08
0.0361185
-0.0316539
0.00416115
0.000834441
-0.0339885
0.000912421
-0.0437304
-0.0665604
-0.027183
-0.0121703
-0.0483953
0
0.039966
-7.00794e-09
0.0020286
-0.00762152
-0.0529116
-0.111819
-0.017183
0.0947112
0.0529317
-0.000263154
-0.0222095
-0.0418027
0.0036615
0.0176276
0.000912421
0.00333235
-5.14931e-07
0
0.128578
-1.39657e-07
0.0561419
-0.0689076
-1.39657e-07
-1.19377e-09
-0.0149327
-0.000146223
-0.0189819
0.000564284
0.0361185
0.00709978
-6.97117e-08
-0.122513
0.000697149
0.00794251
-4.05512e-06
-0.0150568
-0.00702931
4.50772e-126
-1.36173e-05
-0.0191466
0.0137571
0.00393116
0.0358502
0.0340064
-0.0388913
0.0270102
0.0109649
-0.113591
-0.00714027
-1.97427e-05
-8.65393e-09
0.00222266
0.0747138
-0.00560004
-0.362835
-5.03242e-43
9.54584e-122
-1.02884e-06
-0.00376711
-0.0260182
0.0180505
0.071215
-0.0104104
-0.00598169
-0.0222097
0.320884
-1.30942e-05
0.0660867
0.0184018
0.0402172
-3.50787e-322
-0.00483916
0.05213
-0.0168118
-4.52918e-07
0.0164654
0.00825786
0.110228
4.08266e-06
-0.0133963
-0.00714027
0.12832
0.000912421
0.000912421
-9.54326e-12
0.242002
0.0359747
-0.00598169
0.000912421
2.73607e-05
-0.00333992
-5.08678e-12
0.00201601
0.11323
-0.151687
0.0381468
-0.00714027
0.0455056
1.09683e-321
-0.0298365
-0.131119
0.0780599
-0.0771351
0.0113505
0.0357183
0.0311489
-5.06629e-13
-1.3294e-10
0.226777
-2.1778e-06
0.088573
-1.3294e-10
0.00170637
0.00563781
-0.0642725
-4.52918e-07
0.0581929
-0.000930943
0.00236851
-0.0437375
-0.0673782
0.161897
7.90505e-322
0.324509
-0.0186425
-0.0329192
0.0943271
0.0639695
-0.0282918
1.1966e-124
0.0743113
2.91492e-124
0.00663479
0
0.0604592
-1.2992e-07
-0.0644379
-0.0338518
0.0337224
-0.0351163
-0.0486519
-1.25669e-19
-0.00138193
0.0959157
0.0256279
0.0522916
-1.93913e-08
1.04616e-263
0.000831892
-0.0322838
-6.13567e-06
-1.97427e-05
-3.57115e-05
-5.19637e-14
-0.0779961
-0.0712233
-1.17345e-13
0.0432508
0.0495904
-0.0424864
-0.0196809
0.0163255
-1.87496e-05
-0.0760806
0
0.00747506
0.0295077
1.92633e-143
0.013177
0.0330582
0.0239435
0.00106013
0.0779402
-1.93913e-08
-0.000265076
-0.11663
-0.113402
0.00902964
0.00747506
0.00345336
0.15479
2.97533e-05
-0.00261986
-0.244872
0.102901
0.0156443
-0.000187492
-0.0798902
0.227146
0.235067
-0.0205893
-5.70206e-05
0.0178043
7.16395e-322
0.016899
-5.92075e-13
0.0126533
1.09683e-321
-1.23022e-321
-4.38815e-11
0.0156719
0.000633154
-0.104718
-0.0314184
-0.0775035
0.14926
0.081446
0.0203183
0.15424
0.0194047
0.00792186
-0.0568336
-3.71877e-13
0.170467
0.0205693
0.0764985
-4.10828e-11
-0.0251805
-0.014678
-0.0953116
-0.108505
0.0552186
5.67702e-05
0.00820758
0.00112357
-0.051444
-4.39264e-05
0.00446143
-0.0121703
-5.22605e-10
-5.22605e-10
-6.56597e-05
-0.00343441
0.130242
-0.048179
0.0115875
-0.0689076
0.00287946
-0.0343105
0.0115875
0.0171683
0.0594346
0.170077
3.71792e-124
-1.62678e-09
-0.0012205
0.126133
-0.00590729
0.00512948
-0.0116503
-1.00223e-08
0.0252317
0.0220318
-1.14567e-05
-0.00376711
-0.0238972
-0.0569789
-0.0323262
-0.0908707
0.0171688
-0.028069
0.152749
0.102351
-0.0023526
0.0727918
-9.54326e-12
0.0816384
-2.20882e-06
0.00808056
0.229803
-1.16393e-07
0
-0.0456076
0.148569
0.0139443
0
0.00880832
0.0205693
-0.00279394
0.237649
-7.21896e-10
-0.038293
-8.30344e-06
-0.00283923
-0.0778506
-0.0262644
0.000630893
-0.0579563
-1.13493e-07
0.164939
0.0657578
0.0181651
-1.93179e-06
8.41338e-291
0.000155075
-5.60636e-10
0.0890258
-0.000264455
-0.0153787
0.0414399
-0.0758386
-1.31152e-09
0.116094
1.2864e-05
-1.30743e-05
0.0744791
0.0276604
4.28518e-05
0.0183362
0.0922255
5.32333e-05
-0.0180858
0.036842
-0.0359224
-0.0359224
-9.24041e-09
-0.0529991
-1.17345e-13
-0.0729031
-5.03242e-43
-0.000913735
1.09683e-321
-1.98434e-07
0.0279424
0.0611435
0.0036615
0.0191462
-0.0261209
0.0291071
-0.02713
-7.21408e-06
0.038907
-0.00818646
-0.0179283
0.0252317
-7.92466e-07
-0.0133561
-0.151029
0.0608814
-0.0332822
0.0613258
0.00529048
-0.0260432
-0.0461601
0.0164736
0.0409484
0.0568861
-0.175859
-0.0244272
-0.00491566
-0.123256
-7.81516e-09
-0.0561367
-1.17345e-13
0.103775
-5.88543e-08
-2.85582e-09
-8.22764e-13
0.0036615
0.0283492
-0.150941
-0.147813
-0.020559
1.80057e-124
-0.0316605
0.00672391
-0.0259723
-3.50787e-322
-5.17589e-12
-0.0673814
-0.0164421
0.0543694
-0.0436213
-0.0752065
0.105195
0.0170513
0.011435
-7.85939e-05
0.00529048
-0.0241383
0.0556447
-0.0968326
0.0336671
0.109598
0.00303187
0.029647
0.000912421
-0.0556824
0
0.0358502
0.00416114
-0.13301
0.0193423
-0.0139269
-0.0543908
0.000912421
0.000112702
0.0753261
9.54584e-122
0.000912421
-0.00702931
0.298461
0.00709954
0.000673442
-0.032092
9.54584e-122
0.0444262
-0.0649204
-0.000112119
-4.36393e-05
-0.0106535
0.147793
-0.0198247
-0.000264455
-7.00794e-09
-0.0369863
0.0155465
0.000618943
0.0182848
0.0205937
-0.147631
-0.0227662
-4.67573e-07
-0.0531843
0.00710618
2.91492e-124
0.0171683
-4.0089e-05
7.90119e-123
-6.13567e-06
-0.0365214
0
-0.0149178
-1.19377e-09
0
1.97862e-07
-0.0106535
-0.0789043
0.00831827
-0.109358
-1.00223e-08
-0.0529991
-4.89988e-233
-0.0536091
-0.277367
-0.0737027
-4.39264e-05
-0.0226501
0.00044231
-0.0987003
-0.0667068
0.0503724
0.151253
-1.19377e-09
-0.0621165
-0.0440595
-3.46286e-08
-0.0582092
-0.0371039
-0.05531
0
-3.86164e-07
0.000286131
0.10447
-0.219001
0.0132396
-0.0391239
-4.89988e-233
0.0134379
-0.0269785
-5.22605e-10
-3.59928e-06
-0.0186425
-0.000146223
-0.0467055
1.34189e-06
0.000800068
0.0011713
0.01805
-0.152881
-0.0259185
-3.41064e-07
0.00970306
-8.65393e-09
0.0151114
-0.0269853
0.0318015
0.0174428
-0.0866779
-1.16928e-07
0.0220489
-0.0287053
0.0805529
0.00497674
0.000105676
0.0603706
-3.77571e-06
-0.00491566
-0.104317
-0.00510422
-0.00837689
-0.000923295
0.272448
-8.75332e-14
1.04616e-263
-2.94954e-06
0.109607
-4.39264e-05
-0.00124634
-0.0183706
0.0397837
0.0101925
0.0581929
-0.0526459
-0.000128617
-1.56122e-05
0.0243874
-3.2877e-07
0.000892423
7.32596e-125
0.567611
0.0734658
0.0693366
-0.0377111
-0.0787983
0.0282812
-8.05283e-05
0.0113505
-0.000122857
0.137976
0.131385
-2.26639e-08
-0.125146
8.02569e-06
0.00122485
0.0320202
-4.07381e-08
0.012729
3.60766e-06
2.91492e-124
-4.67926e-07
0.044061
0.0146407
-0.053752
-8.55718e-15
0.0403056
0.267521
0.0300357
-0.0261209
-4.89988e-233
-0.191216
-0.420777
0.0322533
-0.0205409
0.117612
0.0774272
-0.0406781
0.00993964
-0.0840537
-0.000265076
-1.25669e-19
-0.076845
0.0864356
-0.0260572
0.0664286
0.0307447
-0.0402293
0.165142
0.0115875
-4.56286e-06
-0.0840938
-1.25669e-19
0.000912421
0.0691265
-1.36173e-05
0.00254338
0.00254338
0.10418
-0.0269766
0.0046707
-0.0660003
-0.0152977
-0.0240743
-0.00745569
0.0036615
-0.0563501
0.0381758
-0.0203344
-0.0352846
-0.00343441
-0.00435875
0.104264
0.00393301
0.00456269
7.60861e-322
0.0812553
0.0158028
0.0399349
-5.5765e-16
-0.0228767
-0.0676499
-0.0716226
-5.22605e-10
0.129547
0.0980117
0.00866131
0.0172418
-0.0747346
-0.00598169
0.114207
0.00729399
0.049822
0.00118484
-0.0608676
0.123314
0.041383
-0.0261047
-1.16928e-07
0.0187123
-0.0401505
-0.0153963
-0.00666272
0.292384
0.0205336
0.000320573
0.0194047
0.0207893
1.58101e-321
0.0151942
0.084733
0.133101
0.0142475
0.135486
0.0389445
-0.0475409
0.00408255
-0.0145278
0.0432396
0.0166343
0.0960805
0.0101769
-6.13567e-06
0.275546
0.00649501
-2.74455e-09
-1.81527e-05
0
-1.25669e-19
0.141718
-0.0523306
0.0366341
0.00763196
-0.0939951
0.00408255
-0.124064
9.54584e-122
-9.30009e-06
0.000912421
-8.65393e-09
-0.089313
-4.67573e-07
0
0.00155155
-0.0422062
-0.00631238
0.0102549
0.0223291
-2.26639e-08
0.0947112
-1.10904e-15
0
0.0140812
-0.0228795
-3.56213e-05
0.054867
-0.0232992
-5.19637e-14
0.0128174
-8.22764e-13
-1.16208e-08
0.00349265
-0.0564901
-0.0485267
-1.19377e-09
-0.141806
-0.0146782
0.00505139
-0.0272556
0.0115777
0.304288
-0.00964771
-3.78427e-10
-0.0786152
-4.68841e-10
-0.0369863
-0.0234332
-0.00795059
-0.044042
-0.033393
0.0235983
-2.01756e-08
2.51257e-05
0.000912421
0.0116079
0.0627787
0.0393775
-7.95582e-05
-1.38102e-14
0.0260479
0.0287289
-0.000265076
-0.0940253
0.000155075
-0.0742176
-0.0571201
-6.19318e-06
-0.0119838
-0.0786049
0.309603
-0.0835382
-0.0579563
0.00201601
-0.0532358
0.0810925
0.0115777
-0.0229317
0.0134022
-2.55375e-10
-0.180283
-0.0583625
0.0220489
4.50772e-126
4.01139e-06
0.0238664
0.281128
-0.0393487
0.0250822
-0.00302205
0.00658438
-0.0610483
0.00228139
-0.00702931
0.0597751
-0.015713
-0.00494914
0.0755562
0.00127826
-0.0612055
-0.0579456
0.103875
-7.18306e-06
-0.0778506
-0.368681
0.0181651
3.71792e-124
-1.56122e-05
0.0060462
-4.52918e-07
0.118626
0.0113867
-0.0261357
0.0619961
0.0747138
-1.19377e-09
-5.19637e-14
-0.0293853
0.10619
-0.000265076
-0.0675983
-7.58049e-10
-0.00921916
-1.52453e-06
-0.00435744
0.0947112
0.0520518
0.289807
0.0321378
-0.0324564
-1.87496e-05
0.000612664
0.00456269
0.100717
-0.0275141
-0.0604484
-0.0261043
0.0115777
0.00393301
-0.0339967
0.052314
-0.0501298
0.0377243
-0.128436
-9.35859e-05
-2.26691e-07
0.0297115
0.00416115
-3.17028e-08
0.0979325
0.0194047
0.0516246
-0.032092
0.0150675
-0.0500793
0.0154048
0.0243874
-4.67573e-07
0.00178554
0.0185417
0.00776436
-0.0210686
0.00856135
0.049536
-0.0592577
-0.028234
0.070735
-0.00702931
0.0599938
0.0132396
-0.048798
0.0275852
6.22523e-322
0.000817823
0.200302
-0.0587314
-5.55971e-09
-0.0682671
-0.00944864
6.76493e-05
0.0241322
-3.35965e-322
0.00436161
-3.29198e-07
-0.029157
0.0036615
0.00684107
-0.102327
-0.0761107
-2.4747e-06
0.0207893
0.284522
-4.53094e-07
0.172198
-1.54946e-05
-0.0905847
-0.025932
0.0075557
-0.0659817
-0.229209
-0.0398759
0.000176035
-0.071853
0.0865158
0.0159364
0.0249456
-0.0023526
-0.0571201
-2.1778e-06
-0.0222788
-9.08438e-09
-0.0668408
0.0156443
0.00189577
0
0.00756126
-1.25669e-19
-4.52918e-07
0.0342364
0.116987
0.0296637
-1.22923e-06
-0.0332421
0.0158605
0.00847638
0.0634562
0.0661568
0
-7.41237e-06
0.0486406
0.000105161
-0.0227662
0.011436
-3.35965e-322
0.000398034
-0.0956536
0.0281544
0.0134757
-0.0457498
0.0756606
-0.125801
-3.11857e-09
0
0
0.0203704
0.154027
0.0174428
0.0464887
-0.0349369
-0.0479825
0.0036615
-0.0182493
-0.0119658
-0.0689076
3.33641e-06
-0.00200511
-0.0133561
-0.044042
0.0164736
0.0941208
0.0171683
-0.00944864
-0.0454202
-0.029036
-0.0669489
0.0175084
0.0185417
0.333313
-0.0788661
0.0289981
-1.76234e-10
-2.01747e-08
-0.0342958
-1.19377e-09
-0.12884
0.0117922
-0.00376711
0.0266681
0.0648003
-5.27254e-06
0.000979781
-0.014196
0.14069
-0.021443
-0.141209
0.0126321
0.0135441
0.0800451
-0.0386329
0.324125
-0.038764
-5.09504e-07
0
-7.45536e-09
0.0535954
0.00303187
0.109469
0.000101161
0.00254338
-4.52918e-07
-1.38057e-118
-0.060201
-0.102761
-0.115187
0.00710618
0.0350184
-1.38102e-14
0.0220512
-0.136938
-0.0456076
-0.115686
0.00332264
-0.0145278
0.0657729
-2.65216e-06
0.0664286
0.0131052
0
0.138745
1.14748e-05
-0.0437304
0.0517787
-5.92075e-13
0.0639806
0.108361
0.274211
0.0151113
-0.116862
-0.02713
-0.0234884
-0.0392195
0.016899
0.00254338
-0.0750581
0.0831262
0.000114598
0.0115777
-0.00964771
0.113357
2.91492e-124
0.0848886
0.000220799
0.00245384
0.016899
0
0.128494
0.000112702
0.0917147
-0.0579563
-0.0339918
-1.2992e-07
1.09683e-321
4.74327e-05
0.0334049
0.00416068
-0.00714041
-2.85337e-07
0.00281248
0.0917147
0.0398555
-0.138829
-0.00666272
-1.30942e-05
-1.15358e-06
0.0179113
-0.0961457
0.0067782
-0.0411816
0
-3.35965e-322
0.0352017
0.0181651
-0.0221003
-0.0228767
-6.0606e-05
0.124889
0.0311888
0.0714998
-0.03173
-1.61554e-08
-3.74395e-07
-1.30743e-05
-2.07157e-05
0.0191108
-0.00016087
0.0309695
0.0388706
-9.74967e-07
0.130306
0.0239495
-9.57859e-05
0.000998189
0
9.54584e-122
0.035424
6.76493e-05
0.0349756
-0.0133561
-0.0179283
0.0404785
0.0067782
-0.0203468
-0.074128
0.344382
-2.03542e-06
0.00112577
-0.000107707
0.0214365
-4.8462e-07
-0.090643
0.00955803
-0.0126375
0.108096
0.0719875
-0.0320863
0.0100525
-0.100482
0.000311552
-3.21279e-06
-0.0133562
0.0604245
-0.0405054
-0.0303338
-4.95977e-08
0.0380352
0.000912421
0
0.0251343
-1.2992e-07
1.09683e-321
0.106223
-0.0576799
0.0639143
0.0106254
0.0458218
-0.0693479
-5.19637e-14
-9.24041e-09
-0.0504559
0.0143574
-1.31152e-09
-0.272998
0.0294658
0.0683441
-0.0227662
2.51257e-05
-5.65823e-07
-1.70479e-06
-0.0199931
0.0264368
0.0534815
-7.21514e-06
-0.000195728
-0.157242
4.50772e-126
0.0103675
-8.65393e-09
-1.25669e-19
0.0538091
-0.00863167
0.0126533
0
-4.50501e-05
-0.0660179
-0.000109578
0.0788102
-0.0320589
0.0145037
0
1.80057e-124
0.0184056
-6.36003e-05
0.0036615
-1.2992e-07
-1.8971e-10
0.0207893
0.128573
0.0241322
-0.00702931
0.0701608
0.00406005
-0.0286535
0.0339826
0.0183805
0.000494629
-0.0580363
-0.0153336
0.0207893
-8.55718e-15
0.0150905
-0.127913
0.000286287
-0.000930984
0.0103675
0.00187626
-0.0903617
0.020928
-2.55375e-10
-0.12143
0.0952413
0.0554787
-0.0560212
0.0563368
0.116362
-0.045124
0.00257566
0.00889842
0.0103673
-0.0577237
0.0393372
-3.87313e-09
0.00831827
-5.33591e-322
0.0788093
0.0391926
-0.020122
-0.0111858
0.00223498
-0.0286593
-0.0587694
0.012729
-0.0410247
0.035236
-0.000264455
-0.177202
0
-0.0503406
-0.137172
0.00709978
0.0952768
-4.89988e-233
-4.10828e-11
0.055641
-0.0148544
0.01491
-0.0197826
-0.0209635
-0.0342958
-0.0536238
0.0419324
-0.0152945
0.00103701
0.00333235
-0.000265076
-0.015458
7.32596e-125
-0.0186425
-0.0278683
0.0868855
-0.0857458
-0.0227662
2.81617e-322
-4.52918e-07
-0.000165413
-6.96633e-322
0.0113505
0.00201593
4.01139e-06
0.0194047
0.127226
0.0175675
0.0224147
-0.0473383
-0.0200598
-0.16563
6.10613e-05
0.0231613
-0.0114331
0.0020286
-0.00601794
0.000629886
-1.3012e-07
1.06718e-321
-5.5765e-16
0.0115777
-7.04854e-07
-5.72514e-05
-7.85939e-05
0.00258823
0.000994054
-0.0150358
0.0805042
-2.01747e-08
0.062175
0.00044231
0.0307447
-0.096237
0.0118251
-0.00918977
0.0138329
-0.0557772
-0.0955508
-0.0186425
-0.063382
-0.000265076
0.0961917
-0.045608
0.0160153
0.104263
-0.0359107
0.109868
-0.0135022
0.161653
0.137648
0.015151
0.0428141
0.0469831
0.100044
0.0139443
-0.0332822
0.0192253
-0.0595199
-3.59928e-06
-0.00376711
0
-0.0365174
0.00776436
-7.96827e-07
0.0595762
0.0381011
-0.0286593
-1.3294e-10
-0.0478435
0.0485184
-0.0594812
-1.02893e-09
0.0464887
-0.00570482
-0.0135262
0.129928
0.0180505
-0.0640739
0.0434114
-0.0357132
-0.0322838
0.11423
0.00150036
-0.0292999
-2.03542e-06
0.0229812
-0.0407994
-3.11857e-09
0
0.0285169
-0.0633273
0.00443333
0.02676
-0.0980994
0.00291544
1.15723e-90
0.0229812
-8.75332e-14
0.0633438
0.05705
0.0355649
0.0275852
-7.75683e-322
0.0870708
2.05576e-05
0.00135243
0.0801187
-0.0351563
2.91492e-124
0.0115777
0.0222087
0
-0.177152
-0.0106535
0.00133381
-1.2992e-07
-0.000117645
-0.037104
0.0107116
9.54584e-122
-6.97117e-08
0.044682
-0.0998799
0.000912421
-5.49474e-05
2.91492e-124
0.00890901
-0.0779915
-0.00978067
0
-0.0948059
-0.00157945
0.000912421
-0.0778619
-0.095464
-0.000110414
0.125323
0.122123
0.0139443
0.0306304
0.00425068
-0.109178
8.39912e-322
-0.175119
-1.46243e-321
0.0506397
-3.12375e-09
-0.0301636
-8.50762e-254
-0.0692494
-0.0406148
0.0095764
0.000912421
-2.26639e-08
0.0383364
-2.92158e-06
7.90119e-123
-0.000132675
-0.0314184
-0.0536813
-0.0753509
0.0513136
-0.0541757
-0.0724855
0.00776436
-0.00014748
0.0822227
0.111466
-0.0133622
0.130748
0.00709978
1.31413e-06
-0.084832
2.91492e-124
0.152333
-0.0133561
-7.85939e-05
-0.0182064
0.00130019
-0.0145226
-0.0971202
-0.00115276
0.000484351
0.0145789
-1.325e-09
-3.10201e-08
0.0625149
0.0484388
-0.0372
0.0276467
-4.68427e-09
-0.00734675
0.0430524
0.0207893
-0.0631201
0.0270543
-0.038764
0.0103441
0.0595762
0.0281578
0.0173945
-0.0709762
0.0437028
0.00416115
0.0365646
0.114144
0.0137513
-0.016262
0.00416115
0.000761713
-0.0176268
-0.0277203
-0.0452054
-0.136232
-0.0655656
-4.05343e-263
-4.05512e-06
0.0360082
1.09683e-321
-8.06739e-06
-2.26639e-08
0
-8.75332e-14
-0.0203344
-0.0688075
0.053003
-5.88543e-08
-7.48506e-10
0.0543687
-9.08438e-09
0.000855241
0.0263687
0.00710618
-9.87464e-05
-3.29198e-07
-0.0432938
0.0181651
-0.044042
-0.05046
0.103528
-0.0405054
-0.000198856
-1.19377e-09
0.0027399
-0.0161458
-0.000168149
6.76493e-05
-3.46286e-08
-0.020122
0.0296877
-0.000160873
0
1.73421e-06
4.68027e-05
-1.46243e-321
0.0231613
0
-0.114005
-0.0183898
0.371099
-0.047434
0.0373896
-0.0255397
-9.87213e-07
0.0410968
-0.0103918
0.0634194
-1.19377e-09
-0.00343441
-7.85939e-05
-0.0416949
0.153613
0.0357183
-0.00702931
-2.26639e-08
-0.247511
-5.76153e-12
0.052516
-0.00241639
-6.95724e-05
0.0132396
-0.0774724
0.0789688
0.0952413
-0.115308
-0.0496991
0.0333341
-1.38057e-118
0.000912421
0.0709689
-1.10671e-321
-1.54946e-05
0.135438
0
-9.08438e-09
0
0.257406
0.0180505
0.0720401
-0.0327117
-0.110675
0.0243874
0.0146387
-3.59928e-06
0.240541
-4.52918e-07
-0.310724
-0.101228
-0.0520913
0.363387
0
-0.0153787
-1.02893e-09
0.0419324
-0.079096
-8.05283e-05
0.0391586
0.000432799
0.00563781
0.040019
-0.0528361
-0.0950763
0.296134
0.000547536
-0.00680851
-4.45971e-05
-0.0139499
-1.46243e-321
-0.11925
-0.000466459
-0.0255235
0.163427
0.0765119
-0.0219043
0.00721894
-8.22764e-13
-0.000923295
-4.52918e-07
0.0892671
0.0474078
-5.76153e-12
0.00137448
-0.114621
0.06841
-0.0128323
0.0226028
0.140966
4.01139e-06
-7.0202e-07
-0.0575682
4.65764e-05
-0.00971507
1.02848e-05
0.00416115
0.00281248
0.0361185
-0.106742
-5.19637e-14
-0.0655934
0.000912421
0.18839
-0.0537246
0.0151114
0.0199813
0.122283
0.0269982
0.00546055
-4.39264e-05
0.0191369
0.00281248
0.0095764
-0.0644917
-9.08438e-09
0.0129901
0.0297115
0.00147571
0.0978353
-1.15358e-06
-0.0686242
0.0357183
0.0172236
-0.0450831
3.71792e-124
0.0144273
0.105298
0.103075
0.00776436
-0.000110405
0.153266
0.0334899
-4.39264e-05
0.00565518
0.000998657
0.0139443
0.00391888
0.0457854
0.0529316
0.0209407
0.00393116
-1.34755e-11
0.292351
-0.00944864
0.0634562
0.0564469
-4.11476e-05
-4.48109e-29
-1.13493e-07
-7.95579e-05
0.125993
0.0046707
0.132497
0.159846
-0.08777
-3.06669e-10
-1.76234e-10
-0.0672813
-0.0203744
0.0067782
-0.0133562
-0.0292773
0.0036615
-0.0226501
-0.0444286
0.0520495
0.0315076
-3.30327e-05
0.00254768
-2.26625e-09
-0.0597874
-4.13237e-06
0.00193675
-0.0170832
0.0100525
-3.71877e-13
-0.0479166
0.0493551
0.00106013
-0.00598214
-0.0749804
2.02567e-322
-8.1659e-09
-4.89988e-233
0.0888258
0
0.000171047
-0.0556553
0.0310775
-0.0964736
4.65764e-05
-0.277818
-0.0869198
-0.062062
0.0302908
-0.0152977
-0.0410998
0.00513946
0.0467767
-1.52453e-06
0.117055
-2.26625e-09
-0.109178
-3.57115e-05
0.0684695
0.000912421
0.0878643
0.29971
-4.89227e-06
0.0199582
0.0115777
-0.0601036
0.0181651
0.00393836
0.0220318
-3.71877e-13
-0.0452054
-0.00560004
0.0728697
-1.16255e-07
0.0107602
0.0156719
0.0181651
0.0945251
0.0115777
-0.0291414
-0.0682671
0.00426714
0.0351751
0.0925404
0.00328571
0.0066913
0.0805042
0.0115777
-0.00403578
0.0330856
0.0498821
0.0543694
0.00894981
-0.0230634
0.121795
0.119832
0.0390137
-0.0521049
-5.19637e-14
0.00416115
-3.16173e-12
-7.18306e-06
-0.104718
-0.0672145
0.0167975
-0.00246529
4.50772e-126
-0.0245309
0.180847
9.54584e-122
-0.0107964
0.0768731
0.0206879
0.0115777
0.000912421
-0.0114331
-0.00702931
-5.88543e-08
-6.96633e-322
0.0896141
-0.0698904
-3.50787e-322
-0.0135262
-0.0434468
0.0205693
-0.0135262
-0.0437304
0.00279906
-1.19618e-09
-2.81962e-06
-0.0194702
-0.0248487
-5.01686e-13
-0.026058
0.0364368
-3.57115e-05
-0.0449202
0.1912
-0.0315013
0.0157965
-0.0365214
9.54584e-122
-0.0323803
0.0697914
-5.19637e-14
-0.000262874
0.267358
-5.65428e-08
0.170718
-0.0879464
0.265315
-1.54946e-05
-0.0322838
-8.05283e-05
0.0166911
0.0865158
-7.93863e-05
0.0684695
3.45723e-05
0.235113
-0.00546642
0.00820758
-1.09289e-05
-0.00944864
-0.0665604
-0.0756554
-0.00723239
0.000398034
5.33591e-322
0.0299348
0.0827956
0.0282505
0.0184102
0.0151114
0.0297237
0
0.0848886
-0.00598216
-0.0678694
0.138596
0.0155465
-4.45971e-05
-0.0121245
0.0220318
1.58101e-321
-1.23022e-321
-1.61554e-08
-0.000173293
-2.26639e-08
7.50447e-05
-0.000140052
0.00662853
-3.17028e-08
-2.1778e-06
0.000912421
-0.0335752
3.71792e-124
-0.0470008
-0.00666272
0.00538857
-0.12612
-0.0234371
-2.07157e-05
0
0.00606822
0.238366
-0.110113
-4.67573e-07
-4.89988e-233
-0.0352975
-0.119154
0.00448051
-0.0608845
-0.0111748
-0.032469
-8.05283e-05
-0.0773818
0.01583
-4.52918e-07
-0.0800455
-0.0121703
-0.0601114
0.105517
-0.0704645
-2.72041e-08
-0.0417732
0.0036615
-0.00804255
0.128381
0.0205693
-0.0588776
0.00228152
0.0485301
-0.0149173
0.0704567
0.0156443
0.0330638
0.00254338
-0.219121
-3.08001e-07
0.00393301
7.60861e-322
-0.0329072
-8.06739e-06
0.00430065
0.414239
-3.41064e-07
-0.000136465
1.92633e-143
-0.0305931
-2.75673e-07
0.0549196
0.0243181
-0.0481452
-0.0179947
-0.00571722
-0.0423289
-0.000146046
0
-0.0293885
0.0183974
0.0156443
0.0036615
-0.0579961
5.33591e-322
-0.158591
-0.120922
0.224704
0.0409132
-1.22923e-06
-0.0661937
0.0401345
-0.0511949
-6.28622e-13
-0.00702931
0.0036615
0.0199689
7.36677e-05
0.000912421
-1.13524e-08
0.00072651
0.00894981
0.00485841
-0.0651696
-0.0903079
-4.72867e-05
0.0067782
0
-0.037217
4.74327e-05
2.91492e-124
-5.08678e-12
0
-0.0993057
1.04616e-263
-0.0111748
0.0552723
0.0146407
-4.52918e-07
0.0036615
3.71792e-124
0.00770954
-4.47054e-09
0.00672391
-0.0195823
0.0602652
0.0067782
-0.0478655
0.122595
0.00558395
0.0455024
0.599819
0.0543815
0.0220318
-0.0331437
0.131228
-0.00014748
-4.67573e-07
-7.54139e-06
-0.0673203
0.000196278
0.0103675
4.78991e-05
0.00415243
-2.9396e-05
0.00178554
0.0095764
-0.0835783
-0.0197119
-0.0228767
0.0409566
0.0156719
1.09683e-321
0.0183306
0.0855187
0.0664286
-9.87213e-07
0.0213184
0.0220489
0
0.0297463
-2.26639e-08
-0.0261209
0.0503938
-0.111818
-0.0165468
0.0568076
-1.16255e-07
0.00732605
-0.0353237
-0.00376711
-0.000264455
0.0490915
-4.45971e-05
-6.13567e-06
-0.00469402
-0.118578
-7.03295e-08
-5.05262e-05
-6.13567e-06
-7.96827e-07
-9.48625e-07
3.71792e-124
-0.0059973
-0.182506
-0.0740692
-0.000930943
-0.00786613
0.030914
0.0886493
-0.0413366
0.0184967
-2.13315e-07
-0.0370946
0.0172645
0.089957
0.0760881
0.0534711
0.0703129
-3.16173e-12
-0.0114331
-1.24909e-07
0.0216171
-1.73514e-08
0.0122379
-0.0150358
-0.00837689
0
-0.0191466
0.00747506
-0.0255235
-0.0471312
0.0483293
0.0389102
-0.0130046
-0.181486
-0.0169705
0.0686579
-4.08082e-08
-0.056514
0.0207199
0.0173619
0.00412755
-0.0105603
-0.000132009
-0.12463
0.059924
0.114925
-0.111819
-0.00522862
0.0279132
-0.00698435
0.0796057
0.438341
-0.0914499
0.0640036
-1.14567e-05
0.0788093
-1.5353e-05
-2.26639e-08
0.0143498
0.0693366
-0.00691739
-0.151195
0.0316522
-0.0832368
0.0220435
0.106847
0.0130541
0.0483334
-0.0226501
-0.0305931
-4.39264e-05
0
0.0858127
0.00776436
0.0819231
-0.0206339
-0.0418027
0
-2.39084e-10
-0.0750457
0.018368
0.128789
-7.81516e-09
0.000912421
-4.6128e-07
4.496e-322
-0.0508974
0.663514
-0.0525916
0.0850668
0.0143574
-3.16619e-09
0.0680475
0.0036615
-0.0341693
-1.3012e-07
0.00228152
-0.0496281
-0.0411907
0.32574
0.0169038
0.0207447
-9.87464e-05
0.186931
0.0431349
-1.3294e-10
0.0067782
-7.56204e-07
-0.038764
0.00529048
-0.0571201
0.26402
0.000912421
0.0424714
-0.0239007
-3.46286e-08
-0.0145567
0
-0.0599785
0.0133301
-0.0735647
0.0017063
-0.0241466
0.029667
-0.0215705
0.0205693
0.0432468
0
-3.74395e-07
2.91492e-124
0.00454556
4.34778e-322
-0.00763406
0.00189025
-1.31119e-262
-0.0840537
-0.0141275
0.0430736
0.0134885
-0.102694
0.0539971
0.0505104
7.60861e-322
0.0756598
0.00132563
-4.52918e-07
0.0336095
0.0462183
-0.0599785
0.0291071
0.0660498
-0.00593199
0.0289141
0.0522916
-7.21514e-06
0.0182848
-5.59393e-16
0.0294654
0.0220318
0.0381468
-0.0822575
0.00103701
-4.18829e-118
0.0230232
-4.05512e-06
-0.178605
-0.0242888
0.0670342
0.00459924
0.0074748
0.0655271
-0.0456076
-5.19637e-14
0.00676396
-4.07381e-08
-0.00016087
0.00393301
-0.000136465
-0.0135262
0.020928
-0.0410378
-0.0117154
0.0102709
0.0172086
0.107414
-3.46282e-08
-0.044042
-0.00786613
0.0260474
0.00286183
-5.75139e-07
-7.85939e-05
-4.52918e-07
0.0820255
-2.1778e-06
0.0117623
-1.97429e-05
0.0421313
0.0312732
0.00710618
0.000171047
-0.0324741
-0.011274
-0.143224
-0.0821754
0.00649496
-9.83295e-05
3.03993e-05
-0.0361542
0.0323242
-0.0440777
0.0495904
-0.00322249
-0.0690596
-0.263264
-0.0244272
-0.0206349
-1.3294e-10
0.00718765
-0.0293863
0.00438177
0.185273
0.00115906
0.0885279
0.0316451
0.0194198
-0.0847606
-0.0273115
-0.063095
-0.0197826
1.04616e-263
0.127131
-2.17804e-06
-0.00199584
0.0448019
-2.5885e-07
4.74327e-05
0.0306303
0.0344284
0.162915
-0.0343242
-0.0266593
-0.0186425
4.01139e-06
0.0155465
-0.0222
-0.00747998
0.0462667
1.09683e-321
-0.0598763
-0.090643
-0.0438547
-2.4249e-07
-0.11456
0.0142475
0.0309695
-0.0874964
0.191814
-0.00683577
0.323728
0.0176523
0.0729078
0.00187626
-0.0595656
0.123242
0.0289981
-4.05512e-06
-0.0237549
0.00480732
-3.16173e-12
0.0740369
0.0952408
1.80057e-124
-0.0386536
0.0501648
0.00393301
0.00955803
0.0183056
-0.0135262
-0.00560004
-0.000148405
0.0220212
-8.1659e-09
0
-0.0154345
0.0361185
0.0549196
0
-0.0948342
0.0552342
-0.0931247
0.000912421
-0.0626895
0
0.0684695
-1.76234e-10
-0.00487799
-2.23612e-07
-0.175104
0
-0.0644405
0.0115772
-8.22764e-13
-6.18241e-11
-3.59928e-06
-0.0256326
0.0086613
-0.132886
-1.39657e-07
-4.67573e-07
1.80057e-124
0.0627787
-9.45881e-07
-0.0275056
0.0243874
0.163057
-0.000160873
0.0156563
0.0149329
0.00587943
-0.0356839
0.118908
-0.0591365
0.22734
-1.16208e-08
-8.55718e-15
-4.52918e-07
0.0225636
-0.0432352
0.0424558
-0.0438799
0.0543639
-0.000132009
-9.24041e-09
0.106611
0.00448995
0
-0.0740692
0.0309695
-0.0320589
0.0047719
0.0115772
-0.0957393
-4.95985e-08
0.0802903
0.0635257
-0.0316539
0.103213
0.184182
0.00416115
-0.0207188
-1.19377e-09
-4.52918e-07
0.0222087
1.5069e-321
-0.00199584
0.0361278
0.0287269
0.0738783
0.0250156
-0.0122206
0.330094
-0.025998
-1.81527e-05
0.00290104
-0.148003
-0.0150568
2.81617e-322
0.0306368
0.0095764
0.0639848
-0.0386536
0.00393836
-1.06673e-14
0.0172645
-1.02893e-09
0.0170513
0.0293893
-0.0438547
-0.000145329
1.09683e-321
-0.0205939
0.151634
-0.0116732
0.0103675
-0.0615324
-0.000210602
-0.00157945
0.00272456
-0.0836855
0
0.0595468
-0.0360688
0.0107612
0.00223027
0.110858
0.0213811
-0.0735989
0.00422816
0.0115777
0.00826474
0.0160153
0.16125
0.0255186
-6.19318e-06
1.80057e-124
0.0998582
0.0359266
-0.230825
0.00558753
0.0240799
0.013637
-0.0504213
0.0155057
1.09683e-321
-8.11149e-06
-0.00964771
0.0170513
-5.57928e-08
0.0706475
0.000912421
-0.0545597
0.0370284
-4.07381e-08
0.0523599
-0.0103592
0.0522531
-5.19637e-14
0.00806101
0.035424
-1.2992e-07
-0.0537246
-0.0386536
0.0160153
-0.0895742
0.0450278
-9.64814e-13
0.0287289
0.0884345
0.0205693
-0.0262934
-4.89988e-233
-0.0322838
-0.0213781
-0.0326416
-5.22605e-10
0
1.10185e-06
0.0226028
0.000912421
-0.115994
0.077986
9.96279e-05
-0.0150511
-3.77571e-06
-0.000778799
-0.050346
0.0253902
-0.0278025
0.0205938
0.496165
0.00564092
0.0419323
-0.117165
-0.072166
0.0502144
0.0170513
0.0151942
-4.52674e-07
-0.00837689
0.00290222
-0.0655881
0.0890574
-0.0526948
-0.0416587
0.0034393
0.0155058
-0.0592942
-0.0437304
-1.3294e-10
0.0120197
0.0337408
-3.74395e-07
0.0289981
-1.2992e-07
0.00420097
0.117612
-1.02884e-06
-2.46688e-06
-8.99717e-09
0.0495904
-5.98814e-07
-1.19618e-09
-1.1899e-05
-0.0692465
0.00820758
-6.9178e-05
0.0103441
0.0180205
0.085551
-4.52918e-07
0.0631383
-0.0244255
-0.023737
0.204915
-0.0668186
-2.55375e-10
0.116866
-4.45219e-07
0.0662663
4.50772e-126
0.0185417
-0.044042
-5.30857e-07
0.0365181
-8.65393e-09
1.58101e-321
-9.87464e-05
-0.117211
0.0593945
6.76493e-05
0.000912421
0.242587
0.0179927
0.000912421
-0.00231536
0
0.279387
0.02102
-4.45219e-07
-0.025971
-0.325483
0.000618943
-5.98814e-07
-0.00666272
-0.0365215
-0.0630462
-3.0504e-05
-1.3294e-10
-0.000187492
0.0218229
0.0439167
0.0279598
0.000541774
0.0553609
0.0352017
-1.31152e-09
-0.022934
-0.136769
0.0550239
0.924799
2.91492e-124
0.0036615
-0.0194496
0.0034393
-0.00283923
-0.0143776
0.0901459
-0.191149
0.0471578
0.0338744
0.0624614
-3.71877e-13
0
0.000228071
-0.0429307
-5.76153e-12
0.00359753
-3.87313e-09
0.183515
0.052314
0.0296978
-5.19637e-14
0.0180454
0.0581929
-0.107645
0.00566608
-0.0950143
0.0164736
0.0437985
-0.0228767
0.0324954
1.04616e-263
0.00463136
-0.000145329
0.167206
0.0638181
0.0185417
0.107606
0.0560585
7.90119e-123
0.0772037
-1.56122e-05
0.00561806
-0.0543908
0
0.0257517
0.00281248
0.0120197
-0.0715106
0.0117922
-5.19637e-14
-0.0467547
0.00776436
-0.0322357
0.0180865
0.0182772
0.0181646
0.0447528
-0.130553
-5.08678e-12
-0.00702931
-5.05262e-05
9.54584e-122
0.0564196
0.0452861
0.0178043
-0.166943
0.0130189
-0.0336474
-0.015135
0.0191108
-0.0759545
-0.153105
-0.111232
-0.0150568
-0.0427893
0.0511322
0.00258823
0.153094
0.0595762
0.0409566
-0.000136465
-0.0393875
-0.0614747
-5.59393e-16
-0.0592349
-0.00396807
0.0623251
0.0136634
0.0146407
0.0220512
0.0318712
0.0495017
-0.0787885
-1.29872e-222
0.000912421
0.00198423
0.0737326
0.0841778
-0.00510362
0.0391565
0.309437
0
-0.00643794
0.040066
0.0134379
-0.00216098
1.06688e-125
0.0241322
4.34778e-322
0.0103688
-6.9178e-05
0.0409566
-3.77571e-06
-0.000265076
-0.0365214
1.3488e-321
0.0127641
0.00456875
-9.08438e-09
1.31413e-06
-0.00786613
0
0.00710618
0.0234419
-0.0393875
0.0103675
-0.10556
-0.00681712
0.000320573
0.0959157
-0.000263154
-0.0879464
-0.0138846
-0.000106626
-4.39264e-05
0.0173945
0.0236149
-0.0432938
0.0156443
0.00606822
4.50772e-126
0.0117922
0.525268
-7.85939e-05
-0.0101425
-0.0342647
-3.29198e-07
0.000998657
0.00166115
-0.0117154
-2.03542e-06
-0.000146046
-0.0861498
0.0344348
0.000912421
0.238317
0.0586713
0.0547487
0.205141
-2.26639e-08
-0.0228767
-0.224385
-0.0737587
0.00529048
-0.0395135
-0.00728047
0.0046707
-1.3294e-10
-0.0283534
0.0185871
-5.49474e-05
-5.03242e-43
-0.000112119
-0.020122
-2.39084e-10
-0.0798902
0.0973536
0.0639366
-2.46688e-06
-1.30743e-05
-0.0365834
-0.0186425
-0.0350266
-0.04372
-0.0576799
-2.50724e-06
-4.89988e-233
0.0897492
0.0661999
-4.67573e-07
-0.0693479
-0.16401
0.0113809
2.73653e-05
0.0142475
2.73653e-05
0.0134885
0.0352017
0.000541952
0.0352017
0.0127641
0.0472654
0.017774
0.128131
-9.54326e-12
0.000912421
0.126002
0.00254739
-0.0133561
-0.0992583
0.0879226
0.0454717
0.000912421
0.000903121
0.135635
-3.59928e-06
0.00587578
0.0430524
0.0790557
0.029085
-0.0230634
0.000998657
0.151878
0.129047
0.188361
-9.7825e-322
1.04616e-263
-7.6676e-07
-1.17345e-13
-8.75332e-14
-0.028069
-0.0601277
0.0738076
0.000120367
-7.54139e-06
-1.09289e-05
0.0297463
3.33641e-06
0.0020286
-0.0587055
0.109436
-0.000187675
0.0113505
0.00955803
-0.0208301
-8.48429e-09
0.0495904
-0.000187492
-0.0372986
0.0171688
0.0652192
-7.54139e-06
-5.88543e-08
-0.12308
0.156544
-0.0589572
-0.0991157
-4.10828e-11
-0.0281202
-7.00794e-09
-0.138413
-0.01078
-0.0223687
0.018156
-0.0998262
0.0336578
0.172595
-0.0092046
-6.18241e-11
-0.0162841
0.0115777
0.0561169
0
0.0154048
-0.0309529
-0.0386412
0.0393683
-0.140627
-0.076845
0.00416115
-0.115187
0.0245528
-2.58536e-10
1.1966e-124
2.91492e-124
-0.0525372
-0.00702931
0.0917147
0.00505139
-0.023784
-0.0546303
0.00079299
0.03828
0.0151114
0.0472852
-0.020122
0.130409
0.0159221
0.000912421
-1.2992e-07
0.0229657
0.011581
-0.0964736
0.0293284
0.143632
-0.0907445
0.0210286
0.0178043
0.0359266
0.0757149
1.31413e-06
-1.2992e-07
-0.015713
-1.96868e-06
-0.043842
-0.0580928
-0.0709087
-2.26691e-07
-0.000239805
0.106355
0.0151114
-0.000136465
0.0438589
-0.0343105
-0.0674115
0.0318522
-0.0416587
0.0171683
0.000994054
4.74105e-05
0.0472852
-0.0152977
0
0.018773
-4.18829e-118
0.0334485
-0.000621052
-0.0191433
0.0441255
-0.0096221
-3.46286e-08
0.000912421
0.0151114
-0.0408534
-5.22605e-10
-0.000140052
0.0199689
-0.0530089
0.000121294
-0.0561367
0.0792432
-0.0619568
0.0714998
0.0196837
0
0.0693366
0.0103441
0.00129525
0.289254
-0.0185691
-1.16928e-07
-3.59928e-06
0.0812898
0.121301
0.272987
1.25867e-05
-0.0115979
0.0552342
0
0.00144152
0.0960819
-0.0339878
0.035327
0.0185417
-1.19377e-09
-0.000140052
-0.024587
0.0319888
-0.0278683
-0.0278683
0.153075
0.0115777
0.0775287
-0.0149337
-0.0876708
-0.0853962
-0.0133561
0.0373839
0.103213
6.76292e-05
0.000994054
0.0178043
0.0123709
0.0897214
-0.0432665
0.0300921
-0.00702931
-3.00506e-05
-0.0218943
1.18938e-05
0.0522637
-0.0152977
0.0669901
-4.22124e-05
-1.16255e-07
0.0374025
0.0138319
-4.68769e-07
-3.35965e-322
-5.29107e-05
1.80057e-124
-0.00815532
-4.39264e-05
-0.11076
-0.0223522
-0.00944864
0.117612
-0.0642725
0.0067238
0.000912421
-0.0861298
4.01139e-06
0.0115777
-0.0365214
-0.0520888
-0.00964771
0.0685822
0.102664
0.004779
0.00106013
0.0280222
0.0311593
-0.00092679
-0.0281898
-0.0373368
0.0252224
0.00258823
0.00681813
0
0.0261225
-0.0110704
-0.100957
0.0384131
0.0059935
-0.000144241
-0.0527889
0.0118836
0.00505139
-0.292722
-5.19637e-14
-0.026058
0.0550003
-0.0662735
0.00641613
-4.47054e-09
0.0220318
-0.0166312
-0.0994706
0.0321751
-3.50787e-322
-0.0194461
0.00649501
0.148857
3.663e-05
-8.55718e-15
0.0236142
-5.72514e-05
0.0627787
-1.25669e-19
3.71792e-124
-0.029124
0.107452
-0.0268111
-0.0871742
0.00231374
-0.0665604
0.00526093
-0.0503406
0.0269982
-0.038503
0.0244178
-1.32941e-10
-0.0270549
0.00884789
-0.099843
-0.0838272
0.255994
0.0137627
-0.0135262
4.50772e-126
-0.0908325
-0.0731932
-0.099341
-8.26512e-06
-0.0244272
0.156649
-0.000923295
-0.00837689
-4.05512e-06
-0.184372
-0.0230634
-6.18241e-11
-0.024701
0.0205693
0.081323
0.0712445
-0.0121703
0
-1.3012e-07
0.0749536
0.0857215
0.00529048
-0.123082
8.41338e-291
-0.111819
0
0.0605905
0.101598
-3.87313e-09
-0.0140194
-0.0023526
-0.0123472
-6.69491e-08
-1.55632e-10
-0.060932
-5.5765e-16
-4.52918e-07
0.131926
0.0856292
-0.044042
-4.89988e-233
-0.0499573
-0.027183
-0.171028
-0.0338983
1.80057e-124
0.0117922
-2.75492e-09
-1.39657e-07
-7.00794e-09
-0.0202938
0.293403
-0.0316539
0.00125039
-0.0601114
0.0454736
-0.0126137
-0.0198247
-0.00703155
-4.68427e-09
0.0384966
0.0066349
-0.0449536
-0.0564476
0.000101161
0
-4.05343e-263
-0.0529991
0.0129901
-0.000187675
0.157269
0.0409566
-0.060201
0.0220318
0.00894981
2.97623e-05
-0.0320589
-6.19318e-06
-0.0583697
-0.000187492
0.0786039
-0.0671845
0.0491214
4.50772e-126
0.00166115
7.90119e-123
1.31413e-06
6.76493e-05
-0.0240743
0.112171
-0.0536767
-0.00624992
0.023923
9.54584e-122
0.0134823
-0.0323803
0.0904842
0.0155032
-1.16928e-07
-2.26691e-07
0.0447533
-2.11128e-08
-0.216372
0.0684695
-0.0366815
-4.52918e-07
-0.044042
-0.0773818
3.55136e-05
-2.26691e-07
-0.0334415
4.64422e-322
-0.0323519
1.1966e-124
1.09683e-321
-0.000106626
0.0185657
0.285311
-0.0774417
-7.48506e-10
-0.0228767
0.0159221
-0.081324
-0.00653769
2.73653e-05
0.0127289
0.0021457
-9.64814e-13
0.00201601
-0.0556673
0.0832885
-0.024701
0.000912421
-1.31119e-262
-1.4845e-05
0.0151942
-1.30743e-05
-0.00350685
-0.0608677
0.0424714
0.0194047
-4.05512e-06
0.000311552
0.0269982
0.0279978
-0.0743552
0.00894526
-1.19618e-09
-0.000165413
-0.157185
-0.00666272
0.0151942
0.0350524
-7.56204e-07
-1.30942e-05
-0.172864
-0.0182494
-0.0592349
0.0511322
0.0100525
0.0969984
0.0153668
0.00302507
0.0419324
0.392025
-1.46306e-11
-9.42252e-08
0.0293284
-0.0171454
-0.000239805
-0.0749522
0.262983
-0.0238246
1.49486e-156
0.053311
0.166003
-1.56122e-05
-0.0640739
0.00254291
3.70826e-06
-0.0272258
0.000912421
-3.50787e-322
-0.0227662
0.0438363
0.151516
-2.46082e-07
0.0404103
-0.0672813
0.0778335
-0.000146046
-0.0976005
0
0.0207185
4.01139e-06
-1.325e-09
0.000592389
-6.36003e-05
-0.0538347
0.0278776
0.0151942
0.0361185
-0.000146573
-4.47054e-09
-0.0564901
0.0384131
-5.76153e-12
0
0.0320654
1.97862e-07
0.0143574
0.0432468
-0.108697
1.14748e-05
-0.00016087
0.035236
-0.000264455
-5.72514e-05
-0.0571246
0.0185417
0.0791106
-0.0316539
-0.00492156
-1.03952e-06
-0.275941
0.000912421
0.0470644
-1.76234e-10
-0.040584
-4.62243e-113
0.0134379
-0.0071026
0.00533595
0.0192837
0.317161
0.0697379
0.0543694
-0.0154058
-2.23612e-07
0.0235197
-5.19637e-14
-4.67573e-07
-0.0429106
-0.115553
-0.0757375
0.061855
-0.0111748
-0.0487385
0.0173945
-5.19637e-14
0.0833067
-1.25669e-19
-0.000923295
0.129307
9.54584e-122
-1.71308e-10
-0.000130294
-2.01747e-08
-6.97117e-08
0.0635193
0.018165
0.0318522
-4.32746e-15
-0.000109198
-2.26691e-07
3.55136e-05
-0.000245941
-1.55632e-10
0.0142475
0.0257517
0.0623646
-0.0135262
-0.00837689
0.0278261
0.0805529
-0.00774766
-0.0838938
-0.0281202
0.00788615
0.000912421
-1.96414e-08
0
0.0291071
1.15723e-90
0.0194281
-0.0429307
-0.0687651
0.11247
0
-0.0383874
-0.0682671
0.0152595
-4.67573e-07
6.2504e-113
-0.0875906
-0.0314184
0.0563309
0.0210801
0.164896
0.0876711
-0.000197109
0.000144032
0.0218309
0.0365578
-1.39657e-07
-0.068442
-0.00728109
-0.0302995
-4.37977e-07
0.0352854
-0.00560004
-9.26682e-06
0.000700656
-3.46282e-08
0.0505514
-0.161208
-0.0133561
0.0222749
-0.0359224
0.232309
-0.0660179
-7.85939e-05
0.0358502
-0.137142
-1.76663e-07
-1.56618e-05
0.0207893
0.0207085
0.338259
7.32596e-125
-1.38057e-118
-0.0601811
-0.0185933
0.0106699
0.000564284
0.0234244
-0.0101425
-0.000165413
0.0301457
-3.77571e-06
0
1.59073e-125
-0.0148546
0
-4.62243e-113
-0.0672813
0.0661212
-4.52918e-07
0.0143574
-1.38102e-14
-0.0582092
-0.167582
0.231382
-0.00637193
-0.0392846
0.0212847
-0.0203344
2.38285e-05
0.0618805
-6.19318e-06
-0.0231809
-1.30748e-05
0.0134637
1.18938e-05
-0.0624397
1.03754e-321
-0.0239509
0
0.0473592
2.51257e-05
0.00820758
0.0100525
-0.104776
-7.00794e-09
-0.0365214
-0.000262874
-0.00841075
-0.199723
0.000912421
1.15723e-90
-0.0281883
0.143119
0.019517
0.0606302
-1.30942e-05
-0.0490754
-0.0709409
-0.0744738
0.0134379
0.0529317
0.0184013
-0.00598169
0.00309949
0.0455626
0.0336671
-0.029275
-0.0114331
-0.0288415
0.0207893
-3.41064e-07
0.0220489
-0.0289311
0.00505195
0.0318522
0.00257566
-3.35965e-322
-0.058173
-0.0527876
-6.94161e-05
0.00393301
0.000912421
-0.0665604
0.111484
0.000196007
-0.104484
-0.0314596
0.0506397
-0.000239805
0
0.0126321
0.000320564
-0.0537258
0.0319888
0.0397966
-0.205195
0.0103925
-0.126948
0.100706
7.98703e-05
-7.85939e-05
0.373313
0.0306304
0.00563781
0.00416115
-0.00510362
-0.0202938
-0.000106427
0.0220489
0.000432799
0.0314482
0.0142474
0.00436161
4.50772e-126
-0.0575222
0.0712445
-0.00557367
0.0822656
-0.00014748
-0.000136465
-0.0662436
0.0184018
-1.36173e-05
-0.0258224
-0.00730864
9.54584e-122
0.148447
0.0207893
-0.00016087
0.00587943
0.0220318
0.000171047
-0.0229351
0.429159
-0.0702975
0.0445414
0
0
0.30513
-4.52918e-07
0.0297115
-0.0179432
0.0138187
0.000144032
-0.0387155
-0.0727866
-6.36003e-05
0.109469
-0.217602
-2.09263e-07
4.50772e-126
-0.00560004
-2.01267e-05
0.0235197
0.175583
-8.55718e-15
-0.0793667
0.169138
0.159333
-2.11128e-08
1.03754e-321
-0.000264443
0.0606302
0.0100525
-0.10823
0.00281
0.00254767
0.0298553
3.72391e-06
0.0226028
0.023643
-1.19858e-08
-2.85582e-09
-0.131114
0.0160153
-6.28622e-13
-2.74455e-09
-8.099e-05
-0.0863847
0.0382191
0.0226028
-0.00702931
-0.0721307
-8.99717e-09
-0.00753155
0.00281248
3.45723e-05
0.0145789
-5.17589e-12
-0.00283923
-5.01686e-13
0.0622095
-9.82678e-06
1.80057e-124
-0.000132684
0.0363252
-7.04854e-07
-0.00207444
-0.0448789
-1.76234e-10
0.000817823
-8.99717e-09
0.12986
0.0207349
5.70734e-05
6.57107e-322
0.0655235
-4.67573e-07
0.10495
-0.0104942
-0.0815185
-0.00730058
0.00710618
-0.277571
0.027702
0.162309
-0.0133561
0.0181619
0.0095764
-0.0260173
0.0134379
0.0617919
-0.0659114
-4.89988e-233
0.0969984
-0.000239805
0.0127197
0
0.00670699
0.000494759
-0.020122
0.000912421
0.0450675
0
-0.0111748
-0.0778059
-0.0153787
0
0
0
-2.39084e-10
-1.16928e-07
0.01583
0.150597
0.0309634
-1.25669e-19
-2.4829e-06
-6.97117e-08
-1.29872e-222
0.080874
0.0276467
0.0334712
-0.198724
0.0870721
-1.37996e-118
0.0194047
-0.21278
1.31916e-321
-1.05258e-05
0.0151114
-0.0201402
-3.59928e-06
-0.00482954
-3.59928e-06
-0.000110414
-0.465036
0.0134379
0.151561
-0.0702011
0.024079
-1.76234e-10
0.0289739
0.0388707
-0.0461601
0.016899
0.26564
0.0317312
-0.00157945
0
-3.16619e-09
0.1607
-0.115164
-1.16511e-07
-0.0244272
-1.54946e-05
-0.0592847
-0.000265076
0.0192425
-0.0183706
0.0134885
0.00894513
0.0181545
0.00511772
1.14748e-05
-2.4249e-07
-0.0203344
0.0170481
0.000912421
1.25867e-05
4.78991e-05
0.0361185
1.45441e-06
-0.0539308
0.0318514
0.00339815
0.0135497
0.00447277
-2.55375e-10
0.0158492
0.00276773
-0.0532189
6.2504e-113
-2.79869e-05
-0.0437304
-0.00598169
0.0232309
0.0493427
-0.087391
-0.0258977
0.0286116
0.0385936
-0.0106535
0.000539955
2.91492e-124
0.0359266
0.0333341
-8.99717e-09
-0.000101094
0.00776436
-1.87496e-05
0.0516627
0.00105967
-0.132436
0.0183312
0.0420608
0.00763196
-0.0236467
0.279621
1.80057e-124
9.54584e-122
0.00871008
-1.93179e-06
0.153817
-0.0727751
0.112219
0.0259654
-0.0406549
-1.2992e-07
-1.29872e-222
9.90936e-122
-1.30942e-05
-5.13132e-05
-0.0155238
-1.93913e-08
0.00393301
0.0034393
-0.00157945
-1.29872e-222
-0.000149325
0
0.000229645
-0.05531
0.104538
-7.6676e-07
-5.19637e-14
-3.83049e-07
-0.00905839
0.000618943
-8.99717e-09
-0.0522425
0.00649501
0.0408169
0.0419324
0.0518469
0.000912421
-7.1376e-06
0.0318522
0.00281248
0.0409393
0.0841907
0.104253
-0.0454797
0.0606302
0.0818221
-4.67573e-07
-0.0836957
-0.00283923
-0.0597874
-0.0226857
0.00826081
0.0362343
-1.81527e-05
-0.0326416
-0.000110414
-1.25669e-19
0.00170637
-0.0173183
0.0158105
0.00883399
0.0160153
-0.0104183
-4.67573e-07
-0.0568223
-0.00283944
-1.02884e-06
-4.07381e-08
0
0.0293198
-5.01686e-13
-0.418821
0.0221996
-0.000146046
-0.0391112
-8.32452e-06
-0.0331376
0.0145012
0.158357
-5.19637e-14
-5.5765e-16
-0.0438975
0.013177
-9.30009e-06
-5.98814e-07
-1.16928e-07
0.168292
-9.24041e-09
-0.0448789
0.0116453
-0.00634917
-3.50787e-322
-0.0584302
0
0.00225344
-4.39264e-05
0.0969984
0.000912421
-2.74455e-09
-0.0427512
-7.6676e-07
-0.0202821
0.0286116
0.0115777
0.0336671
-0.0387733
0.0220318
-0.0798902
-0.0202427
-0.0215905
-0.0448789
0.0549196
-1.33398e-322
-0.0576799
-5.19637e-14
0.103239
-0.0716494
-0.049708
-0.0472891
-1.19377e-09
0.01737
-3.00506e-05
0.00710618
-1.34755e-11
0.00228152
-0.0516599
0.000432799
0.089942
0.0529317
-9.08438e-09
0.00570883
0.0708183
-0.0393784
0
0.0690724
-4.62243e-113
-0.0976134
-0.00903496
-1.34755e-11
0.100947
-0.059307
2.81617e-322
-0.200874
0.0127318
0.0240203
0.00228152
0.0660555
-5.57928e-08
0.035236
-0.00675264
0.042576
0.104125
-0.0544282
-0.0864578
0.0525716
4.50772e-126
0.0464816
0.0115777
-4.67573e-07
0.0380634
0
4.50772e-126
0.0475327
0.000912421
0.000912421
-0.0220323
0.18211
-1.3012e-07
-0.0151594
-1.42582e-05
-0.0773818
-0.0194702
0.047566
-0.0569428
0.00222511
0.000484351
-0.00493638
-1.76234e-10
-4.05343e-263
-0.2045
0.0477394
0.00073745
-0.0222095
-1.15358e-06
-0.0616714
0.00649501
0.106323
-0.0436554
-0.0517899
0.0155465
-5.03242e-43
-0.0216584
0.142629
0.035236
-2.03542e-06
0.0513031
0.157929
0.0684695
0.0667731
0.0320552
-0.0790818
-0.0238912
0.0089693
0.0189436
-3.50787e-322
0.0230489
-0.0511394
0.126389
0.126899
-0.0249847
-1.2992e-07
-0.0320589
-0.0412612
0.00461697
0.104264
-3.00506e-05
-3.29198e-07
0.115301
0.0151114
-7.0202e-07
0.0437884
-1.2992e-07
0.163057
-9.74967e-07
0.0439147
-0.0180858
0.00415225
-0.186079
0.0886527
-5.26049e-05
-0.0407352
0.050943
0.47631
-7.92466e-07
0.035236
-3.21279e-06
0.0703653
-0.0356427
-0.0511193
-3.50787e-322
0.131029
0.0625615
0.016899
-1.73019e-05
-5.01686e-13
-0.0907745
0.00587943
-0.0387081
-0.000145329
-0.00600536
-0.055208
0.0480846
-0.183441
0.0659093
0.0171688
0.10092
0.00744649
0.0058378
0
-0.000148405
-0.0492634
-7.04854e-07
0.00375359
0.271441
0.0529317
-1.38057e-118
0.01235
-4.07381e-08
-1.15358e-06
-5.08678e-12
-4.24328e-06
0.0273473
0
-0.0228767
-0.00598169
-0.0778353
0.104264
6.62048e-322
-3.46286e-08
0.00254768
3.50711e-06
0.0156443
0.00587943
-3.50349e-10
0.0977472
0.00514383
-5.08678e-12
0.0252998
-1.76234e-10
0.0218984
0.0112958
0.0134885
-8.75332e-14
-0.0976138
-3.46286e-08
0.0297463
-1.39061e-05
-0.10793
-0.0896518
0
0.000170811
0.00710618
0
-0.00183049
0.0409181
-0.210433
0.00912564
-0.0461601
0.00710618
-0.00199584
-0.0452803
0.020928
0.0134885
0.444241
0.00309955
-0.0679689
-0.0186425
0.0747138
0.108651
-1.96414e-08
-5.13132e-05
0.000678514
-0.0384835
-0.014678
0.0036615
0.0432468
0.107991
0.0229812
1.1966e-124
-0.0571598
-2.74537e-09
0.00388547
0.192922
0.0702487
-1.16928e-07
-0.00458883
-0.0452619
-6.89781e-05
-0.043195
-8.55718e-15
0.000912421
-4.07381e-08
0.000994054
-0.027831
1.59073e-125
0.180359
-0.04634
0.0667196
0.0376725
-0.0699367
-4.52918e-07
0.0382632
0.039065
-0.0562319
0.00498797
-0.0214906
-0.00702931
0.00526093
-0.0374889
-0.0537246
0.154465
-3.74395e-07
-3.87313e-09
-0.0255407
-4.18829e-118
0.0297115
0.009082
-0.0111748
-0.000335643
0.0509506
0.00877512
-0.110359
0.0120197
-0.295808
0.00238719
-0.028069
0.00831827
-1.2992e-07
0.0185417
-0.0414305
2.91492e-124
-1.38102e-14
6.22523e-322
0.0135455
-0.0592689
0.0559046
0.029256
-0.041357
-3.50787e-322
0.00813798
-0.0579563
-5.19637e-14
-0.0114531
-0.0579869
0.00359751
-2.01747e-08
-4.55672e-07
-0.0539683
0.0845565
0.0522887
-0.0663616
-0.0121703
0.137778
0.0394776
0.0036615
-0.115187
-5.19637e-14
0.0359266
-1.05844e-10
0.0293675
-5.19637e-14
0.0158105
0.0318522
0.0178043
-0.0128137
0.40018
0.0294658
0.0495017
0.00414876
0.0798344
-0.109802
0.0178043
0.0230489
0.00163797
0.0201633
0.0308407
0.124891
0.044989
0.0811065
0.0393372
0.00349265
1.1966e-124
0.0909589
4.02236e-07
-0.0600414
0.0335422
0.00254338
-0.0311122
-0.0965182
5.33591e-322
-0.0946248
-3.11857e-09
0.000541774
0.104264
0.0140327
0.00826922
-8.22764e-13
-0.0833063
-0.00376711
0.143896
-0.0742165
-1.10904e-15
0.00842605
-0.0383144
0.0886019
0
0.0181651
0.00711203
-9.24455e-05
-0.212217
0.0186309
2.91492e-124
0.0364586
0.0207893
-0.298771
0.260011
0.0883425
0.0234753
-0.0348936
-0.0536089
0.0036615
0.0740369
-0.0357209
0.0120197
-0.000160873
0.163057
0.236456
-0.0448789
0.0469752
0.00587943
0.107691
-4.06412e-06
-0.0001267
0.0520518
3.87699e-124
0.0181651
-0.0297796
0.000912421
0.01195
0.049667
-0.014678
0.0598084
0.000912421
-0.0152977
-4.52918e-07
0.000704731
0.194492
0.0832866
-0.0260111
0.049822
0.000912421
-0.0894029
0.19708
0.00503348
-0.0914665
-0.0601114
0.0436244
-9.54326e-12
-0.0952345
-0.0227759
0.0194047
0.0294658
0.0554578
-0.0429588
-0.0325493
2.91492e-124
-0.0445506
0.033963
-0.0406148
0.00591765
-0.0162841
-4.18829e-118
0.084888
-0.0873843
0.0115777
0.0276467
0.0310258
0.0318411
-0.0162841
0.0265155
-4.52918e-07
-0.0490983
0.000912421
-7.0202e-07
0.0395032
-0.0386536
-7.22379e-06
0
0.0552723
-0.221938
0.024079
-0.00435875
-0.0412708
0.0352017
0.0171683
1.09683e-321
0.0534815
0.00820758
-0.0608676
0.239429
0.0158105
-0.0110197
0.19345
-0.0320863
-4.89988e-233
0.0172645
-0.0393487
0.0971805
0.0464887
-1.33887e-05
0.0430732
0.00493391
0.000912421
-5.72514e-05
0.0447129
0.036565
0.0156052
0.0454736
0.00162975
-3.50787e-322
0.0937948
-0.0777857
-0.127233
-1.3294e-10
0.103515
-0.0575774
0.0036615
0.0522542
1.04616e-263
0.0828161
-7.54139e-06
0.0277785
-5.05262e-05
-0.00994196
-0.0148541
0.0361185
0.00820758
-0.192153
0.0364368
-0.0133561
0.0036615
-0.0206339
0.0497266
0.0661999
-0.37367
1.99208e-291
-0.0423817
0.0309695
-7.85939e-05
0.000912421
-0.0663774
0.0258776
-4.15686e-05
-0.0405694
-4.51945e-05
0.0435366
-0.0571209
-0.231526
0.216898
-5.6536e-14
-5.17589e-12
-0.0316539
0.0454736
-4.67573e-07
0.0678699
-0.0058384
0.00231228
-1.02893e-09
-1.29872e-222
0.0285975
0.0282505
0.214896
-0.102641
0.085707
-0.0639162
0.0036615
-9.08438e-09
-0.0778506
0.0184018
0.115733
-0.060419
-0.0162275
1.1966e-124
0
0.0151942
-0.0194702
-2.55375e-10
0.000700656
0.0151942
0.000998657
0.0339273
0.306918
-0.0416177
0.061832
0.0247252
-5.98814e-07
-0.0117154
0.0389577
-4.67573e-07
-0.0473293
0.00710618
-1.29872e-222
-0.0546403
0.0723364
0.00709978
0.000912421
-0.00944864
4.01139e-06
-0.111819
0.0151942
0.544854
8.41338e-291
0.646651
-0.0796771
-0.1075
-1.04901e-06
0.013177
0.206559
-0.00376711
0.0305521
0.0180505
0.0624457
-4.39264e-05
-1.19377e-09
0.134898
-0.0444571
-1.76234e-10
-0.111819
0.331529
7.98708e-05
-0.024001
0.0207447
-0.0480418
4.01139e-06
-0.0503406
-4.38815e-11
-4.68427e-09
0.0845641
-0.0259429
0.0119894
-0.0786049
-0.0252713
0.0300639
-0.020122
-1.25669e-19
0.0606302
0.0743224
0.000726963
0.0785569
0.133477
0.109335
0
-0.0716226
-5.5765e-16
-0.0495885
-1.36173e-05
-0.0256347
-0.0101024
-0.110501
-2.23849e-06
0.00223111
-0.000242038
-3.10201e-08
0.0115777
-4.67573e-07
-0.146564
-3.78421e-10
0.0036615
0.0352106
-0.0704645
0.011572
-0.0311588
0.0326943
-3.21279e-06
0.0038544
0.134128
-0.0177387
0.0131909
-4.43253e-08
-0.0183706
-0.0665604
0.144957
9.54584e-122
-5.03242e-43
0.0036615
-3.27254e-06
0.00326252
-0.000112119
-9.64814e-13
0.0473932
-0.0868927
0
-4.11476e-05
-2.75673e-07
9.54584e-122
0.0562134
0.0525844
-5.05262e-05
-4.0145e-30
0.0186526
0.0424714
0.0738421
-0.000923295
9.54584e-122
0.043432
0.0684616
-3.46286e-08
-0.141881
0.0164533
-0.0534867
0.000903678
-0.0576799
0.0536725
0.0662663
-0.00435978
-2.26639e-08
-4.05343e-263
0.0147161
-5.28006e-07
-6.73181e-245
0.000753911
0.0388377
-0.0212677
-0.118578
0.000979781
-0.0124665
-4.15686e-05
0.0916684
0.0825454
0.283632
0.00857972
-0.0244274
-0.0281849
-1.76663e-07
-1.16928e-07
4.34778e-322
0.000912421
-0.041369
0.0688631
0.0522531
-0.0183711
-2.26639e-08
-0.262847
0.0194047
-6.25203e-06
-8.11149e-06
-1.97427e-05
0.13403
0.0318407
-0.0164421
0.0269881
0.293373
0.0530327
0.000912421
0.0933279
0.0130551
-6.19318e-06
0.0036615
0.081464
-0.0923579
-0.0393617
1.1966e-124
-1.29872e-222
0.123071
-0.0316539
2.07661e-06
-3.10201e-08
-2.74412e-06
0.0770681
1.09683e-321
-0.268162
-8.22764e-13
0.00359751
-9.30009e-06
-5.29107e-05
-0.344077
0.0973536
4.50772e-126
-0.0747188
-0.0417189
-0.0099178
-0.0629907
0.000912421
0.0115777
-0.117256
-0.0115979
-0.000187675
0.000592389
0.122446
0.391612
0.163157
0.163157
-0.0350111
0.0370453
0.114619
-0.0152977
-0.0784329
0.0475633
0.000912421
-0.0183706
-2.03542e-06
0.000912421
-5.19637e-14
-0.0349369
0.0857157
0.0293284
-4.95977e-08
-1.02893e-09
0.00648121
0
-0.141958
-0.0231809
0.094634
0.0309695
0.0133782
0.0344474
-0.0276911
-0.0406115
-0.000187492
0.0945019
-0.0133557
0.0273473
0.0036615
-0.0665249
-0.0936566
-8.22764e-13
0.1369
0.000912421
-0.0178014
-0.0340585
-7.46316e-09
0.0475264
0.0639143
-8.75332e-14
-0.076845
0.100745
0.00415737
0.0594678
0.0246623
0.0775313
-0.00702931
0
-0.0276368
3.71792e-124
0.186643
4.34778e-322
0.052314
0.000618943
-0.0697293
-0.0231493
0.000212196
0.0170481
-0.020122
0.0636161
-0.0112071
-0.0245624
-5.76153e-12
0.0320654
0.0278823
-0.000210602
-0.0235208
-0.0489664
-0.0529991
-3.12304e-05
-0.000930943
0.0548824
-1.29872e-222
-4.07381e-08
-0.00702931
0.0181641
0.0171688
0.0205937
0.0388707
9.54584e-122
0.0134379
0.000311552
0.00245384
0.0595117
0.000912421
0.0359266
0.109561
0.0860438
0
-0.166864
0.000220799
-0.132245
-0.0322838
0.041112
-1.79189e-05
0.153
0.0849574
0.0493843
-0.000107896
1.80057e-124
-0.0406037
0.13486
-0.0229961
-0.0565083
-9.59602e-06
-0.135502
1.60571e-321
0.0959157
7.60861e-322
0.0738421
-0.014715
0.0888258
0.035236
-0.0273925
0.0371265
0.017122
-0.0447091
-0.0597874
0
-4.52918e-07
-0.171043
-1.19377e-09
-0.0903341
-1.87496e-05
-0.020122
-0.0681483
0.00142203
-0.05537
0.00456269
-0.0708942
-0.0190845
0.000832765
-5.01686e-13
0.215423
-3.50349e-10
0.00163965
-4.0089e-05
0.0148468
-0.0329466
0.0156719
-0.0395775
-1.2992e-07
0.0499587
-0.0186425
-0.00016087
0.000912421
-6.0606e-05
0.00756126
9.54584e-122
0.063239
0.0220318
0.0335326
0.0336671
0.0257626
-0.0821611
0.000912421
0.0176429
0.114781
-0.00786613
9.54584e-122
-0.00261986
0.0236184
-0.0082448
0.0904843
0.0484107
0.0855571
-4.68841e-10
0.00982723
-1.2992e-07
-0.0234182
-0.057557
0.0378509
0.0149076
0.0207893
0.0453681
0.0631398
-0.0444913
0.0134885
7.60861e-322
-5.06629e-13
-0.0186425
0.0252694
-0.0515185
-7.95579e-05
-1.31119e-262
-0.0154456
-7.8007e-12
0.0086664
0.0874662
-0.00376711
-0.00943358
0.0798663
3.33641e-06
-9.26682e-06
-0.11436
0.0194047
-8.11149e-06
0.0760998
-0.0753637
0.00159195
0.113466
-1.10904e-15
0.0811065
-0.00682779
0.00488027
-0.0456166
-0.020335
-0.0575222
-0.0487849
-0.000264455
-0.0624477
-1.25669e-19
0.00692553
-0.0727094
0.0548039
0
0.0492044
-3.11857e-09
-0.0533731
-0.0452054
0.0335967
8.41338e-291
0.0115777
0.000912421
0.0790123
-1.76234e-10
0.0220318
-0.0540785
-0.0142039
-0.0217255
0.0036615
-0.0569272
0.0487096
-0.00560004
-0.0132445
0.0294763
0.0691265
1.59073e-125
0.0827956
0.000564916
0.00794251
0.0155263
0
0.0190044
-0.0133561
0.068038
0.0454736
0.135014
-5.03242e-43
-1.38057e-118
0.0194047
0.0155465
-2.36343e-07
0.0169005
0.0303544
0.0855039
0.000892423
-1.33398e-322
0.160357
0.000670837
0.0243874
0.00416115
0.059145
-0.104174
0.00710618
0.0623727
0.0151114
-0.0576799
0.0127641
-1.25669e-19
0.0073399
0
-0.00209143
-9.83295e-05
0.0603706
-1.93913e-08
0.0146407
0.0351567
0.140312
-0.033778
-0.0305931
0.192697
-0.0339967
-0.0625772
-1.5353e-05
0.0181651
0.0036615
0.0916917
-0.0342432
0.00221628
-0.0294981
0.000728828
0.0484388
0.0134379
0.00108024
-0.0164421
-5.19637e-14
0.0184018
-0.0186533
-0.0381759
-0.0244272
0.00756126
0.132512
-2.26384e-13
0.0627655
1.04616e-263
0.036565
0.104538
0.000491638
-3.62516e-05
-3.50349e-10
-0.0642725
-0.00159495
0.0449867
0.000342642
0.000912421
-0.0248548
-0.0197776
-2.39084e-10
0
-0.105879
0.0714998
0.00815196
0.0638181
0.0344362
-0.0897987
-0.0342214
-0.118374
-0.0245323
-0.0800212
-1.54946e-05
-0.0471312
0.0207893
-0.00702931
-0.0452213
-0.0115979
-0.000923295
-0.0461601
0.0224358
0.0240882
-0.0473004
0
-0.0291339
0.0573237
-1.05844e-10
3.33641e-06
4.01139e-06
-7.18306e-06
0
-0.00634352
0.0165618
1.09683e-321
0.0716203
0.0115777
-1.34755e-11
-1.39657e-07
0.116362
0.0825003
-3.50787e-322
0.0181651
-0.0777697
0.000121294
0.133186
-0.000233104
-5.22605e-10
0.0146407
-1.76234e-10
-0.0564901
-0.025104
0.0107612
0.0516355
-0.0322025
0.0454493
0.0364368
-1.99788e-05
0.0363759
0.0205693
0.0205693
0.0011713
0.0178043
0
0.0498606
-0.00016087
-7.0181e-11
0.000592389
2.97623e-05
0.107231
0.00668026
0.0315576
0.00254287
-0.24052
0.0036615
0.0269975
0.0352362
-0.0186137
0.0391926
0.0402465
-0.00786613
0.0917147
0.0287289
-0.114018
-7.85939e-05
0.012037
0.000912421
-1.37961e-118
0.179754
0.00319339
-3.50349e-10
-2.85337e-07
4.50772e-126
0.00303187
-0.0605563
0.0226028
-0.0605839
-0.0570436
-0.0339878
-0.070938
0.0344348
0.000115005
0.0294135
-0.0365214
0.000912421
-8.02166e-07
-0.000343885
-0.0489925
-0.251916
0.000912421
0.121933
-0.16728
-0.0987046
-0.0533731
-0.0600284
-0.00560004
-1.92098e-07
0.0697379
-3.16619e-09
-0.0789043
0.000912421
0.0011095
7.90505e-322
0.000912421
0.000892423
0.0125471
-0.00014748
-0.0735647
0.0518429
-0.000233104
0.0155058
5.28624e-122
0
-0.0349417
-0.0774504
-0.0797897
0.114334
0
0.0170513
-0.00702931
0
-0.011833
0.0430368
0
-0.0826774
-0.0152977
-1.2992e-07
0.000912421
0.0611435
0
0.0133162
-0.0120936
0.0109096
-0.0516599
-0.0135027
2.91492e-124
-0.054539
-0.0339878
-0.0185933
-1.76234e-10
4.34778e-322
0.00710618
-2.07157e-05
0.0550267
1.49486e-156
0.0568861
0.0135497
0.000925152
-3.53767e-08
9.13947e-05
-1.3012e-07
-0.104664
-0.0742176
0.10092
-0.0145278
-0.0478543
1.10185e-06
-3.17028e-08
0.10632
-0.00376711
-0.0587263
-0.0892789
0.0036615
-4.45219e-07
0.0760779
0.342714
-0.0955705
-0.0228767
0.0140315
0.164024
0.00436162
0.0185417
1.58101e-321
0.00170637
-0.0909413
0.0826862
-0.000262874
-2.26639e-08
0.000912421
-2.03542e-06
-0.0682671
0.0240203
-4.13237e-06
5.48413e-322
0.141288
4.50772e-126
0.117458
-0.0116732
-1.3012e-07
-5.19637e-14
-0.0115979
-4.36393e-05
0.0803394
0.00245384
-0.0153787
0.041523
-0.000109578
-0.000265076
0.000612664
0.08419
9.54584e-122
0.013177
-0.057729
-0.2727
0.0378088
1.02848e-05
0.0160153
0.01583
0.0205693
-0.0516599
-4.67573e-07
-2.23849e-06
0.0306304
0.000912421
0.0115777
-0.00349923
0
0.477184
-8.05283e-05
0.00303187
0.0943263
-0.0689076
0.0181651
0.154339
-0.066691
0.0117279
-1.16208e-08
0.0462697
0.0222295
-0.010378
0.00352777
-0.125336
-3.50349e-10
-0.0695947
0
-0.0291414
-0.0878169
-5.6536e-14
-0.0313386
-4.67573e-07
0.014542
0.287352
-0.00283923
0.100565
0.000912421
-0.144695
-3.54194e-07
0.00201601
0.0127641
0.0309695
0.00442377
-1.92098e-07
0.0320743
-0.0284159
-0.105203
4.50772e-126
-0.0548595
-0.0516207
0.0359266
-0.00283923
-7.00794e-09
0.00416115
0.0115777
0.0416495
-0.0448274
0.105352
-0.000146046
-0.0683615
0.0645905
0.00820758
0.0703404
0.0115777
0.0393371
-2.74455e-09
-4.13237e-06
-4.45971e-05
-9.45881e-07
-4.37977e-07
-0.0953288
0.158686
-0.000190975
0.0103253
0.0386826
0.0422485
0.0180505
-0.0564901
-0.0395148
0.000912421
-0.00846973
-1.76234e-10
-4.67573e-07
-8.32452e-06
0.0194047
0.0159221
0.125578
-7.18306e-06
-0.00598169
0.0603706
5.33591e-322
-0.0109376
-0.0740692
-0.00743257
0.0139627
0.0194047
-0.0794032
-0.0608676
0.0073399
-1.2992e-07
0.0582543
-0.0238972
0.0792246
-0.0579961
-0.0191104
-0.000150628
-4.18829e-118
0.0115777
1.04616e-263
0.0495811
-0.0440765
-0.0622685
0.0016088
-0.0183706
-0.000233104
-0.117875
-0.0220643
-0.0443156
0.0394657
-0.0300675
-1.10187e-05
-0.00199584
0.0225636
0.000912421
-7.21514e-06
-6.19318e-06
-0.00634352
0.0273473
0.130866
0.127845
4.30421e-124
-0.0292943
0.00416115
-0.0258224
0.0794638
0.128131
3.71792e-124
-4.67573e-07
-1.29872e-222
0.0221929
0.00193675
-0.000106626
0.0387604
-1.87496e-05
-0.0452054
-0.0957393
0.0474078
-0.076267
-0.0164421
-0.00588985
-5.01686e-13
-3.10201e-08
-0.0387423
3.71792e-124
-1.38057e-118
9.54584e-122
-0.038764
0
0.0294995
0.01583
0.0522916
0.0811065
-1.73514e-08
0.0194047
0.0734691
-0.00702931
0.106948
0.000912421
-0.039241
-8.22764e-13
5.5128e-05
-0.0244452
1.2864e-05
-1.87496e-05
-0.0025606
-8.22764e-13
0.0517223
0.084582
-0.0672998
-0.014678
-7.85939e-05
-0.0194702
0.033446
-2.85337e-07
1.09683e-321
-0.0252713
0.102856
0.120891
-1.39657e-07
-7.81516e-09
0.0289981
-0.0904483
0.0457061
3.74584e-125
0.487457
0.0510445
-4.67573e-07
-5.06629e-13
0.0132396
0.0361188
0.0969984
0.0120197
-0.0517615
0.00254338
-9.42252e-08
0.0164736
0.0250589
0.0543694
0
0.0067782
0.0830225
-0.0871115
-6.19318e-06
-0.092137
0.018541
-0.0443156
0
0.0356035
0.00624603
-6.48654e-06
0.109357
0.0522916
-7.85939e-05
0.0581929
0
0.0181651
9.54584e-122
-0.0114331
-4.52918e-07
-0.00454787
0.0257517
-0.020122
0.0170481
-0.133051
-1.93913e-08
2.91492e-124
-0.0107763
-7.73611e-05
0.0335699
0.0361884
0.0215045
0.0344742
0.223578
0.00712407
-0.0536091
0.28578
0.00254338
-2.74455e-09
-3.10201e-08
0.0158264
0.0508846
-3.29198e-07
0
-1.2992e-07
-0.0152837
-0.100247
-0.0186425
-0.0275744
-0.102599
0.0546439
-0.0197826
-0.0525916
-1.09403e-09
0.0799418
0.00437038
-0.0316539
-1.25669e-19
0.00537825
0.0596193
-4.07381e-08
0.0764985
1.04616e-263
0.110383
0.0552939
-8.22764e-13
-0.139911
0
0
-6.19318e-06
0.007438
6.76493e-05
0.0205693
0.0180505
0.0240799
-5.98814e-07
-8.99717e-09
0.274471
0.00101063
-3.17028e-08
-0.044948
0.000753911
-0.0326416
-0.0782026
-0.054907
0.00222511
0.00710618
0.00826922
-2.0627e-06
0.0400295
-0.0229478
-0.0932556
-0.0577765
-0.00283923
0.0014811
-0.00944864
-0.0135262
-0.0142621
-1.56122e-05
-0.083799
-0.000923295
-0.065417
0.035424
-5.05262e-05
-0.156604
0.0571058
-0.0057352
0.0189412
0.00254338
-1.38057e-118
0.188361
-0.0164483
0
-0.00598181
-4.39264e-05
0.00118484
-0.151713
1.31413e-06
0.0244507
4.08266e-06
-0.367054
0.00709965
-9.87464e-05
0.0448174
-0.0425453
0.121046
-0.0130899
-0.000146573
0.117612
-4.39264e-05
-0.0314184
0.0240203
0.0515164
0.0036615
0.185118
-0.0345915
-0.180995
-0.0983694
-0.0117958
0.00505139
0.0756096
-3.71877e-13
-0.057102
0.0181651
9.28843e-322
-0.00676935
-0.0947112
0.120932
0.0801926
0.0190044
0.2466
0.00776436
-0.0941427
0.0297115
-0.185259
-0.0644286
0.0558108
0.0655181
0.168165
-3.50787e-322
0.115781
-0.029182
-0.0586393
0.0185417
-0.0239372
0.000912421
0.0100525
-0.000146046
-0.0278683
-5.01686e-13
-1.31152e-09
-1.76234e-10
0.060023
-0.0722703
0.0484367
0.0036615
-0.0281418
-0.0778506
-0.0281383
0.00849133
-0.0439051
-1.25669e-19
0.0115875
0.00294261
-8.65393e-09
-4.36393e-05
-8.22764e-13
0.00108709
-0.00343441
0.0294215
-0.0182493
-1.87496e-05
0.0477508
-0.00702931
0.22319
0.0318411
0.0884345
0.00443333
-0.0602024
-0.0461407
0.028717
-5.19637e-14
-1.45846e-09
0.0845565
-2.4829e-06
-0.0423113
-0.0547208
-0.00762152
-6.48654e-06
-0.050576
0.0712445
-0.0863597
0.0160153
0.00149403
0.0103675
0.0885279
-4.67573e-07
4.50772e-126
2.73653e-05
-0.00435875
-0.00565496
-0.0058384
0.000912421
0.178697
-4.52918e-07
-0.0179187
-2.26639e-08
-4.31578e-06
-0.0227775
-1.46243e-321
0.049822
-0.0224294
-0.0496991
-0.0929899
0.00281
0.0115777
-0.0116732
-0.0105457
0.0115777
-4.68427e-09
-4.52918e-07
-0.11303
0.0383364
-0.0152977
0.00131149
0.0568861
-0.0320589
-0.0547208
0.000108484
0.0647013
-0.0149173
-0.0665604
-6.0606e-05
-8.22764e-13
0.225869
0.0872436
-2.7238e-15
0.0187777
0.0934744
-0.0725134
-9.42252e-08
-0.0599785
-0.0401381
0.00281248
0.107231
-0.0633273
0.000912421
1.09683e-321
-1.39657e-07
0.0018465
0.0127641
-5.40068e-07
-0.0597547
-0.000149325
-0.0579456
0.0552723
0
-0.0272407
0.00820758
0.0693366
0.136759
-0.0418181
-4.39264e-05
-0.000136465
-0.0648253
-0.0682965
0.0185417
-0.118014
-0.0835393
-4.89988e-233
-8.05283e-05
0.0981275
-0.0665625
4.34778e-322
7.90505e-322
-0.0802399
-4.67749e-07
0.155271
-6.19318e-06
-0.0695637
0.0025817
-5.5765e-16
-5.19637e-14
-0.00212044
-0.0349837
-1.25669e-19
0.0155465
-0.114631
-0.00294585
-9.45881e-07
0.00649501
0.00587943
0.0134885
-0.0608676
0.000998657
0.0344316
-0.0589727
0.000912421
0.000171047
-0.0590205
-6.97117e-08
-0.0301637
0.0036615
-0.000264455
0.00527896
0.0036615
0.217217
0.0179206
-0.0536091
0.0369939
0.000618943
-0.0558524
-0.115452
0.0119894
-2.39084e-10
-0.0590333
0
-0.0383144
-0.0817892
-0.0568336
-8.99717e-09
-0.0821206
-1.19618e-09
-0.038764
-0.0758386
0.0187812
-0.0133561
-0.15535
-0.0304488
-0.0186425
-0.0607342
0.0194982
0.229306
0.00104736
-0.0149855
0.0137386
-0.00944864
0
0.0150848
-0.020122
0.0171688
-0.081465
-0.044948
0.0464312
-0.0617156
-0.0217255
-0.0391835
0.0845565
0.0034393
-0.0473208
-0.0810223
0.0528336
0
-0.00964771
-0.00702931
-0.126496
0.0609114
0.00129525
-0.103757
-1.2992e-07
-1.3012e-07
0.0393372
0.0568086
0.143288
0.016899
0.00776361
0.0135495
-0.000136465
0.0291361
0.000101161
0.0225327
0.0180512
0.0293284
-0.0212173
1.60571e-321
-8.22764e-13
-0.0238424
-3.00506e-05
-0.091965
4.50772e-126
0.0107608
-1.97427e-05
-0.0865209
0.0527648
0.0543694
0.0231613
-0.0169158
-0.0345806
-0.093057
0.00573517
0.017999
-0.0122011
-1.2992e-07
-0.082562
-0.0665604
0.0126776
-0.113044
-0.0286593
-1.87496e-05
-0.0175948
-0.0174655
0.0107612
-0.0023526
0.00178554
0.0543694
-5.19637e-14
0.12815
-0.024158
0.134079
0.0627787
-0.0316543
-0.13571
0.0147929
0.0185413
-0.0410998
0.0184018
0.00710569
-0.00753155
0.13459
0.0115777
1.80057e-124
0.0603706
-0.0073396
0.0743224
0.035236
-0.0292773
-1.61554e-08
0.00649501
-1.13524e-08
-1.76234e-10
0.0066913
0.0036615
-0.130783
-0.0742176
-0.000183632
-0.00944864
0.00200236
-0.0060672
0.0391586
-0.0241583
0.0235197
-2.20773e-06
-0.0961738
-0.0133561
0.138036
-0.0437304
-0.111818
0.035424
-4.53051e-07
0
-0.00683577
0.0318198
0.00587942
0.0229975
-0.0133561
1.04616e-263
-1.33398e-322
-0.00944864
0
0.055641
0.142887
0.0145789
0.0220489
0.0609866
-0.0038457
-1.30942e-05
-0.0369863
-0.171053
-3.50787e-322
-0.00104312
0.0115777
-0.0382414
0.044061
0.018368
0.000320573
0.0440595
0.129338
-4.37977e-07
0.0573387
-0.0106538
-3.16173e-12
0.0734682
0.0117922
-3.52984e-10
0.0310991
-0.0286593
0.0314309
-4.53094e-07
0.000196007
-1.16255e-07
-0.0786049
0.0522531
-1.39657e-07
0.0226028
-0.00014748
0.0181651
0.0173945
0.00922159
-4.38815e-11
0.410456
0.0714998
0.033668
-0.00786648
-0.0878603
0.0673424
0.0171328
-0.0135797
-1.19377e-09
-0.0424137
-3.46286e-08
0.0664286
-0.183733
-1.26278e-07
0.0141004
0.000618943
0.0449098
0.0488629
-0.0637489
2.91492e-124
-0.0170789
0.0115139
0.00776436
-0.0890373
0.000912421
-2.75673e-07
-0.0162743
0.0294658
-5.13132e-05
0
1.14129e-321
-0.0580169
-0.0133561
0.233513
-0.0755337
0.00587943
-2.26639e-08
0.0759836
-0.0976134
-0.110848
-1.2992e-07
-0.00376711
0.00691071
-4.67573e-07
1.04616e-263
-4.39264e-05
0.0714997
4.64422e-322
-0.0618736
-1.72453e-05
-1.7231e-07
0.0964449
-0.000233104
-3.45426e-09
0.00359751
0.0494004
-0.103856
-0.00873082
0.0626942
-0.0769377
-0.0406148
-0.044042
-1.16255e-07
-0.0023526
-4.67573e-07
0.107231
0.0525209
-0.0982699
-1.29872e-222
0.09041
-3.71877e-13
-0.0177125
-3.50787e-322
-1.25669e-19
-0.158913
0.0156719
-0.0751005
0.0454736
-0.00205944
0.000343016
0.174082
0
-0.0106663
0.104419
0.0261031
0.0171684
-0.00259696
0.035236
0.157441
-0.34571
-5.40068e-07
0.0764985
-3.46286e-08
-2.55375e-10
-0.0379339
-0.0230634
0.0747138
-5.92075e-13
0
0.0691955
-0.016478
-2.26639e-08
0.047541
0.029562
-0.0660179
0.000541321
-0.00510362
0.0127641
-0.0677824
0.00333234
-0.0533195
-0.0338884
-8.99717e-09
-5.06629e-13
0.0110156
0.0841776
-0.00157945
-0.0159627
0.0391395
0.00149549
0.04378
0.0170382
5.33591e-322
-3.00506e-05
0.0531265
-1.56122e-05
-0.0792563
-0.059031
0.0842143
-0.00714027
-0.00702931
0.194826
-0.00702931
0.000912421
0.00174587
0.0947112
-0.0100511
0.0159221
-0.0437304
0.0126321
0.0438085
0.0181651
-0.000132675
0.139486
-1.31152e-09
-3.46282e-08
-0.0222095
-1.56122e-05
0.0273447
-2.4829e-06
0.0170376
-0.0806552
-0.0945401
0.0115777
0.187454
0.0664286
-0.0722703
0
-0.124052
0.0502992
-0.0307414
-0.0150358
0.0992716
0.0239556
0.00047983
-0.0737274
0.0134701
-0.00634352
5.33591e-322
-0.0251988
0
0.0140414
-0.0763568
0.00624603
0.00039381
-0.0145278
-5.03242e-43
0.0297115
-1.10177e-321
-0.0293978
-4.67573e-07
-0.00666272
0.110522
-0.0197776
-0.0133561
9.56384e-122
-0.0149799
0.049822
0.0243874
0.0414754
-1.16255e-07
0.000278659
0.0495904
-6.16516e-14
0.000398034
0.0115736
-0.0416495
0.0848886
-0.000999367
-0.0617196
0
0.0398107
0.0558844
-0.0793017
0.000425901
-0.000186911
0.030667
-0.02713
-0.0452325
0.121301
-1.2992e-07
-0.0793836
-0.000106626
-3.11857e-09
0.0738421
0.0385217
0.036565
9.54584e-122
0.000144032
0.0743156
0.122517
-3.00506e-05
-0.0657985
0.0156719
0.00844469
-8.75332e-14
-0.393019
-8.65393e-09
-0.00199584
-5.17589e-12
-0.082191
-5.55874e-09
-0.000187492
0.00416115
0.0590718
0.0180587
0.00259225
-4.07381e-08
-1.16255e-07
-7.21514e-06
-1.87496e-05
0.0593739
0.084582
0.0334899
-1.2992e-07
0.00228819
-0.0279715
0.00831827
0.0555694
-0.0281883
-0.0135262
-0.0939071
0.0029643
0.0730242
0.12986
-0.0133561
-1.2992e-07
0.00443333
0.0603706
-0.0531679
0.00710618
-0.0123182
0.0228233
-1.39061e-05
0.0183323
0.0788088
-0.0361207
0.000697149
0.044061
-0.00385029
0.0347823
0
0.0124916
-0.12567
0.0149729
0.0701729
0.0139647
0.0549196
-0.0881347
0.178697
0
0.0152469
-0.0598753
0.0086417
0.0506432
-1.76234e-10
0.015085
0.0389543
-1.15358e-06
-0.0213263
0.0891953
-0.104546
-0.0490426
0.311394
-0.0564901
-1.25669e-19
1.18576e-321
0.0171688
-0.0757066
0.00894981
0.000912421
2.31401e-05
-0.0121703
0.000286131
0.0241322
-0.12567
0.000912421
0.0277915
0.043056
-0.0293923
0.0279598
0.0297115
-5.5765e-16
0.0318375
0.0359946
-0.000265076
0.0123354
-0.0191496
0.0294658
-0.011243
0.0285904
0.00612147
-0.00435875
0.0681748
-8.22764e-13
0.0204622
-0.0125917
-0.00376711
0.151034
0.25005
0.033472
-0.00980874
-0.0115979
-6.0606e-05
0.0318522
0.052236
-0.0663616
-1.31152e-09
-0.0740722
-0.00899335
0.0191108
0.0361185
0.044061
0.0405392
0.000492275
0.026941
0.0334899
-0.000112119
0.00326306
0.0207893
-0.0837159
-0.101274
-0.0693479
0.00646651
0.0180505
0
-0.0322613
-5.6536e-14
-0.0569225
0.0352017
0.0394037
0.0145037
-0.0537621
-3.29198e-07
-0.0402676
0.0111358
-0.000110414
0.0391586
0.00747506
0.0142475
-1.2992e-07
0.0142475
0.157548
0
-0.0162135
0.205232
-0.0145278
0.081031
1.13141e-321
0
0.0447965
0.000912421
-0.00682779
2.30235e-321
-0.0437842
-0.00510362
-3.29198e-07
0.0156719
-0.000263141
3.71792e-124
0.0430375
1.49486e-156
-1.91955e-07
-0.00786613
-0.00458883
0.218806
0.018368
0.00190133
0.0160641
-1.52453e-06
-0.000147503
0.153986
0.0401845
7.90505e-323
0.0385201
0.340107
0.0412872
-0.0497337
0.0287289
-0.0684105
0.0133268
-1.09403e-09
0.10012
0.00480236
0.0615612
0.0201291
-0.0235068
0.0480826
-7.03295e-08
-8.55718e-15
-0.0561744
0.0196103
0.000912421
-0.103751
-5.86821e-08
-0.000264443
-0.0372986
0.0795466
0.0410644
0.0622095
0.102166
0.0764985
2.51257e-05
0
0.0573439
0.052637
3.33641e-06
-0.051603
-0.0101077
0.0137737
-4.67573e-07
0.0318411
-0.0280075
-0.00199183
0.0239435
2.97623e-05
0.0150905
-8.65393e-09
-1.38057e-118
-1.2992e-07
0.193073
-6.02197e-271
-0.0281204
-0.0305931
0.133588
0.0849375
0.00511789
-0.0747346
-0.129082
-2.1778e-06
9.54584e-122
-0.062062
-0.0172366
-0.00376711
-0.0266593
-5.06629e-13
0
-4.52918e-07
0.0388601
0.036118
0.012729
-0.0505834
0.0474136
0.104676
0.0691603
-3.62516e-05
0.000912421
0
2.91492e-124
-0.0404675
-5.13132e-05
-0.000264908
-4.05343e-263
0.0151114
-0.00513933
-5.98814e-07
-4.95977e-08
-0.0663616
0.0795017
-2.26639e-08
0.0473593
-5.05262e-05
0.00762386
-0.00014748
-0.0592349
-4.67573e-07
0.0361185
7.68649e-05
-4.32746e-15
-0.00899335
-5.17589e-12
-0.0278683
0.0463421
-0.0378096
0.0483293
0.17758
-0.00972443
0.0549471
-5.17589e-12
0.158915
-0.0981741
-2.92158e-06
0.0473948
-0.0585107
-1.13493e-07
-3.21279e-06
-1.35935e-06
-0.0353646
-2.03542e-06
0.0258776
0.00709954
-4.45003e-117
0
-0.0871933
0
0
0.011436
-2.4249e-07
0.0294658
0.000220799
-0.0124665
0.000115005
-0.0398661
-0.0589727
-3.71877e-13
-9.05549e-07
-0.107686
-0.0227662
0.0029643
-0.0933164
0.0073399
0
-7.85939e-05
0.0160153
0.0453323
0.0393372
0
-0.0976273
-0.0255862
0.243725
-0.100435
0.0764985
-0.0252794
-0.0525916
0.0998485
0.0181651
-1.87496e-05
-4.50501e-05
0.0841438
0.0316522
0.0846768
1.80057e-124
0.000926962
-7.04854e-07
-0.0322796
-0.0365214
-1.93913e-08
-5.92075e-13
-1.76234e-10
-0.0412111
0.00201601
-0.10823
0.0664286
0.0462667
-1.39061e-05
0.0134885
-0.00356113
-8.65393e-09
0.126587
-0.00753155
-0.045124
0.0095764
1.14748e-05
0.0422969
-0.0151315
0.0180505
-0.0438547
-0.0773818
-6.9178e-05
-0.0994706
-1.36173e-05
0.0299614
-0.0583528
7.32089e-05
0.0702424
-0.119072
-1.25669e-19
0.00426714
0.0100525
-1.2992e-07
-0.047135
0.0522916
0.00894526
-0.0729936
0.00691071
-0.00376711
0.108444
0.157665
-0.00598169
0.0191954
-0.163536
0.0969984
-0.0436385
-0.0834459
0.0103675
3.12777e-278
0.000678514
-6.18241e-11
-0.152715
0.0156719
0.0643166
0.02664
0.235954
0.0881829
3.71792e-124
-0.0418027
-0.0068973
-0.0640739
-3.21279e-06
-0.000235072
0.0466504
-7.85939e-05
-0.129082
0.0813161
2.81617e-322
0.157965
-0.0662876
0.02055
0.224821
0.0115777
-0.0247477
0.00252947
-0.0397482
0.0276467
0.0259309
1.18576e-321
-5.17589e-12
0.0113991
-1.30942e-05
9.54584e-122
0.0175675
-1.16928e-07
0.0389724
0
-0.110963
-0.0471312
-4.39264e-05
-0.038556
-8.22764e-13
-0.0809986
0.198557
-0.0114331
0
0.0361185
7.32596e-125
0.00117751
-0.0601277
0.0294658
0.00710618
-0.0617156
9.54584e-122
0.00792832
0.0316522
-0.00233884
-0.0778506
-0.00016087
0.000171047
-0.0264738
0.0306373
7.32596e-125
0.0115875
-5.22605e-10
0.0239413
0.209026
-0.00560004
0.0436177
0.00423988
-4.74581e-07
-0.020122
-0.090643
-0.0559908
0.049617
1.09683e-321
-0.0648264
-0.0437842
-1.97432e-05
0.0990273
-4.67573e-07
0.0294658
-0.104897
-0.192976
0
0.0131351
-0.0573756
-0.0278683
-4.449e-07
-0.00571227
0.00412755
-0.000210602
0.0642644
-0.102697
0.0160153
-4.45971e-05
0.0528453
-0.0245786
0.000185942
0
0.0359649
-7.00794e-09
0.0886997
0.38717
-8.11149e-06
-0.00702931
-0.000106582
-0.00918977
0.0111735
9.54584e-122
0.0066349
-8.86222e-05
0.00178655
-0.0185543
0.00805077
-0.000110405
-0.0371039
-0.0647274
-4.48109e-29
-7.85939e-05
0.0674215
0.114207
0.03828
0.0155058
-0.0349912
0.00251028
0.0309695
-4.95977e-08
-0.0183706
-0.0481166
-0.0203344
-0.00702931
-8.65393e-09
-5.17589e-12
-3.78663e-05
-0.00598169
0.0441644
0.066691
-2.21752e-08
0.00415251
1.2864e-05
-0.0684319
-3.17028e-08
0.0534815
-1.39061e-05
-0.0308638
0
-2.23849e-06
0.0561029
-0.0462501
-0.00702931
-0.04634
-0.000110414
-1.46243e-321
-0.0337873
-0.0125102
0.0795896
0.0358509
-0.0903341
0.112047
4.30421e-124
-0.00847115
0.0610408
-0.0591984
0.051025
-5.60636e-10
-0.112516
0.00691071
0.000994054
-3.11857e-09
0.00742374
0.176142
-0.0168103
0.0426011
2.91492e-124
0.129548
0.521613
-0.129381
-0.0543908
0.00691071
-0.102943
1.04616e-263
-5.19637e-14
1.06688e-125
-0.00596894
-5.98814e-07
-0.044948
0.0781966
0.0122306
0.0036615
-1.36175e-05
0
-7.81516e-09
0.0034393
-0.130402
-0.000146573
0.0180505
0.000877344
0.0677319
0.0393372
0.0922769
0.122555
-0.013885
0.00416115
-0.147927
0
0.000220799
0.0364368
0.0344348
-0.117071
0.0211609
0.131385
0.0297463
-0.170564
-0.000106626
0.156105
0.131385
-0.0127497
-0.0335502
-0.0637053
0.0845103
0.0191108
-8.22764e-13
-0.0571201
-0.10116
0.0781038
-0.209884
0.0156443
-0.267912
0.086526
0.0036615
0.0156719
0.00258823
0.0885279
-0.0555172
0
0.0581929
-0.0135262
-0.0395761
0.0127641
-7.1376e-06
-0.0396097
-9.79573e-06
0.00416115
-1.97427e-05
-0.0386536
0.0529317
-0.000145329
-0.0749804
0
-0.0677824
-0.0571005
-0.0712233
-0.0049816
-8.32452e-06
-0.0186429
-0.240149
0.0840979
0.0471
-1.46243e-321
-0.0898658
-5.05262e-05
-1.3294e-10
0.0315019
-0.090643
0.0022484
0.0229795
-0.00469621
-0.0212003
-0.071562
-0.0186425
-4.59806e-08
0.0469097
0.00416068
-0.0611682
-0.0821611
0.101455
-4.07381e-08
0.141787
-0.00157945
0.0614113
0.000697149
-3.50787e-322
0.000155075
0
-0.0879464
0.000171047
0.00949786
-1.29872e-222
-0.123776
0.00892448
-0.150942
0.0119894
-1.2992e-07
0
0.0159221
-1.70479e-06
0.0134885
-0.102091
0.069595
0.0334114
0.0135495
-8.32452e-06
-0.00014748
0.00349761
-0.00557367
4.50772e-126
1.0573e-321
-2.21752e-08
0.000912421
0.00303187
-0.0196189
0.0686245
-0.0140682
0.106708
0.00038411
0.00174588
0.141335
0.00894526
0.00672391
0.154532
0.0561029
-0.0349369
0.0979325
0.0513601
1.97862e-07
0.0180504
-0.000145329
-1.76234e-10
0.0668342
-0.0735647
-0.082285
-0.000253423
-8.75332e-14
-0.0511971
-5.29107e-05
-2.92158e-06
-0.00264326
-7.0181e-11
0.0418421
-1.76234e-10
-3.71877e-13
-1.10521e-05
-0.02713
-2.26639e-08
0.0036615
0.0420144
0.0638181
-0.0520888
-5.5765e-16
-9.83295e-05
3.71792e-124
-0.0418027
-0.00660714
-0.00249423
0.0851048
-0.034021
0.0036615
-0.021599
-2.89261e-06
-0.241858
-0.020122
0.0512104
-8.99717e-09
-0.0665604
-0.0261043
0.0315977
-0.0194694
-0.000246969
0
0.0045292
-0.020601
-0.038764
-0.0686866
0.0180505
-0.0186425
0.224335
-0.0339878
-0.0554195
-0.0973969
0.035236
0.035596
0.0009124
0.0156663
0.0123174
-0.0834156
-3.45426e-09
-0.0324564
0.0107612
0.000912421
-0.0229162
0.200128
0.0231474
3.35818e-05
0.0714998
0.00160794
-0.000112119
-1.16255e-07
-0.0185464
-3.00506e-05
-0.0114331
0.00718325
3.16312e-292
0.0135497
0.108201
-0.00157945
0.0579755
-0.0815427
0.0361291
-0.026058
0.147233
0.0577594
0.000903678
-0.0114331
0.016899
0.0122827
-5.03242e-43
0.106694
-0.00964771
-5.40068e-07
0.0182535
-0.00329813
0.0463969
0.0399368
-2.03542e-06
-4.11476e-05
-0.00343441
0.0904843
-0.0389834
-0.0023526
0
0.0261031
0.192361
4.65764e-05
0.0850837
-0.0557735
0.147318
-0.00289866
-8.05283e-05
-0.024701
-3.74395e-07
-0.132772
0.027923
0.0393008
-0.0281383
0.0873313
7.90119e-123
0.0368553
-0.0513779
0.027923
0.0159847
-5.76153e-12
-2.79869e-05
-2.55375e-10
0.00912564
0.159277
5.69019e-05
0.00824091
-0.0161458
0.0317632
-0.020122
0.0102573
0.0444193
-0.076845
0.00103598
0.0360579
-8.1659e-09
0.0036615
-0.00144032
-0.0386536
0.000171047
-5.55525e-08
0.0173895
0.000912421
0.00467453
-0.00388605
-4.89227e-06
0.00672391
-0.0393487
0.0216909
-1.73514e-08
0.0156443
-0.00598182
-5.01686e-13
-0.00950232
0.00551727
0.0917147
-0.000930943
0.013177
1.14748e-05
-0.0771845
0.0195678
0
-0.047434
0.00426714
-0.0405505
0.0424532
-1.98434e-07
-0.110306
-0.139328
0.0029643
-0.00978943
-0.0189819
0
-0.0924189
0.207577
-0.0417464
0.0314482
-0.128588
-3.00506e-05
-4.62243e-113
0
0.139155
-0.00702931
0.00527379
-0.0350527
-3.00506e-05
0.0622273
0.0841788
0.0252317
-0.134421
-9.24041e-09
0.0726105
-0.13348
-1.47226e-06
-4.07381e-08
4.01139e-06
-0.294493
0.0121349
0.0526829
0.063818
2.73653e-05
-0.000216044
0.0316469
-0.0470433
-2.4249e-07
0.0100525
0.0036615
0.00566608
0.0117922
0
0.000289504
-0.000264443
0.0845103
-2.74455e-09
-6.19318e-06
-5.22605e-10
0.0306304
-0.0150157
-1.81527e-05
-4.67573e-07
-5.69846e-07
-2.79869e-05
-5.65823e-07
-0.0320589
-0.0984929
-0.0208931
0.00691071
0.0139112
3.71792e-124
-0.0209635
-5.17589e-12
0.129321
-1.29872e-222
-0.0210686
-0.246007
0.0220435
9.54584e-122
0.0472852
0.0207893
0
0.018779
0.00713547
0.0870679
-1.25669e-19
-0.112567
-3.77572e-06
-0.000210602
-0.0150568
0.00408255
-0.000264487
0.0361185
-5.03242e-43
0.0605905
-1.30942e-05
-0.00976842
-0.030934
-0.000245223
0.0316451
0.0156553
2.91492e-124
0
-0.0302331
-3.10201e-08
-0.0323803
-0.0798094
-0.0404187
0.0475717
0.00309955
0.00807957
0.0869193
0.00205584
2.91492e-124
0.00112577
-0.136962
0.0624457
2.91492e-124
2.73653e-05
-5.59502e-12
0.0205792
0.0270097
0.0358509
0.0205038
0.0788253
0.0158299
-0.0361896
-1.87496e-05
-0.0173021
0.0542917
0.113973
-0.0231809
0.00656967
0.0495904
-0.00383443
-1.00238e-10
-0.0492736
0.0219603
-0.0601114
-0.0674189
-0.000931362
-0.0452321
4.74303e-322
-0.111819
-0.0256718
-0.0133561
0.0341087
0.0134885
-5.03242e-43
-0.00257009
1.59073e-125
-0.182707
0
-5.08678e-12
-1.38057e-118
0.00106013
0.000912421
-0.0058384
-7.45536e-09
0.0552342
-0.0365214
0.0696556
0.0143572
0.142654
0.0600342
-0.0637674
-0.0179283
0.0157837
-0.00660512
-3.12375e-09
0.016899
-2.23612e-07
0.00359751
0.0036615
0.0462667
0.0377987
1.18576e-321
-1.17345e-13
0.0695484
0.000343016
0.0036615
0.000900117
-5.03242e-43
0.0170382
-0.0697961
0.0552723
1.04616e-263
0.147421
-0.0183706
0.126933
-5.67622e-06
-3.50787e-322
-2.74455e-09
0.0171688
-0.0562812
0.074064
-1.26995e-05
-0.106001
-0.105066
0.0525649
0.0527593
0.29046
1.09683e-321
0.0343623
-3.10201e-08
-2.97887e-05
0.0152556
-0.129788
0.0558428
-0.0485258
-0.0569566
0
0.0245751
0.238554
-0.0808786
0.00968779
-0.141285
0.032782
-0.0588294
0.0126321
0.106847
-0.000132009
0.151869
0
0.0271805
-0.100444
-0.00414282
0.0335967
0.000912421
0.0222087
0.0190763
0.124151
-4.48109e-29
-4.39264e-05
-0.0634828
0.00102053
0.0250304
-0.103503
-0.416535
0.11129
0.0523191
0
0.0107612
0.0184018
-0.0332768
-8.55718e-15
-0.00702931
0.0611435
-0.000231324
0.0254566
0.0241322
2.05576e-05
-0.0689076
-0.0244272
-0.0948393
0.00959437
0.00638841
-0.011308
0.047092
-0.00702931
0.153236
-0.00376711
0.0134885
-0.11746
0.0160153
0.0619417
1.04616e-263
-5.22605e-10
-0.00729452
-4.68427e-09
0.0785054
0.00233573
0
-7.85939e-05
-0.0883082
0.0294658
-1.76234e-10
0
-1.06673e-14
0.0134885
-0.0272932
-0.00261986
0.0119894
-0.029551
0.00684422
0.0845225
-0.0101289
3.71792e-124
0.145066
-0.0976134
0.0036615
-0.00226152
-2.26691e-07
-1.00401e-05
0.137446
-0.0182493
9.54584e-122
-1.16255e-07
-0.135037
0.0103925
0.0207893
-0.0156886
6.43346e-05
-5.82837e-07
-5.57928e-08
-2.26639e-08
-0.0197053
-5.76153e-12
-8.05283e-05
-0.0216225
0.096653
0.0171328
0.0095764
-4.32746e-15
-0.0463496
-0.11327
3.90312e-322
-0.0121245
-0.120346
-4.05343e-263
0.121171
-1.76234e-10
0.0776965
-0.015713
0.0465594
0.0011095
9.54584e-122
0.0151114
-4.13237e-06
-0.0330419
-0.0501336
-0.076845
-1.93913e-08
0.0366958
-4.05512e-06
-0.0884909
-0.00522862
-0.123664
-0.0546303
-0.044042
0.000912421
0.0114443
-0.000110405
-0.00411934
0.0174428
5.03681e-124
0.136339
-3.29198e-07
0.0336671
0.0383364
-0.0320863
-0.00260831
-0.0320589
-1.76663e-07
0.0618513
-0.0365214
0.000603812
0.040256
-0.0281383
0.000912421
0.10456
-0.0230961
-1.54946e-05
0.0018465
-0.0571858
9.54584e-122
-0.0556824
0.00457375
1.49486e-156
0.170988
0.00416115
0
0.011436
0.0151114
-0.00964771
0.00606822
-0.0349376
-0.0682168
0.0215045
-0.00650992
0.0405067
0.0901431
-7.8007e-12
-0.0953288
0.0811023
-0.0241466
-0.00786613
0.0196579
0.0126321
0.000912421
0.00326306
0.0318522
0.0171684
0.116362
0.0566966
-0.0918517
0.0647185
-0.0131182
-0.037063
0.0115777
-7.12485e-07
-0.0464122
0.0185417
0.254918
-8.99717e-09
-0.0320589
-5.76153e-12
0.0997903
-3.11857e-09
-0.136643
0.0360795
0.0178043
0.0314047
-0.0236427
-1.29872e-222
0.205369
1.18576e-321
0.089861
3.45723e-05
0.0179563
-0.176132
0.00955803
-0.0235744
0.0474078
-1.3294e-10
0.0497266
0.0036615
0.0495904
-0.0873194
-7.04854e-07
7.32596e-125
0.0345584
4.74327e-05
0.00393301
-0.208715
0.0220318
-0.050699
-2.26691e-07
-0.0326416
-0.029124
0.0276467
0.0865463
-2.39084e-10
-0.00458883
0.0134885
-1.23992e-05
-0.0492212
-0.0717526
-1.3294e-10
-0.0429106
0.00254338
-1.06673e-14
0.00145047
0.0334727
-0.0128136
0.0134885
-0.023737
0.0318411
0.000912421
7.32596e-125
-8.75332e-14
-0.0241178
1.1966e-124
0.0662663
0.0487433
0
-4.13237e-06
-3.59928e-06
0.0160153
-0.113247
-1.76234e-10
-0.159959
2.91492e-124
-0.0569272
-0.0569566
-0.0312807
-0.00361304
-0.0238977
-1.31119e-262
-0.0133561
0.00449312
-8.75332e-14
0.000912421
0.0866326
0.0430736
-0.0350527
-0.0328885
0.0318522
0.0662663
0.00668026
0
0.0103925
-0.0508359
-0.00501123
0.0398962
-0.0782183
0.16115
-0.008027
0.0835974
0.0178043
0.0734691
0.120751
-9.54326e-12
-0.0506751
-2.26384e-13
-0.0116732
-2.36343e-07
-0.136951
0.0510445
0.00587943
0.000150627
-4.36393e-05
-0.000187492
-0.032537
-0.0835382
0.00826474
0.00587943
-0.0178983
0.0115777
0.000912421
0.021933
1.80057e-124
0
-0.0529991
-0.0505238
-3.13178e-08
0.000912421
0.00254739
0.0328757
0.0527921
0.00981052
0.0226028
0.101095
-1.71308e-10
0.0221955
-0.0513778
-0.222819
0.0805529
-3.10201e-08
-1.36173e-05
0.0036615
-0.0324748
0.016899
3.55136e-05
-0.0194702
0.0508986
0.0344348
-0.0716494
0.0220512
0.117122
0.000912421
-4.07381e-08
0.0326701
0.0171328
-0.0124665
0.0220498
0.020928
0.0115777
0.0115777
-0.020122
0.0412234
-0.0212332
-0.0446291
-0.00419647
0.000697149
-2.07555e-06
0.000912421
-7.0202e-07
-0.373935
0.181561
-0.103757
-0.0149183
-0.0468488
0.0609894
-4.45971e-05
0.119707
-1.29872e-222
0.00756126
0.108711
0.0172813
-1.3294e-10
-0.018472
-0.00774766
0.089717
-6.16516e-14
-0.0437375
0.0156443
-0.0343081
-0.0592607
-0.133537
-3.50787e-322
-0.0189502
-0.0023526
-0.00702931
0.000185942
0.0912167
0.000121294
0.0218321
0.0395684
-0.024701
-0.032335
-0.0180859
2.91492e-124
0.000892423
2.91492e-124
0.0659647
0.0206966
-0.0623911
0.16149
0.0163451
0.0294579
0.0414821
0.0674524
0.00290211
-0.0316539
-0.0642725
-0.0526459
-0.13392
0.000704731
0.018892
0.00825707
0.00252774
-0.0281383
-4.37977e-07
-0.0307795
-0.00522302
0.013177
-1.00223e-08
0.0534815
-0.0601036
-0.0316985
-0.0994706
-7.12485e-07
0.0273473
1.15723e-90
-0.000123223
-0.0106535
-0.00199584
-1.73514e-08
0
-0.0359224
-1.56122e-05
0.00553953
0.0282505
-1.29872e-222
-1.29925e-07
-0.0711278
0.0226028
0.0275852
-1.03952e-06
0.0751873
0.00289292
-9.87464e-05
-1.17345e-13
0.0242103
0.296781
0.0160153
-9.42252e-08
-0.0716494
0.0042213
0.0158105
0.000892423
0.0135497
0.0231613
0.0739105
0.00333235
-0.0148795
0.00309955
-0.000220429
0.0100525
0.00104736
-1.19377e-09
-0.0194702
0.0346428
0.0177944
-0.0497822
-0.0230265
-0.000136465
-0.0471471
-0.100713
-0.013505
0.000217988
-6.95724e-05
0.0178043
-0.014678
-5.19637e-14
0.0495904
-0.0443156
-2.1778e-06
-0.0455533
0.0220489
0.00224839
9.54584e-122
-0.0292773
0
-0.020122
-0.0286593
-2.26625e-09
-0.027183
0.0246761
-4.10212e-05
-0.164164
0
-4.05512e-06
4.01139e-06
0.00049353
-0.145676
0.0546914
-0.0145278
-0.0500793
-0.0247477
0.00556092
0.00326306
-0.0121703
-0.0603395
0.317161
-0.145018
0.0318411
0.0034393
0.0139443
-5.17589e-12
-1.22923e-06
0.0792046
0.0931262
0.0171688
-3.50787e-322
-0.130493
-0.0444199
0.00326568
-0.00695976
-0.000264443
-0.105591
-2.30847e-06
0.0495904
0
0
-0.0251699
0.0225327
-0.00714072
-0.0130899
0.00222511
-0.00491566
0.00763196
-0.00491566
7.60861e-322
0.00408255
-0.0659114
0.0116396
-0.0642594
-0.0217452
-0.0164596
-0.0278743
0.0161097
-0.0770662
-0.113729
0.0260493
-6.97117e-08
-0.00326601
0.0898371
-0.0778506
0.0156443
-0.0001267
-0.0133561
-0.076845
-5.03242e-43
0.0659348
0.138662
-0.0506532
0.0801619
-0.00713787
-0.0352373
0.0220332
-4.07381e-08
-1.3012e-07
-0.110262
-0.0798042
-6.97117e-08
-1.98434e-07
-1.97427e-05
0.00861199
-0.0490895
0.00645947
-4.0646e-06
0.00272383
-0.0504315
0.0472851
-4.39264e-05
0.0286116
-0.0297796
0
0.0164736
-0.0611943
-1.14271e-13
0.11316
0.0095764
0.0895044
0.0552186
-0.0278683
-0.0150358
-5.22605e-10
-0.0187314
-0.0138503
-0.0237818
-0.0821611
-0.109436
0.01037
-0.0180858
5.33591e-322
0.000804931
-5.55525e-08
-1.76234e-10
-0.149923
0.0843483
-0.076267
0.0114527
-0.000179424
0.0605672
-0.0237098
0.0223318
0.00245384
-1.16928e-07
-0.139307
-0.00702931
-1.2992e-07
-0.000188143
4.50772e-126
0.188361
0.16182
0.0616608
0.0113725
-4.36393e-05
0.00842605
-0.000132745
-0.0168291
-0.0240743
0.00104736
0.301486
0.0662663
-0.100348
-0.00361739
-5.76153e-12
0.000912421
-5.29107e-05
-0.0366322
-0.0227662
-5.06629e-13
-0.00463061
0.0126321
-0.333496
0.173837
0.0805601
-0.0145872
0.0197453
0.0268865
-0.000146046
-0.0585222
-0.00111229
-9.54326e-12
-1.888e-05
0.271298
0.0495017
-0.0772402
0.0655374
-1.59439e-05
-0.0537246
0.000940235
0.0115777
0.0303331
0.00710618
0.00416115
-0.0612476
-0.0571858
0.000311552
-0.0457498
-0.0314831
-5.65428e-08
-0.0773407
0.0019714
1.25867e-05
-0.00837689
-0.0332371
-0.000101094
0.00505139
0.000912421
-0.0660179
0.00129758
0.0320743
0.0192151
0.0155058
-0.02713
-8.22764e-13
0
0
-0.0901616
-0.000107896
0.0011095
1.04616e-263
5.33591e-322
0.0996685
0.00710618
0.0639143
0.0897214
0.00527896
0.0714998
0.0117918
-0.0868706
0.0151879
0.0273473
3.71792e-124
-5.06629e-13
0.00112357
0.0579921
-0.0342958
0.00820758
-0.0281383
0.00713547
0.0152595
0.0832321
-0.0556673
-0.0398526
-2.1778e-06
-2.0627e-06
-0.0030281
-0.0164421
-1.46243e-321
0.0308038
-0.0354287
0.139419
-5.71167e-06
-3.46286e-08
0.203084
0.0364368
0.000994054
0.0207893
-0.0536091
0.131385
-0.0193895
0.00826922
-0.00132282
-0.00322249
-7.00794e-09
-2.46375e-07
-0.111818
0.0622095
0.0314482
-2.98294e-05
0.0403167
-0.0285583
-0.0248548
-8.99717e-09
-0.00014748
-0.0366806
0.218806
-0.0599785
0.0269249
-0.00322707
0.00890901
-1.76663e-07
-0.326121
-2.39084e-10
-0.090643
0.121149
0.0169756
0.109397
-5.08678e-12
0.0500791
0.0115776
0.0959157
0.0178762
-0.0115751
0.000541774
-0.178995
-0.0608676
0.0067782
-0.00157945
0.0015916
0.0743156
0.213972
0.0386992
-7.376e-09
-0.129001
-0.000146573
-0.248935
0.0103675
-0.041805
0.00587943
0.00820758
1.18576e-321
-0.0153547
0.0220318
-4.07381e-08
-0.111819
9.54584e-122
0.078377
0.0352017
-2.29733e-06
0.0391586
-1.3012e-07
-0.0115979
-2.97887e-05
-2.26639e-08
0.0312019
0.0472851
-0.00854436
-5.19637e-14
0.0117907
-0.0133561
0.0134824
-0.0592278
-0.000179944
0.474765
-0.0224152
0.0185417
-1.76234e-10
-0.0446097
0.00120762
0.0604245
0.000912421
0.052791
-5.08678e-12
-0.0557735
0.0760828
-0.0438547
-0.0489334
-0.0601114
0.151381
-8.65393e-09
0.00587942
-0.0536091
-1.33398e-322
-0.0294324
-3.46286e-08
-0.0124934
0.0160153
-0.0703689
-0.0322838
-0.0458904
-4.05512e-06
0.109299
-4.95977e-08
0.000892423
-0.0497549
0.0115777
-0.0740692
0.0620585
-0.0505832
0.0369631
-0.0412442
1.97862e-07
-0.239798
0.518133
0.0959157
-0.0749804
-0.0255262
-4.67573e-07
0.000155075
-0.0350111
-0.0564901
8.33779e-05
0.0506224
-0.0258224
0.0206594
0.0306304
-2.36343e-07
1.66759e-291
0.00245384
0.0180205
-0.10102
-1.54946e-05
-0.114777
-0.000339737
9.54584e-122
-0.0957977
-0.00258075
-4.39264e-05
0.213469
0.0151114
0.108502
0.00587942
-0.135265
9.54584e-122
0.0738843
0.0550247
-0.047359
-0.00702931
-0.000112119
0.0969208
-0.138848
7.60861e-322
-1.38102e-14
0.159907
0.0224843
0.000912421
5.28624e-122
-3.50349e-10
-0.00343441
1.23809e-07
-4.67573e-07
-0.0194702
0.0462667
-0.0148541
0.0865834
0.0376164
0.0316451
-2.26639e-08
0.131385
-0.0313619
-0.0179432
0
0.0143574
-3.71877e-13
-3.87313e-09
7.90119e-123
-0.0585222
-0.119452
7.32596e-125
0.116362
0.00160279
2.91492e-124
0.0257517
2.91492e-124
0.0036615
-0.0301636
-0.0418005
0.0419324
-1.25669e-19
-0.0859762
-0.0344456
0.0833876
0.104538
-0.0705882
0.047092
-0.0154071
-3.46282e-08
0.0241322
-0.024937
0.0145789
-0.00702931
-0.025104
-1.3012e-07
-1.29872e-222
-0.0676901
0.00170637
9.54584e-122
-1.61554e-08
-5.07203e-06
-7.81516e-09
-9.64814e-13
-0.044042
-0.0179283
0.0318522
0.0320654
-0.0661727
0.0269982
-5.19637e-14
5.33591e-322
-4.05343e-263
-3.71877e-13
0.0158028
0.0968869
-0.0680566
0.0223738
-6.36003e-05
-0.136684
-0.00702931
-0.00702931
0.0229812
-0.0672268
-0.000106626
-0.0125518
-1.76234e-10
-4.55602e-07
-0.0579961
0.0180505
-0.000145329
0.020928
-0.0506532
0.0181651
-4.68841e-10
0.0181651
-1.09403e-09
-0.0881779
0.0767844
0.0139443
-5.03242e-43
0.0115777
0.0405392
0.0362574
-4.02535e-07
-1.19377e-09
0.0433727
-0.127609
-3.16619e-09
-0.0855858
-8.55718e-15
-5.55525e-08
-3.11857e-09
0.0580894
-1.10177e-321
-4.68427e-09
0.161608
-0.0642821
7.32596e-125
-3.46286e-08
0.0791468
-0.0578928
0.048653
3.12777e-278
-0.0207188
-0.0732344
-1.16255e-07
0.0134379
-2.4249e-07
0.0551717
-7.48506e-10
0.0600252
0.0171688
-6.02197e-271
0.130482
0
-3.74395e-07
0.0154048
0.00649049
-0.0235597
-0.0273752
-0.000106626
-4.22124e-05
0.032181
0.0319843
0.0424714
9.54584e-122
0
0.0143574
0.0432162
0.00316523
-0.146282
-5.40068e-07
-1.2992e-07
0.000154476
0.000912421
-0.0547208
0.0240132
0
-4.67573e-07
-0.000115108
0.0531651
7.36677e-05
-0.0452321
9.54584e-122
0.00563781
0.000761713
-1.02893e-09
-0.0705533
0.0323322
2.91492e-124
-0.0343105
-0.00959508
-0.0716226
-0.142395
0.0159221
0.0352017
0.177554
-0.0291414
0.0552723
0.0328757
0.000912421
-0.0743552
0.0359266
2.91492e-124
0.000220799
0.109469
0
0.10456
0.00485515
-0.0172146
-7.85939e-05
7.50447e-05
-0.00730459
-2.23849e-06
0.0146407
0.0947112
0.00820758
-4.67573e-07
9.54584e-122
-0.0665604
-0.00840597
-0.161565
0.00416077
-0.000264455
-0.0350527
0.0499795
0.0036615
-0.000101094
-0.0457498
-0.0665604
0.0472654
9.90936e-122
0.678419
-0.00341836
-3.57115e-05
0
-0.020122
0.212031
-1.29872e-222
0.0644907
1.25867e-05
-1.76234e-10
0.0578414
-8.22764e-13
-4.0145e-30
0.0036615
-0.0316004
0.00163592
-3.77571e-06
0.0241322
-0.0305931
4.34778e-322
0.0146407
0.00535724
0.0250229
0.123823
0.00784979
0.0504557
0.0220318
0.0015916
0.0114991
0.175165
-5.19637e-14
0.0318712
