-0.000194126
-1.59023e-13
-6.58567e-26
-0.0359929
-0.027386
-1.84185e-09
0.00169828
0.0017441
0.0067556
0.00169828
0.0110958
1.65018e-321
-0.00937257
0
-0.0214155
-7.77936e-05
-4.50755e-09
0.0186804
0.045024
-0.0221107
0.0173378
-0.00144621
-0.098989
-1.77249e-05
0.0157119
-0.0214155
-0.0131949
0.0224134
-6.94071e-05
-0.103208
0.00857172
0.00577282
-2.40597e-08
-3.46623e-13
-0.0192734
-0.000449885
-0.000107495
0.00177689
-4.99954e-05
0
0.087513
0.0157843
-4.5908e-11
-5.01893e-06
-0.00544468
0.0413822
0.0224149
0.00483989
0.00303735
-5.05544e-06
0.00865272
0
-2.84639e-10
0.0644548
3.79067e-150
8.05666e-23
0.0411477
0.012481
-1.14535e-08
0.031485
0.00405459
-0.0160316
-1.16105e-321
0.0340003
1.44267e-321
0.0282954
0.0647129
-0.0271906
-0.147194
0.00353578
-0.0909353
-0.00446842
-0.0454243
0.015567
0.0741437
-0.087169
0.00484179
0
-0.067209
-0.0140766
0.0558443
-0.0289004
0.0353519
0.0226171
0.0347254
0.193877
0.196736
0.0551882
0.0602602
0.0282954
0.0191466
-0.0293033
-0.148019
-0.0268237
-0.0382619
-1.4283e-07
0.0996043
0.0585182
0.0417274
0.0717138
-2.84639e-10
0.00405459
-1.31313e-12
-0.000118491
-4.43061e-06
-4.49939e-08
0.000461808
0.0145223
-5.01118e-06
0.157799
-0.119265
-0.020403
0.0271593
0.0498117
1.24999e-321
-6.82175e-09
-0.0387546
-1.02125e-07
-0.0682526
-0.0788724
-0.0283833
0.0197357
0.159746
-0.02274
0
0.00112997
-0.0757382
-3.67609e-07
0.0372274
0.00192814
0
-0.0446218
-0.0106658
0.0351717
0.0351884
-0.0217025
-0.0326265
8.05666e-23
-0.018653
-0.00910921
0.0564695
-0.0111738
0.0332898
0.18102
0.0349291
-9.77388e-10
-0.0236125
0.0332331
-1.37106e-06
0.139317
-0.0445641
-0.0226492
0
0.0119651
0.367648
-0.000449885
0.00392847
0.0050815
0.0246567
0.0551061
-0.0452293
-0.000110301
-0.159755
-0.0141989
0.00405459
-0.114274
-0.0447204
0.0162847
-1.64522e-05
-0.0298531
0.0466634
-0.0953155
-0.0578019
-0.000117263
-0.146738
-0.012361
0.0151935
0.0211406
-0.00488155
-9.87008e-08
-2.84639e-10
-0.0176064
-0.00941928
-0.0338736
0.0275122
-1.28286e-06
-0.0384188
0.136512
-0.00693782
-1.77249e-05
-0.0811588
0.0430115
-0.0761416
0.0411477
-0.00400693
-0.194434
0.00921874
0.0134054
-4.2154e-05
-0.0532408
0.00273444
-0.015776
-2.94383e-08
0
0.00406233
0.00405459
0
0.181958
-0.107069
-0.020403
-4.06658e-09
-0.0498687
-0.0428173
0.100705
-0.0346241
0.00169828
0.0030177
0.0243049
0.0655194
-5.46084e-12
0.0332572
-0.0740312
0.000457884
0.0445531
-1.61065e-321
-5.55542e-08
0.00484211
0.0152388
-0.000107176
8.05666e-23
0.0410099
-6.29097e-07
0.011965
0.00303142
-0.0899986
0.0996955
0.0682654
-0.0192885
-6.10691e-08
-1.4045e-06
0.006283
-0.0584648
0
-0.0331675
-0.0119042
9.49742e-05
-1.55078e-07
-0.0291056
-0.0376402
-2.73415e-27
-0.139228
-0.10978
1.69184e-22
0.0633534
-0.0176064
0.0269301
0.0246561
-2.1192e-07
0.0126967
-0.0615488
-0.0457411
-0.109257
-0.0374433
-0.00488155
-0.0221107
-0.107461
-3.26661e-06
-1.87328e-05
-0.0794365
-0.0591486
0.0246134
0.00583788
-0.00661342
-0.00205425
0.00439042
0.0643971
-0.116888
-6.58567e-26
0.0816105
0.000263568
-2.60348e-28
0.0017441
0.166132
0.0458962
0
-7.19176e-11
0.0352138
-0.145883
0.000194385
-0.00912767
0.013791
-0.00332098
0.159114
0.0242734
0.00763022
-0.0126901
-0.0380496
0.358093
0.0216649
0
-2.21734e-10
0.0105945
1.00461e-05
-1.02125e-07
-5.12735e-05
0.106315
1.65018e-321
0
-0.0639249
0.00593992
0.0106962
-8.74186e-08
0.05509
0.0413379
-6.77851e-05
-0.00635964
0.0275122
-0.0173562
-0.125875
-7.35749e-08
0.0909078
0.533895
-0.00191661
0.00516974
-0.00454209
0.0388535
-0.00954411
0.00425115
0
-0.180597
0.0273372
-0.154493
0.00105754
-0.0454243
0.00086302
-0.0545599
-0.00522814
0.020264
-0.0176355
0.00318165
-0.0564303
-6.23821e-08
-0.125654
0.0873983
-5.46084e-12
-8.52346e-15
0.0570269
0.00571149
0.0175264
-0.151482
-0.0395147
0.0219026
0.000958282
0.146527
0.0224149
0.126513
0.015567
-0.0737267
0.0202218
-1.4045e-06
0.146748
-0.0594565
-1.98692e-07
-0.0296507
-1.3364e-05
-0.0372843
-0.0540237
0.102547
-0.00246981
0.031485
0.0870377
-2.64932e-07
-0.045499
-7.04815e-07
0.000346658
0.00405459
-0.0581256
-0.119743
0.00555678
0.00405459
-0.0838309
0.0134054
0.143585
0.00303735
0.00781473
-0.0209601
-0.0288808
0.11973
0.00593616
0.00583788
-0.0773338
0.00405459
0.000417102
-0.0277508
-2.1192e-07
0.0332332
0.00192814
0.0121439
2.95847e-06
-5.55542e-08
-1.31313e-12
0.000346999
0.00405963
0.0102883
-2.1665e-09
0.0119651
0.0456538
-2.94383e-08
-0.0294503
0.00417402
0.0400849
1.41134e-06
-2.60348e-28
-0.0235178
-0.0187199
-0.0171407
0
0.0901366
-0.0192734
0.0146886
0.101233
-6.83915e-09
0.269349
-6.97771e-05
-6.10691e-08
0.0896039
1.69184e-22
0.00885781
-0.00794331
-1.75752e-07
-0.0132404
-0.190253
-3.30863e-05
0.0184071
0.0226171
0.0411477
0.0111848
-0.000192753
-0.244554
0.116153
0.0113952
0.0758554
-0.00693782
0
0.019296
4.29837e-322
0.119181
0.129711
-0.0563899
-0.0792411
-8.52346e-15
-7.72237e-09
0
-0.020403
0.00405459
0.0441848
-0.000155728
-1.09389e-12
-0.00478509
-0.0968129
0.0157119
-7.41755e-05
0.013791
0.0624898
0.165774
-3.14955e-06
0.0507653
0.0121181
-1.70788e-05
-3.62612e-05
-4.86287e-05
0.0326599
0.0212246
0.0299146
-6.23291e-06
-1.59336e-07
-0.0848475
-6.29271e-07
-0.0873044
-0.0243204
-0.32866
-6.79358e-05
0.0328023
1.38523e-05
-0.342106
0.00696515
-0.036256
-3.39066e-05
0.0646194
-0.0628261
8.05666e-23
0.0346401
0.028297
-0.0489782
-0.034297
0.0246134
0.00564434
0.0183191
-0.000117263
-0.0301567
-0.0582364
-0.020403
0.0226817
-0.0226178
0.0347254
-2.64932e-07
0.013791
-0.0401445
-5.2375e-06
6.91961e-05
0.0246574
0.0829434
-0.0852972
0.0384567
-9.08538e-15
-0.215175
-1.64381e-15
0.001839
0.0124882
-2.64932e-07
-4.70383e-08
0.136583
0.244084
0.00484583
0.00011375
-1.54351e-07
-1.95015e-07
-0.0468743
-0.0155899
-1.70788e-05
-0.0724109
-0.065336
0.0464328
0.132971
0.00184023
0.000182614
-0.041956
-6.78382e-13
-6.33605e-06
-3.23967e-06
0.00355629
0.0789986
-3.84421e-06
-0.0193025
-0.0155089
0.017163
-0.089569
0.231929
-5.8669e-06
0.00859734
0.0188248
0.052769
0.0671732
0.0474995
0.238257
-0.0711866
0.0470901
0.00166417
0.00324477
0.00188191
-0.0570448
-0.00345431
0.110571
0.256707
-0.0533085
0.00272955
-2.44096e-06
-0.0458382
0.0349141
-3.67609e-07
-2.1192e-07
-0.0201586
0.0343802
-0.0345297
0.213479
-0.0496571
0.0284668
-0.00733106
-0.00280883
-0.0115513
0.0284969
-0.00617043
-0.00391418
0.00445033
0.0930866
0.000155784
0.0212586
0.00820835
-5.78028e-05
0.00694074
0
0.00677122
-0.159679
-0.0189468
-0.00863797
0.00405459
-1.31313e-12
0.00179441
-0.164125
0.0834432
-0.0245098
0.0157119
-5.01557e-06
-0.00878976
0
-0.0454923
-0.000275092
0.230625
0.0349935
0.00721752
3.56204e-151
-0.141664
0.0207645
-0.086241
-0.061128
0.0482324
0.0277026
-5.7516e-06
-0.0656572
-0.209734
-1.82729e-10
-3.55142e-13
0.0752081
0.186629
-0.0344593
0.0142806
-5.2375e-06
0.00622812
-0.0519487
-8.52346e-15
0
0.00506559
-3.67609e-07
0.0271595
-4.5908e-11
8.05666e-23
0
-0.109139
0
0.0067718
-0.0664953
0.246278
0.2515
0.0119651
0.00728306
-0.0205549
-0.109612
-2.38538e-07
-5.29305e-06
0.0856465
-0.0193534
-0.108436
-0.0374387
-0.0382884
0.0408964
0.010721
-1.77249e-05
-0.000108775
0.0104978
-0.0251872
-1.79405e-05
0.06218
-0.0401445
-0.00593944
0.108762
-0.0257607
-8.00386e-322
0.000142972
0.116158
-1.10631e-05
0.0396624
-0.0209601
0.00337064
0.11505
-0.151771
-1.79585e-07
0.00654921
0.0751852
-0.00400967
-0.0545006
-4.85134e-15
-6.58567e-26
0.0685596
7.2904e-151
-0.0311006
-0.0414418
0
-1.09164e-05
0.0233256
0.0163526
0.0813907
0.131677
-5.26809e-05
-0.0240779
-5.6441e-07
0.127189
-0.0457411
0.160694
-0.0218009
-2.60348e-28
0.217958
-0.0155885
0.00405459
0.0114449
-6.47001e-11
-0.0119117
0.0196644
-0.0115513
-0.120063
0.0403538
0.127955
0.0413379
8.05666e-23
-0.185056
0.0329817
-0.100306
-0.0534462
0.0202979
-1.37868e-06
0.111269
0.00787135
-5.01456e-08
-0.020403
0.00177689
0.0530237
0
0.105685
0.00695687
0.10346
-4.12139e-05
0.013195
-1.2559e-10
-0.0395169
-4.32901e-05
0.0596066
-0.118373
-0.246914
0.0414366
0
-0.00145686
0.0786368
0.0426957
0.0719054
0.127747
-2.70161e-05
-0.0428049
-1.95015e-07
0
-0.0477382
0.16271
-0.00362576
0.0492405
0.0161905
0.0597817
0.0103949
-0.078369
-1.75752e-07
-0.000155973
0.00616145
-0.0267525
-1.28231e-10
-6.83915e-09
-1.55078e-07
-3.46623e-13
1.21046e-321
0.25409
-1.54351e-07
-0.128117
-0.0850325
-0.141476
0
1.69184e-22
-3.29766e-08
-0.0235718
-0.080972
-0.0208809
-0.0165803
0.0250054
-0.0526569
0.0343239
-0.0103179
0.109713
-0.00693782
-0.0171155
0.0118197
-2.18998e-08
0
-0.0373607
-1.31313e-12
-0.131042
-0.277644
-0.012361
0.0313915
0.0646333
-0.0515281
-0.012361
0.0266243
-0.0478336
0.0314009
0.39799
-4.50871e-06
0.0422062
-0.0352493
0.0030833
0.0119651
0.018643
-0.000165
0.0403538
0.00405459
0.284951
-0.149318
0.0114449
-2.17067e-15
0.0282954
-3.59577e-07
-0.0217626
0.200421
-0.0657362
0.00816849
0.204449
0.0846004
1.38523e-05
-4.93635e-05
-0.0970413
-4.10386e-05
-0.0610981
0.141858
-0.0457411
0.00884
0.0783765
0.0370679
0.00656019
0.092413
0.000555693
0.0114449
-0.0171407
0.0111556
0.0212621
0.0359061
0.0665198
-1.92472e-06
0.0284969
0.107363
-0.0284174
-0.0254287
0.0114987
0
0.0275122
0.00405454
-2.25458e-09
-3.09842e-05
-6.10691e-08
-2.40597e-08
-0.0428173
-0.0312569
-0.0489782
0.00682992
-4.43061e-06
0.0571846
-7.41755e-05
-1.54088e-06
0.0114449
0
0.0196807
0.0551061
0.000749558
0.0284035
-0.064235
0.0194608
8.05666e-23
0.0188213
-0.0940158
0.0438779
-0.0803428
-0.00544412
0.11866
-0.0401048
-2.60348e-28
-0.0856957
0.0106962
0.00516974
-0.0149423
0.10377
0.0849768
0.0429483
-0.0269982
-0.0244063
-8.52346e-15
-0.0787965
0.0186804
-0.0266197
0
0.0264857
0.0207224
-0.0367182
0.00622812
-0.0447771
0.0364953
2.12121e-05
-0.0135629
0.164913
-5.14289e-25
0.0156189
0.000325554
-0.0298477
0.00303735
-5.7516e-06
-0.0124567
0.0279529
-7.77936e-05
-5.2375e-06
-2.77385e-08
0.0202979
0.19272
-1.77249e-05
-5.42537e-09
0.00975142
0.00163999
0.0121439
-3.06661e-09
-0.0455559
0.0119651
-0.0170325
-5.78028e-05
-0.0362551
-0.0188065
-0.05576
-2.84639e-10
-0.00875678
-0.0385434
0.0072624
0.00390212
-0.0592629
-0.0182982
-0.0194532
0.00103473
-0.0245179
0.0017441
-0.0291056
-7.77936e-05
0.00976527
-0.0580601
-0.0241366
0.0365561
0.0106962
0.0134054
-6.47001e-11
0.0203227
-0.0362551
-0.12552
-0.00231685
0.0110515
0.0067718
-4.06658e-09
0.00692486
0.118218
-7.14994e-06
0.001456
-9.30658e-05
1.07212e-321
-0.0508698
0.0156799
0.0570682
-0.0251293
0
0.102547
0.000500468
0.0465099
-0.0968559
-0.0273501
0.0564765
-0.0710152
0
0.00641922
-1.55078e-07
0.0514051
-0.0324216
0.0140107
-0.0513897
-0.0411741
-0.106943
0.115457
-0.0023258
0.00728306
0.0157986
-6.29097e-07
-0.146541
-0.146662
-0.12906
0.0480844
-1.44351e-10
0.000213899
0.00405459
0.052105
0.0205081
0.0958687
0.218753
-2.30636e-05
-6.93774e-05
-0.0304553
-4.06658e-09
-0.00954204
-0.00253046
0.0121439
-0.00494074
-1.4283e-07
-2.28114e-07
0.0272787
0.0263164
0.0134054
0.000257547
-0.0302216
0.00405459
-0.0446218
-0.0534462
9.09296e-06
0.0705322
-0.0482765
0
-0.00219412
-5.89887e-06
-9.29505e-07
-0.0861419
-0.10516
-0.11707
-3.18032e-15
0.101176
0.0310553
0.0353516
0.0474995
0.0609137
0.0119651
0.0478689
0.00405459
0.00677163
-5.01893e-06
0
0.261775
-7.4481e-08
0.0959161
-0.0626795
-7.4481e-08
-2.00547e-06
-0.0616219
-1.43777e-07
-0.0676552
-0.0248917
0.0272787
-2.63993e-08
-5.40767e-14
-0.102042
0.000153211
0.00578925
-5.82908e-07
-0.0473483
-0.012361
-1.59023e-13
-1.54351e-07
-0.0374433
0.0112719
0.000461808
0.037752
-0.0603583
-0.0352493
0.0129088
0.0104738
-0.0568445
0.00504348
-0.0478336
-3.23967e-06
0.0622224
0.0713516
-0.00488155
-0.173524
-0.00693782
-4.5908e-11
-2.21734e-10
0.00728306
-0.0343516
0.0192194
0.026402
-0.000279503
-0.0192734
0.0368852
0.454643
0.0212586
0.0139792
-0.0210612
0.080007
1.65018e-321
-0.0461135
0.0279022
0.00594224
8.05666e-23
-0.0280934
0.0136308
-0.0332252
0.00742961
-0.0073774
0.00504348
0.159166
0.00405459
0.00405459
-2.40352e-07
0.0819956
0.0359285
-0.0192734
0.00405459
4.28588e-05
-0.0174509
-1.09389e-12
-0.0155586
0.0557884
0.0280313
0.133251
0.00504348
0.0163411
-0.020403
0.0345633
-0.0912416
0.051454
0.0642473
0.0316266
0.0339465
0.0200706
-5.83181e-10
-1.28286e-06
0.090935
-6.23821e-08
0.141788
-1.28286e-06
-0.00875678
0.00318377
-0.0357653
8.05666e-23
0.041483
0.00303971
0.018967
-0.0277123
-0.0476726
0.112491
1.91556e-160
0.334757
0.0275122
-0.0482448
0.114676
0.0840422
0.0151432
-4.43061e-06
0.079519
-6.47001e-11
-1.47973e-05
0
0.0130002
-1.95015e-07
-0.078346
-0.0291426
0.0264741
0.00296105
-0.0446636
-7.77936e-05
0.00747972
0.0882142
-0.0145774
0.0279529
-3.97628e-09
-2.25905e-29
0.013806
0.0246134
-1.3364e-05
-0.0478336
0.00682992
-1.77249e-05
-0.0484983
-0.0685735
-1.98692e-07
0.0405436
2.17389e-322
-0.00149223
0.00733545
0.0522292
-2.64932e-07
-0.0617782
0
0.0195633
0.0716008
0.0118197
-2.28277e-05
-0.036937
0.022528
1.78592e-05
0.056414
-3.97628e-09
-4.86287e-05
-0.00431293
0.0761541
0.00550031
0.0195633
0.0108155
0.0684854
0.000155784
0.00547954
-0.0865758
0.0456538
-7.41755e-05
0.0243458
0.0113998
0.209163
0.315784
0.0162233
-0.0187359
0.0188907
0.102547
0.0054629
-8.73727e-08
0.0232653
-0.020403
-0.0198323
-1.43532e-06
0.00725469
0.0050972
-0.111258
-0.0308539
0.0917973
0.113293
-0.0471454
0.0297097
0.0474593
0.0218327
-0.0112233
-0.0248993
-1.74237e-10
0.220832
0.0312551
0.0637732
-1.53583e-13
0.0559118
-0.00277488
-0.0680367
-0.0554676
0.0176189
-0.0656626
0.00583788
0.0463212
0.0481397
-0.0399945
0.0247684
0.0705322
-1.10676e-06
-1.10676e-06
0.00182225
-0.0084154
-0.0864438
-0.0300925
0.0681957
-0.0626795
0.0121657
-0.0489782
0.0681957
0.0202979
-0.0210328
0.0234215
-1.44351e-10
-4.70383e-08
0.020988
-0.111128
-0.0935262
-0.0933843
0.0161467
-1.21634e-07
-3.7919e-05
0.0121439
0.00153292
0.00728306
-0.0658443
-0.11699
-0.0321121
-0.119129
0.0203227
-0.00725335
0.0665521
0.023691
-0.0454243
0.0733197
-2.40352e-07
0.0282402
-6.24728e-08
0.0175603
0.148234
0.0292953
0
-0.0428173
0.0756748
0.00177689
0
0.00632997
0.0312537
-0.00346552
0.319229
-3.19537e-07
-0.0578105
-8.92989e-08
-0.0303098
-0.0907808
0.0274464
0.00429666
0.00706656
-8.44174e-07
-0.0321017
0.040621
0.00509195
-4.4892e-05
4.77088e-161
-0.0023258
-2.93544e-07
0.0197547
-0.000197298
-0.0130901
-0.0368321
-0.0509406
-1.37093e-06
0.069993
1.8671e-07
0.00555678
0.0469214
0.0586898
0.00120745
0.0721547
-0.0057257
9.38595e-05
-0.00487574
-0.0320507
-0.0135629
-0.0135629
-5.55542e-08
-3.67901e-05
-1.98692e-07
-0.00317492
-0.00693782
-0.0436961
-0.020403
-1.27575e-08
0.191577
0.0477834
0.0119651
0.0140324
0.153343
-7.41912e-05
-0.0238705
-2.88999e-08
0.0518413
0.0139972
-0.0168527
-3.7919e-05
-6.97676e-06
0.0059261
-0.0546252
0.0291934
-0.0454649
0.0585437
0.0114987
0.0256219
-0.0642429
0.0646194
-0.0264639
0.0512448
-0.194416
-0.0301567
-0.0201586
0.0583689
-4.49939e-08
-0.0149085
-1.98692e-07
0.00391732
-1.09362e-12
-6.78382e-13
-6.82175e-09
0.0119651
0.101195
-0.123644
0.0926162
0.00108982
-4.06658e-09
0.0603987
0.013563
-0.13593
1.65018e-321
-7.17615e-12
-0.079109
-0.0171407
0.0384567
-0.00947285
-0.0152405
0.0187453
1.48512e-122
0.114023
0.00493784
0.0114987
-0.0371908
-0.00678023
0.0318177
-0.000109707
0.0314437
-0.027386
0.0279067
0.00405459
-0.064858
0
0.037752
0.0134021
0.177881
0.0129271
-0.0104201
-0.0529552
0.00405459
0.000332985
0.130158
-4.5908e-11
0.00405459
-0.012361
0.174595
-0.00019278
-0.0395873
-0.0155899
-4.5908e-11
0.0024732
0.0307176
0.042412
-0.0682354
0.00037378
0.105511
-0.0156895
-0.000197298
-5.89887e-06
-0.0481487
0.0224149
0.00564434
0.000131872
0.0427598
-0.17936
-0.0401445
-5.2375e-06
-0.0330619
0.013791
-6.47001e-11
0.0202979
0.0103403
-3.25496e-15
-1.3364e-05
-0.0278412
0
0.00303802
-2.00547e-06
0
7.30059e-05
0.000373802
-0.0126894
-6.16468e-06
-0.0689938
-1.21634e-07
-3.67901e-05
-6.58567e-26
-0.0240109
-0.168089
-0.143836
-0.0399945
-0.0378314
-0.0137332
-0.0857973
0.0124882
0.100285
0.000140404
-2.00547e-06
-0.0840842
-0.0838371
-1.31313e-12
-0.100243
-0.0545006
0.00668506
0
-3.27164e-11
-0.00231685
0.126789
-0.232279
-2.64839e-05
-0.0203662
-6.58567e-26
0.00303735
-0.0182983
-1.10676e-06
0.000263568
0.0275122
-1.43777e-07
-0.0171361
2.1441e-05
0.061036
0.0168941
-0.0155089
-0.280911
-0.00078604
-5.1505e-08
-6.03825e-05
-3.23974e-06
0.00758573
-0.113661
0.102392
0.0503274
-0.0873073
-7.35749e-08
0.0369438
0.00131887
-0.045646
0.016419
0.00424577
0.0573279
-1.24615e-05
-0.0201586
-0.0310526
0.000534482
-0.0115513
-0.0251293
0.268509
-2.40597e-08
-2.25905e-29
0.0110511
-0.121151
-0.0399945
0.0393136
0.0271595
0.049443
0.0728937
0.041483
0.0508858
0.000339374
-0.0360295
-1.8672e-05
0.00169827
-0.0268237
-5.46084e-12
0.650623
0.0881953
0.0360296
0.0882145
-0.0229954
0.0602162
0.00975142
0.0316266
0.014959
-0.00310414
0.104959
-6.10691e-08
0.161319
1.20112e-05
-0.0142217
0.0653553
-1.70788e-05
0.0157409
0.000147256
-6.47001e-11
-5.39257e-06
-1.72329e-05
-7.03077e-05
0.17969
-1.64094e-06
0.0135565
0.105347
0.0174157
0.153343
-6.58567e-26
-0.168625
-0.417079
0.0300034
-0.0452221
0.127811
0.105063
-0.0258738
-0.149095
-0.0515969
-4.86287e-05
-7.77936e-05
-0.074063
0.116153
-0.00671841
-0.0011107
0.0786039
-0.10398
0.209324
0.0681957
0.0209362
-0.074633
-7.77936e-05
0.00405459
0.00817534
-1.54351e-07
0.012481
0.012481
-0.0506563
0.112317
-0.000140513
0.0494634
-6.94071e-05
-0.00617043
-0.0738772
0.0119651
0.0101631
0.0296744
-0.0216875
-0.11627
-0.0084154
-0.0229022
0.0805012
-0.0272438
0.000104113
1.11165e-321
0.0499054
0.0479886
0.0434552
-5.60963e-16
-0.0326824
-0.110711
-0.0607648
-1.10676e-06
0.00743802
0.113076
-0.00159514
-0.0199596
-0.109933
-0.0192734
0.067279
0.0302441
0.0633534
0.00500861
-0.0362806
-0.178528
0.00723419
-0.0413843
-7.35749e-08
-0.0427824
-0.0628651
-0.0208809
-0.0113485
0.190532
0.0397833
-0.00960414
0.0218327
0.0186489
-0.0071959
0.013195
0.0648069
0.105652
0.0226171
0.294027
0.00853271
-0.0363508
0.0183432
-0.0343536
0.0399854
0.00548862
0.034998
0.00423469
-1.3364e-05
0.110169
-3.24378e-08
-0.0204059
-3.39066e-05
0
-7.77936e-05
0.0724321
0.021076
0.00629677
0.00328816
-0.133096
0.0183432
-0.110862
-4.5908e-11
-2.6931e-08
0.00405459
-3.23967e-06
-0.0925613
-5.2375e-06
0
0.00159039
-0.052307
0.0219088
0.00690767
0.0194334
-6.10691e-08
0.101176
-8.70972e-09
0
-0.0214133
0.044144
0.00398942
-0.00730515
-0.0500119
-1.77249e-05
0.0645601
-6.82175e-09
-1.26286e-08
-0.0661217
-0.0492978
-0.0375281
-2.00547e-06
-0.212663
-0.00296763
0.0542983
-0.0780631
0.0114449
0.0721363
-0.0502977
-9.77388e-10
-0.217133
3.33368e-22
-0.0481487
-0.0337735
-0.0335573
-0.0447087
-0.015242
0.0918947
-4.20424e-07
0.00409505
0.00405459
0.0281827
0.11973
-0.0122556
-0.000106802
-3.46623e-13
0.0304494
0.0266243
-4.86287e-05
-0.0103312
-0.0023258
-0.0997878
-0.0873383
-0.000165
0.000526656
-0.0287709
0.298968
-0.0181743
0.00706659
-0.0155586
0.0357266
-0.107926
0.0114449
-0.0631801
0.00995557
0.00169828
-0.125285
-0.025636
0.0369438
-1.59023e-13
0.00593616
0.0518933
0.346286
-0.0249274
0.0201827
0.0184365
-0.0200648
0.127849
-1.50522e-05
-0.012361
0.0513221
-0.0444498
-0.00179132
0.10684
0.0593628
0.017645
-0.0445961
0.0995829
-2.88793e-08
-0.0907808
-0.390468
0.00516974
-1.44351e-10
-0.0360295
-3.3892e-05
8.05666e-23
0.0404323
0.0517758
-0.0749387
0.0379997
0.0713516
-2.00547e-06
-1.77249e-05
0.0348901
0.0176731
-4.86287e-05
-0.0716611
-2.40352e-07
-0.0559124
-2.55949e-07
-0.0229008
0.101176
0.018736
0.229207
-0.0706945
-0.0495081
-2.64932e-07
0.00103905
0.000104113
0.0586117
-0.0872173
0.078335
0.0638697
0.0114449
-0.0272438
-0.00613097
0.0702044
-0.00233348
-0.00983313
0.00619365
-4.99157e-05
-1.82354e-10
-1.17022e-05
0.0134054
0.00179441
-0.126222
0.0218327
0.0241942
-0.0155899
-0.0324087
-0.0176154
0.0458962
-1.86717e-05
-5.2375e-06
0.00668914
0.0162861
0.0067718
-0.021612
0.041524
0.0919844
0.226825
-0.0248273
0.138994
-0.012361
0.100593
-2.64839e-05
-0.138915
0.0332898
-0.0302765
-0.0146023
0.0720244
-0.0310084
-1.0294e-07
0.0595343
-0.017592
0.00858142
-6.77851e-05
1.21046e-321
3.08547e-05
0.0107527
-0.0699238
0.0119651
-0.0183575
-0.0740175
-0.0920765
-1.76299e-06
0.0186489
0.0339741
-2.84639e-10
0.194712
-1.55474e-06
-0.0175375
-0.0167329
-0.0064769
-0.0426749
-0.124983
-0.0249492
0.000522154
-0.0312694
0.0872593
0.0137128
0.122949
-0.0454243
-0.0873383
-6.23821e-08
0.0432068
-2.79532e-07
0.00451856
-7.41755e-05
0.0212317
0
0.00658981
-7.77936e-05
8.05666e-23
0.0570269
0.0403071
0.0154321
-7.06981e-07
-0.0316918
0.0276461
-0.072429
0.108762
-0.00395228
0
-1.57533e-05
0.100837
0.00423511
-0.0401445
0.0246574
1.21046e-321
0.000142972
-0.00366385
0.10146
0.0348273
0.0246567
0.25858
-0.0671327
-1.1324e-08
0
0
0.0707104
0.0986489
0.0503274
-3.074e-05
-0.0194532
-0.0858141
0.0119651
-0.0117691
-0.0429367
-0.0626795
3.03727e-05
-0.00854097
0.0059261
-0.0454692
0.0646194
0.0503805
0.0202979
-0.017592
-0.0787367
-0.0577194
0.000326156
0.0425688
0.0162861
0.350347
-0.146662
0.0492405
-2.84639e-10
-4.20362e-07
-0.000136609
-2.00547e-06
-0.0667806
0.00484211
0.00728306
-0.0977254
0.162902
-7.72513e-07
0.0613978
0.0326121
0.0303503
-0.0475955
0.00165163
0.015567
-0.00550548
0.0646537
-0.0506455
0.238831
-0.0155451
-2.43259e-05
0
-4.48831e-09
-0.0528524
-0.027386
0.083524
0.00225683
0.012481
8.05666e-23
1.69184e-22
-0.0434628
-0.0314683
-0.0280192
0.013791
0.132053
-3.46623e-13
0.0571875
-0.171381
-0.0428173
-0.0708573
-0.0390068
-0.0343536
0.0672409
-3.63639e-05
-0.0011107
0.0745344
0
0.0950288
0.000182614
-0.0446218
0.114937
-8.73727e-08
0.0542086
0.00164075
0.0136279
0.0075771
0.126928
-0.0238705
-0.0813391
-0.024265
0.0054629
0.012481
-0.0476842
0.0933179
1.00461e-05
0.0114449
-0.0502977
0.022052
-6.47001e-11
0.0898506
-0.00847752
-2.44096e-06
0.0054629
0
-0.0255136
0.000332985
0.0214733
0.00706659
-0.03018
-1.95015e-07
9.7825e-322
0.00011375
0.0443993
0.0134001
0.00501439
0.00296519
-0.0195113
0.0214733
0.0760782
-0.0594915
-0.0113485
0.0212586
-3.29766e-08
0.0716119
0.0904693
-3.14955e-06
0.00325896
0
1.21046e-321
-6.29097e-07
0.00516974
0.0760078
-0.0326824
-1.63114e-05
-0.0644291
0.0341333
0.0422062
-0.0712352
-1.02125e-07
-5.6441e-07
0.00555678
0.0597817
0.0121043
-4.44273e-05
-1.2559e-10
0.0163558
-1.95228e-07
0.114576
0.000400365
0.0012997
-0.0155141
0
-4.5908e-11
0.0490883
0.00858142
0.0197496
0.0059261
-0.0168527
0.0391213
-3.14955e-06
0.185794
-0.056197
0.366863
-0.0204044
0.000302272
-7.70589e-05
0.030361
0.00178998
-0.0546246
0.00822617
0.00365738
-0.000724563
-0.0487542
-0.0579115
0.00641922
-0.141905
8.69056e-05
-7.19176e-11
0.0059259
-0.0661579
7.79166e-05
-0.0642077
-6.83915e-09
0.0251585
0.00405459
0
0.0483054
-1.95015e-07
-0.020403
0.0463961
-0.0447204
0.0017441
0.0573157
0.00195226
-0.0382884
-1.77249e-05
-5.55542e-08
-0.129088
-3.94206e-05
-0.00404556
-0.485405
0.0186804
0.0713695
-0.0401445
0.00409505
-2.4795e-05
-1.48472e-09
-0.0383704
0.0596985
0.0472556
-2.92365e-08
-2.47022e-07
0.378753
-1.59023e-13
-3.00475e-06
-3.23967e-06
-7.77936e-05
0.00113232
-0.0968922
0.0232653
0
0.00696515
-0.0429287
-0.000194126
-0.00735529
-0.0193509
0.0192962
0
-4.06658e-09
-0.0151289
-5.78028e-05
0.0119651
-1.95015e-07
-4.08913e-10
0.0186489
0.10055
-6.77851e-05
-0.012361
0.0129914
0.04078
-0.0337024
-0.0310666
0.130342
0.000457689
0.0678662
-0.0183577
0.0186489
-1.64094e-06
-5.08487e-06
-0.0891029
9.28879e-05
0.00302264
-3.00475e-06
0.000349377
0.0963389
0.00622769
0.00169828
-0.201567
-0.0555737
-0.081808
-0.0576671
0.0573109
-0.0548266
-0.0519374
0.0102164
0.0270913
-3.19976e-06
0.0812401
0.0313503
-2.18998e-08
-6.16468e-06
-1.66006e-321
0.0728484
-0.0214155
-0.0221107
-0.0393803
0.0294342
-0.0209601
-0.0308756
0.0157409
-0.00735461
0.0140107
-0.000197298
-0.16441
0
-0.0218005
-0.110316
-2.63993e-08
0.06098
-6.58567e-26
-1.53583e-13
-0.00702767
0.00229522
0.0182165
-0.0254245
0.036588
-0.0205399
-0.0344593
0.00275146
-0.0449924
0.0148033
0.00677163
-4.86287e-05
0.00917629
-5.46084e-12
0.0275122
0.0254558
0.0193811
-0.324396
-0.0401445
-1.61065e-321
8.05666e-23
-6.33605e-06
0.158106
0.0316256
-0.0155586
0.00593616
0.0218327
0.0832181
0.0763893
0.0257012
-0.0730469
0.00571149
-0.155689
0.000119973
0.0284969
-0.0251872
-9.29505e-07
-0.0192873
0.100497
-5.7516e-06
-8.64615e-322
-5.60963e-16
0.0114449
-1.76963e-06
0.0437581
0.00493784
-0.0291056
-0.00361364
0.00318882
0.0698456
-4.20362e-07
-0.0552638
-0.0137332
0.0786039
-0.104952
-0.00367376
0.0894989
-0.00177851
-0.0346411
-0.0915444
0.0275122
0.0823388
-4.86287e-05
0.054079
-0.0428173
-0.000155728
0.0166331
-0.0924237
0.0398179
-0.0409817
-0.126959
0.151707
-0.0289794
0.028393
0.164228
-0.0136059
0.00177689
-0.0454649
0.0684877
0.183094
0.000263568
0.00728306
0
-0.0219051
0.0067718
0.0127581
0.0636179
0.0134251
-0.0209601
-1.28286e-06
-0.0191669
0.0546128
-0.0598503
-4.12139e-05
-3.074e-05
-0.0046044
-0.00635964
0.0519434
0.0192194
-0.105058
0.0363342
-0.0347776
0.0246134
0.00217085
-0.0899609
-0.0243235
-1.4045e-06
0.0282954
-0.0497079
-1.1324e-08
0
-0.0541456
-0.0490714
0.000555693
0.0659963
-0.0563986
-0.0257225
9.5515e-152
0.0282954
-2.40597e-08
0.0266896
0.0841146
0.0517378
0.0332898
-1.07212e-321
0.0816105
1.38523e-05
0.00514973
-0.0338872
0.191642
-6.47001e-11
0.0114449
0.0323895
0
-0.26361
0.000373802
0.000551608
-1.95015e-07
-0.000194302
-0.0546179
0.0217924
-4.5908e-11
-5.40767e-14
0.0385186
-0.0426513
0.00405459
-2.30636e-05
-6.47001e-11
0.0520913
-0.0466893
0.0061967
0
-0.0592792
-0.000449885
0.00405459
-0.0788397
-0.0955932
-1.54088e-06
0.0272182
-0.138858
0.00177689
0.0103949
-0.02338
-1.47338e-07
1.44267e-321
-0.0797263
-1.16105e-321
0.0251782
-1.13312e-08
0.00518197
-0.00938638
-0.0322593
-0.0242467
-3.26661e-06
0.00405459
-6.10691e-08
0.0367933
-5.44226e-09
-3.25496e-15
-0.0445641
-0.0110216
-0.0872398
-0.048761
0.00635548
-0.0442535
-0.0468199
0.0067718
-7.72237e-09
0.0420237
-0.0314846
0.00591259
-0.120725
-2.63993e-08
1.41134e-06
-0.106335
-6.47001e-11
0.176011
0.0059261
0.00493784
-0.00640963
0.020391
-0.12812
0.0231162
0.0683576
-0.0191967
0.0184818
-1.37106e-06
-2.05175e-11
0.0309114
0.0558705
0.0346783
0.0688641
-1.55604e-09
-0.0740708
-0.0385095
0.0186489
-0.025346
-0.0974174
-0.0155451
-4.47927e-06
0.0636179
0.0525962
-8.73431e-06
-0.00733106
-0.0150837
0.0134054
0.0589366
-0.00508316
0.0309265
-0.0472677
0.0134054
-0.0253126
-0.105372
-0.063459
-0.0540237
-0.171683
-0.071902
3.56204e-151
-5.82908e-07
0.09963
-0.020403
-1.75752e-07
-6.10691e-08
0
-2.40597e-08
-0.0216875
-0.0623995
0.0228549
-1.09362e-12
-5.58671e-16
0.054167
-2.79532e-07
-0.106943
0.0192133
0.013791
-1.09164e-05
0.0107527
-0.0648494
0.00516974
-0.0447087
-0.0485745
-0.00633351
7.79166e-05
0.000234158
-2.00547e-06
-0.00373345
-0.0766317
0.0146965
0.00858142
-1.31313e-12
-0.0221107
-0.0881526
-4.44273e-05
0
5.96051e-06
-0.0291542
-1.16105e-321
0.0284969
0
-0.113488
0.0271593
0.228297
-0.0459849
0.0331333
0.0115213
-5.01118e-06
0.0646052
0.00876583
0.0420447
-2.00547e-06
-0.0084154
0.00493784
-0.00931786
-0.0727045
0.0339465
-0.012361
-6.10691e-08
-0.191592
-9.08538e-15
0.0615133
-0.0654684
-3.58449e-05
-2.64839e-05
-0.0835601
0.0662943
-0.0555737
-0.0440265
-0.0105061
-1.51184e-321
1.69184e-22
0.00405459
-0.166208
-0.0108978
-1.55474e-06
0.185357
0
-2.79532e-07
0
0.326939
0.0192194
0.0242614
-0.0503935
-0.112477
-1.86717e-05
-7.17123e-05
0.000263568
0.244425
8.05666e-23
-0.340654
-0.0447094
-0.0347797
0.425709
0
-0.0130901
-4.12139e-05
0.00271024
0.0686319
0.00975134
-0.0256923
9.4974e-05
0.00318377
-0.0582793
0.159521
-0.0356147
0.224104
-0.00222148
-0.0208385
0.00696515
-0.0366326
-1.16105e-321
-0.047897
-0.0305992
0.0056274
0.127464
0.01354
-0.0126911
-0.0114588
-6.82175e-09
-0.0251293
8.05666e-23
0.0324707
0.0235914
-9.08538e-15
0.00493044
-0.217897
0.236482
-0.0160312
-4.10386e-05
0.154565
0.00593616
-4.21539e-05
-0.139081
5.06525e-07
-0.0703484
3.17069e-06
0.0134054
-0.0195113
0.0272787
-0.0632051
-1.77249e-05
-0.0409781
0.00405459
0.189962
0.00694079
0.00758573
0.000811481
0.00867973
0.02174
0.0463342
-0.0399945
-7.14994e-06
-0.0195113
-3.26661e-06
-0.0906246
-2.79532e-07
-4.42326e-05
-1.16732e-05
-0.0131081
0.185584
-3.29766e-08
-0.0187795
0.0339465
0.117725
-0.0128527
-1.44351e-10
-0.0491982
0.119859
0.00211857
0.0067718
-1.26134e-06
-0.0155105
-0.0315231
-0.0399945
0.0550142
-0.0155089
0.00177689
0.00607189
0.0901938
0.0310553
0.00361657
0.000461808
-1.24274e-10
0.463537
-0.017592
0.108762
0.0581502
0.0271914
-8.34971e-322
-8.44174e-07
-0.000106801
0.135753
-0.000140513
0.189728
0.0230518
-0.0499899
-2.39807e-06
-2.84639e-10
-0.0387513
-0.0502563
-3.14955e-06
0.00580884
-0.0262003
0.0119651
-0.0378314
-0.0108901
0.0700074
0.0655944
0.00542433
-0.0323725
-2.1192e-07
-0.0803187
0.0164527
0.092314
-0.11449
0.00634142
-1.74237e-10
-0.0283467
0.0087664
1.78592e-05
-0.0192734
-3.67609e-07
1.3241e-321
-1.32272e-14
-6.58567e-26
0.0624427
0
0.00272955
-0.205664
0.117183
-0.066515
5.06525e-07
-0.280384
0.0071834
-0.0561809
0.0206452
-6.94071e-05
0.00318165
-0.00518263
0.00516805
-2.55949e-07
2.91137e-05
-2.1192e-07
-4.50755e-09
0.00682992
-0.0803428
0.00405459
0.0783705
0.560634
-0.000101445
-0.0899378
0.0114449
-0.0100985
0.00516974
0.00127656
0.0121439
-1.74237e-10
-0.0540237
-0.00488155
0.0201466
-0.000117263
0.00392346
0.00725469
0.00516974
-0.00403477
0.0114449
-0.0256829
0.0595343
-0.0271906
-0.0361081
0.00436856
0.01712
0.00339718
0.0698453
0.0114439
-0.0299799
-0.108072
0.140707
0.0384567
-0.0188065
-0.0126901
-0.132562
-0.0955194
-8.27901e-06
-0.04469
-1.77249e-05
0.0134054
-8.52346e-15
-2.88793e-08
-0.111258
-0.0631345
0.00751478
-0.0259702
-1.59023e-13
-0.0130207
0.0706432
-4.5908e-11
-0.00507795
-0.0042637
0.0256876
0.0114449
0.00405459
-0.0251872
-0.012361
-1.09362e-12
0.158106
0.0940915
-0.0715646
1.65018e-321
-0.00635964
-0.0630619
0.0312551
-0.00635964
-0.0446218
-0.0798552
-1.03029e-08
0.0110515
-0.05576
-0.0466436
-7.95248e-08
-0.0380496
0.0115017
0.00682992
-0.0437585
0.216605
-0.0201693
0.0479877
-0.0278412
-4.5908e-11
-0.0369411
0.0862093
-1.77249e-05
0.00316134
0.223752
-3.1438e-06
0.134462
0.103138
0.217998
-1.55474e-06
0.0246134
0.00975142
0.0186235
0.0872593
0.00493086
-0.0803428
0.00200622
-0.184628
-0.0102844
0.00583788
-6.23524e-05
-0.017592
-0.0534462
-0.0733903
-0.0327566
0.000142972
1.5316e-321
0.0364606
0.0370909
0.00656019
0.00535141
0.00758573
0.0348554
0
0.0898506
-0.0192786
0.0558014
-0.0501089
0.0224149
0.00696515
-0.0310651
0.0121439
-0.0071959
-0.0198323
-1.02125e-07
-0.000113856
-6.10691e-08
-0.0142229
0.0183191
0.0134947
0.00179441
-6.23821e-08
0.00405459
0.00237339
-1.44351e-10
0.0204959
-0.0113485
-0.0456788
-0.0397597
0.0284638
0.0597817
0
-5.35696e-05
0.177064
-0.118374
-5.2375e-06
-6.58567e-26
-0.0175863
0.00472232
0.00622812
-0.00905869
-0.0189468
0.0029693
0.00975142
0.0202218
0.024756
8.05666e-23
-0.0167189
0.0705322
-0.0634512
0.0552867
-0.0185216
0.0412908
-0.0406949
0.0119651
0.00424242
0.090855
0.0312551
-0.116925
-1.20761e-05
-0.0783633
0.00304304
0.0331226
-7.41755e-05
0.0440354
0.012481
-0.256394
0.00296512
-0.0272438
1.11165e-321
-0.0981394
-1.75752e-07
-0.0440084
0.113305
-5.1505e-08
-0.000153639
1.07212e-321
0.00673853
-3.49079e-05
0.0737953
0.000106443
-0.0253633
0.090916
0.0270296
-0.0544737
-2.5572e-08
0
-0.0417418
-0.0207722
-7.41755e-05
0.0119651
-0.0745025
1.5316e-321
0.248286
-0.0769681
0.281941
-0.016818
-2.1665e-09
-0.0182845
0.0484285
0.119763
-1.31423e-06
-0.012361
0.0119651
0.0317305
-0.00852315
0.00405459
-5.01456e-08
-0.0308057
-0.0188065
-0.0484637
-0.0164221
-0.0463058
-6.73559e-06
-3.14955e-06
0
0.00401525
0.00011375
-6.47001e-11
-1.09389e-12
0
0.0214248
-2.25905e-29
-0.0189468
0.0173378
-7.03077e-05
8.05666e-23
0.0119651
-1.44351e-10
-0.0248328
-1.93875e-09
0.013563
-0.012887
0.0376189
-3.14955e-06
-0.0652975
0.0664898
-0.0469921
-0.0217025
0.356721
0.0997116
0.0121439
0.0700148
0.174378
-7.72237e-09
-5.2375e-06
0.00390212
-0.00263343
0.00201449
-3.00475e-06
9.88616e-05
0.0169947
0.00484663
0.00668914
-3.26661e-06
0.0715017
-0.0899904
-0.0326824
0.0351782
0.00725469
-0.020403
0.04208
0.0969982
-0.0011107
-5.01118e-06
0.000319304
0.0369438
0
0.0346769
-6.10691e-08
0.153343
0.024908
-0.0949689
-0.129289
0.0635226
-0.000117263
0.0475891
0.0292374
0.00728306
-0.000197298
0.176451
0.00696515
-1.3364e-05
0.00474579
-0.159649
-7.85298e-11
-0.02005
-1.3364e-05
0.0127581
0.0323946
-1.44351e-10
-0.0553029
0.022018
-0.0892513
0.00303971
-0.013727
0.0778994
0.0874267
-0.0237741
0.0232513
-2.83047e-06
-0.0347659
0.0191902
0.131723
0.111614
0.0648876
-0.191216
-8.52346e-15
-0.0251872
-0.000120503
-0.0887573
-6.69385e-06
0.000159877
0.00318882
-0.0115513
0
-0.0374433
0.0195633
0.0056274
0.0175264
0.0626875
0.0770386
0.030696
-0.0678271
-0.0141236
0.0598109
-1.72217e-05
-0.0131063
-0.0135955
0.145202
2.78161e-05
-0.0218155
0.0533997
-0.16543
0.0459677
0.0512811
-0.0966672
0.024216
0.0313038
0.0548974
0.0503001
0.422485
-0.0245008
0.0893818
0.00153292
0.0728484
0.0145223
-6.10691e-08
0.0038627
0.0360296
-0.030341
-0.0589784
-4.9538e-05
-0.0777494
0.083848
0.0671003
-0.0462237
0.0686178
-0.0378314
0.00673853
-0.0399945
0
0.0106526
0.0067718
0.0991233
-0.0498687
0.0609137
0
-1.47004e-06
-0.0848598
0.0277865
0.178274
-4.49939e-08
0.00405459
-5.01418e-05
-0.00110856
-0.0171177
0.311837
-0.05455
-0.0602353
-3.94206e-05
-6.58981e-11
-0.062931
0.0119651
-0.0119195
-5.7516e-06
-9.19774e-06
-0.0291946
-0.0361588
0.441451
0.0201006
0.0256141
-1.09164e-05
0.245088
-0.0312384
-1.28286e-06
-3.14955e-06
-6.24245e-06
-0.0155451
0.0114987
-0.0873385
0.191387
0.00405459
0.0124882
-0.0663099
-1.31313e-12
0.0568869
0
-0.0399236
-0.000117535
-1.97518e-05
-0.00875678
-0.0204013
0.00934023
-0.00713412
0.0312551
0.0399886
0
-5.6441e-07
-6.47001e-11
0.0101354
9.7825e-322
-0.0298841
0.00169715
3.79067e-150
-0.0515969
0.00112063
0.0386078
-0.000101763
0.190168
0.0192413
-0.0134294
1.11165e-321
0.118677
-0.00929647
8.05664e-23
0.0235888
-0.189025
-0.0399233
-7.41912e-05
-0.0161583
0.0043405
-0.00645492
0.0279529
-2.92365e-08
0.000131872
-1.14535e-08
0.0186804
0.0121439
0.133251
-0.0627538
0.0148033
-1.13837e-12
0.0204792
-5.82908e-07
-0.0969134
-0.0189933
-0.0860392
0.0513127
-0.0477638
0.0376573
-0.0428173
-1.77249e-05
0.0626189
-1.70788e-05
-4.44273e-05
-0.0272438
-0.000153639
-0.00635964
0.00622769
-0.231521
0.00730396
-0.0661249
-0.00204047
0.151557
-3.15248e-10
-0.0447087
-0.013727
-0.00692474
0.00614448
-5.21395e-06
0.00493784
8.05666e-23
0.0701927
-6.23821e-08
-0.0383178
-0.0478336
0.0394009
0.00694254
0.013791
0.00272955
-0.0332639
-0.0708363
-0.109435
0.0887197
-2.59121e-05
-4.36271e-05
0.0128398
0.0849886
-0.251852
-0.0490616
2.17389e-322
-5.82997e-322
-0.0792621
-0.363711
-0.0301567
-0.0498689
-1.28286e-06
0.000327283
-0.0396997
0.00529563
-0.0285527
-9.69714e-07
0.0912941
0.0178002
0.0549845
-0.131768
-0.00676753
0.0404541
-0.0254245
-2.25905e-29
-0.0193422
-1.53242e-06
-0.0147025
-8.24224e-06
-0.0673271
0.00011375
0.0103947
0.0374337
0.24658
-0.0720766
-0.0187295
0.0275122
0.00593616
0.0224149
-0.0540754
-0.00639354
-0.0508216
-0.020403
-0.101416
-0.0546246
-0.0455559
-0.000192753
-0.205303
0.0226171
1.26975e-321
0.0550514
0.114183
0.0837898
0.160863
0.018699
0.0518413
0.000349377
-0.00333088
0.234991
0.0492405
-5.82908e-07
-0.0232647
0.00642223
-8.52346e-15
0.0266604
-0.0374091
-4.06658e-09
-0.0241452
0.0857445
-0.0272438
0.00822617
0.0635658
-0.00635964
-0.00488155
-2.70161e-05
0.0571872
-1.32272e-14
0
0.0234246
0.0272787
0.0737953
0
-0.0665427
0.0536504
-0.0477164
0.00405459
-3.07486e-05
0
-0.0803428
-2.84639e-10
-0.0111002
-4.86685e-05
-0.102159
0
-0.0333347
0.0114449
-6.86766e-09
-9.28026e-07
0.000263568
-0.0154807
-0.00159651
0.00783456
-7.4481e-08
-5.2375e-06
-4.06658e-09
0.11973
0.0323975
0.0084489
-1.86717e-05
0.0595527
-4.44568e-05
-0.0287748
-0.0300342
-6.97771e-05
-0.0157338
0.125266
0.0814286
0.106802
-1.26286e-08
-1.64094e-06
8.05666e-23
-0.0264701
0.00116595
-0.0235413
-0.0362551
0.0349141
0.0533997
-5.55542e-08
0.265722
-0.101972
0
-0.0892513
1.26975e-321
-0.0193509
-0.0675466
0.0114396
-0.0841247
-1.38512e-08
0.0761851
-0.0119325
0.0263164
0.0488416
0.207692
0.0134054
-0.00525304
-2.00547e-06
8.05666e-23
0.0323895
7.75683e-322
-0.0147025
0.0246739
0.0265794
0.0743781
0.0144755
-0.0445482
0.0377772
-0.0841998
-3.39066e-05
0.0102888
-0.0648561
-0.0473483
-1.61065e-321
0.123628
-3.26661e-06
0.0467774
-0.0241452
0.00127656
-2.73588e-12
0.0174919
-4.12139e-05
-0.0176064
-0.0161178
-0.0455559
-0.000155973
-0.020403
0.0123099
0.0660336
0.00733304
-3.00475e-06
-0.108584
0.0257992
-0.000449885
0.00954721
-0.0821848
0
0.0684645
-0.0569181
0.00392847
-0.163257
0.12582
0.000824668
-0.119869
0.000325554
0.0114449
0.0118241
-0.000155728
0.269148
0.0239182
-0.000165
-4.06658e-09
0.0299627
0.0411477
-0.0697477
0.0464328
0.0226817
0.0144063
0.0265515
0.020186
-0.020403
-4.99954e-05
-0.0502977
1.48512e-122
-2.51976e-09
0.0393946
0.00405459
0.00683664
-0.0212665
-1.70788e-05
0.0282144
-0.00362099
-6.29097e-07
-1.77249e-05
0.0057685
0.0490883
-1.95015e-07
0.00694079
-0.0241452
-0.000155728
-0.0691843
-0.0232642
-6.19415e-11
0.0266243
0.045232
0.0312551
-0.00949249
-6.58567e-26
0.0246134
0.102279
-7.644e-05
-1.10676e-06
0
5.33646e-05
-4.10386e-05
0.00405459
0.0402017
0.0924345
0.00588813
-0.0952095
-1.24615e-05
0.0119872
-0.0356708
0.0526855
-0.0614407
0.0427598
0.764208
0.0316351
0.00263419
0.192036
-0.0511686
0.0624693
1.48512e-122
0.013195
-5.02347e-06
-0.0115513
0.0102891
-0.0483641
-0.0137477
-0.0243204
-0.0672593
0.00326271
0.020186
-0.0889298
-0.0446218
-1.28286e-06
-2.50002e-06
0.0603369
-5.6441e-07
0.0492405
-1.95015e-07
-0.0443273
0.127811
-2.21734e-10
-1.71799e-06
-2.17067e-15
2.17389e-322
-3.00191e-09
-1.03029e-08
0.000263312
-0.155211
0.00583788
0.00854099
-4.47927e-06
-8.20758e-06
0.120222
8.05666e-23
0.0797514
-0.121341
-0.0526423
0.11711
-0.0806715
0.00169828
0.165946
-5.01893e-06
0.046727
-1.59023e-13
0.0162794
-0.0447087
-1.18446e-07
-0.0290685
-3.23967e-06
-0.0071959
-1.09164e-05
-0.0968089
0.0109674
0.00858142
0.00405459
0.137496
-0.000121264
0.00405459
0.0272291
0
0.222855
0.00258229
-5.01893e-06
-0.0572467
-0.341192
0.00564434
-3.00191e-09
-0.0113485
-0.0278414
-0.0975119
-2.48147e-07
-1.28286e-06
0.0243458
-0.0475058
0.093102
0.0306882
-0.000601113
0.0367619
-6.29097e-07
-1.37093e-06
-0.074704
-0.130219
0.0666743
0.738514
-6.47001e-11
0.0119651
-0.00768562
0.00326271
-0.0303098
-0.0137289
0.0673029
0.128812
0.0509339
0.254992
-0.0537661
-1.74237e-10
0
7.41267e-06
0.00221272
-9.08538e-15
-0.075148
-2.18998e-08
0.185862
0.0702044
-0.0327206
-1.77249e-05
0.0192192
0.041483
-0.0391409
0.0104978
-0.0576004
0.0646165
0.120661
-0.0326824
0.0228393
-2.25905e-29
-0.0460042
-0.000155973
0.254007
0.0604408
0.0162861
0.15281
0.0882067
-3.25496e-15
0.0166556
-0.0360295
-0.0446499
-0.0529552
0
0.0113952
-0.0195113
-2.50002e-06
-0.0765884
0.00484211
-1.77249e-05
-0.303985
0.0067718
-0.00693716
0.0101076
0.0160888
0.00516451
0.0123584
-0.0725558
-1.09389e-12
-0.012361
-0.02005
-4.5908e-11
0.0737918
0.0288018
0.0188907
-0.26855
0.0368939
-0.099377
-0.044942
0.0121043
-0.0673959
-0.208672
-0.0703207
-0.0473483
0.0636353
0.0672334
-0.0291056
0.0978283
0.0636179
0.0351782
-0.000153639
-0.015776
-0.0389851
-1.14535e-08
-0.0295262
0.0122651
0.189173
0.0142176
-7.03077e-05
0.0571875
0.0186798
0.0638277
-0.0230363
-2.60348e-28
0.00405459
-0.0400004
0.107203
0.118017
0.000534485
0.00226999
0.25948
0
0.00693637
0.0291672
0.00303735
0.0175721
-2.20943e-15
-6.77851e-05
9.7825e-322
-1.59341e-06
0.00854099
0.0351782
-1.24615e-05
-4.86287e-05
-0.0278412
-1.84781e-321
0.0157986
-0.0165889
-2.79532e-07
1.41134e-06
-0.013727
0
0.013791
0.0133968
-0.015776
-3.15983e-06
0.189261
-0.0120817
-0.00960414
0.0882142
0.0353516
0.103138
4.5529e-06
-0.000107489
-0.0399945
-8.73431e-06
0.104386
-0.0648494
-7.41755e-05
-5.35696e-05
-1.59023e-13
0.00484211
0.547921
0.00493784
0.128478
-0.0770277
0.0107527
-0.0331153
-0.00337676
0.00730401
-1.4045e-06
-2.5572e-08
-0.0130057
7.2904e-151
0.00405459
0.282923
-0.00892993
0.102981
0.125859
-6.10691e-08
-0.0326824
-0.302978
-0.00923157
0.0114987
0.00277833
0.0349684
-0.000140513
-1.28286e-06
-0.000320745
-0.0210634
-2.30636e-05
-0.00693782
0.042412
-0.0221107
-1.47004e-06
0.0113998
0.0523094
-0.0511762
-1.71798e-06
0.00555678
-0.0686855
0.0275122
0.00654921
-0.0275474
-0.0447204
0.0107512
-6.58567e-26
0.0825832
0.000800673
-5.2375e-06
-0.0382884
-0.0806282
-0.000574042
4.28603e-05
0.0226171
4.28603e-05
-0.000101763
-6.29097e-07
0.000608657
-6.29097e-07
0.0157986
-0.00817179
0.0407913
0.0501084
-2.40352e-07
0.00405459
-0.118969
0.0302368
0.0059261
-0.140273
0.169891
0.0483642
0.00405459
0.00405456
0.157012
0.000263568
0.00507773
-0.0385095
0.0343923
0.0695515
-0.0126901
-0.0155089
0.163481
0.180336
0.00772082
-6.47226e-322
-2.25905e-29
-8.09407e-06
-1.98692e-07
-2.40597e-08
-0.00725335
0.00857172
0.0555334
3.97529e-05
0.00390212
-6.23524e-05
0.0329786
3.03727e-05
-9.29505e-07
0.114126
0.0889483
0.00564355
0.0316266
0.00822617
-0.171093
-4.12184e-05
2.17389e-322
0.0243458
-0.00544412
0.0203227
0.130086
0.00390212
-1.09362e-12
-0.123718
0.154162
-0.062148
-0.190823
-1.53583e-13
0.004796
-5.89887e-06
-0.0678357
0.047496
0.0103581
0.0364929
-0.0861459
0.163958
0.169169
-0.0295805
-9.28026e-07
3.04657e-05
0.0114449
0.0470986
0
0.0458962
-0.0139614
-0.0755144
-0.121183
-0.196153
-0.074063
0.0134054
-0.0280192
-0.0210521
0.00169828
-4.43061e-06
-6.47001e-11
0.0796313
-0.012361
-0.0029739
0.0542983
-0.041752
-0.004397
0.061609
0.0111556
0.00758573
0.0396624
-0.0221107
-0.0014874
0.0235706
0.00405459
-1.95015e-07
0.0282906
0.0114752
-0.066515
0.00921874
0.0514615
-0.100758
0.0358744
0.0188907
0.0411477
0.0964744
1.41134e-06
-1.95015e-07
-0.0444498
0.0279623
-0.0279446
-0.0585217
-0.0545006
-1.82354e-10
-3.25476e-05
0.021403
0.00758373
-0.000153639
-0.0243548
-0.0489782
-0.017025
0.0133849
-0.0672593
0.0202979
-0.00361364
0.00395487
0.0396624
-6.94071e-05
0
0.0260479
-1.13837e-12
0.0188164
0.0241377
-0.037413
0.0552381
0.0383826
-1.31313e-12
0.00405459
0.00758373
-0.0838762
-1.10676e-06
0.0183191
0.0317303
-8.51131e-05
0.0039598
-0.0149085
0.0919803
-0.0879832
0.0422062
0.0201771
0
0.0360296
-4.47927e-06
-0.0145819
0.280771
-0.0524814
-7.35749e-08
0.000263568
0.0771933
-0.0295702
0.130904
-0.0110081
1.87745e-322
0.0536504
0
-0.0416382
0.0349994
-0.0301794
0.0477779
0.0162861
-2.00547e-06
0.0183191
-0.00362406
0.0186929
0.0254558
0.0254558
0.0754584
0.0114449
0.200905
-0.0327409
-0.189358
-0.0463961
0.00592514
0.13503
0.0488593
0.008581
-0.00361364
0.0188907
-0.0304986
-0.000176542
0.085322
-0.0923803
-0.012361
-2.48147e-07
-0.0876297
1.10393e-06
0.0553332
-6.94071e-05
0.0964343
-2.9024e-05
-0.000117263
0.134464
0.219094
-5.2478e-06
1.21046e-321
-1.64563e-07
-4.06658e-09
0.00483901
-0.0399945
-0.1069
0.00668521
-0.017592
0.127811
-0.0357653
0.0135629
0.00405459
-0.00172125
0.00593616
0.0114449
-0.0278412
-0.0347522
-0.0502977
0.0163409
0.072977
0.102592
1.78592e-05
0.0051668
0.0351396
-0.0252219
-0.0153486
-0.0810597
-0.0433387
-0.0291056
-0.0329665
0
-0.0406649
0.0397032
-0.089162
-0.0694122
0.0013511
0.0207826
0.0140559
-0.00770296
0.0542983
-0.322525
-1.77249e-05
-0.0380496
0.0131879
-0.166505
0.0660276
-1.93875e-09
0.0121439
0.115022
0.0869688
0.0264777
1.65018e-321
-0.0187354
-3.24378e-08
0.240104
0.0134915
-1.64094e-06
-0.15916
0.0437581
0.11973
-7.77936e-05
-1.44351e-10
-0.0415448
0.0915759
-0.035868
-0.11474
-0.0190486
-0.0534462
-5.8669e-06
-0.0218005
0.02174
-0.0632549
0.0534866
-1.29432e-06
0.00379371
-0.035551
0.118481
-0.0827317
0.19815
0.0314321
-0.00635964
-1.59023e-13
0.0282788
-0.00634784
-0.0628402
-1.82573e-07
-0.0301567
0.174766
-0.0251293
-0.0115513
-5.82908e-07
-0.0942985
-0.0126901
-9.28026e-07
0.001456
0.0312551
0.0700911
0.0649087
0.0705322
0
-5.7516e-06
-0.0661991
0.000346999
0.0114987
-0.0859177
4.77088e-161
-0.0966672
0
0.0558373
0.0961509
-2.18998e-08
0.0483423
-0.0454243
0.00606102
-6.70068e-06
-6.74063e-05
-0.0501179
-5.60963e-16
8.05666e-23
0.0513907
0.016431
-0.0447087
-6.58567e-26
-0.0698844
9.09296e-06
-0.0660981
-4.99157e-05
-4.06658e-09
0.00484211
-3.12554e-06
-7.4481e-08
-5.89887e-06
-0.0457411
0.26623
0.0263164
-0.103015
-0.0634512
0.00645031
0.0140997
-0.0156895
-0.00166477
-1.55604e-09
0.033782
-1.47237e-05
0.0218155
-0.0576544
0.00225683
0
3.56204e-151
-3.67901e-05
-4.42326e-05
0.00564355
0.0862429
0.0351782
-0.0434628
0.0121439
-0.0188065
0.000155784
-0.0193509
-0.000165
2.12121e-05
0.0243458
0.128654
-0.0279692
0.0372274
-1.59023e-13
-0.00337676
-3.25496e-15
1.41134e-06
0.00858142
-0.00617043
0.0695996
0.00379253
0.0197169
0.00318429
-4.5908e-11
0.00756248
-0.0369411
-0.0118443
0.152791
-7.35749e-08
-1.82354e-10
0.0586904
0.00964489
0.105658
-0.0803428
-0.0856959
8.05666e-23
-0.0447087
0.0202218
0.00192814
-1.82354e-10
0.0387259
-0.0339023
-0.0637757
-4.43061e-06
-0.020403
-0.000107489
0.0363256
0.260998
-0.0624809
-5.58671e-16
-0.0326824
0.0235706
-0.0792915
0.0337411
4.28603e-05
0.0157409
0.000895042
-6.19415e-11
-0.0155586
-0.0192003
-0.127931
0.001456
0.00405459
3.79067e-150
0.0349277
0.013195
0.00555678
-0.0275421
-0.0362876
0.0124882
0.0218327
-5.82908e-07
8.69056e-05
0.02174
0.0892416
-0.085011
0.0521038
-1.03029e-08
-6.33605e-06
-0.208124
-0.0113485
0.013195
0.187628
-6.24245e-06
0.0212586
0.1545
-0.0117691
-0.0295262
0.0673112
0.00641922
0.0551882
-0.121346
0.00577282
0.00275146
0.399047
-2.51807e-07
-9.87008e-08
0.00921874
-0.0556868
-3.25476e-05
-0.0795598
0.105403
-0.0193388
2.07423e-160
0.0722829
0.129816
-0.0360251
-0.105058
0.0124757
0.00743068
-0.0336924
0.00405459
1.65018e-321
-0.0401445
0.0301568
0.215741
-4.15864e-09
0.0239481
-0.0387513
0.0502943
-2.5572e-08
0.0114448
0
0.118667
0.00593616
-1.37106e-06
3.17224e-05
-5.78028e-05
-0.0283475
0.00104658
0.013195
0.0272787
-6.93774e-05
-1.93875e-09
-0.0492978
-0.0694122
-9.08538e-15
0
-1.8804e-07
7.30059e-05
-4.01254e-05
0.0399886
0.0550272
0.000182614
-4.44273e-05
0.0140107
-0.000197298
0.0437581
-0.015938
0.0162861
0.0919804
0.0263164
0.0645153
-0.000184625
-0.193035
0.00405459
0.0849622
-2.84639e-10
-0.0125907
-0.00404419
0.00303735
0.0565817
-1.94911e-06
-3.13892e-06
0.293276
0.0729466
0.0384567
-0.032755
-4.86685e-05
0.0115005
-1.77249e-05
-5.2375e-06
0.0596788
0.0555945
-0.0533722
0.0680027
-0.0189468
-0.0407915
-1.1974e-05
-1.77249e-05
0.0638279
-7.77936e-05
-0.0251293
0.0508958
-4.5908e-11
-5.29573e-07
0.0595876
-4.20362e-07
-5.40767e-14
0.142677
0.00516955
0.0203227
-3.47808e-11
0.0716201
-0.020403
0.00192814
-4.59116e-05
-6.74063e-05
0.0226171
0.0113952
0.011913
-0.00635964
-0.0115513
0.192777
-0.045646
-0.0132404
-0.139484
0.004796
-0.00439335
0.00405459
-5.64704e-07
0
-7.41912e-05
9.5515e-152
0.0257502
0.00221272
0.038709
0.0534691
0
-0.0338814
0.0595343
0.0251447
-5.2375e-06
-0.000760435
-0.118808
-0.0110216
0.0184651
0.104592
0.124679
0.0859917
0.053217
8.63488e-05
0.00577298
0.000830661
-7.4481e-08
-0.0341799
-0.0502507
0.00505071
0.00153307
0.0541021
-0.00488155
0.0061615
0.000618859
-3.15248e-10
0.100816
0.0899836
0.0059261
0.0426925
-0.0135629
0.324718
-0.0429255
0.00493784
0.037752
-0.249642
-1.18205e-07
-0.0360295
0.0186489
0.0176507
0.125377
-5.46084e-12
1.69184e-22
-0.0249723
-0.0442538
0.0564949
-0.0248917
-0.0122859
0.128478
-6.33605e-06
-0.0539673
-1.24615e-05
0
-2.73415e-27
0.00184023
0
-0.00404419
-0.0387513
0.227889
8.05666e-23
-3.94206e-05
-3.46623e-13
-0.100243
0.0440681
0.0828613
-0.0564804
-0.0247487
-0.185141
-0.0216875
-0.0187454
-0.0503863
-0.000165
-0.0244767
0.00555568
0.00755897
1.10393e-06
0.118302
6.07701e-322
-0.0153344
0
0.0849892
0.00409505
0.00583788
0.00641922
-0.0452385
-5.89887e-06
-0.0278412
0.0235657
0.00303675
-0.274166
0.00405459
9.5515e-152
-0.0153484
0.109088
-0.0711646
0.0816595
0.0212586
-0.0314414
-0.0550758
-0.112701
0.00303735
0.0310553
-0.0210665
-0.0192734
-0.0466793
0.0378426
-0.000109707
-0.085891
-0.0251872
-0.116462
0.0186489
-5.1505e-08
0.0369438
-0.0319765
0.0303636
0.0203227
0.0102164
1.21046e-321
-0.033351
-0.0460944
-0.000190317
-0.0272438
0.00405459
-0.0534462
0.0933002
0.00312547
-0.12552
0.0161698
0.0251782
-3.25476e-05
0
0.015567
-0.00960414
0.0176882
0.0186929
0.0461508
-0.207679
0.0317336
0.000674089
0.082198
-0.0138917
0.00493784
0.306689
0.0103949
0.00318377
0.0134054
0.000534485
-0.0457411
-0.00226356
0.0369438
9.49742e-05
0.0498117
0.0226169
3.08547e-05
-1.59023e-13
-0.0447815
0.0649087
4.69362e-322
0.0556335
-7.72237e-09
-0.000153639
0.00375863
-0.0210612
-1.54351e-07
-0.0185438
0.000416519
-4.5908e-11
0.178931
0.0186489
-4.44273e-05
-6.97771e-05
0.0121411
0.00272955
0.112413
0.161274
0.0892128
0.0111847
0
0
0.124868
8.05666e-23
-1.16732e-05
-0.0196123
-0.0777477
8.63488e-05
-0.0723401
-0.041956
-5.78028e-05
0.083524
-0.2482
-3.84421e-06
-1.59023e-13
-0.00488155
0.00399098
0.0115005
0.266972
-1.64094e-06
-0.0902614
0.252902
-0.00388369
0.00964489
6.07701e-322
-0.00019707
0.0816595
0.00641922
0.00222558
-0.0797928
-0.0323726
0.0680834
0.000264519
-4.10386e-05
-0.0289837
-2.9407e-06
-6.78382e-13
-0.17848
-0.000157369
-1.31423e-06
-2.87832e-06
-7.9103e-06
-0.0774692
0.0422128
-4.10386e-05
-0.012361
-0.151193
-2.17067e-15
0.0502744
-0.0195113
0.00200622
0.0184818
-7.17615e-12
-0.0303098
-7.95248e-08
-0.00332098
-1.57785e-09
-4.06658e-09
0.014959
0.000798143
-1.76963e-06
-0.00976463
-0.021562
-2.84639e-10
-0.0146023
-2.17067e-15
0.0433619
-0.0300413
6.58931e-07
9.58487e-322
-0.0240303
-5.2375e-06
-0.0398793
-0.0157903
0.152095
0.00635326
0.013791
-0.0732298
0.0586904
-0.00697104
0.0059261
0.00516974
-3.26676e-06
0.0235016
0.00303735
0.0229576
-0.0656572
-6.58567e-26
0.0551882
-3.25476e-05
0.0157409
0
0.0206948
0.000457884
-0.0221107
0.00405459
0.027317
0
-0.0189468
-0.066552
-0.0130901
0
0
0
-1.47004e-06
-7.35749e-08
0.024756
0.0533167
-0.000161307
-7.77936e-05
-2.74781e-05
-4.007e-13
-2.60348e-28
0.104492
0.0688641
-0.0315234
-0.0614163
0.0816119
-3.55142e-13
0.0218327
-0.413318
-2.09484e-321
-3.97386e-05
0.00758573
-0.0221446
0.000263568
-0.0558303
0.000263568
-1.54088e-06
-0.393773
0.00303735
-0.0245493
-0.0169172
0.0226815
-2.84639e-10
0.0495453
0.0163558
-0.0642429
0.0054629
0.269594
-0.00658743
-0.000449885
0
-6.58981e-11
0.0734431
-0.11661
0.00158101
-0.0301567
-1.55474e-06
-0.0239078
-4.86287e-05
0.0209909
0.0271595
-0.000101763
0.052105
-0.116683
0.0134568
0.000182614
-0.000192753
-0.0216875
-0.0176064
0.00405459
-0.0110081
9.88616e-05
0.0272787
6.37171e-06
-0.0879349
0.0330807
0.0304541
0.0284668
0.00307685
0.00169828
-5.26809e-05
0.0519197
-0.000135653
-0.000760435
0.0315535
-0.0446218
-0.0192734
0.0552238
0.0633822
-0.0235095
0.135321
-1.69281e-06
0.0375396
0.000373802
0.0122486
-6.47001e-11
0.0411477
-1.69109e-06
-2.17067e-15
0.0273745
0.0067718
-2.64932e-07
0.0229849
1.78592e-05
-0.0829749
0.044031
-0.0154031
0.00328816
-0.0265525
0.256235
-4.06658e-09
-4.5908e-11
-0.0314193
-4.4892e-05
-0.00972478
0.00517483
0.122194
0.0186814
-0.0139064
-1.95015e-07
-2.60348e-28
-7.10745e-14
0.0212586
0.0403538
-0.015567
-3.97628e-09
-0.0272438
0.00326271
-0.000449885
-2.60348e-28
-3.70353e-07
0
-0.0654333
0.00668506
-0.000954444
-8.09407e-06
-1.77249e-05
-3.80408e-06
0.00406233
0.00564434
-2.17067e-15
-0.0737876
-3.24378e-08
-0.0245098
0.00275146
0.0413379
0.00405459
-1.23116e-06
0.0203227
-0.0195113
0.0596377
-0.00792907
0.101791
0.0368342
0.0816583
0.0526342
-5.2375e-06
-0.048781
-0.0303098
-0.0803187
-0.00507966
0.034665
0.0059261
-3.39068e-05
-7.644e-05
-1.54088e-06
-7.77936e-05
-0.00875678
-0.0588782
0.0242734
-0.0459171
-0.000155728
-0.00905905
-5.2375e-06
-0.00918874
-0.0303127
-2.21734e-10
-1.70788e-05
0
0.0186803
-7.95248e-08
-0.590474
0.0428772
-2.5572e-08
0.00609649
-1.76955e-06
-0.0609486
0.020967
0.151252
-1.77249e-05
-5.60963e-16
-0.0112928
-2.11868e-05
-2.6931e-08
-3.00191e-09
-7.35749e-08
-0.0382914
-5.55542e-08
-0.021562
0.0200263
0.00839331
1.65018e-321
-0.0342192
0
0.00864327
-0.0399945
0.0551882
0.00405459
-2.87832e-06
0.00228412
-8.09407e-06
0.00168487
-1.69281e-06
0.0114449
-0.000109707
-0.00938357
0.0121439
0.0113998
-1.43121e-05
-0.0216164
-0.021562
0.0737953
7.41098e-322
-0.0447204
-1.77249e-05
0.100945
-0.0393717
-0.0478901
-0.0476645
-2.00547e-06
-7.98956e-05
-2.48147e-07
0.013791
-1.24274e-10
-9.19774e-06
-0.0498045
9.49742e-05
0.0746426
0.0310553
-2.79532e-07
0.0503926
0.0406917
-2.46045e-321
0
0.0408114
-0.00404419
-0.0787861
-0.0148831
-1.24274e-10
0.101535
-0.000281408
-1.61065e-321
0.059205
0.0422623
2.93612e-05
-9.19774e-06
0.0241443
-2.51976e-09
0.0140107
-0.0874912
0.0199166
0.0528962
0.0218593
0.0388427
0.0903385
-1.59023e-13
0.0248416
0.0114449
-5.2375e-06
0.0111286
0
-1.59023e-13
0.207012
0.00405459
0.00405459
-0.056978
0.0237124
-5.7516e-06
-0.0798258
-7.11683e-09
0.0202218
-0.05576
0.0317744
-0.094588
-0.0391403
-0.0191967
0.0230659
-2.84639e-10
3.56204e-151
-0.221309
-0.0117843
-0.0253211
0.0474995
-3.2977e-08
-0.00741034
-3.24378e-08
0.127244
-0.0396629
0.000729425
0.0224149
-0.00693782
0.00331293
0.139286
0.0140107
-1.4045e-06
0.118807
0.102584
-0.0803428
0.0847644
0.0546274
-0.000119699
0.0357608
-0.0194747
-0.00865797
1.65018e-321
0.0368553
-0.0696111
0.124411
0.195317
-0.0260206
-1.95015e-07
-0.0193509
0.0230592
-0.00119016
0.0805012
-2.48147e-07
0.0107527
0.00822705
0.00757904
-4.21539e-05
0.0686727
-1.95015e-07
0.0595527
-1.95228e-07
0.242842
-0.00487574
0.0499365
-0.106578
0.0453944
0.00187649
-0.0358816
0.00553964
0.296919
-6.97676e-06
0.0140107
-7.19209e-11
0.121064
-0.159333
-0.0647118
1.65018e-321
0.0900505
0.050832
0.0054629
0.0244595
-7.95248e-08
-0.0500855
-6.97771e-05
-0.0103933
-0.000155973
0.0405083
-0.0687293
0.062676
0.0033992
0.0300582
0.0203227
0.0549891
-4.53109e-05
-9.30712e-05
0
-2.70161e-05
-0.0578184
-1.76963e-06
0.0529598
0.0365553
0.0310553
1.69184e-22
0.019243
-1.70788e-05
-3.29766e-08
-1.09389e-12
-1.7699e-05
0.00143476
0
-0.0326824
-0.0192734
-0.100971
0.0805012
-0.016997
-1.31313e-12
-0.0323725
0.000465648
-7.41755e-05
-6.97771e-05
-2.79869e-10
0.0284179
-0.0109135
-1.09389e-12
0.162142
-2.84639e-10
0.069951
0.0213395
-0.000101763
-2.40597e-08
-0.0787861
-1.31313e-12
0.0329786
0.00337064
-0.0463158
-0.100874
0
0.00272945
0.013791
0
0.000163153
0.0446751
-0.0522342
-0.0177156
-0.0642429
0.013791
-0.0147025
0.00729041
0.00622769
-0.000101763
0.353609
-0.0466793
-0.0578897
0.0275122
0.0713516
0.0647129
-5.64704e-07
0.0403538
-0.0394254
-0.0216428
-0.00277488
0.0119651
0.0399886
-0.0522648
0.028228
-4.43061e-06
-0.0115373
-2.88514e-06
-0.0619585
-0.0382318
0.0202766
-7.35749e-08
-0.0255285
-0.0316893
0.0038847
-0.0850953
-1.64094e-06
0.00405459
-1.70788e-05
-0.00361364
-0.00376212
-2.73415e-27
0.124556
0.00360671
0.034545
0.0569158
0.0801156
8.05666e-23
0.0251475
-0.0369705
-0.0684646
0.000689719
0.0448188
-0.012361
-5.8669e-06
-0.0604532
0.00694079
-0.041784
-5.6441e-07
-2.18998e-08
0.0177996
-1.13837e-12
-1.16732e-05
-0.0860288
-0.0189468
-0.0630447
0.0191611
0.028521
-0.0461261
-2.69871e-06
-0.281943
-3.4495e-05
-0.00725335
-6.16468e-06
-1.95015e-07
0.0162861
0.000149464
-6.47001e-11
-3.46623e-13
-0.0302765
0.118944
-0.0620314
0.0722518
-0.0216875
0.0274647
1.65018e-321
0.0833498
0.00706659
-1.77249e-05
0.00276176
-0.0487746
0.0981095
-4.20362e-07
-1.78919e-07
-0.0876016
0.0644277
0.0279528
-6.93129e-06
0.0705322
0.0374404
-0.0115548
0.0119651
-0.0280192
-1.77249e-05
0.0411477
-2.94383e-08
0.0186382
-1.77249e-05
0.0242734
0.0203227
0.0188907
0.00544723
0.305027
0.0186804
0.0638277
-0.0725166
0.160161
0.0173124
0.0188907
0.0164694
0.0449043
0.0505063
-0.0161027
0.0761307
0.0259297
0.00166417
0.0313915
-0.0661217
-4.43061e-06
0.546946
-0.0235718
-0.0477382
-0.069431
0.012481
0.0458079
-0.0595498
1.5316e-321
-0.173684
-1.1324e-08
-0.000602754
0.0804234
-0.0535996
0.0119218
-6.82175e-09
-0.0405008
0.00728306
-0.0593755
-0.0216809
-8.70972e-09
0.0474592
-0.00738718
-0.0232978
0
0.00516974
0.0080253
0.00369801
-0.159251
0.0238564
-6.47001e-11
-0.00915527
0.0186489
-0.199587
0.306155
0.137631
-0.0142497
-0.0773305
-0.0239379
0.0119651
0.0266604
-0.0673357
-2.50002e-06
-4.44273e-05
0.0595527
0.398676
-0.021562
0.13118
-6.97771e-05
-0.090967
-5.82908e-07
-4.54284e-05
0.0187398
-1.44351e-10
0.00516974
-0.0604218
0.00405459
0.0372528
0.0796808
-0.00277488
0.0118048
0.00405459
-6.94071e-05
8.05666e-23
0.00106422
-0.106438
-0.127976
-0.071578
0.0633534
0.00405459
0.180936
0.072062
-0.0168506
-0.104966
-0.0634512
0.126693
-2.40352e-07
0.00175209
-0.0150937
0.0218327
0.0186804
0.0239243
-0.0732972
0.0245596
-6.47001e-11
0.0454108
-0.0842682
-0.0242467
-0.0133652
3.04657e-05
-1.13837e-12
0.0898448
-0.049957
0.0114449
0.0688641
0.0235149
0.0252581
3.04657e-05
0.0236167
8.05666e-23
-0.0984965
0.00405459
-4.21539e-05
-0.0131799
-0.0241452
-1.71077e-05
0
0.0173378
-0.163831
0.0226815
-0.0229022
0.0872711
-6.29097e-07
0.0202979
-0.020403
0.047256
0.00583788
-0.0362806
0.185982
0.0242734
-0.0212726
0.275026
-0.0579115
-6.58567e-26
0.0174919
-0.0249274
-0.00894127
-3.074e-05
0.0595791
0.0493605
0.026129
0.00405459
0.0437581
0.0875707
0.00083069
0.0248963
0.00645031
0.0153778
1.65018e-321
-0.040841
-0.0733827
-0.0674344
-1.28286e-06
0.0437107
0.048508
0.0119651
0.0191849
-2.25905e-29
0.101698
0.00390212
0.0870481
-0.02005
-0.0258738
0.00184023
0.0272787
0.00583788
-0.187685
0.0115017
0.0059261
0.0119651
-0.0498687
0.094747
0.000800673
-0.540931
1.0293e-159
-0.11452
1.26975e-321
0.00493784
0.00405459
-0.0282733
0.010721
-5.87688e-07
-0.0124081
0.0273
0.23482
-0.0873474
-0.193551
0.0122917
-1.28231e-10
-7.17615e-12
0.0263164
0.00645031
-5.2375e-06
0.0949896
0.00439042
0.0016347
-4.12139e-05
-2.60348e-28
-0.0192001
0.00656019
0.122192
0.0964289
0.141303
-0.1323
0.0119651
-2.79532e-07
-0.0907808
-0.0210612
0.0462518
-0.0962882
-0.0242654
-4.43061e-06
0
0.013195
-0.05576
0.00169828
0.000618859
0.013195
-0.0155089
0.0228172
0.358447
-0.151297
0.171857
0.0483649
-3.00191e-09
0.00730396
-0.000132458
-5.2375e-06
0.0242068
0.013791
-2.60348e-28
0.00569706
0.042683
-2.63993e-08
0.00405459
-0.017592
0.00593616
-0.0966672
0.013195
0.425845
4.77088e-161
0.637275
0.000205169
0.0121405
-4.20583e-07
-2.11868e-05
-0.0420062
0.00728306
-0.0104319
0.0192194
0.0551061
-0.0399945
-2.00547e-06
-0.0814535
0.0487534
-2.84639e-10
-0.087775
0.288761
-0.0138906
0.0492024
0.0256141
0.00450989
0.00593616
-0.0218005
-1.43532e-06
-1.55604e-09
-0.0632677
-0.0242603
-1.25873e-06
-0.0287709
-0.0537753
0.0429621
-0.0221107
-7.77936e-05
0.0816595
0.0625316
-0.0308057
0.0128652
0.0507551
0.0250483
0
-0.0607648
-5.60963e-16
0.0227983
-1.54351e-07
0.136831
0.0390763
-0.112363
0.0106962
-0.00434404
-0.0238948
-2.05175e-11
0.0114449
-5.2375e-06
-0.000181237
-9.77388e-10
0.0119651
-0.0315327
-0.0185216
0.0114346
0.017163
0.021129
-7.19176e-11
0.078021
-0.0533478
0.00233263
-0.069011
-1.89063e-05
0.0271595
-0.0534462
0.0859666
-4.5908e-11
-0.00693782
0.0119651
0.0110515
0.017906
0.0423942
-6.19415e-11
0.0964719
-0.103685
0
0.0271914
-3.49079e-05
-4.5908e-11
-0.052901
0.0954789
-0.02005
-7.04815e-07
-0.0867671
0.0124882
0.000524731
-0.0251293
-4.5908e-11
0.036348
0.156377
-1.31313e-12
-0.311078
0.0624365
-0.0247101
-0.038977
-0.0447204
-0.00428578
0.0467269
-0.0229022
-6.10691e-08
3.56204e-151
0.0465838
-2.36859e-05
-6.71929e-322
-0.0197564
0.0217801
0.00517786
-0.159649
0.0613978
-0.0662115
-5.87688e-07
0.158855
-0.0609601
0.23724
0.0451134
-0.0301569
0.00390038
-1.18205e-07
-7.35749e-08
9.7825e-322
0.00405459
0.0894063
-0.00696114
-6.29097e-07
0.0271595
-6.10691e-08
-0.231881
0.0218327
-0.000165
-4.99954e-05
-0.0547714
0.151467
0.0252564
-0.0171407
0.0648327
0.266074
-0.0122558
0.00405459
0.0976603
0.0145886
-0.000165
0.0119651
0.0718321
-0.0604796
-0.0168245
-4.43061e-06
-2.60348e-28
0.0897053
0.0263164
2.52865e-05
-2.05175e-11
8.17103e-07
0.0938539
-0.020403
-0.310444
-6.86766e-09
0.0981095
-2.6931e-08
-1.64563e-07
-0.408112
0.0523094
-1.59023e-13
-0.0848842
-0.0221296
0.0399569
-0.0425076
0.00405459
0.0114449
-0.0369821
1.87745e-322
0.00564355
3.17224e-05
-0.0338355
0.143185
0.233628
0.233628
-0.0365792
0.0254065
0.249909
-6.94071e-05
-0.123616
0.0274945
0.00405459
0.0271595
-1.4045e-06
0.00405459
-1.77249e-05
-0.0194532
0.0515183
0.00921874
-6.83915e-09
-4.12139e-05
-8.60411e-06
0
-0.183772
-0.0244767
0.0873268
1.26975e-321
-0.020048
0.0226787
-0.0106693
0.0481922
0.0243458
0.248135
-0.0176457
0.00143476
0.0119651
-0.0515181
0.0629214
-6.82175e-09
0.168192
0.00405459
-0.00280883
-0.0502747
-4.48989e-09
0.411305
0.0017441
-2.40597e-08
-0.074063
0.151435
0.0133929
-0.0105761
-0.15068
0.0277005
-0.012361
0
0.0637932
-1.44351e-10
0.175963
9.7825e-322
0.0702044
0.00564434
0.0378585
-0.0203203
0.000279323
-0.0176064
-0.0221107
0.179402
-0.000220051
0.0469188
-9.08538e-15
-1.8804e-07
0.00891904
0.0257992
0.102342
-0.0629277
-3.8431e-05
-0.0478434
0.00303971
0.0770905
-2.60348e-28
-1.70788e-05
-0.012361
0.00516955
0.0203227
0.0427597
0.0163558
-4.5908e-11
0.00303735
8.69056e-05
-2.44096e-06
0.0294183
0.00405459
0.0411477
0.0400849
-0.00792931
0
-0.160758
-0.00847752
-0.000259186
0.0246134
0.0479841
-2.08994e-05
0.0909481
0.089909
0.0136618
0.0449463
-4.06658e-09
-0.0375236
0.0440642
-0.05254
-0.209024
0.0169142
-0.126953
-0.0124567
0.0882142
1.11165e-321
0.000524731
-0.0191832
0.0606549
0.0140107
-0.0104056
0.0636799
0.0478827
-0.052215
-0.0803187
0
8.05666e-23
-0.0984802
-2.00547e-06
-0.10139
-2.64932e-07
-0.0221107
-0.0443939
0.00477412
-0.0176839
0.000105754
-0.0801812
-0.0487736
0.000105924
-7.95248e-08
0.279018
-2.79869e-10
2.54077e-05
0.0103403
0.0523389
-0.0482876
0.00725469
0.0416377
-1.95015e-07
0.0709962
0.0275122
-4.44275e-05
0.00405459
-1.63114e-05
0.00658981
-4.5908e-11
0.0794061
0.0121439
0.028485
-0.000109707
0.112975
0.0887197
0.00405459
-0.0870235
0.10318
-0.013727
-4.5908e-11
0.00547954
0.0436542
-0.0163033
-0.0118272
0.0412112
0.101246
3.33368e-22
0.0239032
-1.95015e-07
0.115375
-0.127355
0.092395
0.0274181
0.0186489
0.0872799
0.0458346
-0.16115
-0.000101763
1.11165e-321
-5.83181e-10
0.0275122
0.0585772
0.0747069
-0.000106801
3.79067e-150
-6.94217e-05
-1.57378e-12
0.0510016
0.0161908
0.00728306
-0.00624073
-0.0608533
3.03727e-05
0.0061615
0.134183
0.0218327
-4.99954e-05
0.0460387
-0.0197361
0.122857
0.0636934
-8.70972e-09
0.00166417
-0.00253046
0.0251717
-0.104424
-0.0217123
-0.0447771
-0.034091
-0.000197298
-0.0342347
-7.77936e-05
-0.00970281
-0.0267525
0.116464
0
-0.0488746
-1.1324e-08
-0.0165803
-0.0540237
0.107513
4.77088e-161
0.0114449
0.00405459
0.0736359
-2.84639e-10
0.0121439
-0.0356295
-0.00345758
0.0102498
0.0119651
-0.0249492
0.205823
-0.00495934
-0.116804
0.0282954
0.00817534
-2.73415e-27
0.0370909
0.00370095
0.00578925
0.0264059
0
0.0303256
0.0059261
0.146561
0.00645031
1.95362e-05
-0.00693782
1.69184e-22
0.0218327
0.0224149
-1.02255e-07
0.00546927
0.180581
0.00689687
-0.0268237
7.41098e-322
0.222445
0.000184324
-1.86717e-05
0.0134054
0.0655992
0.0778893
0.013791
0.0119132
0.00758573
-0.0447204
0.0157986
-7.77936e-05
0.0514051
0
0.103502
-4.21917e-05
0.0573279
-3.97628e-09
-7.03077e-05
0.0558193
0.0157843
-0.0602088
0.00673853
-0.0205932
-0.00613097
-0.0856796
0.0145223
0.00516974
0.0119651
0.0958885
-0.048953
-0.06245
-0.055166
-0.00222436
0.0558692
0.00303735
0.0160113
-0.0171407
-1.77249e-05
-0.0210612
0.00643749
-0.0495107
-0.0301567
0.00658981
0.0351826
-1.2559e-10
0.0385978
-2.25905e-29
0.00083069
-0.000954444
-9.96676e-05
-1.38809e-05
-2.79869e-10
-0.0357653
0.055979
0.000272101
0.00444977
0.00405459
-0.0466569
-0.0459154
-1.47004e-06
0
-0.136551
0.0422062
-0.0743515
0.0604408
1.41134e-06
-0.119265
0.0857497
-0.0963549
0.237431
0.0938757
-1.55474e-06
0.0175264
0.0186489
-0.012361
-0.0258972
1.87745e-322
-0.0251293
-0.0642429
0.021914
-0.0400622
-0.0722213
0
-0.0760796
-0.0205225
-2.94383e-08
3.03727e-05
0.00593616
-2.88793e-08
0
-0.0224687
-0.0274855
-0.020403
0.192063
0.0114449
-1.24274e-10
-0.0204031
-0.0548266
-0.0529595
1.65018e-321
0.00516974
-0.0733767
0.0039598
0.0499737
0.0353519
-1.10676e-06
-7.03077e-05
-2.84639e-10
-0.0492978
0.00223236
0.00392847
0.00269108
0.0851918
0.0886872
0.0115017
-2.67099e-07
0.00677011
0.0312551
0.0312551
0.0168941
0.0188907
0
0.0352138
-4.44273e-05
-1.4283e-07
3.17224e-05
0.000155784
0.0192303
-1.00972e-05
-0.042067
0.0124809
-0.331113
0.0119651
0.0216978
0.0140146
-0.0384411
-0.0214155
-0.065799
-0.013727
-0.0029739
0.0266243
-0.0598811
0.00493784
0.0251447
0.00405459
-4.5908e-11
0.0532244
0.0015361
-2.79869e-10
0.00296519
-1.59023e-13
-0.027386
-0.189987
-4.10386e-05
-0.00559877
-0.042283
-0.0301794
-0.0550757
7.2904e-151
0.00309784
0.149936
-0.0278412
0.00405459
-2.48973e-05
-0.0160896
-0.0188961
0.220191
0.00405459
-0.00532124
-0.0775818
-0.0186089
-0.0165803
-0.0123978
-0.00488155
-1.0276e-07
0.0729466
-6.58981e-11
-0.0126894
0.00405459
0.00196577
1.91556e-160
0.00405459
-0.0268237
0.00369967
-7.72237e-09
-1.83809e-05
-0.0659305
0.0353519
0.020186
-5.14289e-25
0
-0.0364188
-0.0856703
-0.0701895
0.00215097
0
-0.0176064
-0.012361
0
-1.64522e-05
-0.0386991
0
-0.0749401
-6.94071e-05
-1.95015e-07
0.00405459
0.0477834
0
-0.0286952
-0.11425
-1.92472e-06
-0.0498045
0.00585672
-6.47001e-11
-0.260909
-0.0301794
-0.0442538
-2.84639e-10
9.7825e-322
0.013791
0.0597817
0.219859
2.07423e-160
0.0512448
0.0284668
-0.0350049
-2.89693e-08
-0.0125451
-5.7516e-06
-0.0969319
-0.0997878
0.0549891
-0.0343536
0.0383943
5.33646e-05
0.00179441
0.0249143
0.00728306
0.0758701
-0.0319659
0.0119651
-5.01893e-06
-0.00674467
0.240971
-0.0429775
-0.0326824
0.0114424
0.0682149
3.67536e-05
0.0162861
-0.0071959
-0.00875678
-0.0443416
0.136091
0.0235657
-6.10691e-08
0.00405459
-1.4045e-06
0.0595343
2.93612e-05
0.0164527
-1.70453e-321
0.0850759
-1.59023e-13
0.0551528
0.00733304
-5.7516e-06
-1.77249e-05
1.87745e-322
-0.0682354
0.105928
-2.44096e-06
-0.0131078
0.0321248
-0.000194126
-4.86287e-05
0.00103905
-0.00804642
-4.5908e-11
-2.11868e-05
0.126691
-0.143158
-0.0226865
3.17069e-06
-0.000155728
0.024756
0.0312551
-0.0498045
-5.2375e-06
0.0106962
0.0103949
0.00405459
0.0114449
-0.023929
0
0.313568
0.00975142
-0.027386
0.0770227
-0.0626795
0.00516974
0.145502
-1.82729e-10
-0.0120539
-1.26286e-08
0.0517682
0.00586571
-0.0259368
0.00590366
-0.0903472
-2.79869e-10
-0.107167
0
-0.0256829
-0.0741977
-1.28231e-10
-0.0123333
-5.2375e-06
0.0142846
0.375428
-0.0303098
0.151651
0.00405459
-0.105812
-2.87047e-10
-0.0155586
0.0157986
1.26975e-321
0.000444691
-1.0276e-07
0.125776
0.0246099
-0.0637691
-1.59023e-13
-0.0812415
0.06069
0.0411477
-0.0303098
-5.89887e-06
0.0134054
0.0114449
0.04118
-0.0477811
-0.0997291
-2.5572e-08
-0.0814551
0.132572
0.00583788
0.154527
0.0114449
0.0313858
-2.87832e-06
0.0164527
0.00696515
0.0323975
0.00153307
-0.0612486
0.0236087
-5.18776e-05
0.0601935
0.0367863
0.0264114
0.0191417
-0.0492978
-0.0395506
0.00405459
-0.0300122
-2.84639e-10
-5.2375e-06
-1.76955e-06
0.0218327
0.0235706
0.00789039
-2.88793e-08
-0.0192734
0.0573279
1.5316e-321
0.00575479
-0.0892513
-0.0738767
0.193116
0.0218327
-0.026767
-0.0362806
0.0514051
-1.95015e-07
-0.00909974
-0.0658443
0.00655785
-0.0745025
-0.102025
-6.99603e-05
-1.13837e-12
0.0114449
-2.25905e-29
0.0061615
-0.00943188
0.0892998
-0.0158119
0.0271595
0.0353519
-0.0856554
-0.0897679
-0.0321109
-0.123745
-0.0678264
-1.4921e-07
-0.0147025
-0.0264701
0.00405459
-2.92365e-08
-0.000165
-0.0224687
0.00143476
-0.0204708
0.0402168
-1.64381e-15
-0.0260544
0.0134054
-0.0185439
0.0286874
0.0501084
-1.44351e-10
-5.2375e-06
-2.60348e-28
0.0717097
0.092314
-0.000107489
0.0416114
-2.64932e-07
-0.0540237
-0.0841247
0.0235914
-0.0903332
-0.0171407
-0.10401
-7.95248e-08
-2.05175e-11
-0.0626325
-1.44351e-10
1.69184e-22
-4.5908e-11
-0.0155451
0
-0.0251016
0.024756
0.0279529
0.00166417
-6.69385e-06
0.0218294
-0.0426106
-0.012361
-0.100107
0.00405459
-0.0093203
-6.86766e-09
0.00431122
-0.0707433
1.8671e-07
-2.64932e-07
-0.0351153
-0.020403
0.0587198
0.188474
-0.123028
-0.00277488
0.00493784
-0.05576
-0.071519
0.00296519
-0.020403
-0.0537753
0.0160898
0.0606548
-7.4481e-08
-4.49939e-08
0.0492405
-0.0741226
-0.113781
-2.26624e-29
0.129645
0.00650159
-5.2375e-06
-5.83181e-10
-2.64839e-05
0.00618909
0.0551882
-2.50002e-06
-0.0276149
0.012481
-9.87008e-08
0.0646194
-0.0145007
0.0384567
0
-3.14955e-06
0.0462955
-0.0167056
-0.000165
-0.0439391
0.0162799
-0.0321109
0
0.0347202
0.00417402
-5.9881e-07
0.0959753
0.0279529
0.00493784
0.041483
0
0.00516974
-4.5908e-11
-0.0251872
8.05666e-23
-0.063186
0.0113952
-0.0221107
-0.0176064
-0.215048
-3.97628e-09
-6.47001e-11
0.0866866
-4.71592e-05
0.0198945
0.0246902
0.0803338
0.00506831
0.210858
0.046673
-0.0240109
0.0116514
0.012481
-2.87832e-06
-2.05175e-11
0.00480639
0.0642774
0.0107527
0
-2.19074e-07
0.0519003
-0.0471176
0.0275122
-0.00679566
-0.0925419
0.0356979
-0.0254245
-0.05455
-1.03085e-08
-0.170673
-4.9268e-05
0.0263164
-7.77936e-05
-0.00819413
0.0218045
-0.00406127
0.0637732
-2.25905e-29
0.0664151
0.157651
-6.86766e-09
-0.0910171
0
0
-0.000165
0.0752865
0.00858142
0.0312551
0.0192194
0.0226817
-3.00191e-09
-2.17067e-15
0.235623
-0.0260515
0.00179441
-0.0452293
-0.0197564
-7.644e-05
-0.0311006
-0.099763
-0.0391403
0.013791
0.0119218
-0.0619621
0.0100648
-0.0577318
-0.219735
-0.0402186
-0.0303098
0.0153809
-0.017592
-0.00635964
-0.0625221
-0.0360295
-0.128917
-0.0251293
0.0473134
0.0490883
-0.02005
-0.109322
0.0573796
-0.110645
0.0251501
0.012481
1.69184e-22
0.00772082
-0.0173057
0
-0.0193907
-0.0399945
0.0050086
0.0265537
1.41134e-06
0.0306138
0.00743125
-0.206127
-2.21414e-07
-1.09164e-05
0.00659159
-0.0596835
0.0288868
-0.0519487
-6.93774e-05
0.127811
-0.0399945
-0.0110216
2.93612e-05
-0.0240196
0.0119651
0.0381889
-0.115533
-0.108438
-0.104767
-0.0194163
0.0542983
0.0496203
-1.74237e-10
0.046402
0.00516974
-8.00386e-322
-0.011456
-0.068497
0.0320395
-0.107529
0.0303256
0.215872
0.0067718
-0.0558109
-1.16732e-05
-0.08795
-0.0846606
0.0682669
0.0229328
0.165671
1.65018e-321
0.0673522
0.0924433
0.00222538
0.0162861
-0.0425667
0.00405459
0.00641922
-2.5572e-08
0.0254558
-7.95248e-08
-1.37093e-06
-2.84639e-10
0.0185931
0.00794631
0.0558705
0.0119651
-0.0378396
-0.0907808
-0.037747
-0.0240339
-0.0417339
-7.77936e-05
0.0681956
0.00249437
-3.23967e-06
-0.0682354
-6.82175e-09
0.00358872
-0.0084154
0.0733071
-0.0117691
-2.64932e-07
0.0280418
-0.012361
0.232352
0.0252614
0.045232
0.000555693
-0.0101093
0.00135814
-7.47144e-05
-1.77249e-05
-2.72322e-07
0.0644277
-0.000105272
-0.0811331
0.0194608
-0.0861419
-5.9881e-07
-0.0471155
0.0649087
0.00622432
-0.000155728
0.0245617
-3.00475e-06
0.0912941
-5.2375e-06
-1.59023e-13
4.28603e-05
-0.0229022
-0.023834
0.0043904
0.00405459
-0.058045
8.05666e-23
-0.0555567
-6.10691e-08
0.0156995
-0.0402574
-1.16105e-321
0.0633534
-0.00610794
-0.0105061
-0.000194728
-0.0797928
0.0114432
0.00733304
0.0914807
0.0114382
-1.55604e-09
8.05666e-23
-0.0476448
0.0367933
-6.94071e-05
-0.00533542
0.0512448
-0.0193509
0.0194608
0.0388889
0.190136
0.00304175
-0.0534462
-1.63114e-05
-6.82175e-09
0.232835
0.0850349
-5.42537e-09
0.060346
0.0688516
-0.0213568
-9.87008e-08
-0.0399233
-0.0843177
-0.0195113
0.0192303
-0.0490727
0.00405459
-0.020403
-7.4481e-08
-0.0248631
0.0157986
0.0157119
-0.0505178
-3.70353e-07
-0.0445961
0.0173378
0
0.00593065
0.00583788
0.0360296
0.0705809
0.0664705
-0.0399945
-0.000153639
-0.0740655
-0.0442024
0.0162861
-0.118471
-0.16524
-6.58567e-26
-0.00114642
0.0825242
0.0540534
9.7825e-322
1.91556e-160
0.0874605
-5.23778e-06
0.103793
-0.000165
0.170517
-0.0190979
-5.60963e-16
-1.77249e-05
-0.0836951
-0.0124881
-7.77936e-05
0.0224149
-0.106874
-0.0304173
0.0323975
-3.24378e-08
-6.97771e-05
-0.000101763
-0.0362806
-0.0155089
0.0735526
0.0667084
0.00405459
0.00272955
-0.0823533
-5.40767e-14
0.00518189
0.0119651
-0.000197298
0.000958282
0.0119651
-0.0601787
-0.00552393
-0.0240109
0.0409341
0.00564434
0.102546
-0.0596448
-1.25873e-06
-1.47004e-06
0.0666921
0
-0.00738718
0.00872973
-0.0248993
-2.17067e-15
-0.00749025
-1.03029e-08
-0.0155451
-0.0509406
0.0608117
0.0059261
-0.111416
0.00568372
0.0275122
0.0774143
0.171486
0.049423
0.000356299
-0.024038
0.0153459
-0.017592
0
-0.00779441
-0.0221107
0.0203227
-0.0469667
-0.0452293
0.0156884
-0.0892157
0.0102498
-0.0291531
0.0644277
0.00326271
-0.0153794
-0.0559648
0.0436988
0
-0.0502977
-0.012361
-0.037127
0.0268233
-0.0145819
-0.0700172
-1.95015e-07
-5.7516e-06
0.0313915
0.0637072
-0.132898
0.0054629
0.00676556
0.0577621
-0.000153639
0.0159221
0.00225683
0.026045
-0.00444857
0.00921874
0.0550933
1.11165e-321
-0.020403
-0.103225
-2.48147e-07
-0.117002
-1.59023e-13
0.00546155
-0.0478336
-0.0461945
0.07452
0.0384567
0.0284969
-0.0469285
0.013342
-0.140216
-0.00488925
-0.0168729
0.0489651
-1.95015e-07
-0.0157506
-0.0534462
0.0560947
-0.0334042
-0.0209601
-2.64932e-07
0.00761655
-0.0232267
0.00392847
-0.0454243
0.00668914
0.0384567
-1.77249e-05
0.110219
-0.0157791
0.00316447
0.11973
0.0263164
-0.0382954
0.0887156
0.0162861
0.00318165
-0.0210612
0.0137723
0.0502744
0.188128
0.0114449
-4.06658e-09
0.0573279
-0.0520095
0.0625316
0.0140107
-0.0262003
-1.02125e-07
-3.24378e-08
-5.01456e-08
-2.84639e-10
0.00339718
0.0119651
-0.137588
-0.0997878
0.00573468
-0.017592
-0.00494722
-0.00678504
-0.0256923
-0.0268318
0.0115005
-6.4224e-08
0.127861
0.0059261
0.0161183
-0.0446218
-0.0966672
0.0490883
-1.28286e-06
0
0.0837881
0.0252545
-6.97771e-05
0.0049868
0.0059261
-2.25905e-29
7.41098e-322
-0.017592
0
-0.00702767
0.0654694
0.0144376
0.0369438
0.123157
0.0122209
0.0212586
-0.0481487
-0.10835
1.65018e-321
-0.0642331
0.0114449
0.00541802
-1.72329e-05
0.0277865
-0.00960414
-0.00835329
0.102461
0.00153307
0.0202086
0.0111265
-8.52346e-15
-0.0426675
0.00484211
-1.55078e-07
0.00150688
-0.0209601
0.0497943
-2.84639e-10
0.00312547
-0.000117263
-0.0287709
-6.29097e-07
-7.4481e-08
-4.10386e-05
-7.72237e-09
0.00516974
-8.73431e-06
0.00173145
-1.43532e-06
0.331331
0.0422062
-0.0427793
-0.0137271
-0.167061
-0.0329753
-0.114621
0.00767726
-2.00547e-06
-0.096528
-1.31313e-12
-0.0011107
-0.085383
-0.000117464
-0.0216875
0.00564434
0.0441882
0.0416667
-0.00728664
-6.47001e-11
-0.0148143
-0.0629537
0.0067718
-0.0756564
0.00405459
-3.49079e-05
-0.0109831
0.0186804
0.0403538
0
4.29837e-322
-0.0700816
0.0059261
0.317365
-0.0357621
-6.97771e-05
-6.10691e-08
0.0591549
-0.0787861
-0.124551
-1.95015e-07
0.00728306
0.0569757
-5.2375e-06
-2.25905e-29
-0.0399945
0.0421891
-0.0431803
0.0701113
-1.74885e-05
-3.74671e-11
-0.0125598
0.0353519
-5.44617e-07
0.0981095
0.001846
-0.121432
0.0550142
-0.0306467
-0.080808
-0.0242467
-0.0447087
-0.000117263
-0.0454243
-5.2375e-06
0.0192303
0.123207
-0.145116
-2.60348e-28
0.0952234
-1.74237e-10
-0.0547361
1.65018e-321
-7.77936e-05
0.16709
0.00725469
-0.0337711
0.00645031
-0.0147603
0.00445033
0.0191714
0
0.0353029
0.0884132
0.0187822
0.0203175
-0.0118057
0.0140107
0.171012
-0.0773227
0.0157119
0.0637732
-1.31313e-12
0.00169828
-0.0741168
-0.0126901
0.0713516
-8.73727e-08
0
-0.0405496
0.0439476
-6.10691e-08
0.0333687
0.0154533
-0.0429255
-0.000601113
0.000534485
0.0157986
0.133086
-0.0136315
0.231521
-0.0176805
-2.17067e-15
-5.83181e-10
0.0349643
0.0153806
-0.000449885
-0.051966
0.0414278
-0.0130644
0.0021744
0.0224617
1.5316e-321
-2.48147e-07
0.150916
-0.0360295
-0.0894422
-0.0636812
-0.0730093
0.00504348
-0.012361
0.318041
-0.012361
0.00405459
-0.000119709
0.101176
0.115933
0.0235706
-0.0446218
0.015567
-0.0236154
0.00516974
-0.0445641
0.191985
-1.37093e-06
-3.15248e-10
0.0474995
-0.0360295
0.0203065
-2.74781e-05
-0.00642099
-0.033318
-0.130654
0.0114449
0.121611
-0.0011107
0.00794631
0
-0.124067
0.0238722
0.030371
0.00318882
0.00683392
0.0742192
-0.0384395
-0.0633127
0.0658067
-0.0224687
1.5316e-321
-0.031738
0
0.0681932
0.047468
0.00417402
-0.0027802
-0.0343536
-0.00693782
-1.16732e-05
-0.0108978
-0.0475699
-5.2375e-06
-0.0113485
0.042082
-0.0459154
0.0059261
-4.11249e-09
-0.0459183
0.0633534
-1.86717e-05
-0.110264
-0.000117263
0.0281092
2.17389e-322
-9.28422e-12
0.000142972
0.0114443
-0.0644328
0.0898506
0.00411953
-0.0757511
0
0.012389
0.129532
-0.14824
-7.17955e-05
-0.00011401
0.0273113
-0.0238705
-0.0195044
-0.0295702
-1.95015e-07
-0.0597485
-0.000107489
-1.1324e-08
0.000524731
0.0367418
0.00083069
-4.5908e-11
8.63488e-05
0.0430115
0.0988812
-2.48147e-07
-0.0268237
0.00725469
-3.90714e-05
-2.40597e-08
-0.135544
-3.23967e-06
-0.0147025
-7.17615e-12
0.0885295
-1.02878e-07
0.0243458
0.0134054
0.0154814
-0.0275333
-0.00758811
-1.70788e-05
-0.000117263
-2.92365e-08
-2.64932e-07
-0.0785946
0.188474
-0.0315231
-1.95015e-07
0.00585192
0.0415847
-6.16468e-06
0.0311563
-0.0153484
-0.00635964
-0.0892505
0.00283844
-0.00586595
0.0433619
0.0059261
-1.95015e-07
0.000554052
0.0573279
-0.0439964
0.013791
-0.0468379
0.0272542
0.00337064
0.0346164
0.0728484
-0.0380195
0.000153211
-1.72329e-05
-0.0365044
0.0859302
0
0.100928
-0.110499
0.115399
-0.0690619
-0.0481665
0.0737953
-0.0755247
-0.058045
0
0.00745042
-0.0361874
0.00752131
0.0278683
-2.84639e-10
0.0126087
0.0328323
-3.29766e-08
-0.0168101
0.0617927
0.0241489
0.00542713
0.132082
-0.0492978
-7.77936e-05
8.01031e-161
0.0203227
0.0241549
-0.0188065
0.00405459
0.000349616
0.0705322
-0.00231685
-6.77851e-05
-0.110499
0.00405459
-0.00496297
0.0490727
0.00458203
0.0306882
-1.17022e-05
-5.60963e-16
-0.081779
0.0425985
-4.86287e-05
0.0563063
-0.0374433
0.0186804
-0.00367846
0.0699122
0.016558
-0.0229022
0.0811911
-6.86766e-09
0.0284255
-0.0531154
0.00728306
-0.172493
-0.104749
0.0365728
0.0255518
1.87745e-322
-1.63114e-05
0.0203227
0.0251231
-6.93125e-06
-1.37093e-06
-0.0485115
-0.0384188
0.0121043
0.0272787
-1.72329e-05
-0.0378356
0.000429299
0.0654981
-0.0315231
0.042412
0.00219405
0.0186489
0.0173698
-0.114305
-0.0382898
-0.00416818
0.0192194
0
0.0245549
-1.28231e-10
0.0110224
-6.29097e-07
-0.0255106
0.0192962
-0.00050562
0.0107527
-0.0297505
-0.00719127
-1.54088e-06
-0.0256923
0.0195633
0.0226171
-1.95015e-07
0.0226171
0.19686
0
-0.00602252
0.195922
-0.0343536
-0.0430858
-0.0124567
0
0.0329276
0.00405459
-0.00253046
-8.74496e-322
-0.0393984
0.000534485
0.0107527
0.00725469
-0.000195887
-1.44351e-10
0.074751
2.07423e-160
-2.00598e-08
-0.013727
-0.0255285
0.166966
0.0277865
0.000240274
-0.0323085
-2.55949e-07
-6.87915e-08
0.177518
0.035893
-4.34778e-322
0.0135998
-0.00553691
-0.0804719
-0.0694483
0.0266243
-0.026136
-7.01141e-05
-1.03085e-08
0.0156316
0.0496263
0.192301
-0.108374
0.151909
-0.016953
-7.85298e-11
-1.64094e-06
-0.0268436
0.0129557
0.00405459
-0.0406705
-2.86371e-07
-0.00019707
-0.00544412
0.0635806
-0.0247985
-0.00332098
-0.00235543
0.0637732
0.00409505
0
-0.0805221
0.0519468
3.03727e-05
-0.0869514
-0.0549411
0.053044
-5.2375e-06
0.0252614
0.00116308
-0.00876631
0.022528
0.000155784
-5.05544e-06
-3.24374e-06
1.69184e-22
-1.95015e-07
0.0960234
1.81424e-160
0.004796
0.00673853
0.120008
0.0139066
0.0134608
-0.109933
0.161931
-6.23821e-08
-4.5908e-11
-0.0561809
0.0114937
0.00728306
-0.0187295
-5.83181e-10
0
8.05666e-23
0.00673876
0.0272787
0.0157409
0.028277
0.0168527
0.00290401
0.0690179
-1.38809e-05
0.00405459
0
-6.47001e-11
-0.0113485
0.0403538
-0.000197298
3.56204e-151
0.00758573
0.0073644
-3.00191e-09
-6.83915e-09
-6.93125e-06
-0.0141356
-6.10691e-08
0.0849893
-0.02005
-0.0155266
-7.72237e-09
-0.0295262
-5.2375e-06
0.0272787
0.00143003
-3.47808e-11
-0.0384188
-7.17615e-12
0.0254558
-0.000100239
-0.0220823
0.0626874
0.101271
-0.0309405
-0.00921197
-7.17615e-12
0.163959
-0.164921
-1.31967e-06
0.0869174
-0.0431023
-8.44174e-07
-7.19176e-11
-5.79997e-06
-0.0189007
-1.4045e-06
0.010721
-0.00019278
-4.62023e-08
0
-0.0918833
0
0
0.0246574
-0.000192753
0.0186804
-0.00847752
-0.0662115
0.00309784
-4.6368e-05
0.0667084
-0.00404419
0.00152783
-0.0744594
-0.0401445
0.00283973
-0.00525852
0.0514051
0
0.00493784
-0.000155728
0.0384522
0.0313915
0
-0.0754155
-0.0838355
0.177507
-0.00270324
0.0637732
-0.0071181
-0.0617459
0.127002
0.00516972
-2.64932e-07
0.00696515
0.0482727
-4.94876e-05
0.057871
-4.06658e-09
0.0706818
-1.76963e-06
-0.0276779
-0.0278412
-3.97628e-09
-8.73727e-08
-2.84639e-10
-0.067209
-0.0155586
0.00222558
-0.0011107
-0.0508216
0.00337064
-0.000101763
-0.107605
-3.23967e-06
0.0431183
0.0502744
-0.0519374
-3.26661e-06
0.000182614
-0.00194083
-0.024038
0.0192194
-0.0455559
0.0202218
0.00854099
0.0869688
-1.54351e-07
0.151768
-0.0476083
0.000177363
0.166502
-0.137681
-7.77936e-05
-0.0271906
0.00641922
-1.95015e-07
0.0175256
0.0279529
0.0521052
-0.0806021
0.0569757
0.00728306
0.11794
0.0435452
-0.0192734
-0.0796904
-0.0165339
0.0551882
-0.0660047
-0.0792273
-3.00475e-06
2.71743e-142
-0.0394254
-9.28026e-07
-0.147747
0.00725469
-0.00471361
0.042726
0.262789
0.0947884
-1.44351e-10
0.0609137
-0.0524718
-0.105058
-7.19176e-11
-1.64522e-05
0.0267034
0.00493784
0.161931
0.101506
-1.61065e-321
0.103293
-0.0462794
-0.0682832
-0.101884
0.0114449
0.00538394
0.0158516
0.0145573
0.0688641
0.0314825
8.01031e-161
-7.17615e-12
0.0521027
0.0212586
-4.5908e-11
0.0763893
-7.35749e-08
0.0943597
0
-0.0887618
0.0175264
-0.0399945
-0.0563353
-6.82175e-09
-0.164417
0.209827
-0.0251872
0
0.0272787
-5.46084e-12
-0.0830884
0.00857172
0.0186804
0.013791
-0.0688127
-4.5908e-11
0.0749518
-4.94876e-05
-0.111407
-0.0907808
-4.44273e-05
0.00272955
0.0818341
0.0132733
-5.46084e-12
0.0681957
-1.10676e-06
0.0100487
0.130679
-0.00488155
0.0357963
-0.0749243
-1.11369e-05
-0.0221107
-0.0546246
0.0565774
0.0454308
-0.020403
-0.050586
-0.0393984
-0.0478336
0.0236794
-5.2375e-06
0.0186804
-0.126237
0.050107
0
0.0199141
0.0165085
0.0254558
-2.57901e-07
-0.0184419
2.78161e-05
0.0257992
0.135967
-0.0240849
-0.000155728
0.00696515
0.0314646
-0.0594613
0.000174228
0
0.00940436
-5.89887e-06
0.0531238
0.355848
-4.99954e-05
-0.012361
0.0450255
0.0894989
-0.0173651
-4.5908e-11
-1.47237e-05
0.00682976
0.00311242
-0.0543561
0.0143751
-1.26134e-06
-0.0545006
-0.14612
-8.34971e-322
0.00493784
0.109709
0.0672807
0.0111556
0.020186
0.0818349
0.0151909
1.26975e-321
-6.83915e-09
0.0271595
-0.061822
-0.0216875
-0.012361
-3.23967e-06
-7.17615e-12
-1.10631e-05
-0.0192734
0.00647724
0.0216678
0.00384112
0.0413306
1.8671e-07
-0.0447752
0.00179441
0.0472559
0.00337064
-0.0284132
0
0.0106962
0.0883134
-0.00775503
-0.012361
0.00360671
-1.54088e-06
-1.16105e-321
-0.108879
-0.0151192
0.135169
0.0377538
-0.10139
0.239161
-1.64381e-15
-0.0240719
0.0292788
-0.056054
-0.107851
-2.93544e-07
0.000793101
0.0569757
-0.00361364
-1.1324e-08
-0.000493745
0.162481
-0.00566545
0.043399
-6.47001e-11
0.00744326
0.249126
-0.215127
-0.0529552
0.0569757
-0.127458
-2.25905e-29
-1.77249e-05
-2.20943e-15
0.00621536
-3.00191e-09
-0.0452293
0.0203473
0.0188907
0.0119651
-1.54635e-07
0
-4.49939e-08
0.00326271
-0.0580365
-6.93774e-05
0.0192194
0.000749558
0.0261215
0.0313915
-0.028895
0.0273779
0.00153763
0.0134054
0.334575
0
-0.00855531
0.0115017
7.2904e-151
-0.0365767
0.0899036
0.104959
0.0329786
-0.161689
-0.000107489
0.103955
0.104959
0.0792881
-0.00103069
-0.0117871
0.0429533
0.0120265
-6.82175e-09
-0.0873383
-0.211417
0.00426526
-0.260553
-7.41755e-05
-0.165311
0.000584499
0.0119651
0.00725469
-0.0291056
0.0912941
0.029632
0
0.041483
-0.00635964
-0.0796082
0.0157986
-1.23116e-06
-0.0138449
-4.8323e-05
0.0134054
-0.0478336
-0.0241452
0.0310553
-0.000155973
-3.67609e-07
0
0.133086
0.094665
-0.0685735
0.0199559
-1.76955e-06
0.0275025
-0.179486
0.0925333
0.0602729
-1.16105e-321
-0.0410613
-0.0272459
-1.28286e-06
0.0320107
-0.0546246
0.00290197
0.154515
-0.0752733
-0.00506041
0.00781014
0.0275122
-5.04608e-08
-0.095358
0.0134001
-0.0800465
0.0887197
0.00904855
-1.70788e-05
-0.000625617
-0.000449885
0.0210543
0.000153211
1.65018e-321
-0.0023258
0
0.103138
0.00272955
0.0313462
-2.60348e-28
-0.115806
-0.00362413
-0.105005
-1.25873e-06
-1.95015e-07
0
0.0235706
-1.48472e-09
-0.000101763
-0.038092
-0.0377324
-0.00796167
0.0577621
-1.76955e-06
-7.72237e-09
-0.0352683
4.69362e-322
-1.59023e-13
9.14021e-322
0.00384112
0.00405459
-0.027386
-0.0535677
0.19583
-0.0447226
-0.0593885
0.000381598
-0.000119429
0.114929
0.0521052
0.013563
0.103969
0.0883134
-0.0194532
-0.126222
0.0213367
7.30059e-05
0.0192023
-0.000155973
-2.84639e-10
0.0458992
-1.83809e-05
0.000416735
-3.2702e-05
-2.40597e-08
-0.0705918
-1.64563e-07
-5.44226e-09
-0.0466703
-1.4283e-07
0.00496189
-2.84639e-10
-1.74237e-10
-3.03892e-05
-0.0238705
-6.10691e-08
0.0119651
0.0652491
0.0604408
-0.0347522
-5.60963e-16
-4.21917e-05
-1.44351e-10
0.0609137
-0.0564971
0.0358363
0.00779596
-0.0475994
0.0119651
0.000395585
-7.02404e-08
-0.0844574
-0.0221107
-0.0127293
-2.17067e-15
-0.0534462
0.0638697
0.0400837
0.00584456
0.035194
0
0.0787064
0.0106047
-0.0155451
-0.112615
0.0192194
0.0275122
-0.101806
-0.0301794
-0.0720868
-0.0916443
0.0140107
0.0476351
0.00405417
0.0260878
0.00673526
0.117462
-5.44617e-07
-0.0495081
0.00392847
0.00405459
-0.0330854
0.000959128
0.0318676
0.00188325
0.0422062
0.00217685
0.042412
-0.000117263
0.0441679
-2.48147e-07
-0.0251872
0.0576691
2.24741e-160
0.0284668
0.0873242
-0.000449885
0.0780915
0.120048
0.0186357
-0.0380496
0.0742164
0.0685375
-0.038977
-0.0251872
0.0054629
0.0186746
-0.00693782
0.0893631
-0.0502977
0.0157119
-0.0044021
-0.0343566
0.0102222
0.0988085
-1.4045e-06
0.0271914
-0.0084154
-0.0118272
-0.0315645
-0.0454243
0
0.0187822
0.17849
5.06525e-07
0.125643
-0.0877231
-0.0130993
0.080859
0.00975142
0.001456
-5.6441e-07
-0.104425
0.0313052
0.0901396
-0.037747
0.0188123
-3.25496e-15
0.0622046
-0.0415154
0.0313052
0.0431812
-9.08538e-15
0.0315535
0.00169828
-0.0177156
0.0819389
0.000346658
-5.33238e-05
-0.0766317
-0.0317595
-0.0221107
0.0522827
0.0288015
-0.074063
0.0147358
0.0272624
-1.32272e-14
0.0119651
0.00769586
-0.0241452
0.00272955
-2.58797e-05
-0.0886243
0.00405459
-0.0211528
0.00659893
-0.000101445
0.013563
-0.0249274
-0.0106151
-6.69385e-06
-7.41755e-05
-0.0192792
-7.95248e-08
-0.0416589
0.0629786
0.00107029
0.00303971
-2.11868e-05
0.000182614
0.0233857
-0.152332
0
-0.0459848
-0.0271906
-0.0358784
0.114178
-1.27575e-08
-0.0779048
-0.0402989
0.00283973
-0.0269301
-0.0676552
0
-0.0962213
0.227147
0.0165086
0.0498117
-0.112344
-2.48147e-07
-0.00404419
0
-0.0500816
-0.012361
-5.68019e-06
-0.0268366
-2.48147e-07
0.0377881
0.05509
-3.7919e-05
0.413588
-5.55542e-08
0.0333795
-0.0814523
0.0629271
-1.70788e-05
0.00593616
0.144415
0.0138188
0.0230773
0.0604406
4.28603e-05
-6.74912e-05
-0.135022
-0.0530126
-0.000192753
0.00641922
0.0119651
0.0104978
0.00484206
0
0.00137876
-0.00019707
0.0429533
-2.87832e-06
-0.000165
-1.10676e-06
0.0103949
0.104581
-3.39066e-05
-5.2375e-06
-7.35749e-08
0.0315535
-2.4795e-05
-0.0193509
-0.0328177
0.0302449
0.0569757
0.031485
-1.44351e-10
0.036588
-7.17615e-12
0.00592334
-2.60348e-28
-0.021612
-0.227947
0.083848
-4.5908e-11
0.0396624
0.0186489
0
-0.00234547
0.0284956
0.0926621
-7.77936e-05
0.00461364
-1.27019e-05
0.0257992
-0.0473483
0.0183432
0.00159711
0.0272787
-0.00693782
0.0558373
0.0212586
-0.0131863
-0.0145297
-3.65461e-05
0.0178002
0.0187587
-6.47001e-11
0
-0.0107949
-2.05175e-11
-0.0369411
0.0712078
-0.0693756
0.0319471
-0.0466793
-0.000102989
0.0350822
0.00712921
-6.47001e-11
0.000302272
-0.124489
0.0551061
-6.47001e-11
4.28603e-05
-8.11777e-13
0.00174509
0.0219226
0.0377493
0.019212
0.184379
0.0247558
0.115488
-2.64932e-07
-0.080725
0.0384096
0.0331044
-0.0244767
-0.11495
2.17389e-322
-0.0147657
-3.88302e-06
0.0218348
0.0278785
-0.0634512
-0.0573255
-0.0251295
-0.0194991
1.18082e-321
-0.0966672
0.0151512
0.0059261
0.0266357
-0.000101763
-0.00693782
-0.0202174
-2.73415e-27
-0.151203
0
-1.09389e-12
1.69184e-22
1.78592e-05
0.00405459
0.0043904
-4.48831e-09
0.0536504
-0.0278414
0.0787481
-3.96156e-05
-0.0202086
0.0231844
-0.0872494
-0.0168527
-0.0448214
-0.0464345
-1.13312e-08
0.0054629
-4.86685e-05
0.0981095
0.0119651
-0.0508216
0.102196
8.01031e-161
-1.98692e-07
0.108767
0.00445033
0.0119651
0.00405584
-0.00693782
0.0224617
0.00121662
0.0173378
-2.25905e-29
0.0830307
0.0271595
0.0808134
-0.000172757
1.65018e-321
-2.87837e-06
0.0203227
-0.0992019
0.050066
0.0175215
-0.0108414
-0.0977308
0.0476458
0.0453925
0.160564
-0.020403
0.0427606
-2.05175e-11
-2.22502e-08
0.0509648
0.185063
0.0696683
0.00516974
-0.0640549
0
0.0246249
-0.161768
-0.0749488
-0.0272383
-0.0446896
0.0503634
-0.0666254
0.015567
0.0671003
0.0533997
0.111812
0
-0.00559548
0.0405447
-0.0986302
0.107513
0.00405459
0.0323895
0.0359056
0.064276
-1.41797e-321
-0.0399945
-0.0375396
0.000700608
0.00551339
-0.078876
-0.171308
0.0521093
0.218227
0
0.00392847
-0.0210612
-0.0499796
-1.64094e-06
-0.012361
0.0477839
0.0278128
-0.093049
-6.77851e-05
1.38523e-05
-0.0626795
-0.0301567
-0.163307
-0.0426025
0.0599158
0.0277439
-0.0806069
-0.012361
0.130509
0.00728306
-0.000101763
-0.154503
-0.000155728
0.0230737
-2.25905e-29
-1.10676e-06
-0.0124098
-1.55604e-09
0.00174834
-0.0125397
0
0.00493784
-0.0231766
0.0186804
-2.84639e-10
0
-2.73588e-12
-0.000101763
-0.141871
0.00547954
-1.25873e-06
-0.1277
0.0577822
0.135412
0.0199858
-1.44351e-10
0.0395915
-0.0787861
0.0119651
-0.0578637
-1.82354e-10
-2.83205e-06
0.104187
-0.0117691
-4.5908e-11
-0.000117263
-0.0800288
0.0317338
0.0186489
-0.0501332
0.0708072
-1.95015e-07
-2.51976e-09
-6.10691e-08
-0.00189634
-9.08538e-15
0.00975142
-0.133736
0.0240791
-0.114621
-3.26661e-06
-3.47808e-11
-0.0353359
-0.130477
-0.0071959
-0.0310651
-0.0712881
3.56204e-151
-0.0128875
-2.84639e-10
-0.000686383
-0.0444498
0.00588279
0.00196577
-4.5908e-11
0.00758573
0.0164527
-0.046266
-0.0547621
-0.074063
-3.97628e-09
-0.0278338
-5.82908e-07
0.0542482
0.0242131
-0.111238
-0.004397
-0.0454692
0.00405459
0.0573168
-1.26134e-06
0.0011325
0.0503274
-5.46249e-12
-0.092856
0.0107527
-0.000109707
0.0367933
-0.0579115
-0.00522814
-0.0193509
-1.18205e-07
0.103939
-0.0278412
-0.0111772
0.0323262
-0.037747
0.00405459
0.106343
-0.0620047
-1.55474e-06
-0.0248631
-6.83535e-07
-4.5908e-11
-0.064858
0.000178084
2.07423e-160
0.0801562
0.0134054
0
0.0246574
0.00758573
-0.0502977
-5.35719e-05
-0.0493906
-0.240797
0.0803338
0.0234765
-0.0417989
0.0754744
-1.57378e-12
-0.0612486
-0.128906
-0.0204013
-0.013727
0.0842453
0.015567
0.00405459
0.00219405
0.0203056
0.0203175
-0.0548266
0.013791
-0.0813675
0.0347383
0.00782006
0.0517975
0.0114449
-0.107991
0.0550579
0.0162861
0.108519
-2.17067e-15
-0.0193509
-9.08538e-15
0.0643731
-1.1324e-08
-0.169462
0.0357526
0.0188907
0.00514326
-0.0265519
-2.60348e-28
0.0358874
8.01031e-161
0.0065824
0.00200622
0.0036182
-0.152136
0.00822617
0.0700115
0.0235914
-1.28286e-06
0.094747
0.0119651
2.17389e-322
-0.0891562
-1.76963e-06
-5.46084e-12
0.0307194
0.00011375
-0.0272438
0.12018
0.0121439
-0.0502809
-1.82354e-10
-7.644e-05
-0.0415448
0.0688641
0.0677753
-1.47004e-06
-0.0255285
-0.000101763
-1.92539e-06
-0.116579
-0.0675
-1.28286e-06
0.0596788
0.012481
-2.73588e-12
0.028318
0.0133633
0.00546431
-0.000101763
-0.0526403
0.0252614
0.00405459
-5.46084e-12
-2.40597e-08
-0.0202525
-4.43061e-06
0.0467682
0.123921
0
0.0164527
0.000263568
-0.000155728
-0.0769885
-2.84639e-10
0.190053
-6.47001e-11
-0.0249492
-0.0640549
0.0105085
-0.0293897
-0.0658443
3.79067e-150
0.0059261
6.99094e-05
-2.40597e-08
0.00405459
0.000691988
0.0386078
-0.0268366
0.0281853
0.0203227
0.046727
-1.00972e-05
0
0.0317338
-0.0429491
-0.0130931
0.0512232
-0.10124
0.1133
-0.0137715
0.019212
0.0188907
-0.0426106
0.0874749
-2.40352e-07
-0.101156
-1.2559e-10
0.00733304
-1.02255e-07
-0.279621
0.00650159
-6.97771e-05
0.00103473
-0.0682354
0.0243458
0.0406255
-0.0181743
0.0118241
-6.97771e-05
-0.0170803
0.0114449
0.00405459
0.012133
-4.06658e-09
0
-3.67901e-05
-0.0661714
-3.30074e-06
0.00405459
0.0184171
0.0884833
-0.104668
-0.0222026
-4.10386e-05
0.201649
-5.29573e-07
0.0919312
-0.0415153
-0.259903
-0.045646
-2.05175e-11
-1.54351e-07
0.0119651
-0.180387
0.0054629
0.00192814
-0.05576
0.0585004
7.2904e-151
-0.0393718
0.0571875
0.136093
0.00405459
-1.70788e-05
-0.00801673
-0.114621
-0.0369272
0.0313351
0.00622769
0.0114449
0.0114449
-0.0221107
0.0449748
-0.0316005
0.0153454
-0.0230726
0.000153211
-6.13256e-07
0.00405459
-4.21539e-05
-0.474878
0.084816
-0.0700172
0.153177
-0.0344625
0.0875132
0.00696515
0.0224928
-2.60348e-28
0.00658981
0.224854
0.122747
-1.28286e-06
0.0508541
-0.0132404
0.0212291
-9.28422e-12
-0.0277123
-7.41755e-05
0.0116251
0.00688569
-0.0241858
1.65018e-321
-0.0694225
-0.0454243
-0.012361
0.000174228
0.0255485
0.0039598
0.0919512
0.0743649
0.001456
0.0441595
-0.00488244
-6.47001e-11
-0.0268237
-6.47001e-11
0.0740188
0.050702
-0.00252848
0.162334
-6.23291e-06
0.0185185
0.0181847
0.115434
0.0102883
0.0263164
-0.0357653
0.0508858
-0.295737
0.00106422
0.00484208
-0.0470897
-0.0217541
-0.037747
0.00153307
-0.104602
-0.0141018
-2.11868e-05
-1.21634e-07
0.047256
-0.0100984
0.0332816
0.0869688
-0.107991
0.00143476
9.5515e-152
0.0136974
0.000373802
-0.0147025
-6.69385e-06
0
-0.0135629
-0.0360295
-0.0080783
0.00656019
-2.60348e-28
-1.95015e-07
-0.0603069
-4.10386e-05
0.0332898
-0.000184625
0.12857
0.0102891
-1.09164e-05
-1.98692e-07
-0.109716
0.300259
-0.000155728
-9.87008e-08
-0.0393718
0.00563468
0.0242734
-0.0268237
0.0284668
0.0284969
0.0399206
0.00677163
-0.0646339
-0.0466793
0.0257992
0.00641922
0.000356299
-2.00547e-06
-0.05576
0.0314952
0.0390139
0.00793917
-0.039954
-0.000153639
0.0814273
-0.0867891
0.00589385
0.000162259
-3.58449e-05
0.0188907
-0.00277488
-1.77249e-05
2.17389e-322
-0.0321109
-6.23821e-08
0.0253142
0.0369438
0.00290142
-4.5908e-11
-0.0262003
0
-0.0221107
-0.0209601
-2.1192e-07
9.09296e-06
-0.00241849
-5.06348e-05
-0.00626588
0
-5.82908e-07
0.00593616
0.000457882
-0.124317
0.000500192
-0.0343536
-0.0176154
0.00538394
-0.0373916
0.00219405
0.0705322
-0.0630091
0.293276
-0.0681209
0.0252614
0.00326271
0.00177689
-7.17615e-12
-2.1665e-09
0.0190833
-0.105827
0.0203227
1.65018e-321
-0.0961076
0.0143857
-0.0149265
-0.0342525
-0.00019707
-0.081483
-2.57397e-07
-2.25905e-29
0
0
-0.0292716
0.026045
0.00504346
-0.0519487
-0.0391416
-0.0201586
0.00328816
-0.0201586
1.11165e-321
0.0183432
-0.0656572
0.102237
-0.10515
-0.0209432
-0.0400125
-0.113343
0.0246065
-0.109218
-0.125439
0.0273892
-5.40767e-14
-0.0234789
0.0349657
-0.0907808
-7.41755e-05
-4.54284e-05
0.0059261
-0.074063
-0.00693782
0.000750673
0.153107
-0.0269982
0.0904782
-0.0125134
-0.0364532
0.0121503
-1.70788e-05
-5.7516e-06
0.105991
-0.1236
-5.40767e-14
-1.27575e-08
-0.0478336
0.00112997
-0.129853
0.0133659
-1.95384e-06
0.00954665
-0.0282866
0.0435035
-0.0399945
-1.69281e-06
-0.0604218
0
0.0646194
-0.097822
3.27363e-23
0.0785211
-3.26661e-06
0.0335681
0.0176209
0.0254558
0.00318882
-1.10676e-06
-0.0356165
0.045199
-0.0112577
0.0887197
-0.0749721
0.0336106
-0.00487574
1.5316e-321
-0.0389879
-2.58797e-05
-2.84639e-10
-0.0477202
0.0987145
-0.0903332
0.000346111
-1.91752e-05
0.0815678
-0.0301997
0.231936
-2.44096e-06
-7.35749e-08
-0.169601
-0.012361
-1.95015e-07
0.00563831
-1.59023e-13
0.00772082
0.335869
0.0340886
-0.0334222
-0.0682354
0.0474592
-0.0445641
-0.0116809
-0.00617043
0.000356299
0.302857
0.046727
-0.0531663
-0.0508205
-9.08538e-15
0.00405459
-1.64563e-07
-0.00218513
-0.0401445
-5.83181e-10
0.0708344
0.015567
-0.397657
0.218393
0.0763661
6.00291e-05
0.0075495
0.0332206
-2.5572e-08
-0.0432816
0.0055876
-2.40352e-07
-7.48657e-06
0.11641
0.0638277
-0.0792411
0.0376605
-5.97749e-06
0.00694079
-0.0163097
0.0114449
0.0256188
0.013791
0.0134054
-0.0582396
-6.83535e-07
8.69056e-05
0.0246567
-0.0158867
-3.1438e-06
-0.0390627
0.00593992
-0.0110081
-0.0115513
-0.0746273
0.0273747
0.0542983
0.00405459
-0.0429255
-0.00196477
0.125776
0.0979785
0.020186
-0.0238705
-6.86766e-09
0
0
-0.0635474
0.045024
0.00196577
-2.25905e-29
-0.0176064
0.109046
0.013791
0.0017441
-0.000176542
0.000958282
0.0422062
0.00484211
-0.16701
-0.0660609
0.00143476
-1.44351e-10
-5.83181e-10
0.0463212
0.027122
-0.000136609
0.00583788
-0.037747
0.0284956
0.0251447
0.0747018
-0.0192003
-0.0396118
-6.23821e-08
-0.0619621
-0.0266197
-0.0171407
-1.16105e-321
0.0362388
-0.0440683
0.0226761
-1.02165e-05
-1.31313e-12
0.287266
0.0115017
-0.00361364
0.0186489
-0.0240109
0.104959
0.252933
0.0119218
0.0177539
-5.82997e-322
-5.89887e-06
-0.000123015
-0.0966672
-0.00332098
0.0498117
-1.71011e-05
0.0329817
-0.042024
-0.0466569
-2.17067e-15
-7.72237e-09
-0.0856957
0.166966
-0.0399233
0.0767289
-0.00937778
0.0520913
-1.18205e-07
-0.192124
-1.47004e-06
-0.0546246
0.260212
0.0441262
0.0464136
-1.09389e-12
-0.038183
0.0114447
0.0882142
0.0137049
-0.0563727
-0.000601113
-0.372363
-0.0362806
-3.14955e-06
-0.000449885
0.00112418
0.0430115
0.171737
-0.0733658
-2.30049e-09
-0.124894
-6.93774e-05
-0.181383
-3.00475e-06
0.0716099
-6.97771e-05
0.00583788
8.01031e-161
-0.0182085
0.0121439
-1.70788e-05
-0.0966672
-4.5908e-11
-0.000996025
-3.51426e-06
0.0369716
-0.0256923
-5.7516e-06
1.87745e-322
-2.22502e-08
-6.10691e-08
0.0185123
0.039595
-0.0106658
-1.77249e-05
0.00484185
0.0059261
0.00756248
0.0180416
0.00429477
0.476219
-0.0196573
0.0162861
-2.84639e-10
-0.082211
0.154779
-0.0661567
0.00405459
-0.0484653
-1.09389e-12
-0.0877231
0.0693718
-0.0455559
-0.0171629
-0.0634512
0.120906
-3.23967e-06
-6.97771e-05
-0.0240109
7.41098e-322
-0.0674519
-1.31313e-12
-0.026816
-0.000155728
-0.0505137
0.0246134
-0.00648441
-5.82908e-07
0.0835229
-6.83915e-09
-0.0268237
-0.120795
0.0114449
-0.0892513
-0.0137197
-0.0740188
0.0751556
-0.0175852
7.30059e-05
-0.219538
0.202529
0.0882142
-3.67609e-07
-0.0430558
-5.2375e-06
-0.0023258
-0.0365792
-0.0492978
-0.013425
0.0251607
-0.0389469
0.0513385
0.0103949
-1.02255e-07
-0.036786
-4.44649e-06
-8.20758e-06
-0.110913
-1.55474e-06
-0.117551
0.0114055
-4.5908e-11
-0.0515969
0.058998
-0.0399945
0.0551298
0.00758573
0.24536
-6.97771e-05
-0.192507
-4.5908e-11
0.0367856
0.0666812
0.00300353
-0.012361
0.042412
0.055141
-0.103988
1.11165e-321
-3.46623e-13
-0.210609
-0.00271966
0.00405459
-5.14289e-25
-2.79869e-10
-0.0084154
3.93739e-06
-5.2375e-06
-0.05576
-0.0508216
0.00184023
0.0565586
0.0120965
0.0178002
-6.10691e-08
0.104959
-0.0733255
-0.0196123
0
-3.94206e-05
-1.74237e-10
-2.18998e-08
-3.25496e-15
-0.0432816
-0.110457
-5.46084e-12
-0.0548266
0.0106603
-6.47001e-11
0.0113952
-6.47001e-11
0.0119651
0.00518197
-0.0730944
0.00275146
-7.77936e-05
0.0112691
0.0133078
0.0641277
-0.000954444
-0.0848809
-0.0806069
-0.0274074
-3.15248e-10
-6.77851e-05
0.00211677
0.0184818
-0.012361
0.00223236
-5.7516e-06
-2.60348e-28
0.0418906
-0.00875678
-4.5908e-11
-1.02125e-07
-0.000161835
-4.49939e-08
-6.19415e-11
-0.0447089
-0.0168527
0.0203227
-1.8804e-07
-0.0266881
0.02174
-1.77249e-05
1.5316e-321
3.56204e-151
-1.74237e-10
0.0479886
0.12507
-0.0546807
0.0370191
-5.78028e-05
-0.0138603
-0.012361
-0.012361
0.0282954
-0.0340409
-0.000107489
0.0286684
-2.84639e-10
-3.60889e-08
-0.0745025
0.0310391
-0.000155973
0.00622769
-0.0269982
0.00516974
3.33368e-22
0.00516974
-1.03085e-08
-0.0495366
-0.0389231
0.00177689
-0.00693782
0.0114449
-0.0378356
0.137812
-0.0657889
-2.00547e-06
-4.62816e-05
-0.158926
-6.58981e-11
-0.110098
-1.64094e-06
-2.58797e-05
-1.1324e-08
-0.0794425
-0.0108978
-1.55604e-09
0.0575394
0.000445925
-5.46084e-12
-1.31313e-12
-0.00531495
-0.125497
0.0826038
2.71743e-142
-0.00525304
-0.138834
-0.000117263
0.00303735
-0.000192753
0.0414012
-5.58671e-16
0.0185932
0.0203227
1.81424e-160
0.0203606
0
-5.6441e-07
0.0458962
-6.94327e-05
0.0264258
-0.00268302
-0.000107489
-2.9024e-05
-0.166143
-0.0105749
0.0124882
-4.5908e-11
0
-3.94206e-05
0.0910001
0.0836977
-0.0448851
0.0157119
-1.95015e-07
-0.0023258
0.00405459
0.0194608
0.0276354
0
-5.2375e-06
-1.59336e-07
0.0280765
-0.00852315
-0.0194991
-4.5908e-11
0.00318377
-0.0253126
-4.12139e-05
-0.0622798
0.0257193
-6.47001e-11
-0.0489782
-0.0675613
-0.0607648
-0.187762
0.0235706
-6.29097e-07
0.189302
-0.0256829
0.0173378
0.0884833
0.00405459
-0.085011
0.0411477
-6.47001e-11
-0.00847752
0.083524
0
0.102502
0.0210766
-0.0471458
0.00493784
-0.0142229
0.000417102
0.0106962
-7.03077e-05
0.101176
0.00583788
-5.2375e-06
-4.5908e-11
-0.0534462
0.00510259
-0.193562
0.0134048
-0.000197298
-0.0268366
0.0500354
0.0119651
0.0273747
0.0246567
-0.0534462
-0.00817125
-7.10745e-14
0.712742
0.00567709
0.00682992
0
-0.0221107
-0.058045
-2.60348e-28
0.0202954
-0.0110081
-2.84639e-10
-0.204218
-6.86766e-09
-7.04815e-07
0.0119651
0.0252694
0.0489139
-1.24615e-05
-6.77851e-05
0.00673853
9.7825e-322
-7.03077e-05
-0.0206588
0.00941552
0.0721521
-0.0200982
0.0522145
0.0121439
0.00112418
0.0163827
0.0840216
-1.77249e-05
0.0186768
-1.44351e-10
1.69184e-22
-8.11777e-13
0.00187674
0.0119651
-0.063932
0.0029693
-8.68101e-05
0.0870888
-0.012361
-3.23967e-06
0.00743125
-0.150022
0.0454741
-8.02368e-06
-4.70383e-08
-0.0396467
0.0353519
-5.83181e-10
-0.106943
0.0518089
0.213826
-0.0578254
0.0349291
-0.0310651
-0.0192734
0.00854163
-0.0158823
-0.0604654
0.00516974
0.0234776
0.042088
-0.0686376
0.00632458
0.0332898
0.00547034
-0.015329
0.0312318
0.093512
0.192948
-0.0209601
0.00920749
-7.02404e-08
0.0831407
0.0276312
-0.0310913
