0.0448697
-1.6414e-12
-5.94299e-15
-0.000182514
-0.0316927
0.0105317
0.0105141
0.000342383
-0.083424
0.0105141
-0.0134961
1.21046e-321
0.000234796
0
-0.0385096
0.00603249
0.00200642
0.017399
0.0612106
-0.000671063
0.0263512
-0.0579936
-0.14447
0.0234786
0.0352929
-0.0385096
0.395496
0.0305399
-0.0247803
0.0373806
-0.0360046
-0.0159165
-4.78105e-06
2.44991e-180
-0.0146715
0.000131419
0.0617554
-0.0253049
-4.92833e-11
0
-0.044898
-0.0295499
3.05088e-253
-6.26782e-05
0.00198925
-0.00376705
0.0191987
-8.16352e-05
0.0200468
-0.0720512
0.0500564
0
-3.36366e-06
-0.000623916
-0.0470657
1.93287e-188
0.027377
-3.00101e-14
-5.03341e-11
0.0193139
0.00732541
0.00358629
-0.0296828
-0.194611
-6.22523e-322
-8.08525e-05
0.0364447
1.79728e-07
-0.149146
0.114379
0.0159491
0.00895342
-0.00434184
0.00121121
0.149406
-0.0211953
-0.0426971
0
-0.00028581
-0.0518192
-0.0182976
-0.048579
0.0357057
-9.8816e-05
0.00079807
0.652876
0.00252105
0.091169
0.00964514
-8.08525e-05
0.0349958
-0.00413906
-0.187462
0.0224395
-0.165424
0.020107
0.0641177
0.0624701
0.0494573
0.0587002
-3.36366e-06
0.00732541
-1.87393e-06
0.0644667
2.5255e-05
-0.0691101
-0.123425
-9.83732e-07
0.0384308
-0.0106889
-0.0658363
-0.00102811
0.0214134
0.0424466
5.68175e-322
-6.71561e-13
-0.0391963
-2.90096e-05
0.0198853
0.068594
0.216964
0.0176
0.0791818
0.0338977
0
-0.0644721
-0.00930097
-1.61108e-09
-0.000408983
0.0329318
0
-0.0216599
0.0156439
0.000471042
0.00105933
-0.0726112
0.00349236
1.93287e-188
-0.057017
-0.0819553
0.0037521
0.00126364
-3.60708e-07
-0.177967
-0.0375173
-6.97964e-05
-0.0597776
-0.00921148
-3.00511e-05
0.045331
0.00143937
-0.00298598
0
0.015688
0.157033
0.000131419
0.0317616
-0.0137655
0.0151546
0.0132074
-0.0123989
-1.40154e-05
-0.0524522
-0.0368668
0.00732541
0.057874
-0.0198471
0.013366
0.0345382
-0.022217
0.0172806
-0.0571481
1.28964e-289
0.0104857
-0.237058
-0.0148529
0.021299
-0.0335226
0.00020894
-3.31781e-10
-3.36366e-06
6.41391e-179
-0.0750072
0.0265658
9.52941e-05
-1.54596e-06
-0.00450569
0.30995
-2.96067e-05
0.0234786
-0.0522772
-0.0231385
0.00290047
0.027377
-0.11599
-0.259101
-0.060372
0.0214748
0.0460055
-0.122824
0.00360225
0.0103098
-2.09307e-10
0
1.85982e-06
0.00732541
0
0.324351
-0.0132461
-0.00102811
-3.68116e-06
0.0635319
0.0531112
0.0157883
0.0633114
0.0105141
0.0386632
0.0335319
0.148471
-2.57937e-06
0.0461093
-0.0914638
-0.021179
0.0971693
-8.79437e-322
-3.04972e-06
-0.0424589
-0.236839
0.0197768
1.93287e-188
0.694579
0.00448389
0.0156875
0.0249618
0.0145655
0.149107
-0.0154704
0.0281962
-4.61361e-07
0.00493561
-0.09826
-0.00522876
0
-0.025713
-0.00013316
-0.0716745
-1.49631e-05
0.00413081
0.00498313
-1.23411e-13
-0.0348435
0.0392809
-2.67688e-05
-0.0179363
6.41391e-179
-3.60708e-07
0.0146755
0.00646289
0.021404
-0.182737
-0.0302155
0.0346753
-0.0368312
0.00020894
-0.000671063
-0.0811861
0.0219849
-0.0439968
-0.0171258
-0.114952
0.00199304
0.0328052
0.0141579
-0.0240141
5.72737e-06
-0.00128345
-0.0686631
-5.94299e-15
0.0414152
-1.83802e-07
5.56756e-189
0.000342383
0.127473
0.0279922
0
-3.64195e-12
0.0467577
-0.0575005
-0.0287043
-0.0153113
-0.00975028
-0.0192087
0.00646283
-1.279e-05
0.0227015
-0.0350533
0.0016689
0.0924225
0.282779
0
-0.0224906
0.00296917
5.45021e-07
-2.90096e-05
0.0479236
-0.00941145
1.21046e-321
0
-0.10505
-0.00742121
0.00296946
0.0207806
0.0230517
-0.0858824
0.0690079
-1.36362e-321
9.52941e-05
0.0764684
0.073482
-5.64676e-16
0.0681607
-0.265488
-0.00617634
-0.0135478
-0.0859896
0.0500547
-0.0501596
0.00288577
0
-0.111948
-0.173076
-0.046601
0.122809
-0.00434184
0.00048939
-0.095228
0.000586577
0.0187766
0.00196684
0.000680564
-3.47885e-05
-3.15907e-09
-0.0172219
0.1068
-2.57937e-06
-7.42915e-07
-0.0267056
0.00283053
-1.15204e-05
-0.152162
-0.0804347
-0.0734828
0.000325529
0.0832817
0.0191987
-0.00603245
0.00121121
-0.0756735
-4.43422e-05
0.00493561
-0.0211755
0.0430814
0.00488229
-0.0432941
-2.98738e-06
-0.0237672
-0.111054
7.01573e-322
0.000617419
0.0193139
0.0104983
-2.22824e-06
-0.0804654
-4.92035e-08
1.03922e-06
0.00732541
0.14546
0.0330022
0.0462971
0.00732541
-0.0931046
0.0214748
0.0556984
0.0200493
0.0567423
-0.0314877
0.0393801
0.108026
-0.0143546
0.0328052
-0.0159905
0.00732541
8.04167e-09
-0.025092
0.00646289
0.0138914
0.0329318
0.019272
1.22457e-06
-3.04972e-06
-1.87393e-06
-0.0838904
-0.0269916
0.0189137
-2.42606e-05
0.015688
0.0216124
-2.09307e-10
-0.0845711
0.0159497
-0.0734259
-0.00604106
5.56756e-189
0.0448944
0.0825926
0.000872125
0
0.0147208
-0.0146715
-0.0309417
0.0436723
-2.35571e-06
0.20243
0.0135526
-4.61361e-07
0.129546
-2.67688e-05
0.0188908
-0.0180087
-0.0392523
-0.00998333
-0.0832077
0.0110315
5.17361e-05
-9.8816e-05
0.027377
-0.034051
0.0155731
-0.0839627
0.0785024
-8.93609e-07
0.147249
-2.96067e-05
0
0.00528512
-1.23022e-321
-0.0845011
0.111383
-0.0186311
-2.68617e-05
-7.42915e-07
-8.77668e-07
0
-0.00102811
0.00732541
-0.026264
-7.82944e-05
-4.03298e-05
0.00151031
-0.0539113
0.0352904
0.0136224
-0.00975028
-0.0183614
0.0727028
0.0208525
0.0783763
-0.0148456
-0.000214103
0.151369
-0.0201376
0.0261821
0.101245
0.069732
-4.62254e-05
0.00760035
-3.90786e-09
0.00448315
-0.163612
-0.0196052
0.0938878
-2.24397e-06
-0.0362114
0.0426335
0.0201708
-0.0165103
-0.0244503
-9.9173e-06
3.07421e-08
-0.194237
1.93287e-188
0.00946634
-0.00687306
4.83045e-06
0.0254822
0.00199304
1.09176e-06
-1.7001e-06
0.0104857
0.030558
-0.000207172
-0.00102811
0.00175545
0.0188651
0.00079807
-2.22824e-06
-0.00975028
-4.24906e-10
-4.69433e-09
-0.0251947
0.0138265
0.0123853
-0.220318
-0.00214131
-6.62855e-13
-0.165554
-1.9879e-11
0.000827711
0.0105281
-2.22824e-06
-1.21208e-05
-3.86588e-05
0.369718
0.00322828
1.47799e-06
-0.000147587
-1.25199e-07
-0.182227
0.000845594
-0.000214103
-0.000153123
-0.222085
0.0151972
-0.0628289
0.000827711
-0.0496265
-0.0811292
-9.22373e-05
-0.000221747
-2.71415e-12
0.253936
0.0740305
-7.30634e-06
-0.0916868
0.000336821
0.00540677
-0.0850239
0.233768
0.0023525
-0.0177007
-5.44409e-07
0.0187251
0.110318
-0.0373383
0.147347
-0.100785
0.105233
0.00254771
-0.0705709
5.17361e-05
0.00793315
0.0228556
0.078358
0.165919
0.0511246
0.00193061
-3.12887e-06
-0.0108566
0.0260378
-1.61108e-09
0.00646289
0.000555933
0.0295229
0.0253415
0.091912
-0.147308
0.0170002
-0.018181
-0.0384041
0.000184782
0.050263
-0.00414401
-0.0305816
0.00157317
-0.0455673
-1.33336e-06
-0.0309457
0.0486066
-2.17525e-05
-0.0787264
0
-0.0129122
-0.104601
-0.00499235
0.0115852
0.00732541
-1.87393e-06
-0.000132886
-0.108205
-0.000270765
-0.0176508
0.0352929
0.0152885
0.050446
0
-0.0238713
0.0177775
0.000512715
0.0188623
-0.0542268
2.43574e-321
0.0481936
-0.133159
-0.0310657
0.015653
-0.0335531
-0.0229025
-3.87857e-10
-0.0572098
-0.0385382
-2.70183e-11
-2.90079e-06
0.0171316
0.0865676
0.0254544
-0.0446501
-4.69433e-09
-0.0152542
0.0553853
-7.42915e-07
0
-0.137196
-1.61108e-09
0.0213732
3.05088e-253
1.93287e-188
0
-0.123473
0
-0.0129122
-0.0474679
0.0164452
0.0608298
0.015688
-0.0133211
0.020152
0.145395
0.00540893
-3.05441e-06
-0.00513036
-0.0119266
-0.00383775
0.0356777
-0.0718552
0.0599641
0.0760136
0.0234786
0.0492113
-0.0280344
6.04795e-05
-2.24392e-06
-0.00566356
-4.24906e-10
-0.0700986
0.131487
-0.00250982
-1.37844e-321
0.00409778
0.142247
-1.12429e-11
-0.000212363
-0.0314877
0.0376765
0.0162901
-0.0474219
-4.65447e-09
9.07504e-05
-0.119769
0.210225
-0.0255835
-2.19336e-15
-5.94299e-15
-0.0948626
-0.022595
0.00161257
-0.0375529
0
-4.65297e-08
0.142448
-7.06552e-05
0.0413161
0.0758579
0.0780626
-0.111239
-1.5134e-12
0.0892802
-0.0302155
0.0549007
-0.0419945
5.56756e-189
0.0467019
-0.0277904
0.00732541
0.0163149
0.00120347
-0.0233726
0.0216876
0.00018566
-0.026417
-0.0508812
-0.146812
-0.0858824
1.93287e-188
-0.18946
0.0241104
0.0195802
-0.0161068
0.0187866
-2.02736e-05
0.16793
-0.0387938
-2.03792e-05
-0.00102811
-0.0253453
0.000909854
0
0.158951
-0.0165259
0.136163
-0.000113643
0.0370686
-0.000204071
0.0258296
0.0457788
0.0451168
0.0243583
-0.167435
0.0441021
0
0.0429413
0.0330344
-0.240123
-0.087832
0.0919777
0.0387648
-0.0267182
-1.25199e-07
0
0.052712
0.0897875
1.56619e-321
0.00415268
0.0539341
0.0072586
0.0335311
-0.186251
-0.0392523
0.0257109
-0.0520186
-0.0396519
-2.02681e-10
-2.35571e-06
-1.49631e-05
2.44991e-180
-1.3735e-321
0.189448
-0.000147587
-0.041558
-0.0544335
0.06022
0
-2.67688e-05
-5.42486e-07
0.0547976
-0.0282531
0.0367945
-0.0371937
0.0117329
1.93958e-06
0.0283877
-0.000307787
0.16342
-2.96067e-05
0.000556293
0.00120347
-6.04397e-06
0
-0.13081
-1.87393e-06
-0.116603
-0.106724
2.64179e-178
-0.000174158
0.0479757
-0.167577
2.64179e-178
0.000125528
-6.6955e-05
-0.0375635
0.112562
-8.42808e-07
0.0344463
-0.0675541
-0.0820324
0.015688
0.020684
0.0107272
-0.0508776
0.00732541
0.0879572
0.0561819
0.0163149
0.00211648
-8.08525e-05
0.011032
-3.91302e-05
0.20569
-0.0118342
0.0506069
0.241238
0.108906
0.0426335
-0.000225067
0.189503
-3.94192e-07
0.0052841
0.201231
-0.0302155
-0.0252298
0.444078
0.014235
0.0169363
0.0900008
-0.0785321
0.0163149
0.000872125
0.0545573
-0.0666595
-0.100602
0.0215186
-9.68554e-09
0.050263
-0.0304095
0.0234171
-0.00298652
-0.0533536
0
9.52941e-05
-0.0617847
-1.87671e-09
-4.14068e-06
-4.61361e-07
-4.78105e-06
0.0531112
-0.0284638
4.80358e-06
-0.00031835
2.5255e-05
0.0101794
0.0136224
0.0035783
0.0163149
0
0.0885407
0.0132074
5.78963e-05
0.0552575
-0.121548
-0.000631517
1.93287e-188
0.0359382
-0.0443614
-0.000282833
-0.00476002
0.00200922
0.0152045
-0.107116
5.56756e-189
-0.00417865
0.00296946
-0.0135478
-0.0519604
-0.0870617
0.188733
-0.0216931
0.00082696
-0.0536931
-7.42915e-07
0.123907
0.017399
0.143163
0
0.229712
0.131278
0.00277419
-0.0152542
-0.0788958
0.0418489
-0.0305901
-0.0294325
-0.113416
-8.66473e-08
0.0322647
0.00247039
0.00732541
0.0200493
-3.87857e-10
1.49702e-321
0.00799609
0.00603249
-4.69433e-09
-2.42606e-05
0.0187866
0.0364683
0.0234786
-3.28272e-06
0.0590375
0.106924
0.019272
0.00115925
-0.0375894
0.015688
-0.00963932
-2.17525e-05
-0.0653924
0.0232966
-0.0123369
-3.36366e-06
-0.0128446
0.0647379
0.019481
-9.61218e-06
0.145848
0.00374473
-9.09081e-322
-0.0713148
-0.0286882
0.000342383
0.00413081
0.00603249
0.101671
-0.0053778
0.14875
0.00859172
0.00296946
0.0214748
0.00120347
0.00016177
-0.0653924
-0.155085
0.00077083
0.041934
-0.0129122
-3.68116e-06
0.0973428
0.0756313
0.0217106
0.000240858
0.0293746
1.63042e-322
-0.027784
0.00712783
0.0389704
-0.00578164
0
7.01573e-322
0.0167741
0.111976
-0.0216754
0.0518132
0.0746739
0.0641093
0
-2.54707e-12
-1.49631e-05
0.0774692
0.00372527
1.26175e-05
0.00855256
-0.0645732
0.076055
0.0356962
2.85042e-06
-0.0133211
0.00116741
0.00448389
0.0635319
-0.128899
-0.0597665
-0.173907
-8.48358e-07
0.154516
0.00732541
0.000150774
-0.0107079
0.00547214
0.402601
0.0240693
0.036077
0.000875709
-3.68116e-06
0.130289
0.0220372
0.019272
0.0235633
0.020107
0.0117998
0.0202189
-0.0062357
0.0214748
-0.0225123
0.0440467
0.00732541
-0.0216599
-0.0161068
-0.0416347
-0.00317041
-0.0296546
0
-0.182689
0.0104051
-1.67537e-06
-0.0759598
0.034413
-0.00102811
-1.08694e-321
0.0942623
0.0100023
0.0356315
-0.0373383
-0.0561972
0.015688
-0.000287079
0.00732541
-6.84927e-05
-6.40482e-05
0
-0.050849
-4.10374e-09
-0.000297268
-0.0187582
-4.10374e-09
0.0146546
0.0946673
-1.77183e-05
-0.00824779
-0.113148
0.0202189
-5.1882e-05
-1.37002e-06
-0.0551278
0.000367936
0.0126676
-1.36329e-10
-0.00194511
2.64179e-178
-1.6414e-12
-0.000147587
-0.0368312
0.0684084
-0.123425
0.0138226
-0.049605
-0.0675541
0.0443137
0.00732541
-0.0266091
1.03199e-06
-6.6955e-05
-2.71415e-12
0.188782
0.0286823
0.00020894
-0.133044
-2.96067e-05
3.05088e-253
-0.0224906
-0.0133211
4.66176e-05
0.00258549
0.116416
0.0120849
-0.0146715
0.0599511
0.269319
-0.0309457
-0.0319731
0.00038341
0.0740451
1.21046e-321
0.023627
0.00802264
-0.00950031
1.93287e-188
-0.037415
0.0121473
0.0323756
-0.0510803
0.111132
1.03199e-06
0.087926
0.00732541
0.00732541
-0.0213487
-0.110495
0.0461106
-0.0146715
0.00732541
0.000420176
-0.0153646
-4.03298e-05
-0.0263427
0.00633966
-0.0957202
0.072496
1.03199e-06
-0.0647899
-0.00102811
0.0276558
-0.0707242
0.0593665
-0.222374
0.0414291
0.0565294
0.0144498
-5.02849e-05
-1.54596e-06
0.0650946
-3.15907e-09
-0.0572974
-1.54596e-06
-0.0128446
7.87429e-06
-0.0359202
1.93287e-188
0.0722807
-0.0177051
0.0278708
-0.0969174
-0.0673539
-0.00255322
-8.2509e-322
0.168397
9.52941e-05
-0.0552303
0.126703
-0.0542732
0.0570397
2.5255e-05
0.0944387
0.00120347
-0.0647193
0
-0.0795521
-1.25199e-07
0.0412712
0.0262182
0.0201807
0.000368263
0.157951
0.00603249
-0.00813816
0.0848135
-0.0250457
0.00802286
-2.31316e-08
1.0191e-210
0.0663629
0.00199304
-2.98738e-06
-6.6955e-05
-0.00031835
0.0234786
0.0441995
0.00229684
0.00488229
0.0174301
1.33892e-321
0.0563674
0.0457808
0.102588
-2.22824e-06
-0.0147317
0
0.000500422
0.0911557
6.52167e-322
-7.29416e-05
0.00985433
0.00174974
-0.014699
0.0497764
-2.31316e-08
-0.0201376
-0.144261
-0.154794
-0.00680227
0.000500422
0.0251599
0.277646
0.00211651
0.00197366
0.0340229
0.0216124
0.0136224
0.0335334
0.0101872
0.156827
0.0509062
0.0304917
-0.0495054
-0.000138829
7.01573e-322
0.00834422
0.0207806
0.00359432
-0.00102811
4.94066e-322
0.0365946
0.0176
0.0143603
-0.0628978
-0.0153113
-0.00181705
-0.0154072
0.025686
-0.00432067
-0.0236512
-0.0255264
0.00137486
0.0905197
-3.72476e-14
0.233884
0.0460906
0.0561621
-8.62519e-07
0.0612452
0.000108968
0.0350992
-0.203171
0.0263024
0.0549684
0.0328018
-0.0426414
-0.0335278
-0.0185549
-0.0541089
-0.00317041
-0.000226726
-0.000226726
0.0241181
-0.0583615
0.14053
-0.00208341
0.040369
-0.0187582
-0.0265001
4.80358e-06
0.040369
0.0187866
0.0282667
0.0487313
-8.48358e-07
-1.21208e-05
-0.230956
-0.0968545
0.0190014
-0.0640052
0.00417989
-0.000129263
0.0441314
0.019272
0.00950851
-0.0133211
0.0497232
-0.0161057
3.95497e-07
-0.388252
0.0187885
-0.0445012
0.168867
0.0416895
-0.00434184
0.0899742
-0.0213487
0.0179165
-0.0879751
0.0487635
0.138786
0.027734
0
0.0531112
0.0821964
-0.0253049
0
-0.0227398
0.0460605
0.0214148
0.019946
-0.000238145
-4.70406e-05
-4.80542e-08
-0.0197696
-0.0563664
-0.0685913
0.00131953
-3.15389e-06
0.0176992
0.0777716
0.0208552
-0.0075153
-0.000246578
-6.12641e-322
2.85042e-06
0.0154943
0.155997
0.011745
-0.0551047
0.0683357
0.00319618
-3.00503e-05
0.0785044
2.50213e-06
0.0462971
0.00714503
-0.0866078
-0.0196116
-0.0701013
0.0150416
2.50897e-06
0.0352599
0.173848
-0.0294325
-0.0294325
-3.04972e-06
-0.0376905
-0.0185968
-0.0782654
-2.96067e-05
-0.0863117
-0.00102811
-2.18682e-19
0.13271
-0.0324324
0.015688
-0.0354116
-0.040911
0.0219382
-0.00670191
-0.0894529
0.0463152
0.00800451
0.0268112
0.0441314
-0.0313244
5.17361e-05
-0.0670389
0.0103125
-0.103036
0.118071
-0.0533536
-0.110275
0.000857727
1.40076e-06
-0.036433
-1.193e-05
0.149776
0.030558
0.000555933
0.0878308
-0.0691101
-0.00149846
0.00488229
0.00732521
0.00333672
-9.22373e-05
-6.71561e-13
0.015688
0.136277
0.0656911
0.380218
-0.0225047
-3.68116e-06
-0.0915346
-1.67529e-08
-0.0929278
1.21046e-321
-7.22351e-12
-0.069212
0.000872125
-0.00214131
-0.0750072
-0.259621
-0.0291817
6.41391e-179
0.0164145
0.0139722
-0.0533536
0.0266927
-0.0250059
-0.0868463
0.0547055
-0.252851
-0.0316927
0.0553003
0.00732541
-0.0744106
0
0.0138226
0.0214748
-0.0926632
0.029501
-0.0127022
0.0437257
0.00732541
0.000161088
0.0547531
3.05088e-253
0.00732541
2.64179e-178
-0.0926383
0.0155212
-0.0112929
0.000845594
3.05088e-253
0.304556
-0.0500085
0.0480765
-0.0504079
0.00170859
0.0491893
0.0627863
0.011745
0.0104051
-3.1819e-05
0.0191987
1.09176e-06
-4.17181e-05
0.0374129
-0.0228481
-4.24906e-10
-4.69433e-09
-0.0967273
-0.00975028
0.00120347
0.0187866
-5.82985e-05
1.03045e-191
-2.98738e-06
-0.0399628
0
-6.23181e-05
0.0146546
0
1.58337e-05
0.00171463
0.0143146
0.012976
-0.205202
-0.000129263
-0.0376905
-5.94299e-15
-0.00929173
0.131432
-0.093214
-0.0185549
0.00156819
0.00212108
0.0610168
0.0125309
0.0636951
-0.0232562
0.0146546
-0.0218908
-0.050793
-1.87393e-06
-0.0861605
-0.0255835
-0.0211109
0
-8.74081e-07
0.00077083
0.0209307
-0.0587085
0.0050348
-0.105983
-5.94299e-15
0.0200485
0.00174682
-0.000226726
-1.83802e-07
9.52941e-05
-1.77183e-05
0.00277645
0.000941497
-0.0932043
0.0463481
0.000336821
-0.0462047
0.00141246
-3.16658e-08
0.00502631
0.00120347
0.0187379
-0.130323
0.00681884
0.0805637
-0.163614
-5.64676e-16
0.0597817
-0.0796534
-0.0210016
-0.00507343
0.0390807
0.0342514
-0.000227097
0.000555933
-0.144857
0.00033154
0.00018566
-0.00578164
0.209169
-4.78105e-06
1.0191e-210
0.0468161
-0.0934831
-0.0185549
0.0412056
0.0214135
0.0379862
0.150953
0.0722807
-0.0147514
0.0337177
-0.0465607
-0.0439997
0.0124147
0.0224395
-2.57937e-06
0.811225
-0.0609246
0.0415687
0.0087114
0.0215634
0.0180049
0.0590375
0.0414291
0.136767
0.039461
0.000295663
-4.61361e-07
-0.0250362
0.00493568
0.036297
0.0059659
-0.000214103
0.00100314
-0.0143358
0.00120347
-1.49678e-05
-2.24639e-08
-0.000112937
-0.049504
-7.29414e-05
0.0551128
0.236504
0.142818
-0.040911
-5.94299e-15
-0.141151
0.0317028
-0.0297398
-2.30496e-05
-0.0712728
0.0739479
1.02272e-321
-0.112361
-2.04056e-05
-0.0201376
0.00603249
-0.110306
0.0785024
-0.0787965
0.00265668
0.0551816
0.0177982
0.184703
0.040369
-7.70425e-06
-0.0393863
0.00603249
0.00732541
-0.000139832
-0.000147587
-3.00101e-14
-3.00101e-14
0.0723693
0.0492588
0.0073663
0.0130046
-0.0247803
-0.00414401
-0.00710977
0.015688
0.0679578
0.0221721
-0.0624749
-0.0207699
-0.0286787
-0.0624561
0.0585087
0.0194159
-3.90572e-05
-0.0480322
0.061723
0.0190047
0.102236
1.62e-180
-2.7617e-05
-0.27684
1.1404e-06
-0.000226726
0.0537951
0.227717
0.0387309
-0.0193294
0.392542
-0.0146715
0.0102668
0.0902241
-0.0179363
-0.0754907
-0.0405624
0.010029
0.000302557
-0.0153426
-5.64676e-16
0.0333711
0.0563635
0.0367964
-0.0303334
0.227628
0.0562864
0.00355933
-0.0255264
-9.44805e-05
5.68175e-322
0.0370686
0.0833576
0.0233214
-9.8816e-05
0.184895
-1.57465e-05
-0.0288899
0.035447
0.0377718
0.0623198
-7.72026e-05
0.0999311
-7.2567e-05
-2.98738e-06
0.0985077
-0.000164417
-0.0251928
-9.9173e-06
0
0.00603249
0.0854276
0.00865112
-0.0186193
0.00376353
-0.228767
0.035447
-0.15582
3.05088e-253
0.0105345
0.00732541
-2.71415e-12
-0.412128
-4.69433e-09
0
-0.0144892
-0.103073
0.0219547
-0.0372805
0.0328143
-4.61361e-07
0.0942623
-7.20256e-10
0
0.00757663
0.080636
0.0113369
0.0853017
0.0410125
0.0234786
-0.0143597
-6.71561e-13
0.0133619
-0.0841104
-0.0175676
-0.0369489
0.0146546
0.223545
0.0156821
0.0150603
0.0276497
0.0163149
-0.0583356
-0.00847317
-6.97964e-05
-0.177432
-7.97163e-11
-3.1819e-05
-0.0395468
-0.0116954
-0.02166
-0.0526615
0.00418948
-0.000272006
-0.0528523
0.00732541
-0.0354979
0.108026
-0.126203
0.0633002
2.44991e-180
0.000300822
0.000125528
-0.0201376
-0.0489566
2.85042e-06
-0.00333492
-0.0786175
0.0107272
0.0978483
0.0361485
0.108729
0.116623
-3.15368e-06
-0.0263427
-0.0561367
-0.276238
0.0163149
-0.0951918
0.0105747
0.0105141
0.0300809
-0.0345728
0.0597817
-1.6414e-12
-0.0143546
0.0335177
0.337338
0.029126
-0.0487271
-0.00726796
-0.10988
0.0257811
-2.1408e-06
2.64179e-178
0.0572917
0.00714536
0.00033439
-0.0968966
-0.0383168
0.00607978
0.125989
0.0357608
-0.000276956
-0.0563664
-0.618002
-0.0135478
-8.48358e-07
-0.0465607
0.0211569
1.93287e-188
0.0869423
0.0710479
-0.0427193
0.0962325
0.0286823
0.0146546
0.0234786
0.00298371
0.0637821
-0.0201376
-0.121399
-0.0213487
0.024789
-3.02563e-05
-0.0684972
0.0942623
-0.0242307
0.226248
-0.125799
-0.0933
-2.22824e-06
-0.0475935
-3.90572e-05
0.0266109
-0.0109034
0.0932312
-0.0159747
0.0163149
0.0194159
-0.017962
-4.32559e-05
-0.0994485
0.146092
0.075778
-0.0909922
-4.71596e-07
0.0089672
0.0214748
-0.000132886
-0.134416
-0.0255264
-0.0837515
0.000845594
0.00018295
0.0314435
0.0279922
-0.0439964
-4.69433e-09
-0.0270399
0.00843035
-0.0129122
-0.0184475
0.0173865
0.0537326
-0.0907863
-0.0985917
0.118561
2.64179e-178
-0.0681075
0.0050348
-0.0750582
-3.60708e-07
-3.55727e-322
-0.00946838
0.0707132
-0.0264387
-2.14054e-06
-0.000108071
0.00126114
0.0278593
0.0690079
-1.3735e-321
-0.0178671
0.0157709
-0.00179532
0.015688
-0.0187207
-0.0580993
-0.0664932
-0.0691131
-9.44805e-05
0.173934
-3.36366e-06
-0.0103617
0.0113412
0.0277862
-0.0493137
-1.34066e-05
-0.0551162
-0.0355518
-0.000472438
-0.0126358
-0.102212
0.052768
-0.0487477
0.231559
-0.00434184
-0.0786882
-3.15907e-09
-0.114849
0.00272923
0.000453287
0.0136224
0.0639574
0
0.0530967
0.00603249
1.93287e-188
-0.0267056
0.0730338
0.0230355
-2.43098e-05
-0.106382
-0.104986
0.0343122
0.131487
-0.0105682
0
-4.04023e-06
-0.0357709
0.000151476
-4.7524e-10
0.0138265
-1.3735e-321
0.00409778
0.114829
0.00420103
-0.0374934
0.0151546
0.100895
-0.0104798
-1.60617e-07
0
0
0.029704
0.0106043
0.0805214
0.00995429
-9.09081e-322
-0.11832
0.015688
-0.00379117
-0.0873896
-0.0187582
9.96091e-05
0.0170983
5.17361e-05
-0.02166
1.40076e-06
-0.00416784
0.0187866
0.00126114
0.00135173
-0.102882
0.0828187
0.0433048
0.00843035
0.137707
-0.128899
0.00415268
-3.36366e-06
-0.000272004
0.0295402
0.0146546
0.0232977
-0.0424589
-0.0133211
-0.0605295
0.113159
-3.60844e-05
0.0704011
-0.0585631
0.162589
0.023256
-0.0428758
0.00121121
-0.0245231
0.0288005
-0.128177
0.0149509
-0.0240082
0.0144369
0
-0.0611578
0.0936938
-0.0316927
0.0397986
0.000442308
-3.00101e-14
1.93287e-188
-2.67688e-05
-0.0361949
0.139096
-0.0472912
-0.00975028
0.135863
2.44991e-180
0.00165227
-0.00109297
0.0531112
-0.182051
0.0017974
0.0377718
0.0265328
0.0237393
0.00265668
0.0491538
0
0.0235234
-0.0496265
-0.0216599
0.0569124
0.0207806
0.04181
-0.0031873
0.160445
-0.00542683
0.030444
-0.00670191
0.123008
-0.038429
0.00834422
-3.00101e-14
0.195911
-0.0663269
5.45021e-07
0.0163149
-0.00847317
0.0462203
0.00120347
0.0142355
0.000165703
-3.12887e-06
0.00834422
0
-0.0435394
0.000161088
-0.0266686
-3.15206e-06
-0.0019588
-1.25199e-07
1.22034e-321
1.47799e-06
-0.0148452
0.0214748
0.0486649
-2.14713e-06
-0.0431999
-0.0266686
0.00151344
0.0997017
-0.0303334
-0.0309457
-5.42486e-07
0.122785
0.0195397
0.0208525
-0.0599613
0
-1.3735e-321
0.00448389
-0.0135478
-0.0176077
-2.57431e-05
0.00931808
0.151258
0.0327243
0.0344463
-0.0315668
-2.90096e-05
-1.5134e-12
0.0462971
0.0072586
-0.0683416
-3.69546e-08
-0.000204071
0.00326607
-2.0752e-08
0.167824
0.0195163
0.0365921
0.000336816
0
3.05088e-253
-0.0294587
0.0278593
-0.00259702
5.17361e-05
0.0268112
0.093405
0.0208525
0.304591
-0.0375183
0.361616
0.0039075
0.00107734
0.00117199
0.0577285
-0.000107631
-0.0487374
-1.99104e-05
-0.132805
0.00749871
0.0474765
-0.00988155
-2.54707e-12
0.0817246
1.02903e-07
-3.64195e-12
5.16109e-05
-0.0587849
-0.00365738
-0.0726394
-2.35571e-06
0.0234007
0.00732541
0
0.0418655
-1.25199e-07
-0.00102811
0.0729769
-0.0198471
0.000342383
0.0328712
0.0511138
-0.0247895
0.0234786
-3.04972e-06
-0.0664067
-3.21554e-12
-3.00503e-05
-0.135467
0.017399
-0.0349535
-4.24906e-10
-0.0528523
-1.92078e-06
-1.93837e-05
0.220005
0.012488
0.0596921
-4.14574e-05
-1.98256e-05
-0.0301624
-1.6414e-12
0.0445918
-2.71415e-12
0.00603249
0.25632
-0.0608781
0.00359432
0
-0.0165103
-0.0352176
0.0448697
-0.00179945
-0.0118837
0.00528525
0
-3.68116e-06
-0.0141826
-2.17525e-05
0.015688
-1.25199e-07
-3.3644e-06
-9.44805e-05
0.130094
0.0690079
2.64179e-178
-0.0914557
-0.046504
0.059057
-0.00109212
0.0157232
-0.0211791
0.0288121
-0.030142
-9.44805e-05
-7.29414e-05
-0.0720512
-5.98022e-06
-0.0576156
-0.0179192
0.0445918
0.00566693
-0.040285
-2.49595e-07
0.0105141
-0.0806986
0.00310763
-0.0342944
-0.0628979
0.195499
-0.0926008
-0.050326
0.0280929
-0.016805
0.0479284
-0.107706
-0.000287802
-6.04397e-06
0.012976
-1.01283e-321
0.118366
-0.0385096
-0.000671063
-0.00602958
0.0394612
-0.0314877
-0.0995292
0.00100314
-0.0655674
1.26175e-05
0.011745
0.0301913
0
-0.00274201
-0.0796034
-5.1882e-05
0.183455
-5.94299e-15
-8.62519e-07
2.97473e-05
3.69928e-05
0.0162464
0.068305
0.0974915
0.0313336
0.0254544
-0.00584398
0.0103455
0.0162111
-6.84927e-05
-0.0201376
0.161599
-2.57937e-06
9.52941e-05
0.0100137
0.242163
0.0347087
-4.24906e-10
-8.79437e-322
1.93287e-188
-0.000221747
-1.5316e-321
0.041367
-0.0263462
-0.0143546
-0.0255264
0.14131
-9.44217e-07
0.0671273
0.00854025
0.00283053
-0.0479677
9.199e-05
0.050263
6.04795e-05
-1.67537e-06
-0.0146808
0.181981
-3.87857e-10
8.69556e-322
1.62e-180
0.0163149
0.0140601
-8.9579e-10
0.0139722
0.00413081
-0.0701014
0.000530767
0.0212907
-0.000272004
0.13626
0.00212108
0.0551816
0.0642159
-0.029913
0.0153611
-0.10304
-0.217052
-0.0321645
9.52941e-05
0.0588926
-0.0201376
-0.145665
0.0531112
-7.82944e-05
-0.07546
0.0673284
-0.153688
-0.0171023
-0.0330674
0.248149
-0.0572604
0.017176
0.0643679
-0.0378534
-0.0253049
-0.103036
-0.00210107
-0.0011237
-1.83802e-07
-0.0133211
0
-0.0543174
-0.0129122
0.0138024
0.0212901
0.0242178
-0.0314877
-1.54596e-06
0.198688
0.0292522
0.134898
-0.000113643
0.00995429
-0.0182072
-1.36362e-321
0.0285873
0.00258549
0.0289955
-0.000291128
-0.11758
0.00199304
0.110698
-0.0216735
-0.0150716
0.00493561
-8.73532e-05
-0.120164
-1.60617e-07
0
-0.0324815
0.0507347
-0.0785321
-0.017729
-0.0804835
-0.0339659
-7.75683e-322
-8.08525e-05
-4.78105e-06
0.0367618
-0.0417082
-0.0424722
-3.60708e-07
-1.99603e-321
0.0414152
0.0426335
-0.0705077
-0.0058266
-0.0504612
0.00120347
0.0163149
-5.3296e-05
0
-0.139519
0.00171463
9.80815e-06
-1.25199e-07
0.00561736
-0.0150978
-0.0212996
3.05088e-253
-1.37002e-06
0.031465
0.0521497
0.00732541
0.0240693
0.00120347
0.000159201
-0.0563207
0.0552379
0
-0.0190375
0.000131419
0.00732541
-0.0254552
-0.152119
0.0035783
0.0287799
-0.0535958
-0.0253049
0.0335311
-0.0770875
0.0221134
-6.22523e-322
-0.137868
-0.0296828
-0.0210857
-1.60624e-07
0.0033787
-1.1907e-321
0.0615161
-0.0452162
0.0219849
0.00732541
-4.61361e-07
0.124413
-1.84765e-11
1.03045e-191
0.00143937
-0.0153113
0.0631675
0.0828672
0.0562707
0.0594347
-0.138346
0.0105668
-8.77668e-07
-0.130195
0.0298584
0.0201557
-0.154805
-5.1882e-05
-0.00604106
-0.0636905
0.00120347
0.30067
5.17361e-05
0.0139722
0.000929994
-0.0266114
-0.027135
-0.0529221
0.040579
0.0344234
-0.0297369
-3.00511e-05
-0.089176
0.0407298
0.035398
-0.0260362
-0.0448035
-7.93732e-05
-0.0311956
0.0647478
-9.44805e-05
-0.0397064
0.161496
-0.0240082
-8.42599e-07
0.0212909
0.00597969
0.0577071
-0.018181
0.100165
0.0214748
0.0400653
0.135001
0.152885
0.351409
0.0214748
-0.0228039
-0.0638677
-0.0528069
-0.111054
-0.162655
0.0387334
2.43574e-321
-1.36329e-10
0.0477783
-0.00102811
-0.0392523
-4.61361e-07
0
-4.78105e-06
-0.0624749
-0.0587161
0.0318518
0.00333672
-2.68616e-08
0.0331496
0.00272923
0.076055
0.0155615
-0.00975028
-4.65297e-08
0.0157709
-0.148618
-0.0135478
-0.02166
-0.0255318
-2.09116e-06
-0.00365738
0.0147239
0.0146546
-0.065944
0.00104326
-1.85474e-05
0.0278593
-1.87393e-06
-0.000671063
0.0175089
-9.22743e-05
0
1.75977e-05
-0.0238403
-0.0296828
0.050263
0
-0.259635
0.0214113
0.30105
-0.0375039
0.0858547
0.0288421
0.0384308
0.0513798
-0.0118667
0.103243
0.0146546
-0.0286787
0.0139722
-0.0242767
-0.0314863
0.0565294
2.64179e-178
-4.61361e-07
0.866415
-6.62855e-13
0.053493
-0.153603
0.0607611
0.0050348
0.232517
0.0690788
0.00310458
-0.0194024
-0.05941
-1.2401e-321
-2.67688e-05
0.00732541
0.148551
5.2865e-322
0.0113412
0.0261211
0
0.00272923
0
0.213565
0.00258549
0.00954538
0.0254222
0.0710517
-0.0439964
0.00481977
-1.83802e-07
1.09324
1.93287e-188
-0.392119
-0.0202397
0.00806152
0.180587
0
-0.0551047
-0.000113643
-0.00595762
-0.0373537
0.0192658
-0.00298634
-0.0716745
7.87429e-06
-0.036674
0.08442
-0.0205545
0.272457
6.83512e-06
0.000165703
-0.0165103
-0.0588337
-0.0296828
-0.0504069
0.0103006
0.000556751
-0.0373875
0.00956738
-0.0351065
-0.0461427
-6.71561e-13
-0.00578164
1.93287e-188
-0.00385222
-0.036864
-6.62855e-13
0.00140493
-0.414854
0.0857129
-0.013902
-3.94192e-07
0.10604
-0.0143546
0.0460055
-0.0328857
0.000119933
-0.0615477
-0.0250777
0.0214748
-0.0431999
0.0202189
-0.0364436
0.0234786
-0.0645393
0.00732541
-0.0777285
-0.00707279
0.0187379
-0.0244114
0.0728531
-0.00758185
-0.120701
-0.0185549
0.0217106
-0.0431999
0.0219849
-0.0785681
0.00272923
-0.000161505
0.0089672
-0.0374239
0.0428398
-5.42486e-07
0.0284732
0.0565294
0.0904704
0.017833
-8.48358e-07
-0.0161781
0.0223856
-0.00442142
-0.0129122
0.000849068
-0.0976038
0.0151513
-0.0185549
0.0430565
0.000336821
-0.0253049
-0.0579174
-0.0688045
0.00999672
0.0702627
-0.123425
-7.32728e-10
-0.176558
0.00126114
0.131487
0.133007
0.0470305
1.28457e-321
0.0176992
0.06337
0.101921
0.0073663
0.112431
0.072565
0.00965763
-6.34086e-05
-3.36366e-06
-0.0611812
0.000593263
0.0208525
0.0105375
0.0124731
0.015688
0.00156819
0.0230824
-9.80355e-05
0.0332861
-0.000323887
-3.8115e-08
0.00646289
-0.0353264
-0.101081
-0.107387
-0.103924
0.00603249
-3.72476e-14
0.0411113
-0.0379476
-0.014699
-0.0146715
-1.61108e-09
-0.0034273
-4.22136e-05
-5.94299e-15
0.0296715
0
0.00193061
0.061701
0.101047
-4.6006e-07
0.000119933
-0.185617
0.126991
-0.0361737
-0.0364784
-0.0247803
0.000680564
0.150667
0.0536375
-3.02563e-05
2.21042e-06
0.00646289
0.00200642
-0.00031835
-0.00476002
0.00732541
0.0402306
0.489983
-2.19853e-06
0.0140702
0.0163149
-0.0183908
-0.0135478
-0.00421414
0.019272
-3.72476e-14
-0.111054
0.00020894
-0.141152
0.0104857
0.0596607
0.0176
-0.0135478
-0.0120591
0.0163149
-0.0085423
-0.000108071
1.79728e-07
-0.0361729
-0.123895
0.0294658
0.115834
0.0240199
0.016253
-0.00767027
-0.0883187
0.048716
-0.00214131
0.0232966
-0.0350533
0.0591074
-0.00535375
-1.56733e-05
0.173062
0.0234786
0.0214748
-7.42915e-07
-0.000276956
-0.0628978
-0.131667
0.00615921
0.00756776
-1.6414e-12
-0.00494061
0.210892
3.05088e-253
-0.0133211
-0.278567
-0.00205901
0.0163149
0.00732541
6.04795e-05
2.64179e-178
0.00333672
-1.5316e-321
0.0414152
-0.0184222
1.21046e-321
-1.36362e-321
-0.0344601
0.0460906
-1.36362e-321
-0.0216599
0.00479965
-2.65984e-10
0.041934
-0.0123369
-0.0432624
-0.0397717
0.0016689
0.0385459
-0.00031835
-0.03453
0.148204
0.0113688
0.0188352
-0.0399628
3.05088e-253
-0.0601993
-0.0203575
0.0234786
-0.00113748
0.153009
-0.0598782
0.111434
0.0342429
0.215808
0.0113412
0.00199304
0.0590375
-0.0839079
0.052768
-0.0173522
-0.00476002
9.12573e-05
-0.108081
-0.00998548
0.0328052
0.0841084
0.00126114
-0.0161068
-0.0899848
0.0135967
0.00409778
1.5316e-322
0.0228769
-2.9776e-05
0.0169557
-0.0114188
0.0187379
-0.0176208
0
0.0142355
-0.0146715
0.0895392
0.107473
0.0191987
-0.0165103
0.0460049
0.019272
5.68175e-322
4.94066e-322
-2.90096e-05
-3.85287e-05
-4.61361e-07
-0.023101
-1.7001e-06
0.0166446
-0.000132886
-3.15907e-09
0.00732541
-0.163985
-8.48358e-07
-0.00734656
-0.0303334
0.112698
-0.0659115
0.0147234
0.0072586
0
-7.38886e-10
0.234561
0.136863
-4.69433e-09
-5.94299e-15
0.0239192
-0.0321866
-0.0152542
-0.0186301
-0.00499235
0.00249473
0.0590375
-4.43422e-05
-2.38101e-09
1.93287e-188
-0.024286
-0.00317041
-0.00272422
-0.0140747
-0.0629026
0.0341312
-0.039025
0.015688
0.0428062
0.0239464
0.0460906
-0.00461159
-0.0241647
-0.0819157
3.60107e-07
-0.00552493
0.0136224
-0.000344987
-3.00101e-14
-0.199605
-2.60849e-06
0.0194159
-0.0480322
0.0819308
-0.0392523
-0.0770927
-0.180659
-3.16658e-08
-5.707e-06
1.63042e-322
-0.0243152
0.0188037
0.10071
0.00842751
0.00105401
-0.0632823
-0.0282719
-0.0498283
-2.0946e-12
0
-0.0237913
-0.00133089
0.0136224
0.015688
-0.0293045
1.5316e-322
0.0877724
-0.0449407
0.18804
-0.0412891
-2.42606e-05
-0.00630937
0.0187048
0.103917
-3.49328e-12
2.64179e-178
0.015688
0.0281892
1.56045e-09
0.00732541
-2.03792e-05
-0.0623195
0.0232966
-0.105549
-0.0629262
0.000212717
-7.41291e-05
0.0208525
0
0.325794
-0.00342582
0.00120347
-4.03298e-05
0
0.263467
1.0191e-210
-0.00499372
0.0263512
-0.000112937
1.93287e-188
0.015688
-8.48358e-07
0.0381511
-4.11232e-08
-1.67529e-08
0.00156559
0.00255482
0.0208525
0.0352599
0.0111397
-0.137171
-0.0726112
0.300607
0.0893706
0.019272
-0.0542685
0.186045
-8.77668e-07
-4.69433e-09
-9.61218e-06
-0.0285288
0.184035
0.0445918
0.00257293
0.0251276
-1.59164e-05
-0.0270399
0.0219849
0.137414
-8.89792e-05
-2.57431e-05
0.0143492
0.0176
-0.00102811
0.00842702
0.0474618
0.00265668
0.0384308
0.0880474
0.0597817
0
0.0204648
-4.61361e-07
-0.040911
0.0173987
0.0105141
-0.249902
-0.00683455
0.0104857
-0.00940731
0.141839
-0.0133211
0.011745
0.0772111
-0.0165103
-2.98738e-06
0.040771
-0.163561
-6.60415e-06
-0.0451609
-2.98738e-06
0.0138024
-0.0096778
-8.48358e-07
-0.0612322
-0.095243
-0.0880895
-0.0177051
-0.0108549
0.0905476
0.0794107
-0.0653924
-0.00807991
-4.37684e-06
0.00129212
0.0104997
0.114652
0.0559486
-0.0632171
-0.0584922
-7.42915e-07
6.04795e-05
0.0104857
0.157424
-4.70309e-05
-1.51174e-05
0.000530767
0.00018566
0
-0.036901
0.000500422
0.000556751
-1.15204e-05
0.0908051
0.127452
0.000103168
-0.0498726
0.143915
0.0786837
0.0198929
-0.0303619
-0.0240421
0.185848
0.000176286
-0.0310953
0.0118684
-0.109455
-0.0340516
0.109796
0.00211647
0.0381711
-4.36042e-05
-0.0229341
0.00428728
0.219189
-0.0443567
-0.106842
0.00950851
0.118366
-9.83732e-07
-4.61361e-07
-9.61218e-06
0.0415687
-0.0222823
0.10564
6.34762e-05
0.0489662
0.0480183
0.0219825
-0.0531581
0.0868556
0.00156819
-0.0243152
-0.0185549
0
0.00237405
0.0105668
-0.0683209
0.0635319
-0.0561972
0
-1.4529e-06
-0.0600032
-0.0235543
0.105805
-0.0691101
0.00732541
0.0109645
6.81811e-322
-0.0333873
0.262397
-0.0777046
-0.21882
-3.21554e-12
-6.04783e-13
-0.0645438
0.015688
0.00523821
-3.87857e-10
-1.49776e-09
-0.036319
0.017661
0.316139
0.0305316
-0.0166047
-4.65297e-08
-0.139958
0.0244201
-1.54596e-06
0.0208525
-1.82455e-07
-0.0240082
-0.0533536
-0.0737352
-0.0301815
0.00732541
0.0105281
0.049443
-1.87393e-06
0.0420446
0
0.00283054
0.0178047
-0.000149669
-0.012846
-0.0368766
-0.0515686
0.0451059
0.0460906
0.0625967
0
-1.5134e-12
0.00120347
0.0582086
3.50787e-322
-0.0225392
-0.0747046
-0.0470657
-2.04056e-05
-0.0116154
0.0318541
-2.9001e-07
0.107692
-0.0382496
-0.00368655
-0.0480322
0.180516
-0.131644
2.48963e-188
0.0355869
-0.187609
0.000101308
0.0219382
-0.0252833
-0.0909865
0.0730785
0.00802286
-4.14574e-05
-4.17183e-05
-5.03341e-11
0.017399
0.019272
0.072496
-0.0728205
0.0162111
-1.73414e-07
0.0205231
-1.36329e-10
0.000469546
-0.00545698
0.0300379
0.0269144
-0.0478894
0.0272164
0.0531112
0.0234786
0.0212915
-0.000214103
-3.69546e-08
0.0194159
-5.707e-06
-1.36362e-321
-2.49595e-07
0.207226
-0.0171429
-0.063258
-0.0165
0.188331
-3.46665e-14
-0.02166
-0.0108549
-0.0057335
0.0500777
-6.28034e-05
0.0139722
1.93287e-188
0.00892395
-3.15907e-09
-0.0199033
-7.03187e-05
0.035224
0.0252894
-0.00975028
0.00193061
-0.00534512
-0.0521016
-0.0789727
-0.0116512
0.000313697
0.0365917
0.024172
0.215477
-0.0610101
0.0165972
1.33892e-321
7.27625e-39
-0.0983631
0.22554
0.030558
0.0611483
-1.54596e-06
0.00409121
0.0479227
0.000447847
0.248773
-5.32249e-05
0.0353342
-5.60257e-07
-0.0779265
-0.0298062
-0.0678932
0.0109763
0.068305
1.0191e-210
-0.047235
-1.45606e-06
6.83512e-06
0.0219968
-0.0483898
1.47799e-06
0.0335309
-0.0438319
8.16489e-05
0.0169561
-0.0510919
9.52941e-05
-0.0143546
0.0191987
-0.00176518
0.0211569
0.0313188
-0.00102811
-0.00494842
-0.0487374
-0.0375894
0.0155731
-0.219861
-9.8816e-05
-8.94259e-322
-0.133092
0.0531959
0.0376487
0.284539
0.0464241
-0.0526547
0.00566693
0.105215
0.066844
0.00415268
-1.36329e-10
-0.0402378
-0.0228582
-7.42915e-07
0.0184336
-0.00191429
-3.68116e-06
-0.0612456
-0.14874
0.0194159
-1.99104e-05
-0.0480852
-1.36362e-321
0.00020894
0.0387648
0.0015828
-4.22136e-05
0
0.0300326
0.0202189
0.10071
0
-0.00781484
0.0582108
0.0994123
0.00732541
0.011957
0
-0.00476002
-3.36366e-06
0.000459126
0.00528863
-0.0342048
0
0.0474013
0.0163149
-6.71561e-13
-6.19557e-05
-1.83802e-07
-0.148093
0.0387009
-0.0764829
-4.10374e-09
-4.69433e-09
-3.68116e-06
0.108026
0.0144869
0.12189
-0.0439964
-0.0753917
-9.22745e-05
-0.0289608
-0.0281305
0.0135526
-0.00018971
0.232272
0.129686
0.13017
0.0133619
-7.29414e-05
1.93287e-188
0.00898191
0.0611157
-0.0360326
-0.0653924
0.0260378
0.0118684
-3.04972e-06
0.260821
-0.0290209
0
-0.0880895
-8.94259e-322
-0.0118837
-0.0510026
0.0163149
-0.0295456
-3.20407e-06
0.0652301
-0.0131306
-0.0062357
0.0535832
0.0523328
0.0214748
0.00031829
0.0146546
1.93287e-188
-5.3296e-05
-0.000459518
6.83512e-06
0.0431889
-0.00012105
0.0721209
0.0363172
-0.0123837
0.167637
-0.0683683
-9.9173e-06
0.00107133
-0.0248381
-0.00194511
-8.79437e-322
0.116392
0.0219849
0.0928174
-0.0612456
-0.00421414
-1.71566e-05
-1.4469e-05
-0.000113643
6.41391e-179
0.0091548
-0.0375894
0.0257109
-0.00102811
-0.0440008
0.0614495
-0.017136
0.0445918
-0.131265
-3.32839e-06
0.000131419
0.0133588
-0.0391201
0
0.021275
0.088009
0.0212299
0.0144741
0.292133
-0.00471216
-0.1141
0.00247039
0.0163149
0.0163074
-7.82944e-05
0.579624
0.0835822
0.0107272
-3.68116e-06
0.0781626
0.027377
0.0374579
0.0151972
0.00175545
-0.00644278
-0.0213936
0.00305806
-0.00102811
-4.92833e-11
-0.00847317
6.41391e-179
-6.50066e-06
0.045187
0.00732541
0.00211699
-0.0551431
-0.000214103
-0.055817
0.000282076
0.00448389
0.0234786
0.0688822
-0.0294587
-1.25199e-07
-0.00707279
-0.0612456
-7.82944e-05
-0.0585851
-0.144411
-1.61972e-09
0.000125528
-1.99746e-06
0.0460906
0.0663944
-5.94299e-15
0.00199304
0.034689
0.0458658
-0.000226726
0
7.9629e-05
-3.94192e-07
0.00732541
-0.118808
0.0610537
0.0463852
-0.0831953
-0.000227097
-0.0369831
-0.0176176
-0.0153259
-0.0344882
0.0374195
0.506211
-2.0723e-05
0.00464176
0.153694
-0.117223
0.0497683
6.41391e-179
0.0370686
-0.0612205
0.00018566
0.00121777
-0.00986412
-0.0234883
-0.0196052
-0.0720228
-0.0408859
0.00094158
0.0204406
-0.0216599
-1.54596e-06
-4.28892e-05
-0.0233771
-1.5134e-12
0.00415268
-1.25199e-07
0.128586
-0.0712728
-0.0224906
-3.04077e-06
0.00211648
1.33892e-321
-4.42272e-05
-2.65984e-10
-0.0790251
-0.0259747
0.0328052
-7.31904e-08
-8.42599e-07
-3.00882e-06
-0.000891777
1.93287e-188
0.0134869
-0.0237423
-0.00484533
-0.115589
-0.010919
0.0105141
0.121853
-6.26782e-05
0.0927038
-1.6414e-12
0.00838332
-0.02166
-1.77184e-05
-0.0044125
-2.71415e-12
5.68175e-322
-4.65297e-08
-0.0629304
-0.0147924
0.0278593
0.00732541
0.150001
-0.000147742
0.00732541
0.0422582
0
0.05214
-0.0368273
-6.26782e-05
-0.0450916
-0.276483
1.09176e-06
-4.42272e-05
-0.0303334
-0.0399805
0.00882205
-6.94668e-05
-1.54596e-06
0.0335334
-0.0337067
-0.0788141
0.017213
-0.0264182
0.0750296
0.00448389
-3.00503e-05
-0.0303805
-0.00143366
0.0846692
0.552483
0.00120347
0.015688
0.0560419
-0.0408859
-0.0197696
-0.00780335
0.0266301
-0.143404
-0.0660781
0.221885
0.0891849
-3.72476e-14
0
0.00129376
-0.0111171
-6.62855e-13
-0.0514605
-6.04397e-06
0.419969
-4.32559e-05
0.127772
0.0234786
0.00258278
0.0722807
0.0238714
-0.0280344
-0.166196
-0.0241633
-0.0779942
-2.57431e-05
-0.0200456
1.0191e-210
0.126503
0.0257109
0.208567
-0.0236867
0.00843035
-0.0837423
0.0404393
1.03045e-191
-0.0464609
-0.0465607
-5.99291e-05
0.0437257
0
-8.93609e-07
-0.0431999
-4.28892e-05
-0.0840385
-0.0424589
0.0234786
-0.197829
-0.0129122
0.050902
0.000418388
0.0235121
-0.0135478
0.0209849
-0.0212237
-4.03298e-05
2.64179e-178
-0.0451609
3.05088e-253
0.110843
0.0427774
-0.000138829
-0.215545
0.00616807
0.0705676
-0.0365514
-0.0683416
-0.0423903
-0.0327976
0.00242993
-0.00194511
-0.0743814
0.0326782
0.00413081
0.0590426
0.0212909
0.0143492
-5.707e-06
0.0103123
-0.129803
-5.03341e-11
-0.124143
0.0145083
0.0147874
0.0224477
-0.000112937
0.00165227
0.0173986
-4.40162e-05
0.0376652
5.56756e-189
0.00732541
-0.0186201
-0.130941
0.0230489
0.000375767
-0.00305506
0.199044
0
0.0800556
0.00124563
0.0200493
0.0025176
1.02894e-186
0.0690079
3.50787e-322
0.0385507
-7.31904e-08
0.0143492
-0.000227097
-0.0201376
-0.0399628
-8.89318e-323
0.00116741
-0.0388067
0.00272923
-0.00604106
-0.0108549
0
-0.00975028
0.0327604
0.0103123
0.0445768
0.15362
0.00134533
0.00355933
0.0848135
0.0355911
0.0342429
2.96674e-06
0.0617554
-0.0185549
0.0577071
0.0950271
-0.148618
0.0136224
-7.38886e-10
-1.6414e-12
-0.0424589
0.509389
0.0139722
0.0851846
0.0354081
0.0157709
0.000336821
-0.000112047
-0.0171399
0.00493561
-2.0946e-12
-0.0506655
-0.022595
0.00732541
0.25782
0.382698
0.0538203
0.139916
-4.61361e-07
-2.57431e-05
-0.288305
-0.0287867
-0.0533536
-0.0516325
0.0562222
0.0073663
-1.54596e-06
-0.0149018
0.00148655
0.0240693
-2.96067e-05
0.0480765
-0.000671063
-1.4529e-06
0.0101872
0.189217
0.11366
-3.04065e-06
0.0462971
-0.00904838
9.52941e-05
9.07504e-05
-0.0571597
-0.0198471
0.0157695
-5.94299e-15
0.0793693
0.0345887
-4.69433e-09
-0.0247895
0.20405
0.0548912
0.000499549
-9.8816e-05
0.000499543
-2.9001e-07
0.00448389
-0.0290155
0.00448389
0.00116741
0.0146195
0.082051
0.0225519
-0.0213487
0.00732541
-0.0899148
-0.0143546
5.17361e-05
-0.172724
0.0232839
-0.0974562
0.00732541
0.0178599
0.0117561
-1.83802e-07
-0.00341943
0.0647478
0.0526919
0.0230875
-0.0350533
0.000336821
-0.0260035
0.0850538
0.000344912
-1.30927e-321
1.0191e-210
-1.24434e-05
0.00488229
-4.78105e-06
-0.044502
-0.0360046
0.0863987
2.38095e-05
-9.61218e-06
0.0841084
0.00995064
9.96091e-05
-1.67537e-06
-0.0295613
0.0394747
0.0557062
0.0414291
-1.99104e-05
0.0302221
-0.0612715
1.33892e-321
0.0335334
0.00200922
0.0187885
-0.0891209
-9.61218e-06
0.00333672
0.0503062
0.226987
-0.0412189
-0.292929
-8.62519e-07
-0.0223395
0.0104051
-0.030045
-0.00994448
-0.00415941
-0.0450788
0.0521496
0.4253
0.136799
0.00326235
-6.19557e-05
0.00209942
0.0163149
0.0180218
0
0.0279922
-0.118165
-0.0853732
0.0181198
0.128995
-0.110306
0.0214748
-0.0472912
-0.0412535
0.0105134
2.5255e-05
0.00120347
0.142438
2.64179e-178
-0.0276967
0.0150603
-0.0122323
0.112792
-0.0144195
0.0545573
0.0187379
-0.000212363
-0.000671063
0.0560569
0.00976985
0.00389811
-1.25199e-07
0.0112566
0.0164145
-4.6006e-07
-0.060372
0.0264362
-0.0749019
0.106926
-0.000138829
0.027377
0.00106386
-0.00604106
-1.25199e-07
0.00714536
-2.65046e-05
-0.0889979
0.0124409
-0.0255835
-4.71596e-07
0.0461096
-0.0267816
0.0333925
-5.707e-06
-0.0289432
4.80358e-06
-0.00937145
0.000132163
-0.0720228
0.0187866
-0.0701014
-0.00343048
-0.000212363
-0.0247803
0
0.0262013
-1.73414e-07
0.0134836
0.0019963
-0.0367316
0.0378238
0.0190688
-1.87393e-06
0.00732541
0.0333916
0.159608
-0.000226726
-1.7001e-06
0.0281892
-0.032976
1.73942e-05
-0.00149846
0.0520178
0.0105868
0.0344463
0.119458
0
0.0415687
-8.42599e-07
0.00385504
0.303773
0.0385782
-5.64676e-16
-1.83802e-07
0.0121755
-0.0446101
-0.0386287
0.00227432
-9.43665e-322
0.0582108
0
-0.0396276
0.09389
-0.0019588
0.0886699
0.00843035
0.0146546
-1.7001e-06
0.02193
-0.0591276
0.0100137
0.0100137
0.0563169
0.0163149
0.163515
-0.077657
-0.116775
0.242508
-1.02198e-05
0.0258673
0.0301046
0.0275873
-0.0701014
-0.000138829
-0.0112325
0.0990437
-0.0486912
-3.36785e-07
2.64179e-178
-6.94667e-05
0.100568
0.000122915
-0.00259253
-0.0247803
0.0146546
-3.8855e-06
0.0104857
-0.0335516
0.296377
-4.96031e-09
-1.3735e-321
0.0110322
-3.68116e-06
0.158155
-0.0185549
-0.0396709
-0.00721554
0.00126114
-0.0712728
-0.0359202
-1.67529e-08
0.00732541
0.0607936
-0.0143546
0.0163149
-0.0399628
2.26214e-38
-0.00847317
0.00889655
0.0465602
-0.00186737
-0.014699
0.0341176
0.013893
0.0174685
-0.0265921
0.145703
0.00930163
0.00413081
-0.0394834
0
0.0854642
-0.00774226
-0.0687316
-0.101064
0.0137913
-1.34112e-05
0.115212
-0.0424589
0.0150603
-0.116967
0.0234786
0.0016689
0.0196293
-0.0291788
-0.077287
-4.11232e-08
0.019272
0.00946336
0.0248604
0.0152814
1.21046e-321
4.78153e-05
-0.000164417
0.421346
0.000676921
-7.29414e-05
-0.199102
-8.9579e-10
0.108026
0.00603249
-8.48358e-07
-0.0237365
0.0213401
-0.0326177
-0.0752522
-0.00499264
-0.0161068
0.0023525
-0.00274201
-0.00758185
0.00363961
0.0676877
-1.54601e-06
-0.00817154
-0.093291
0.127604
-0.0127381
0.0324856
0.0585534
-1.36362e-321
-1.6414e-12
0.193789
-0.118552
-0.0631479
-0.0392523
0.030558
0.220815
-0.00578164
0.00018566
-1.36329e-10
-0.187894
-0.0350533
-6.19557e-05
0.000240858
0.0460906
0.00292402
0.0833579
-0.00317041
0
-3.87857e-10
-0.119882
-0.0838904
-0.0533536
0.0651211
-6.12641e-322
-3.90786e-09
0
0.0605979
0.00634291
-6.04397e-06
-0.00033551
-0.00434184
0.000448484
-4.93866e-05
0.0206042
-0.0366148
1.62e-180
1.93287e-188
0.0327532
0.0673828
-0.02166
-5.94299e-15
-0.0401277
-0.0416347
-0.164836
-0.0909922
-3.68116e-06
-0.0424589
-0.0455134
-4.10374e-09
0.0104051
-0.0302155
0.269209
-0.0062357
-0.00765861
-0.00272422
0.012836
0.142832
0.0627863
0.00296946
-7.93732e-05
-0.0313964
-0.0647193
0.00237073
-0.0624561
0.000442308
0
2.43574e-321
-0.0376905
-0.000161505
0.0557062
0.0477764
0.0143492
-0.0361949
0.019272
0.0232966
3.66571e-08
-0.0118837
0.0107272
-0.0305901
0.0335334
0.232042
-0.0823799
-0.000408983
-1.6414e-12
-0.000112047
1.03045e-191
-0.00604106
0.0278593
-0.00414401
0.00894396
-0.0219973
-0.00696931
0.0274592
3.05088e-253
0.0317515
-0.0601993
-0.0646752
0.127793
-5.64676e-16
-4.71596e-07
-0.0866078
0.0125216
-0.14914
-0.00476002
-0.00417867
1.93287e-188
-0.02166
-4.43422e-05
0.0329318
-4.71596e-07
-0.128921
1.56619e-321
-0.0127421
2.5255e-05
-0.00102811
0.0617554
-0.213498
0.304132
-0.0770888
-2.68616e-08
-2.57431e-05
0.00976985
-0.209655
-0.0195855
0.000499549
0.00100177
0.0176
-1.61972e-09
-0.0263427
0.0965806
0.0307324
0.000240858
0.00732541
-0.0470657
-0.0325575
0.0370686
0.0462971
-0.246381
-0.0378802
0.0105281
-0.0255264
-1.36329e-10
1.02903e-07
-0.00758185
0.12858
0.00120234
0.000138448
-2.65984e-10
-0.000221747
-0.222654
-0.0303334
0.0370686
-0.0080013
-1.82455e-07
-0.0309457
0.0462349
-0.00379352
-0.124147
0.0266457
-1.62227e-09
0.091169
-0.264157
-0.0159165
-0.00584398
0.331711
-0.021389
-3.31781e-10
-0.060372
0.00204004
0.0461096
-0.170507
0.0229817
-0.044449
-1.68229e-320
-0.000308327
0.0289819
-0.046586
0.0289955
-4.69436e-09
-0.0510074
0.00520197
0.00732541
1.21046e-321
-4.24906e-10
0.065609
-0.0960485
-4.94728e-07
-0.0724985
-0.0611812
-0.054485
-2.0946e-12
0.0183213
0
0.246212
-0.0143546
-3.00511e-05
4.03389e-06
-2.17525e-05
-0.0977871
-0.0179368
0.0370686
0.0202189
0.036077
-4.11232e-08
-0.0175676
-0.101064
-6.62855e-13
0
0.0649743
1.58337e-05
-4.92864e-08
0.0625967
0.0838046
-0.0496265
-3.69546e-08
1.26175e-05
0.011745
0.0012033
-0.0258442
0.00843035
0.0521646
-0.0062357
-0.0211467
-0.00681991
-0.162875
0.00732541
0.0967043
-3.36366e-06
0.0103148
1.74144e-32
0.0200493
-0.0893143
-8.1544e-06
0.00198416
0.261944
0.0634952
-0.00214131
0.0312636
0.00528863
0.0739251
0.0234786
-4.69433e-09
-0.0743988
0.100604
0.103511
0.0799082
-0.00499235
0.0543263
0.0577071
0.0234786
-2.6298e-05
0.00603249
-0.00578164
0.0273901
3.05088e-253
-1.6397e-05
0.0521283
-0.000272004
-1.37002e-06
0.0755367
-0.0135479
0.00016177
-1.89731e-09
0.122788
-0.00102858
0.0329318
0.0461067
0.0206042
-9.8816e-05
-8.93609e-07
-0.0180721
1.02894e-186
0.00018566
0.136964
-0.0210016
-0.00998333
-0.14272
-0.0223395
0.00105651
0.00732541
-1.99728e-05
0
0.0219382
-7.75683e-322
-0.0032239
-0.0111171
0.0516273
-0.0481524
0
-0.0166002
-0.000108071
-0.000206157
-4.69433e-09
4.20968e-114
-0.00503787
-0.0153113
0.0500743
0.106957
0.0885784
0.0156678
-0.0325631
0.000259441
0.00757673
-0.0145151
-4.10374e-09
-0.107073
0.139824
0.102784
0.00963633
-0.119177
0.00020894
0.0170915
0.000648106
-3.46665e-14
0.103428
0.088387
5.17361e-05
-0.000251788
-0.0294325
-0.130019
-0.0352176
0.0139722
0.0138226
-0.14596
-1.77183e-05
-0.0465631
-9.44805e-05
-0.0135478
-0.0921283
-2.57937e-06
-2.67688e-05
-0.101582
-0.00976448
0.0728997
-0.113148
-0.0443342
0.0851846
-0.000221747
0.0415333
-0.000227097
0
-1.23411e-13
0.000827711
0
1.74144e-32
-0.0611812
0.344304
1.93287e-188
-3.21554e-12
2.44991e-180
-0.0861605
-0.0275559
0.502264
-0.0410768
-0.0261661
0.0781524
-0.0624749
0.116108
-0.110225
0.0107272
-0.0285745
0.0460703
0.0317493
0.000122915
0.0524048
1.70453e-321
-0.0606595
0
0.055823
-0.0528523
0.0328052
-2.54707e-12
-0.0696017
0.0104051
-0.0399628
-0.000107829
0.000842436
-0.106445
0.00732541
-7.75683e-322
-0.0265619
-0.105214
-0.0902495
-1.08352e-07
-0.0309457
-0.107189
0.00170927
-0.142074
0.0200493
0.0100023
0.000383405
-0.0146715
-0.0937163
-0.0870672
0.0547055
-0.0928508
6.04795e-05
-0.0357313
-9.44805e-05
-3.16658e-08
0.0597817
0.11737
-0.0744063
0.00016177
0.0280929
-1.3735e-321
-0.0716691
-0.0272988
-0.000134355
0.0194159
0.00732541
-0.0161068
-1.85386e-05
0.000226944
-0.155085
0.0317192
-0.0210857
0.0461096
0
0.00121121
0.0056758
0.00869813
-0.0591276
-0.000284565
-0.204622
0.00620433
-0.110701
0.0537691
-0.0477631
0.0139722
0.476373
0.0335311
7.87429e-06
0.0214748
0.000375767
-0.0515781
-0.122254
0.0597817
-0.0716745
0.0424466
-0.0181108
-0.0178671
-1.6414e-12
-0.0788705
0.0833579
-8.49793e-322
0.00296145
-8.77668e-07
-5.707e-06
-0.0847176
0.00038341
-0.000147587
0.000751553
7.90534e-09
3.05088e-253
0.0730743
-9.44805e-05
-3.69546e-08
0.0135526
-0.00489268
0.00193061
0.0232989
-0.250628
-0.0678987
-0.013944
0
0
0.191638
1.93287e-188
0.0089672
-0.0278023
1.24112e-05
0.000259441
-0.0119244
-0.0811292
-2.17525e-05
0.0397986
-0.0193932
-7.30634e-06
-1.6414e-12
0.00020894
-4.24627e-06
0.0739251
0.0499761
-7.29414e-05
-0.0428
0.103141
-0.186097
0.0125216
1.70453e-321
-5.47796e-05
-1.08352e-07
-2.54707e-12
-0.120413
-0.018151
-4.22519e-05
-0.0231493
-0.0248216
-3.94192e-07
-0.093407
-0.0241677
-9.22373e-05
-0.0237836
-0.000151236
-3.49328e-12
-0.0241647
-3.04035e-07
-0.0599603
0.0192145
-3.94192e-07
2.64179e-178
-0.0120067
0.00211648
-0.0374473
-0.0431999
9.12573e-05
-0.0297369
-7.22351e-12
-0.0197696
-0.0397717
-0.0192087
-6.47947e-15
-3.68116e-06
0.136767
0.031636
0.0140601
0.0139791
-0.0606592
-3.36366e-06
-0.00946838
0.00211648
0.000727913
0.0198548
-5.13706e-05
0.00650998
0.151878
-4.69433e-09
0.141132
-0.0450355
-0.137611
-0.0143546
-0.00975028
0.210881
-0.0866078
0.118616
5.17361e-05
-0.0135478
0.0219841
-0.103593
0.0200493
0.0891067
-0.0572098
-5.94299e-15
0.091169
0.0461096
0.0115376
0
-0.00778268
-0.021179
-0.000671063
0.00732541
-0.0651863
0
-0.00499235
0.000188589
-0.0551047
0
0
0
-1.4529e-06
-5.64676e-16
-2.38101e-09
0.13503
-0.0489824
0.00603249
0.00806152
-1.37002e-06
5.56756e-189
-0.0961583
-0.0448035
0.015149
-0.00345766
0.0353741
-2.90079e-06
-0.0255264
-0.364271
-1.87251e-321
-8.20939e-06
0.0187379
-0.000680981
-1.83802e-07
-0.0124499
-1.83802e-07
0.0035783
-0.4159
0.0200493
0.00974627
-0.0316018
0.00175543
-3.36366e-06
0.0671669
-7.06552e-05
0.000857727
0.00834422
0.427774
0.00828596
0.000131419
0
-6.04783e-13
0.233531
-0.146571
0.0209999
0.030558
0.0113412
0.0357983
-0.0201376
0.0401432
0.0214135
-2.9001e-07
0.000168373
0.0243882
-0.0692874
-0.0496265
0.0155731
-0.0624749
-3.64195e-12
0.00732541
0.00227432
0.00257293
0.0202189
0.000116186
-0.0623046
0.0139438
0.00614461
0.0170002
0.125259
0.0105141
0.0780626
0.106222
-0.0619438
4.20968e-114
0.0811001
-0.0216599
-0.0146715
0.0456984
0.056211
-0.0757754
0.0585952
0.0671853
-0.00023331
0.00171463
-0.0218243
0.00120347
0.027377
-9.33206e-05
0.00211648
-0.0630966
-0.0129122
-2.22824e-06
-0.00729416
-0.014699
0.0308314
-6.24834e-05
-0.00176857
0.00376353
-0.0777977
-0.0343584
-3.68116e-06
3.05088e-253
-0.0151733
-0.000246578
0.176504
-0.0356719
-0.13135
-0.0279169
-0.0452745
-1.25199e-07
5.56756e-189
-8.5152e-07
-0.0309457
-0.0508776
-0.00653319
-2.31316e-08
0.0194159
-0.0408859
0.000131419
5.56756e-189
-1.33686e-05
0
-0.087643
-0.0211109
-0.024086
-1.24434e-05
0.0234786
-4.22755e-12
3.73375e-06
1.09176e-06
0.00211648
-0.0330582
-0.000164417
-0.0176508
-0.00584398
-0.0858824
0.00732541
-1.14683e-10
0.00016177
-0.0431999
0.0142875
0.0920612
0.0416149
0.00936208
-0.000226834
0.0138345
-4.69433e-09
0.00370785
-0.0197696
-0.0353264
0.0278619
-0.00490717
5.17361e-05
-9.9173e-06
0.0458658
0.0035783
0.00603249
-0.0128446
0.00219127
-1.279e-05
0.0423137
-7.82944e-05
-0.0225559
-4.69433e-09
-0.013978
-0.019774
-0.0224906
-0.000214103
0
0.017399
-0.0397717
-0.337222
-0.189908
-2.0946e-12
0.0840039
0.00305966
0.0288168
0.0238609
0.0320611
0.0234786
1.62e-180
0.00288665
-1.38048e-10
0.0105345
-4.42272e-05
-5.64676e-16
-0.0673352
-3.04972e-06
-0.0606592
0.0441743
-0.0684837
1.21046e-321
-0.0626344
0
-2.06452e-05
-0.0185549
0.091169
0.00732541
-0.0241647
-0.0191285
-1.24434e-05
-0.0350533
0.0671853
0.0163149
0.0547055
-0.00691672
0.019272
0.0101872
0.030978
0.0199726
-0.0606592
0.10071
-1.65512e-321
-0.0198471
0.0234786
0.169826
-0.0475761
-0.0975152
0.00511898
-0.00882442
0.0577069
-6.94667e-05
-0.00975028
-7.32728e-10
-1.49776e-09
0.0484003
-0.0716745
0.102285
0.0100023
0.00272923
0.0152145
0.0307979
2.18731e-303
0
0.0266115
1.74144e-32
-0.097873
-0.123651
-7.32728e-10
0.056868
-0.0589077
-8.79437e-322
-0.268184
-0.0534851
0.00157945
-1.49776e-09
0.0397849
-6.50066e-06
1.26175e-05
-0.0201046
0.0302662
0.0609087
-0.0140093
-0.0696951
0.0875319
-1.6414e-12
-0.00725891
0.0163149
-4.69433e-09
0.0933221
0
-1.6414e-12
0.023657
0.00732541
0.00732541
0.13134
-0.00670859
-3.87857e-10
-0.159004
-0.0721691
-4.43422e-05
-0.0123369
-0.000151687
-0.102879
0.00774242
0.0344234
-0.0157395
-3.36366e-06
2.43574e-321
-0.221183
-0.0239289
-0.0507403
-0.0373383
-5.42486e-07
-0.00246356
-0.000164417
0.052888
-0.014371
0.00053605
0.0191987
-2.96067e-05
-0.0209753
0.0981472
1.26175e-05
0.00493561
0.0360658
-0.00831726
-0.00476002
0.185944
0.0484763
0.000117942
-0.0668263
0.0100013
-0.099163
1.21046e-321
0.0275896
-0.0529637
0.056356
0.0429073
-0.027077
-1.25199e-07
-0.0118837
0.0027947
-0.01355
0.0585087
-6.94667e-05
0.0157709
-0.0219664
0.0186908
0.0460055
0.0987027
-1.25199e-07
-0.0753917
-2.0752e-08
0.0447679
0.0352599
0.0363332
-0.199415
2.57744e-05
-0.0276409
-0.0600081
0.0521248
0.447412
-0.0313244
1.26175e-05
-3.64195e-12
0.0560925
-0.171645
0.0214975
1.21046e-321
0.0554965
-0.0653799
0.00834422
-6.17363e-05
-0.0397717
0.0130548
0.0135526
0.0413118
0.0257109
-0.00741474
0.00221855
0.0907887
-0.114958
0.0141736
0.0187885
0.156558
0.0270853
0.0293746
0
0.0387648
0.00931795
0.0140601
0.053476
0.0354108
0.0100023
-2.67688e-05
0.0542778
-0.000214103
-5.42486e-07
-4.03298e-05
-0.000227101
0.0397905
0
-2.57431e-05
-0.0146715
-0.035134
0.0585087
-6.22523e-322
-1.87393e-06
-3.8115e-08
0.00028017
0.0136224
0.0135526
8.42515e-05
0.0773652
-0.015403
-4.03298e-05
-0.036671
-3.36366e-06
-0.0133364
-0.134946
-2.9001e-07
-4.78105e-06
-0.0978738
-1.87393e-06
0.00995064
0.037674
-0.101167
-0.109627
0
0.00763655
-0.00975028
0
0.0597221
0.061249
0.0327455
-0.0780096
0.000857727
-0.00975028
6.83512e-06
1.3839e-05
-2.49595e-07
-2.9001e-07
0.11499
-0.097053
-0.000206132
9.52941e-05
0.0286823
0.0364447
-1.99728e-05
-0.0508776
-0.0112928
0.0458374
0.000108968
0.015688
0.0625967
-0.0822448
0.0205233
2.5255e-05
-0.0980292
-0.0241647
-0.0281385
-0.0116258
-0.0721372
-5.64676e-16
-0.0259063
-0.106339
0.0242073
-0.00406855
-7.29414e-05
0.00732541
-0.000214103
-0.0701014
-0.0311303
-1.23411e-13
0.0512727
0.00377591
0.100436
0.064691
0.244865
1.93287e-188
-0.0102629
0.0554818
0.0105141
0.0554026
0.0168487
2.64179e-178
0.0023525
-0.00286381
-0.00707279
0.129613
-1.5134e-12
-6.04397e-06
0.00141981
-1.73414e-07
0.0089672
-0.122385
-0.00499235
0.0328716
0.0531423
-5.34216e-05
-0.128759
0.00483941
-0.10996
-1.03147e-05
-0.0445012
0.012976
-1.25199e-07
0.00843035
0.0267961
0.00120347
2.44991e-180
-3.55727e-322
-0.0195222
-0.159584
-0.000312516
-0.0625152
-0.256005
1.21046e-321
0.0159226
-3.15206e-06
0.0234786
-0.0479703
-0.0510395
0.0904238
-0.000272004
0.0200229
-0.0527286
0.0448061
0.00800413
-0.0529472
-0.00317041
0.0284361
0.0869216
0.015688
-0.0472912
0.0234786
0.027377
-2.09307e-10
0.0173961
0.0234786
-1.279e-05
0.00016177
-0.000138829
-0.000212998
0.339375
0.017399
-4.40162e-05
-0.000187007
-0.0355085
-0.0588283
-0.000138829
0.0267756
0.065397
0.101757
0.0592316
0.0783148
0.0362024
0.00254771
-0.000174158
-0.0841104
2.5255e-05
0.453785
0.0547976
0.052712
-0.105824
-3.00101e-14
0.0712467
-0.0165107
1.5316e-322
0.149292
-1.60617e-07
-0.0264912
0.0645412
-0.027688
-0.0453735
-6.71561e-13
0.00697912
-0.0133211
-0.039285
-0.017439
-7.20256e-10
0.0110634
1.15611e-321
0.177984
0
-0.0135478
0.0295604
-0.0582332
-0.217998
-0.0318902
0.00120347
0.0497137
-9.44805e-05
-0.05427
0.32148
0.0217933
-0.039714
-0.0715763
-0.00807243
0.015688
0.0184336
0.0684835
-4.28892e-05
-9.22743e-05
-0.0753917
0.0402349
-0.0606592
0.0796134
0.0135526
-0.0115109
0.00211648
0.0872081
-3.21249e-06
-8.48358e-07
-0.0135478
1.24505e-321
0.00732541
0.0359593
0.114011
0.000108968
0.00688129
0.00732541
-0.0247803
1.93287e-188
7.84341e-05
-0.0557314
0.0304859
-0.0334474
-0.0179363
0.00732541
0.257981
-0.0193145
0.0754348
-0.0657462
-0.00272422
-0.0275467
-0.0213487
-0.0233005
-0.0322897
-0.0255264
0.017399
-0.148581
-0.0325196
-0.0181454
0.00120347
-0.0633697
-0.0841352
-0.0452162
-0.131494
0.00209942
-1.73414e-07
0.0142355
-0.0364509
0.0163149
-0.0448035
-0.0458665
0.00110106
0.00209942
0.212403
1.93287e-188
-0.23538
0.00732541
0.0460055
1.27972e-05
-0.0612456
-0.000491059
0
0.0263512
0.0187567
0.00175543
-0.0624561
-0.0580176
0.00448389
0.0187866
-0.00102811
0.0599641
0.0328052
-0.0405624
0.137583
-1.279e-05
-0.0049895
0.181187
-0.00988155
-5.94299e-15
-1.4469e-05
0.029126
-0.0451664
0.00995429
-2.43221e-05
0.047625
0.0115265
0.00732541
-8.9579e-10
0.0435545
-0.0144736
0.077672
0.012836
0.0114815
1.21046e-321
-0.0566462
0.000493834
-0.0475659
-1.54596e-06
0.0747916
0.0774613
0.015688
0.000365759
1.0191e-210
-0.06233
-9.61218e-06
0.141203
-0.0451609
1.02272e-321
0.000827711
0.0202189
0.0328052
-0.126356
0.0385459
5.17361e-05
0.015688
0.0635319
0.103447
0.0345887
-0.233338
-0.0053109
0.0411992
-8.94259e-322
0.0139685
0.00732541
0.0339555
0.0760136
-1.59893e-11
0.0584923
0.0602308
0.0744106
-0.102782
-0.134801
0.11013
-2.02681e-10
-7.22351e-12
-0.0062357
0.012836
-4.69433e-09
0.0019216
5.72737e-06
0.000213726
-0.000113643
5.56756e-189
-0.00359256
0.0169557
0.0249647
0.0861481
-0.102378
0.0204033
0.015688
0.00272923
-0.0563664
0.00038341
0.169965
-0.0209797
-0.0892126
2.5255e-05
0
0.0370686
-0.0123369
0.0105141
0.000648106
0.0370686
0.000336821
0.0143492
0.386265
-0.00406614
0.0697843
0.158126
-4.42272e-05
-0.0171429
0.00249953
-4.69433e-09
0.0152826
-0.00975028
5.56756e-189
0.000282894
0.132078
-5.1882e-05
0.00389811
0.00126114
-0.0143546
-3.90786e-09
0.0370686
-0.0211643
-6.12641e-322
0.44282
-0.0404144
0.209947
-0.0227626
-1.38048e-10
-0.0293501
-0.0133211
0.0600991
0.00258549
0.0132074
-0.0185549
0.0146546
-0.00210334
0.169599
-3.36366e-06
-0.0449542
0.364397
-0.0475363
-0.0335393
-0.0166047
0.000403933
-0.0143546
-0.00274201
0.0365946
-7.93732e-05
-0.041808
0.0557783
-9.41604e-08
0.0361485
1.56125e-321
0.0434322
-0.000671063
0.00603249
-1.08352e-07
-0.00378873
-0.0623195
0.0357461
0.0367742
0.164232
0
1.1404e-06
1.62e-180
0.023364
-0.000147587
-0.11578
0.0144708
0.0710902
0.00296946
-0.0140637
-0.00975972
-0.089176
0.0163149
-4.69433e-09
-0.0598324
-6.97964e-05
0.015688
-0.0404782
-0.0629026
0.0497746
0.00540677
0.0110271
-3.64195e-12
-0.020396
-0.00975404
0.0163858
-0.0397531
0.0146832
0.0214135
-0.0161068
0.186618
3.05088e-253
-2.96067e-05
0.015688
0.041934
0.0357027
0.0715551
-1.61972e-09
-0.0604181
-0.0984749
0
0.0470305
0.0188037
3.05088e-253
0.0705779
0.219997
-0.0451609
-4.92035e-08
-0.0315692
0.0105281
7.11887e-08
-0.00578164
3.05088e-253
0.0423424
0.210046
-1.87393e-06
0.313908
-6.11914e-05
-0.116583
0.096586
-0.0198471
-0.0713376
0.0927016
-0.0849467
-4.61361e-07
2.43574e-321
-0.0508623
-1.60984e-06
-0.0234791
-0.00494852
-0.000394543
0.00330536
-0.163561
0.0704011
-0.139756
-1.59893e-11
0.0456993
-1.29051e-05
0.101168
0.0108472
0.0305579
0.0641462
-1.77183e-05
-5.64676e-16
3.50787e-322
0.00732541
-0.0186079
0.0176486
0.00448389
0.0214135
-4.61361e-07
-0.475933
-0.0255264
0.014064
-4.92833e-11
-9.65617e-05
0.163784
0.00104177
0.000872125
-0.0235482
0.269209
0.000616324
0.00732541
0.0893253
-0.0148343
0.0107272
0.015688
-0.00728941
0.00404149
0.0116801
2.5255e-05
5.56756e-189
0.0181641
-0.0062357
-0.0172519
-0.089176
-0.00604122
0.103952
-0.00102811
-0.268075
-6.71561e-13
0.0904238
0.0105345
0.0110322
-0.217856
0.189217
-1.6414e-12
-0.0386659
0.135709
0.0407243
-0.0282778
0.00732541
0.0163149
-0.0935438
-9.43665e-322
0.0557062
4.03389e-06
0.0727326
0.0151129
0.0884695
0.0884695
0.0995509
0.0296346
0.267525
-0.0247803
-0.259587
0.179086
0.00732541
0.0214135
0.00493561
0.00732541
0.0234786
-9.09081e-322
0.080659
-0.060372
-2.35571e-06
-0.000113643
0.0104875
0
-0.311574
-0.0285745
-0.01677
-8.94259e-322
0.00584792
0.0463472
0.0675202
-0.0434909
0.0335334
0.0779074
0.0548493
0.0397905
0.015688
0.016825
0.0182403
-6.71561e-13
0.00966677
0.00732541
-0.0384041
-0.037208
-0.0611578
0.16707
0.000342383
-4.78105e-06
-0.110306
0.00428035
0.0212477
-0.0111161
-0.0429754
0.0306823
2.64179e-178
0
0.0796232
-8.48358e-07
0.0875963
3.50787e-322
-4.32559e-05
1.09176e-06
-0.118497
0.0342377
0.00134533
-3.64195e-12
-0.000671063
-0.154824
-0.0689073
0.165282
-6.62855e-13
0.0649743
-0.000509599
-3.32839e-06
0.0255716
-0.0236529
-0.0377634
-0.000116339
-0.0177051
-0.000308191
5.56756e-189
-0.000216683
2.64179e-178
-0.0123477
0.0187885
0.0373905
-7.06784e-05
3.05088e-253
0.0200493
1.02903e-07
-3.12887e-06
0.00743886
0.00732541
0.027377
-0.0734259
0.0974702
0
-0.0702991
0.000165703
-0.060953
0.00199304
0.0513869
0.0284311
0.0657651
0.0142643
-0.000301154
0.0672431
-3.68116e-06
0.0292593
0.0155495
-0.0156424
0.00867304
0.0328624
-0.161645
6.7687e-322
0.0848135
-0.0480322
7.11887e-08
-0.0567926
0.0297672
1.26175e-05
0.0861739
-0.00132155
0.0807356
-0.00739854
-0.0353264
0
1.93287e-188
-0.118458
0.0146546
-0.105069
-2.22824e-06
-0.000671063
-0.0451858
-0.0224911
-0.155434
3.38843e-05
-0.134932
0.0513026
0.000113342
-0.0397717
0.31185
8.42515e-05
4.55466e-07
-5.82985e-05
0.0394982
-0.0557299
0.0176
0.062438
-1.25199e-07
-0.0718127
9.52941e-05
-8.85312e-07
0.00732541
0.00931808
0.0530967
3.05088e-253
0.110601
0.019272
-0.0672715
0.0547055
0.157076
0.0605179
0.00732541
0.0272762
0.145227
-0.0108549
3.05088e-253
0.00197366
0.0201155
-0.0612435
-0.0644611
0.101476
-0.057938
-7.97163e-11
-0.0065596
-1.25199e-07
0.186215
-0.0954693
0.0454313
0.0132632
-9.44805e-05
0.0391707
0.159557
0.038285
-2.9001e-07
-0.0480322
-5.02849e-05
9.52941e-05
0.0391409
-0.0226311
0.06337
-0.0470657
-0.0247812
-6.65241e-09
0.0964945
0.0539364
-0.0133211
-0.00425695
-0.195313
9.96091e-05
0.0170915
-0.0924429
-0.0255264
-4.92833e-11
0.0340475
-0.0707157
-0.0971047
0.0729809
-7.20256e-10
0.00254771
0.0220372
-0.0456215
0.0472307
-0.0624768
-0.0788958
-0.0809343
0.011745
-0.0366044
0.00603249
0.0307686
-0.0396519
0.148739
0
-0.00484487
-1.60617e-07
-0.0371937
-0.111054
0.0310187
-6.12641e-322
0.0163149
0.00732541
0.0133819
-3.36366e-06
0.019272
-0.043995
-0.127827
-0.0241781
0.015688
-0.000499207
0.099241
0.00623806
-0.0764811
-0.000245269
-0.000139832
-1.23411e-13
-2.9776e-05
0.000635442
0.0126676
0.0191945
0
0.0221975
5.17361e-05
0.253908
0.012836
-0.0803524
-2.96067e-05
-2.67688e-05
-0.0255264
0.0191987
0.00570594
0.00846041
0.320802
0.00625214
0.0224395
-1.65512e-321
0.00318048
0.000966866
-0.0439964
0.0214748
0.0108135
0.122754
-0.00975028
0.0211802
0.0187379
-0.0198471
0.00116741
0.00603249
0.0775095
0
-0.00167232
-2.90178e-06
0.0342514
-2.31316e-08
-0.000112937
-0.0479438
-0.0295499
0.0160187
-0.0243152
0.116094
-0.017962
-0.255425
-9.83732e-07
-0.0135478
0.015688
0.0447501
-0.0193483
0.149148
0.0111216
0.0013695
0.0650507
0.0200493
-0.00340053
0.000872125
0.0234786
0.00038341
0.00163905
-0.0255825
0.030558
0.0530967
0.165805
-0.000204071
0.120937
1.0191e-210
-0.0144736
-0.024086
0.0625405
-9.29722e-06
8.42515e-05
-0.0359202
-0.0201626
0.0665967
0.00157317
0.00732541
-0.0497754
-0.0248716
-1.4529e-06
0
0.0445331
0.0344463
0.165702
-0.0236867
-0.028636
-0.0658363
0.234503
0.0147405
0.00674825
0.000145465
0.0113412
-1.15204e-05
-9.44805e-05
2.64179e-178
0.0351749
-9.43665e-322
-0.00578164
0.000857727
0.0631777
0.050453
-0.108599
0
-0.170337
-0.0165341
-2.09307e-10
9.96091e-05
-0.0143546
-0.000276956
0
0.0401602
-0.0329945
-0.00102811
-0.0112433
0.0163149
-7.32728e-10
-0.00102811
-0.0926008
-0.0342645
1.21046e-321
-0.0135478
0.000506944
1.73942e-05
0.0222823
0.0357057
-0.000226726
-0.000112937
-3.36366e-06
-0.0175713
-0.00926477
0.0212299
-0.000817664
0.162316
-0.0196037
0.0385459
-2.64889e-05
0.0777521
0.0460906
0.0460906
0.0463481
-0.000138829
0
0.0467577
-3.69546e-08
0.020107
4.03389e-06
3.66571e-08
0.0642685
0.00654761
0.0272015
0.0018829
-0.0547422
0.015688
0.0384236
1.53331e-05
-0.00658274
-0.0385096
-0.0231334
-0.0108549
-0.0276967
0.000125528
-0.146417
0.0139722
-0.000206157
0.00732541
-2.67688e-05
0.0556208
-0.0599545
8.42515e-05
-2.14713e-06
-1.6414e-12
-0.0316927
-0.0592099
-3.94192e-07
-0.0809094
-0.0297358
-0.0019588
0.001728
-0.022595
0.107013
-0.000544318
-0.0399628
0.00732541
0.00570402
-0.0146636
0.10526
0.439146
0.00732541
0.0323445
-0.028696
0.123918
-0.0371937
-0.0376905
0.00020894
0.0477196
0.0634952
-6.04783e-13
0.0143146
0.00732541
-0.100623
-8.2509e-322
0.00732541
0.0224395
0.000358391
-8.77668e-07
-0.000119619
-0.0023158
0.0357057
0.00094158
-8.66473e-08
0
0.00135433
-0.0887697
0.0152814
-0.163453
0
6.41391e-179
-0.0148529
0
0.0345382
0.064745
0
-0.226653
-0.0247803
-1.25199e-07
0.00732541
-0.0324324
0
-0.0603928
-0.0264716
-9.69276e-09
0.0484003
0.0361286
0.00120347
-0.261767
-0.0019588
-0.00976448
-3.36366e-06
3.50787e-322
-0.00975028
0.0072586
0.0701709
-1.68229e-320
-1.193e-05
0.0170002
-0.0293163
-4.2914e-10
2.82418e-08
-3.87857e-10
-0.0522221
-0.00333492
0.156558
0.0377718
0.0703217
7.9629e-05
-0.000132886
0.0725295
-0.0133211
0.0240523
0.0141892
0.015688
-6.26782e-05
0.0223101
0.0248463
-0.130028
-2.57431e-05
0.0163118
-0.0411372
-0.0282722
0.00843035
5.68175e-322
-0.0128446
-0.141856
-0.000300063
-0.000107829
-4.61361e-07
0.00732541
0.00493561
-0.000108071
0.00157945
-0.101081
9.98013e-322
-0.0175518
-1.6414e-12
0.0836235
-0.017136
-3.87857e-10
0.0234786
-9.43665e-322
-0.0504079
0.0456308
-3.12887e-06
-0.031626
0.0083495
0.0448697
-0.0201376
-0.0475935
0.123321
3.05088e-253
-1.38048e-10
-0.062168
-0.0222205
0.283919
-0.0250777
-7.82944e-05
-2.38101e-09
0.0460906
0.0484003
-4.69433e-09
0.00296946
0.0335311
0.00732541
0.0163149
0.0305577
0
0.159535
0.0590375
-0.0316927
0.0703378
-0.0187582
-0.0135478
0.0854122
-2.70183e-11
0.0618382
0.0133619
-0.000293207
0.040094
-0.0365706
-0.00487766
-0.0306757
8.42515e-05
-0.145961
0
-0.0085423
-0.0435135
-2.02681e-10
-0.0561685
-4.69433e-09
0.00439648
0.0338966
-0.0197696
0.145928
0.00732541
-0.129949
-1.76246e-10
-0.0263427
0.00116741
-8.94259e-322
-0.0821737
0.0477196
0.199588
0.0444124
0.0393051
-1.6414e-12
0.132938
0.0385217
0.027377
-0.0197696
0.0104051
0.0214748
0.0163149
0.0363915
-0.0671421
0.066852
-2.10054e-12
-0.112481
0.119166
0.0328052
0.0637124
0.0163149
-0.000174159
-0.0241647
-0.101081
-0.0165103
0.0144869
0.00963633
-0.0293134
-0.0378412
-0.000111665
0.0369468
0.044611
0.0161932
0.00861797
-0.0175676
-0.0333948
0.00732541
-0.0639933
-3.36366e-06
-4.69433e-09
0.00305966
-0.0255264
0.00976985
-0.0277802
-0.000276956
-0.0146715
0.0342514
1.5316e-322
-0.0668348
-0.0880895
-0.0408886
-0.0478335
-0.0255264
0.0573493
-0.0405624
0.0775095
-1.25199e-07
-0.0011668
0.0497232
0.0157608
-0.0293045
-0.0614858
0.036077
-1.73414e-07
0.0163149
1.0191e-210
0.0170915
-0.0400514
0.0198807
0.0641666
0.0214135
0.0357057
-0.0702223
-0.147859
4.89658e-07
0.308613
0.116355
-0.000127826
6.83512e-06
0.00898191
0.00732541
-4.14574e-05
0.0107272
0.0401602
0.0397905
-0.117537
-0.0734676
-1.9879e-11
-0.0220461
0.0214748
0.000751393
-0.184612
0.0225519
-8.48358e-07
-4.69433e-09
5.56756e-189
-0.154871
-0.107387
0.0617554
0.0468304
-2.22824e-06
-0.111054
-0.0295456
-0.036864
-0.0444928
0.000872125
-0.161851
-0.0397717
-0.089176
0.0167127
-8.48358e-07
-2.67688e-05
3.05088e-253
-0.0240082
0
-0.00418144
-2.38101e-09
0.00802286
0.00254771
-4.70309e-05
-0.0255264
0.000778278
2.64179e-178
-0.0483466
0.00732541
-0.0242798
-6.71561e-13
-0.0386425
0.0520754
2.50213e-06
-2.22824e-06
0.0179581
-0.00102811
-0.0850283
0.0583349
-0.0211211
0.000108968
0.0139722
-0.0123369
-0.0034051
-2.14713e-06
-0.00102811
1.56125e-321
-0.111587
0.0947415
-4.10374e-09
-0.0691101
0.00415268
-0.120677
0.154273
3.05325e-191
0.127477
0.0836313
-4.69433e-09
-5.02849e-05
0.0050348
-0.159038
0.091169
-4.28892e-05
0.0486404
-3.00101e-14
-3.31781e-10
1.40076e-06
-0.0404114
-0.00214131
0
0.0208525
-0.022756
0.233967
0.0107272
-0.067499
0.00843017
4.89658e-07
0
0.000798065
0.0159497
-3.31325e-07
0.163629
0.00802286
0.0139722
0.0722807
0
-0.0135478
3.05088e-253
6.04795e-05
1.93287e-188
-0.0357924
-8.93609e-07
-0.000671063
-3.64195e-12
0.0136774
-2.31316e-08
0.00120347
-0.00917875
0.00412372
0.280682
0.0338708
0.0424931
0.0700683
0.321033
0.0337896
-0.00929173
0.198796
-3.00101e-14
-0.0241647
-0.089176
0.0280885
-0.0270098
0.0157709
0
-4.90625e-06
-0.0265437
-0.0829533
9.52941e-05
-0.0656803
-0.116978
-0.0236575
0.068305
-0.0777046
-0.000148614
0.0568838
0.0332689
-0.0062357
0.00603249
0.14427
0.0236331
-0.000214103
0.0561621
1.0191e-210
0.105622
-0.11025
-6.71561e-13
0.00824126
0
0
0.0107272
0.0459403
0.0278593
0.0460906
0.00258549
0.00175545
-4.42272e-05
0.00211648
-0.157907
0.00186249
-0.000132886
-0.0123989
-0.00494852
0.0458658
0.00161257
-0.00398651
0.00774242
-0.00975028
-0.0453735
0.00335095
-0.0154333
-0.0860504
0.0608128
0.0728705
-0.0197696
0.0114694
0.00126114
-1.36362e-321
-0.0633239
-0.0465607
-0.0275756
-0.00578164
-0.116461
-0.0294587
-0.0451609
-0.061965
0.062284
0.135648
-0.021716
-3.00101e-14
-2.67688e-05
0.000344912
0.0115994
0
-0.00418573
-0.0185549
-0.0756393
-0.0252111
-0.00604106
0.0167969
-0.0510074
-0.345185
-5.20072e-05
-4.65297e-08
0.0268201
0.0495969
0.0386815
0.0553853
0.036077
-0.0712728
-0.0185549
-0.0153113
0.00157945
-0.031577
0.015688
-0.172362
-0.0324202
-0.145939
0.00270312
-0.0633554
0.0150603
-0.173306
-3.72476e-14
0.0271579
-0.0135478
-1.37844e-321
0.031422
-0.0966552
0.11881
-0.0729878
0.0221975
-0.230841
-0.0129122
-0.10758
0.0089672
0.236856
-0.0302135
-0.0678886
0.0197748
-0.0233282
1.21046e-321
0.195805
0.0558957
-0.120413
0.00843035
-0.0931574
0.00732541
-2.54707e-12
-2.0946e-12
0.0100137
-0.0397717
-3.00503e-05
-3.36366e-06
0.0339274
-0.156277
0.0650807
0.015688
0.0211267
-0.0563664
-0.00212344
-0.0517527
0.0274423
0.00603249
0.0403642
0.00350819
-2.71415e-12
-0.0504079
-6.71561e-13
0.011452
-0.0286787
0.052032
-0.00379117
-2.22824e-06
-0.0352908
2.64179e-178
0.0725584
0.00110445
-1.99746e-06
-0.0785321
-0.0183861
0.0475705
-7.28565e-05
0.0234786
-2.89647e-05
0.0448061
0.014094
0.177544
-0.000631517
-0.0759598
-3.31325e-07
-0.0944471
0.0833579
0.0860225
-7.82944e-05
0.00457729
0.0445918
0.0353342
-4.69433e-09
-1.6414e-12
0.000499549
-0.0624561
0.0692685
5.56676e-06
0.00732541
-0.0183726
1.93287e-188
0.00749902
-4.61361e-07
0.0350659
0.0669105
-0.0296828
-0.0179363
-0.0937743
-0.05941
-0.0688614
-0.018151
0.016242
-0.017136
0.0377936
0.0162679
-7.93732e-05
1.93287e-188
-0.023986
0.124413
-0.0247803
-0.0370722
-1.193e-05
-0.00976722
-0.000631517
-0.0374765
-0.0838651
-1.18585e-06
-0.0161068
0.00931808
-6.71561e-13
0.0466642
0.0316972
-3.28272e-06
-0.0806903
0.0151274
0.0163491
-3.31781e-10
0.000101308
-0.0517223
-0.0431999
0.0642685
0.0507347
0.00732541
-0.00102811
-4.10374e-09
0.0427057
0.00116741
0.0352929
-0.0292639
-1.33686e-05
0.125989
0.0263512
0
5.65767e-05
0.0328052
0.0415687
0.14978
-0.0099036
-0.0185549
-5.707e-06
-0.110348
-0.103564
0.00843035
0.206682
-0.23049
-5.94299e-15
0.0590375
0.0984585
-0.0141577
3.50787e-322
-8.2509e-322
-0.0412122
-3.36836e-06
-0.0806196
0.0107272
-0.0816019
-0.00168298
1.62e-180
0.0234786
-0.0226633
-0.0165103
0.00603249
0.0191987
-2.71936e-05
0.0419858
0.0144869
-0.000164417
0.0135526
-2.9001e-07
-0.0405624
0.000336821
0.0997108
0.0515184
0.00732541
0.00193061
-0.0188517
-1.37002e-06
0.0033787
0.015688
0.011745
0.000325529
0.015688
-0.180162
0.109553
-0.00929173
-0.0273002
1.09176e-06
0.0148788
-0.250595
-9.41604e-08
-1.4529e-06
0.0608365
0
1.15611e-321
0.118974
0.0905197
0.00211648
0.0236623
-2.65984e-10
-0.0240082
0.00319618
-0.0804101
5.17361e-05
-0.0867703
0.00042036
9.52941e-05
0.223525
0.0827549
-0.124026
0.00102512
-0.0153564
-0.0341637
0.00126114
0
-0.0880259
-0.000671063
0.0187885
0.126742
-0.0123989
0.0707717
0.0407175
-0.0241781
0.0812122
0.0448061
-0.0408859
-0.0608346
-0.00159695
0.127052
0
-0.00847317
-3.68116e-06
-0.0900295
0.0418839
0.00385504
-0.0286418
-1.25199e-07
-3.87857e-10
-0.000174158
-1.46404e-05
-0.0684331
0.00834422
0.0105666
0.0447342
-5.707e-06
-0.145751
0.000442308
0.142024
-0.114112
-0.060372
0.00867006
6.7687e-322
-0.00102811
0.243589
-6.94667e-05
-0.0228347
-1.6414e-12
0.0308663
-6.6955e-05
0.0136327
-0.113231
-0.00214131
0.0502607
0.0473413
-0.0709148
-0.160652
0.018847
-0.0159827
0.0522696
-1.25201e-07
-0.0161346
-0.0161068
-0.0498744
-0.0121371
-0.0314877
-2.22824e-06
0.0122799
-0.0356773
0.0212299
-0.00434184
-0.0270399
-0.00214131
0.0234786
0.0737603
0.0427242
-0.0236304
0.108026
-0.0062357
-0.0777367
0.135878
0.00843035
0.000680391
0.00038341
-0.0100876
-0.0374473
0.0941525
0.0163149
-3.68116e-06
0.0342514
-0.0217094
-0.00378873
1.26175e-05
0.0124998
-2.90096e-05
-0.000164417
-2.03792e-05
-3.36366e-06
0.115834
0.015688
-0.273468
-0.00333492
0.00151676
0.00126114
-0.0183699
-0.0874936
-0.00298634
-0.0577639
0.0739251
0.0105317
0.127682
5.17361e-05
0.156489
-0.0216599
-3.90786e-09
-0.0294587
-1.54596e-06
0
0.0375757
0.00597418
0.0135103
0.0196615
5.17361e-05
1.0191e-210
-1.65512e-321
0.00126114
0
2.97473e-05
0.0434272
-0.0297369
0.0597817
0.0198375
0.000651153
-0.0309457
-3.1819e-05
-0.114944
1.21046e-321
-0.0388429
0.0163149
0.0748218
-2.24639e-08
-0.0235543
0.00355933
-0.0436209
0.0908851
0.00963633
0.0842429
0.0174856
-7.42915e-07
0.000538247
-0.0424589
-1.49631e-05
-0.182092
-0.0314877
0.0708789
-3.36366e-06
0.000226944
0.0104857
0.0361485
0.00448389
-4.10374e-09
-3.94192e-07
-8.77668e-07
-0.0135478
0.0577071
-0.117285
0.0365946
-0.118523
0.0344463
0.0105169
-0.00873845
0.243343
-0.151617
-0.00588657
0.0610564
0.0146546
0.126246
-1.87393e-06
0.00265668
-0.0846789
-0.0294152
-0.0850699
1.09176e-06
-0.0772315
-0.00742936
-0.00726522
0.00120347
0.0845039
-0.253628
-0.0129122
-0.011688
0.00732541
0.0188037
-0.0100901
0.017399
-0.0508776
0
-1.23022e-321
-0.0498086
5.17361e-05
0.12068
0.00207361
0.0135526
-4.61361e-07
-0.00390077
-0.097873
0.135578
-1.25199e-07
-0.0133211
0.078043
-4.69433e-09
1.0191e-210
-0.0185549
0.0375689
-3.90312e-322
0.0863583
0.0284323
-2.45402e-08
0.170545
0.0357057
0.0148988
0.0904238
0.00294341
-0.1282
-0.0513295
0.119723
-0.0348802
-0.0452162
-0.02166
0.0104857
-0.00434184
-4.69433e-09
0.0642685
0.0920094
-0.108189
5.56756e-189
-0.0097172
-3.72476e-14
0.0118524
1.21046e-321
0.00603249
0.250753
0.0176
0.127347
0.012836
-1.49173e-05
0.00157317
0.0666495
0
-0.0357818
0.0419965
0.0174069
0.0187885
-0.0724966
1.26175e-05
0.0937854
-0.201116
0.0352929
0.0561621
-1.87393e-06
0.0105141
-0.0491549
-0.0350533
0.0286823
0.0207806
0
-0.12268
0.0500601
-4.61361e-07
3.08418e-05
0.0318434
-0.0352176
-0.0264182
0.000375767
0.00116741
0.0429596
-0.00109965
0.150052
-0.0461694
0.00211648
-5.02849e-05
0.0186357
0.0470222
0.000131419
-0.0426346
0.0162101
-0.0296425
-0.0547006
0.0372771
1.5316e-322
-6.94667e-05
0.126142
-0.0465607
-0.0175695
-0.0287261
-0.0912015
1.03199e-06
-0.0148529
0.516573
2.64179e-178
0.00732541
0.00418646
0.0942623
0.0851846
0.00976985
-0.0216599
0.00121121
-0.0903479
-0.0135512
0.00143937
0.0574475
-3.00503e-05
-3.46665e-14
-0.0373383
-0.0465607
-0.0406278
0.00806152
0.0352169
0.165298
-0.117423
0.0163149
-0.0695095
0.00265668
-0.156277
0
-0.0565786
-0.00278625
0.0010897
0.000530767
-0.0110001
-0.00835719
-0.00980031
-0.0176138
0.00780116
0.0401602
1.5316e-322
0.0711676
0
0.0403659
0.0333339
0.0159497
-0.0719444
0.0377718
-2.96067e-05
0.0089672
5.2865e-322
-0.000789925
-4.69433e-09
-0.0303334
-0.0110528
-0.0248716
5.17361e-05
-3.68116e-06
-0.0265483
-0.0179363
-0.0439964
-0.0412612
0.0104857
0.0169402
1.33892e-321
-1.60746e-13
0.00409778
0.0163149
0.15254
0.0142355
0.00107931
0.041716
0
0.0999161
-0.0378782
-0.149828
-0.0468872
-0.000186116
0.0445391
-0.00670191
-0.0678734
-0.0446101
-1.25199e-07
-0.133015
0.0617554
-1.60617e-07
7.11887e-08
0.0446108
-0.0144736
3.05088e-253
0.000259441
-0.0231385
0.0496771
-6.94667e-05
0.0224395
0.0176
0.0598121
-4.78105e-06
-0.00730169
-2.71415e-12
6.83512e-06
-7.22351e-12
0.00324484
-2.13892e-06
0.0335334
-0.0265574
-0.0189441
0.0331144
-0.0369485
-0.000214103
0.0104857
-4.14574e-05
-2.22824e-06
0.0088996
0.0583349
0.0151513
-1.25199e-07
0.0136742
0.040604
0.012976
0.00772391
-0.0265619
-1.36362e-321
-0.0530248
-0.01192
0.0274513
0.000727913
5.17361e-05
-1.25199e-07
-0.078605
0.0342514
-0.191739
-0.00975028
-0.0639867
0.00564854
0.0376765
-0.0238727
0.118366
-0.00204437
0.000367936
-2.24639e-08
-0.00225093
0.122847
0
-0.0842734
-0.202154
0.121376
0.0446081
0.0232584
0.10071
-0.0305829
-0.0183726
0
-0.0106975
-0.0967899
-0.0584854
0.0368486
-3.36366e-06
-0.0869801
0.0638561
-5.42486e-07
-0.0605282
0.0260093
-0.345064
0.0798782
0.0227409
-0.0175713
0.00603249
-0.0200356
0.0187885
-0.0346652
0.0232966
0.00732541
0.000258002
-0.00317041
0.00077083
0.0690079
-0.1305
0.00732541
0.0541279
-0.0484854
-0.0560862
0.017213
0.0089672
1.62e-180
-0.0398068
0.0344411
-0.0201376
0.0235373
-0.0368312
0.017399
0.0512709
-0.0326604
0.00412694
-0.0624561
0.0198129
-6.71561e-13
0.0116187
-0.0252937
-0.0133211
-0.0610489
0.0797041
-0.0486319
0.0519936
-9.43665e-322
0.00931808
0.00016177
-0.245801
-0.0529472
-3.00503e-05
-0.0122184
-0.00450569
-0.0683416
0.0202189
-2.24639e-08
-0.0291159
-0.0133442
-0.00758185
0.0151513
0.0480765
0.00040971
-9.44805e-05
-0.0227619
-0.131834
-0.0248196
0.03065
0.00258549
0
0.0151543
-2.02681e-10
-0.0451639
0.00448389
-0.00297383
0.00528525
0.0854508
0.0157709
-0.0313508
-0.0135478
0.0035783
-0.00298634
0.000500422
-9.8816e-05
-1.25199e-07
-9.8816e-05
0.11989
0
0.0270369
0.086752
0.0377718
-0.102765
1.49702e-321
0
-0.104889
0.00732541
0.0220372
1.35868e-321
-0.0575977
0.000375767
0.0157709
0.0176
0.00570394
-8.48358e-07
0.0292708
-1.68229e-320
-2.20283e-06
-0.0108549
-0.0259063
0.0602309
-0.0235543
1.31488e-06
-0.0279629
-3.02563e-05
-1.33903e-06
-0.156002
-0.0888935
6.07701e-322
-0.0889169
-0.115038
-0.000843894
0.14008
0.000125528
-0.034483
0.0116726
-0.000148614
0.0323231
-0.0400317
-0.0444912
0.0218639
0.0867292
-0.0826385
-6.60415e-06
-7.29414e-05
-0.0613819
0.0399906
0.00732541
0.2192
0.00272688
-5.47796e-05
0.00200922
-0.0487098
0.0378437
-0.0192087
-0.226153
0.0561621
-0.0528523
0
-0.0999266
0.0166375
9.96091e-05
-0.130131
-0.013862
-0.0029546
-4.69433e-09
0.00110445
-0.00591461
-0.0143478
0.00174974
3.66571e-08
-0.0720512
-3.68117e-06
-2.67688e-05
-1.25199e-07
0.0729686
2.08496e-321
-0.02234
-0.0243152
0.235281
0.0611449
-0.0271084
0.392542
0.0496783
-3.15907e-09
3.05088e-253
-0.0361737
-0.00356379
-0.0133211
-0.0510919
-5.02849e-05
0
1.93287e-188
0.0426889
0.0201349
0.00100314
-0.000200471
0.00848198
0.131087
0.111291
-9.29722e-06
0.00732541
0
0.00120347
-0.0303334
-0.0508776
0.011745
2.43574e-321
0.0187379
5.7417e-05
-4.42272e-05
-2.35571e-06
-0.0529472
0.0465283
-4.61361e-07
0.055823
-0.0451609
-0.00613275
-8.77668e-07
-0.124143
-4.69433e-09
0.0202189
-0.00975028
-1.89731e-09
-0.00450569
-7.22351e-12
0.0100137
0.0459021
-0.0740706
0.0906759
-0.0670684
-0.048703
-0.05816
-7.22351e-12
0.00415868
-0.279271
-2.19698e-11
0.0887549
0.104618
0.0176992
-3.64195e-12
-0.0716778
-0.0514528
0.00493561
0.0760136
0.0155212
-0.0716536
0
0.168443
0
0
-0.0158563
0.0155731
0.017399
0.000165703
-0.139756
0.107013
-0.0413564
0.0515184
-3.72476e-14
0.00963633
0.189006
-4.24906e-10
-0.0119184
-0.179653
0.0775095
0
0.0139722
-7.82944e-05
0.114734
-0.000175007
0
-0.0601964
-0.0699885
0.162143
-0.110397
0.0561621
-2.70912e-05
-0.0777046
-0.0505555
-0.0135538
-2.22824e-06
-0.0165103
-0.0159819
-3.96185e-07
-0.0203615
-3.68116e-06
0.176567
0.0140601
0.0139695
-0.0399628
-2.31316e-08
0.0207806
-3.36366e-06
-0.00028581
-0.0263427
-0.120413
0.00265668
0.0313188
0.0376765
-2.9001e-07
0.00070916
-2.71415e-12
-0.0501091
-0.0374473
-0.050326
0.0219849
-0.0496265
0.093618
-0.0153564
0.00258549
-0.0375894
-4.43422e-05
-7.31904e-08
0.0248604
-0.000147587
0.0966286
0.0166983
-0.028655
-0.0419085
-0.0800684
0.00603249
1.79728e-07
-2.54707e-12
-1.25199e-07
-1.52409e-05
0.00802286
0.000168499
0.0413049
0.078043
-0.0133211
0.0688162
0.0990512
-0.0146715
-0.00930321
-0.0626055
0.091169
0.00101637
-0.102434
0.0445918
2.03555e-321
-0.0112928
-8.87245e-05
-0.166383
0.0176
0.15795
0.0585764
-0.0204247
0.0763218
-8.48358e-07
-0.0561972
0.0054316
0.0289955
-3.64195e-12
0.0345382
0.0213231
0.0139722
0.0496783
0.0408129
-8.79437e-322
-3.82981e-05
-0.0223725
0.0873025
-0.0797643
0.0163149
-0.0239806
0.0376765
-0.0611593
-0.0448035
0.019271
-0.0200356
-7.22351e-12
0.00016537
-0.0309457
3.05088e-253
-9.44217e-07
-5.64676e-16
0.0974584
0
-0.173331
-1.15204e-05
-0.0185549
-0.0353072
-6.71561e-13
0.107245
-0.00533953
6.04795e-05
0
0.0202189
-2.57937e-06
0.0712007
-0.0360046
0.017399
-0.00975028
0.0417457
3.05088e-253
-0.129354
-3.96185e-07
0.0561639
-0.0563664
-3.69546e-08
0.00193061
0.0198624
-0.0452004
-2.57937e-06
0.040369
-0.000226726
0.0502433
0.0182673
0.00020894
0.0105153
-0.141117
0.0103548
-0.000671063
-0.048741
-0.0142365
-0.00489304
-0.00102811
0.132227
-0.0575977
-6.69551e-05
-0.138161
-4.69433e-09
0.017399
-0.0642498
0.0462377
0
0.0214131
-0.114225
0.0100137
0.0540341
-0.0324452
0.000176286
-3.32839e-06
0.101493
0.0200978
-7.82944e-05
-0.0165103
0.18072
-0.0957958
-0.0605804
0
-0.101672
0.0104051
0.0662842
-0.0594391
-4.92833e-11
2.64179e-178
0.0551695
0.0153611
0.0112011
3.05088e-253
-0.0647193
0.0107138
-0.0724881
0.0175216
0.0353792
0.000849068
-0.0255835
0.0471522
1.28457e-321
0.0139722
0.071068
0.0103397
0.0545573
0.00094158
0.0354122
0.0111916
-8.94259e-322
-2.35571e-06
0.0214135
-0.0334261
-0.0624749
2.64179e-178
-2.71415e-12
-7.22351e-12
-1.12429e-11
-0.0146715
0.0172489
0.0222797
-5.50924e-06
0.0214437
2.50213e-06
-0.0788958
-0.000132886
0.0807447
0.0376765
-0.135877
0
0.00296946
-0.0213183
0.113145
2.64179e-178
0.00381624
0.0035783
-0.0296828
-0.18362
-0.0422904
0.173455
-0.000237526
-0.105069
0.108508
-1.9879e-11
-0.0128655
0.00164751
-0.00679009
0.0192981
0.0154943
-0.0680269
0.078043
-0.0701014
-1.60617e-07
-0.0759849
0.0649968
-0.0627071
0.0653626
0.00120347
0.0537952
0.340172
-0.0406922
0.0437257
0.078043
-0.108154
1.0191e-210
0.0234786
1.02894e-186
-0.0622264
-4.42272e-05
-0.0123989
0.01662
-0.000140703
0.015688
-0.000150951
0
-0.0691101
-0.0408859
0.0614327
0.036077
0.00258549
5.78963e-05
0.0340153
-0.000174158
-0.0279364
-0.0738281
0.00964117
0.0214748
-0.059768
0
0.00619819
0.0385459
-0.022595
-0.0016863
0.0686083
0.000295663
0.00995064
-0.103853
0.0617554
0.158784
0.000295663
-0.0299024
0.0220485
0.0153947
0.0384937
-0.0623091
-6.71561e-13
-0.0786175
-0.300536
0.0080057
0.0350806
0.0136224
0.054408
-0.0237653
0.015688
0.0176
0.00413081
0.0353342
0.0655261
0
0.0722807
-1.36362e-321
0.0344587
-0.0468648
-1.14683e-10
0.000172803
0.0047145
0.0214748
-6.6955e-05
-0.0612456
0.0100023
0.0257109
-1.61108e-09
0
-0.028694
-0.0419399
0.00229684
-0.0496808
0.00305966
0.00011684
-0.13729
0.0517731
-0.10073
-0.0296828
0.00239214
-0.0451609
-1.54596e-06
0.0175974
-0.0487374
0.000228212
0.038909
0.128566
-0.00782167
-0.17199
9.52941e-05
-2.03792e-05
0.0339069
0.0214748
-0.0529154
0.0605179
0.0861115
-0.000214103
0.12945
0.000131419
0.0109568
0.000367936
1.21046e-321
2.85042e-06
0
0.0342429
0.00193061
0.0316937
5.56756e-189
-0.0716055
0.00226623
0.267892
-9.41604e-08
-1.25199e-07
0
0.00976985
-1.93837e-05
-2.9001e-07
-0.0340744
-0.00601435
-0.0184233
0.0447342
0.00305966
-8.77668e-07
0.00394503
-8.49793e-322
-1.6414e-12
-4.05134e-322
-4.66088e-06
0.00732541
-0.0316929
-0.0440506
0.153154
-0.0443123
0.125662
0.20781
0.00145723
0.0476267
0.000168499
-1.67529e-08
0.0519702
-0.0213183
-9.09081e-322
-0.134416
-0.0205149
1.58337e-05
0.00236834
0.0257109
-3.36366e-06
0.0903628
-0.000119619
6.4306e-09
0.0459621
-4.78105e-06
0.0989619
0.0110322
-1.84765e-11
-0.0670073
0.020107
-0.0195173
-3.36366e-06
-3.72476e-14
-9.1269e-06
-0.00670191
-4.61361e-07
0.015688
0.254132
-0.0236867
2.26214e-38
1.62e-180
-2.90178e-06
-8.48358e-07
-0.0561972
-0.00653867
0.0674462
0.0513658
0.000148052
0.015688
-0.0064554
-1.87277e-05
-0.0225576
-0.000671063
-0.102015
0.00211648
-0.0161068
-0.0159747
0.0756502
0.0235805
0.0401263
0
0.0406175
0.00668571
-0.0240082
-0.0410585
0.00258549
9.52941e-05
0.177924
-0.0019588
0.116226
-0.00578211
1.26175e-05
-0.0237541
0.0070534
0.00238517
-0.00237067
-0.036716
0.0148988
-0.0933
0.0212299
0.00732541
0.00687313
-0.0267525
0.0879396
0.0326852
0.0344463
0.211236
0.0480765
0.0104857
-0.00908757
-6.94667e-05
6.04795e-05
-0.0947945
-0.0148529
0.0170002
-0.0871976
0.000131419
0.0871587
-0.016437
0.0960205
0.0016689
0.251751
0.0486527
0.096586
6.04795e-05
0.00834422
0.017399
-2.96067e-05
0.0847865
-0.00847317
0.0352929
0.0456483
-0.0715177
0.128396
-0.0354599
0.00493561
0.0470305
-0.0286787
-0.0644611
0.0253394
-0.00434184
0
0.0174069
0.0936123
0.000119933
4.07784e-05
-0.0197872
-0.317384
-0.0802944
0.0590375
0.000240858
-1.5134e-12
-0.0695718
-1.35538e-05
0.073614
-0.00212344
0.0832755
1.03045e-191
0.204193
0.0428967
-1.61332e-05
0.0419985
-6.62855e-13
0.0811001
0.0105141
-0.0780096
0.0820357
1.03922e-06
0.0170997
0.00104326
0.0423593
-0.000671063
0.102588
0.084311
-0.110306
0.0351053
0.029537
-4.22136e-05
0.015688
0.0152292
-0.0612456
0.00193061
0.000478114
0.03443
0.00732541
-0.0159145
0.00121263
-2.19853e-06
-1.67529e-08
0.029126
-0.0777911
-4.70309e-05
0.0136224
-0.0146715
-0.0397717
-0.0501031
-0.000212132
-0.0276967
-0.0177051
-1.38048e-10
-0.0496265
0.0393926
-0.0229528
0
0.00226782
1.79728e-07
0.0444181
0.103862
-2.18682e-19
-0.0930528
0.108285
-0.0119184
-0.059447
-0.00824779
0
-1.14362e-05
0.139865
-0.0175234
0.0424466
-0.108417
-6.94667e-05
1.74144e-32
0
0.000344912
2.64179e-178
0.002355
0.0559841
-6.94667e-05
0.0218944
0.0230517
0.0441314
0.0406907
-3.04972e-06
-0.0328489
0.0135145
-2.79065e-06
-0.000214103
-0.0143546
-0.252973
-6.42447e-05
0.0911695
-0.0236868
0.000499549
0.0240688
-0.0745955
0.00399375
0.0155731
-2.54707e-12
0.015688
-0.0280344
-0.114113
0
0.000143222
-5.47796e-05
0.0384937
-0.0241647
0.0107272
-0.000226726
0.0335311
-0.0444665
-9.9173e-06
-4.69433e-09
-5.64676e-16
0.0811001
-1.92078e-06
-0.0118837
0.0218278
0.0149942
0.078043
0.0193139
-8.48358e-07
0.0974915
-7.22351e-12
0.0596411
5.56756e-189
-0.0184475
0.13494
0.0480183
3.05088e-253
-0.000212363
-9.44805e-05
0
-0.0295945
-5.3877e-05
0.0833492
0.00603249
-0.0249484
-0.0215758
-3.32839e-06
-0.00194511
0.035447
0.0116121
0.0202189
-2.96067e-05
0.0605979
-0.0309457
0.0358461
-0.0188237
0.036556
-5.60257e-07
-0.0490177
0.00120347
0
-0.0550677
-0.089176
-0.0601993
0.0551382
0.00115573
-0.000151258
-0.097053
0.0170074
0.0627195
-0.0614802
0.00120347
0.00107734
-0.0140605
0.0132074
0.00120347
0.000499549
-1.19092e-10
-0.0902383
-0.0572083
-0.000212271
0.00251632
-0.00194305
-1.2758e-07
0.0136875
-2.22824e-06
-0.0360982
0.00388303
0.149592
-0.0285745
-0.0740292
1.33892e-321
-0.339634
0.027702
-0.00447486
0.0688976
-0.00272422
-0.0727267
-0.045034
-0.0678734
9.33784e-322
0.00211647
9.52941e-05
5.17361e-05
0.0119043
-2.9001e-07
-2.96067e-05
-0.081381
-1.23411e-13
-0.194387
0
-4.03298e-05
-2.67688e-05
-0.014699
0.00732541
5.56676e-06
-0.0611578
0.0582108
-0.0400921
0.0176861
-1.25202e-07
-0.0523274
0.0326068
-0.0424367
0.0268112
0.00108925
-0.104049
-1.60624e-07
0.00834422
0.00528863
0.0904238
0.015688
0.0313162
0.0823124
-0.0200356
0.00488229
0.158316
0.00157317
0.015688
0.00113676
-2.96067e-05
0.0372771
-0.0209544
0.0263512
1.0191e-210
0.046551
0.0214135
0.0790813
-4.2876e-07
1.21046e-321
-0.0241647
0.0187885
-0.0249417
0.0195773
0.0332594
0.172242
-0.02906
0.0157133
-0.078557
0.120513
-0.00102811
-0.027052
-0.089176
-2.004e-08
0.0265482
0.329287
0.0128912
-0.0135478
-0.0678015
0
0.019272
-0.0205489
0.0531583
-0.00747259
0.0687102
0.0424564
-0.0693816
0.00121121
0.0219825
0.0118684
-0.00168577
0
0.0364268
-0.0586764
0.0370876
0.0310187
0.00732541
-5.3296e-05
-0.0857035
0.0389847
-4.89125e-322
-0.0185549
0.0012335
-0.0447223
0.03374
-4.6006e-07
-0.186332
0.0498374
0.390892
0
0.0212299
0.00038341
0.0566497
-7.29414e-05
2.64179e-178
-0.032416
-0.0104373
-0.070253
0.0690079
0.0426335
-0.0187582
0.030558
-0.205099
0.0546512
-0.0383856
0.0190838
-0.000117801
2.64179e-178
0.17089
-0.0133211
-2.9001e-07
-0.0503172
-7.82944e-05
-0.0702468
1.0191e-210
-0.000226726
-0.0201645
-7.93732e-05
0.0120146
2.69351e-06
0
0.0139722
-0.0925749
0.017399
-3.36366e-06
0
-1.71566e-05
-2.9001e-07
0.0785106
0.00197366
-9.41604e-08
-0.164434
0.0405052
0.0387745
0.0413584
-8.48358e-07
0.0793871
-0.097873
0.015688
-0.221662
-4.71596e-07
-4.37684e-06
0.0317091
-0.00379117
3.05088e-253
0.0104857
-0.0391751
0.00620434
-9.44805e-05
-0.193224
9.12939e-05
-1.25199e-07
-6.50066e-06
-4.61361e-07
0.0648539
-6.62855e-13
0.0590375
-0.0278456
0.0217464
-0.00588657
0.0219849
-1.89731e-09
-0.0633966
-0.0502284
3.50787e-322
0.0460049
-0.0589748
2.43574e-321
0.0158712
-3.36366e-06
0.000961077
0.00714536
0.047461
-0.100623
3.05088e-253
0.0187342
-0.101081
-0.0177804
-0.0177051
-0.110306
-2.31316e-08
0.124707
-1.36329e-10
-0.00161647
0.0140064
-0.0578995
0.112792
-0.02166
0.00732541
0.0842745
0.000849068
-0.0303334
0.0805637
-2.57939e-06
0.0903568
0.0157709
0.0547055
0.124413
-0.00988155
0.0111183
-0.0118837
-1.77183e-05
0.173149
-0.0399628
0.00128639
0.148253
-0.00212344
0.00732541
0.0631554
-0.0184801
0.0113412
0.0427057
0.00142037
-0.0234791
-0.0744106
0.000247746
-1.68229e-320
0.240402
0.0214748
0
0.0138256
0.0187379
-0.00847317
-2.6156e-09
-0.0506812
-0.0333808
0.0424931
-0.0372872
-0.0467927
0.0163074
-6.65241e-09
-0.0293134
-0.0962144
-0.0368766
-0.0108549
0.0353395
0.00121121
0.00732541
0.00040971
-5.23332e-05
0.0187885
-0.0926008
-0.00975028
-0.0499628
0.0305633
4.51319e-05
-0.026503
0.0163149
-0.0259501
0.014805
0.00843035
0.635995
0.00211648
-0.0118837
-6.62855e-13
0.0236088
-1.60617e-07
0.096104
0.109834
-0.000138829
-0.00851299
-0.0777977
5.56756e-189
-0.130619
-0.0200356
0.0775512
9.12573e-05
-0.0280291
-0.145717
-1.99104e-05
-0.0325605
-0.036864
-1.54596e-06
0.103447
0.015688
1.33892e-321
0.0501434
0.0140601
-2.57937e-06
-0.0271721
-0.00342582
0.0194159
0.202086
0.019272
-0.0346136
-4.71596e-07
0.0458658
-0.0237365
-0.0448035
0.0219803
-1.4529e-06
-0.0259063
-2.9001e-07
0.0136
0.179038
0.00124562
-1.54596e-06
-0.0743988
-3.00101e-14
-1.71566e-05
-0.0334296
-0.0179154
1.10485e-06
-2.9001e-07
-0.0195
0.00110445
0.00732541
-2.57937e-06
-4.78105e-06
0.0162089
2.5255e-05
0.0928174
0.142501
0
-0.101081
-1.83802e-07
-7.82944e-05
5.39668e-05
-3.36366e-06
-0.056821
0.00120347
-0.000472438
-0.0678015
-0.00563001
-0.0223126
0.0497232
-0.0470657
5.17361e-05
0.060795
-4.78105e-06
0.00732541
-0.0855207
0.0318541
0.0559841
-0.0848845
0.00016177
0.0927038
0.00654761
0
0.00620434
0.116878
-0.0105129
-0.0260824
-0.0384248
0.0594464
-0.0108549
0.0214452
-0.000138829
0.000778278
0.111106
-0.0213487
-0.0506863
-0.000204071
-0.017136
0.00570594
-0.186775
0.0836313
0.0135526
-0.0713148
-0.0504079
0.0335334
0.0651307
0.116623
0.0163074
0.0135526
-0.00496909
0.0163149
0.00732541
0.019272
-3.68116e-06
0
-0.0376905
-0.0407826
-4.61363e-07
0.00732541
-0.014395
0.0123293
-0.142285
-0.0652985
-3.94192e-07
0.212747
-1.6397e-05
0.173783
0.0407802
-0.249927
-0.0210016
-0.089176
-0.000147587
0.015688
-0.00767259
0.00834422
0.0329318
-0.0123369
0.00479414
-0.022595
-0.0267257
0.00165227
-0.0289361
0.00732541
-0.000214103
-0.183545
-0.00588657
0.000601633
-0.0177859
-2.49595e-07
0.0163149
0.0163149
-0.000671063
0.036128
-0.0172147
0.0560912
-0.129612
0.000367936
0.0209488
0.00732541
0.0460055
-0.390678
0.0760687
-0.0286418
-0.151146
0.0463069
-5.25106e-05
-0.0165103
-0.0495442
5.56756e-189
0.0530967
0.438872
0.00200205
-1.54596e-06
0.0117772
-0.00998333
0.120961
-1.60746e-13
-0.0969174
0.0136224
0.154344
-0.00713508
0.0124187
1.21046e-321
-0.085624
-0.00434184
2.64179e-178
-0.0605804
0.0204156
1.73942e-05
0.00249031
0.11476
0.000240858
0.042857
0.0352129
0.00120347
0.0224395
0.00120347
0.0268467
0.0574681
0.0174394
0.0441308
-4.62254e-05
0.0173802
0.0159624
0.0772533
0.0189137
-0.0062357
-0.0359202
-0.0147448
-0.396682
7.84341e-05
-0.0425108
-0.0395894
-0.0466936
-0.00212344
0.00963633
0.00312156
-0.043737
-1.38048e-10
-0.000129263
0.0599641
-0.0183861
-0.022746
0.0248604
-0.0259501
0.0397905
-7.75683e-322
-0.00267092
0.00171463
6.83512e-06
-4.70309e-05
0
-0.0294325
-0.0465607
-0.0320111
0.0169557
5.56756e-189
-1.252e-07
-0.0211779
-3.94192e-07
-3.60708e-07
-0.00681991
-0.0740702
0.0744891
-4.65297e-08
-0.0185968
0.0533164
0.250278
-7.82944e-05
-3.31781e-10
-0.0267257
-0.0118628
-1.279e-05
0.0224395
0.0170002
0.0523795
0.146413
-6.84927e-05
-0.036831
-0.097053
-3.32839e-06
-2.54707e-12
0.00102512
0.0146546
-0.0123369
0.113051
0.0386412
-0.00789048
-0.00336338
-5.707e-06
0.129686
-0.0543609
0.0388165
1.00536e-05
0.0607611
-0.000138829
0.000108968
0.0234786
1.33892e-321
4.89658e-07
-3.15907e-09
0.0106255
0.0597817
0.015127
3.05088e-253
0.0124998
0
-0.000671063
-0.0314877
0.00646289
-0.0416347
-0.126085
0.0295373
-0.0828199
0
-1.36329e-10
-0.0143546
-0.0212033
-4.6006e-07
-0.0270882
0.0377718
0.0314435
-0.0239806
-0.0351765
0.00040971
-0.00317041
-0.0165043
0.261944
-0.0143131
0.00110445
-0.0408859
-0.0253049
-7.22351e-12
-2.42606e-05
-0.0561232
0.0759917
0.0187885
1.21046e-321
-0.0258655
-0.0520362
-0.117552
9.77349e-05
-5.47796e-05
-0.103442
-1.5522e-07
1.0191e-210
0
0
-0.00413503
0.142024
-8.37565e-06
0.0553853
0.00774242
0.000555933
0.00376353
0.000555933
-0.0480322
0.035447
-0.0572098
-0.00291042
-0.00194511
-0.0629959
-0.0223104
-0.132864
0.0174507
-0.0827535
0.0357811
0.00988215
-1.37002e-06
-0.142458
0.104564
-0.0563664
0.0136224
0.0872081
0.00216821
-0.110306
-2.96067e-05
0.014421
0.208061
0.00082696
-0.0544084
0.0615088
0.0451377
0.0193882
-0.000214103
-3.87857e-10
0.201427
-0.0456361
-1.37002e-06
-2.18682e-19
-6.6955e-05
-0.0644721
0.0816464
-5.47964e-05
-7.22641e-05
0.0133588
-0.0528291
-0.000217024
-0.0185549
0.0671853
-0.0234791
0
1.40076e-06
-0.152781
-4.16419e-09
0.0792815
0.0219849
0.018115
0.0116501
0.0100137
0.000530767
-0.000226726
-0.100234
-0.00638697
-0.0232666
0.0605179
-0.0821556
-0.0213671
0.0352599
1.5316e-322
0.096586
0.000478114
-3.36366e-06
0.0870545
0.110248
-0.0444928
0.0276518
-2.5008e-06
0.0775632
-0.0854384
0.0197343
-3.12887e-06
-5.64676e-16
-0.104209
2.64179e-178
-1.25199e-07
0.0557062
-1.6414e-12
0.000344912
-0.0823901
0.0884003
0.00038341
-0.0504079
0.0110634
0.00143277
0.0107389
-0.00414401
0.00102512
0.148636
0.0927038
-0.188887
-0.0297235
-6.62855e-13
0.00732541
0.0110322
0.0269664
-4.24906e-10
-5.02849e-05
-0.0198415
0.00121121
-0.556533
0.0045744
0.10052
-0.0449963
0.0122523
0.0265028
-2.0946e-12
0.154244
-0.0126102
-0.0213487
-3.68152e-06
0.0810981
-4.40162e-05
-2.68617e-05
0.00213873
-1.31094e-05
-0.00707279
-0.00591295
0.0163149
-0.038731
-0.00975028
0.0214748
0.0206453
0.00142037
1.02903e-07
0.0151546
-0.0463026
-0.0598782
0.0593881
-0.00742121
0.00227432
0.00018566
0.0107489
-0.0679789
0.000207402
0.00732541
-0.0352176
0.000604316
0.199588
0.113285
0.00094158
-0.00670191
-6.71561e-13
0
0
-0.0800269
0.0612106
-0.100623
1.0191e-210
1.41303e-321
0.0175636
-0.00975028
0.000342383
0.0990437
0.000325529
0.0344463
-0.0424589
-0.127672
-0.0632314
0.0397905
-8.48358e-07
-5.02849e-05
-0.0426414
-0.0661671
0.0296325
0.0328052
-0.00212344
-5.3877e-05
-0.000206157
-0.000412848
0.0965806
0.000555933
-3.15907e-09
0.00335095
0.143163
0.000872125
-0.0296828
0.0121183
0.031096
0.114133
0.0334597
-1.87393e-06
0.230593
0.0385459
-0.0701014
-9.44805e-05
-0.00929173
0.000295663
-0.0324558
-0.0453735
0.00550415
7.27625e-39
0.0104051
0.0104857
-3.90786e-09
-0.0192087
0.0424466
-0.000214123
0.0241104
7.15946e-06
-0.0497754
0.00211648
-8.77668e-07
-0.00417865
0.0602309
0.000101308
0.00297321
-0.0650394
0.000159201
-1.77183e-05
-0.339316
-1.4529e-06
-0.0487374
0.0151957
0.070874
0.0709523
-4.03298e-05
-0.086973
0.0163148
0.0848135
0.0262661
0.10111
-0.0264182
0.0980077
-0.0405624
0.0208525
0.000131419
-0.0122253
-0.0231385
0.19283
0.0567663
-1.87671e-09
0.0738008
0.0212242
-0.160874
0.0445918
-0.0929994
0.0135526
0.0328052
-0.0200356
-0.0129797
0.019272
-0.000214103
0.00211647
3.05088e-253
0.00071031
-0.0196832
0.0830523
-0.00298634
-3.87857e-10
-9.43665e-322
-2.004e-08
-4.61361e-07
0.0262999
0.0203918
0.0156439
0.0234786
-0.0424892
5.17361e-05
0.0317515
0.074856
-0.00410424
0.0648616
0.0745695
0.00843035
-3.36366e-06
-0.0709336
0.00131226
-0.0441303
0.00732541
-0.0654517
-4.03298e-05
-0.0197872
0.0435749
-0.0375894
-0.114728
-0.00272422
0.0899426
-2.71415e-12
0.0135103
-0.00929173
-1.65512e-321
-0.125535
-1.87393e-06
-0.10313
-7.82944e-05
-0.082397
0.00199304
-0.0493586
-1.36329e-10
0.055454
-2.35571e-06
0.0224395
0.0813179
0.0163149
-0.0880895
-0.0336803
-0.0913919
0.115085
-0.027898
1.58337e-05
0.0163762
0.280271
0.0848135
-1.61108e-09
-0.00926863
-4.69433e-09
2.85042e-06
0.0995509
-0.0175676
-0.0472562
0.00734662
-0.000276555
0.0701844
0.0335311
0.00570594
-1.31421e-321
0.0146513
-3.00882e-06
-0.00634322
0.0113412
-0.0312969
0.00330512
3.05088e-253
-2.04056e-05
0.0251574
-0.0185549
-0.0373303
0.0187379
0.233027
0.0135103
0.167469
3.05088e-253
0.049094
0.115994
-0.0750423
2.64179e-178
0.0480765
0.0971934
-0.0406976
-0.0480322
2.44991e-180
-0.0105963
0.0357561
0.00732541
-8.66473e-08
8.42515e-05
-0.0286787
2.71566e-06
-4.69433e-09
-0.0123369
0.0313188
0.000827711
0.184214
-0.0713899
-5.60257e-07
-4.61361e-07
0.000295663
-0.0684889
-0.0278023
0
-3.21554e-12
-3.72476e-14
-6.04397e-06
1.03045e-191
0.154244
-0.0839709
-2.57937e-06
-0.0926008
-0.0076104
0.00120347
-8.93609e-07
0.00120347
0.015688
0.0033787
0.212607
-0.00584398
0.00603249
-0.0308898
0.0219972
-0.0446373
-0.024086
-0.00826173
-0.000117801
-0.0371727
-3.46665e-14
0.0690079
0.100501
-0.0297369
2.64179e-178
-0.00926477
-3.87857e-10
5.56756e-189
0.0320586
-0.0128479
3.05088e-253
-2.90096e-05
-6.44314e-08
-0.0691101
-1.61972e-09
-0.0167777
0.0268112
0.00016177
0.0649743
-0.0317917
-0.00758185
0.0234786
1.5316e-322
2.43574e-321
-3.72476e-14
0.0190047
0.000488603
0.0962508
0.0313221
-2.17525e-05
-0.0434585
2.64179e-178
2.64179e-178
-8.08525e-05
-0.0241751
0.0617554
0.0604474
-3.36366e-06
-8.40649e-05
-0.0293045
0.00258549
0.0257109
-2.49595e-07
0.00082696
-0.0135478
-7.97163e-11
-0.0135478
-0.000148614
-0.0998077
0.256295
-0.0253049
-2.96067e-05
0.0163149
-0.0291159
0.0899579
0.0511246
0.0146546
-2.68748e-05
-0.0278075
-6.04783e-13
-0.133443
-7.29414e-05
0.000478114
-1.60617e-07
0.00846265
5.2865e-322
-7.93732e-05
0.167439
0.0576846
-2.57937e-06
-1.87393e-06
0.0465851
-0.0478222
0.000222095
2.03555e-321
0.00031829
-0.0258237
0.0104857
0.0200493
0.0155731
0.0155209
-2.68616e-08
0.0339274
0.0187885
2.08496e-321
0.134206
0
-1.5134e-12
0.0279922
0.0407112
0.00924179
-0.0133348
0.0617554
-3.8855e-06
-0.368231
-0.00014856
0.0105281
3.05088e-253
0
-3.21554e-12
0.0335271
-1.73221e-05
0.0762132
0.0352929
-1.25199e-07
-4.13768e-05
0.00732541
-0.000631517
-0.0240221
0
-4.69433e-09
0.00760035
-0.0588667
1.56045e-09
-0.0678734
3.05088e-253
7.87429e-06
-0.0228039
-0.000113643
-0.0629026
-0.0200746
0.00120347
4.83045e-06
0.0203452
1.1404e-06
-0.306134
0.00976985
0.00448389
-0.056461
-0.0085423
0.0263512
0.0123293
0.00732541
0.00120839
0.027377
0.00120347
0.000165703
0.0397986
0
0.0631601
0.00723075
0.00203997
0.0139722
-0.023101
8.04167e-09
0.00296946
-0.000112937
0.0942623
0.0328052
-4.69433e-09
3.05088e-253
-0.0161068
0.00327034
-0.224017
0.0214748
0.011745
0.0559841
-0.00766271
0.015688
-0.0679789
0.0151546
-0.0161068
-0.000281674
-8.5152e-07
0.0949214
-0.0389977
-0.00031835
0
-0.000671063
-0.0183726
5.56756e-189
-0.0233188
0.00227432
-3.36366e-06
0.200503
-6.71561e-13
-4.92035e-08
0.015688
-0.0555259
0.036702
-0.000227097
0.0690079
-0.0243152
3.50787e-322
-0.000112937
-0.0369551
0.0337304
0.073243
-0.103113
0.0548881
0.019272
-0.0122253
0.0302871
0.276544
0.0234786
-0.0784197
-8.48358e-07
-2.67688e-05
-1.19092e-10
-0.0275715
0.015688
-0.05877
0.00249473
0.0240526
0.119047
2.64179e-178
-2.71415e-12
-0.0510074
-0.032468
0.0179389
0.0445291
-1.21208e-05
-0.0610417
0.0357057
-5.02849e-05
0.076055
-0.160192
-0.0341115
-0.044898
-0.0374931
0.0460049
-0.0146715
-0.0148108
0.0783594
0.0336732
-0.0135478
-0.0233544
0.0223973
-0.0196714
0.000448301
-3.60708e-07
-0.0021245
-0.156888
0.0494752
0.0271791
0.189747
-0.0314877
-0.0794446
-1.87277e-05
-0.0698342
-0.0494501
0.146532
0.00020894
-1.279e-05
-0.0569096
-0.0292085
-0.00754069
0.00226782
-0.0279721
3.05088e-253
-0.0382322
-5.64676e-16
0.0301046
-2.45402e-08
1.21046e-321
-0.00602543
0
