8.25709e-38
-0.0338231
1.99003e-36
-0.00269884
-0.0288459
0.00388276
0.0265907
0.0532821
0.185867
0.0265907
-0.00430567
-1.94662e-321
-0.0733353
0
-0.0255714
0.00821888
-0.0451059
3.90587e-25
0.0403168
-0.0408514
-2.19099e-34
0.101462
0.127323
-0.00897707
3.77517e-27
-0.0255714
-0.00322028
-0.0240685
-4.18758e-42
-0.0570604
0.0314046
0.100361
0.043203
-0.0153293
-6.17507e-39
0.0638248
0.0228432
0.0361
1.07843e-30
0
0.00523683
-0.00265081
0.000620646
1.61433e-28
0.0016825
0.0533582
0.00527292
0.0756928
0.00491234
1.13973e-37
1.64989e-25
0
0.0156311
0.00586551
1.42291e-321
0.0139958
-0.00817732
1.39651e-111
2.03338e-113
-0.00103905
-2.02035e-39
-4.54078e-42
-1.25493e-321
0.11455
1.40016e-257
0.0380845
-0.0684163
-1.96263e-29
0.072013
0.155216
-0.0596701
0.0145752
0.00535037
-0.0010709
-0.278976
0.0622231
-0.157668
0
0.000551526
0.125992
0.0305024
0.00934252
0.00915006
0.0543151
-0.0591354
-0.48522
0.157651
0.0256171
0.0384119
0.0380845
-0.0465091
0.0673756
-0.448045
0.0351499
-0.228295
0.000805243
0.0507801
0.0459356
-1.63375e-30
0.00425292
0.0156311
-2.02035e-39
1.35112e-39
0.0537669
1.98727e-56
1.62418e-28
-0.0850654
-0.0123382
0.064363
0.0485098
-0.0604543
7.36158e-322
-0.0209451
-3.7871e-33
3.26751e-306
-0.0245597
2.12281e-30
-0.0063216
-0.136974
0.0993718
0.102792
1.52747e-25
0.211459
-0.309468
0
-9.66929e-32
0.0082001
-0.0712264
0.0544256
-8.46295e-35
0
-0.0322712
-0.065949
0.0415317
-5.63429e-30
-0.0580625
0.249377
0.0139958
0.161645
0.0376838
-0.0102742
0.0385859
0.0264438
0.16797
-0.0270982
0.0292066
-0.00179733
0.00510957
-0.0229986
-0.228639
8.04716e-28
0.0254734
0
-0.0113921
0.522041
0.0638248
0.00388276
-0.0455481
0.0113428
0.0765823
-0.0753153
1.30713e-24
-0.0678353
-0.036004
-2.02035e-39
-0.0196741
8.15208e-322
0.00880842
0.00680276
0.00926044
0.142694
0.0659692
-0.0855462
3.07838e-39
-0.141127
0.0296882
0.0132039
0.172885
-7.3388e-27
8.98588e-39
0.0156311
4.17373e-259
-0.0183045
-0.0131351
-0.00339146
0.00359698
-0.100339
0.248146
-0.0205801
-0.00897707
-0.039175
0.111558
-0.139525
-0.00817732
-0.00943883
0.254422
0.032226
-1.52682e-29
1.09215e-24
-0.0500068
-0.0727147
0.00923816
2.46146e-40
0
-0.0219407
-2.02035e-39
0
0.477224
0.00318083
7.36158e-322
0.0197025
-0.0210257
0.0395497
-0.0267825
0.159746
0.0265907
-0.0713596
-0.00330456
-0.0436375
0.00491234
0.0264438
-0.0994663
-0.0347138
0.022096
0.0191555
0.00528008
-0.0439825
0.181798
-0.109266
0.0139958
-0.195498
0.00485975
0.00805856
-0.0428819
0.0817564
0.0097882
-0.0055762
0.0195329
-0.0170362
0.00880842
0.0757301
-0.175342
0
0.0849115
5.23618e-30
-0.026444
4.04126e-38
-1.46618e-28
-0.0203165
0.00271549
-0.135358
0.0250758
0.0215323
-0.0308719
4.17373e-259
0.0264438
0.0382075
2.04624e-27
8.60436e-26
0.022406
0.1182
0.0616619
-0.0151512
-7.3388e-27
-0.0408514
-0.100001
1.12894e-36
-0.0579702
-0.130386
0.0789596
2.59587e-25
-0.0203043
-0.00314023
0.00680178
0.043027
0.0919631
-0.119208
1.99003e-36
-0.0261134
-2.81688e-38
0.0323533
0.0532821
0.22875
0.0314885
0
-0.0162114
0.100842
-0.0268044
-0.00534965
0.0168475
-0.0103406
0.0506947
0.0292042
5.58412e-25
0.000620646
-0.0210708
-7.82438e-34
0.0146281
-0.32373
0
-0.017861
0.0381732
-2.37784e-26
-0.0063216
1.07243e-24
0.0445495
-1.94662e-321
0
0.0314435
-0.0877175
0.0381732
-0.0113741
0.0509868
-0.0966228
0.00308826
9.14021e-322
-0.00339146
-0.057994
-0.108727
0.02969
0.0495921
0.555856
-0.0283404
-0.00430567
-0.0436602
0.0156762
-0.13746
0.0207542
0
-0.274736
0.0474074
-0.00818446
0.0877442
0.00535037
0.0864132
0.219908
-4.26554e-27
-0.0221437
0.0406228
-0.0327408
0.0220919
3.82229e-37
0.0218916
0.0961862
0.00491234
1.22503e-57
-0.0668057
9.5288e-38
-0.0252555
-0.0871418
0.0529807
1.28943e-36
-0.0438038
-0.0735603
0.00527292
0.16503
-0.0010709
-0.0864302
1.2433e-40
0.00880842
-0.0520068
0.0865194
-0.0525105
-1.13687e-26
0.0195341
0.131272
-0.0308708
-0.0476188
-0.0538448
-0.00103905
0.0982229
-0.0139703
0.0778323
0.0515896
-0.0678297
-2.02035e-39
-0.0804017
0.0586686
-0.0518215
-2.02035e-39
-0.140693
-1.52682e-29
0.0367013
6.5195e-25
0.0545761
-7.50483e-27
-0.0537723
0.0468673
-2.96552e-57
-0.0203043
-0.100112
-2.02035e-39
-0.0199826
-0.0537723
2.04624e-27
0.0370459
-8.46295e-35
-1.29558e-34
-1.66044e-29
0.00528008
1.35112e-39
0.0757301
0.0228146
0.0526521
4.75348e-112
-0.0113921
1.59242e-25
2.46146e-40
0.0495622
3.18902e-41
-0.038074
0.0233992
0.0323533
-0.0525105
0.0189607
-0.00847976
0
-0.0681883
-6.17507e-39
-0.0885835
0.108286
-2.45145e-26
-0.0111489
-0.0327051
-0.0170362
-0.0972865
0.0215323
-0.0438407
0.0985298
3.32766e-37
-0.0561731
-0.00318414
-0.161232
-6.06869e-54
0.0543151
-0.00817732
0.00148047
3.64943e-56
-0.326612
0.0653603
0.0293703
-0.0302625
-0.0205801
0
0.0535799
-0.00584635
-6.41986e-05
0.0317488
-0.0300208
0.0479545
1.22503e-57
0.0246878
0
7.36158e-322
-2.02035e-39
0.0819768
1.5477e-29
0.0123647
0.00432911
0.0188571
0.00491234
0.0118485
-0.0103406
-0.0668057
-0.219275
3.83979e-39
-0.0279919
0.0195951
0.007246
0.0429227
-0.00441915
-0.0140461
0.127395
0.0811742
-0.00362812
-0.0155687
0.00264459
0.00485975
8.97853e-26
-0.0410538
-0.0675942
1.07843e-30
-0.00888623
-0.0230725
-0.22787
0.0122447
0.19557
3.1869e-41
0.0462026
-0.104292
0.0139958
0.017924
0.0668352
-7.31877e-37
-0.147749
2.59587e-25
-0.0349802
-0.0214629
3.07838e-39
2.68067e-26
0.0448153
7.36158e-322
3.56515e-59
0.0402091
-0.0591354
-0.0139703
-0.0103406
-6.96955e-34
-0.0140928
-6.48025e-29
0.0382075
-0.122452
-0.0970389
-0.10064
6.43443e-26
0.202093
0.0011406
0.00292611
0.0978891
-0.0139703
4.65392e-35
0.0264438
-0.214977
-0.00787254
-0.012292
0.0365175
6.19707e-37
-0.059778
-0.00269884
0.007246
0.0886571
-0.178761
0.0238597
0.0254592
-0.0356598
-6.62648e-37
-0.128868
1.85858e-28
3.17015e-30
0.00107449
-0.222013
0.0750687
-0.148173
-5.45088e-31
-0.0125969
-0.0308173
-0.21848
-0.136572
-0.190369
0.00892257
0.0153977
-0.0525471
-0.00142803
0.0118489
-0.107261
-1.45128e-32
0.0854167
-0.00748503
-0.00273922
-0.0755294
-0.0365891
-0.00118949
-0.0332223
0.397589
0.0364332
0.0199626
0.00281939
-0.0621818
5.86783e-29
-0.0712264
2.04624e-27
-0.0169078
0.0320207
0.0577409
0.0274655
0.212892
4.98851e-25
-0.0196741
0.0622078
0.0246878
3.69597e-27
0.0673756
-1.81086e-29
0.0879211
-0.00282157
0.0688785
0.0351573
-0.0198446
1.1223e-25
0.0242087
0
0.0463549
0.0183569
-0.0274492
8.49652e-26
-2.02035e-39
1.35112e-39
0.00626394
-0.183034
8.7384e-25
0.0619829
3.77517e-27
-0.044864
-0.238744
0
0.0167298
0.00821888
-0.0298308
-0.017807
0.0503863
-0.0559855
-0.0133599
0.0525173
-0.0887813
0.00446168
0.12216
0.0822204
-0.0278611
0.0600598
0.0280474
-0.0316542
-1.71408e-35
0.0145049
-0.0900499
-0.114434
0.151052
-0.0140928
0.201273
0.0522698
1.22503e-57
0
-0.0976811
-0.0712264
-0.00858044
0.000620646
0.0139958
0
0.111447
0
0.0404893
-0.0636213
0.35079
-0.0534317
-0.0113921
0.0474291
-0.0199417
-0.263376
8.22071e-53
-0.00881269
0.0735707
-0.0235149
-0.0754054
0.0834012
-0.0452001
0.00597322
3.66692e-38
-0.00897707
-6.15564e-31
-2.28338e-39
-0.073284
1.09529e-38
0.045392
-6.96955e-34
-0.0662929
-0.00953353
0.0244421
-1.66567e-248
-1.66686e-35
-0.028087
-0.0807401
0.00271549
-7.50483e-27
8.39491e-26
0.0145923
-0.218591
0.0436059
-0.0597975
0.0110417
0.0273922
0.0170863
-2.63573e-26
1.99003e-36
-0.220686
-0.0192141
0.0422092
-0.0101785
0
-0.0703611
-0.100003
-0.0242155
0.219986
0.00493447
0.00523066
0.113114
3.87158e-58
0.0107193
0.1182
-0.0761544
-0.0484856
0.0323533
0.17367
0.00148635
-2.02035e-39
0.00510957
0.00313567
-0.0462764
-1.52682e-29
1.69196e-28
-0.0539579
0.0185031
0.134623
-0.0966228
0.0139958
-0.0498975
-0.0109238
0.0210398
-0.0147042
-0.0221437
-0.0829482
0.107077
0.00694569
6.91232e-37
7.36158e-322
0.0484647
0.00351615
0
0.126697
0.0023385
0.0660596
0.00756102
0.0107239
1.60224e-37
-0.0816293
-0.010197
0.0276695
-0.332665
-0.14707
0.0346529
0
-0.163976
-0.0364781
0.266299
0.032222
0.0586551
0.0266633
-0.112351
6.19707e-37
0
-0.0195122
0.147055
-0.0930145
0.0643853
-0.0412627
0.0471368
-0.0177201
0.0499914
3.32766e-37
1.07714e-30
2.67309e-27
-4.56618e-37
0.0488553
-2.45145e-26
4.04126e-38
-0.0153293
-0.0280019
-0.416222
0.0365175
0.172804
-0.000258311
0.288099
0
0.0215323
0.0194506
-1.72009e-12
0.0297917
-0.00210164
5.32716e-28
0.101338
0.23709
0.0370266
-0.00173501
0.00217949
-0.0205801
-0.0241335
0.0318362
5.7759e-40
0
0.0156662
1.35112e-39
-0.0512807
-0.463871
0.0296882
0.00559925
-0.0161207
0.178322
0.0296882
-1.52864e-32
-0.00663254
1.46128e-24
-0.0558145
0.0411271
0.0416824
0.00855451
-9.31312e-44
-0.0113921
0.00893863
0.0297216
-0.00119933
-2.02035e-39
0.267501
0.0963738
-0.00888623
-3.58753e-69
0.0380845
-0.0757869
-0.00165078
0.169917
-0.0811625
0.0756098
0.272387
-0.0529322
-0.0209708
0.0278626
0.0344669
4.59938e-39
-1.17409e-31
-0.0318949
0.1182
-0.169389
0.211275
0.0968539
-0.0843929
-0.0701901
-1.09153e-26
-0.00888623
-0.00847976
-0.0558965
0.0433945
0.0109075
-0.0213002
1.82351e-39
3.69597e-27
0.0602309
0.0999488
0.0326991
-9.31312e-44
0
-0.00339146
1.62418e-28
4.45332e-26
0.0177606
-0.0170362
0.043203
0.0535455
0.014499
-4.29223e-31
9.07583e-60
1.98727e-56
0.00915006
0.0118485
0.0150865
-0.00888623
0
0.0375286
0.0765823
-0.0534939
-0.206132
0.142536
-0.0540791
0.0139958
0.0235722
0.0169975
0.07767
-1.60864e-26
0.0016825
0.116355
0.0785294
0.0323533
0.0776507
0.0381732
-0.00430567
-0.159958
0.0558455
-0.0718085
0.0291874
-3.90344e-29
-0.0421934
1.22503e-57
-0.00888623
3.90587e-25
0.0366477
0
-0.111547
0.00543794
6.68258e-27
0.201273
0.0394485
0.0637678
-2.53468e-30
0.0218374
0.268382
9.59674e-57
-0.00888623
-0.0341011
-0.0930145
6.5195e-25
-0.0278611
1.07706e-321
0.0566105
0.00821888
-0.0140928
8.01553e-28
-0.0221437
0.0656289
-0.00897707
0.012914
0.00756507
1.08768e-24
-1.29558e-34
0.00511195
0.0774787
-0.0113921
0.0292768
1.1223e-25
-0.029378
-0.0215669
-6.02341e-13
0.0156311
-0.00584303
5.31235e-38
-7.3388e-27
-0.0265457
0.0869501
-0.0136395
-0.0549766
5.07638e-27
-0.020853
0.0532821
-1.46618e-28
0.00821888
-0.0134058
0.0233804
0.0971186
-0.0140507
0.0381732
-1.52682e-29
0.00313567
0.0447349
-0.029378
0.0947783
-1.82804e-32
-0.0155182
0.0404893
0.0197025
0.0694634
-0.0826339
0.0488077
-1.3481e-31
0.0664136
1.22528e-321
-0.0626029
0.0441314
0.00238986
-0.0111786
0
-0.0476188
0.0530466
0.0372492
-0.00344258
-0.0296993
0.0126071
-0.139814
0
6.23351e-58
4.04126e-38
0.0123647
-0.00217207
0.0388556
0.19302
-0.030197
-4.59729e-33
-0.084484
-1.12663e-26
0.0474291
1.66829e-37
0.00485975
-0.0611745
-0.158115
-0.0535944
-0.226889
2.58831e-25
-0.174941
-2.02035e-39
0.0019071
0.0132298
0.0570346
-0.0210766
0.0598883
8.60436e-26
0.0123029
0.0197025
-0.0171297
-0.0350676
-1.29558e-34
0.0197661
0.000805243
5.3165e-111
-0.0133092
0.0298358
-1.52682e-29
-0.0646161
0.00635364
-2.02035e-39
-0.0322712
-0.0147042
3.17307e-41
0.00127946
-0.0190099
0
0.149871
0.00271549
0.0127839
-3.61395e-34
0.0237824
-0.0120602
-0.0541382
-0.0954996
0.0385647
0.0234306
0.0442022
0.0456694
-0.0113921
0.0453167
-2.02035e-39
-1.39971e-36
0.00694569
0
0.618137
4.47182e-28
-0.0151742
0.0411175
4.47182e-28
2.62878e-55
0.0844054
0.0019071
-0.0369615
0.0647255
-0.0133092
-4.28508e-33
0.00694569
-2.84234e-30
-4.57151e-27
-0.0247235
0.00586551
-2.79267e-28
0.0296882
-0.0338231
0.0365175
-0.0151512
-0.0016033
-0.0850654
0.0881103
0.0198815
0.00855451
-0.0488452
-2.02035e-39
-0.181786
-0.00040203
-0.00663254
0.00107449
-0.0715783
-0.110862
-7.3388e-27
-0.634821
-0.0205801
0.000620646
-0.017861
0.0474291
0.119586
-0.0133718
-0.0538351
-0.158227
-6.17507e-39
-0.0414721
0.192318
0.0351573
-0.154649
-0.00318414
0.103255
-1.94662e-321
8.80815e-27
0.116214
0.0612688
0.0139958
-0.200293
-0.00853501
-0.111255
0.0220886
0.113932
-0.00040203
-0.114163
-2.02035e-39
-2.02035e-39
-0.0216379
-0.0545931
-0.0458613
-6.17507e-39
-2.02035e-39
0.0259037
-0.119391
0.0123647
0.0743189
0.0344575
-0.0468873
0.0442488
-0.00040203
-0.0504223
7.36158e-322
-0.0453909
0.0824326
0.00280532
-0.21486
0.0317488
0.079489
0.039176
-0.0286051
0.00359698
0.0535635
3.82229e-37
0.145182
0.00359698
-0.00584303
-7.81872e-29
-0.0321676
0.0139958
0.0195275
-0.0137158
0.00091642
-0.0500068
-0.157055
-0.174678
-1.66994e-321
-0.081567
-0.00339146
0.0292768
0.108395
-0.0618796
-0.0484856
1.98727e-56
-0.0275626
0.00313567
0.00455766
0
-0.0616404
6.19707e-37
-0.045998
0.162579
0.0298312
-2.28996e-26
0.0483113
0.00821888
-6.54552e-30
-0.0641079
-0.0375708
0.0344575
0.0259202
6.23351e-58
0.00756507
2.59587e-25
0.0195341
-0.00663254
9.07583e-60
-0.00897707
0.0581944
9.71003e-25
-0.0525105
0.0857414
1.16105e-321
-0.0435231
-0.104178
-0.00136315
-0.0139703
0.0256457
0
7.46478e-56
0.225285
0.0287005
0.0214679
0.0245149
0.0297776
-1.14768e-28
-0.0573492
0.0259202
-0.00441915
-0.117492
-0.231127
0.0280003
7.46478e-56
0.130878
-0.0171876
0.0619328
0.0966427
-0.22387
1.59242e-25
0.0118485
-8.15367e-38
0.0738454
-0.00555762
-0.1304
0.0194506
0.0755863
0.0235722
-0.0476188
7.41167e-26
-0.0119948
0.106022
7.36158e-322
-0.00414453
4.2033e-30
1.52747e-25
-0.0010386
-1.04082e-29
0.00928296
-0.308527
-0.13851
-0.0140047
-0.0503015
0.144021
-2.4031e-27
-0.036897
-0.026475
4.30405e-57
-0.148409
-5.9573e-28
0.00678362
4.44508e-59
0.0113428
-2.21636e-30
-0.159026
0.122743
-0.0248959
-0.0468529
-0.00467321
0.0210281
-0.0102009
-0.00277401
0.0305543
0.00127946
-0.010197
-0.010197
-0.0256032
5.48695e-242
-0.183832
0.0309685
-2.33715e-26
0.0411175
0.0396238
-4.29223e-31
-2.33715e-26
-0.0221437
0.069026
0.217074
2.58831e-25
4.65392e-35
0.367475
-0.0198199
0.0311003
0.12449
-0.0558519
0.00792322
2.70979e-25
-1.29558e-34
0.0214409
0.0474291
-0.0309001
0.0740964
-0.0898041
-0.164103
2.76288e-29
-0.0271792
0.035139
0.15154
0.00535037
-0.0483148
-0.0216379
-0.0772527
-0.0110655
0.0620965
0.487632
1.53263e-26
0
0.0395497
0.188723
0.0361
0
0.0158397
-0.0229986
0.00316041
-0.331862
-0.113686
-0.0855462
-0.0825169
6.26617e-30
1.0791e-24
0.0851576
0.183767
0.087924
8.92897e-25
-0.0810662
0.106901
0.00391321
-0.00808226
0.035341
-1.12663e-26
1.93693e-28
0.0511945
5.64629e-111
-0.00760534
0.118044
-1.98974e-31
-0.0316268
0.0171496
-6.65879e-39
-0.0518215
0.0779152
0.0961522
-7.75041e-30
-0.0476023
-0.00405368
-4.76945e-41
1.84808e-56
0.0621309
0.0218374
0.0218374
0.00528008
-0.0538934
-0.0148258
0.00762076
-0.0205801
0.0529477
7.36158e-322
3.08183e-73
-0.0217518
-5.24122e-32
-0.0113921
2.34816e-28
-0.0234937
6.06415e-27
-0.0634142
2.35906e-29
0.318029
0.0645294
0.0284535
2.70979e-25
0.0102551
-6.06869e-54
0.162673
0.138022
-6.17733e-27
0.0401881
-9.31312e-44
0.131852
0.0118709
0.0392569
0.0294508
-0.0275808
-0.0872227
2.68067e-26
-0.0169078
-0.0206765
1.62418e-28
0.0862851
-0.0525105
0.0933142
-0.00172038
1.85858e-28
-0.0245597
-0.0113921
-0.0214629
-0.158742
0.321543
-0.00878644
0.0197025
0.054567
-0.023448
-0.461053
-1.94662e-321
3.17352e-41
0.0543627
-0.00847976
-0.10064
-0.058032
0.101104
-0.00265081
4.17373e-259
-0.056505
0.00758958
-9.31312e-44
0.0686485
0.007246
-0.160692
-0.0279522
-0.135948
-0.0288459
-0.0423317
-2.02035e-39
-0.103977
0
0.0881103
0.00107449
0.0917379
0.0436048
-0.00700451
-0.0338819
-2.02035e-39
-3.83491e-35
0.0486679
0.000620646
-2.02035e-39
0.0296882
-0.0688831
-4.28508e-33
0.118074
-0.00269884
0.000620646
0.262713
-0.285678
0.0157676
9.91246e-189
-1.76126e-26
-0.0661331
0.0256457
5.64629e-111
2.10351e-28
-0.0539579
0.00527292
-4.60289e-28
0.0152124
0.0189341
0.189031
-6.96955e-34
-0.0140928
-0.0234332
-0.0103406
0.00313567
-0.0221437
-0.0269937
-0.00210164
0.0195341
-0.0160897
0
-0.0072257
2.62878e-55
0
0.0417116
-1.76126e-26
-0.0662445
-0.0311551
0.0399057
0.00792322
-0.0538934
1.99003e-36
-0.106855
0.0718218
-0.109191
-0.00277401
-0.0136528
-0.0066655
-0.203104
0.0724857
-0.189201
-1.81086e-29
2.62878e-55
-0.00757006
0.0385515
1.35112e-39
-0.0860931
0.0170863
-0.0576043
0
-0.0774768
-1.82804e-32
-0.00794248
-0.00657391
-8.66423e-44
-0.178663
1.99003e-36
6.5195e-25
-0.0435318
-0.010197
-2.81688e-38
-0.00339146
0.0019071
-3.28266e-26
-2.58381e-26
-0.364636
-1.72058e-33
-0.0125969
-0.0359687
0.0322258
0.0353241
-3.33056e-27
0.00421016
0.0337425
-0.00945224
0.127835
-0.0570531
8.98019e-26
0.02969
-3.7926e-49
0.114263
0.102288
0.000835545
0.132952
0.00131609
2.58122e-28
-0.0169078
-0.11949
0.0229721
1.69196e-28
-0.0111786
0.0763123
0.043203
6.23351e-58
-0.0680288
-0.0183311
-0.00277401
-0.00240527
-0.0209451
0.151825
-0.249557
0.0195275
-0.0212931
0.0334038
0.00606028
-0.0253028
0.0722285
0.0351499
0.00491234
0.533551
0.0196281
0.0126353
0.0399043
0.123151
0.106625
0.00756507
0.0317488
-0.0518215
0.0852939
-0.0840312
-0.0170362
0.0825438
0.00880842
0.0165385
-0.0192245
0.007246
0.0481117
-6.6833e-37
0.00313567
-0.0140928
0.0283782
0.0192359
-0.140597
0.0214679
-0.0449495
0.186548
0.0602199
-0.0234937
1.99003e-36
0.123454
-0.131274
-0.0283746
-0.0259609
0.0822864
0.0847589
-0.00878666
0.0687548
5.24216e-30
-0.00441915
0.00821888
8.98019e-26
0.0653603
-0.045009
-0.00748503
1.41022e-39
-0.101882
-0.00105808
-2.33715e-26
5.08735e-112
-0.0763843
0.00821888
-2.02035e-39
1.64928e-25
0.0365175
1.39651e-111
1.39651e-111
0.0828709
-0.0512689
0.0568404
0.31901
-4.18758e-42
0.0673756
-0.0552573
-0.0113921
0.051447
-0.0077505
-2.6179e-47
0.0311626
5.48695e-242
-1.77985e-27
0.0359847
-0.0105468
0.110125
-6.71929e-322
-0.112758
-0.0763573
0.0466662
2.09607e-56
2.27825e-26
-0.13188
-0.0621625
-0.010197
-0.0140928
0.141469
-0.0270423
-0.0154842
-0.426106
-6.17507e-39
0.0891766
0.00195338
-0.0308719
-0.0720812
0.0411957
-0.404686
0.0349004
-0.0408514
0.02969
0.0747255
0.0515664
-4.00321e-36
0.00104351
-0.0125354
0.0265907
-0.0411844
-2.4031e-27
0.0487945
-0.0103432
0.0107239
0.0613668
0.022778
0.0543151
0.0525744
-0.00990616
0.0371562
-0.0010386
0.0999488
0.00107449
-4.44812e-28
0.0436491
0.043027
0.0195341
0.117273
-3.35747e-37
-0.00799247
3.1869e-41
0
0.00821888
2.71145e-26
-0.0268647
-0.0107017
0.0833597
0.88674
-0.0010386
0.218297
0.000620646
-1.3567e-30
-2.02035e-39
0.0364155
0.0739268
-0.0140928
0
-0.101546
-0.0968282
0.215493
0.010769
-0.448026
-0.0170362
-0.0954996
7.83329e-57
0
-0.0103406
-0.114434
-0.0293415
-0.00875476
-0.0274492
-0.00897707
-0.134596
-0.0245597
4.26891e-29
-0.0770406
-1.721e-37
0.112361
2.62878e-55
0.124118
-2.21636e-30
0.00821563
0.00503474
-0.00888623
0.396115
-0.0133964
0.090421
0.237381
4.57848e-40
-0.0539579
0.0167056
-0.0103406
3.22136e-319
-0.108438
0.105356
-0.0735255
-0.0474153
-2.02035e-39
-0.0347171
0.0468673
0.173669
0.0466505
-0.0153293
0.0429746
-1.52864e-32
-0.00441915
0.0441104
-1.12663e-26
0.0832998
-0.0788541
0.0297216
0.0232652
-0.0302139
-0.232905
-4.03582e-32
0.087924
0.0743189
-0.0276146
-0.342711
-0.00888623
0.0582652
0.00280462
0.0265907
-0.0916328
0.0684108
-3.7926e-49
-0.0338231
-2.96552e-57
0.0187959
0.109785
1.08817e-24
0.000315847
0.00992516
-0.0251323
0.0766385
-0.0278611
0.0296882
-0.0612624
0.0170787
0.0229721
-0.0214551
-0.225892
-0.0255062
0.0963722
0.0859957
2.35906e-29
1.0791e-24
0.035609
-0.00430567
2.58831e-25
0.00606028
0.0574478
0.0139958
0.097361
0.0971078
-0.0614259
-0.0133092
-0.110862
2.62878e-55
-0.00897707
0.0397381
0.0733946
-0.00441915
0.124354
-0.0216379
-0.051892
0.00549159
0.0233992
-0.0954996
0.00732555
0.102133
0.0741224
-2.69381e-43
-0.0139703
-0.0057814
0.110125
0.10037
0.11127
0.0410179
-0.106415
-0.00888623
-0.0105468
-0.0312571
-4.90971e-39
0.00346851
-0.0572257
-0.000923974
3.78274e-37
1.96647e-109
-0.0315103
-1.52682e-29
0.00626394
0.0729718
-2.4031e-27
-0.0198811
-0.00269884
0.0309685
0.0116896
0.0314885
-0.0409339
-0.0140928
-0.0177571
7.93682e-25
0.0404893
-2.02749e-37
0.0158397
0.0967601
-0.140892
0.133282
0.0175948
0.0296882
-0.0321114
-8.66423e-44
-0.0371519
0.0264438
-7.01573e-322
-0.0866116
0.073817
0.0792808
1.08978e-24
-5.63359e-30
-2.6e-27
0.00244159
0.00308826
-0.0280019
-0.0757783
8.49652e-26
0.0448307
-0.0113921
0.0508431
-0.00199461
0.0125851
0.0373992
0.0487945
-0.151722
0.0296269
0.0424267
-0.0293415
0.0116896
0.1038
0.0268641
-2.86319e-33
-0.186414
-0.026475
-0.0853561
-0.22178
0.116355
-0.0629913
-0.127185
0.00535037
-0.0496475
3.82229e-37
0.235101
0.0150865
-0.0782271
0.0118485
-0.0368149
0
0.0403864
0.00821888
0.0139958
-0.0668057
0.0643262
0.0833597
0.0515896
-0.139639
0.297295
0.116928
-0.00953353
0.0502938
0
0.151263
0.067446
-0.0265457
-6.96955e-34
0.0382075
-0.0280019
-1.66686e-35
0.161594
0.0909985
-0.0270982
0.0113428
0.251639
-0.200192
8.26108e-39
0
0
-0.00560416
-0.00688242
-0.0463968
0.0451194
-0.0549766
0.0935327
-0.0113921
-0.0513258
-0.0462628
0.0411175
-5.98181e-33
-4.01886e-26
-6.06869e-54
1.08743e-241
0.0392569
-0.0130222
-0.0215231
-2.6e-27
0.0354073
3.96081e-25
1.1223e-25
-0.00521531
7.93682e-25
-0.168453
-0.158115
0.0643853
0.0156311
-0.0735255
1.85858e-28
2.62878e-55
-0.114221
-0.0439825
0.0474291
0.0167537
0.0753981
0.0203044
0.0192157
-0.061812
0.212251
0.108335
0.105375
-0.0010709
0.0307384
-0.131228
0.251443
-0.221666
0.0285459
0.0128557
0
2.38713e-28
0.11188
-0.0288459
0.0252878
-5.24412e-32
1.39651e-111
0.0139958
0.0215323
-0.030197
-0.00430567
-0.0931627
-0.0103406
0.0350545
-0.0153293
-0.0143556
-0.0816005
0.0395497
-0.106628
0.0851712
0.0999488
0.132268
-0.00958405
-0.00748503
0.075964
0
0.0420171
-6.62648e-37
-0.0322712
-0.0139649
-0.0119948
-0.0825169
-0.00748503
0.10063
-0.0014904
0.000375396
-0.0634142
-0.0581616
-0.112529
7.41167e-26
1.39651e-111
0.0833323
4.37647e-05
-2.37784e-26
-0.00888623
-0.0133964
-0.136598
0.00313567
0.026626
-0.00940713
0.00071775
7.41167e-26
0
-0.0437407
-3.83491e-35
0.0674098
0.087924
0.0122191
6.19707e-37
0.152939
-0.012292
-0.0407486
-0.0140928
0.0717633
0.0486065
0.0341611
0.0674098
0.00921664
-0.181045
0.00104351
0.0351573
0.0194506
0.0281475
0.00125302
3.83979e-39
0.164479
0
-0.0280019
0.00485975
-0.00430567
0.181497
-0.00210164
7.82754e-111
0.105977
0.0177802
0.0416824
3.91004e-25
0.0128339
1.01051e-57
-0.0518215
0.0471368
2.34816e-28
8.24841e-29
-0.0104944
-0.0270104
4.83443e-25
4.63108e-30
-0.0267986
-0.163444
-0.0266897
0
0.000620646
2.11162e-55
0.00244159
0.00503249
-6.06869e-54
0.0284535
0.195783
3.83979e-39
-0.0446642
0.151204
-0.793288
0.00880842
-2.14135e-29
0.210401
-0.0851233
0.0202597
-0.0672446
0.0268641
0.329458
0.0482375
-0.0420412
-0.0131397
-1.4029e-64
-0.0293243
-0.0322712
-0.0162114
6.19707e-37
0.00107449
-4.53902e-29
0.0844369
-2.45145e-26
0.0811511
-2.02035e-39
0
0.0287221
6.19707e-37
7.36158e-322
0.0295289
8.15208e-322
0.0532821
5.64517e-27
-0.133926
-0.0452001
-0.00897707
0.00528008
0.0711668
8.98281e-25
-0.107156
0.101555
3.90587e-25
0.0468383
-6.96955e-34
-0.0474153
-0.0221437
0.000734415
0.0992605
0.0366477
-0.0675523
0.0210727
3.92433e-38
-0.0748429
-0.0338231
2.00895e-109
0.00107449
0.00821888
-0.0975708
-0.119553
0.106022
0
0.0262405
0.00107449
8.25709e-38
-0.122499
-0.0235149
0.0535799
0
0.0197025
-0.151357
1.1223e-25
-0.0113921
6.19707e-37
0.0242593
0.0487945
-0.018379
0.00308826
0.0296882
0.0959852
-0.0647012
-0.00664865
-0.0244571
-0.0151725
-0.00236053
-0.103812
-0.00478706
0.0487945
0.0214679
1.14219e-37
-1.28437e-34
-0.0125202
-0.00646978
2.00895e-109
0.0481385
0.135046
0.0317959
0.0265907
-0.0723804
0.0894086
-0.0654281
-0.256489
-0.0897118
-0.0423586
0.00670705
-0.047825
-0.101091
-0.00172038
0.108479
0.0131603
5.7759e-40
-0.0311551
8.49793e-322
6.26483e-30
-0.0255714
-0.0402307
0.0437028
0.0184039
-7.50483e-27
-0.353886
0.0481117
0.104252
0.0388556
5.64629e-111
-0.11939
0
-0.0484856
-0.0563527
-4.28508e-33
-0.241775
1.99003e-36
4.44508e-59
-5.64221e-37
-0.00923033
-0.00888623
-2.63048e-40
-0.0177256
0.0150865
-0.114434
1.07366e-30
-0.0186077
0.013115
-1.39971e-36
-0.00441915
0.129831
0.00491234
-0.00339146
8.08909e-111
-0.0239115
-0.0612793
-6.96955e-34
0.0191555
0.0139958
3.17015e-30
1.03809e-256
0.0317488
0.0795873
-2.96552e-57
-2.4031e-27
0.0246812
5.47372e-26
0.0262144
-0.0553436
9.5288e-38
-0.0181481
-9.48797e-28
3.69597e-27
-0.073284
0.0127839
0.052311
-0.0623567
-0.0278611
-8.21518e-267
2.09607e-56
-0.00888623
0.0139239
0.0224052
-0.0010386
-1.46618e-28
-1.19454e-26
0.0844369
-0.00723282
-0.0735255
0.390196
-0.0066655
1.41022e-39
0.0706717
4.21272e-30
-0.0618076
0.00881576
-0.279789
0.0693933
-0.000675967
0.013444
-0.00441915
-0.235113
0.0535455
1.5477e-29
0.0757301
-0.253444
0.159315
-0.0219577
0.170873
-0.106019
0.122854
0.0119222
-0.0727025
-0.0960327
0.0361
-6.17733e-27
-0.264359
0.15978
-2.81688e-38
0.0474291
0
-0.0160897
0.0404893
0.0150642
-0.0390288
-0.0889393
-7.50483e-27
0.00359698
0.0630501
-0.0763096
0.0697459
0.00756102
0.0451194
0.021785
9.14021e-322
-0.0785935
-0.0133718
-0.0627022
-0.0264772
-0.00760534
2.59587e-25
-0.055305
0.043203
-0.00803749
0.00880842
0.0380845
-0.0439825
8.26108e-39
0
0.0748576
-5.30226e-31
-1.09153e-26
-0.0108284
-0.0263036
-0.0133718
1.29437e-265
0.0136385
0.043203
0.173843
0.243181
1.85577e-36
0.0264438
-0.266387
-0.0261134
-0.0230725
-0.0229238
0.10326
-0.0255257
0.00313567
-0.00888623
4.7213e-37
0
-0.260678
-1.76126e-26
-5.67196e-27
6.19707e-37
4.15337e-37
0.0170863
0.111956
0.000620646
0.00694569
0.0214679
0.0224052
-2.02035e-39
0.0598883
0.00313567
0.0199577
-0.0118371
0.0318566
0
0.0576311
0.0638248
-2.02035e-39
-0.0773274
-0.0376206
0.0150865
0.0642258
0.0530945
0.0361
-0.0177201
-0.148969
-0.0443006
1.40016e-257
0.21699
-1.25493e-321
-8.32191e-27
8.29282e-39
0.103704
-0.00210889
-0.00330738
-0.0056752
1.12894e-36
-2.02035e-39
-0.0170362
0.0311556
5.88206e-25
-0.00210164
3.16281e-30
0.0134275
-0.0241073
-0.175646
0.0794477
-0.203574
0.0738846
0.00280462
0.0246878
0.110351
0.0851371
0.0203394
-0.0712859
-4.28508e-33
0.0233992
-0.151604
0.00313567
0.0265854
-6.06869e-54
-0.0010386
0.174917
-0.173493
0.168575
0.0061737
-0.00040203
-0.0241073
-0.0283746
-0.0229986
9.35943e-40
-0.140387
0.0203736
-0.0322578
-0.0435577
0.0259037
-0.0582438
-0.085445
0.0487945
-1.31454e-29
-0.172025
0.0285459
0.0411271
-0.0390288
-0.0256013
5.11415e-27
-0.0196741
0.281627
-1.52682e-29
-0.000907368
0.260435
0.00535558
0.146483
-1.52682e-29
0.0324818
-0.118596
-0.0496523
-0.0308708
0.0372756
-0.0613311
-0.0559855
0.00586551
-0.00427533
7.36158e-322
3.32766e-37
-0.0170362
0
0.043203
-2.6179e-47
-0.0288582
0.0428149
-0.00172038
-4.29225e-31
-0.120981
0.0150865
-4.59729e-33
-0.0445269
-0.0103406
-0.0703611
8.49652e-26
0.0165989
-0.00430567
3.22136e-319
0.0170863
0.0560108
-4.53902e-29
0.0414208
2.62878e-55
-0.0351798
0.0689436
0.118516
0.00244159
1.35112e-39
-0.0408514
0.0497946
2.68342e-28
0
-2.19089e-27
-3.99421e-27
-1.25493e-321
3.69597e-27
0
-0.0675007
-0.0209197
0.132397
0.0730191
0.132317
0.0543454
0.064363
0.0143524
-0.051892
0.0759175
2.62878e-55
5.48695e-242
-0.0010386
-3.93659e-47
0.185383
0.079489
0.0296882
-0.0170362
-0.772797
6.43443e-26
0.0388556
-0.0294668
4.90093e-38
-8.66423e-44
0.188196
0.0214564
0.0946887
-0.113792
0.0772204
9.33784e-322
0.0215323
-2.02035e-39
0.0595522
-0.0349802
-0.0293415
0.0386169
0
0.0150865
0
0.541871
-0.0133718
0.0113943
-0.0483853
-0.134343
-0.0409339
0.0280443
-2.81688e-38
0.00926989
0.0139958
-0.285429
-0.0268647
0.065309
0.40774
0
-0.00760534
0.00756102
0.00756102
0.0398327
-0.00800362
0.0326991
-0.026444
-7.81872e-29
-0.0609811
-0.186018
-0.00430007
0.127301
-4.26993e-26
0.0202811
0.0122447
-0.0670402
-1.25493e-321
0.134223
-0.0285212
2.11865e-30
-0.047963
-0.0400455
0.0489499
-0.0121908
-0.0245597
-0.0111786
0.0139958
0.0320453
0.107025
6.43443e-26
0.119063
-0.321326
0.0597021
1.33975e-25
4.59938e-39
0.0221821
-2.96552e-57
2.36612e-27
-0.0241073
0.0508932
0.148601
-0.0153293
-1.52682e-29
0.0341611
-0.0133092
-0.0152645
-0.00897707
0.0179566
-2.02035e-39
0.525073
0.0242087
0.0337425
0.0341611
0.00359698
0.0175948
-0.0219407
-0.00277401
0.0488077
0.0341611
1.12894e-36
0.089889
0.0150865
0.0410889
-0.0315103
-0.00280235
0.0783451
0.0194506
-0.0115851
0.079489
0.0353764
0.0110369
2.58831e-25
-3.61395e-34
4.61356e-35
0.0399212
0.0404893
1.85493e-40
-0.168022
0.00144822
-0.00277401
0.00174166
-0.0125969
0.0361
-0.219189
2.91996e-38
0.0582671
-0.0547854
-0.0850654
0.00862817
0.0329202
-2.6e-27
-0.00953353
0.0442036
0.0516544
-0.0122967
8.92897e-25
0.0174439
0.0377507
0.0568404
0.31118
0.0974618
2.04171e-36
-0.00330456
0.0156311
2.12281e-30
-0.0685519
3.83979e-39
3.07838e-39
0.0215323
-0.0113921
-0.0136528
-0.0209451
-4.90971e-39
0.0588563
8.77574e-28
-0.0763507
2.04624e-27
0.0625508
-5.43569e-36
-0.0728828
-0.0132983
0.00821888
4.30405e-57
0.0921016
-0.0419867
-1.14768e-28
0.0139958
-0.0712264
0.0195374
0.0106563
1.99003e-36
-0.00267886
0
0.0199626
-0.246635
-0.0265625
-0.0893243
0.0508932
-0.122357
-0.0305949
-0.0041114
0.0191405
-4.18758e-42
-0.0327408
0.125821
-0.00430567
0.00549159
0.0507424
2.04624e-27
-0.0451059
9.07583e-60
-1.60864e-26
-2.02035e-39
0.0834488
0.262309
-0.000446543
-0.0342746
-0.00888623
0.0287543
-0.00430567
-0.034433
-1.29558e-34
4.30405e-57
-0.0308708
-7.3388e-27
-0.115215
3.07838e-39
0.064363
1.52747e-25
-0.00430567
0.0311713
-0.00888623
0.0162233
-5.63359e-30
-1.96263e-29
0.019843
0.040269
0.0185447
-0.0612541
0.00785365
-0.00888623
0.0185913
0.0668307
-0.14752
-0.10064
-0.0215669
-0.0210708
0.0317988
-0.0296099
-0.00990616
0.162786
-0.00897707
-1.52682e-29
1.22503e-57
2.35906e-29
-1.04082e-29
-0.0476172
0.10246
0.142374
-0.0338231
0.00490405
0.0131274
0.000620646
0.0771173
0.0998641
0.193426
-0.00888623
-2.02035e-39
-0.073284
0.0296882
-0.00172038
1.03809e-256
-0.0506731
-0.0563527
-1.94662e-321
9.14021e-322
-0.0917244
-5.9573e-28
9.14021e-322
-0.0322712
-0.043741
1.48436e-26
-0.0155182
-6.02341e-13
-4.52802e-26
-0.0155687
-7.82438e-34
0.0126071
9.07583e-60
-0.268612
-0.27148
-0.087893
-0.0170598
-0.0160897
0.000620646
-0.0705129
0.268587
-0.00897707
0.0340836
0.360803
0.033911
0.022096
-0.0354638
-0.108304
-0.0293415
2.59587e-25
0.00756507
-0.011309
0.116355
0.00921646
-1.60864e-26
-1.83094e-37
0.0288316
0.0247867
-0.0203043
-0.0164023
-2.6e-27
-0.0147042
-0.0538751
0.0118485
-1.66686e-35
0.0339112
0.0549029
-0.117875
-0.0851273
-0.020056
0.0337425
-0.0254339
0
0.026626
-0.0140928
-0.0819546
-0.0149935
0.00527292
0.0122447
-4.52988e-36
-1.29558e-34
-0.0103432
-0.00414453
-0.0063216
-0.109799
-0.0170362
-0.00173501
-0.0214629
0.0307291
0.00626394
3.82229e-37
-2.02035e-39
-0.154506
2.58831e-25
-0.0135696
0.00104351
-0.261834
0.256013
0.012975
0.0471368
0
-0.0397275
-0.0140737
-0.0820246
-0.0140928
1.99003e-36
-3.03865e-28
-0.0210445
0.201273
-0.172525
-0.0274492
0.0783437
0.00756507
1.2433e-40
-0.0263036
0.0139958
0.00878494
0.00127946
8.80815e-27
-0.0516259
0.0224052
0.00606028
0.10738
-0.0113921
-0.0251119
-0.0774244
-5.9573e-28
-0.165154
-0.00737183
0.113915
-0.0072257
0.0301518
0.0118485
0.0235722
1.39651e-111
-0.374454
0.0315703
-0.0105468
-6.71929e-322
0.101057
3.32766e-37
-1.09122e-26
-0.029171
0.0353241
0.0297776
1.22528e-321
-0.00944232
-0.0875398
-0.000669259
0.00308826
-0.0502666
-3.47632e-31
-0.0312576
0.138427
8.01553e-28
0
-5.64061e-50
-0.027187
0.0118485
-0.0113921
5.44914e-26
0.0339112
0.00296154
0.129409
0.156599
-0.149536
4.75348e-112
-0.0935702
0.0697739
-0.0425074
0.0295497
0.0296882
-0.0113921
0.0215658
-2.67233e-34
-2.02035e-39
6.91232e-37
0.121126
-0.0215669
-0.0348449
-0.0604335
0.0211292
0.0817898
3.83979e-39
0
0.394359
0.0072454
0.00313567
0.0123647
0
0.391406
6.23351e-58
-0.0205035
-2.19099e-34
0.0192359
0.0139958
-0.0113921
2.58831e-25
-0.0857585
1.22789e-55
-0.023448
0.0147402
0.0285426
3.83979e-39
-0.0282981
-0.0323163
0.0288076
-0.0580625
0.745084
0.724755
-1.29558e-34
0.0412316
-0.141913
0.0246878
-0.0140928
-0.0265457
-0.0407832
-6.49726e-33
2.00895e-109
-0.0946349
0.0114945
0.0382936
-0.0177571
1.12894e-36
-0.0656765
-2.3957e-26
2.27825e-26
0.0624316
1.52747e-25
7.36158e-322
0.0407986
-0.0435068
-0.00748503
0.064363
-0.0418712
-3.7926e-49
0
0.00919434
-0.0170362
-0.0234937
0.0317959
0.000534768
-0.326676
0.0213347
3.07838e-39
-0.0716765
0.0877446
0.0480498
5.64629e-111
-0.171498
0.0122447
0.0195341
0.000868052
-0.0669237
2.00663e-37
-1.92258e-28
0.0195341
0.0150642
-0.00737183
2.58831e-25
0.00606028
0.00323942
-0.0654281
-0.0137158
0.0415926
0.0185829
0.00410858
-0.029378
0.0262405
0.0462552
-0.0147042
0.0138391
0.234808
0.0350756
0.104632
-0.223982
1.22503e-57
-0.073284
0.00107449
0.28224
-5.33932e-43
-0.0333157
0.0844369
1.69196e-28
0
0.014676
7.46478e-56
2.11865e-30
-0.0252555
0.0178136
-0.0321052
-0.00339146
-0.050831
0.136032
-0.0467378
0.00805124
-0.0560725
-0.150112
-0.0905028
1.03824e-29
-0.14698
5.38705e-27
-0.0664875
0.00811884
0.0538051
-0.026056
-0.0595415
-0.0632581
-0.00401451
0.165816
0.585746
0.0855667
0.0163655
0.0214409
6.26483e-30
-0.0123382
-0.0170362
-0.0265457
0.0126353
0.025115
0.0892112
-0.0591532
-0.0543239
0.000998698
-0.0153065
-0.105535
0.0178136
-0.0136528
-0.00944232
-0.00277401
0
0.0438783
0.00280462
0.00318455
-0.0210257
0.0456694
0
-0.00330456
-0.0458686
0.0299411
-0.117792
1.62418e-28
-2.02035e-39
-0.0797643
-1.34386e-321
-0.213569
-0.0580225
-6.61931e-42
0.19127
8.98281e-25
-0.0523623
0.152056
-0.0113921
0.244154
-0.0278611
-1.87372e-26
-0.118813
1.50553e-25
0.0260258
-0.0221437
0.0610391
-0.0703611
-0.0579905
-0.0818721
0.00359698
3.83979e-39
0.0817564
0.0285459
-9.31312e-44
-0.131365
0.128923
-2.02035e-39
0.0978891
-0.0157398
1.35112e-39
0.00564635
0
0.0150865
0.00417935
0.0881926
0.00110265
6.44997e-56
0.0342626
-0.0825336
-5.9573e-28
-1.56368e-27
0
3.87158e-58
0.00313567
0.0176484
-0.0191135
0.0170863
-7.18932e-34
1.42291e-321
5.24216e-30
-0.040959
3.2588e-27
-3.24893e-41
-0.108433
0.0428149
0.0565469
-6.71929e-322
-0.0221779
-0.0503787
0.0463491
-0.00888623
0.0632491
1.71636e-26
6.06415e-27
-0.00380478
0.043027
0.0292311
0.0344575
0.0210727
0.0640677
2.03338e-113
0.0139958
-1.29558e-34
0.0442488
-0.00424538
0.013115
2.96456e-29
0.0322052
0.00586551
-0.00183902
0.0180777
-0.0660511
0.0283936
1.68228e-37
0.0599937
0.0395497
-0.00897707
0.0233792
0.007246
8.24841e-29
-0.0105468
0.0297776
9.14021e-322
0.0317959
0.102001
-0.0615116
-0.0770406
0.342246
0.151038
0.0358344
3.22136e-319
0.0415926
-0.0299105
0.0217062
1.61433e-28
-0.0010386
0.0139958
-0.0315103
3.82229e-37
0.0125942
0.00899855
0.0116253
-0.0196256
-0.0103406
0.0199626
-0.0259893
0.178177
0.0648633
-0.0243653
0.000375302
0.069666
0.00953297
0.264303
0.107798
-0.0270204
1.16105e-321
0.0553218
0.0681077
-0.15456
2.68067e-26
-0.0380815
0.00359698
-0.0129218
0.0470929
0.126374
-0.129187
0.0700207
1.54969e-40
0.0498584
-0.0734354
0.359791
-0.00649667
0.0357199
-2.63048e-40
6.23351e-58
0.125579
-0.00330456
-4.26993e-26
-0.0333068
1.68228e-37
-0.012292
-0.0177201
-0.0103406
-0.0201214
-0.170142
-0.0553987
-0.00339146
-2.96552e-57
0.00527292
0.144576
0.0574478
0.0413403
7.36158e-322
-0.152557
-0.0672446
0.0774787
3.64943e-56
-0.495253
0.0543151
-0.0104944
0.326778
0.142789
0.00243663
0.0367409
0.0294377
-0.0433576
0.0481385
-0.222183
-0.0994049
0.0643853
0.00586551
0.077227
0.0926125
0.0339112
0.00816029
-0.163842
0.0197025
-0.00911092
0.0466992
-0.0105468
0.0268641
-0.00204293
9.14021e-322
-7.3388e-27
0.0266633
-0.0432781
0.0106563
0
-0.00381607
-0.0133092
-0.000669259
0
0.137524
-0.0309562
-0.000297914
-2.02035e-39
0.019716
0
-1.60864e-26
0.0156311
-2.3041e-30
-0.0567657
-0.0134924
0
0.0126413
0.00510957
-0.023939
5.53705e-25
-2.81688e-38
-0.105612
-0.0586691
-0.0538934
4.47182e-28
-0.0140928
0.0197025
0.0468673
1.63295e-26
0.102985
-0.0409339
0.00479592
2.68342e-28
0.00606028
0.0511378
-0.0327051
0.0285084
0.156468
-0.0972865
0.027678
4.26891e-29
0.0214679
0.0139958
-0.105927
0.040962
0.103949
-0.029378
5.86783e-29
5.38705e-27
0.00528008
-0.20796
-0.0215184
0
-0.0654281
-0.0104944
-0.0235149
-0.00748503
-0.022979
0.0382045
-0.023939
0.0651085
-0.030366
0.0298358
-0.0806349
0.159082
-1.52682e-29
0.0703358
2.62878e-55
0.0139958
4.7213e-37
-9.88131e-322
-4.26993e-26
-0.00994171
-0.00870291
-0.218155
-0.00888623
-0.0848399
0.163722
-0.0836752
3.1869e-41
0.0476613
-0.115543
-2.79267e-28
0.0191555
0.0403168
1.12894e-36
6.73746e-39
-0.00911092
-0.0365347
1.21287e-38
-0.0127516
0.00756102
4.17373e-259
-0.000939407
0.0774787
1.07714e-30
7.36158e-322
-0.0271792
-0.0345803
-0.0249066
2.00895e-109
0.020815
0.0548914
0.0638248
0.0980229
0.131511
0
-0.000735211
-0.0261141
1.02717e-37
0.0489509
-0.0178591
0.0504625
0.0437778
-0.0341011
-0.00888623
-0.0281376
1.5477e-29
0.0116617
0.0500365
0.0297216
0.0197025
0.127991
-0.00817732
-0.0656551
0.0238597
3.56515e-59
0.0388556
1.33029e-24
0.000315847
7.36158e-322
1.07843e-30
-0.0133964
4.17373e-259
1.87075e-38
0.0384852
-2.02035e-39
-0.183739
0.139033
0.007246
0.0245436
-7.47844e-34
0.00485975
-0.00897707
-0.0203043
2.11162e-55
6.19707e-37
0.0242087
-0.00911092
1.5477e-29
-2.7536e-41
-0.149715
1.08978e-24
-1.52864e-32
0.0452283
-5.9573e-28
0.00119277
1.99003e-36
2.59587e-25
0.0113876
-0.0691383
-0.010197
0
-1.30764e-31
4.59938e-39
-2.02035e-39
-0.0528409
-0.151912
-0.0303536
-0.0579403
2.58122e-28
0.0700207
0.0323533
0.0134275
-0.0585554
0.0189341
0.0170768
0.0694366
1.07366e-30
0.0591276
0.00613338
0.102561
4.17373e-259
0.0107239
0.000620646
1.69196e-28
0.0397381
-0.0398615
-0.0288459
-0.0410538
-0.022618
0.01259
0.000315847
-0.0191028
-0.0322712
0.00359698
1.53782e-25
0.0299411
3.87158e-58
0.0643853
6.19707e-37
-0.105109
0.0822864
-0.017861
0.0373992
-3.58753e-69
1.16105e-321
0.00197628
1.48436e-26
0.0202657
0.0152693
-0.0203043
1.13927e-29
0.0411271
0.097228
0.0854716
0.0139958
0.0896707
0.0780239
0.0259202
0.0918256
-0.0488889
0.0265907
0.0343843
1.61433e-28
0.00756102
-0.0338231
-0.0662929
3.22136e-319
0.00548437
-0.0199397
0.00107449
-0.0103432
-0.0703611
0.141855
0.0311687
0.00244159
-2.02035e-39
-0.0734529
-0.0458756
-2.02035e-39
-0.0341773
0
0.0701879
-0.0730316
1.61433e-28
0.00269186
0.0505005
-4.60289e-28
0.00197628
0.00104351
-0.0141826
0.000272574
-0.0149267
0.00359698
-8.15367e-38
0.107404
-0.0151447
0.00269186
-0.0166929
0.0607407
0.00485975
-0.0316268
0.111187
-0.0355469
0.0102551
0.172277
0.00313567
-0.0113921
-0.113565
0.01259
6.26617e-30
-0.0325529
0.102505
-0.176646
0.088718
0.0618413
-0.240968
4.30405e-57
0
0.0289217
-0.0505115
6.43443e-26
-0.0566684
5.7759e-40
0.0638917
-4.90971e-39
0.0975386
-0.00897707
-0.0846502
0.0195275
-0.200961
-2.28338e-39
-0.150733
0.0312644
0.0782869
2.27825e-26
0.0498584
6.23351e-58
0.0356094
0.000620646
0.0681843
0.0509993
7.93682e-25
0.17822
-0.0193286
-0.00210164
-0.0174992
0.00606028
-0.00663254
-0.0338819
0
0.0293703
0.0341611
1.53782e-25
0.00812017
-0.0439825
-0.00897707
-0.0667977
0.0404893
-0.00269884
-0.00534426
-0.00172038
-0.0183984
0.092642
0.0911676
0.0123647
0.0296882
-1.92258e-28
0.000620646
0.00393941
-0.135196
0.0235722
0.0753861
0.0858884
0.0389189
-1.04084e-29
2.34816e-28
-0.022618
-0.142304
-0.218824
-2.79267e-28
0.0234763
0.12063
-1.46618e-28
-0.0923537
-0.0390288
0.0618109
0.0297776
-0.050996
0.0695209
2.03338e-113
-0.11864
-0.0399524
-0.0615788
0.0397381
0.0192359
-0.0143556
3.92057e-25
-0.116119
-0.00161952
0.0323533
-2.02035e-39
0.0100099
0.172336
0.0908195
0.0209958
0.0812791
-0.0478405
0
-0.0144367
0.00559925
6.5195e-25
0.0188916
-0.000446543
0.00308826
-0.0191135
0.0233992
1.13927e-29
0.0618109
2.58122e-28
-0.00441915
-0.0160897
-0.0331467
1.66829e-37
-0.0634142
0.0150865
0.0233992
0.0415926
0
-0.0103406
0.160486
-0.050996
0.0339112
0.00323093
-0.0742885
-0.0411844
-0.0641079
0.0357953
-0.0354638
-1.03413e-36
0.0467822
-0.00277401
5.11415e-27
0.0849167
0.0165989
0.0118485
-0.0397275
-0.00146988
-0.0439825
0.0315145
-0.0010386
-0.0671777
-0.0907738
8.49652e-26
-0.0125969
1.85233e-29
-0.0667917
0.00880842
8.01553e-28
-2.41155e-26
-0.0192141
-2.02035e-39
0.197314
0.0760107
-0.0320959
0.21649
-0.0170362
2.27825e-26
0.140957
-0.0326228
-9.31312e-44
0.0158433
0.0949213
0.0568404
0.00359698
-0.0149345
0.10511
0.0598883
-0.0205801
0.0157676
-0.0408514
-0.00330456
0.0738454
0.0291553
-0.0893466
0.0373992
-0.0518215
0.00909944
-0.00339146
-0.0597975
-0.0898041
8.15208e-322
-0.00330456
1.99003e-36
0.0974253
2.38463e-24
-0.0140928
-0.0452001
0.0410433
-0.00644464
-6.09176e-27
0.0389858
-6.09176e-27
-3.24893e-41
0.00485975
-0.0701766
0.00485975
1.66829e-37
-0.00663254
-0.0326214
0.068878
-0.0216379
-2.02035e-39
0.100151
0.0287005
-6.06869e-54
0.132545
-0.0058156
-0.00328631
-2.02035e-39
-1.3567e-30
0.227024
-2.81688e-38
0.0567805
5.30916e-38
3.94362e-25
0.00099377
-0.0210708
-0.0125969
0.0590701
0.0599937
0.0422014
-1.01943e-266
6.23351e-58
3.16004e-41
-0.0525105
0.043203
-0.0271792
0.0314046
0.100842
-4.25364e-41
-0.0265457
-0.0164023
-0.0173964
-5.98181e-33
0.0127839
0.157036
0.0252878
0.0290807
0.0317488
0.0268641
-0.103521
0.00756102
1.16105e-321
-8.15367e-38
0.0016825
2.76288e-29
-0.167455
-0.0265457
-0.00172038
-0.0967042
-0.0244096
0.110559
-0.374864
4.44508e-59
-0.0403154
2.10351e-28
0.0642766
0.0118489
-0.0716135
0.00391321
-4.03977e-27
-0.150781
0.0303789
-0.121161
5.53705e-25
0.100431
-0.00888623
0.0279227
0
0.0314885
0.112222
-0.00968116
-0.144772
-0.0997351
8.98019e-26
-1.52682e-29
-0.0931627
0.0043822
0.0265907
1.98727e-56
0.00313567
-0.0686109
0.0296882
-0.00811964
0.00821563
-0.00147697
0.013115
0.0290807
-0.0558965
0.0337425
-3.88788e-37
-0.0408514
-0.109499
0.0284666
0.0195374
6.19707e-37
0.02952
-0.00888623
-0.0872227
0.032226
0.016725
0.0241361
-0.0775848
0.0235722
-0.00817732
0.151371
0.0233992
6.19707e-37
0.0170787
0.0379238
-0.0995867
-0.0307201
-0.0016373
1.96647e-109
2.47622e-37
0.0866456
0.0337425
0.0297776
-0.117413
-4.29223e-31
-2.70395e-38
0.0241547
-0.022618
-0.0221437
-1.19454e-26
0.0238887
-3.88788e-37
-4.18758e-42
0
-0.0416706
2.96456e-29
0.0651106
-1.3481e-31
-0.0151512
0.0401134
0.0380547
1.35112e-39
-2.02035e-39
0.0337425
-4.60295e-28
-0.010197
-0.0214629
0.0651717
-0.0538934
-0.00339783
0.0862851
0.101767
0.0277106
0.0416824
0.0643599
0
0.0126353
0.0411271
0.0520805
0.108627
-0.49697
0.02969
-2.81688e-38
0.0988428
0.0145055
0.110698
-0.00681881
1.54113e-183
-0.0309562
0
0.169059
0.0670484
0.00635364
0.0379818
7.93682e-25
2.62878e-55
-0.0214629
0.104287
-0.011309
8.08909e-111
8.08909e-111
0.0896406
-0.00888623
0.0141731
0.0166419
-0.380394
-0.0218009
0.000620646
0.0107804
-0.0716578
-0.0710839
-0.0244461
0.0235722
0.0566992
1.14705e-38
0.080691
-0.0383695
0.0296882
-0.0289225
-1.75569e-27
-1.80302e-42
0.0649674
-4.18758e-42
-0.0158078
-0.041885
0.000620646
0.0844124
0.14261
-0.0140928
-0.0280019
-0.0757869
0.0197025
-0.086528
-0.00277401
-0.0391553
0.0507338
-2.6e-27
0.0822864
0.00379407
0.00624192
-2.02035e-39
-0.0747175
-2.96552e-57
-0.00888623
-0.0160897
-1.63536e-321
-0.0133964
-0.0557258
0.117493
0.108875
-1.14768e-28
-0.0177201
-0.0102663
-0.0723319
-0.0362474
0.0797439
0.0754381
-1.46618e-28
-0.171462
0
-0.0701111
0.0766515
0.0628567
-5.18209e-36
-0.0495929
0.0135662
-0.0511394
-0.0439825
0.00821563
-0.61512
-0.00897707
-7.82438e-34
-0.00990616
-0.15478
0.0323171
1.22789e-55
-1.29558e-34
0.193619
-0.0740351
0.0103313
-1.94662e-321
-0.045678
-3.35747e-37
-0.145413
-2.83344e-33
0.0214679
0.319977
0.0224052
0.0468673
0.00821888
2.58831e-25
-5.64061e-50
0.0139135
0.103373
0.0235608
-0.0295508
-0.0147042
-0.190369
-0.0484856
0.0175948
-0.0755294
-0.061902
0.00359698
0.0113048
0.0188306
0.101277
-0.229405
0.0975803
0.0416307
9.14021e-322
-0.0338231
0.124063
0.019544
0.0709888
-0.0245597
2.68067e-26
0.271327
-0.0111786
1.69196e-28
0.00586551
-0.148208
-0.0210708
5.53705e-25
-1.3481e-31
-5.9573e-28
0.0553322
0.0613668
0.00127946
0
-0.0278611
-0.0744502
0.0757301
-9.31312e-44
0.0324488
0.035341
-0.026056
0
0.121581
0.0905597
5.7759e-40
-0.0384778
0.00535037
-0.0424516
-2.45145e-26
0.0163836
-0.0139703
2.09607e-56
0.0139958
0.0522535
-0.169158
6.79931e-38
1.99003e-36
-0.0202229
3.17307e-41
-0.118473
-0.0187236
0.0197025
-0.0439825
-0.0535693
4.47182e-28
2.10351e-28
0.1182
0.152338
0.0298358
0.00223719
8.80815e-27
-0.000889786
-0.124952
0.0256457
0.0678614
0.0259037
0.0147997
-0.0251323
0.0770594
-1.77985e-27
-5.24412e-32
0
-0.0559855
-0.0538934
0.0410889
0.0290807
0.109235
0.0618109
-0.030197
-1.29558e-34
-0.0215669
0.0619328
-0.0235149
0.0297216
-2.53468e-30
-8.15367e-38
-0.00645089
-0.0529744
0.0544256
-0.0338231
1.85233e-29
-0.00210164
0.0233992
0.00244159
0.065274
0.00365555
0.0853925
0.00474584
0.0324818
0.000620646
0.036423
-0.0582163
0.0410019
0.0380359
0.02969
1.96647e-109
0.0128662
4.67204e-29
0.0214186
-1.60864e-26
0.110004
0.0139958
3.22136e-319
1.2433e-40
-8.46295e-35
1.96647e-109
-0.0257708
-0.0930145
-0.0913578
1.98727e-56
7.36158e-322
0.0467822
-0.0388248
-0.149957
0.0116107
-4.29225e-31
2.27825e-26
0.0284666
-0.0695776
0.0149154
-6.09176e-27
0.0550574
0.0358344
1.08978e-24
0.0743189
2.4727e-25
0.102573
-1.3481e-31
-2.02035e-39
1.42291e-321
-0.0182898
0.0107239
-0.0518215
0.118646
0.0562822
0.0978891
-2.4031e-27
0.00586551
-0.0322712
0.0175948
-0.089421
-0.0243712
-0.0316268
1.48436e-26
3.17015e-30
-0.104235
-0.0142857
0.0107239
-0.0158726
0.0817564
0.0351573
0.123481
-0.0513258
-0.0989378
0.112411
1.08978e-24
0.0256171
-0.377247
0.100361
1.07366e-30
-0.158377
-0.00927315
8.98588e-39
0.032226
-0.0809644
2.47622e-37
0.124059
0.0934789
0.181161
-9.1328e-267
0.0735707
0.0649041
0.00606028
-0.0138469
-0.0140928
-2.53061e-49
0.0887231
-2.02035e-39
-1.94662e-321
-6.96955e-34
0.0901066
0.151319
0.0259202
0.161529
2.12281e-30
0.138002
8.01553e-28
-0.0539921
0
0.0415141
-2.96552e-57
-0.0229986
-4.94374e-27
1.1223e-25
0.218773
0.0394806
0.0107239
-0.0133092
8.60436e-26
1.22789e-55
-1.721e-37
-5.18209e-36
6.43443e-26
0
2.61224e-25
0.0417116
0.0515896
-1.56368e-27
0.231585
-6.62648e-37
8.24841e-29
0.0388556
5.64629e-111
0.000981181
0.0380269
7.93682e-25
0.0652498
0.0298358
0.187698
0.0213347
-0.33946
-2.02035e-39
0.0757347
0.0156311
-0.0010386
-0.0755294
6.5195e-25
-0.151732
0.105519
-7.01671e-36
0.205788
0.0226237
-0.10064
-0.0591354
-0.0567657
0.00404148
-0.00897707
-0.0140928
0.0257996
-0.0341238
0.0366477
0.0383138
-0.0274492
-0.128352
0.00169514
-0.00897707
-0.101404
0.00821888
-0.0111786
0.158196
0.000620646
-5.24051e-32
0.0471368
-0.0735255
0.00694569
8.92897e-25
-0.00430567
0.0447349
1.75423e-38
-0.0690805
1.96647e-109
-8.46295e-35
0.0195341
0.0163836
0.0543151
0.0293703
-0.000889786
-0.000446543
1.69196e-28
-0.042883
0.102288
-0.0561731
-0.236983
-0.0403154
-0.036897
-2.02035e-39
-1.30623e-42
0
6.06415e-27
1.29437e-265
0.00384757
-0.0843347
-0.102873
0.298127
0
-0.0485097
-5.63359e-30
4.21272e-30
-0.0140928
1.08743e-241
0.144283
0.0134275
0.0721555
-0.0671677
0.0676827
0.0107248
-0.0300481
0.000620646
-0.0561731
0.0944633
4.47182e-28
0.0201746
-0.0256616
0.123858
0.0207367
-0.154291
-7.3388e-27
2.51067e-27
0.0834857
0.0358344
0.158582
-0.0350192
-6.06869e-54
0.0291352
0.0218374
0.302899
-2.86319e-33
-0.0010386
0.0881103
-0.0916178
0.0019071
0.00606028
0.0487945
-0.00430567
0.134409
0.00491234
0.0215323
-0.0278585
-0.0524585
-0.0662445
0.0647255
4.27277e-06
-0.0671777
3.17015e-30
0.00732497
2.58122e-28
0
0.00271549
-0.021664
0
-0.0755294
2.12281e-30
-0.112472
0.0139958
8.98281e-25
-0.0153293
-0.0860931
-0.0942956
0.127186
-0.149536
0.0550201
-0.265056
-2.6179e-47
-0.104597
0.0248762
0.0297216
-0.028414
-0.0620186
0.0574384
-1.80302e-42
-0.0873442
-1.4822e-321
0.0317959
0
0.0350756
-0.0474153
-0.0203043
-1.4029e-64
-0.0672423
2.10351e-28
-0.0160897
0.0544256
-0.107067
-0.444863
-2.02035e-39
-0.0435297
-0.041739
0.158277
-0.0354485
0.0332132
0.0351573
0.00547243
-0.204622
-0.450685
6.5195e-25
0.00536217
-0.0172769
-6.17507e-39
-0.0192888
-0.0654915
-0.0637865
-0.260331
-0.073284
-8.19075e-27
0.0487945
0.0353241
-3.7926e-49
-0.122157
-0.042312
0.0447349
-0.047825
-0.0280019
-1.45128e-32
-0.00175047
0.00857443
-0.0105468
-2.02035e-39
-0.0147042
-0.00480378
-2.95305e-26
0.0947783
0.0650819
-8.32191e-27
2.47622e-37
0
-0.0010709
-0.0411844
0.0241117
-0.011309
-0.0195348
-0.195796
0.0651717
-0.0323947
0.13034
-0.010197
-0.0010386
0.144426
-0.0177201
-7.81872e-29
-1.52682e-29
0.0209958
0.189796
0.00472506
-3.7926e-49
-0.026444
-3.7871e-33
0.0309568
-0.0757783
-0.0338231
0.0394485
0.0613668
0.0460639
0.026909
0.0246878
0.0297776
0.0336762
-0.00318414
0.0365175
-0.0784756
-0.0141171
0.000620646
-0.00039412
0.0487945
8.24841e-29
-0.0327051
-0.00737183
0.0199626
0.0942019
0.077344
-0.0570104
0.00228571
0
0
0.0278465
0.0139958
-0.0315103
-0.0787718
2.84535e-12
-1.92373e-26
0.229883
-0.128868
1.1223e-25
0.0252878
-0.623203
-0.148173
-0.0338231
-7.3388e-27
3.62968e-27
0.00404148
0.12865
0.0214679
0.169085
0.119279
0.138902
4.67204e-29
-1.4822e-321
3.29797e-112
0.0332132
-1.4029e-64
-0.0231775
-0.0273387
-0.0656944
-0.0626912
-6.71409e-37
4.59938e-39
-0.000536142
-0.027272
1.85858e-28
0.00574206
0.0214679
0.0295497
-0.00799247
-0.0393976
0.0900523
0.0535898
4.59938e-39
0.0296882
-0.21798
-3.58753e-69
0.0118489
0.0341611
-1.83094e-37
-0.0283746
3.17352e-41
6.26617e-30
-0.0155687
0.0506947
-0.017103
0.0197025
-0.0689245
0.0733906
0.0139239
-0.0010386
-2.41155e-26
0.0156311
-0.0866116
-3.58753e-69
-0.0810351
-0.0802487
0.039464
-1.41797e-321
0.067128
-0.0140928
0.148809
-0.00430567
0.0064352
-0.0193619
-0.0103406
-0.125136
0.0128662
0.048106
-6.06869e-54
-0.0205171
2.58831e-25
0.118373
6.5195e-25
0.0907335
0.0600598
1.99003e-36
0.0256171
2.47622e-37
0.0481117
0
-0.0859793
-0.0347138
-0.0408514
-2.02035e-39
0.0287538
0
-0.0274492
-0.0404298
-0.00760534
0
0
0
-0.00330456
0.02969
-0.0263036
-0.0372112
0.0725978
0.00821888
0.065309
-0.00838357
0.0323533
0.0934401
-0.0435577
-0.0125221
-0.0571341
-0.00271419
-1.71408e-35
-2.4031e-27
-0.637228
-0.176058
-0.017103
0.0337425
-0.0408514
-2.81688e-38
0.0192359
-2.81688e-38
0.0150865
-0.602128
6.5195e-25
-0.0511638
-0.203427
4.83443e-25
0.0156311
0.0657792
-0.02529
0.0118709
7.41167e-26
0.31006
0.0777659
0.0638248
0
-0.0523623
0.230724
0.216112
0.0272114
-0.0332025
-0.0293415
-0.141944
-0.00441915
0.00482002
-0.0209451
-3.24893e-41
-5.03008e-28
0.121633
0.0161539
-6.62648e-37
3.64943e-56
-2.6179e-47
-0.0162114
-2.02035e-39
-0.00681881
-0.0941883
-0.0133092
-0.0797528
-1.48714e-321
0.059799
0.0642444
4.98851e-25
0.0478476
0.0265907
0.00523066
-0.0340123
-9.7353e-32
1.08743e-241
0.0345988
-0.0322712
-6.17507e-39
0.0688076
0.267505
-0.16499
-0.235608
9.5588e-28
0.0723667
-1.76126e-26
-0.0271792
0.00313567
-0.00817732
0.0214679
-3.58753e-69
-0.0833886
0.0404893
-0.0139703
-0.0238164
0.0139958
-0.0641054
0.0818342
0.0724372
0.0833597
0.00586551
0.158977
0.0197025
0.000620646
0.00171253
-0.00870291
-0.205335
-0.112845
0.0362414
0.194214
-0.0326689
6.19707e-37
0.0323533
3.47438e-27
0.0351573
-0.00119933
0.0798606
0.0259202
-0.0105468
0.01259
0.0638248
0.0323533
8.3966e-25
0
0.0372431
-0.0576043
-0.0813904
3.16004e-41
-0.00897707
0.00107449
-0.0219407
-4.60289e-28
-3.58753e-69
0.00256614
-3.35747e-37
0.0619829
1.07366e-30
-0.0966228
-2.02035e-39
0.0385859
0.0447349
0.0341611
0.0198175
-0.0683872
0.00785517
-0.139962
0.0230161
0.0511946
-0.0140928
-0.0763558
6.26617e-30
0.0625508
-0.0382358
-0.0219973
-6.06869e-54
3.1869e-41
-0.0691383
0.0150865
0.00821888
-0.00584303
-0.112965
5.58412e-25
-0.00344258
1.5477e-29
-0.0160897
-0.0140928
-0.0328156
0.0462552
-0.017861
0.007246
0
3.91389e-25
-0.0155687
0.111442
-0.0364279
8.01553e-28
0.0612422
0.0301489
-0.0880691
0.14548
0.0591651
-0.00897707
2.09607e-56
-0.0540791
1.91167e-39
-1.3567e-30
0.00197628
0.02969
-0.15567
0.00528008
-2.41155e-26
-0.00644464
0.10738
-1.94662e-321
0.0953603
0
-0.012232
-0.00277401
0.0256171
-2.02035e-39
-0.00799247
-0.0412175
3.16004e-41
0.0161723
9.5588e-28
-0.00888623
-0.0637865
0.0285459
-1.29558e-34
0.0738454
0.0415382
-0.0105468
-2.41155e-26
-0.000669259
-0.0435297
8.15208e-322
-0.00897707
0.0669767
0.0292066
-0.0291883
-0.138093
0.0376847
-0.0641196
-0.0289225
-0.0103406
0.00862817
-1.87372e-26
-0.029232
-0.026444
0.224084
0.0385647
0.0150865
0.0204619
0.00765764
0.0273403
0
0.0365158
-0.0755294
-0.107345
-0.431991
0.00862817
-0.0475003
-0.0682774
0.0191555
0.290051
0.0416616
-3.93377e-39
-1.87372e-26
0.0351499
1.87075e-38
0.0388556
0.100305
0.0638377
-0.0806349
-0.00237972
1.13464e-24
-0.0470227
-0.0338231
0.0345855
-0.00888623
-0.0140928
0.0289217
0
-0.0338231
-0.158252
-2.02035e-39
-2.02035e-39
0.0566171
0.0361879
-0.0278611
0.0457102
0.0265976
1.2433e-40
-6.02341e-13
-0.0586835
0.16399
-0.0268044
-0.0241073
0.116286
0.0156311
-0.0559855
-0.0261646
0.00916248
-0.00278218
0.0118489
0.00412139
0.043203
-3.35747e-37
0.0104189
-0.0380478
0.127776
0.00527292
-0.0205801
-0.0647458
0.00381552
0.0388556
0.00880842
0.0653538
-0.0252737
-1.60864e-26
0.123126
-0.225781
-0.0767728
-0.176918
0.0127981
0.0109075
-1.94662e-321
0.0232125
0.0134275
0.224278
0.105209
0.0226188
6.19707e-37
-0.0235149
-3.78755e-33
-0.0344874
0.0359847
-0.0289225
8.49652e-26
0.13888
0.0337425
2.36612e-27
0.0276954
6.19707e-37
0.00479592
4.83443e-25
0.153133
1.91041e-56
0.0742063
-0.286105
0.0119126
-0.03696
-0.0458686
0.0784947
0.0628149
0.0102551
0.0388556
-0.018313
-0.0520751
-0.125746
-0.0284874
-1.94662e-321
0.101087
-0.00141515
7.41167e-26
-0.0419935
-0.0155687
0.053259
-0.0327051
0.115311
1.07714e-30
0.0471368
9.71019e-25
-0.0201942
0.107661
-0.194411
2.76288e-29
0.011926
-0.0454492
0.0664136
0
0.0266633
-0.0855462
0.0139239
0.0749557
-0.283455
0.0385647
0.0215323
-0.0342746
0.007246
0.0194506
0.0123647
-0.0140928
0.0238412
0
2.27825e-26
-6.17507e-39
-0.0496312
0.0359847
0.2263
1.35112e-39
-0.0763507
0.0511325
0.0118485
-0.0327051
0.000706846
-0.00320322
-0.0357969
0.0123647
-0.0409339
0.0156311
0.0345492
-0.0128071
-3.24893e-41
0.043203
-0.148987
1.35112e-39
-0.0173964
0.00491234
0.0446109
-0.240534
0
0.0199626
-0.0103406
0
0.0446108
0.199304
0.001247
0.0650552
0.0118709
-0.0103406
-4.26993e-26
-0.000322565
0.0317959
-3.24893e-41
0.0751686
-0.0175684
-0.0230143
-0.00339146
-0.110862
-0.0684163
-1.30623e-42
-0.00119933
0.152507
-0.0735498
-2.21636e-30
-0.0113921
-1.56368e-27
0.146664
0.0544682
1.98727e-56
-0.0162114
-0.0325521
-0.091952
0.0614965
-0.0998069
0.02969
-1.6458e-26
-0.139639
-0.0125499
0.0887231
0.0214679
-2.02035e-39
0.007246
-1.19454e-26
-0.0137185
0.00271549
-0.0603552
-0.0852256
-0.00230893
-0.0203043
-0.0329901
0.0139958
0.165203
-0.0196801
-0.0292673
-2.1479e-30
-0.0591519
0.0296882
-0.190369
0.0596102
0.0242087
0.00801482
3.87158e-58
5.7759e-40
0.0229937
2.96456e-29
-0.0315103
0.0732741
-0.0274492
0.0178895
0.203296
-0.0285034
0.103123
-0.0525105
-0.347677
1.46927e-27
-0.0271792
-0.0311551
6.19707e-37
7.93682e-25
-0.0238655
0.00313567
-0.0153293
-7.01573e-322
-0.0145669
0.0241443
0.142921
0.0123647
-0.0562839
-1.94662e-321
0.109841
0.087924
-0.00897707
-0.00252041
0.00124266
-0.041332
-0.0735255
0.0235071
0.0481385
-0.00364938
-0.0520876
0.000620646
0.00127946
0.0947058
-0.167762
-0.0113921
-0.0931627
-0.00897707
-0.00817732
2.46146e-40
0.069666
-0.00897707
5.58412e-25
0.0447349
0.0235722
-0.0360988
0.0379898
3.90587e-25
-0.116119
-1.79643e-33
0.0123728
-0.00979166
0.0235722
0.0405261
0.0114586
0.0690903
0.113158
0.00069191
0.0213962
-0.00748503
0.00559925
-0.0770406
1.98727e-56
0.170291
-1.72009e-12
-0.0195122
-0.0990136
1.39651e-111
0.0171375
-0.074978
0.0339112
-0.024088
8.26108e-39
0.00477497
0.0442036
0.0314952
-0.0313472
-0.0245597
0.29913
0.0474291
0.100288
-0.02195
7.83329e-57
0.0167096
-0.0111728
0.0506117
0
-0.00430567
0.0178357
0.0265907
-0.277309
-0.035976
0.00313567
-0.00332314
0.0494151
-0.0967286
-0.0114339
-0.0359521
-0.0397328
0.0713787
-0.0620074
-0.0113921
0.00816029
-0.0565163
1.53782e-25
2.68342e-28
0.00479592
0.169073
-2.41155e-26
0.0639201
-0.0327051
0.0178231
0.00586551
0.0351076
0.015318
0.00271549
-0.00430567
-0.0282981
-2.02035e-39
0.00559925
-0.0810539
-2.21636e-30
-0.125427
-2.02035e-39
-4.18758e-42
0.0139958
-0.0762578
-0.116315
0.0938702
-0.0409511
-0.0308719
-2.02035e-39
0.00961623
0.182334
-0.0931525
1.03754e-321
8.80815e-27
-0.0241634
-0.0216379
-0.0311496
-0.0327051
-2.4031e-27
3.90587e-25
-0.0431726
-0.0454166
-0.0178913
0.00313567
-0.0405329
-0.0408514
-0.0056752
-0.0975523
0.100431
2.96456e-29
0.0127607
1.32678e-36
-0.00888623
-0.0435577
0.0744231
0.099325
0.132785
0.0912247
0.0139958
0.216238
-2.02035e-39
2.36612e-27
0.0388556
-0.00911092
0.007246
0
-2.19099e-34
-0.399104
4.83443e-25
-1.77985e-27
0.120976
0.00485975
-0.0221437
7.36158e-322
0.00597322
-0.0203043
0.0411957
0.00437223
5.58412e-25
-0.0274492
0.111429
-0.0131397
1.99003e-36
-0.0127516
1.08817e-24
-0.0854454
0.0451194
-8.46387e-27
8.8224e-26
0.0269561
-2.02035e-39
0.0224052
0.0445555
0.0733906
-1.84144e-29
-0.000889786
0.0277421
-1.94662e-321
0.228408
-0.026337
-0.0200463
0.00359698
0.0156943
-0.0957765
-0.0113921
0.105418
6.23351e-58
0.0558636
-0.0265457
0.0240232
-1.92258e-28
-0.00878666
-0.0356598
-0.0133092
-0.0203043
-0.187378
0.0126071
-6.06869e-54
-0.0113921
-0.0210257
0.110727
2.38463e-24
-0.115511
-1.15663e-266
-0.0100458
-0.0104944
0.0186639
-2.02035e-39
-0.15803
3.66692e-38
0.083286
0.00200638
0.0364649
-0.0498224
-0.0044695
0.104516
0.0275003
0.0488553
3.17352e-41
0.0298358
-0.000889786
-0.0140928
0.184491
0.043027
-0.0502666
0.00756102
0.0323533
0.0494689
-0.0851273
0.0620244
-0.0531536
0.0916522
0.327379
-0.0113921
0.0150865
1.0791e-24
-0.00318414
0.0126353
0.0909862
-0.0466091
1.98727e-56
0
0.0107239
-6.02341e-13
0.0265907
0.0511325
0.0107239
-0.0125969
0.0914991
0.232144
0.383184
0.209737
0.0530125
0.00197628
-0.0615116
0.0529479
-0.0140928
0.0907987
-0.0103406
0.0323533
-0.114416
0.151162
-4.28508e-33
0.0195374
-2.6e-27
-2.96552e-57
-0.026056
0.0107239
0.153354
0.035341
0.377273
-0.124238
-0.112186
-0.0913865
1.91167e-39
-0.139525
0.0474291
-7.50483e-27
-0.0133718
0.0765823
-0.00277401
2.62878e-55
-0.00748503
-0.00380167
0.0156311
-0.0125067
0.139819
-2.79884e-29
0.0140889
0.0610391
-0.0790359
-2.96552e-57
-0.0484856
4.2033e-30
0.0259037
0.0721334
0.0414589
5.31461e-38
-0.0302139
-3.55727e-322
0.0313473
-0.0408514
0.00821888
0.0332132
0.0436792
0.10713
0.00501923
-0.0472584
-0.0203043
0
-0.0621625
2.09607e-56
-0.208253
0.0365175
-0.00391892
0.0120706
-0.0245441
0.0381732
-1.14768e-28
-0.124242
9.35943e-40
-0.00888623
-0.0140928
-0.0918563
0.0292066
-0.0113921
-0.0562632
0.0224052
0.0102023
-0.0308173
0.0615054
-0.0162114
0.213521
0.21903
-0.0379734
0.0434847
0.010843
-0.0332418
-0.0147042
-0.0244096
0.000620646
-0.0205801
-0.0113921
-0.00152243
0.00489009
0.00679052
1.08978e-24
-0.0247142
0.113231
0
0.0516544
-0.0875398
0.000620646
-0.374123
0.151068
-1.92258e-28
0.0515896
0.076684
0.0978891
-0.069725
-0.0111786
0.000620646
-0.047448
0.0750477
1.35112e-39
-0.324683
-0.0311741
-0.0370705
0.0356482
8.15208e-322
0.0944563
0.00756102
-0.017861
-0.0170362
-0.0559855
-0.0512675
2.57312e-28
0.0376847
-0.119344
-0.02529
0.125172
-0.0669237
0.0192157
0.0421794
0.083286
0.0384107
-6.58414e-29
0.264084
0.0404209
2.68067e-26
-0.0228989
0.0019071
0.02969
-0.0191135
-2.02035e-39
0.0552146
0.119122
0.00485975
-0.00694935
-0.0170362
-0.0937215
-2.4031e-27
0.0280012
1.07843e-30
-0.0272127
0.1125
0.0566992
-0.00847976
-0.180816
0.090405
-4.26554e-27
-2.02035e-39
0.0876855
-0.03438
0.0297216
-0.0113921
0.0030924
0.0490968
0.0347737
1.98727e-56
0.0323533
-0.0591821
0.0298358
-2.40968e-56
9.35943e-40
0.0292647
0.65715
7.36158e-322
0.0392339
-0.023939
-0.041332
-1.3567e-30
-0.0757869
-0.104114
0.0291553
-0.0338231
0.0123985
0.0633439
-0.0471242
-0.0425683
-2.02035e-39
-0.00888623
0.121443
1.54113e-183
0.0290807
-4.94374e-27
0.0145197
0.000562936
0.119279
0.119279
3.70419e-26
0.0379269
0.364223
-4.18758e-42
0.251537
-0.44871
-2.02035e-39
-0.0209451
0.00880842
-2.02035e-39
-0.00897707
-0.0549766
0.0343407
0.032226
-2.45145e-26
0.00756102
-1.9516e-30
0
0.0151034
-0.028414
-0.0675119
-0.0104944
0.0605346
0.000620646
0.0418757
0.047514
-8.15367e-38
-0.041459
-1.72009e-12
0.0238412
-0.0113921
-0.0147042
-0.0808182
-0.0245597
-0.0972138
-2.02035e-39
0.0622078
-0.00420143
2.38713e-28
-0.134419
0.0532821
0.043203
8.98019e-26
0.0899344
2.42854e-28
0.0152577
0.249291
0.0483662
0.0296882
0
-0.0962823
2.58831e-25
-0.123785
-0.0191135
-4.90971e-39
-4.60289e-28
-0.0481857
0.00231877
-0.103977
-0.0162114
-0.0408514
-0.139723
0.122574
0.00219653
6.43443e-26
2.61224e-25
-0.215349
0.0548914
9.78449e-28
-0.00335691
-0.0324255
-0.00663254
-0.0137158
0.0735707
0.0323533
0.0121583
0.0296882
0.0144611
2.76288e-29
0.0126125
0.000630176
0.000620646
6.5195e-25
-0.0322712
0.00281939
0.0180317
-2.02035e-39
-0.00817732
-0.038074
-0.0688337
0
-0.250185
-0.00940713
3.76899e-27
2.59587e-25
0.0143524
0.0324486
0.101317
5.58701e-25
9.14406e-25
0.0485357
0.0197025
0.156418
0.0295184
-0.0902683
0.201883
8.74759e-26
-0.212872
-6.0276e-322
-0.0641079
-6.71929e-322
-0.069725
0.0361
-0.00964965
0.0388556
0.0639842
0.0710238
0.0113231
-0.174002
0.0625508
0
0.0139958
0.229011
2.62878e-55
0.158145
-0.0139703
-0.0408514
-0.0300481
-0.017861
0.164065
0.0886571
-0.141083
-0.0629108
0.0918223
-0.0155687
-0.240085
0.000706846
-4.47191e-33
-0.0269937
-0.107021
0.0292768
1.52747e-25
0.0113428
6.19707e-37
0.044583
-0.00339146
2.58914e-25
-2.02035e-39
7.82754e-111
0.0403864
0.000620646
0.0226348
-1.29558e-34
0.000751337
-0.0637865
-0.0197547
-0.0509629
-2.02035e-39
0.036423
0.22549
0.0415926
0.000620646
0.0966427
0.0298358
-0.0423091
0.0337559
-0.0590207
0.00834244
4.57848e-40
-0.0523623
6.19707e-37
-0.0177975
0.0144871
-0.0103406
0.00821888
0.0487945
-0.00270821
-0.00889958
-0.0310516
-3.24893e-41
-6.71929e-322
-0.0286051
-0.00339146
0.00921561
-0.128385
0.0174439
1.42291e-321
0.014124
8.26096e-57
4.01052e-25
-0.0272923
0.0474291
0.0866115
0.0635852
-5.98181e-33
2.51067e-27
0.1558
-2.4031e-27
1.07843e-30
-0.0503015
-0.110507
-0.0177571
-0.044864
7.83329e-57
-0.00748503
-0.0350676
-0.0474153
-0.179429
-0.0221437
0.0394485
0.0439745
5.64629e-111
-0.0748655
0.00821888
0.00280462
-4.56618e-37
0.0150983
0
0.0450407
8.26108e-39
5.32716e-28
-0.0308708
-0.00910608
0.035341
-0.00888623
-2.02035e-39
0.0617232
0.0156311
-1.29558e-34
-0.0385147
0.123425
-0.108768
-0.0113921
-0.00494262
-0.0707249
0.02385
-0.0576705
0.0380845
1.64928e-25
0.00271549
-0.117875
-0.083396
-0.0247235
0.00527292
0
0.0320207
-6.06869e-54
0.0750931
-0.000889786
0.0365877
-0.0205801
0.0215323
-2.4031e-27
0.00527292
7.76302e-29
-0.0797528
-0.026315
-0.025689
0.0357706
-0.0435297
0.0314285
-8.03675e-27
-0.0409339
-1.52682e-29
0.144697
-0.0456183
-0.0103406
-0.000889786
-8.06139e-05
8.15208e-322
1.66829e-37
0.00821888
-1.34892e-28
0
0.00857201
0.069666
0.00131609
0.0259202
0.172175
-0.145697
-0.00265081
0.0626423
-0.00944232
0.0079749
-0.0312571
0.19786
-0.0123382
-0.00430567
-0.0113921
0.0164538
0.000185675
0.106474
0.0638739
-0.0286051
-0.0112532
6.5195e-25
0.013115
-0.00847976
-0.00897707
-0.00318414
-0.01457
-0.0230432
2.68067e-26
0.0403864
-0.117146
1.60224e-37
0.0748668
6.23351e-58
0.0733906
-0.0813904
0.0467822
0.0199577
0.000706846
-0.0321676
0.054943
-0.0620198
0.0879211
-2.02035e-39
0.0195341
-0.00344258
-0.00330456
0
0.0484643
0.0416824
-0.0966228
0.0509993
0.00418519
-0.0604543
0.210744
0.101361
0.112219
0.0389206
-0.0293415
-0.0252555
0.0487945
0.0296882
-0.0476078
1.54113e-183
-0.0111786
0.0118709
0.0296882
0.000314247
-0.0775175
0
0.0244394
0.0283934
2.46146e-40
-5.98181e-33
-2.96552e-57
2.35906e-29
0
-0.0562468
0.0689306
7.36158e-322
-0.0560253
-0.00888623
0.00862817
4.47182e-28
-0.0423586
-0.0694721
-1.94662e-321
-0.00430567
-0.026337
-0.00339783
0.0716448
0.00915006
-0.010197
0.0192359
0.0156311
0.0197025
0.158959
0.000620646
-3.32949e-27
-0.116489
-0.0661108
0.0126071
-0.0139703
0.00280462
-5.9573e-28
-5.9573e-28
-1.72058e-33
0.0235722
0
0.100842
8.24841e-29
0.000805243
-4.94374e-27
0.0619328
4.81485e-27
1.07187e-30
-0.0637865
0.0475449
-0.125188
-0.0113921
0.0175948
0.0388556
-0.0364289
-0.0255714
-0.0427158
0.0415926
-0.00811964
-1.52864e-32
-0.0906536
-0.0010386
0.0876751
-2.02035e-39
0.022153
0.0463654
-0.0372294
0.000706846
0.0486065
-0.0338231
-0.0288459
-0.025341
4.59938e-39
-0.0187917
-0.0905371
0.00635364
-0.118077
-0.0192141
0.0864407
-0.122461
-0.0160897
-2.02035e-39
-0.0221437
-7.81872e-29
-0.0519279
-0.0638664
-2.02035e-39
-0.00922238
-0.116366
0.0202044
5.32716e-28
-0.0242052
-7.3388e-27
0.0271933
0.0226237
-0.0523623
-0.0662445
-2.02035e-39
-0.0385395
-1.66994e-321
-2.02035e-39
0.0351499
-0.0857119
0.0246878
0.119819
0.00033848
0.00915006
0.000315847
9.59674e-57
0
-9.76914e-30
-0.0894584
-0.0157247
-0.0205994
0
4.17373e-259
0.0296882
0
0.00680276
0.0316894
0
-0.161356
-4.18758e-42
6.19707e-37
-2.02035e-39
-5.24122e-32
0
0.139218
-0.127751
1.85524e-39
-0.029232
8.60733e-26
0.00313567
-0.0867188
0.00635364
-0.0524585
0.0156311
-0.0191135
-0.0103406
0.0471368
-0.0208795
-9.1328e-267
-0.0275808
4.98851e-25
0.14528
2.9675e-39
-2.78607e-31
-0.0278611
0.0792087
0.0832998
0.011926
0.0999488
0.1207
-1.30764e-31
0.00626394
-0.0797843
0.0474291
-0.213245
-0.0116439
-0.0113921
1.61433e-28
-0.0485438
-0.00181895
0.0737933
2.27825e-26
-0.00606685
0.186764
-0.0757783
7.93682e-25
-0.0103432
-0.00584303
-0.00753484
-0.0538479
0.0544256
-0.0170362
-2.02035e-39
0.00880842
-5.63359e-30
-3.93377e-39
-5.43569e-36
-0.532704
-0.0137546
-0.0338231
0.087607
-0.0249066
-0.0278611
-0.00897707
1.54113e-183
9.91246e-189
0.270499
0.0351726
-0.0165824
0.0380845
8.25709e-38
-0.00441915
-0.0057814
-0.0663861
0.000620646
1.91167e-39
0.155153
-0.381724
0.225736
-6.309e-29
1.5477e-29
-0.0263036
-5.9573e-28
-0.029232
-0.0140928
0.0381732
-0.0177201
-2.02035e-39
-0.00888623
0.0303975
0
0.245789
0.00756507
-0.0288459
-0.00318414
0.0411175
-0.00430567
0.111583
-0.0316542
-0.0430525
4.26891e-29
0.0535834
-0.00966638
-0.0253034
-0.142312
-0.051275
0.000706846
0.141117
0
0.0162233
-0.130488
0.0488553
0.187769
-0.0140928
-0.0607782
-0.151856
-0.0191135
-0.0547854
-2.02035e-39
2.31314e-27
0.00419791
0.0743189
1.66829e-37
-0.0104944
0.0687059
0.0271933
-0.107705
0.0280104
0.0462503
-0.0338231
0.00963776
0.030034
-0.00817732
6.26617e-30
2.10351e-28
-1.52682e-29
-0.00888623
0.0125189
0.0490598
0.0563704
8.01553e-28
0.014163
0.115276
-0.0203043
-0.107236
-0.00888623
-0.0222618
-0.00799247
-5.43569e-36
0.0122447
1.63295e-26
0.0207367
0.0484643
0.17327
1.7506e-29
0.0422092
0.027597
-0.0688479
-0.00515295
-1.721e-37
-0.00430567
-2.02035e-39
0.0851521
0.0156311
-0.0140928
0.0301489
-2.4031e-27
0.0284666
-0.00618362
2.35906e-29
-6.17507e-39
0.00131609
0.0339112
0.108101
-0.0654281
-0.0591401
-0.159566
-2.4031e-27
-0.0521504
0.0411957
-1.34892e-28
6.19707e-37
-0.0861598
-0.0309001
0.0470486
5.44914e-26
-0.0518571
0.00586551
2.96456e-29
-0.00888623
6.23351e-58
2.51067e-27
0.0429949
4.89341e-26
-0.00778088
-0.0209451
0.00915006
5.8819e-37
0.0643266
-0.0898041
0.0739958
0.11515
0.000704135
-4.26993e-26
-0.105927
-2.02035e-39
0.0210727
0.0297216
-0.0562468
0.0238412
-0.0751819
-0.0566847
0.0011406
0.00739828
-1.52682e-29
-0.0784756
0.0444505
0.068878
2.58831e-25
-0.0140928
0.0323533
-0.211853
-0.0728828
0.0467822
0.0206431
-0.0139703
-0.0308708
0.0382045
0.107025
-0.138851
-0.00847976
0.159626
-0.0155687
9.35943e-40
0.149673
2.58831e-25
0.0215323
0.000620646
0.0285459
0
0.0570309
-0.0263036
0.0344575
-0.00748503
-5.33932e-43
0.00107449
-0.0612977
0.0296882
0.0164667
-2.02035e-39
0.00281939
-0.023939
-1.26854e-27
0.0435243
-6.65879e-39
-0.0139703
0.0342
-0.023939
0.0128662
0.122929
0.0139958
-2.21636e-30
-0.0010386
-6.02341e-13
-0.00463035
0.0486065
7.36158e-322
-3.55727e-322
-0.0254011
-0.00964965
4.47182e-28
1.62418e-28
0.0643853
0.0783546
-0.253154
-4.13819e-33
-0.0907482
-0.0652299
-0.0140928
-0.0286051
-8.66423e-44
-0.227744
0.0256171
1.53782e-25
-0.123954
1.39651e-111
8.98588e-39
0.0392569
0.12321
-0.10064
0
3.83979e-39
0.0366338
-0.0227398
0.0297216
-0.103397
0.0817564
-0.0898041
0
-0.0732282
3.18902e-41
2.5624e-29
0.0600114
0.0344575
-0.0010386
0.0195275
0
-0.00430567
0.000620646
-0.073284
0.0139958
0.0444787
0.0293703
-0.0408514
-0.0162114
-0.0309479
0.0259202
0.00313567
-0.0531534
0.0901906
-0.034308
-0.00994171
-0.0578552
0.0382075
0.301522
0.00988856
-0.106855
0.0274293
1.39651e-111
-0.00799247
9.35943e-40
-0.0140928
0.0519358
8.49652e-26
0
0.043203
-0.0474109
-0.0294348
-0.00339146
-0.061893
-0.0240844
-0.031863
-2.63048e-40
-6.61931e-42
2.68898e-59
0.0261902
1.07243e-24
0.0298358
0.00821888
-0.0271752
-0.141264
-0.0682834
0.00678362
6.23351e-58
-0.000867524
0.11605
-0.023939
-0.10559
0
0
0.0297216
-0.0268218
0.00244159
-5.9573e-28
-0.0133718
3.56515e-59
0.00197628
-3.58753e-69
0.158492
0.0566044
0.00626394
-0.0753153
-0.119344
-0.0691383
0.0422092
0.0526414
-0.0268044
-0.0103406
-0.0313472
-0.0192711
-0.114068
0.0656177
0.036233
0.0546181
6.26617e-30
8.3966e-25
-2.6e-27
9.14021e-322
0.0594852
0.00606028
0.0979652
-0.0111786
0.299599
2.11162e-55
-1.92258e-28
-0.076661
0.0236946
-0.0113187
-0.0701478
1.39651e-111
0.0215323
0.0422014
0.0212419
0
-3.09669e-39
-0.00277401
-0.0720812
-0.108962
0.0233992
0.0411587
-2.53061e-49
-0.781691
-4.28446e-33
-0.0703611
-0.0102359
-0.0407593
0.195053
0.0522698
8.60436e-26
0.0822864
-0.00277401
0.0134275
-3.93377e-39
0.00148047
-0.0113921
0.36827
0.048869
-0.0155121
-3.26799e-35
0.0618109
0.00821563
-0.024771
4.30405e-57
0.0238732
-0.00430567
-1.66567e-248
0.0478257
-0.0676066
-0.125173
-0.0411468
0.0320207
0.423031
0.0404893
-0.0584363
-0.0315103
0.0211801
-0.0154434
0.0257388
0.0416824
0.149882
-1.94662e-321
-0.197806
-0.0859686
-0.0231775
7.93682e-25
0.150661
-2.02035e-39
-1.4029e-64
8.01553e-28
-0.0153293
-0.0155687
-0.0316268
0.0156311
0.0389969
-0.0997021
0.0203736
-0.0113921
0.0275698
1.0791e-24
0.0887231
0.109935
0.00119277
0.00821888
0.043203
0.0883045
0.00107449
9.91246e-189
-0.0245597
0.215623
5.48695e-242
-0.0485214
-0.0513258
-0.0139703
0.194947
0.0296882
0.149077
0.0566992
0.0452283
-1.09153e-26
-0.0854305
-0.0744519
0.022854
-0.00897707
-0.0139071
-0.00364938
0.0735279
0.0506969
-0.0540791
-3.61395e-34
2.5624e-29
0.057501
0.0613668
-0.105845
1.5477e-29
-0.000687188
2.00895e-109
1.54969e-40
-0.0140928
-0.0338231
-6.09176e-27
-1.77985e-27
-0.153027
0.043027
-2.02035e-39
-0.102758
0.0139958
-0.247256
-0.0170362
4.03329e-27
0.00107449
-1.25493e-321
-0.0308719
-0.00898781
0.0772204
0.0460639
-0.0273387
0.0125817
-0.0249066
-0.0119427
-0.00888623
0.0259037
0.0139958
-0.101822
0.0311556
-4.18758e-42
-0.21084
-0.0275808
-0.0235149
-0.0540791
-0.0304961
0.0707298
-0.00362872
-0.0147042
7.82754e-111
-0.0245597
0.129097
0.0739341
0.012914
-0.037649
0.170541
-0.0458506
8.98588e-39
1.71636e-26
-0.00982526
0.0341611
4.81485e-27
0.0295497
-2.02035e-39
7.36158e-322
4.47182e-28
-0.0923325
1.66829e-37
3.77517e-27
0.149677
8.3966e-25
0.0963722
-2.19099e-34
0
-1.03548e-36
-0.0203043
0.0126353
0.0276424
-0.000883713
-0.00277401
0.0297776
2.43584e-25
0.180307
7.93682e-25
0.115792
-0.131773
1.99003e-36
-0.188931
0.0496978
0.106267
-0.0191135
-1.66994e-321
-0.00661549
0.00153832
-0.0203315
0.0297216
0.0177857
-0.0469054
2.09607e-56
-0.00897707
-0.195609
-0.0427319
0.00821888
0.00527292
0.127908
0.0467822
1.63295e-26
-3.35747e-37
-0.0327051
-3.24893e-41
0.0411957
-0.0125969
-0.0591155
0.0418271
-2.02035e-39
0.0199626
-0.00472756
0.00694569
0.0995707
-0.0113921
5.64629e-111
-0.0438038
-0.0113921
-0.293282
0.0385647
-0.106855
0.011229
-4.60289e-28
-0.0781847
-0.0663242
5.31461e-38
-0.00330456
0.0418271
0
-0.0111728
0.0696896
-0.026475
-3.58753e-69
-0.0673388
1.48436e-26
0.0285459
0.0191555
0.0134835
-6.06869e-54
-0.0570076
0.0091532
-0.00339146
0.0381846
-0.0570531
-0.24981
-0.103047
-0.0489744
0.0117743
-2.6e-27
0
-0.0544467
-0.0408514
2.76288e-29
-0.0895434
-0.0753153
-0.0637865
-0.0417281
-0.108768
0.127716
-0.00364938
0.01259
0.0177532
-0.166805
0.0848089
0
-0.0133964
0.0493906
-0.157118
-0.000105357
0.0520805
0.0824926
6.19707e-37
-0.0278611
0.00559925
1.27569e-38
0.143174
7.41167e-26
0.084561
5.14178e-25
0.0297776
-0.156361
-5.24412e-32
2.44806e-57
0.0543589
0.032226
0.065638
-6.0276e-322
-0.023939
0.146961
-0.0289225
-0.0772528
-0.0338231
0.0207367
-0.00663254
-0.0252555
-0.0683766
-0.10064
-2.08185e-26
-0.192704
0.000285838
-0.158294
-0.0954277
-0.0229891
0.0912309
-0.0338231
0.132544
-0.0147042
0.0469124
-0.318233
-7.50483e-27
-0.0139703
-0.0293776
-2.88597e-28
1.02717e-37
0.00535037
-0.0177571
-0.10064
-0.00897707
0.041602
-0.10651
-0.116459
0.0468673
0.0438316
-0.0452001
-0.0850895
0.0139958
-0.0327408
-0.00318414
0.003764
0.0118489
-0.24013
-0.00888623
0.0197025
0.0625305
0.0148939
0.0436792
0.0388556
8.52768e-25
-0.0063216
-3.35747e-37
6.91232e-37
0.0156311
-0.0612541
-0.0113921
0.174913
0.0832998
0.0408911
-2.6e-27
0.0273745
0.00104351
0.0326991
0.00229532
0.00404148
0.00388276
0.087924
-6.06869e-54
-0.0963828
-0.0322712
-0.026056
2.11162e-55
0.0175928
0
0.0239045
0.0515373
-0.0220489
0.0354627
-0.042909
6.23351e-58
-0.0435297
-2.6e-27
0
-5.64221e-37
0.0649944
-0.103904
-3.7926e-49
0.0566039
0.0463905
0.0351573
-0.0539579
-0.0204289
-1.94662e-321
-0.00240527
-0.00888623
0.0316334
0.0283782
0.0299411
-0.0411844
0.0988946
0.122647
0.0207367
0.0888596
6.73526e-26
1.22503e-57
-0.0521446
-0.0439825
4.04126e-38
0.186732
-7.50483e-27
0.0047065
0.0296269
-2.95305e-26
3.07838e-39
-0.0302139
0.00485975
4.47182e-28
4.59938e-39
0.0246878
-0.00430567
5.11415e-27
0.0797341
4.2033e-30
0.0426138
0.0416824
0.11962
0.0769168
0.291849
0.109485
3.32485e-27
-0.0428933
2.62878e-55
-0.0855789
1.35112e-39
-0.00748503
0.00493778
-0.00764547
-0.0192141
-4.60289e-28
-0.0652239
0.0783079
-0.0436266
0.00313567
0.0496821
-0.285534
0.0404893
0.200255
-2.02035e-39
-0.0537166
-0.0245597
3.90587e-25
-0.00119933
0
-0.00584635
-0.156304
-6.06869e-54
-0.0242453
0.042368
-0.0327051
-0.0170362
0.0436792
-0.107345
-0.0384204
6.19707e-37
0.0474291
2.77782e-28
-0.0140928
6.23351e-58
-0.00277401
0.047208
-0.25453
-0.0238159
0.0047065
-9.73639e-34
0.154952
0.00915006
2.46232e-40
-0.041332
-0.0319618
0.130765
0.0188275
-0.0513227
-0.132545
-0.0056752
3.22136e-319
3.07838e-39
0.00535037
-0.0140928
4.81485e-27
0.0216571
0.155376
0.0323533
0.0964014
4.30405e-57
0.0531164
-1.94662e-321
0.00821888
-0.154774
1.52747e-25
0.13403
-0.000889786
6.95304e-26
0.0879211
0.0191343
0
-0.0114671
0.128153
3.90587e-25
-0.0140928
-0.0482918
0.0388556
0.056602
-0.0553769
3.77517e-27
0.00678362
1.35112e-39
0.0265907
0.0825406
-0.0210708
-0.110862
-0.0119948
0
0.106914
-0.00578509
-0.0170362
-0.0324326
0.0812903
-2.86319e-33
-0.00269714
0.0209958
1.66829e-37
8.71142e-26
0.00528008
-0.223382
-0.0922573
-3.58753e-69
-0.0286051
-0.0259842
0.114283
0.0638248
-0.00795127
0.0807922
-2.97976e-26
0.0769402
-0.0332291
0.0339112
-0.0289225
-0.131216
0.00606028
1.08978e-24
0.00195338
-0.0720883
-0.00040203
0.0296882
-0.0145265
0.0296882
-2.02035e-39
-0.0288582
-0.0954996
-0.0671777
0.0284666
-0.0322712
-0.0010709
-0.286141
-0.0410369
3.16281e-30
0.0982327
-0.0316268
0.0358344
0.0118489
0.00606028
-0.0186256
0.065309
-0.0817853
0.0793826
-0.0872163
-0.00888623
-0.0135762
-0.00748503
-0.0997021
0
-0.0761117
0.0334674
0.0298358
0.0844369
-0.0117907
0.0538008
0.0664136
-0.017103
-0.0598746
-0.0562468
0.0339112
-0.00748831
0
0.00281939
0.104183
3.18902e-41
-0.0139703
0.0999488
-0.0205801
-0.0315103
6.42285e-322
-0.055723
-0.0140928
0.00104351
-0.0741437
-0.00344258
-6.06869e-54
0.0203231
0.0193476
-0.0308719
-0.06538
-0.0844737
3.07838e-39
-0.0752875
1.16105e-321
-0.0662929
-1.66686e-35
-0.00302072
-0.194852
0.026626
-0.00240527
-0.0564427
0
0.0346949
0.0490827
-0.00861442
0.0172015
-0.0732813
-0.0284734
-0.0634142
0.0683126
0.0145055
6.19707e-37
-0.0192717
0.0467822
8.26108e-39
-0.069725
0.027597
0.0733906
0.000620646
-1.92373e-26
0.111558
-0.05118
-0.0289225
0.00349578
1.52747e-25
0.0661928
0.043203
-0.0433367
0.00107449
-4.26993e-26
3.17352e-41
0.00732409
2.13001e-30
-8.15367e-38
-1.52682e-29
-0.236134
-0.0824682
0.0225975
0.007246
3.07838e-39
0.0210727
-0.0139703
0.164485
0.122929
0.00144822
6.19707e-37
0.0118485
-0.0743834
-0.0311551
0.105411
-0.041739
9.14021e-322
0.142229
-0.048295
-0.0287458
-0.0810351
1.99003e-36
6.19707e-37
0.0214679
0.00131609
0.037995
-0.0103406
0.0216373
-0.0289225
8.39491e-26
0.0299411
0.0139958
0.193426
-4.57151e-27
0.0283782
-0.179318
0.115716
0
-0.00825542
0.0557348
0.0380938
-0.0647823
0.00441007
-0.000669259
-0.0576705
-0.102758
0
-0.0754994
-0.0234332
-0.0506893
-0.00312271
0.0156311
-0.0563538
0.00424434
0.0194506
0.0489913
0.0612526
0.144569
0.231894
0.619498
-0.00485721
0.00821888
1.541e-279
2.76288e-29
0.00542129
-0.0215669
-2.02035e-39
0.0481385
0.00127946
-1.82804e-32
0.00308826
0.0557348
-2.02035e-39
0.192506
0.0210281
0.0123172
0.00269186
-0.0315103
2.09607e-56
0.00981064
-0.0477479
-0.00441915
0.128882
-0.0151512
3.90587e-25
-0.0154379
-0.0289703
0.0643853
-1.77985e-27
0.0065964
-0.023939
-0.0325429
-0.0990762
0.0474291
-0.117391
-0.00748503
-0.0373231
0.0238597
1.54113e-183
7.82754e-111
0.0447349
-0.116484
1.62044e-26
-0.0316268
-0.0290483
-0.100339
2.34816e-28
-0.0133092
0.0283782
-3.3279e-49
0.0203981
0.04
0.00144822
0.0157676
0.00489009
0.0487945
0.0152272
-0.00730965
-0.0768269
0.0215569
-0.0133718
0
0.0113428
0.0488553
-0.0118772
0.00485975
0.0169487
0.0535799
0.0271562
8.49652e-26
0.0369356
0.0253825
0.0150865
0.0326991
7.46478e-56
0.0543151
6.19707e-37
0.0543151
0.1819
0
0.0268837
0.138774
0.0999488
-7.56408e-26
1.07706e-321
0
0.07872
-2.02035e-39
-0.0350676
-7.73991e-268
0.0427344
0.0209958
0.000620646
1.52747e-25
0.0233992
2.58831e-25
-0.0546074
-9.1328e-267
0.0723842
0.0415926
-1.6458e-26
0.0143841
0.0299411
-3.6418e-34
-0.0867311
0.00549159
0.00765159
1.33125e-24
-0.194759
1.17399e-257
-0.0509548
0.101939
0.0325528
-0.137527
-1.52864e-32
-0.018666
-0.00403953
2.68898e-59
-0.0730576
0.0741105
0.109308
0.0525888
-0.105657
-0.0463516
2.00663e-37
0.0214679
0.0144871
-0.0111786
-2.02035e-39
-0.146642
0.0150865
3.29797e-112
0.0016825
0.0627889
-0.0291377
0.0506947
-0.0295966
0.00678362
-0.103401
0
-0.313974
0.00667094
-5.98181e-33
-0.0151512
0.00221061
0.0182252
-0.0140928
0.0566992
-0.0288391
-4.26993e-26
0.0297776
0.0619328
1.13973e-37
0.0207769
0.0215323
6.19707e-37
-0.106642
1.04248e-321
-0.0403154
-0.00944232
0.0457357
1.80249e-27
-0.0177571
-0.426106
0.19541
3.82229e-37
0.000620646
-0.0041114
-0.019327
0.0474291
-0.0553987
-0.0286051
0
0.0139958
0.00427932
0.00939268
0.0481117
0.157904
0.0344575
-0.121621
0.156545
0.0199577
-2.02035e-39
0
0.00313567
-0.0176801
-0.00119933
0.0139958
-0.0559855
0.0337425
0.0209958
0.00197628
-2.45145e-26
1.62044e-26
0.0310986
-0.0170362
0.0350756
-1.92258e-28
0.0357193
0.0246878
-0.11864
-0.0140928
-0.0133092
0.0193476
1.75423e-38
-0.100339
3.17352e-41
8.08909e-111
0.0530426
-0.252638
0.0257369
0.196048
-0.0630672
0.00709775
3.17352e-41
-0.130111
-0.0150265
0.0295497
0.0350756
0.0420365
8.92897e-25
-0.0162114
-0.0278611
0.0703138
0.00880842
3.66692e-38
-4.28508e-33
9.05606e-60
0
-0.263838
0
0
0.0382075
3.64943e-56
3.90587e-25
-0.00940713
0.0421794
0.0864407
0.0265976
0.0418271
-0.0755294
0.00664397
0.0709921
-6.96955e-34
-0.051892
0.216593
-1.34892e-28
0
-0.00041795
1.5477e-29
0.00793373
0.00559925
0
-0.107345
-0.0259957
-0.207841
-0.0164448
0.00678362
-0.0582662
-0.0103432
-0.0710617
-0.00430567
-0.0139703
0.0289559
0.0718205
-0.05986
-0.00574814
0.0197025
0.0722823
0.0139239
-0.0024834
-0.0160897
0.0259202
-0.0119948
0.0156311
0.000551526
0.0743189
-0.0231775
-0.00748503
0.0413403
8.39491e-26
-3.24893e-41
0.00509475
0.00107449
0.169786
0.0118489
0.00670705
1.12894e-36
-6.62648e-37
-0.0855882
-0.0151512
-0.0133718
0.0774787
1.2433e-40
1.13927e-29
-0.0740351
0.0365175
-0.0984413
-0.0350085
-0.235166
0.118142
-0.122171
0.00821888
-1.96263e-29
-1.4029e-64
6.19707e-37
-0.0252555
0.0344575
-5.03008e-28
-0.111613
2.77782e-28
0.0474291
0.0552187
-0.0554489
-6.17507e-39
-0.0321681
0.183332
0.0256171
0.023096
0.037294
2.00895e-109
0.0648944
0.152507
0.0215323
-0.154162
1.52747e-25
0.151576
0.076382
0.0899033
-0.37385
2.58831e-25
0.0456694
0.111688
-0.0138469
-0.0162114
0.00680276
0.0203707
-0.0010386
0.19541
2.55747e-26
0.0191555
3.49662e-26
0.0137574
0.0454111
-0.111841
-0.00888623
0.0492867
8.39491e-26
0.00620977
-0.0435577
-0.00103905
1.541e-279
3.17352e-41
0.00281939
0.0351573
0.000620646
5.47372e-26
0.02969
0.0610104
0
-0.279516
-0.0252555
-0.00277401
0.00138895
-0.0245597
-0.254463
0.0993664
-0.073284
0
-0.0133092
0.00491234
0.0300881
0.0314046
0.0323533
-0.0103406
-0.0417281
0.000620646
-0.022583
-0.05986
-0.0714716
1.0791e-24
8.24841e-29
0.0199626
-0.0860892
-0.0245597
0.00491234
-2.33715e-26
-0.010197
0.0756761
-0.0093445
-7.3388e-27
-0.00865975
0.0502326
-0.0426979
-0.0408514
-0.0475421
-0.12546
0.019072
7.36158e-322
-0.131615
0.0427344
-0.00663254
0.0332835
-0.0140928
0.0323533
-0.023939
-0.0261447
0
-0.0771526
-0.0295913
8.08909e-111
-0.0162538
0.100024
1.03824e-29
0.0548914
0.083743
0.0201156
1.5477e-29
0.0122447
0.0988054
0.0309709
-9.13853e-29
0
-0.135973
2.10351e-28
-0.0598094
0.243384
1.07843e-30
0.0296882
0.063716
-0.0618076
0.0117173
0.000620646
-0.0251323
-0.0757869
0.00527292
0.0309006
0.0623
1.85493e-40
0.0170863
-0.0105129
-0.0122967
-0.0010386
0.0998794
0.0677087
-0.0558965
0.000315847
-0.0671777
-0.0580355
-0.0104944
-2.45145e-26
-0.0209451
0.0183275
-2.6179e-47
0.0296882
0.00107449
3.17352e-41
-0.0807401
-6.17507e-39
0.0480806
0.0203695
0.0166433
-0.000924825
-6.65879e-39
0.0394485
0.00626394
-0.00602154
8.39491e-26
-0.0278959
0
0.0381732
-0.0661108
-0.0378477
0.0296882
-0.0975903
0.0150865
-1.25493e-321
-0.235084
-0.243414
0.167361
0.0741864
0.158145
0.10895
0.0011406
-0.247224
0.0480483
-0.0681909
-0.00545208
1.93693e-28
1.13464e-24
2.77782e-28
-1.19454e-26
8.26108e-39
0.0102551
-0.02921
-0.139577
-5.95731e-28
0.00313567
-3.93476e-38
-0.0203322
-0.027176
-0.0338819
2.77782e-28
0.164246
6.23351e-58
-0.00897707
-0.000446543
-0.0162552
0.00197628
-0.0753153
-0.0436606
0.0696361
-0.0113921
0.0521486
0
1.62418e-28
0.0449433
-0.131375
8.60436e-26
-0.0133718
-0.0534939
0.00778511
0.00559925
-0.141189
-0.0301391
0.0207367
-1.52682e-29
0.0787686
0
-0.00118825
0.0126071
-0.0192141
0.0594723
0.129196
-0.0840312
-0.0173964
0.0790541
0.0467822
0.065309
-0.0840312
0.130232
-0.132338
-0.108438
3.57029e-59
0.00821888
-0.0245597
-0.0788541
-0.0751557
0.00884392
-0.143971
0.0118485
0.0578476
0.0467822
-0.0113921
1.52747e-25
-1.46618e-28
1.54969e-40
0.101154
0
0.0195275
9.14021e-322
0.0825663
1.66829e-37
0.0385859
3.5604e-29
6.86283e-25
-1.52682e-29
0.0257207
-0.00911092
0.0385647
1.07714e-30
-0.0712264
0
8.71142e-26
-0.126991
9.71003e-25
0.162942
0.0301489
0.0281384
-0.018445
0.132164
0.214582
-1.25493e-321
-0.00339146
-0.0103432
0.00359698
-0.0213912
-0.0672446
-0.00172206
0.0289725
-0.223082
-0.0537628
0.0237226
-0.00339146
0.0358344
0.0150914
-0.0140928
0.0563716
-0.0509629
0.0429492
0.007246
-0.172202
0.0638248
0.079447
-4.57151e-27
-1.94662e-321
-1.12663e-26
0
-0.0354638
0.0199626
-0.00583317
0.0323533
0.0160912
-7.5486e-34
0.0142057
5.31461e-38
6.19707e-37
0
0.0284666
0.000734415
-3.24893e-41
-0.051906
0.0839137
0.016379
5.14178e-25
0.0301489
0.0246878
0.1004
0.0460639
-0.0338231
2.17389e-321
0.0166433
-2.02035e-39
0.00350733
-0.0498092
-0.170989
0.0855667
0.236526
-8.48243e-27
-0.0439446
0.0749355
-5.03008e-28
-0.023448
0.0577767
-0.0661108
-0.0549766
0.0729718
0.0334065
0.0417116
-0.000845738
1.07714e-30
0.0156311
0.0618109
0.119819
-0.091209
0.0365175
0.043203
-0.0419635
-0.0757869
5.88206e-25
-0.247849
0.000805243
0.254292
0.0156311
4.30405e-57
0.0519965
-0.0634142
-0.0170362
-0.0113921
0.104857
0.0509993
-1.63536e-321
2.09607e-56
0.069666
2.58831e-25
0.0456694
-0.142733
-0.0559828
0.0618283
-0.0670187
-0.0113921
-5.78679e-26
-0.0865451
-0.259249
-0.0408514
-0.076855
-3.58753e-69
-0.0147042
-0.106415
-0.0100727
-0.166336
-3.02369e-30
0
0.0178185
0.0576298
0.0285459
0.069112
-0.0133718
-0.00339146
-0.0527467
0.00635364
-3.22547e-05
-0.0984013
0.0388556
-0.028412
-0.0735255
0.0397381
0.00292239
0.0301063
2.46232e-40
-2.69381e-43
1.02717e-37
-2.02035e-39
-0.0753153
0.0662307
8.7645e-26
-0.00870291
0.0416824
0.0718868
0.0157676
3.07838e-39
-0.0661725
-0.0289225
-0.073284
0.0590701
2.29363e-258
4.98851e-25
1.33125e-24
0.0638248
-0.00817732
-0.0762175
2.29711e-27
-7.82438e-34
0.182007
-0.0113792
0.0356482
-0.073284
7.41167e-26
-0.0819993
-0.0205801
-0.014796
-0.0133964
3.77517e-27
-0.0647581
-0.0120938
2.66157e-29
-0.0724088
0.00880842
0.0516544
5.48695e-242
0.0337559
-0.0465913
0.00535037
0
3.90587e-25
0.00591114
0.0508932
0.0153909
-0.0399874
0.0150686
-0.254321
0.00756507
-1.3481e-31
3.87158e-58
0.0856919
-0.0145283
0.0699749
0.0887231
0.154489
-0.00210164
0.0870088
-0.0480294
-0.00961592
0.0829248
6.43443e-26
0.0345988
0.0265907
0.0650552
-7.60446e-32
-0.0678297
0.0601761
0.0689436
0.085588
-0.0408514
0.0383644
0.00688459
8.98019e-26
-0.000357113
-0.0137557
0.0106563
-0.0113921
0.0251937
-0.00911092
0.0199626
0.000375302
0.0673957
-2.02035e-39
-7.50483e-27
-0.0423091
-2.38756e-30
-0.023448
1.08817e-24
0.135182
-5.33932e-43
0.0118485
-0.0278611
-0.0155687
0.00104351
0.386112
0.0674098
-0.0137158
1.91167e-39
-6.62648e-37
-0.000209701
0.0113052
0
0.0885878
-1.96263e-29
-0.030191
0.229764
3.08183e-73
-0.159807
0.0363544
-0.051892
5.69713e-26
-0.0369615
0
0.132307
0.265963
0.155584
-3.7871e-33
0.260465
-0.0289225
-0.0755294
0
-0.0016449
0.0296882
-0.190369
0.0018168
-0.0289225
0.00337677
0.0649826
2.70979e-25
-0.251282
0.00528008
-0.070542
-0.178455
0.0398327
0.007246
-2.96552e-57
-0.240926
0.0321466
-0.064187
0.0509993
-6.09176e-27
0.0598883
-0.0293634
-0.200847
3.64943e-56
-1.4029e-64
-0.0113921
-2.28338e-39
-0.0439825
0
-0.0670187
3.29797e-112
3.57029e-59
-0.00799247
0.0297216
-0.010197
-0.0177201
0.00626394
3.1869e-41
-0.0140928
0.0436858
0.0101527
-0.0221437
-0.0235149
-0.0801394
0.0438316
2.77782e-28
-0.00103905
2.58831e-25
-0.0177256
3.17352e-41
0.0557936
0.0323533
-2.02749e-37
-0.0143583
0.000998698
0.000620646
-3.88788e-37
0.0487945
0
-0.114409
-0.0285034
-0.0416317
0.00821888
0.248718
-0.0216379
0.0548914
-2.79267e-28
-0.0010386
0.00626394
-0.0133092
-0.0205801
0.121581
0.0351573
0.0535799
0.0108796
-0.0114661
0.0498584
-0.0871824
0.00313567
0
-0.0168357
9.35943e-40
-0.0705129
-0.105057
0.000551526
-0.115818
-0.0175684
0.0460833
-0.00852363
-0.0766178
0.00313567
-2.14135e-29
-0.00669269
0.0765823
0.00313567
-6.09176e-27
6.79931e-38
0.0182137
0.0175948
0.0741864
0.00507866
0.039755
-0.0263036
0.0296159
-0.0139703
3.87215e-28
0.0351883
0.116497
-0.028414
0.399038
1.16105e-321
0.0323813
2.73288e-27
0.00308826
-0.0372203
8.80815e-27
-0.0525105
-0.0111786
0.0824054
-1.40315e-321
-0.026056
0.0262967
-6.06869e-54
0.0734212
-3.24893e-41
-0.0205801
0.0936254
0.00271549
0.213872
0
0.0123647
0.0215323
-1.14768e-28
-2.02035e-39
0.043027
2.38713e-28
-0.0309562
-0.00816647
0.134762
8.98281e-25
-0.0245637
0.0389969
-0.000737773
0.0284535
-0.0903277
-0.0828498
8.29282e-39
7.41167e-26
-0.0567657
-0.041332
-0.0113921
0.0462526
0.0852816
1.541e-279
-0.0525105
-0.0367028
0.0879211
-0.0113921
0.0599167
-0.0205801
-0.0332291
-0.0459455
-2.19099e-34
6.23351e-58
0.256654
-0.0733074
-0.0153065
0.0571344
-1.94662e-321
-0.00737183
2.76288e-29
-0.213582
-0.182054
0.0345606
-0.0464488
-0.249028
-0.0315103
-0.0966228
-0.124252
7.36158e-322
0.140161
9.35943e-40
0.0397797
-0.0344696
-0.154774
0.0625464
-0.0359598
2.77565e-27
0
-1.29558e-34
-0.148256
0.041797
0.0116277
0.221099
-5.67197e-27
-0.127855
-0.0010709
-0.0153065
5.38705e-27
0.074836
0
0.0384452
-0.109585
-0.018323
-0.00910608
-2.02035e-39
4.7213e-37
0.0109075
-0.111546
-0.0122967
-0.00277401
0.017117
0.249692
-0.0177201
-0.0575345
0.170953
-0.0554215
-0.0346575
0
1.02717e-37
-0.00318414
0.0256457
0.0214679
0.0296882
-7.13124e-36
-0.0140177
-0.196399
0.00308826
-0.0209708
0.0411175
2.68067e-26
-0.048022
0.0189846
-0.0982943
0.017045
0.00509475
0.0296882
-0.00422541
0.0474291
-3.24893e-41
0.068595
1.5477e-29
0.079614
6.23351e-58
-0.010197
0.0468014
0.0259037
-0.11187
-0.0259609
0
-0.0010386
-0.0133772
3.90587e-25
0.0156311
0
1.21287e-38
-3.24893e-41
-0.0923661
0.0966427
5.31461e-38
-0.160034
0.0355028
-0.156597
0.106872
2.58831e-25
0.0260586
-0.107345
-0.0113921
0.0865317
1.96647e-109
0.0291522
-0.132231
-0.0513258
0.000620646
3.07838e-39
-0.0268647
0.0215658
0.0487945
-0.124583
-0.113681
0.0139958
1.87075e-38
-0.0170362
0.00555046
6.43443e-26
0.00756507
0.0252561
-0.00221211
3.32485e-27
1.12894e-36
1.75423e-38
-0.0529287
-0.0121665
-0.0294567
-4.52988e-36
-2.84234e-30
-0.0559855
-0.0343715
0.0156311
0.00171191
0.0170787
0.00808917
-0.0385395
0.000620646
0.053445
-5.43569e-36
0.0784228
-0.099262
8.98019e-26
0.0259202
-0.0160239
0.00586551
-0.0621073
-0.067534
0.0502593
0.013115
1.08743e-241
-2.02035e-39
-0.12697
1.85493e-40
0.00104351
-0.0570531
0.00605295
-0.0411868
8.49652e-26
-0.0637865
0.0311556
-0.0131397
0.00388276
-0.0235149
0.0019071
-0.0138322
-0.0160897
0.0323533
-0.0524408
0.0887231
-2.02035e-39
0.0166433
-0.00210889
-0.0293415
-0.0923325
-0.0268647
0.0383054
-0.103977
0.0221959
-9.1328e-267
0.0565655
-1.52682e-29
0
0.0382075
0.0337425
-0.0133964
-0.0397275
0.0329739
-0.0754403
-0.0578552
0.0460209
-0.110859
-0.0281376
8.26096e-57
0.0484643
-0.157241
5.62388e-56
0.0415926
0.0442269
-0.0010709
-2.02035e-39
0.00489009
0.0519809
-0.0140928
-0.0423586
-0.0103406
-0.0150693
0.0415657
0.0372431
0.0652457
-0.00888623
-4.18265e-26
-0.0212931
7.93682e-25
0.178251
-3.58753e-69
-0.0235149
6.43443e-26
-0.06253
8.26108e-39
-0.092715
0.0359147
0.0235722
-0.00430567
4.91214e-28
0.0323533
0.168108
1.541e-279
0.0118396
-1.83094e-37
-0.0300242
0.0634446
0.0268641
0.0412316
0.107025
0.00359698
0.0783742
-0.0113921
1.16105e-321
-0.0327051
0.0139239
0.00491234
-0.15247
0.0072454
-0.0105468
0.280699
-1.29558e-34
-0.102418
1.96647e-109
-0.0691383
-5.64061e-50
-0.0435577
-0.0238483
-0.00330456
-1.6458e-26
-3.24893e-41
3.19068e-27
0.349724
-0.0204567
0.00359698
0.0257996
0.000620646
1.21287e-38
0.013936
-0.0024322
-0.0433448
-3.24893e-41
-1.22711e-29
0.0566992
-2.02035e-39
0.00491234
0.043203
0.126296
1.98727e-56
-1.87372e-26
-0.103461
0
-5.43569e-36
-2.81688e-38
1.5477e-29
0.00359698
0.0156311
0.0293869
0.00313567
-0.026475
2.77565e-27
-0.0192492
0.0567189
-0.0169043
1.42291e-321
-6.06869e-54
0.0886571
0.043203
-2.02035e-39
-3.13862e-36
3.2588e-27
0.0018168
0.027139
0.0447349
0.00756102
1.07187e-30
0
0.0215658
0.0300875
-0.00760534
0.0509671
-0.0174727
0.0466537
0.0415926
-0.00748503
0.0235722
-0.0612977
0.0576247
-0.0216379
-0.0828837
1.60224e-37
-0.0249066
7.76302e-29
0.423478
-0.0652299
-0.0327051
5.07638e-27
9.91246e-189
-8.15367e-38
-0.0302139
-4.03582e-32
-0.0281376
-0.0327051
-0.0567657
-0.00888623
-2.02035e-39
-0.0703611
0.0536137
0
-0.0538934
-0.00342583
-0.0159617
-2.02035e-39
0.0123647
0.0445668
0.132738
-0.00441915
4.59938e-39
0.168611
-5.24051e-32
0.348092
-0.0480294
-0.393774
0.102288
9.35943e-40
0.0365175
-0.0113921
0.00264752
7.41167e-26
-8.46295e-35
-6.02341e-13
-0.000810274
-0.0192141
-0.0119948
-0.0143556
-0.0496627
-2.02035e-39
0.007246
0.0896258
3.32485e-27
-0.0574857
0.0383646
0.0317959
-0.00888623
-0.00888623
-0.0408514
1.3982e-27
-0.102418
-0.0263211
0.136501
-4.57151e-27
-0.0201977
-2.02035e-39
2.36612e-27
-0.53832
0.0993389
0.0824926
0.028764
-0.155205
0.0962651
0.0122447
-0.0223953
0.0323533
0.0403864
-0.306486
-0.381728
0.00359698
0.0391851
-0.0561731
-0.0270386
-0.0662929
-0.0500068
0.0118485
0.00244159
-0.0155188
0.0817755
-1.94662e-321
-0.230404
0.00535037
0.0296882
-9.13853e-29
0.0496978
-0.00339783
-0.175826
-0.0105468
-1.3481e-31
-0.0367359
-5.33932e-43
0.00313567
0.0351499
0.00313567
0.138768
0.142926
0.0325301
-0.0370439
-0.00362812
-0.0886249
0.0388556
-0.0105468
0.0526521
0.0298358
-0.0321676
-0.0212931
-0.212178
-0.0762578
-0.0439825
-0.0224568
0.0123242
0.0887231
0.0207367
0.0190777
0.0337425
1.91167e-39
0.00792322
0.00597322
-0.0150693
0.0420804
-0.0740351
-4.18265e-26
0.0238412
1.29437e-265
0.0180906
-1.76126e-26
-4.26993e-26
-5.33932e-43
0
0.0218374
0.00606028
-0.0277714
-0.0851273
0.0323533
6.43443e-26
-0.0968763
4.59938e-39
0.0264438
0.0213347
0.164902
-0.0454807
-0.0703611
-0.0148258
-0.0263159
-0.179955
1.5477e-29
8.98588e-39
-0.0119948
-0.384452
5.58412e-25
0.0351499
4.98851e-25
3.69597e-27
-0.0571812
-1.39971e-36
-0.0151512
-0.0175684
0.0377884
-1.4029e-64
-0.103047
2.62878e-55
-6.02341e-13
0.1972
0.00921561
0.0936071
-0.0177276
0.0297776
-0.0972865
-0.125962
0.0125706
-0.0314086
4.90093e-38
0.0235722
-2.21636e-30
-0.00897707
1.16105e-321
-0.0898041
3.82229e-37
0.642733
-3.7926e-49
-0.00172206
0.000620646
8.52768e-25
0
-0.0408514
-7.50483e-27
2.04624e-27
3.17307e-41
-0.0984237
-0.00157818
0.113307
0
0.00586551
-2.96552e-57
-0.0347138
-0.172769
-0.0413756
0.0999488
0.0116896
0.0492867
0.0487971
0.00489009
0.00127946
-0.0427144
0.205788
0.119819
0.0566992
0.01259
0.0361
3.17352e-41
4.75348e-112
0.0859825
-0.0285335
2.76288e-29
-1.94662e-321
-0.027075
-0.00650375
0.0708981
0.0310007
3.29797e-112
-0.0110933
-4.29224e-31
6.23351e-58
0
0
0.0673756
2.44806e-57
0.0292249
0.0522698
0.00274532
-0.0169078
0.0833597
-0.0169078
-6.71929e-322
-0.0010386
0.0600598
0.0350481
-0.0855462
-0.0439086
0.0443892
0.145767
3.90587e-25
0.132653
-0.030201
0.0122918
0.00694569
0.0335514
8.78108e-26
1.0791e-24
0.0118485
0.0159941
-6.06869e-54
8.98019e-26
-0.0205801
-0.0274178
0.0975665
-3.90344e-29
0.0519358
0.0677675
0.0282707
-0.0797528
0.007246
-0.0278611
0.104828
-0.143071
0.00694569
3.08183e-73
-0.00663254
-9.66929e-32
0.196464
-0.023448
-0.015105
0.1016
0.0268686
0.0166433
-0.00277401
9.5588e-28
0.00938666
0
0.0392569
-0.116036
-0.085445
0.00325535
1.12894e-36
-0.0419062
-0.0248959
8.08909e-111
0.0844369
-0.010197
-0.259668
0.0540286
0.013936
-0.0509629
0.102308
0.0135284
1.84808e-56
0.0339112
-0.0347129
0.000375302
0.0156311
-0.2246
-0.201423
-0.138851
0.0481385
-0.172525
0.102857
0.140768
-0.156168
0.00281939
0.02969
0.240078
0.0296882
6.19707e-37
0.0149879
-0.0338231
0.0422014
-0.114074
-0.0143951
0.0265041
9.91246e-189
-0.0172016
3.16281e-30
-0.0254179
0.0673756
-0.103047
0.325946
0.00756102
-0.234932
-0.0172418
6.43443e-26
-2.02035e-39
-0.0757869
0.039608
-6.96955e-34
-0.0286051
-0.0300969
-0.0010709
-0.23381
0.344398
-0.00677182
0.0607118
-0.0362824
0.0139958
8.01553e-28
0.040962
-0.0203592
-0.0216379
-0.045136
-0.14059
-0.116119
0.0479545
0.0599937
8.68871e-25
0.0242087
0.0175948
-0.00888623
-0.000675434
-0.0103406
-1.52682e-29
0.0448153
-0.0268647
-0.0322712
0.0113428
-0.0859934
0.033911
-2.45141e-29
-0.0888582
-0.00681881
1.69196e-28
0.0947855
-0.0308781
0.00821563
-2.02035e-39
-2.86319e-33
-0.21084
-0.107705
0.0481192
0.000315847
-0.0634142
-0.023939
0
0
-0.0382827
0.0403168
-0.0385395
6.23351e-58
-1.28457e-322
-1.53022e-26
-0.0103406
0.0532821
1.14705e-38
-0.0438038
0.0416824
-0.0299867
-0.181587
-0.333155
0.0238412
2.58831e-25
-0.0286051
0.0210281
-0.00271939
2.18263e-37
-0.0203043
0.0887231
-0.0285034
4.21272e-30
-0.0874272
2.4727e-25
-0.0718843
3.82229e-37
-0.0192711
0.0366477
-0.00847976
-1.25493e-321
-0.0127918
0.0242269
-0.0182534
0.0190885
1.35112e-39
-0.26503
0.0126071
-1.19454e-26
0.0487945
-0.106855
-0.0840312
-0.198716
-0.0313472
0.0510591
0.0553218
2.10351e-28
-0.0278611
-0.026056
0.0506947
6.43443e-26
0.0470257
-0.0109238
-0.00524544
0.0195341
-3.58753e-69
0.0246878
0.0776507
0.0143841
1.71636e-26
0.0621433
0.105253
0.0199577
0.0019071
-0.623143
-0.00330456
-0.0672446
0.0584655
0.134282
0.0733906
0.0123647
0.122156
-0.00888623
-0.0641079
0.0601002
-0.0203043
-0.0166929
-0.31163
0.0411957
3.83979e-39
0.0638248
-4.02754e-26
0.111558
0.1299
-0.00368524
0.000620646
0.0763668
8.60436e-26
0.213799
2.00895e-109
0.0682739
-0.0327051
-0.0203043
1.541e-279
-0.114143
-1.29558e-34
0.007246
-0.026056
0.000620646
0.0890716
-0.00313272
-0.184308
0.0326991
-0.0278611
1.54113e-183
0.0397797
-0.0170362
-0.0288582
0.052218
-0.0497376
-0.00897707
-0.0125708
-6.06869e-54
0.036423
-0.0152306
0.00680276
0.0433843
0.153593
7.93682e-25
0.0156311
-0.128048
-2.83344e-33
-3.6228e-30
-2.02035e-39
-0.0679567
0.0123647
-0.0399874
0.0133988
0.0774787
-0.222012
8.80815e-27
-0.0524383
0.00107449
-0.0220489
-0.106855
-0.0435297
0.13901
1.35112e-39
0.0627903
1.5477e-29
-0.07339
2.59587e-25
-0.0937846
0.00586551
0.00742682
-2.45145e-26
0.0351499
-0.164892
-0.00888623
-0.0654281
0.0276594
-0.0975888
-0.0696794
0.0809173
0.0417116
0.114703
0.332207
-0.0641079
-0.0712264
0.0082001
-0.0140928
-1.12663e-26
3.70419e-26
-1.721e-37
0.0511325
0.0047065
-0.0784756
-0.00144265
-0.0177201
7.76302e-29
1.64524e-321
-0.0495429
0.097228
-0.0177919
-0.0293415
-0.0294876
0.156968
0.000620646
8.06795e-28
0.0025549
-0.00277401
-0.0374304
0.0337425
0.287031
-0.0220489
-0.0892259
0.000620646
0.0324567
4.20235e-25
-0.0183045
0.0296882
0.0157676
0.161445
0.0576311
-6.71929e-322
-0.0153293
0.189984
0.0241909
-2.02035e-39
9.59674e-57
0.000706846
5.48695e-242
-2.27926e-27
-0.0140928
-6.02341e-13
0.0413403
-0.0356598
0.209859
0.0974739
0.0498584
-0.0170362
-0.0840312
-0.0216121
-0.0787718
0
8.98281e-25
4.30405e-57
5.7759e-40
-0.00210164
0.040962
-2.84235e-30
0.00491234
-0.0423586
0.181665
0.00313567
0.0293703
0.00313567
-0.0113921
0.101602
-0.167641
1.07366e-30
0.00821888
-0.0111998
0.0619829
-9.60843e-34
-0.0813904
-0.163673
0.00509475
-0.0114904
0.0358344
0.00308826
0.0954934
-0.0283746
0.0296882
0.158959
-0.0278611
0.0323533
-0.0721283
0.00707093
0.000620646
-0.0063216
-0.034433
1.62418e-28
1.08978e-24
-0.0525105
0.0284535
0.0447349
2.61224e-25
0.00364111
0.0175948
-0.00897707
0.0339112
-0.0559855
4.30405e-57
-0.0763573
-5.66828e-35
-0.0535768
-0.113997
1.1223e-25
-0.0325413
0.0296882
0.0296882
0.0380845
0.00225104
0.0467822
0.119922
0.0156311
0.0227018
5.44914e-26
0.0153287
1.07714e-30
0.0317959
-3.90344e-29
-0.00430567
4.57848e-40
-0.00430567
2.68898e-59
-0.0303028
-0.00712442
0.0361
-0.0205801
-0.00888623
-3.3279e-49
-0.201969
-0.0468529
2.62878e-55
0.132923
-0.209887
-0.0523623
-0.213087
0.0214679
0.000375302
8.26108e-39
0.0618109
6.42285e-322
0.0259037
-0.0870838
0.0468039
0.00491234
1.35112e-39
1.78499e-27
0.134463
-0.0149019
0.0648944
0.0703358
-0.00377202
3.07838e-39
6.5195e-25
3.64943e-56
0.0544256
-4.29225e-31
0.0389969
2.76288e-29
1.04248e-321
0.153218
0
3.87158e-58
0.0314885
0.114238
0.0835811
0.0345395
0.0467822
-0.041885
-0.474897
0.026046
0.0978891
0.000620646
0
8.98281e-25
0.110527
-0.0316403
-0.049296
3.77517e-27
6.19707e-37
0.00197628
-2.02035e-39
-0.0540791
0.0490746
0
-0.0140928
-0.0155687
-0.182052
-2.67233e-34
0.0824054
0.000620646
-7.81872e-29
0.0324818
0.00756102
7.91145e-28
-0.0140533
0.00313567
-7.31877e-37
0.151778
-0.0621625
0.175522
0.0284666
0.00485975
0.0772471
0.0162233
-2.19099e-34
0.0445668
-2.02035e-39
-0.0243712
-0.00817732
0.00313567
-0.00940713
0.0252878
0
-6.18322e-41
-1.77988e-29
-0.0809644
-0.0010386
-0.00173501
-0.0199826
0.0381732
0.0192359
-0.0954996
-0.0203043
-0.0140928
0.000620646
-0.0147042
0.186672
-0.0780444
-1.52682e-29
5.64629e-111
0.0018168
0.0556793
-0.0113921
-0.0308781
0.0113428
-0.0147042
-0.00391705
3.47438e-27
0.307981
0.00894009
9.07583e-60
0
-0.0408514
-0.102758
0.0323533
0.0863445
-0.00681881
0.0156311
-0.194935
-0.023939
0.0515896
-0.0113921
-0.0312571
0.0245358
2.58122e-28
0.00308826
-0.00944232
-0.0191135
0.0192359
1.5477e-29
-0.0442658
0.0353494
0.0408624
0.0139135
-1.29558e-34
-4.02754e-26
-0.00992483
0.156659
-0.00897707
0.0243608
2.58831e-25
0.0215323
6.79931e-38
-0.00803749
-0.0113921
-0.0162187
0.0783437
5.09054e-27
2.12249e-27
0.0296882
0.00107449
-2.53061e-49
0.0475592
0.0420979
6.45057e-26
4.65392e-35
0.0105265
0.00915006
-0.0286051
-4.59729e-33
-0.0747838
0.0422283
-1.01048e-26
-0.0270982
-4.52988e-36
-6.17507e-39
0.0134275
0.0256457
-0.153382
-0.00430567
0.0297216
0.00208278
0.0282526
-0.0424516
0.0264438
-0.0203592
0.082853
-0.00584303
0.0614263
0.263039
-7.50483e-27
-0.0536357
-0.0865451
-0.0290395
0.0335624
0.192823
-7.3388e-27
5.58412e-25
0.01538
-0.00432824
-0.0901592
0.0885878
0.10511
0.000620646
0.0370205
0.02969
-0.0887609
-9.73639e-34
-1.94662e-321
0.00821563
0
-0.0894514
-0.0216981
1.60224e-37
-0.0113921
-0.0523623
0
-3.7926e-49
1.28943e-36
-0.05986
0.00626394
0
0.0113428
-2.79267e-28
-0.0135008
-0.0462764
-0.104277
1.87075e-38
-4.18758e-42
-0.0100731
0.12536
-0.00277401
0.0863874
-0.00834946
0.00391321
-0.0140928
6.23351e-58
9.35943e-40
-0.0975058
0.100466
-1.4029e-64
0.030004
-0.00558335
-0.0768505
-0.026444
0
0.0295497
0.0019071
-0.0378378
0.0673756
-2.81688e-38
0.0447349
0.0462552
0.0647255
-0.033431
0.00144822
4.98851e-25
1.99003e-36
-0.110363
0.0252878
-0.0372916
0.049028
0.0299411
0
-0.014453
-0.0395659
0.0664136
-0.0140928
-0.0435297
0.000620646
3.17352e-41
0.0566992
-0.00103905
0.109173
7.82754e-111
-2.4031e-27
0.121411
0.0532062
0.0957967
-0.0886153
0.0297216
-3.7926e-49
0.0411957
0.035341
0.0157676
-0.0199826
-0.00649667
0.0388556
0.00107449
-0.129988
-0.0270423
-0.00519787
0.00959763
-2.02035e-39
-0.0498837
0.208409
0.0152286
-0.200961
6.43443e-26
-0.00372368
0.0404893
0.0152441
1.41022e-39
-2.67233e-34
0.0122447
-0.0201525
-0.0289225
-0.0269937
-0.0305988
0
0.00391321
4.04126e-38
