0.0244631
-0.000196106
-1.67366e-06
-0.0463653
0.0660182
0.0252083
0.00157671
-0.0104109
0.0771649
0.00157671
0.00529781
2.14424e-321
-0.101863
0
0.0109017
-0.0182364
0.0139528
0.013454
0.0138586
1.43773e-321
0.0307925
-0.0400798
-0.185349
-0.000186618
0.0328358
0.0109017
0.0145894
0.0062137
-0.00632381
0.0246367
0.0385437
5.09118e-05
-0.000183732
-1.31822e-12
-0.0109826
0.0106301
0.0122129
-2.87517e-08
-1.9256e-05
0
-0.00121077
0.154283
-2.5897e-14
-1.33831e-10
-0.0132853
-0.0563166
-0.0219823
0.0113279
-0.0348656
0.0122356
0.00324264
0
-2.28946e-08
-0.029817
-1.25493e-321
-2.21039e-14
0.00568834
0.000845944
-4.35514e-15
0.032823
-0.000233586
2.00637e-06
-2.80494e-100
-0.0127875
0.0554284
0.0304206
0.0440379
-0.0424586
0.0862176
-0.0036099
-0.000805069
-0.0487049
-0.0420855
-8.74748e-06
0.267563
-0.126022
-0.0469429
0
-0.0419231
0.020592
0.00652068
0.00459913
0.0410342
-0.000147349
-3.87843e-05
-0.0998366
0.142545
0.0406926
0.0291949
0.0304206
0.0572543
-0.0405649
-0.172668
0.0438685
-0.191158
-7.36672e-06
0.120902
0.0484482
0.0427102
0.0354045
-2.28946e-08
-0.000233586
-5.53515e-07
-0.000375643
-2.50049e-07
-2.22981e-09
0.00528704
-1.79259e-06
-1.46794e-09
0.0821161
-0.0613035
1.76726e-54
0.016506
-0.010189
1.07212e-321
-0.0116311
-0.0541972
-1.30477e-10
0.016753
0.155216
0.0627716
0.0187543
-0.0325901
0.021172
0
0.00708955
-0.0612288
-0.101899
0.0768508
-0.0409169
0
-0.015007
0.00122307
-0.013492
0.0214103
-0.000153727
0.0100326
-2.21039e-14
0.097552
-0.0316011
0.0688498
-0.0263807
0.0105622
-0.0975901
-0.000182518
-6.3119e-08
-0.0057301
-0.00350485
-6.40683e-06
0.0835973
-0.0116977
0.00779397
0
0.00241154
-0.0684095
0.0106301
-0.00405257
-0.000178167
-0.05686
0.0704254
-0.0639607
0.00161607
-0.0528793
-0.0206354
-0.000233586
-0.0927412
-0.0137574
0.0233685
0.018691
-0.0284991
0.0771435
-0.0132893
-0.0124212
-0.000196981
-0.134835
-0.00658789
-0.030875
-0.0329576
-0.00343081
0.00711857
-2.28946e-08
-0.0198274
-0.0493494
-0.0696954
-0.035903
-2.14088e-07
-0.0382373
0.314542
-0.0195671
-0.000186618
-0.0704937
0.0368018
0.060025
0.00568834
0.100964
-0.096549
0.0383885
0.00520327
0.0226503
-0.0684943
0.00700789
-0.0267377
-1.99397e-08
0
0.00601264
-0.000233586
0
0.314741
-0.198085
1.76726e-54
4.51601e-21
-0.00947638
0.0105585
0.043332
0.173788
0.00157671
0.104199
-0.000348683
0.162442
-0.0346951
0.0105491
-0.0594123
0.00424618
0.104923
-1.67488e-321
-2.62024e-09
-0.0467669
-0.217494
0.0367617
-2.21039e-14
0.0926894
-0.0319811
0.00224139
-0.0487709
-0.0438477
0.0378676
0.111846
-0.0162236
-0.0261944
-1.44544e-06
0.0634275
-0.0271208
0
0.0431212
0.00880912
0.000189253
-6.69611e-09
-0.0198904
-0.0245596
-6.97154e-08
-0.102376
0.0366838
0.000812367
0.0115134
-0.0198274
-0.00446578
0.027507
-2.00953e-09
-0.0169351
-0.13534
-0.0518037
-0.0315721
-3.02046e-05
-0.00343081
1.43773e-321
-0.177041
-0.000175683
-0.0262106
-0.0733217
-0.0552027
0.0104191
-0.00451353
-0.0413014
-0.10042
-0.0190859
0.106548
0.139054
-1.67366e-06
0.0312125
-8.49411e-08
-2.25082e-08
-0.0104109
0.413153
-0.000168057
0
-2.62142e-12
0.141254
0.011721
0.107918
-0.0379073
-0.00853367
-0.0248481
-0.011469
0.0594547
0.0677898
-0.00100038
-0.00722985
-0.117317
0.0990753
0
-0.00017441
0.0171258
4.72398e-05
-1.30477e-10
-4.88417e-06
0.130941
2.14424e-321
0
0.0194308
-0.00819492
-9.27118e-08
0.000283214
0.0647674
0.0687197
0.0467864
-0.015028
-0.035903
0.0260392
0.00612836
-5.23659e-08
0.0334828
0.139579
-0.118082
-0.000173071
-0.096662
0.0783766
-0.0285461
0.00582788
0
-0.219051
-0.113169
-0.0422852
0.0340841
-0.0420855
0.0100179
-0.0695177
0.00153438
0.00201871
-0.123328
-0.0243745
-0.000210491
-9.98869e-09
0.0201174
-0.0148751
-0.0346951
-0.000187763
0.00654304
-0.0464312
-4.13088e-07
-0.0514328
-0.168413
-0.0636032
0.00708296
0.202154
-0.0219823
-0.0744809
-8.74748e-06
0.0769933
-0.000172619
-1.44544e-06
0.0810956
-0.0166068
-3.64181e-06
0.00166826
0.000998583
-0.0564537
2.43436e-05
-4.44659e-322
0.0617841
0.032823
0.14364
-2.76814e-14
-0.0278251
-5.83269e-12
-0.00841685
-0.000233586
-0.0578048
-0.0232284
-0.000176299
-0.000233586
-0.0244832
0.00520327
0.0850553
-0.000170471
-0.025984
3.04544e-05
-0.0086222
0.0772083
-0.0355553
-0.00451353
-0.103489
-0.000233586
3.09176e-06
-0.00153265
-2.00953e-09
0.0158176
-0.0409169
0.00706741
0.00304144
-2.62024e-09
-5.53515e-07
0.0989828
0.0854677
-0.000175376
-0.000182516
0.00241154
0.0319738
-1.99397e-08
-0.0164323
0.0376571
0.116778
3.04631e-08
-2.25082e-08
-0.000786486
0.0609886
-0.0185107
0
0.0858897
-0.0109826
-0.0537799
0.00229143
-0.000182434
0.0654246
-7.24585e-10
-0.0261944
0.106059
0.000812367
0.0923862
-0.0550456
-8.91006e-07
-0.00614196
0.00124632
0.0741018
0.00631683
-0.000147349
0.00568834
-0.0671982
-0.0265456
-0.15632
-0.0392441
-0.0383825
0.0510269
-0.0195671
0
0.0153004
-1.60571e-321
0.0128796
0.100367
-0.00722039
-0.0712863
-0.000187763
-0.000173725
0
1.76726e-54
-0.000233586
-0.0304174
0.0200688
0.0165171
-0.0562636
0.00811553
-0.00185938
0.0239306
-0.00853367
0.0324906
-0.00425251
0.00425636
-0.000175962
-0.0527112
-6.50009e-12
-8.22044e-06
-0.048893
-6.75988e-09
0.0156356
-0.0596869
-8.64068e-06
0.00557931
-0.0821518
-0.0321689
-0.0291339
0.0117692
-0.255405
-2.76379e-05
-0.0477773
-0.0401395
-0.123114
-0.0122955
-0.102778
-3.37504e-07
0.0380218
-0.129354
-2.21039e-14
0.0281921
0.0117043
-0.0275957
-0.0370169
0.0104191
-0.00955628
0.00609522
-0.000196981
0.0094844
0.0249654
1.76726e-54
-0.0336333
0.0332679
-3.87843e-05
-2.76814e-14
-0.00853367
-0.0175568
-0.00022139
-0.0492554
0.0275144
-0.0735926
0.0820854
0.0713622
3.09554e-20
-0.0195635
-1.87369e-12
-0.00645923
0.0201014
-2.76814e-14
-2.00916e-05
-0.0326439
0.206081
0.0170875
0.00525778
-1.99391e-06
-2.32662e-10
-0.0698064
-0.0463653
-6.50009e-12
0.0710619
-0.156764
0.00663945
0.108198
-0.00645713
-0.00352728
-0.0972734
-1.70135e-06
0.0219241
1.04845e-19
0.00801994
0.0339034
-2.07176e-08
-0.0828917
-0.0156791
-0.0324136
-0.0853508
0.153555
-2.70794e-06
-0.137493
-0.0165573
0.00724187
-0.0370698
-0.0255774
0.253704
-0.0223683
-0.0156494
0.041462
-0.0469079
-0.0114892
-0.064429
-0.00385634
0.0425114
0.186035
0.0241165
-0.0153555
0.0187422
-0.0637873
0.0714711
-0.101899
-2.00953e-09
0.00483661
0.0626152
-0.0275048
-0.0168091
0.0208117
0.0419358
-0.0927338
0.0271843
-0.0268691
0.093442
-0.0405711
0.0420554
0.00482951
0.0763732
7.92913e-05
0.0408602
0.0322585
0.0414561
0.01075
0
-0.0213798
-0.115726
-0.0153438
-0.0111834
-0.000233586
-5.53515e-07
-0.0361063
0.0701939
-9.33679e-07
-0.00528915
0.0328358
-0.000164203
-0.0624446
0
-0.0612832
-0.0184264
0.0570575
0.00196702
0.0282554
-0.00641016
-0.0644671
-0.0644066
-0.0286381
-0.0202076
-0.137094
-0.00115324
-3.10534e-11
0.132761
-0.128417
-2.18966e-07
-5.90992e-12
0.124894
0.127338
-0.0468725
-0.0278982
-0.00022139
-0.0046191
0.105005
-0.000187763
0
0.0628186
-0.101899
0.0330231
-2.5897e-14
-2.21039e-14
0
-0.171708
0
-0.0213798
0.0281502
-0.108828
0.120876
0.00241154
0.00460841
0.0306919
0.051
0.00435823
-0.000221392
-0.0338907
-0.016772
-0.102942
0.0666035
-0.0485745
-0.015028
0.0175166
-0.000186618
0.0318243
-0.0496579
0.0893349
-8.38185e-06
-0.0032704
-0.0175568
-0.000171854
0.051947
-0.0625659
1.92686e-321
-0.0459756
0.205188
-2.19479e-07
0.0211657
3.04544e-05
-2.12201e-06
-0.0989177
0.164484
0.0330876
0.00558841
-0.0858211
0.137665
-0.029724
-2.82773e-09
-1.67366e-06
0.0135445
-0.011415
-0.06372
-0.076881
0
-0.000172655
-0.00444663
0.0164111
-0.10292
0.00841481
0.0570552
-0.0886046
-1.93678e-09
0.0666241
-0.0518037
0.309669
-0.04134
-2.25082e-08
0.156589
-0.0577802
-0.000233586
0.00122307
1.57104e-20
-0.0369244
0.0101523
-0.0266953
0.0259037
-0.00976801
0.240226
0.0687197
-2.21039e-14
0.0287867
0.0189948
0.0995498
-5.14494e-06
0.00201905
-0.000166978
0.0308057
0.0237091
-0.000168871
1.76726e-54
0.016517
-0.00688896
0
0.0965119
-0.0122956
0.0131068
0.00538897
-0.0103107
3.08635e-19
-0.0440144
0.0329643
-0.0184314
-0.0702333
-0.113179
0.0100849
0
0.0120559
-0.0751728
0.131654
0.134058
0.0463785
0.0191996
-0.0429195
-2.32662e-10
0
0.0603533
-0.0034471
-4.15015e-322
0.0153848
0.0238544
0.0311697
0.0220503
0.0188247
-8.91006e-07
0.0340442
0.0130885
-0.000167266
-1.77563e-12
-0.000182434
-6.69611e-09
-1.31822e-12
5.30956e-274
0.0585593
-1.99391e-06
-0.0884541
-0.0334891
0.106686
0
0.000812367
-0.000170157
-0.0137067
-0.02667
-3.75201e-06
-0.0168252
-0.0390785
-0.0104987
0.0560232
-0.0299808
0.0273736
-0.0195671
0.0126287
-0.00345333
-8.5154e-08
0
-0.114783
-5.53515e-07
-0.115191
-0.573133
-0.00658789
-0.0417287
0.050648
-0.165874
-0.00658789
0.0124792
-2.34617e-07
-1.69458e-06
0.339034
0.0134998
0.0368887
-0.0488712
-0.0241185
0.00241154
0.0274188
0.0182799
-0.00976801
-0.000233586
0.504673
-0.209881
0.00122307
-0.000184708
0.0304206
0.0236369
-0.0031513
0.129491
-0.0193004
-0.0207929
0.354698
0.0575879
-0.0401364
-0.000160775
-0.101412
0.0430231
0.00324305
0.15512
-0.0518037
0.13252
0.105348
-0.0119836
-0.0195067
0.043781
-0.0138398
0.00122307
-0.0185107
0.0377875
-0.0450686
0.00492979
-0.0135282
-0.0384682
0.093442
0.170755
0.0712959
1.7576e-06
0.0255463
0
-0.035903
-0.000233588
-2.38946e-05
-3.08965e-08
-0.0261944
-0.000183732
0.0105601
0.0213703
-0.0277441
0.0180427
-2.50049e-07
0.0665711
0.0239306
0.0299537
0.00122307
0
-0.130449
0.0704254
0.0590844
0.0771918
0.017615
-0.00146754
-2.21039e-14
0.0168952
-0.0730356
0.0220631
-0.0724996
-0.0132852
-0.00455935
0.0211449
-2.25082e-08
-0.025125
-9.27118e-08
-0.000173071
-0.0330289
0.0324191
0.283765
-0.0836068
-0.00757509
-0.0445503
-0.000187763
-0.0784768
0.013454
-0.000813065
0
-0.0302409
0.134361
-0.11166
-0.0046191
-0.0649155
0.0167243
0.000231719
-0.0365428
-0.0745577
-4.84875e-05
0.0388802
-0.0705263
-0.000233586
-0.000170471
-3.10534e-11
-6.0276e-322
-0.000684485
-0.0182364
-0.00022139
-0.000182516
0.00201905
-0.0330218
-0.000186618
-8.37326e-07
0.00595029
-0.0169316
0.00706741
-0.000177534
0.00891704
0.00241154
-0.0550972
0.0414561
1.07706e-321
-0.00930039
-0.0454385
-2.28946e-08
-0.0240192
-0.0262604
0.0036366
-7.15354e-09
-0.0763901
0.082982
-1.36153e-35
-0.0510196
-0.0430585
-0.0364792
-0.0198904
-0.0182364
-0.0341861
-0.0806715
-0.039554
0.00537941
-9.27118e-08
0.00520327
1.57104e-20
-0.0179865
1.07706e-321
-0.107548
7.6716e-08
0.0143494
-0.0213798
4.51601e-21
0.013077
0.0918617
0.0528382
-3.12327e-05
0.0107268
-0.0283861
-0.0416672
0.179421
0.0609045
1.58101e-321
0
-4.44659e-322
0.00114519
0.0523789
0.0665151
-0.0998782
0.13546
-0.01428
0
-0.000173741
-6.69611e-09
0.101608
0.0448642
-2.92208e-06
-0.058473
0.0222948
-7.35287e-06
-0.0154954
-0.000171505
0.00460841
0.0392828
-0.0319811
-0.0883962
-0.065164
-0.0809231
0.0152048
-1.89793e-07
-0.0705522
-0.000233586
-0.000173723
-3.77128e-05
-0.0429601
0.135074
0.0340508
0.00057741
0.00193141
4.51601e-21
-0.0342615
0.170843
0.00706741
0.0474185
-7.36672e-06
-0.000175124
0.0306921
-0.00930014
0.00520327
-0.00877477
-0.00417586
-0.000233586
-0.015007
-5.14494e-06
-0.0677505
0.0367773
-0.000178216
0
-0.101659
0.0376005
0.0129296
0.0477624
-0.0590381
-0.0786984
-0.00160996
0.0685698
0.0101144
0.0408495
-0.0255774
0.0253796
0.00241154
-0.0219367
-0.000233586
-5.91784e-07
-8.16975e-06
0
-0.0552433
-4.58468e-06
-0.0111396
-0.00499968
-4.58468e-06
-3.75635e-07
0.0388442
-0.000173723
0.0944694
-0.0113095
0.0306921
-0.000127906
-8.16961e-06
0.0957851
-0.0256666
-0.0534066
-8.2309e-13
0.00969408
-0.00658789
-0.000196106
-1.99391e-06
-3.02046e-05
0.0459981
0.00528704
0.0554457
0.0519767
-0.0488712
0.0685621
-0.000407327
-0.106669
0.0446381
-2.34617e-07
-2.67559e-10
0.0598837
-3.2398e-06
-0.00343081
0.400741
-0.0195671
-2.5897e-14
-0.00017441
0.00460841
0.105756
-1.9279e-08
-0.000668375
-0.0552167
-0.0109826
0.0689921
0.399846
0.0408602
-0.116297
0.0246819
0.0825854
2.14424e-321
0.0410445
-0.0317616
-0.0936474
-2.21039e-14
0.0372302
0.00219413
0.171901
-0.00156681
-0.0197285
0.0446381
0.0181937
-0.000233586
-0.000233586
-0.0671243
0.09812
0.0223036
-0.0109826
-0.000233586
0.000346616
-0.0195015
0.0165171
-0.0371265
-0.0203622
-0.0206744
0.0775653
0.0446381
-0.0307581
1.76726e-54
-9.17964e-05
-0.062619
0.0120121
0.182648
0.00984768
0.0209703
0.0290851
-1.12545e-08
-2.14088e-07
0.107934
-9.98869e-09
-0.141521
-2.14088e-07
-0.0240192
0.00268322
0.0105461
-2.21039e-14
0.0396702
7.09706e-05
-0.0823618
0.00538827
0.0608523
0.318821
-1.00789e-321
0.572932
-0.035903
-0.0547499
0.173712
0.0508688
-0.0238368
-2.50049e-07
0.00443053
1.57104e-20
-0.0471709
0
0.0673002
-2.32662e-10
0.183558
0.00590188
0.0177246
-0.0564498
-0.0633669
-0.0182364
0.0677292
-0.0408169
-0.0643297
-0.00149685
-2.481e-07
-7.05764e-11
0.00571671
0.0104191
0.000998583
-2.34617e-07
0.0180427
-0.000186618
-0.135252
-0.0317944
-3.64181e-06
0.0284674
-6.42285e-322
0.0305206
0.0279875
0.0031032
-2.76814e-14
0.019475
0
-0.00017357
0.0626877
-0.00345333
-3.42587e-08
0.106545
-0.00550996
0.0684843
-0.00620631
-2.481e-07
-0.048893
-0.0636878
0.0776666
0.036269
-0.00017357
0.0603659
0.0991524
-9.72471e-05
-0.00288607
0.112329
0.0319738
0.0239306
-0.000173592
-0.05174
0.13901
0.200649
-0.0110715
0.0608857
0.0163178
-4.44659e-322
0.0259475
0.000283214
0.109771
1.76726e-54
9.58487e-322
0.00342053
0.0179083
-0.0339836
-0.0969387
-0.037531
0.0597687
-0.02473
0.0350968
0.0161455
0.0428196
0.0255369
-0.0100503
-0.00796667
-1.59292e-11
0.138607
-3.48165e-10
0.0724324
-0.000169289
-0.05686
0.00681472
-0.0704388
-0.115287
0.0440878
-0.0226098
-0.00451355
3.53237e-05
0.00412257
0.0202092
0.0931269
0.0367773
0.010314
0.010314
0.0312707
-0.0496648
-0.0377502
-0.0498812
0.0107604
-0.00499968
-0.0542452
-0.0277441
0.0107604
0.00201905
-0.00749665
0.0791423
-1.89793e-07
-2.00916e-05
-0.0902148
0.048747
-0.0623367
0.095543
-0.0445306
-0.066311
-0.000173553
0.00706741
0.0324985
0.00460841
0.0862423
0.000673203
-0.0515789
-0.172774
0.00201926
0.0112329
0.00814936
-0.0118425
-0.0420855
-0.0307308
-0.0671243
0.0720231
-0.1281
0.0459755
-0.01527
-2.55312e-06
0
0.0105601
0.167042
-2.87517e-08
0
-0.0814488
-6.40718e-06
0.0609521
-0.0201409
-2.91509e-05
-0.0508894
0.0183455
-0.00877911
0.00314871
-0.0023953
0.00584474
-0.0431983
-0.000172918
-0.0459201
-0.0125258
-0.0184095
0.0133553
1.49702e-321
-0.000171505
-1.09657e-06
-0.0301291
-0.000189931
-0.0120529
0.0188589
0.098609
-1.38092e-09
0.0516805
6.83039e-07
-0.000176299
0.0295336
0.0339941
0.000386234
0.025945
-0.118058
-0.0217028
0.000109861
-0.0362459
-0.0365428
-0.0365428
-2.62024e-09
-8.28063e-07
-0.0141102
-0.102345
-0.0195671
-0.0614457
1.76726e-54
-0.000151084
-0.0235561
-0.0197954
0.00241154
-0.0393065
0.148101
-0.0816572
-0.0292104
-0.0934053
0.0484223
0.0651062
-0.000168083
-0.000173553
-0.0317876
0.00547088
-0.0402339
0.12364
0.00442773
0.124151
0.0255463
-0.0778692
0.00938149
0.03803
0.0897442
-3.89075e-06
-0.0550381
0.0094844
0.00483661
-0.0164042
-2.22981e-09
-0.0427501
-3.64181e-06
-0.000357027
-1.58186e-10
-1.70135e-06
-0.0116311
0.00241154
0.0161974
-0.00681847
0.207174
0.0302422
4.51601e-21
-0.0476969
-0.000174766
0.0592087
2.14424e-321
5.35299e-21
-0.102127
-0.0185107
0.0713622
-0.0398566
-0.23522
0.097833
-0.0198274
0.0019326
-0.0146093
0.0255463
0.00389843
-0.0178341
-0.0100828
0.049487
-0.0135486
0.0660182
0.0039781
-0.000233586
0.0418215
0
0.0554457
0.00520327
0.193348
0.052792
-0.0465383
-1.52307e-05
-0.000233586
-0.000521895
0.0397451
-2.5897e-14
-0.000233586
-0.00658789
0.115579
-0.0266735
-0.00304073
-0.0463653
-2.5897e-14
0.141206
0.0800611
0.0264137
-0.00859057
-0.0117048
0.0766
-0.0192443
-0.000189931
0.0376005
0.0534638
-0.0219823
-0.00955628
-6.35961e-06
0.0550049
-0.113598
-0.0175568
-0.00022139
-0.0392503
-0.00853367
1.57104e-20
0.00201905
-0.0261854
-3.10392e-06
0.000998583
-0.0102935
0
0.00779213
-3.75635e-07
0
0.00169489
-0.0117047
-0.00220147
-3.19566e-07
-0.0992941
-0.066311
-8.28063e-07
-1.67366e-06
-0.0217606
-0.293692
-0.0554205
0.0202092
0.0635183
-0.0123227
-0.0365589
0.0340542
-0.0281178
0.0418218
-3.75635e-07
-0.117298
-0.056269
-5.53515e-07
0.0279226
-0.029724
0.0110165
0
-1.37287e-05
7.6716e-08
0.0655936
-0.237134
-9.91421e-07
0.0241986
-1.67366e-06
-0.00033976
0.068708
0.010314
-8.49411e-08
-0.035903
-0.000173723
0.122384
0.00376248
0.0769736
0.0924246
-0.0355065
-0.218653
-0.0565233
-1.83832e-11
-7.96887e-05
1.20556e-19
-0.0122052
-0.108458
-0.113293
0.00237773
-0.0321753
-5.23659e-08
0.0175023
-0.0463614
-0.0566548
0.039948
0.0648441
-3.55485e-05
-2.22361e-05
0.00483661
-0.021012
0.0330801
-0.0266953
1.58101e-321
0.213471
-0.000183732
-7.05764e-11
0.0143458
0.202523
0.0202092
0.114194
0.016506
0.00584069
-0.0761389
0.0396702
0.0106382
0.0525535
-0.000264307
-1.62503e-05
0.0112368
0.0438685
-0.0346951
0.0492058
0.0429908
0.0061838
-0.0479613
-0.0076068
0.104426
0.00595029
0.00984768
-0.000287507
-0.0942295
0.0899799
-0.0261944
0.187514
-1.42057e-06
-0.0616213
-0.00404237
-6.50009e-12
-0.0399448
-0.0180748
1.57104e-20
-0.000221396
-6.54087e-06
0.0193677
0.00356456
-9.85805e-09
-0.0990157
0.0820607
0.0312207
0.148101
-1.67366e-06
-0.0785135
-0.435134
-0.0450766
-0.0712398
0.0645151
0.0501474
-0.0828092
-0.0795071
-0.0130661
-0.048893
-0.0182364
-0.0442361
-0.0392441
-0.0654978
0.0482768
0.00768327
0.032051
0.170306
0.0107604
-6.86196e-05
-0.128674
-0.0182364
-0.000233586
0.0283045
-1.99391e-06
0.000845944
0.000845944
0.121663
-0.104501
-6.043e-05
-0.0663117
-0.00632381
-0.0405711
0.0253638
0.00241154
-0.00390369
0.000646357
-0.0217617
0.029336
-0.0496648
-0.00744117
0.0884824
-0.0610527
-0.00310021
-0.00579368
0.045961
0.0899664
-0.0188546
-2.67559e-10
-0.0327284
0.0940602
0.10214
0.010314
-0.020289
-0.0265029
0.0129833
-0.000173071
0.0753201
-0.0109826
0.0681461
0.0283105
0.0115134
-0.0508451
0.0457841
-0.276462
0.0551025
-0.0109826
-5.23659e-08
-0.0814204
-0.00446257
-9.45777e-08
0.0106858
0.0442864
0.0196194
-0.0420057
0.0255369
0.0271724
-1.84286e-321
-0.0103107
0.075415
0.129112
-0.000147349
-0.226275
0.00521484
0.0956086
-0.00939966
0.106851
0.0880462
0.0105125
0.106977
0.000982871
0.000998583
0.0577565
-1.04313e-05
-3.32134e-08
-3.37504e-07
0
-0.0182364
-0.105451
-0.0843728
0.0558825
-0.0135652
-0.2041
-0.00939966
0.175314
-2.5897e-14
-3.20483e-06
-0.000233586
1.04845e-19
-0.0259503
-0.00022139
0
-0.0725189
-0.0486827
-0.185293
0.0548397
-0.299735
-0.0261944
0.0685698
-2.14513e-13
0
0.00822781
-0.0391892
-0.0158037
-0.0447171
-0.0201821
-0.000186618
0.0165349
-0.0116311
-0.00016896
-0.0692972
-0.0321479
0.0138263
-3.75635e-07
0.181366
-0.0197308
-9.28131e-09
0.0473457
0.00122307
-0.0205771
-0.0715792
0.0116007
-0.0255261
-2.05583e-13
0.0534638
0.00948271
0.0011604
-0.0151054
-0.0323496
-0.0675481
-2.70785e-06
0.00420776
-0.000233586
0.0622955
0.0772083
-0.04067
0.00583897
-1.31822e-12
0.0086151
0.0124792
-0.048893
-0.034571
-0.000171505
-0.0287563
0.027802
0.0182799
-0.0387623
-0.000171518
-0.0471591
0.143289
-0.0431983
-0.0371265
0.114715
-0.346528
0.00122307
-0.00859356
-0.00459007
0.00157671
-0.0956945
-0.0104889
0.0175023
-0.000196106
-0.0355553
-0.00944203
0.0801717
-0.0559353
-0.000238335
0.113747
-0.0924366
-0.158215
-9.0206e-05
-0.00658789
0.0122032
-0.00246962
0.0329086
0.121049
-0.0523018
-0.0410722
0.138504
-0.02299
-1.51676e-08
0.00314871
-0.4699
-0.000173071
-1.89793e-07
-0.000264307
0.0307354
-2.21039e-14
-0.0753061
0.0897664
0.00396651
0.0482088
-3.2398e-06
-3.75635e-07
-0.000186618
0.0103952
0.0143137
-0.048893
-0.132941
-0.0672711
0.0112906
-1.68406e-06
-0.00744114
0.0685698
0.0258751
-0.0602387
0.0606919
0.000581284
-2.76814e-14
-0.0738148
-0.00310021
0.00769678
-0.0645088
0.0636608
-0.039291
0.00122307
-0.0610527
-0.00321537
0.0695553
-0.0556853
-0.0135366
0.0790328
-8.39831e-06
-5.40287e-07
0.00125821
0.00520327
-0.0361063
-0.0463165
0.0255369
0.0482356
-0.0463653
0.00800399
-0.0566647
-0.000168057
-1.62274e-05
-0.0510302
0.0514327
0.0233699
-0.0213798
-0.0862554
-0.00282431
0.00951157
0.206298
-0.0920242
-0.00232594
-0.00658789
0.166538
-9.91421e-07
0.123334
0.0105622
-8.3003e-322
-0.0438158
-0.000918291
-0.0357243
-3.67849e-05
-0.00016464
-0.0262056
0.0060434
0.0467864
5.30956e-274
0.000606929
-2.1959e-06
0.0523274
0.00241154
-0.0205675
-0.146395
0.0230023
-7.83282e-07
0.0271724
0.0605954
-2.28946e-08
0.00707452
0.028196
-0.0615834
0.0148472
0.0468191
0.00165287
-0.171602
-0.0278025
-0.0526549
-0.0898059
-0.00455766
0.107943
0.124086
-0.0420855
0.0278018
-9.98869e-09
-0.0690722
0.029961
-0.0181201
0.0239306
-0.118857
0
-0.067614
-0.0182364
-2.21039e-14
0.00654304
0.10894
-0.00649779
-0.000182516
-0.0283438
0.149553
0.0897528
0.051947
-0.00211851
0
-6.7415e-05
-0.0258914
-0.000521902
-0.0175568
0.0275144
5.30956e-274
-0.0459756
0.0144878
0.161971
0.0171259
-0.05686
0.0349389
-0.019215
3.73349e-68
0
0
0.103725
0.0119605
0.00219758
-7.85815e-06
-1.36153e-35
-0.0253783
0.00241154
-0.0240346
-0.000141264
-0.00499968
0.000709534
0.0130887
0.00547088
-0.0151054
0.03803
0.0914607
0.00201905
-0.0262056
0.0584895
-0.148387
0.207922
0.0217392
0.0233699
0.187115
-0.065164
0.0153848
-2.28946e-08
-2.69979e-06
-0.0360253
-3.75635e-07
-0.0459871
-0.0467669
0.00460841
-0.14187
0.0992169
-0.0826872
-0.000127072
0.0110609
-0.00228844
-0.0521009
-0.0276858
-8.74748e-06
0.0820297
0.0292386
0.0279573
0.174448
-0.0162106
-0.000221765
0
-6.23221e-10
0.182025
0.0660182
-0.0614257
-0.042407
0.000845944
-2.21039e-14
0.000812367
-2.03571e-05
-0.103212
-0.0418973
-0.00853367
0.234808
-1.31822e-12
0.000359586
0.0815563
0.0105601
-0.245145
-0.0125287
0.106851
0.0173159
0.0264514
0.0482768
0.0453673
0
0.0292102
-0.00352728
-0.015007
0.0564118
0.000283214
0.0633425
0.0322894
0.241713
-0.0122053
-0.0454414
-0.0292104
-0.116944
-0.0200366
0.0259475
0.000845944
0.0440038
0.0708413
4.72398e-05
0.00122307
-0.0715792
0.048894
1.57104e-20
-0.00045345
-0.0367274
0.0187391
0.0259475
0
0.0259288
-0.000521895
0.002295
-0.0431983
-0.0268262
-2.32662e-10
1.76381e-321
0.00525778
-0.0686732
0.00498188
0.0456443
0.022914
0.0849935
0.002295
0.0166773
-0.0972145
0.0106858
0.0408602
-0.000170157
0.135208
0.142827
0.00425636
-0.0654292
0
5.30956e-274
-0.0319811
-0.000173071
0.076476
-0.0327309
0.0220834
-0.046792
0.025907
0.0368887
-0.0982138
-1.30477e-10
-2.00735e-09
-0.000176299
0.0311697
0.00161103
-0.0302648
3.08635e-19
0.0164111
-3.71517e-09
0.0289557
-0.0212168
-0.0174382
-0.0159005
0
-2.5897e-14
-0.0696207
0.0060434
-0.0359442
0.00547088
-0.000168083
0.000793565
0.00425636
0.0564053
0.114969
1.21636
-1.44544e-06
0.00468345
0.0222905
0.108511
-0.0361066
0.0159866
0.0469884
-0.0504817
-0.0462273
0.0400261
0.00978389
-0.000173741
-0.0240135
9.83721e-05
-2.62142e-12
0.00547088
-0.0390844
-0.00491865
0.00404293
-0.000182434
0.00662261
-0.000233586
0
0.0478883
-2.32662e-10
1.76726e-54
-0.0055283
-0.0137574
-0.0104109
0.0449659
0.0287688
-0.0485745
-0.000186618
-2.62024e-09
-0.0627945
-2.09231e-07
-0.0169601
0.0841243
0.013454
0.139941
-0.0175568
0.00420776
-2.15419e-07
-2.97807e-10
-0.00458114
0.0011235
-2.75479e-06
0.0372791
0.00537309
-0.0356634
-0.000196106
1.58385e-22
1.04845e-19
-0.0182364
0.00822584
-0.15181
0.109771
0
-0.0122955
0.00539936
0.0244631
-0.0467329
-0.0168001
0.0153004
0
4.51601e-21
-0.0108734
0.0414561
0.00241154
-2.32662e-10
-6.42834e-06
0.0271724
0.109542
0.0467864
-0.00658789
-0.0465503
0.00500709
-0.00621398
0.023853
0.184707
0.00424616
0.0124044
-0.0156715
0.0271724
-9.85805e-09
0.0122356
0.0166697
0.000185339
7.09706e-05
1.58385e-22
0.0149491
-0.110237
-8.31559e-05
0.00157671
-0.248293
-0.062472
-0.0746186
-0.135408
0.117143
-0.0301575
-0.0134695
-0.033527
-0.018503
-3.90848e-10
0.0419928
-0.0363397
-8.5154e-08
-3.19566e-07
-2.71563e-99
-0.0137545
0.0109017
-2.5897e-14
-0.0155041
-0.0439217
3.04544e-05
-0.140928
-0.0399448
-0.00187171
-2.92208e-06
-0.000189931
-0.207656
0
-0.0413391
-0.121505
-0.000127906
-0.0230077
-1.67366e-06
-0.000169289
4.36946e-05
0.00602935
0.00122248
0.000690213
-0.0193944
-0.00606255
-0.0468725
-0.0159873
-0.0372228
-5.68941e-06
-5.91784e-07
-0.048893
0.0840741
-0.0346951
-0.035903
-0.0316
0.196402
0.0941242
-0.0175568
-1.67488e-321
-2.21039e-14
0.0219241
1.13635e-321
0.00984768
-0.0371268
-0.0355553
0.0255369
0.0181702
0.074991
-0.0950802
0.0558803
-0.0464312
-0.119919
0.000189065
0.093442
0.0893349
0.0129296
-0.0109826
-0.105998
-3.10534e-11
-1.07706e-321
-2.67559e-10
0.00122307
-2.07981e-09
-1.76263e-07
-0.0146029
-0.0198904
-1.61438e-10
0.010367
-0.000255614
-2.69979e-06
0.255359
-0.0123227
0.00768327
-0.0552693
-0.0339488
-0.0462016
-0.057561
-0.045613
0.016033
-0.0359031
-0.0401073
-0.048893
0.0147783
0.0105601
0.0200688
0.122353
-0.205231
0.010226
-0.0821568
0.164745
-0.0747641
0.10173
0.0276174
-0.054193
-0.00849252
-2.87517e-08
0.00442773
-0.0642496
-0.150946
-8.49411e-08
0.00460841
0
-0.0458488
-0.0213798
0.0247642
-0.000172648
-0.00787636
3.04544e-05
-2.14088e-07
-0.100744
0.0490498
0.156152
0.00538897
-7.85815e-06
-0.0601436
-0.015028
-0.0411867
-1.9279e-08
0.0352887
0.0154229
-0.0338146
0.0104191
-0.0529949
0.0761806
-0.0394926
-1.44544e-06
0.0303901
-0.126335
3.73349e-68
0
0.063474
-0.0177911
-0.0138398
0.0797328
-0.0478116
-0.0385506
-0.00395389
0.0304206
-0.000183732
0.101045
0.0723159
-0.000103622
0.0105622
7.70926e-09
0.0312125
-0.0401395
-0.0100204
0.0570546
-0.0284525
1.57104e-20
0.00122307
0.0581887
0
0.00434534
-0.0117047
0.00999528
-3.03238e-10
0.0244622
-0.029921
-0.0145465
-2.5897e-14
-8.16961e-06
0.036998
0.0174908
-0.000233586
0.0340508
1.57104e-20
-2.06065e-09
-0.0892175
-0.0837569
0
-0.0772307
0.0106301
-0.000233586
-0.0306272
-0.109761
0.0299537
0.178047
0.20216
-2.87517e-08
0.0220503
-0.131031
0.0139454
0.0554284
-0.0718026
-2.80494e-100
-4.02948e-06
5.35299e-21
-0.0324798
-1.4299e-98
0.0395411
0.00215747
-0.000175683
-0.000233586
-0.0261944
0.0455007
-4.02243e-06
-3.10392e-06
-0.0116977
-0.037531
-0.00685142
0.0387884
0.0702906
-0.0177878
-0.154341
-0.0072733
-0.000173725
-0.18983
0.0517346
0.0064621
0.137684
-0.000127906
3.04631e-08
-0.0574966
1.57104e-20
0.0491072
0.00547088
-0.0146029
0.0102796
-0.0306561
-0.0876792
-0.0594435
0.0519677
0.000111579
-0.045046
-6.40683e-06
-0.0934053
-0.0638067
0.0347732
0.0397378
-0.0283832
-6.46536e-07
0.0325643
-0.0262601
0.0271724
-0.0488182
-0.0776118
-0.0162106
0.0134998
-0.000172458
-0.0377034
0.00391453
-0.0927338
0.0756803
0.00520327
0.0666194
0.291232
0.106766
0.225211
0.00520327
-0.0226656
-0.109074
-0.0675506
2.43436e-05
-0.155445
-0.015359
-0.00641016
-8.2309e-13
0.0656657
1.76726e-54
-8.91006e-07
-0.0261944
0
-0.000183732
-0.0217617
-0.0931591
0.0797097
-1.58186e-10
-0.000146763
0.0778287
0.029961
-7.35287e-06
-3.38845e-07
-0.00853367
-0.000172655
-2.1959e-06
-0.122426
-0.000173071
-0.0151054
-0.0242531
0.0409176
-0.00491865
0.0188413
-3.75635e-07
-0.023816
-0.113812
0.0685376
0.0060434
-5.53515e-07
1.43773e-321
-0.0155519
-0.0302665
0
0.0062853
0.0470486
-2.80494e-100
0.093442
0
-0.11182
0.016506
0.116082
-0.0508981
-0.0793458
0.0432677
-1.46794e-09
0.00990295
0.0764798
0.0178807
-3.75635e-07
-0.0496648
-0.0146029
4.77209e-06
0.124603
0.0209703
-0.00658789
-0.0261944
-0.313411
3.09554e-20
-0.0487832
-0.0409404
0.0374066
-9.91421e-07
0.004115
-0.0157798
-0.062472
-0.0391025
-0.0274715
-0.0260683
0.000812367
-0.000233586
0.0425193
-0.00264085
0.028196
-0.0603924
0
0.029961
0
0.401164
-1.9279e-08
0.135077
0.0167961
0.00476009
-1.62274e-05
0.0193663
-8.49411e-08
-0.231463
-2.21039e-14
-0.070114
-0.0994781
-0.00179829
0.224501
0
-0.0120529
0.00538897
-0.0105984
0.130645
0.0115315
1.84254e-06
0.000189253
0.00268322
-0.0456183
0.198381
-0.198013
0.189801
0.000846096
-0.0433153
-0.0122955
-0.145506
-2.80494e-100
0.0262134
-0.0955857
-0.0144876
0.240674
-0.0719125
-0.00117684
-0.00639299
-0.0116311
1.58101e-321
-2.21039e-14
0.00836068
0.0201415
3.09554e-20
0.010198
-0.352087
0.237646
0.0177591
0.0430231
0.0239281
-0.0355553
0.0226504
-0.0212291
0.00775923
-0.00245617
0.00129389
0.00520327
0.0849935
0.0306921
0.0718839
-0.000186618
-0.0610341
-0.000233586
0.129917
0.01075
-0.0122052
0.0870128
0.0402987
-0.00212035
0.0519049
0.0202092
0.0528382
0.0849935
-0.000175683
0.0143555
0.029961
0.0817358
0.00125824
0.0134136
0.00375859
-0.000170157
-0.0520683
0.0209703
0.110974
-4.39489e-06
-1.89793e-07
0.0652647
0.142253
0.22763
-0.0213798
-7.32516e-06
-0.0350194
0.0196083
0.0202092
0.00105175
-0.0156791
-2.87517e-08
0.00355173
0.0906906
0.0101138
-1.0914e-05
0.00528704
-6.40545e-06
-0.0203786
-0.0262056
0.051947
0.0832217
0.0246707
-1.76381e-321
-0.000172918
0.00583904
0.0676694
-6.043e-05
0.00554454
-0.0593587
0.0206557
-0.000174887
-2.28946e-08
-0.0540215
0.0484268
0.00425636
0.0052739
-0.0510196
0.00241154
0.0635183
0.00927614
0.0695405
0.00621213
-0.0544276
-0.0546081
-2.00953e-09
0.0302771
-2.56734e-12
0.080824
-0.0117006
-0.0184102
-1.59292e-11
0.0667471
0.0160001
0.0684843
-0.0109826
-0.101899
-0.0133744
-0.000180144
-1.67366e-06
-0.0244927
0
-0.0153555
-0.219841
0.0833931
-0.06243
0.00775924
-0.113423
0.0390528
0.126308
0.0192289
-0.00632381
-0.0243745
-0.0459963
0.0256722
-1.68406e-06
0.0559522
-2.00953e-09
0.0139528
0.0180427
-0.0724996
-0.000233586
-0.00929662
0.232002
-0.0200643
0.0445834
0.00122307
-0.0233658
-0.000173071
0.00366754
0.00706741
-1.59292e-11
2.43436e-05
-0.00343081
-0.0387729
-0.000196981
-0.0292609
0.0179083
-0.000173071
0.00453612
0.00122307
-0.0443295
-0.00016464
-0.0424586
-0.0506696
0.0364666
0.0266564
-0.0574743
0.0297054
0.00122306
-0.0124324
0.164178
-0.0125944
0.0713622
-0.00930039
-0.00100038
0.0760503
-0.207093
-3.0998e-08
0.149057
-0.000186618
0.00520327
-0.000187763
-1.51676e-08
-0.0969387
-0.0671091
-0.037823
0.0458975
-0.000196106
-0.00987294
-0.0504075
-2.5897e-14
-0.00197948
-0.0934677
-0.0162706
0.00122307
-0.000233586
0.0893349
-0.00658789
-1.58186e-10
1.13635e-321
0.0204273
-0.0674832
2.14424e-321
-0.015028
0.145476
-3.48165e-10
-0.015028
-0.015007
-0.000167535
0.0264007
0.0143494
-0.0454385
-0.057651
0.00558125
-0.00722985
0.0651644
0.0180427
-0.0132684
0.0545126
0.01595
0.0899633
-0.0102935
-2.5897e-14
-0.0139756
-0.0201598
-0.000186618
-0.0116739
0.261091
0.0226853
0.1457
-0.000165505
0.116997
0.028196
0.0104191
0.00595029
0.0115976
-0.00455766
-0.0463905
-0.0724996
2.94268e-10
0.0515541
0.0167185
-0.00451353
-0.000167396
-0.0262056
-5.14494e-06
-0.0026857
-0.00879718
-0.0459756
1.64524e-321
0.0371792
0.012322
-0.0195067
-0.000341815
-0.0122052
0.0123946
0
-0.00045345
-0.011204
-0.0525672
-0.0979212
-0.0219823
-0.0122955
-0.00483828
0.00706741
-1.84286e-321
9.58487e-322
-1.30477e-10
-4.07219e-06
-0.0261944
-0.00306106
0.00609522
0.0461437
-0.0361063
-9.98869e-09
-0.000233586
-0.0679192
-1.89793e-07
0.020693
0.0106858
-0.169509
-0.157448
-0.0286617
0.0311697
0
0.00949287
0.143562
-0.0613819
-0.00022139
-1.67366e-06
-0.00270347
0.00862615
-0.0046191
0.000294235
-0.0153438
-0.0606571
0.00595029
-0.000172619
0.0138151
-2.21039e-14
-0.023743
0.0367773
0.0102519
-0.0258091
-0.0693433
-8.02215e-05
0.000659996
0.00241154
0.0123917
0.10126
-3.48165e-10
-0.0337659
-5.51359e-05
-0.0606925
0.00779213
-0.00166992
0.0239306
0.0320338
0.000845944
-0.114899
-0.00328044
-0.0610527
-0.00579368
-0.00770407
-8.91006e-07
-0.0255375
-0.242159
-1.83832e-11
0.0281234
-0.0283861
-0.0342978
0.0262567
0.040085
0.0512044
-0.0471759
0.0334663
-0.00120416
-0.099979
-3.70647e-13
0
-2.70341e-05
0.0273401
0.0239306
0.00241154
0.0398024
1.64524e-321
0.0543317
-0.0154626
0.127986
-0.0429887
-0.000182516
-0.0565011
0.0856247
0.0969217
-2.20902e-07
-0.00658789
0.00241154
0.0288292
0.000246399
-0.000233586
-0.000168871
-0.0274523
-0.00930039
-0.0469021
-0.0176133
-0.00212623
-1.38563e-06
0.00425636
0
0.186737
-0.00811667
1.57104e-20
0.0165171
0
0.259531
-7.05764e-11
-0.015352
0.0307925
0.0193677
-2.21039e-14
0.00241154
-1.89793e-07
0.036776
-0.000112623
-0.000174766
-0.0130005
-0.0234819
0.00425636
-0.0483938
0.0440378
-0.10903
-0.000153727
0.204667
0.355514
0.00706741
0.0439441
0.239053
-0.000173725
-0.00022139
-7.15354e-09
0.0137659
0.00891043
1.58385e-22
0.00185971
0.0533894
0.0113287
0.0514327
-0.000175683
-0.0328739
-0.0438473
-0.0327278
0.0378019
0.0179083
1.76726e-54
0.0850497
0.110723
0.0482768
-1.46794e-09
-0.00880763
0.0175023
0
0.00163197
-0.0261944
0.148101
0.0133709
-0.0769707
0.00412489
0.0434485
-0.000196981
0.0127152
0.0982823
0.00460841
-0.000189931
-0.0141276
-0.0122955
0.000998583
0.0202957
-0.110215
-1.24427e-09
-0.0452674
0.000998583
0.0247642
-0.00732451
-1.89793e-07
-0.0112469
-0.158003
-0.054551
7.09706e-05
-0.0123223
0.0697011
-0.0797414
0.000845944
0.0110744
-0.000176789
0.0134489
0.00157193
0.227882
0.0316638
-0.0656841
0.107556
-0.000187763
0.0893349
-0.000196981
0.127295
-2.45681e-08
0.00988362
0.010367
-0.0266953
0
-3.02677e-05
-0.00017357
-0.0144876
-4.13088e-07
0.061972
0.108665
-0.0332198
-0.0696443
0.123126
0.0716833
-7.36673e-06
-0.0326451
-0.0315814
0.150187
0.0100846
0.20928
0.074249
-0.0789668
0.0680509
0.103396
-0.0788832
0.0128215
-3.75836e-06
-0.0364127
0.171037
0.0514438
-0.0499758
-0.0230695
0.0324985
-0.0137545
-1.79259e-06
-0.0261944
-2.16385e-07
0.0061838
-0.0318154
0.15764
-0.000225951
-0.0122886
0.0465954
0.00626533
-0.055151
0.0640172
0.0635183
-0.0342978
0.0202092
0
0.0659653
-0.0072733
0.0982837
-0.00947638
0.0253796
0
-0.000174882
-0.0582085
0.0108616
0.0289954
-2.22981e-09
-0.000233586
-0.0780538
6.27463e-322
0.0272078
0.369352
-0.0795685
-0.107074
-2.09231e-07
-9.87875e-07
0.0745593
0.00241154
0.0379528
-3.10534e-11
-5.34291e-05
0.0633832
0.0324059
0.341928
0.00182912
0.0148769
-0.000172655
0.29497
-0.0920829
-2.14088e-07
0.00425636
-5.19252e-10
-0.0162106
0.0255463
0.0277984
0.237541
-0.000233586
0.0201014
0.0757021
-5.53515e-07
-0.017744
0
-0.00812206
0.0322976
0.0698464
-0.0240274
-0.0581057
0.0310607
-0.0456353
-3.48165e-10
0.0880462
0
-1.93678e-09
1.57104e-20
0.0255017
-1.13141e-321
-0.0518253
0.00332025
-1.25493e-321
-0.0130661
-0.0459072
-2.46908e-05
0.0171259
0.0801202
0.0797097
0.00279042
-0.00579368
0.135414
0.00561483
-2.25082e-08
0.00829047
0.101481
-0.0380831
-0.0816572
0.0508002
-0.0190943
0.125448
-0.00149685
0.0372791
-6.35961e-06
-4.35514e-15
0.013454
0.00706741
0.0775653
-0.0291056
-5.68941e-06
-7.55653e-11
0.10074
-8.2309e-13
0.0429097
0.00682866
-0.0163673
0.0334517
-0.000173802
-0.00013993
0.0105601
-0.000186618
-0.0762341
-6.50009e-12
-0.0302648
-0.0610527
0.0281234
-0.015028
-8.31559e-05
-0.0468118
0.0100835
-0.0650408
-0.0120431
0.0236364
-1.14391e-15
-0.0151054
-0.0123223
-0.0131527
0.0112747
-3.66492e-10
-0.0146029
-2.21039e-14
0.0708135
-9.98869e-09
0.0756931
-2.57511e-07
0.025837
0.00923414
-0.00853367
-0.0153555
-0.0138823
0.0215242
-0.276667
0.00561413
-0.0605871
0.0282728
-0.0954955
0.471999
0.0481483
-0.0270443
-6.42285e-322
1.0573e-321
-0.0365753
-0.333114
0.0094844
-0.00965815
-2.14088e-07
0.000591734
0.00201932
0.00551399
0.102193
-0.000176461
0.0898061
-1.72053e-09
0.105025
-0.119988
-0.0216874
0.00981289
0.000690213
-7.05764e-11
0.10789
-0.000174892
1.52576e-07
-0.0116364
-2.3278e-07
0.00525778
0.0220503
0.02408
0.0901824
-0.0252057
0.0873903
-0.035903
-0.0355553
-0.0219823
-0.00174428
0.0157074
0.0442123
1.76726e-54
-0.0180867
0.0159866
0.00891704
-0.0265456
-0.142412
-0.000147349
1.72429e-321
0.253289
0.10261
-0.00451569
0.0904057
0.0165152
-0.000214701
0.0149491
0.107764
0.0338349
0.0153848
-8.2309e-13
-0.0572355
-0.0812841
-0.000187763
0.0276313
-0.139327
4.51601e-21
-0.0135636
0.23937
-0.0610527
0.0469884
0.00237535
-0.015028
-0.00343081
0.0191996
0.000358626
-0.000180144
0
0.0628252
0.0306921
0.040085
0
-0.00616472
0.044535
-0.138577
-0.000233586
0.0139449
0
-0.0724996
-2.28946e-08
-0.000165335
-0.0780474
-0.0884772
0
-0.0477938
0.00122307
-0.0116311
-4.68865e-09
-8.49411e-08
0.0802624
0.0129833
0.0237164
-4.58468e-06
-0.00022139
4.51601e-21
0.0772083
-0.00732448
0.163301
-1.62274e-05
-0.00866108
-0.0302665
0.017644
-0.190569
-7.24585e-10
0.0615959
0.149509
0.0777542
0.108799
-0.00016896
-9.85805e-09
-2.21039e-14
-0.0156093
0.0102401
0.0198371
1.07706e-321
0.0714711
0.074249
-2.62024e-09
-0.129377
0.028834
0
-0.054551
1.72429e-321
-0.0168001
0.0446327
0.00100168
-0.0524358
-0.0118137
0.0166248
0.0473158
-0.00930014
0.0973485
0.0521732
0.00520327
0.0746334
-3.75635e-07
-2.21039e-14
0.0581887
-8.20149e-322
1.52576e-07
-0.0242918
0.0258345
0.100691
0.00105257
-0.0487841
0.0170546
-0.0666417
-3.37504e-07
-0.0664719
0.207168
0.00969408
-1.67488e-321
0.0215419
-0.000175683
0.0465638
-0.0135636
0.00366443
-8.20076e-06
-4.78261e-06
0.00538897
-0.0198274
-0.116212
0.00891704
0.0340442
1.76726e-54
0.0110593
0.114448
0.0102524
1.58385e-22
0.118518
0.0619012
0.0106301
0.00331575
0.0519913
0
0.0111562
0.0832194
-0.0292609
0.0281835
-0.0127394
-0.0127567
-0.104119
-0.0705263
0.00122307
0.0371136
0.0200688
0.252771
0.0316729
0.0182799
4.51601e-21
0.0472158
0.00568834
-0.0290626
0.00663945
-0.0336333
0.024942
0.0371713
-0.000247359
1.76726e-54
-1.9256e-05
-0.0715792
-0.0198274
-3.04882e-05
0.00398173
-0.000233586
-0.0460102
-0.0207248
-6.50009e-12
-0.0705923
0.0103557
-0.0518085
-0.000186618
-0.00393612
-0.0696207
-2.32662e-10
0.01075
-0.0135636
0.0200688
0.00317169
-0.0811342
-8.05743e-09
0.0124792
-0.000169428
-3.48165e-10
0.0161817
-1.67366e-06
0.0104191
-0.00563285
-0.0271284
0.010314
0
0.00322125
0.0430231
-0.000233586
0.161657
0.0342866
-0.000698204
0.141734
-2.22361e-05
-9.34812e-05
0.0233077
-0.0363158
0.170986
0.0550049
0.805526
0.111229
-0.0161843
-0.139954
0.0194298
0.0236119
-0.0198274
-0.0103107
-7.57078e-10
-0.0266953
-1.62103e-06
-0.0822255
0.12027
0.0117692
0.000529669
-0.0468995
-6.26513e-05
-0.108287
-0.015007
-2.14088e-07
2.80777e-05
0.0288117
-1.93678e-09
0.0153848
-2.32662e-10
-0.00570072
0.0645151
-0.00017441
-7.81052e-07
-0.000184708
-6.42285e-322
-0.000177534
0.0264007
0.00558008
-0.019824
-0.00451353
0.00521487
0.0134998
-1.61194e-05
0.105093
-2.21039e-14
0.0604174
0.0885588
-0.000165324
0.0984846
0.0224206
0.00157671
0.0626593
-1.33831e-10
0.0518994
-0.000196106
0.0233696
-0.0151054
0.0113258
-0.0256744
1.04845e-19
-1.84286e-321
-0.000172655
-0.0202797
-0.0667187
0.0060434
-0.000233586
0.092526
0.00518092
-0.000233586
-0.0724225
0
0.00462348
-0.052348
-1.33831e-10
-0.128305
-0.070071
-0.00955628
-0.000177534
0.0106858
-0.0104672
0.144186
-9.59571e-07
-2.14088e-07
-0.000173592
0.0530894
-0.0963994
0.0336467
-0.00657855
0.00970274
-0.0319811
-1.38092e-09
0.113517
-0.0882762
-0.00745032
0.520003
1.57104e-20
0.00241154
0.0222869
-0.0468995
-0.00877911
-0.00785704
-0.00205181
0.0140905
0.0391196
0.556644
-0.0453526
-1.59292e-11
0
0.000344321
0.0252952
3.09554e-20
-0.0150345
-8.5154e-08
-0.000270177
0.0695553
-0.149039
-0.000186618
0.000432455
0.0396702
-0.0344881
-0.0496579
0.120136
0.03803
-0.0933638
-0.0327278
0.00324264
-7.05764e-11
-0.0261639
0.0340442
0.0329378
-0.0646389
0.0233699
-0.0300233
0.0879078
-3.10392e-06
0.0490797
-0.000264307
0.0026828
-1.52307e-05
0
-0.0383825
0.0849935
2.80777e-05
-0.0886304
-0.0467669
-0.000186618
-0.30176
-0.0213798
-0.0431226
-0.0147761
0.0231783
-0.00039446
0.019851
-0.114989
0.0165171
-0.00658789
-0.0452674
-2.5897e-14
-0.0997093
0.00326099
0.0163178
-0.212144
0.00932502
-0.0826523
-0.0385506
0.00161103
-0.0354939
-0.00240795
-0.0369812
0.00969408
0.0210041
-0.0202882
-0.0198904
0.0949789
-0.000172458
0.0378019
0.0281234
0.00795748
-0.0606394
-4.35514e-15
-0.0266883
0.0164584
0.0877766
-0.0292625
0.0193677
0.000359586
0.0207326
-0.0478228
-0.000173227
-2.25082e-08
-0.000233586
0.0331386
-0.0144076
0.121571
0.0332576
-0.0237422
0.187508
0
-0.0487044
0.0498511
-0.000170471
0.0275893
-6.85189e-12
0.0467864
-1.13141e-321
3.04631e-08
0.00521487
0.0378019
-2.22361e-05
-0.048893
-0.0102935
-9.33784e-322
0.0392828
0.00523943
0.029961
3.04631e-08
-0.0123223
0
-0.00853367
-0.0581881
0.00795748
-6.69611e-09
0.224638
-0.00591609
-0.0420057
-0.0408169
0.0573666
-0.000165505
7.08916e-05
0.023844
0.0202092
0.00391453
0.0855029
-0.122426
0.0239306
0.00949287
-0.000196129
-0.0467669
0.571411
-0.0146029
-0.000172158
0.0415103
-2.1959e-06
-0.0156791
-0.00537257
0.0100835
-1.44544e-06
-3.70647e-13
-0.0718834
-0.011415
-0.000233586
0.847348
0.00148624
-0.0630685
0.0656723
-0.0261944
-0.0327278
-0.162645
-0.132596
0.0255463
-0.00661639
-0.0527198
-6.043e-05
-2.14088e-07
-0.00107573
0.000503777
0.0340508
-0.0195671
0.0264137
1.43773e-321
-0.000174882
-0.05174
-0.0877124
-0.0453568
-7.81052e-07
-0.000176299
-0.0191656
-0.035903
0.00558841
-0.040398
-0.0137574
-0.000177088
-1.67366e-06
-0.112217
-0.110563
-0.00022139
-0.0485745
-0.134712
0.00707653
0.000347263
-0.000147349
0.000347263
0.0171259
-0.0319811
0.000898991
-0.0319811
0.0392828
0.0227862
0.0963166
0.100623
-0.0671243
-0.000233586
-0.0575494
-0.0381627
0.00547088
-0.0295445
0.0683476
-0.0283422
-0.000233586
-0.000236791
0.172838
-8.49411e-08
-0.0108714
-0.0262601
0.0462898
0.0221387
-0.00100038
-0.0156791
0.237599
-0.00103574
0.00473667
-0.0278548
-7.05764e-11
-0.000161898
-3.64181e-06
-0.000183732
0.0112327
0.0385437
0.14753
8.75257e-05
-7.15354e-09
-0.000167396
5.5266e-05
0.000709534
0.0129296
-0.0885285
-0.115853
0.0459755
0.00984768
0.0469884
0.017894
0.00538897
-6.42285e-322
-0.000173592
-0.0132852
0.00201926
0.217909
-7.15354e-09
-1.58186e-10
0.0244781
-0.0658079
-0.030665
-0.336958
-0.000169289
-0.0152337
0.0376005
0.0256631
-0.0213948
0.0220495
-0.0184112
0.0174909
0.207163
0.0409975
-0.00777796
-4.68865e-09
3.18261e-07
0.00122307
0.0433455
0
-0.000168057
-0.0530716
-0.233658
0.174628
-0.177257
-0.0442361
0.00520327
-0.0418973
-0.0691452
0.00138895
-2.50049e-07
1.57104e-20
-0.0232178
-0.00658789
-0.0146651
-9.28131e-09
0.0141445
0.0982455
0.0161174
0.0377875
-0.0122052
0.0211657
1.43773e-321
0.0380175
-5.38909e-06
-0.013608
-2.32662e-10
0.0586166
0.0019326
-0.0624269
0.0383885
0.00197434
-0.0170302
-0.107015
0.0163178
0.00568834
-0.0388354
3.04631e-08
-2.32662e-10
-0.00246962
-0.0306825
0.000936804
-0.0273164
-0.029724
-5.40287e-07
-1.30722e-05
0.0216627
-0.0122056
0.0281234
0.036921
-0.0277441
-0.0275332
-0.0375536
0.000529669
0.00201905
-1.61438e-10
0.00389535
0.0211657
-0.00632381
0
-0.0439585
-7.55653e-11
0.0402483
-0.0336646
0.000679329
-0.0168306
-0.0204692
-5.53515e-07
-0.000233586
-0.0123749
-0.0164791
0.010314
0.00609522
0.0619167
-1.14115e-05
-0.0276187
-0.0427501
0.00462116
-0.000720519
0.0368887
0.144793
0
0.0061838
0.0134998
-0.0200188
0.254525
0.10825
-5.23659e-08
-8.49411e-08
0.0138879
-3.79848e-05
-0.0417092
4.71645e-05
1.2154e-321
0.044535
0
-0.06183
0.106977
-0.0268262
-0.0104805
0.0233699
-3.75635e-07
0.00609522
-0.11667
0.0179215
-0.0316
-0.0316
-0.0323831
0.00122307
0.014795
-0.0522436
-0.296545
0.103451
0.00547086
0.0374628
0.0975351
0.0060407
-1.61438e-10
0.0163178
-0.0374938
0.0646002
0.144568
-2.10534e-05
-0.00658789
-9.59571e-07
-0.00687026
0.000607574
0.0263222
-0.00632381
0.0382969
-0.00016884
-0.000196981
-0.0876089
-0.0920527
0.0261793
5.30956e-274
0.0236369
4.51601e-21
-0.145364
0.0202092
-0.0432953
-0.00776144
-0.0262056
0.0645151
0.0105461
-0.000174818
-0.000233586
0.00788379
-0.0355553
0.00122307
-0.0102935
-0.00178764
-0.0715792
0.0176694
0.021103
0.180828
0.0684843
0.0235847
0.00308292
0.0371136
0.0812656
-0.100244
-0.0386145
-0.0198904
-0.026432
0
0.239556
-0.0084033
-0.046849
-1.38486e-06
-0.0133248
0.0280548
-0.059743
-0.0562729
-9.28131e-09
-0.24944
-0.000186618
-0.00722985
0.0192724
-0.0756251
-0.0558587
-0.000112623
0.00706741
-0.0047
-0.0866677
0.0166391
2.14424e-321
0.00793782
-1.04313e-05
0.176436
4.31351e-08
-9.85805e-09
-0.0903989
-1.76263e-07
0.0772083
-0.0182364
-1.89793e-07
-1.22275e-05
0.00104048
-0.10652
-0.0529469
0.00177903
-5.14494e-06
-2.70794e-06
-0.0413391
-0.00212035
-0.109223
0.0717831
-2.14088e-07
0.0661042
0.0100712
0.0858416
-0.0386784
0.123504
-0.00855421
-0.015028
-0.000196106
0.0471749
-0.108373
-0.0261475
-0.011632
0.0094844
0.0945183
1.58101e-321
-0.0266953
-8.2309e-13
-0.265346
-0.00100038
-4.68865e-09
-3.12327e-05
-3.48165e-10
0.0405192
0.0582891
0.0367773
0
-3.10534e-11
0.0843801
0.0989828
0.0255463
2.13565e-05
1.49702e-321
-0.0786984
0
0.0666274
0.0923768
-8.5154e-08
0.025532
-0.0420855
0.0029894
-0.000182459
-0.000170586
-0.09244
-2.67559e-10
-2.21039e-14
0.0384547
0.0680778
-0.0151054
-1.67366e-06
-0.107884
-0.0677505
-0.0597201
-8.39831e-06
4.51601e-21
-0.0467669
-0.0787554
-4.58468e-06
0.0376005
-0.0518037
0.246031
-0.00930014
0.000170579
0.0102519
0.0595638
-0.0521739
-0.0192443
-0.00658798
-6.46536e-07
-0.030686
-0.0471692
-0.00952706
-0.00922882
-0.042407
0
-0.00641016
-8.28063e-07
0.0817358
0.0459755
0.108666
0.0378019
-2.03571e-05
0.00706741
-0.00930039
8.74609e-05
-0.0168001
0.0182799
0.000231719
-0.000173592
0.0546348
-0.101282
0.0768508
-0.000196106
-0.00537257
-3.10392e-06
3.04631e-08
0.0060434
-0.0405742
0.0902909
-0.128172
0.0268982
0.0707764
-2.5897e-14
-0.000200113
-0.0139756
-0.020855
0.0444053
-5.23659e-08
-5.40287e-07
0.0143403
-0.00017137
-0.0524636
-0.0724996
-0.025125
-2.21039e-14
-0.0151054
-0.000172619
-0.0409169
-5.40287e-07
0.233732
-8.34971e-322
-0.0814661
-2.50049e-07
1.76726e-54
0.023844
-0.0479649
0.0147405
-0.106446
-0.000146763
-0.0327278
-5.38909e-06
-0.137705
0.021929
0.000347263
-0.0399529
0.00288032
-8.05743e-09
-0.0371265
0.0982512
0.0768262
-3.12327e-05
-0.000233586
-1.25493e-321
-1.44698e-06
-0.0103107
-0.000176299
0.00697508
0.0757451
0.0201014
0.0255369
-8.2309e-13
9.83721e-05
-0.00212035
0.0149665
-4.36655e-05
-1.39148e-09
0.0264007
0.0219241
-0.278891
0.0106858
-0.0103107
0.131209
-5.19252e-10
0.0408602
0.0261163
-0.0242171
-0.0266883
-0.00205178
-0.000173749
0.0406926
-0.172455
5.09118e-05
-0.0159873
0.0776467
-0.0506072
0.00711857
0.0383885
-0.0415809
-1.30722e-05
-0.0289972
0.081279
-0.137971
0.0622306
-8.91727e-05
0.121572
-0.000264057
0.0352887
0.000624554
-0.0015668
-0.00166012
-0.000233586
2.14424e-321
-0.0175568
0.0157123
0.147799
-7.88386e-07
0.0785628
-0.0540215
-0.0177415
-3.70647e-13
0.0151759
0
0.182924
-0.0355553
-6.40683e-06
0.0033438
0.0414561
0.0424512
-0.0105919
-0.0103107
0.0306921
0.00057741
-0.000112623
-0.0321479
-1.38486e-06
3.09554e-20
0
0.0102217
0.00169489
-2.09237e-07
0.0880462
-0.0229916
-0.00352728
-0.0302648
-2.92208e-06
-0.000189931
-0.0116313
0.0202167
0.0233699
0.0042522
-0.00930014
0.0641789
0.0422333
-0.00601016
-0.000233586
0.0381994
-2.28946e-08
-0.0195216
-0.0169601
-0.000170471
-0.0314868
-0.0386519
-3.28518e-09
0.274412
0.0598353
0.0713622
-0.0267109
-0.0780474
0.00175802
-0.000186618
-0.00022139
0.0486228
-0.0375628
-0.00098033
0.0901313
-0.0153438
0.03779
0.00391453
-0.000186618
-0.0476522
-0.0182364
1.58101e-321
0.0285394
-2.5897e-14
-0.0382579
0.0556327
-2.69979e-06
-8.16961e-06
-0.00106872
-0.000173071
-0.0179865
-6.36799e-06
0.135224
-5.40287e-07
-0.0409169
0.000985511
-0.000170586
-0.000147349
-0.0383825
0.0855105
-0.015028
-0.0266953
0.169263
-0.0566548
-0.00614196
-0.0225493
-0.0152337
0.00799248
-0.000233586
-4.90014e-08
0
-0.0816572
-0.00395389
0.0238457
0.0250991
0.0607604
-0.0899899
0
-0.00994513
-0.00016464
0.015716
-0.00022139
-3.31919e-99
0.112379
-0.037531
0.00609574
0.075709
-0.117394
0.0407967
0.00592493
0.000929306
0.00679016
0.0972668
-4.58468e-06
-0.0676629
-0.125049
0.017477
0.0324985
0.024144
-0.00343081
0.0130885
-0.0151261
-1.14391e-15
0.0207043
-0.0316373
0.00547088
0.060598
-0.0365428
0.298194
0.00539936
-0.0146029
0.0554457
-0.138027
-0.000173723
-0.000446742
0.0271724
0.000672873
0.157608
-0.0346951
0.000812367
-0.0039859
-0.0554617
-0.00537316
-0.0113095
-0.00524715
-0.000172158
0.0219241
0.0400215
-2.22361e-05
0
-6.97154e-08
-0.00645713
0
-0.0169601
-0.0540215
0.153382
-2.21039e-14
-2.09231e-07
-1.31822e-12
0.0279226
-0.227735
0.18909
-0.0641545
-0.0498533
0.0199416
-0.0217617
0.00115022
-0.144031
0.0182799
-0.0484474
0.0101377
-1.69276e-05
0.000607574
-0.0562091
-3.61356e-100
-0.0504457
0
0.0263032
0.00420776
-0.00451353
-0.000173741
-0.0947614
0.0376005
-0.0102935
-4.25534e-05
-0.0743811
-0.306629
-0.000233586
-0.0179295
0.0812673
0.00279566
-0.10663
0.058101
0.0408602
-0.000982919
-0.0213895
-0.127314
-0.000170471
0.00991828
0.0244605
-0.0109826
-0.0397397
-0.114805
0.049487
0.00320347
0.0893349
0.11551
0.0271724
-1.83832e-11
0.0175023
-0.0626161
0.0183196
-0.0179865
-0.033527
5.30956e-274
-0.0170921
0.000260168
0.0689957
-0.0610527
-0.000233586
-5.14495e-06
-9.67287e-05
-0.0101472
-0.107548
-0.0128619
-4.02948e-06
-1.30722e-05
0
-8.74748e-06
-0.0421905
0.0105264
0.0179215
-0.0187581
-0.117847
0.0620924
-0.0282776
0.0356342
-0.0429467
-0.0146029
0.377423
0.0220503
0.00268322
0.00520327
0.0332576
-0.0660949
-0.0378105
0.0175023
0.000189253
-0.010189
-0.0672717
0.000606929
-0.000196106
-0.0649158
0.0582891
9.14021e-322
0.0328938
-0.000173725
0.0281234
-0.0171698
0.0246819
-1.99391e-06
-0.0421834
3.09176e-06
-2.5897e-14
0.0302324
0.0271724
-0.0302648
-7.24585e-10
0.00706737
-0.0153555
0.0133652
0.128445
-0.0395308
-0.0672055
0
0
0.0404416
-2.21039e-14
0.00125824
-0.0289369
-0.0299916
0.000929306
0.0505692
-0.0972734
0.0414561
-0.0614257
0.30075
-2.07176e-08
-0.000196106
-0.00343081
-0.0439998
0.00175802
0.323896
-9.85805e-09
-0.0876798
0.179784
0.124747
-0.00017137
-3.61356e-100
-1.48065e-05
0.058101
-0.000173741
-0.0460511
-1.3894e-07
-0.0547883
-0.0354736
-0.0178778
0.0430231
-0.0385901
-0.0116311
-1.70135e-06
-0.0312299
0.0200688
-2.20902e-07
-3.32134e-08
-0.000170379
-0.0694114
0.0325049
0.0430231
-0.00658789
0.0542827
-0.000184708
-0.0323921
0.0849935
2.94268e-10
-0.045046
5.35299e-21
-0.00877911
0.00558125
-0.0248481
4.89812e-22
4.51601e-21
-0.000287507
0.0599746
-2.07981e-09
-0.0146028
-0.0503626
-2.28946e-08
-0.0438158
-0.000184708
-0.0472301
0.00637852
0.00837384
1.42785e-321
0.0980032
-0.00022139
0.163316
-0.000142616
-0.0440672
-0.0355522
-0.00853367
-0.121492
0.0341677
0.0960962
0.00547088
-0.000173071
-0.000175873
-0.044694
-0.000170471
0.0096008
0.132761
-1.67366e-06
0.0406926
-1.30722e-05
-0.039948
0
-0.0147935
0.00424618
1.43773e-321
-0.000233586
0.136377
0
-0.0153438
0.00492732
-0.0120529
0
0
0
-0.000174882
-5.23659e-08
0.0138151
-0.025713
-0.00209076
-0.0182364
-1.06498e-05
-8.16961e-06
-2.25082e-08
-0.0213054
-0.0283832
0.0196083
-0.0204576
0.0312125
-5.90992e-12
0.0255369
-0.160402
1.01778e-321
0.0016161
-0.0122052
-3.37504e-07
-8.49411e-08
-0.0260708
-8.49411e-08
0.0299537
0.000438832
-0.000170471
-0.00406074
-0.0128669
-0.0336333
-2.28946e-08
0.00706062
0.0164111
0.00938149
0.0259475
0.214192
0.13761
0.0106301
0
-9.87875e-07
0.233046
-0.0961419
0.00137973
0.0092883
0.028196
-0.0304731
-0.048893
-0.00700291
0.016506
0.0171259
-2.43216e-10
0.0374027
0.0739444
-0.00352728
-0.0265456
-0.0217617
-0.0198274
-0.000233586
4.71645e-05
0.00185971
0.0306921
1.28562e-05
-0.161951
0.00660886
-0.0222288
0.0419358
0.0885266
0.00157671
0.0570552
0.0319492
-0.0097565
-0.0459178
0.0459579
-0.015007
-0.0109826
0.0600647
0.0703522
-0.107756
-0.133495
0.0258453
0.0434902
-0.0117047
-0.00773524
1.57104e-20
0.00568834
-0.0262372
-0.000184708
-3.72124e-06
-0.0213798
-2.76814e-14
-0.0830933
0.0684843
-0.0362525
-0.00360555
-6.14648e-06
-0.0135652
-0.0874747
0.246886
4.51601e-21
-2.5897e-14
-0.000781717
0.0133553
0.00276044
-0.0530424
0.178454
-0.0203425
-0.024028
-2.32662e-10
-2.25082e-08
-1.74466e-12
0.0408602
-0.00976801
-0.110777
-2.481e-07
-0.0610527
-0.0468995
0.0106301
-2.25082e-08
-2.2556e-08
0
-0.000181505
0.0110165
0.00219308
-0.000161898
-0.000186618
-1.93678e-09
0.00601319
-0.00955628
-0.000184708
0.112115
-1.04313e-05
-0.00528915
-0.0159873
0.0687197
-0.000233586
-2.0993e-06
-0.0179865
0.0849935
0.0871451
0.00422307
0.191234
0.000126177
0.068415
0.0497465
-0.00022139
-0.0105487
-0.00877911
0.0302771
-0.0212327
-0.0672139
0.00547088
-3.3752e-07
-0.0271284
0.0299537
-0.0182364
-0.0240192
-0.071787
0.0594547
-0.00624862
0.0200688
0.00319021
-0.00022139
0.00837487
-0.0089559
-0.00017441
-6.50009e-12
0
0.013454
0.00558125
-0.220124
0.00634077
-3.70647e-13
0.03201
-8.45449e-05
0.1167
0.0168664
0.113269
-0.000186618
-2.67559e-10
-0.00148462
-2.44006e-08
-3.20483e-06
-0.000177534
-5.23659e-08
0.107626
-2.62024e-09
-0.0503626
0.00726646
-0.0689607
2.14424e-321
-0.0828918
0
0.0468037
0.0202092
0.0406926
-0.000233586
-3.32134e-08
-0.0165254
-0.000161898
-0.000334629
0.0258453
0.00122307
0.049487
-0.00312206
0.00706741
-0.05174
0.0346665
-0.0755402
-0.0503626
0.040085
-0.0139756
-0.0137574
-0.000186618
0.15514
-0.0757977
-0.029017
-0.0736546
-0.0141069
0.00390946
-9.59571e-07
-0.00853367
-6.40545e-06
-5.34291e-05
-0.0114921
0.000189253
-0.02525
0.0101144
0.029961
-0.0209793
-0.0161193
9.14021e-322
0
0.00769679
-0.0169601
-0.0916757
-0.132646
-6.40545e-06
0.0661859
0.0153163
-1.67488e-321
-0.102338
0.0599392
-0.0259295
-5.34291e-05
0.132637
-3.04882e-05
-2.92208e-06
-0.0243703
0.104366
0.0971149
0.0218377
-0.060771
0.0143382
-0.000196106
-0.0472578
0.00122307
-0.00022139
0.056987
0
-0.000196106
-0.158175
-0.000233586
-0.000233586
-0.0846341
0.0889265
-3.10534e-11
-0.192076
-4.54289e-06
-0.000172619
-0.0454385
-4.06757e-05
-0.105246
-0.0358515
0.000111579
-0.0498787
-2.28946e-08
-0.00641016
-0.164667
0.0693499
-0.0210608
-0.0255774
-0.000170157
-0.0678738
-1.04313e-05
0.0711803
0.000888894
-0.0483591
-0.0219823
-0.0195671
-0.00226022
0.137016
-2.92208e-06
-1.44544e-06
0.0763436
0.0277585
-0.0724996
0.0734395
0.0650458
-0.0273832
-0.0120441
-0.0271792
-0.00676788
2.14424e-321
0.0248326
-0.08138
0.0441748
0.0746397
-0.0287951
-2.32662e-10
-0.0168001
-0.0103563
-0.0152011
0.0884824
-9.59571e-07
-2.1959e-06
0.222777
-0.0122052
0.0226504
0.0426833
-2.32662e-10
-0.00866108
-3.71517e-09
0.0211953
0.00010986
0.0193149
-0.310039
0.00968611
0.0123384
-0.0306129
-0.00495176
-0.0137389
-0.0317876
-2.92208e-06
-3.10392e-06
-0.101641
-0.0398187
0.0769795
2.14424e-321
0.110723
-0.0720125
0.0259475
0.0493431
0.00558125
-0.00268116
-7.24585e-10
-0.0295862
0.0340442
0.0201825
-0.0117256
0.0235414
-0.0510814
0.072585
0.00201926
0.056027
-0.0164526
0.0107228
0
0.0191996
0.00966214
-2.07981e-09
-0.0713923
0.0472619
0.0101144
0.000812367
0.000689743
-6.50009e-12
-0.000170157
0.0165171
-0.000243626
0.0379745
0
-0.0327278
-0.0109826
-0.00694351
0.0884824
0.0554284
-5.53515e-07
-0.0546081
0.0105405
0.0239306
-7.24585e-10
-5.70728e-05
-0.0448863
0.000545881
0.0165171
-0.000249813
-2.28946e-08
0.0790642
0.113093
0.0171259
-0.000183732
-0.0916894
-5.53515e-07
5.5266e-05
-0.0346973
-0.00689784
-0.0697056
0
-0.0153555
-0.00853367
0
-0.018348
0.032751
-0.06654
-0.0338425
0.00938149
-0.00853367
1.52576e-07
0.000103819
-8.31559e-05
0.0171259
0.100092
-0.0397397
0.0165486
-0.035903
-3.2398e-06
0.0440379
-4.90014e-08
-0.00976801
-0.00303386
-0.131814
0.00681472
0.00241154
0.0880462
-0.142553
0.03025
-2.50049e-07
0.025482
-0.0116311
-0.0258461
-0.126769
0.0932327
-5.23659e-08
-0.0738826
-0.0283719
0.0237024
0.00826754
-9.85805e-09
-0.000233586
-6.50009e-12
-1.61438e-10
-0.0217355
-6.97154e-08
0.149138
-0.0340767
0.156058
0.00161602
0.0500764
-2.21039e-14
0.185125
0.220792
-0.0174324
-0.0479759
-0.0548003
-0.00658789
-2.70794e-06
-0.0164065
0.01075
-0.000776296
-1.93678e-09
-8.5154e-08
-0.0843727
-7.55653e-11
0.00125824
-0.0606695
-0.0153438
-0.018811
0.00648543
0.0407649
-0.0895731
2.44359e-05
-0.26159
0.0072782
0.0112329
-3.19566e-07
-2.32662e-10
0.0233699
-0.0371618
1.57104e-20
-1.31822e-12
-8.3003e-322
0.0428319
-0.104056
-8.92017e-05
-0.00524465
-0.0416022
2.14424e-321
0.0089587
-0.0431983
-0.000186618
0.110338
-0.0100581
0.000616583
-2.69979e-06
-7.37808e-06
-0.129277
0.057409
-0.00166362
0.0335433
0.0367773
0.0515236
0.0510101
0.00241154
-0.0418973
-0.000186618
0.00568834
-1.99397e-08
0.0383063
-0.000186618
0.0594547
-0.0179865
0.0163178
0.0069917
0.351321
0.013454
-0.0478228
0.0741621
0.0291385
0.00459905
0.0163178
0.0364637
-0.00995745
-0.0435177
0.0240138
0.00473042
0.0311409
0.041462
-0.0417287
-0.0692972
-2.50049e-07
0.303585
-0.0137067
0.0603533
-0.0109968
0.000845944
-0.0464923
-0.0747224
1.64524e-321
-0.0603323
3.73349e-68
-0.00657856
0.0702459
0.0588869
-2.30173e-09
-0.0116311
-0.136069
0.00460841
0.156657
-0.0670567
-2.14513e-13
-0.0435576
-0.0237478
0.240565
0
-0.000173071
0.06335
-0.00468044
-0.128925
-0.0571346
1.57104e-20
0.0327012
0.0271724
-0.296348
0.241306
-0.0110063
0.0799083
-0.072002
-0.0200657
0.00241154
0.0276313
-0.0342681
2.80777e-05
-0.0302665
-0.00866108
0.49597
-0.0503626
-0.00201357
-7.24585e-10
-0.0121508
-0.000184708
-0.083493
0.0260444
-2.59508e-07
-0.000173071
-0.0485037
-0.000233586
-0.0356089
-0.0577919
0.00681472
0.00331295
-0.000233586
-0.00632381
-2.21039e-14
-0.0646012
-0.124094
0.0901814
-0.030137
0.0115134
-0.000233586
0.114045
0.0604881
-0.0533429
-0.142539
0.0102519
0.0695399
-0.0671243
0.0139525
-0.0355248
0.0255369
0.013454
-0.0750299
-0.043792
-0.0386955
1.57104e-20
0.0193484
0.0179069
0.00215747
0.00443224
3.18261e-07
-7.55653e-11
-0.00045345
0.0206727
0.00122307
-0.0283832
0.000738308
0.00794445
2.95753e-07
0.0887792
-2.21039e-14
0.072796
-0.000233586
0.0226504
-0.0424615
-0.0135636
-1.51741e-08
0
0.0307925
-0.133606
-0.0336333
-0.00744117
-0.0381003
-0.0319811
0.00201905
1.76726e-54
-5.50031e-08
-0.00451353
0.0457841
0.0285686
0.0594547
-0.0155153
-0.118853
0.00978389
-1.67366e-06
-4.78261e-06
-0.0559353
0.0388787
-7.85815e-06
-0.0298581
-2.68867e-05
0.0645319
-0.000233586
-1.76263e-07
0.0195256
0.0599877
0.00256325
0.0595638
0.0106765
2.14424e-321
0.0361752
-0.0129073
-0.0809906
-2.14088e-07
0.0566317
0.0707607
0.00241154
-0.114991
-7.05764e-11
-0.0541711
-7.15354e-09
0.178219
-0.0452674
-0.0828092
-0.00645713
0.0306921
-0.00451353
0.0625926
0.0651644
0.00547088
0.00241154
-0.00947638
0.0115686
-0.110563
-0.319354
-5.08888e-322
0.0259196
1.72429e-321
-0.0146029
-0.000233586
-0.112291
0.0175166
-0.000173635
-0.0759623
0.0903722
0.308143
0.027802
-0.0888311
0.180216
-1.77563e-12
5.35299e-21
-0.00930014
0.0595638
-0.00022139
0.0816268
-0.0190859
-0.0341973
0.00538897
-2.25082e-08
0.0188784
-0.0195067
-0.0402857
0.0675233
0.0383917
-0.101711
0.00241154
0.029961
0.00314871
0.0246819
0.0285207
-0.0342492
0.00214124
-2.50049e-07
0
-0.0103107
-0.0454385
0.00157671
-0.0151261
-0.0103107
-0.0156791
0.0312141
0.123165
-0.21309
0.128258
0.000292692
-0.000177534
0.0100835
0.0284715
-0.00022139
-0.04623
-0.00853367
-2.25082e-08
-0.0691419
0.119082
-0.000127906
-0.013608
-0.0262056
-0.0355553
-0.0786984
-0.0103107
0.172079
1.49702e-321
0.665147
-0.0243481
-0.137692
-0.00017711
-2.44006e-08
0.10931
0.00460841
-0.0350668
-1.9279e-08
0.0704254
0.0202092
-3.75635e-07
-0.0242229
0.097436
-2.28946e-08
-0.0787315
0.115977
-0.0532607
0.0153837
0.0148769
0.000613514
-0.0355553
-0.0413391
0.00342053
-6.46536e-07
0.0379405
-0.0242314
-0.000113878
-0.000171518
1.87927e-90
0.0366537
1.43773e-321
-0.0182364
0.058101
0.0470975
-0.0274523
-0.0433216
0.103102
0.0843886
0
0.10214
-2.67559e-10
-0.0562475
-1.99391e-06
0.201419
0.016506
0.00476417
-9.27118e-08
0.0684924
-0.123483
-0.0934053
0.00122307
-0.00022139
-0.158507
-6.3119e-08
0.00241154
-3.33097e-05
-0.0693433
0.0433818
-0.0324136
0.00247622
-2.62142e-12
0.0557474
0.157912
0.0116485
0.0353871
0.00162052
0.016506
-5.14494e-06
-0.0765683
-2.5897e-14
-0.0195671
0.00241154
0.0143494
0.00404113
0.0262271
-8.05743e-09
-0.0693286
-0.108278
0
0.0246707
0.0262567
-2.5897e-14
-0.0707833
0.102319
-0.0452674
-5.83269e-12
0.0453658
0.0201014
0.000526513
1.58101e-321
-2.5897e-14
-0.0247135
-0.0234752
-5.53515e-07
0.204596
-0.0583225
-0.0236677
-0.0403384
-0.0137574
0.0160398
0.0518626
-0.00761559
-0.0261944
-0.00641016
-0.0767092
-2.12878e-07
-0.0141065
0.0400142
-0.0380165
-0.00167747
-0.110215
-0.000127072
-0.10903
-0.000173635
0.0275654
0.0436547
0.144055
-0.0440761
0.0094844
0.0320468
-0.000173723
-5.23659e-08
-1.13141e-321
-0.000233586
0.145562
0.0283921
-0.0518085
0.016506
-0.0261944
-0.404617
0.0255369
0.0182799
-1.9256e-05
-0.0195673
0.166119
0.00794472
-0.0185107
-0.155435
0.245944
0.00157807
-0.000233586
0.116099
0.0296918
0.0182799
0.00241154
-0.0539823
-0.0065739
4.27128e-05
-2.50049e-07
-2.25082e-08
0.0734193
-0.00930014
9.6975e-05
-0.0934053
3.04622e-08
-0.557529
1.76726e-54
-0.14497
-0.0116311
0.000616583
-3.20483e-06
0.0236369
-0.291154
-0.0877124
-0.000196106
0.000621568
-0.043111
-0.0865612
0.00236319
-0.000233586
0.00122307
-0.000779801
1.2154e-321
0.0459755
0.0033438
-0.0550183
0.269448
0.168801
0.168801
0.12444
0.0490427
0.419151
-0.00632381
0.218647
0.0141465
-0.000233586
0.016506
-1.44544e-06
-0.000233586
-0.000186618
-1.36153e-35
0.0926272
0.0383885
-0.000182434
0.00538897
0.0235205
0
-0.0417243
-0.0484474
0.066225
1.72429e-321
0.0490375
-0.0336333
0.0479238
-0.0373406
-0.000173592
0.073694
-0.00823584
0.0379745
0.00241154
-0.0409221
0.102639
-0.0116311
0.135462
-0.000233586
0.0271843
0.00477428
-6.23234e-10
-0.0050201
-0.0104109
-0.000183732
-0.0442361
0.0728673
0.00518104
0.0202049
0.0889174
0.0707748
-0.00658789
0
0.0461066
-1.89793e-07
-0.0171442
-1.13141e-321
0.0695553
-0.00955628
-0.123045
0.0441977
0.000671799
-0.0198274
1.43773e-321
0.0104886
-0.0125148
0.0869788
3.09554e-20
0.0102217
0.0104299
0.0619012
-0.0173994
-0.0219568
-8.37921e-07
-7.98559e-05
7.09706e-05
0.00882882
-2.25082e-08
-0.0346951
-0.00658789
-0.000173097
0.00201926
0.0550049
0.0164109
-2.5897e-14
-0.000170471
9.83721e-05
0.0187422
-4.27841e-06
-0.000233586
0.00568834
0.116778
0.0085813
0
-0.0268199
-0.0367274
0.0131105
0.0104191
-0.0174402
-2.7204e-06
-0.0344275
0.0407776
0.0768934
-0.00437785
4.51601e-21
0.0816784
0.0822516
-0.00885184
-0.0234876
0.0130863
-0.0407009
4.89125e-322
-0.0408169
-0.00579368
0.000526513
3.04257e-05
0.0116707
-2.92208e-06
-0.0949712
-0.0137224
0.0416357
-0.041635
0.0302771
0
-2.21039e-14
0.0303057
-3.75635e-07
-0.00280854
-2.76814e-14
1.43773e-321
-0.080081
0.0593916
-0.0219966
-0.0031002
-0.0194609
-0.01711
0.00388492
0.00558125
0.129067
-5.70728e-05
0.00798022
-0.0261854
0.03833
-0.0550972
0.0179083
0.0100187
-2.32662e-10
-0.0557271
-0.035903
-0.030265
-0.000233586
0.0220834
-0.067614
-2.5897e-14
0.032949
0.00706741
-0.0637769
0.049487
-0.0155026
0.00561867
-0.000233586
0.0217069
0.0719297
-0.0123223
-2.5897e-14
-0.00288607
0.0214924
-0.0328685
-0.020855
0.0773307
0.0869875
-2.05583e-13
-0.0444556
-2.32662e-10
0.0987245
0.0763955
-0.000850407
-0.0184103
0.0271724
0.0189948
0.173803
-0.0365104
0.0171259
-0.00579368
-1.12545e-08
-0.035903
0.0289001
-0.0767486
0.00583904
-1.25493e-321
-0.0181286
-1.31182e-14
0.167834
0.0238544
0.00460841
-0.0212034
-0.0775812
0.000709534
0.0130885
-0.056055
0.0255369
-1.9256e-05
-0.0150812
-0.0512516
0.0893693
0.00496552
-2.14513e-13
0.041462
0.170843
0.00420764
-0.109838
-0.0217619
-0.0649155
-0.0444601
-0.000189931
0.00899784
-0.0182364
-0.0365342
-0.000167266
0.0664986
0
0.0316056
3.73349e-68
-0.0168252
2.43436e-05
0.0492126
1.49702e-321
0.00122307
-0.000233586
-0.0749496
-2.28946e-08
0.00706741
0.00711871
-0.0163247
-0.00991269
0.00241154
-0.0071627
0.240841
-0.0216673
0.195422
0.0304101
0.0283045
-6.97154e-08
0.012322
0.00744103
-0.0534066
-0.0659821
0
0.0628487
0.00547088
0.115229
0.0595638
0.0349736
-0.0195671
0.000812367
0.0255369
-0.0219823
-1.11115e-09
0.0259604
-0.00368006
0.103955
0.0438685
-0.0139756
-0.11216
0.0102075
-1.62274e-05
0.00520327
-0.0201558
-0.0351789
-0.00853367
0.0855113
-0.0124013
-0.0137574
0.0392828
-0.0182364
0.085091
0
0.0412208
0.0248523
-3.55485e-05
-2.481e-07
0.0193677
0.036041
0.154283
0.0401496
-0.0342978
-0.0155054
-0.00321537
-0.0483905
-1.79259e-06
-0.000173071
0.00241154
0.113108
0.0284542
-0.0596399
0.0584842
0.0915798
0.0347732
-0.000170471
0.000380547
-0.0185107
-0.000186618
0.0246819
-0.0361366
0.024407
0.0094844
-0.067614
0.143889
3.08635e-19
0.0344406
-7.05764e-11
0.0599877
0.00219308
0.0251903
-2.05009e-09
-5.70728e-05
0.0105461
-0.018913
0.125006
0.0048295
-0.000233586
-0.0566524
-0.0320939
-0.000174882
0
0.0199237
0.0368887
0.182372
-0.0646389
-0.011415
-0.0613035
-0.00482581
-0.113878
0.141725
-0.0486359
0.028196
-4.13088e-07
0.0271724
-0.00658789
0.185425
1.2154e-321
1.58101e-321
0.00938149
0.0395049
0.0669956
-0.0375291
0
0.0181938
-0.000171228
-1.99397e-08
0.000709534
-0.0355553
-1.51676e-08
0
0.0530308
0.0675957
1.76726e-54
0.0064053
0.00122307
-6.40545e-06
-4.58468e-06
-0.0301575
0.108248
2.14424e-321
-0.000173071
-0.012894
-0.0276187
0.0312096
0.0410342
0.010314
0.0193677
-2.28946e-08
-0.0321479
-0.072468
-0.0292609
-0.016067
-0.0670078
0.0511038
0.0651644
-0.000182516
0.018572
-3.48165e-10
-3.48165e-10
0.0924246
0.0163178
0
0.141254
-0.0302648
-7.36672e-06
0.0033438
8.74609e-05
0.0632477
0.0003095
0.0183943
0.0103323
-0.160354
0.00241154
0.02053
-8.23011e-07
0.0109624
0.0109017
0.0332686
-0.0123223
-0.0146651
0.0124792
0.0137374
-0.0146029
0.015716
-0.000233586
0.000812367
0.0597886
-0.030419
-5.70728e-05
0.022914
-0.000196106
0.0660182
-0.0184779
0.0430231
-0.01144
0.0570936
-0.0268262
-0.0212228
-0.011415
0.0704226
0.127063
-0.0102935
-0.000233586
-2.1653e-07
-0.00829934
-0.00338986
0.179144
-0.000233586
0.00823569
0.0207867
0.202235
-0.0168252
-0.00658872
-0.00343081
-4.8406e-06
0.0598353
-9.87875e-07
-0.00220147
-0.000233586
-0.0029475
-1.00789e-321
-0.000233586
0.0438685
0.0151593
-0.000173725
0.0698464
-0.105415
0.0410342
-6.26513e-05
-4.84875e-05
0
0.000213833
-0.0195705
-0.0620594
0.0615486
0
-0.0198274
-0.00658789
0
0.018691
0.0269248
0
0.0551675
-0.00632381
-2.32662e-10
-0.000233586
-0.0197954
0
-0.0451631
-0.100731
-0.0384682
-0.0114921
0.00604829
1.57104e-20
-0.134917
-0.0268262
-0.0554617
-2.29652e-08
-1.13141e-321
-0.00853367
0.0311697
0.10621
0.0622306
-3.89075e-06
0.0419358
0.0088824
-2.7858e-08
-0.00950599
-3.10534e-11
-0.00542429
-0.0287563
0.056027
0.106851
0.0688788
0.00322125
-0.0361063
0.107169
0.00460841
-0.119022
-0.0883551
0.00241154
-1.33831e-10
0.0330818
0.0718343
0.0122299
-0.0327278
0.0199653
0.0831186
-0.0369936
0.0233699
-1.84286e-321
-0.0240192
0.0243746
-8.14976e-05
-4.25534e-05
-0.0261944
-0.000233586
-1.44544e-06
-0.00016464
-0.0259295
-2.56734e-12
-1.58101e-321
0.0597848
-0.000196106
-0.0133407
0.0102524
-3.10534e-11
-0.000186618
1.2154e-321
-0.00859057
0.0338973
0.0187422
-0.0122395
0.0537905
0.0244631
-0.048893
-0.0738148
0.0043093
-2.5897e-14
-2.44006e-08
0.0138502
0.0275455
0.112303
0.00129389
0.0200688
0.0138151
-3.48165e-10
-0.0114921
-0.00022139
-9.27118e-08
0.0220503
-0.000233586
0.00122307
0.0094009
0
0.0907543
0.00595029
0.0660182
0.115201
-0.00499968
-0.000173071
0.266811
-2.18966e-07
0.0160357
-0.00016896
-0.0193035
0.071036
0.0996712
-0.0880822
-0.029038
-5.70728e-05
0.00300235
0
-0.0443295
-0.0746012
-1.77563e-12
-0.032083
-0.00022139
0.072232
0.181529
-0.00877911
0.133419
-0.000233586
-0.0960285
0.0114996
-0.0371265
0.0392828
1.72429e-321
-0.0359226
-4.8406e-06
0.11071
-0.0057541
-0.0131163
-0.000196106
0.00767992
0.10621
0.00568834
-0.00877911
0.0376005
0.00520327
0.00122307
-0.00849864
-0.0870186
-0.0311335
-1.67366e-06
0.231164
0.018845
-0.00451353
0.0904615
0.00122307
-0.0417287
-3.32134e-08
-2.56734e-12
-0.0122955
-0.00732448
0.0324985
-0.0769565
-0.0691175
-0.0592697
0.0260861
0.0919793
0.00568793
-0.0182365
-0.0321479
-0.0139304
-0.000233586
0.0106912
-2.28946e-08
-0.00022139
-8.45449e-05
0.0255369
-5.38909e-06
-0.123334
-1.51676e-08
-0.0109826
-3.55485e-05
1.64524e-321
0.0280405
-0.054551
0.000200125
-0.0322932
0.0255369
0.00506174
0.0457841
0.085091
-2.32662e-10
-0.00202279
0.0862423
0.0887656
0.0398024
0.00125675
0.00057741
-7.55653e-11
0.00122307
-7.05764e-11
0.0130885
0.013795
-0.0267239
-0.0597663
0.016506
0.0410342
-0.0343515
0.00475887
-0.051465
0.0903662
0.00129605
-6.14595e-11
1.52576e-07
-0.0156093
-0.000233586
0.0372791
0.0182799
0.0530308
0.0379745
0.131237
0.116575
-1.87369e-12
-0.023286
0.00520327
-0.0421834
-0.0916227
0.100623
-1.89793e-07
-0.00022139
-2.25082e-08
0.012747
0.080824
0.023844
0.0259241
-2.76814e-14
2.43436e-05
-0.0524358
0.0201415
-0.0581786
-0.0185107
-0.147962
0.00558125
-0.0934053
-0.059821
-1.89793e-07
0.000812367
-2.5897e-14
-0.0162106
0
-0.0600802
0.0138151
-0.00149685
0.041462
-2.45681e-08
0.0255369
0.0853749
-0.00658789
0.00692831
-0.000233586
0.018747
-0.0116311
0.00833797
0.0278584
6.83039e-07
-2.76814e-14
0.123228
-0.0116311
0.00823824
0.122375
-0.00971146
0.00681472
-0.0146029
-0.0454385
0.0396426
0.022914
1.76726e-54
1.87927e-90
-0.00868144
0.0218924
-4.58468e-06
-2.22981e-09
0.0153848
-0.0170311
0.0483054
-1.49703e-94
0.448369
-0.0256449
-0.00022139
-1.12545e-08
-9.91421e-07
-0.116014
0.0406926
2.80777e-05
0.114257
0.000845944
0.00711857
0.03803
-0.0177297
0.0713622
0
0.00425636
0.0535007
0.0199224
0.0182799
-0.0237751
0.0233699
-0.051465
0
-0.000261848
0.0376571
-0.000169379
0.0799828
-0.00149685
-0.0146029
0.0396702
0
-0.000173071
-2.5897e-14
0.0893349
-2.21039e-14
-0.0463534
-0.0383825
1.43773e-321
-0.0198274
-0.118999
-2.481e-07
1.57104e-20
-0.0397832
0.0265366
-0.0562929
-0.0463752
0.0503653
0.0362105
0.297006
0.134815
-0.0217606
0.00997878
0.000845944
-3.32134e-08
-0.0934053
0.0173184
-0.0503788
-2.1959e-06
0
-0.000183733
0.10193
-0.0204364
-0.035903
0.015479
-0.0625219
0.0776643
0.000690213
-0.0795685
0.0153151
0.10286
-4.50853e-06
-0.00930014
-0.0182364
0.0655426
-0.048761
-0.0169601
0.0724324
-7.05764e-11
0.0593047
-0.0971689
-0.0116311
-0.0481895
0
0
0.0182799
0.181693
0.0060434
-3.48165e-10
-1.9279e-08
-0.0336333
-0.000177534
-0.000184708
0.161797
-0.0196685
-0.0361063
-0.0639607
0.0400142
-0.0271284
-0.06372
0.0625632
-0.0358515
-0.00853367
-2.30173e-09
-0.0397419
0.0756039
-0.0407873
0.00971197
-0.0305755
-0.00877911
0.0106792
-0.0262056
-0.015028
0.0302464
-0.000264307
-0.0971576
1.58101e-321
0.0971176
-0.0696207
-0.0452674
-0.0686161
0.0598441
0.0779555
-0.00682797
0.000845944
0.000812367
0.00473667
-0.000230809
0
-0.0111795
0.0202092
-0.03553
0.20731
3.04631e-08
0.0295839
-0.0015668
-0.14044
-0.000127907
-0.000172655
-0.0159367
0.151088
0.00111171
0.105005
0.00057741
0.0645151
0.0202092
-0.037531
-0.0259295
-0.0504367
0.00241154
-0.143901
-0.0722812
-0.0688258
-0.0741726
-0.0720313
-9.28131e-09
0.0695261
-1.59292e-11
0.0205827
-0.000173071
1.92686e-321
0.0345298
-0.0916773
-0.167815
-0.0144639
0.0628487
0.272359
-0.0213798
-0.0212106
0.00125824
-0.229721
-0.0572989
0.0869323
0.0259061
0.0735417
2.14424e-321
-0.00662649
-0.0240874
-0.0460511
0.0233699
0.0857228
-0.000233586
-0.000173741
-3.70647e-13
-0.0316
0.00558125
-1.38092e-09
-2.28946e-08
0.0680749
0.274513
0.0347732
0.00241154
0.0356871
0.00314871
-0.00142653
-0.0347256
0.0175932
-0.0182364
0.0105767
3.84586e-07
1.04845e-19
-0.00859057
-0.0116311
0.00220453
-0.0496648
-0.00475169
-0.0240346
-2.76814e-14
0.024971
-0.00658789
0.0978863
0.00794472
-0.000169428
-0.0138398
-0.0233548
0.0283323
0.112341
-0.000186618
-4.84737e-05
0.057409
-0.0182471
0.154266
-0.00146754
0.0477624
-0.000169379
0.0389883
0.0582891
-0.0510059
0.0200688
0.0550206
1.58385e-22
0.0898061
-0.00022139
-0.000196106
0.000347263
-0.00744117
0.134611
-0.0190859
-0.000233586
-0.0860731
-2.21039e-14
0.0487172
-0.0261944
0.0328135
0.0404953
-2.80494e-100
0.0115134
-0.0665016
-0.0274715
-0.00405914
-1.3894e-07
0.00122306
0.0102524
0.00503351
0.00122304
-6.46536e-07
-2.21039e-14
0.119996
0.0455007
-0.00632381
-0.105202
-3.89075e-06
-0.0169848
-0.00146754
-0.0276189
0.0401812
0.00779191
-5.14494e-06
0.0220834
-0.0116311
0.0705849
0.0752166
-8.37326e-07
-0.0506856
0.0604739
0.0128776
0.00711857
-0.0380831
-0.140164
0.0849935
0.0632477
-0.0177914
-0.000233586
1.76726e-54
-4.58468e-06
0.00134857
0.0392828
0.0328358
-0.0677122
-2.2556e-08
0.138504
0.0307925
0
0.00554233
-0.00451353
0.0061838
0.0172566
0.025203
0.0202092
0.0281234
-0.044208
-0.00245095
0.0233699
-0.100319
0.00142005
-1.67366e-06
0.00330945
0.0357167
-0.0337373
-1.13141e-321
-1.00789e-321
0.0121983
-0.000221413
0.101868
0.0182799
-0.0682493
-0.0109669
-2.67559e-10
-0.000186618
-0.0985433
-0.0122955
-0.0182364
-0.0219823
-0.0283292
0.0150649
-0.00732448
-1.04313e-05
-7.24585e-10
0.0171259
0.0457841
-0.0156791
-0.0596012
-9.40389e-05
-0.000233586
-0.0153555
-0.00931278
-8.16961e-06
-0.0326759
0.00241154
-0.000189931
0.00708296
0.00241154
-0.146568
0.134555
-0.0217606
0.000824356
-0.00955628
0.0677898
-0.0789389
-0.000113878
-0.000174882
0.0219893
0
-0.0237478
0.032583
-0.00796667
-0.000184708
0.0556498
0.0264007
-0.0162106
0.098609
-0.0401451
0.00547088
-0.104271
0.0239948
-0.035903
0.180888
0.00373228
-0.000762511
-0.0733215
0.00497696
-0.024725
-0.0262056
0
-0.0823164
1.43773e-321
0.00201926
0.127214
-0.0639607
0.0903905
-0.0577676
-0.00991269
0.0266806
0.057409
-0.0468995
-0.0208219
-0.0266715
-0.0630088
0
-0.0715792
-0.00658789
-0.0423468
0.0196782
-0.0200188
-0.0852856
-2.32662e-10
-3.10534e-11
-0.0417287
0.0012152
0.0985172
0.0259475
-0.0072733
0.0419332
0.0281234
0.0661022
-0.042407
0.124665
-0.00181964
0.0383885
0.0537836
4.89125e-322
-0.0116311
-0.0968852
-9.59571e-07
0.0160912
-0.000196106
0.00323758
-2.34617e-07
-0.0532198
-0.00706136
0.0713622
0.0932596
-0.0275268
0.0404642
-0.0451486
0.091354
0.0202092
-0.101742
-0.000196107
0.0204179
-5.14494e-06
-0.0497128
-0.0316758
3.04544e-05
-2.76814e-14
-0.00410832
-0.0103036
-0.0292609
-0.0420855
0.0514327
0.0713622
-0.000186618
0.070543
-0.0997294
-0.0628547
0.0772083
-0.00930014
-0.0150311
-0.00016705
0.0233699
-0.0243745
0.0246819
-0.0085337
-0.0323921
0.153978
0.00122307
4.51601e-21
0.0115652
0.00946389
0.0470975
-2.92208e-06
-0.051832
-1.30477e-10
-1.04313e-05
-0.000168871
-2.28946e-08
-0.0574743
0.00241154
-0.155583
-0.0287563
-1.70905e-06
-0.0262056
-0.0416254
0.0217528
1.84254e-06
0.0176752
0.00175802
0.0252083
-0.143185
0.00547088
0.124406
-0.015007
-0.0785474
-0.0696207
-2.14088e-07
0
-0.0045157
0.00794308
-0.000180145
-0.0403208
-0.00850473
-7.05764e-11
-0.0139756
-0.0262056
0
4.36946e-05
0.0537317
-0.0620061
0.0175023
-0.0885768
-0.00999452
0.0408602
0.0534638
-0.114712
2.14424e-321
0.0267818
0.00122307
0.0393496
-6.54087e-06
0.0108616
-0.0420057
0.0297504
0.250986
0.0324985
0.184014
-0.0117069
-0.000187763
0.0868173
-0.0467669
-6.69611e-09
0.0628073
3.04544e-05
-0.010189
-2.28946e-08
-0.0101472
-0.000196981
-0.000171518
-0.0518085
-4.58468e-06
0.0430231
-0.000173725
-0.000173071
0.00391453
0.00790547
0.00342053
0.836752
0.0368887
-0.035771
-0.012507
0.215125
-0.112783
0.0561329
-0.0661928
-3.75635e-07
-0.0680691
-5.53515e-07
0.0482768
-0.0766005
-0.0609267
-0.0331767
-0.00955628
0.101773
0.00383518
-0.0408387
1.57104e-20
-0.0210627
0.0701169
-0.0213798
0.123345
-0.000233586
0.0264528
0.0477969
0.013454
-0.00976801
0
-1.60571e-321
-0.0577739
0.00547088
0.206246
-0.0404223
-7.24585e-10
-0.0261944
0.0417249
-0.0916757
-0.113568
-2.32662e-10
0.00460841
-0.013522
-0.00022139
-7.05764e-11
0.0202092
0.0368887
0.0275736
-0.0122846
-1.22502e-08
-0.000183185
-0.0563606
0.0410342
0.00162073
0.000616583
0.0282958
-0.244073
-0.0127742
0.0709502
-0.0656182
0.00215747
-0.0151054
-0.000196981
-0.0420855
-0.00022139
0.0632477
0.188167
-0.136312
-2.25082e-08
-0.0217017
-1.59292e-11
0.0874138
2.14424e-321
-0.0182364
-8.52347e-05
0.0179083
-0.0493113
0.0595638
0.0414562
0.00482951
-0.0779849
0
-0.0117048
-0.000170107
0.0134837
0.00179787
-0.0204313
-2.92208e-06
0.1853
-0.272787
0.0328358
0.0724324
-5.53515e-07
0.00157671
-0.0887427
-0.00100038
-3.2398e-06
0.000283214
0
0.00257954
-0.0955132
-0.0261944
0.0401213
0.0169554
0.00539936
-0.00657855
0.0332576
0.0392828
0.10935
-5.94404e-07
-0.0898095
0.0097628
-0.000184708
-1.12545e-08
-0.0117437
-0.0247412
0.0106301
0.00918413
0.133249
0.00657849
-0.0774203
0.00760179
1.64524e-321
-9.59571e-07
0.0500163
-0.000264307
-0.0497052
-0.060659
-0.0233588
0.0446381
-0.00658789
0.0425793
-0.00658789
-0.000233586
-0.023816
0.0685698
-0.00967815
-5.38909e-06
-0.015007
-8.74748e-06
0.172081
-0.000174081
-0.0116977
0.0228334
-1.38092e-09
-1.14391e-15
-0.0255774
-0.000264307
-0.0186445
-1.06498e-05
0.0400981
-0.12561
-0.245998
0.00122307
0.189161
0.0482768
0.274513
0
-0.00974295
0.0555035
-0.00953373
0.010367
0.041289
0.0175011
-0.0735972
-0.139748
-0.0472362
0.0530308
1.64524e-321
-0.0193157
0
0.0295026
-0.0374922
0.0376571
0.0190504
0.106851
-0.0195671
0.00125824
-0.00264085
-0.125357
-0.00022139
0.0106858
-0.00604225
-0.0320939
0.00547088
-2.5897e-14
-0.00542749
0.0115134
-1.62274e-05
-0.0140897
-0.000196981
0.0823914
-6.42285e-322
-3.48934e-07
-0.0459756
0.00122307
-0.123982
-0.00045345
0.0355693
-0.0773347
0
0.0231464
0.0123194
-0.120947
0.0184691
-6.0661e-06
0.0782243
-0.0292104
0.00132829
-3.79848e-05
-2.32662e-10
-0.0488907
0.023844
3.73349e-68
0.000526513
0.0617145
0.0599877
-2.5897e-14
0.000929306
0.0368018
0.0505974
-9.59571e-07
0.0438683
0.0179083
0.0433618
-0.000183732
-0.136844
1.04845e-19
1.52576e-07
5.35299e-21
0.0604198
-3.67769e-05
-0.000173592
-0.000590409
0.231631
-0.0536668
-0.068473
-6.50009e-12
-0.000196981
0.0372791
-2.76814e-14
-0.0049467
0.122375
0.0196083
-2.32662e-10
0.0294015
0.0173889
-3.19566e-07
0.122836
0.0812673
-0.015028
0.264658
0.0710087
0.0977626
-0.0472301
0.00546921
-2.32662e-10
-0.0138398
-3.55485e-05
-0.0526022
-0.00853367
0.00572514
0.0686279
-2.12201e-06
0.0289044
-0.0137545
-0.0174858
-0.0256666
-6.54087e-06
-0.0830189
0.014766
0
-0.00043113
-0.0353068
0.0367064
-0.0632041
0.0152206
0.040085
0.0896722
-0.0860731
0
0.135628
-0.0290926
0.0058933
-0.0263702
-2.28946e-08
-0.0821427
0.0460239
-0.000170157
-0.0235331
0.0917101
-0.0244828
0.16397
0.208418
-0.043779
-0.0182364
-1.78852e-321
0.00201926
0.0519919
-0.00930039
-0.000233586
0.0105909
0.0367773
7.6716e-08
0.0467864
-0.0353068
-0.000233586
0.0984115
-0.015952
-0.0380679
0.0336467
0.00125821
-2.67559e-10
0.0290721
0.096533
-0.048893
-0.0403032
-3.4227e-05
0.013454
0.0175863
0.142236
-0.017343
-0.00744117
0.092821
-0.0116311
0.0826091
-0.05591
0.00460841
-0.0589117
0.127112
-0.030405
0.00663935
1.2154e-321
0.0220834
-0.0179865
-0.107237
0.0335433
-1.38092e-09
0.0418027
-0.0382373
0.00161103
0.0306921
-6.54087e-06
-0.00527617
0.0145495
-0.00212053
0.0196083
0.0264137
-0.0287946
0.0271724
-0.0618182
0.145209
-0.0485745
-0.0394898
-1.9279e-08
0
-0.0397341
-1.77563e-12
-0.00344787
-0.0319811
1.78063e-05
0.0153004
0.0979716
-2.1959e-06
0.0293571
-0.00676096
0.0299537
1.84254e-06
-0.00017357
-0.000147349
-2.32662e-10
-0.000147349
-0.0747052
0
-0.0102592
0.091109
0.106851
-0.0257459
-6.0276e-322
0
0.113314
-0.000233586
0.170843
-1.14623e-321
0.0178481
0.0332576
-2.1959e-06
0.0179083
-0.0001899
-1.89793e-07
0.10509
0.0622306
-2.74245e-10
-0.0123223
-0.0738826
0.0535147
0.0108616
2.11592e-06
-0.0484773
-1.68406e-06
-0.0263681
0.0114949
0.0662257
4.74303e-322
-0.0926508
-0.100613
0.0558036
0.00381558
0.0124792
0.0273346
0.0498245
0.0153151
-0.0222541
0.0484715
0.125689
-0.0757013
-0.0241914
-0.104697
-1.24427e-09
-9.85805e-09
-0.00802349
0.0180427
-0.000233586
-0.0805648
0.0297786
-1.48065e-05
-0.0132852
0.291168
-0.0633413
-0.0248481
0.191916
0.0724324
-0.00220241
0
-0.0572217
0.0236892
0.000709534
0.000551079
-0.0249535
-0.0421152
-0.00022139
0.00794472
0.03536
-0.0355551
-0.00550996
8.74609e-05
0.0122356
1.09361e-19
0.000812367
-2.32662e-10
0.0229989
1.78852e-321
-0.0152342
-0.0342978
0.144674
-0.0940854
0.0514321
0.0753201
0.207281
-9.98869e-09
-2.5897e-14
0.126308
0.0767002
0.00460841
0.0873903
-1.12545e-08
0
-2.21039e-14
-0.0644472
0.0306921
-0.0399448
0.100267
-0.00166219
0.011245
0.0616043
-2.05009e-09
-0.000233586
0
1.57104e-20
0.0106858
-0.00976801
-0.000189931
-0.00641016
-0.0122052
0.0513004
-0.000177534
-0.000182434
0.0335433
0.0478879
-0.0261944
0.0191846
-0.0452674
-0.0728679
-0.000173725
-0.0266883
-0.00022139
0.0306921
-0.0151216
-6.36799e-06
-0.0382373
5.35299e-21
-0.0316
-0.0657414
-0.0758282
-0.00433904
0.135148
0.00920905
0.0804035
5.35299e-21
-0.125779
-0.0854096
-4.24333e-06
-0.0217323
-0.00699146
-0.000172918
-2.62142e-12
-0.000182516
0.00829276
-1.44544e-06
0.0175166
-0.0266735
-6.33923e-12
0
-0.0917156
0
0
0.0275144
-0.0265456
0.013454
-0.0367274
-0.10903
0.0704226
-0.043587
-9.40389e-05
-0.0169601
0.0322771
0.377
-0.0175568
0.0710089
-0.0110621
0.085091
0
-0.0146029
0.0200688
0.127663
-0.0417289
0
-0.0916778
-0.0342891
0.19764
-0.047593
0.0724324
-0.0279788
-0.107955
0.0713826
-0.000173156
-2.76814e-14
-0.0122956
-0.0194839
-7.3306e-09
0.0509488
4.51601e-21
-0.0337897
-2.07981e-09
-0.0261357
-0.0102935
-2.481e-07
0.000283214
-2.28946e-08
-0.0419231
-0.0371265
-0.0460511
0.0482768
0.0442123
-2.12201e-06
0.0171259
-0.0183541
1.04845e-19
0.0799507
-0.0323921
-0.0134695
-0.000175683
-0.00352728
0.0760704
0.00517307
-1.9279e-08
0.00891704
-0.000172619
0.00521487
-0.0866677
-1.99391e-06
-0.0605707
-0.00451868
0.000156352
0.106703
-0.101722
-0.0182364
-0.0424586
-0.000173741
-2.32662e-10
0.0251678
-0.00149685
-1.05546e-11
-0.0406482
-0.013522
0.00460841
0.097012
0.0605738
-0.0109826
-0.0249243
-0.232444
0.0406926
0.00166107
-0.180548
1.58385e-22
-8.5149e-99
-0.00303386
0.000812362
-0.28605
0.0179083
-0.131038
0.0857403
0.191794
-0.223891
-1.89793e-07
0.0253796
-0.00282056
0.0352887
-2.62142e-12
0.018691
0.0049207
-0.0146029
0.207281
0.134892
-1.67488e-321
-0.0432062
-0.0280558
-0.146564
-0.0835205
0.00122307
-0.021199
0.000843822
-0.0484286
-0.0283832
0.0328511
-1.78852e-321
5.35299e-21
0.0187422
0.0408602
-2.5897e-14
0.074991
-5.23659e-08
-0.120717
0
-0.0854257
-4.13088e-07
0.0202092
0.0349497
-0.0116311
0.0442355
0.129511
0.0893349
0
0.0306921
-0.0346951
0.0557429
0.0385437
0.013454
-0.00853367
-0.0577676
-2.5897e-14
0.0502158
-7.3306e-09
-0.0396319
0.00314871
-0.0302648
-0.0153555
0.174739
0.00235648
-0.0346951
0.0107604
0.010314
0.0803323
0.0604031
-0.00343081
-0.0615805
-0.0779461
0.0373791
1.43773e-321
0.0159866
-0.0263336
0.0176296
1.76726e-54
0.0395017
0.0178481
-2.34617e-07
-0.220447
-0.00022139
0.013454
-0.162997
0.0312795
0
-0.0118801
0.0368017
-0.0316
-2.20131e-06
0.0735462
0.0100846
0.0619012
-0.00729067
-0.0489765
0.0200688
-0.0122955
0.0651837
0.041683
0.00441807
0
0.0449764
0.0376005
0.0666797
-0.148967
-1.9256e-05
-0.00658789
0.0138586
-0.0462016
0.048697
-2.5897e-14
-0.0471692
0.0416796
-0.104874
-0.00301438
-0.0368608
-7.32516e-06
-0.029724
-0.0774354
-1.76381e-321
-0.0146029
-0.0198688
0.0681461
0.0377875
-6.26513e-05
-0.0578232
0.00681658
1.72429e-321
-0.000182434
0.016506
0.0567911
-0.0217617
-0.00658789
1.04845e-19
5.35299e-21
-2.19479e-07
-0.0109826
0.0125601
-0.0477957
0.0120118
-0.0363081
6.83039e-07
-0.0264473
-0.0361063
0.000283159
-2.12201e-06
-0.0295715
0
-9.27118e-08
0.0628085
0.142297
-0.00658789
-0.0505938
0.0299537
-2.80494e-100
-0.140397
-0.130991
0.00418576
0.0554457
-0.00280854
0.0453705
-1.87369e-12
-0.00952445
0.0954102
-0.0530042
-0.0718317
-1.09657e-06
-0.0681886
-0.013522
-1.61438e-10
3.73349e-68
-0.0772285
0.0138786
-0.101658
0.00706741
1.57104e-20
-0.0200676
0.175123
-0.039998
-1.52307e-05
-0.013522
-0.131825
-7.05764e-11
-0.000186618
-6.85189e-12
0.0112247
-0.000177534
-0.0639607
0.00160204
0.0163172
0.00241154
-2.01681e-06
0
-2.22981e-09
-0.0468995
-0.0433179
0.00057741
-1.9279e-08
0.0590844
-0.00655641
-0.0417287
0.0767026
-0.0193116
0.0325699
0.00520327
0.00782251
0
-0.0549639
0.0651644
-0.011415
-0.0207265
0.0359683
0.0899799
5.5266e-05
-0.0905921
0.023844
-0.0770377
0.0899799
-0.1239
-0.0261463
0.04953
-0.0187475
-0.0166254
-0.0116311
0.027802
-0.137034
0.147276
0.0558158
0.0239306
-0.0244322
0.0148116
0.00241154
0.0179083
-0.0198904
0.0898061
0.0716643
0
0.0396702
-0.015028
0.0904402
0.0334891
-2.0993e-06
-0.0720982
-1.05834e-05
0.00520327
-2.57125e-07
-0.0135636
0.0101144
0.0340442
-0.101899
0
0.10935
0.225253
-0.0317944
-0.0508047
-8.45449e-05
-0.0361249
-0.0677825
0.117538
0.0460022
-2.80494e-100
-0.0676974
-0.0452674
-2.14088e-07
-0.00297174
0.0159866
-0.0131856
0.046449
-0.0550364
0.0415889
0.0514405
-0.035903
-0.000168871
0.0287393
0.00498188
-0.0638097
0.00561867
0.0377645
-6.50009e-12
-0.30378
0.0106301
0.149513
-0.0256666
2.14424e-321
-0.000171505
0
-0.000165505
-0.0153555
-0.0241905
-2.25082e-08
0.00614259
0.0103557
-0.0778849
-0.000113878
-2.32662e-10
0
-5.38909e-06
-2.97807e-10
0.0171259
-0.0997562
0.0636167
-0.0100164
0.0419332
-8.45449e-05
-0.000173725
-0.011691
9.14021e-322
-0.000196106
8.74496e-322
0.012012
-0.000233586
0.0660182
0.00362142
0.0275683
-0.0498032
0.0257893
0.000433256
-0.0537771
-0.0310022
-1.05546e-11
-0.000174766
0.0542558
0.0628085
-1.36153e-35
-0.0463165
-0.0151282
0.00169489
-2.19057e-08
0.0340442
-2.28946e-08
0.0553186
0.0698464
-0.101896
-1.50661e-05
-0.000183732
-0.0249839
0.0236369
-4.02243e-06
-0.0717436
-7.36672e-06
0.0286435
-2.28946e-08
-1.59292e-11
-0.000160276
-0.0292104
-0.0261944
0.00241154
-0.066988
-0.0646389
-0.00178764
-2.67559e-10
0.0248523
-1.89793e-07
0.0253796
-0.0454635
0.0378758
-0.000942722
-0.0391606
0.00241154
0.0249449
-0.000166764
0.0552084
1.43773e-321
-0.0386188
-0.000184708
-5.14494e-06
-0.039291
0.0127334
-0.0214298
0.0786245
0
0.0514321
-0.115275
-0.0621284
0.0259462
-1.9279e-08
-0.035903
0.219958
-0.0268262
-0.135051
-0.0624269
-2.92208e-06
0.00492059
-0.000236286
0.0392812
-0.0440247
0.0915821
0.00162073
0.000581284
-0.0292609
-0.000233586
-0.0568933
0.0797281
0.0934399
-0.0275616
0.0368887
0.0498223
0.0264137
-0.000196981
-0.0329499
-9.59571e-07
0.0893349
0.14157
3.70549e-322
0.0419358
-0.0791956
0.0106301
0.0231906
-0.0467785
0.0103689
-0.00722985
0.161998
-0.0333256
-0.0403384
0.0893349
0.0259475
0.0118441
-0.0195671
-0.0312995
-0.0715792
0.0328358
0.00799248
-0.0382476
0.0223369
0.0946966
-1.44551e-06
0.0246707
-0.0496648
-0.020855
-0.00459079
-0.0420855
0
0.0134837
0.23894
0.00775924
0.155069
-0.092705
0.10458
0.00899669
0.00595029
-3.12327e-05
-1.93678e-09
-0.0664209
-3.75698e-06
0.00786938
-0.00142653
0.0933472
-3.10392e-06
0.0464036
0.00267535
-0.0346989
-6.78584e-07
3.09554e-20
0.0459579
0.00157671
-0.0338425
0.0495675
-0.00841685
0.0265363
-0.113812
-0.012083
1.43773e-321
-0.00638967
0.00478025
-0.0442361
-6.7472e-05
0.0527755
-0.000180144
0.00241154
-0.0850286
-0.0135636
-0.0153555
-0.0605767
-0.142868
-0.000233586
-0.0525834
-0.0254273
-0.0200643
-0.000174766
-0.0559353
0.000700749
-2.45681e-08
0.0239306
-0.0109826
0.00558125
0.00190667
0.273563
0.002295
7.09706e-05
-2.44006e-08
-0.00352728
-0.0299422
0.0138798
0
-0.0564794
-0.0424586
0.0230641
-0.164578
-0.000151084
-0.0190123
0.0348121
0.0710089
0.0049686
0.0944694
0
0.06053
-0.121354
0.0527951
-0.010189
-0.077687
-9.59571e-07
-0.0169601
0
-0.00768454
-0.00658789
-2.0249e-06
-0.000178204
-9.59571e-07
0.102278
0.0647674
-0.000173553
-0.0968311
-2.62024e-09
-0.0948306
-0.0842729
0.0568038
-6.50009e-12
-0.0355553
-0.0492285
0.0818827
-0.0107724
-0.0646389
0.000347263
0.00378551
0.0235285
0.13717
-0.0265456
-0.000173741
0.00241154
-0.0496579
-0.0467669
0
-0.0115649
-1.48065e-05
-0.0187475
-3.32134e-08
0.0182799
0.010314
0.0220503
-0.13098
-3.37504e-07
-0.00022139
-5.23659e-08
0.0459579
-2.15419e-07
-0.0168001
-0.0406322
-0.038561
-0.013522
0.032823
-1.89793e-07
-0.0193944
5.35299e-21
0.00996752
-2.25082e-08
-0.0862554
-0.183486
0.0465954
-2.5897e-14
0.0211657
0.0271724
0
-0.0128331
0.0327847
0.0455619
-0.0182364
0.156854
-0.0671466
0.0619012
0.00969408
-0.00939966
-0.0362963
0.0306921
-0.0195671
0.0666274
0.0408602
0.0246133
0.0317455
-0.0890294
-1.72053e-09
-0.0466186
1.57104e-20
0
-0.00602354
-0.0934053
-0.0139756
0.0085039
0.00820058
-1.03338e-05
-0.0397397
-0.00395155
0.0336738
-0.0125841
1.57104e-20
0.00468345
-0.0480029
0.0704254
1.57104e-20
0.000347263
-2.80226e-15
-0.0471692
-0.00564763
0.0554455
0.0187422
-0.0142209
0.0138151
0.0486601
-2.76814e-14
-0.0850752
0.107559
0.007114
-0.0484474
-0.102001
-6.42285e-322
-0.153862
-0.0211839
-0.0168168
0.0850885
0.0102519
-0.0727574
-8.91006e-07
0.00154968
-0.00983473
-0.0788832
-0.0424909
0.00547088
-0.0376711
0.0171259
-0.0195671
-0.18446
-6.97154e-08
-0.378428
0
0.0165171
0.000812367
0.0684843
-0.000233586
-0.0190859
-6.23221e-10
0.044535
-0.0766045
0.0611867
-2.09464e-07
0.0965026
0.0549841
-0.0360263
-0.000168083
-0.0720187
0.00846809
5.35299e-21
0.0259475
-0.0780474
0.000616583
0.00241154
0.00951715
0.0483784
-1.78852e-321
-3.64181e-06
-0.0849591
0.00482951
0.00241154
-0.000235549
-0.0195671
0.00760179
-0.0260267
0.0307925
-7.05764e-11
0.17207
0.016505
-0.0433417
-3.03419e-05
2.14424e-321
-3.32134e-08
0.00201926
-0.0422627
-0.0282774
-0.00954356
-0.0512843
0.0743722
0.0698871
0.0684861
0.319199
1.76726e-54
0.118529
-0.0934053
-5.11599e-05
0.0673912
-0.0137797
-0.0611206
-0.00017329
0.00888596
0
0.00791335
-0.00153568
-0.128126
-0.0186399
-0.205841
-0.000193708
0.0224395
-8.74748e-06
0.00626533
0.074249
-0.0167631
0
-0.13049
-0.0417376
0.0325697
0.0492126
-0.000233586
0.0581887
0.00655052
0.0401959
1.69959e-321
0.0202092
-0.103544
-0.0292203
0.0186195
-0.0690148
-0.0258658
0.180788
0.106093
0
-0.0292609
0.0246819
-0.00134822
-9.85805e-09
-0.00658789
0.0184625
0.0350117
0.171815
0.0467864
-0.0401364
-0.00499968
0.0094844
0.0557283
0.0613651
0.0443645
-0.0340706
-0.010779
-0.00658789
0.0831189
0.00460841
0.0171259
0.0796806
0.0200688
-0.0288709
-7.05764e-11
0.010314
-0.0546702
-6.46536e-07
0.00665835
-0.0385119
0
-0.0146029
-0.0397587
0.013454
-2.28946e-08
0
-8.20076e-06
0.0171259
-0.0934941
-0.00288607
-0.000113878
0.0432942
0.123321
-0.00669187
-0.113119
-1.89793e-07
0.0381563
-0.0916757
0.00241154
-0.112066
-5.40287e-07
-0.000176789
-0.240735
-0.0240346
-2.5897e-14
-0.000196981
-0.0812262
0.0290048
0.0271724
0.0692003
8.74612e-05
-2.32684e-10
-3.04882e-05
-0.0261944
0.0130611
3.09554e-20
0.00595029
-0.195874
0.0194797
0.0561329
-0.000175683
-6.36799e-06
-0.0757642
-0.104434
-1.13141e-321
-0.00483828
0.0957813
-0.00641016
0.0197467
-2.28946e-08
0.030028
-0.00246962
0.0600846
-0.0029475
-2.5897e-14
-0.0122052
-2.56734e-12
-0.0673321
-0.0123502
-0.0442361
-2.481e-07
0.136009
-8.2309e-13
0.0788625
0.0128215
-0.120941
0.0982455
-0.0151054
-0.000233586
-0.0660782
-7.32516e-06
0.0115317
0.00237773
-0.0346951
0.0171771
-2.1959e-06
0.049487
0.0454768
0.00978389
0.0267427
-0.0168001
-0.000173723
0.0423771
-0.0102935
-0.0263796
0.00425044
-0.00142653
-0.000233586
0.0732562
0.00121777
0.028196
0.00134857
-0.0843727
-0.0141065
0.0418215
-0.00299417
0.0622306
-0.0451955
0.00520327
0
0.0275142
-0.0122052
-0.0715792
0.00946898
-0.00135299
-0.11131
0.0503653
-0.0360427
-0.0720426
0.00476785
-1.31182e-14
-0.0769565
-0.149795
-0.0581057
-0.0123223
0.011869
-8.74748e-06
-0.000233586
-0.0287946
-0.0179865
0.00179787
-0.0301575
-0.00853367
-0.121396
0.0770138
0.00529069
0.0239502
0.00122307
0.0165205
0.0481923
0.0233699
0.123704
-0.000184708
-0.0168001
3.09554e-20
-3.66276e-05
3.73349e-68
-0.0702053
0.0605795
0.0163178
-0.000174062
-0.0874747
-2.25082e-08
-0.116325
-1.78852e-321
0.0403484
2.94268e-10
0.121693
-0.154868
0.0469884
0.0437684
0.0201415
-2.14088e-07
0.0115686
0.00241154
-6.42285e-322
0.0200987
-2.07981e-09
-0.0346951
0.0129909
-0.00811667
-0.0610527
-0.145736
0.00706741
-0.024188
-5.40287e-07
-0.0271284
-1.22275e-05
-0.0283832
0.081497
-0.000174882
-0.0738826
0.0171259
-0.000103058
-0.284653
-0.0288473
-2.14088e-07
0.0486228
0.000845944
-8.20076e-06
-0.0499069
0.0245583
0.0069917
0.0171259
-0.0001647
0.00794472
-0.000233586
-0.0346951
-0.000183732
-0.0580187
-2.50049e-07
0.0465104
0.104956
0
-2.56734e-12
-8.49411e-08
0.0200688
-0.0729293
-2.28946e-08
0.15392
1.57104e-20
-0.00797507
0.00888596
0.0713498
-0.00759473
0.0862423
-1.25493e-321
0.00547088
0.0343064
-0.000183732
-0.000233586
-0.00903241
-2.46908e-05
-0.000178204
0.00507857
-0.0179865
0.0518994
0.0003095
0
0.0290049
0.0639463
-0.0120546
0.000822735
-0.0168957
0.0176408
-0.0425871
0.050296
0.0163178
0.0853749
0.141054
-0.0671243
0.0109065
3.08635e-19
0.0102524
-1.11115e-09
-0.10614
-0.0256449
-7.24585e-10
-0.0510196
-0.00859057
-0.000173592
0.0288327
0.143289
0.0371136
-7.24585e-10
-0.107278
0.00122307
-0.000233586
0.00689475
4.51601e-21
0
-8.28063e-07
0.0361116
-0.0261944
-0.000233586
-0.0181923
0.0982694
-0.175721
-0.0940878
0.0430231
0.174718
-0.0382579
0.0455506
-0.00425851
-0.10095
-0.0566548
-0.0934053
-1.99391e-06
0.00241154
0.0304175
0.0259475
-0.0409169
-0.0454385
0.0233289
-0.011415
-0.0755144
0.000359586
-0.0114965
-0.000233586
-6.50009e-12
-0.0532813
0.0561329
-0.0467219
0.0304915
-8.31559e-05
0.00122307
0.00122307
1.43773e-321
0.0438945
-0.010734
-0.034424
-0.151116
-0.0256666
0.00505755
-0.000233586
0.0226504
-0.315017
-0.0823482
-0.0852856
-0.0908103
-0.0542472
0.030302
-0.0122955
0.0336262
-2.25082e-08
-0.067614
0.0886066
0.253508
-2.14088e-07
-0.00560182
-0.00614196
0.082308
-3.48934e-07
0.00538827
0.0239306
-0.0713112
0.0200735
-0.0114254
2.14424e-321
-0.0908221
-0.0420855
-0.00658789
0.00441807
0.0492388
-0.0276187
-0.0777034
-0.0942864
-3.12327e-05
-0.0422882
0.000109836
1.57104e-20
0.0438685
1.57104e-20
-0.0867845
0.0517231
-0.0196835
0.134859
-8.64068e-06
0.0132804
0.0376542
-0.0619485
-0.000175376
-0.00930014
0.0105461
0.0106382
-0.249557
-0.0646012
-0.0468948
-0.0182062
-0.0355247
-0.00142653
0.0324985
0.0991873
-0.0339669
-2.44006e-08
-0.066311
-5.50031e-08
-0.0231821
-0.0215957
-0.0866677
0.0165205
0.0379745
-0.00395389
-0.0630048
-0.0117047
1.52576e-07
-2.45681e-08
0
-0.0365428
-0.000264307
0.0849069
-0.0195067
-2.25082e-08
-2.32662e-10
0.106386
0.0430231
0.0105622
0.0422333
0.0748737
-0.0329111
-0.000172655
-0.0141102
0.281614
0.16321
0.0200688
0.00711857
-0.0755144
-0.00379887
0.0594547
0.0438685
0.0419358
0.0932573
-0.0411667
-5.91784e-07
-0.0424888
-0.0397397
0.0619012
-0.000173741
-0.0831563
-3.75635e-07
-0.0454385
-0.071943
0.0292614
-0.0676152
-0.0372849
0.0281234
0.0776403
-0.114196
0.024449
0.00968182
0.0374066
0.0163178
0.00681472
-0.000186618
-6.42285e-322
-0.051465
-9.98869e-09
-0.591499
0.0175023
-0.0115648
-2.5897e-14
-0.051832
0
1.43773e-321
3.04544e-05
-2.00953e-09
-0.0677505
-0.000331583
0.0138738
-0.0910762
0
-8.2309e-13
-0.0355553
0.00406367
-0.0748481
0.0428159
0.106851
-0.0566647
-0.021199
0.124022
-0.0287946
0.0367773
-0.0505066
0.274412
0.0396933
0.00794472
-0.0468995
-2.87517e-08
5.35299e-21
-0.000182516
-0.106412
-0.0548104
0.00201926
2.14424e-321
-0.222354
-0.017428
-0.0613488
-0.00185096
-1.48065e-05
0.00307444
-0.000146773
-7.05764e-11
0
0
-0.0372211
0.124665
0.044638
0.105005
-0.0358517
0.00483661
-0.0135652
0.00483661
-0.00579368
-0.00939966
0.0705304
0.0142571
-0.00272714
-0.0212456
-0.01519
-0.117383
0.0189249
-0.032457
-0.0675709
-0.00653322
-8.16961e-06
-0.012618
-0.0342384
0.00314871
0.0239306
-0.083493
0.00528617
-0.0442361
-0.0195671
-0.159462
0.00247169
-0.00757509
-0.0001676
0.0306114
0.0409882
0.00708026
-6.50009e-12
-3.10534e-11
-0.16575
0.00456204
-8.16961e-06
-0.000151084
-2.34617e-07
0.00708955
0.0591116
-0.000189572
-0.000180146
0.0148153
0.0218473
0.0331778
0.0202092
0.0258453
-0.0626102
0
0.03803
-0.125558
5.54535e-23
0.0642055
-0.000175683
0.0585589
0.0442706
-0.0316
0.010367
0.010314
0.0473866
0.00685572
-0.0564813
0.00561867
-0.0337454
0.0413442
0.000109861
1.64524e-321
-0.0405111
-0.0605767
-2.28946e-08
-0.0306778
0.145512
-0.0581786
0.0147734
-8.73676e-05
0.0213038
-0.0447171
0.031535
0.0187422
-5.23659e-08
-0.057896
-0.00658789
-2.32662e-10
0.0457541
-0.000196106
0.00473667
0.337894
-0.017401
0.018094
-0.00859057
-0.0435576
-0.0116977
0.00775333
-0.0405711
-0.0733215
0.14023
0.0518994
-0.176915
0.056689
3.09554e-20
-0.000233586
0.0236369
-0.0218301
-0.0175568
-1.12545e-08
0.0864103
-8.74748e-06
-0.163429
0.0143092
0.0273719
0.191496
-0.0650602
0.00706729
-3.70647e-13
-0.00346417
-0.0129138
-0.0671243
-0.000174882
0.101139
-0.0478228
-0.0712863
0.00115396
-1.32386e-05
0.01075
-0.0093502
0.00122307
0.0721187
-0.00853367
0.00520327
0.0292218
-0.0843727
9.83721e-05
-0.05686
-0.019065
0.0226853
0.0603745
-0.00819492
4.71645e-05
-0.0266953
0.0854791
-7.94225e-08
-9.28131e-09
-0.000233586
0.00539936
-0.105204
0.11071
-0.0273787
-6.26513e-05
-0.0292104
-0.0116311
0
0
-0.0327146
0.0138586
-0.0029475
-7.05764e-11
-5.18769e-322
-0.0686261
-0.00853367
-0.0104109
0.0646002
0.00708296
0.0368887
-0.0467669
-0.0949555
-0.10812
0.0379745
-1.89793e-07
-1.12545e-08
3.53237e-05
0.0219631
-0.0360236
-0.00451353
-0.00142653
0.0327847
0.015716
-0.0978083
0.0982512
0.00483661
-9.98869e-09
-0.0397419
-0.000813065
-0.0185107
-2.80494e-100
0.00361228
-0.0610099
-0.0302099
0.0421587
-5.53515e-07
0.116554
0.0651644
-1.61438e-10
0.0271724
-0.0217606
0.0899799
0.206171
-2.30173e-09
0.0279225
1.0573e-321
0.0376005
-0.000196981
-0.0785474
-0.0248481
-0.010189
-5.11599e-05
0.0189948
-0.0418653
-0.0566524
-0.000184708
-0.000173725
-0.025125
0.0535147
-0.0380831
-0.0336351
-0.115755
-2.06065e-09
-0.000173723
-0.371392
-0.000174882
0.0159866
0.0612187
0.127134
0.0761416
0.0165171
0.042375
0.00122307
-0.0408169
0.115789
-0.0890125
-0.00657855
-0.246395
0.0457841
0.00425636
0.0106301
-0.00746476
0.0368018
0.282417
-0.127742
-2.38946e-05
-0.140151
0.00057741
0.0226533
1.58385e-22
0.0309608
-7.24585e-10
-0.00451353
-1.78852e-321
-0.147911
0.00706741
-6.50009e-12
-0.0788832
-2.5897e-14
-0.0750143
-0.0321636
-2.49172e-05
1.84254e-06
-3.10534e-11
1.2154e-321
-5.11599e-05
-0.0261944
-0.0103726
0.0209951
0.00122307
-0.000186618
-0.0467689
0.00547088
-1.69276e-05
0.0536572
0.027029
0.462125
0.0118388
0.0233699
-2.28946e-08
0.0269179
8.17616e-06
-0.0390848
-0.000233586
0.0183893
0.0165171
-0.092705
0.0390157
0.00891704
0.130021
0.0102519
0.0763889
1.04845e-19
-0.000180145
-0.0217606
-0.0139756
-0.0654873
-5.53515e-07
0.0316001
0.0200688
0.0157863
0.0104191
-0.122798
-8.2309e-13
-0.060024
-0.000182434
0.0438685
-0.0398236
0.00122307
-0.054551
0.0186989
-0.0592371
0.128145
-0.0252229
0.00169489
-0.0521122
-0.0191213
-0.0408169
-0.101899
-0.028501
-0.00022139
-0.000171505
0.12444
-0.0321479
-0.0427202
-4.04173e-06
-0.0421834
0.0609983
0.0220503
-1.11115e-09
-0.0851892
0.0187408
-1.61194e-05
-0.157408
0.028196
-0.0393776
-0.00176062
-2.5897e-14
-0.0130661
-0.14348
0.0202092
0.00469303
-0.0122052
0.177185
-0.000180145
-0.0946685
-2.5897e-14
0.0599963
0.0243372
-0.00704743
-0.00658789
0.0264137
0.0768893
-0.0923846
-0.00579368
-1.31822e-12
0.247302
0.0152741
-0.000233586
-4.84875e-05
-5.70728e-05
-0.0496648
2.09907e-06
-0.00022139
-0.0454385
0.0442123
-0.00645713
0.018429
0.112817
-1.72053e-09
-0.0261944
0.0899799
-0.0459108
-0.0289369
0
-2.09231e-07
-1.59292e-11
-8.5154e-08
-3.10392e-06
-0.00346417
0.0461099
-0.0346951
-0.0301575
0.0780801
1.57104e-20
-0.0383825
1.57104e-20
0.00241154
-0.0324829
-0.00981516
-0.0159873
-0.0182364
0.344903
-2.45665e-05
0.012797
0.00219308
0.0142781
-0.010779
0.0376404
-1.14391e-15
0.0467864
0.0938784
-0.045046
-0.00658789
-0.072468
-3.10534e-11
-2.25082e-08
-0.050894
-0.02402
-2.5897e-14
-1.30477e-10
-6.87207e-06
-2.22981e-09
-8.05743e-09
-0.015109
-0.000168083
-0.0179865
0.0102217
-0.0374259
-0.00212035
-0.000186618
1.64524e-321
-0.00641016
-1.59292e-11
0.0899664
0.0109921
0.148713
0.0145826
0.0414561
-0.0763908
-0.00658789
-0.00658789
0.0304206
-0.0714068
0.023844
0.0755458
-2.28946e-08
-1.13559e-08
0.0398024
-0.00345335
0.0340442
-8.31559e-05
-0.00757509
-0.000173071
-2.05583e-13
-0.000173071
0.0153151
0.0429186
-0.0463777
-2.87517e-08
-0.0195671
0.00122307
-0.00527617
0.0161625
0.0234442
-3.75635e-07
0.0536785
0.131769
-9.87875e-07
-0.0308981
-9.85805e-09
-0.0605767
3.73349e-68
0.0939349
-0.00264085
-6.46536e-07
0.129821
0.0905533
-0.0346951
-5.53515e-07
-0.0457982
-0.0404584
0.0352729
-8.5149e-99
0.0746334
0.00128576
-0.000196981
-0.000170471
-0.0265456
0.119881
-0.000146763
0.0680749
0.00201926
1.78852e-321
0.0698576
0
-1.93678e-09
-0.000168057
0.0349465
0.0571238
-0.0124988
0.023844
-0.00016884
-0.141702
-0.0426942
0.0201014
-2.5897e-14
0
-2.09231e-07
0.0413323
-0.104646
0.0474816
0.0328358
-2.32662e-10
-0.000349039
-0.000233586
-0.00146754
0.0437336
0
-0.00022139
0.00557931
-0.032192
0.000246399
0.00154968
-2.5897e-14
0.00268322
-0.0226656
0.00538897
-0.0693431
0.0119948
1.57104e-20
-0.0275957
-0.0113158
0.10214
-0.00174615
-5.38909e-06
-0.0319811
-0.100164
-0.0443295
0.0307925
0.0982694
-0.000233586
-4.35804e-05
0.00568834
1.57104e-20
-0.0367274
-0.0614257
0
0.0612442
-1.19195e-07
-0.036366
-0.0146029
-0.00306106
3.09176e-06
-9.27118e-08
0.0193677
0.0685698
-0.00451353
-0.00022139
-2.5897e-14
-5.14494e-06
-0.0896474
0.12047
0.00520327
-0.000189931
-0.000178204
0.0283002
0.00241154
-7.94225e-08
-0.05686
-5.14494e-06
0.020983
-1.74466e-12
0.616495
0.0197037
0.0180427
0
1.43773e-321
-0.112141
-2.25082e-08
0.0994314
4.71645e-05
-2.28946e-08
-0.0827135
-0.0116311
-5.83269e-12
0.00241154
0.00406148
-0.0478062
-2.22361e-05
0.0467864
-0.0342978
-1.13141e-321
0.0193677
-0.020911
0.0186195
0.0646792
-0.0186117
-0.000348304
0.00706741
-0.00746476
-0.0133799
0.180085
-0.000186618
0.0207325
-1.89793e-07
0.000812367
-2.80226e-15
0.0123394
0.00241154
-0.0182406
-0.0606571
-0.000136747
0.0928509
-0.00658789
1.04845e-19
-0.0015668
0.0434478
-0.0552524
-1.33831e-10
-2.00916e-05
-0.071175
0.0410342
