-3.22032e-08
-1.05687e-13
-1.38647e-14
-0.0298584
-0.0239114
0.00216358
-5.77661e-06
0.0151581
0.0138444
-5.77661e-06
-0.0109451
5.38832e-129
-0.0259587
0
0.0126784
-2.02467e-234
-2.7508e-07
0.0228326
0.0259169
-0.0267409
0.0507277
-0.126263
0.000840016
-1.97901e-07
0.0473384
0.0126784
-0.0543382
0.0649657
-0.00619281
-0.0991659
0.0161935
0.000733005
0.00956718
4.8989e-140
1.54606e-05
1.14102e-06
0.0131719
0.00674589
-7.15186e-06
0
-0.0684686
0.116565
-1.14255e-13
-1.53718e-08
-0.0201327
-0.00997181
0.0649789
-1.54762e-05
0.0186383
0.0265132
0.0750882
0
-1.78973e-12
0.0892924
4.69186e-133
-6.83708e-11
0.0184299
0.00842084
-1.1261e-06
-3.8649e-07
-7.71527e-06
0.00213837
-4.15024e-248
0.0387923
-0.0348916
0.042284
0.0943769
-0.0117684
-0.0982765
0.00331949
-0.108583
0.0451008
-0.0349172
0.00640517
0.027381
0.00279711
0.0203406
0
-0.0298084
0.000310611
-0.07861
0.00763743
-9.79293e-05
0.0268234
-1.26065e-05
-0.00124113
-0.0423689
0.0688764
0.0448794
0.042284
0.0482779
-0.0903278
-0.230955
-0.00438661
-0.0541027
-0.0292331
0.0897832
0.012398
0.000426517
0.0881545
-1.78973e-12
-7.71527e-06
-8.79367e-14
0.00149082
-3.14036e-09
-3.30302e-07
-0.139996
0.0101277
-1.57809e-12
0.136089
-0.083155
-0.0135691
-2.97535e-05
0.000474228
-3.85371e-322
-0.0143501
0.00702122
-3.31559e-06
-0.00392508
0.237736
0.0413952
0.0187191
0.283752
-0.179332
0
0.0168537
-0.0764082
-0.0260804
0.0454545
-0.0131932
0
-0.0298586
-0.0116461
-0.0447178
-0.111173
0.00422544
-0.0632717
-6.83708e-11
0.0291745
-0.00390919
0.0787841
-0.00143225
-4.22008e-05
0.0310295
0.00630402
-1.09625e-05
0.00154805
0.0168563
0.000393547
-0.18635
-0.00576269
0.00317806
0
0.00953207
0.0346313
1.14102e-06
0.00186166
-0.0136598
-0.0467147
0.00235356
-0.0286825
-0.0545053
-0.119548
-0.0326596
-7.71527e-06
-0.0921684
4.05134e-322
0.0498965
0.010476
-0.0881455
-0.00874734
-0.0316885
-1.39738e-115
-1.76844e-07
-0.219647
-0.0275779
0.0663066
-0.0540058
-4.66045e-05
0.00560529
-1.78973e-12
8.27591e-131
-0.0590575
-0.0603294
-0.0334013
-0.0280546
-0.0421499
0.00906058
-3.11261e-322
-1.97901e-07
-0.0653391
0.0416215
-0.0271487
0.0184299
0.185877
-0.0711887
0.063408
0.0218891
-0.000142488
-0.0577247
-0.00848519
-0.0422249
-0.0545008
0
0.0507149
-7.71527e-06
0
0.554099
0.0125525
-0.0135691
-1.1801e-08
-0.0314311
0.00216368
-0.159589
0.0673696
-5.77661e-06
-0.0757159
0.0421744
-0.0416526
-9.00009e-06
-5.30797e-05
-0.0258416
0.00196828
0.0544166
-1.05236e-321
0.00294154
0.0203406
-0.214857
0.014454
-6.83708e-11
-0.165343
0.0101686
0.0275448
-0.0705681
-0.0485801
-0.0497353
-0.0222015
-0.00122985
-0.000111893
0.0359551
0.0391431
-0.109661
0
-0.0253495
-0.122632
3.27623e-05
-4.36961e-10
-0.0208633
-0.083695
4.0092e-140
-0.00445486
-0.0114274
0.0113016
0.0126128
8.27591e-131
-0.00408102
-0.0941154
0.0348879
0.00771488
-0.0596673
-0.0611539
0.0337165
-0.0078931
-4.66045e-05
-0.0267409
-0.067892
0.0137425
-0.000152576
-0.100439
-0.00734273
0.0684023
0.018714
-0.0542777
0.104173
-0.0290807
0.0814083
-0.0531285
-1.38647e-14
0.000124646
-0.000260755
-3.83141e-14
0.0151581
0.903907
-0.0254058
0
-2.74366e-11
0.132786
0.0939669
0.100276
0.0168008
-0.00236295
-0.0476082
-0.00462628
-0.000245341
0.00404148
-0.043819
-0.00845706
-0.0857131
0.0530928
0
-2.42199e-08
0.0378088
1.45078e-05
-3.31559e-06
-0.000105558
0.297224
5.38832e-129
0
-0.0298104
-8.54664e-06
-4.12655e-09
-1.19137e-13
-0.081987
0.0310712
-7.97718e-05
-0.00403882
-0.0334013
-0.0548818
-0.0827055
-1.78123e-06
0.070577
0.288644
0.0387878
-0.0135644
-0.0337607
0.0989014
-0.0141372
0.104596
0
-0.195731
0.48022
-0.0572518
-0.00961448
-0.0349172
-0.02091
0.0383818
2.1718e-05
0.0523685
-0.0142833
-0.100961
0.0238132
-4.03669e-08
-0.0230425
0.0595626
-9.00009e-06
0.00543019
0.0255045
0.000323568
-0.0894523
0.0324789
-0.0388152
-0.0256512
-0.0283663
0.241555
0.0649789
0.0440761
0.00640517
0.0389022
-0.000119511
0.0359551
0.414782
0.00217882
-4.42274e-09
0.16205
0.0120175
-0.0251085
6.11487e-06
3.06172e-128
0.0247844
-3.8649e-07
0.180277
-1.19181e-06
-0.101227
0.0266065
4.27861e-06
-7.71527e-06
-0.0654072
-0.0848632
0.0291266
-7.71527e-06
-0.0762939
0.0218891
0.0370488
0.0186473
-0.0463119
0.000101007
-0.0672329
0.0741139
-0.00907098
0.018714
-0.106804
-7.71527e-06
-0.0279531
-0.0503792
0.0348879
0.0483455
-0.0131932
0.0268763
0.000218987
0.00294154
-8.79367e-14
0.0482141
0.0678738
-1.93863e-06
0.0184489
0.00953207
0.060685
-0.0545008
-0.0903234
0.00209478
-0.090898
1.27166e-05
-3.83141e-14
-0.0471394
0.124834
-0.0600895
0
-0.112791
1.54606e-05
-0.0606259
0.0267886
-6.54548e-05
0.217945
-2.03608e-05
-0.000111893
0.0562708
0.0113016
0.0662393
0.000678501
0.00646961
6.83416e-06
-0.153826
-4.12403e-06
0.0110401
0.0268234
0.0184299
-0.000141991
-0.000189497
-0.144349
-0.016884
0.0230345
0.0145002
-3.11261e-322
0
0.0067306
-2.14919e-321
-0.159064
0.067184
0.0358004
-0.0457213
0.00543019
-0.000160488
0
-0.0135691
-7.71527e-06
0.284746
0.00601446
-9.65911e-07
0.0489911
-0.0666973
0.0473294
0.0277033
-0.00236295
0.0727165
0.00917034
-6.38605e-05
-0.0161417
-0.00187992
-5.57755e-16
-2.34205e-06
-0.0417914
-1.92833e-06
0.0655039
-0.0481702
0.00160861
-1.39965e-06
0.0017837
0.0155893
-6.63301e-05
-0.0175396
-0.348485
-0.0485424
0.0152875
2.28419e-08
-0.328208
-9.34453e-07
0.140003
0.0522928
0.00836556
-0.140258
-6.83708e-11
0.120782
0.0188965
-0.0491945
-0.0781964
0.0684023
0.00160786
-0.0112263
-1.76844e-07
-0.0104972
-0.0190987
-0.0135691
-0.0277409
0.0489023
-1.26065e-05
-1.19181e-06
-0.00236295
-0.0444345
0.0131234
0.0957463
0.00141087
0.0137635
0.0132495
-0.051707
0.00592516
-0.263311
-2.48369e-14
0.00659075
0.0331968
-1.19181e-06
-6.61163e-05
0.108289
-0.084205
-0.100957
0.00075519
-6.79657e-06
-4.82082e-12
0.028752
-0.0162893
-5.57755e-16
-0.00811792
-0.0650609
-0.0258121
0.0146148
5.17454e-05
-0.0368649
-0.0781263
-8.19382e-07
0.0118398
-1.58984e-09
-0.00348766
-0.0504898
0.0019679
-0.0444691
-0.00916961
0.040787
-0.120682
0.0216937
0.0484129
0.444271
0.00151909
0.0491401
-0.0275513
0.037114
0.0263151
-0.0195067
0.017506
4.336e-06
-0.0358937
-0.000299502
0.0392912
-0.00362637
0.179215
0.0897267
0.00829915
-8.67502e-07
-1.65931e-10
-0.0720132
0.0599802
-0.0260804
0.0348879
6.98461e-05
0.0725668
-0.0493855
0.0954511
0.0264493
0.0563289
-0.054132
-0.0756032
-0.0604998
-7.83073e-05
9.66003e-05
0.016752
0.00352531
-0.00927863
0.00876221
0.0445244
0.0117763
-2.68485e-07
-0.0603358
0
-0.00925516
-0.12954
-0.0337684
1.42545e-05
-7.71527e-06
-8.79367e-14
0.029328
-0.0522016
0.000425612
0.102375
0.0473384
-0.000153555
-0.00694748
0
-0.0160211
0.00896488
0.191782
0.0222761
-0.0294003
-1.8999e-247
-0.0724175
0.0388196
-0.020877
0.000956999
-0.021216
-0.0692876
-9.16988e-10
-0.068731
-0.142609
-3.09369e-08
-3.03811e-07
0.063831
0.0876534
-0.0579772
0.0619548
0.0131234
-0.0280562
-0.0385957
0.00543019
0
-0.0738831
-0.0260804
-3.07194e-05
-1.14255e-13
-6.83708e-11
0
0.0304797
0
-0.0121134
-0.0640775
-0.193186
0.152768
0.00953207
-0.00352486
0.0318547
0.108013
0.0034206
0.016065
0.0617652
0.0122259
-0.0348499
0.0418526
-8.17489e-09
0.022965
-0.000136703
-1.97901e-07
0.0483151
-0.0239252
-0.00733681
-0.0485353
-0.0500687
-0.0444345
0.0114058
0.0684769
0.0920317
-6.17582e-322
-0.00749174
0.100444
-9.30576e-05
-0.0273637
0.000101007
-6.60643e-10
0.0937628
0.0505931
-0.000314345
-0.0244155
0.0892452
0.0523789
-0.0463285
-1.17904e-07
-1.38647e-14
-0.205503
1.18452e-237
-0.102628
-0.0106358
0
-6.90565e-05
-0.0106411
0.0583751
0.0745906
0.0259175
0.0190235
0.0628568
-1.92895e-05
0.0778173
-0.0611539
-0.113756
-0.103519
-3.83141e-14
-0.0677202
-0.0162765
-7.71527e-06
0.0150948
7.28125e-143
-0.0205058
0.0245089
-0.0603393
0.18136
-0.0401822
0.267793
0.0310712
-6.83708e-11
-0.062292
0.0719397
0.112192
-0.031132
7.5725e-05
-0.00980424
-0.0293786
-0.0475956
-5.48413e-07
-0.0135691
0.00674492
0.00600391
0
0.057258
-0.000116625
0.0484209
-3.68091e-08
0.0173482
3.91204e-140
-0.0773835
-0.0549853
0.125477
-0.0386999
-0.174416
0.0278049
0
-0.114355
0.0632375
-0.212752
0.139488
0.133059
-2.41577e-07
-0.00109742
-4.82082e-12
0
-0.00378378
0.084196
-0.0162483
0.0586846
0.0125366
-8.99639e-06
0.0273257
-0.114623
0.00646961
-0.044267
-0.00732249
-0.055458
-0.000128798
-6.54548e-05
-4.36961e-10
4.8989e-140
-1.50732e-237
0.146193
-6.79657e-06
0.111124
-0.105644
-0.137895
0
0.0113016
0.0180128
0.00740381
-0.0064884
0.0010255
0.0945005
-0.0247647
-0.0675439
0.0839573
-0.0447489
0.0423306
-3.11261e-322
0.00320854
0.00178403
-3.27571e-15
0
-0.0906205
-8.79367e-14
-0.145308
-0.281654
-0.00525695
-0.00189538
0.130515
-0.154621
-0.00525695
0.0128063
-0.0164441
0.0325346
0.305283
0.0186893
0.0443026
0.00654313
-1.81234e-05
0.00953207
0.0475583
-4.70588e-14
-0.0401822
-7.71527e-06
0.172429
-0.169102
0.0150948
6.93481e-142
0.042284
-1.66152e-08
-0.0370922
0.142905
-0.0566127
0.0720826
0.0620625
0.0993115
2.38445e-08
0.0130425
0.0742013
-3.12183e-05
-0.0268064
0.19535
-0.0611539
0.0524567
0.111368
0.0770824
0.0277938
0.0551182
-0.00940436
0.0150948
-0.0600895
-1.16779e-08
0.0854728
0.0241595
0.0512241
0.0372477
-7.83073e-05
0.0260047
-0.0405699
-0.000221382
-1.81234e-05
0
-0.0334013
-8.04557e-06
0.00256012
-4.15707e-06
-0.000111893
0.00956718
0.00216368
-0.0630069
-0.0491945
0.0128487
-3.14036e-09
-0.000141688
0.0277033
-0.0763577
0.0150948
0
0.0904882
0.00235356
7.41296e-06
0.0814133
0.00302096
-0.0658779
-6.83708e-11
0.00388692
-0.172055
0.0559459
-0.0273294
-0.0201325
0.0396928
-0.0851984
-3.83141e-14
-0.0413425
-4.12655e-09
-0.0135644
-0.0646129
0.0745517
0.33653
-0.0191153
-0.0514173
-0.0585917
0.00543019
0.0107164
0.0228326
-0.0450926
0
0.157541
0.172494
-0.139087
-0.0280562
-0.0165541
-0.0180212
0.000340126
-0.0285065
0.048887
-1.71863e-12
0.0171896
-0.0172559
-0.016256
0.0186473
-9.16988e-10
-3.86435e-230
0.0356925
-2.02467e-234
0.0131234
0.0309625
7.5725e-05
-0.166777
-1.97901e-07
-2.73494e-15
-1.97915e-05
0.137595
0.0268763
-7.56706e-10
0.00357411
0.00953207
0.0608423
-2.68485e-07
-0.0337129
-0.0219723
-9.53547e-322
-1.78973e-12
-0.0401078
0.0295503
0.0268297
-3.81841e-05
-0.102929
0.0775052
-0.0198227
7.82758e-05
0.0686096
0.0151581
-0.0208633
-2.02467e-234
-1.97676e-05
-0.00773279
0.03293
0.0194674
-4.12655e-09
0.0218891
7.28125e-143
-6.45005e-07
-0.0337129
-0.11533
-0.0158238
0.0388807
-0.0121134
-1.1801e-08
-0.0449766
0.0837125
-2.15249e-06
-0.0160057
0.0298035
1.49208e-321
-0.017198
0.147305
0.0473439
-6.92545e-248
0
3.06172e-128
0.124876
0.071541
-0.0748276
-0.029305
0.0195733
-0.00953356
0
0.0257016
-4.36961e-10
0.0656594
-0.0603043
0.0199742
-0.0164451
-0.0202364
-0.0380364
0.0496485
-0.00931464
-0.00352486
0.0139071
0.0101686
-0.0183081
-0.130048
0.0960787
0.127689
-1.24563e-11
-0.0546808
-7.71527e-06
-2.33165e-05
0.0203999
-0.0335272
0.172998
-0.000180727
0.00393716
-0.0283812
-1.1801e-08
0.103438
0.0631981
0.0268763
0.0303497
-0.0292331
-4.30713e-05
0.0482988
-0.0195854
0.0218891
0.00994041
0.107517
-7.71527e-06
-0.0298586
-0.031132
-0.000262427
0.0547946
-0.0446964
0
-0.0218129
0.0184263
-0.000182071
0.0985121
-0.0102643
-0.0135694
-6.19913e-248
-0.0260369
-8.78469e-07
0.030412
0.0371235
0.0090407
0.00953207
0.0758696
-7.71527e-06
-2.00289e-06
0.00846798
0
-0.0601234
-1.95711e-11
0.0527249
-0.000539313
-1.95711e-11
-8.5374e-06
0.0400016
0.0125136
0.00357905
0.000712856
0.0482988
0.00709257
0.008468
0.0978076
2.28385e-05
-0.0230773
0.00285824
-0.0365614
-0.00525695
-1.05687e-13
-6.79657e-06
-0.0078931
0.0709626
-0.139996
0.0659239
0.0628951
0.00654313
0.159048
0.0239119
-0.146083
0.04649
-0.0164441
-5.13438e-05
0.0216618
-0.0476394
-4.66045e-05
-0.243495
-3.11261e-322
-1.14255e-13
-2.42199e-08
-0.00352486
0.000950997
0.0304859
-0.111048
-0.0290723
1.54606e-05
-0.0196849
0.136887
0.0445244
-0.131399
-0.000139232
0.132148
5.38832e-129
-0.0456946
0.0493492
0.00212479
-6.83708e-11
-0.00415182
0.0718227
0.00141411
-0.0173906
0.00720271
0.04649
0.0695382
-7.71527e-06
-7.71527e-06
-1.28192e-07
0.0225094
0.0924472
1.54606e-05
-7.71527e-06
0.000698618
-0.0809458
-9.65911e-07
-0.0308341
0.0511934
0.303501
0.168567
0.04649
0.0708906
-0.0135691
-0.120795
0.2332
0.0212944
0.00144675
0.0271423
0.0474894
0.0655297
-6.04214e-12
-0.0280546
0.0391789
-4.03669e-08
0.275613
-0.0280546
-0.0401078
-0.0350275
-0.0326344
-6.83708e-11
0.0711083
-0.017978
0.102237
0.000721467
0.0658779
0.137481
5.43472e-323
0.523928
-0.0334013
0.055841
0.196472
0.0768181
-0.0938558
-3.14036e-09
0.0485282
7.28125e-143
0.0125137
0
0.100873
-4.82082e-12
0.214501
0.0379758
0.0503513
-0.0168511
-0.0285355
-2.02467e-234
0.000739207
-0.0280325
-0.0200744
0.0243909
-3.18515e-07
0.00178198
-2.75067e-05
0.0684023
0.0120175
-0.0164441
0.0128487
-1.97901e-07
-0.012023
0.010894
-4.42274e-09
0.023666
-1.69465e-321
0.047726
-0.00482869
-0.016522
-1.19181e-06
-0.0289906
0
-1.63792e-08
0.0076159
0.00178403
-1.94378e-07
-0.0511428
-0.0277822
3.25198e-07
0.00796191
-3.18515e-07
-0.0417914
-0.109496
0.0877748
-0.0387227
-1.63792e-08
0.077414
0.0495552
0.000294208
0.00222995
-0.148475
0.060685
0.0277033
0.00553884
-0.0162413
0.189077
0.00973443
-0.00865596
0.0644483
-5.02439e-05
3.06172e-128
0.047212
-4.88219e-15
0.109999
-0.0135691
-1.81816e-321
0.0329821
0.0102983
0.00638682
-0.107111
-0.0138801
0.0467987
-0.241066
0.0751711
-0.0646228
-0.0215706
-4.37586e-05
-0.00744973
-0.0186263
-9.58452e-06
-0.00554818
0.00581158
0.013779
-4.27434e-07
-0.0409031
-0.0136617
-0.229612
0.0794377
-0.0136453
-0.00761534
0.018714
0.0250385
-0.0196768
0.0103567
0.132352
0.0547946
-0.000342905
-0.000342905
0.109721
-4.67684e-235
-0.161695
-0.0745851
0.10019
-0.000539313
0.0255282
-0.0491945
0.10019
7.5725e-05
-0.0371762
0.15662
-1.24563e-11
-6.61163e-05
0.126728
-0.0026984
0.116568
0.0160278
0.0317469
0.00686133
-0.0737209
0.0268763
0.0643887
-0.00352486
0.00507525
-0.109095
-0.100783
-0.0861079
0.000114401
0.00412568
0.04186
0.036897
-0.0349172
0.0817847
-1.28192e-07
0.150074
-0.0572547
-8.07145e-05
0.253727
-2.39041e-05
0
0.00216368
-0.171909
0.00674589
0
-0.0434515
0.00620513
0.00211692
-0.188424
-3.3138e-14
0.0253834
-1.95312e-05
-0.0591331
-0.0342047
-0.00273173
7.77933e-05
-0.0754332
-3.16211e-11
0.0606453
0.0661871
-0.0135644
-2.98757e-06
3.06067e-258
-0.00931464
-4.5681e-09
0.0381103
0.00896488
-0.0476792
0.321006
-0.0519864
0.000395467
0.036463
2.906e-08
0.0291266
0.0553219
0.0505346
0.000284564
0.144518
0.0847593
0.0802767
0.000180868
0.0374966
-0.0285065
-0.0285065
0.00294154
-8.28514e-05
-0.0139473
-0.0233435
-3.11261e-322
-0.00993025
-0.0135691
-2.29203e-10
-0.0945804
0.135968
0.00953207
-0.0489258
-0.0821442
-7.2014e-06
0.0558005
-0.0572582
-0.0463783
-0.0617568
-0.034453
-0.0737209
0.00913473
0.00261929
-0.0244971
0.0922521
0.0491144
-0.0526855
-1.81234e-05
-0.0739155
0.0659775
-0.00010244
-0.00443392
0.0696476
-0.127538
-0.0104972
6.98461e-05
0.0646718
-3.30302e-07
0.000679435
-4.42274e-09
-9.94389e-05
-2.19664e-11
-8.19382e-07
-0.0143501
0.00953207
0.0539537
-0.046863
-0.0811101
0.0430846
-1.1801e-08
-0.0444846
0.0401917
-0.262846
5.38832e-129
-1.36433e-05
-0.0712447
-0.0600895
-0.051707
-0.0543953
-0.184922
0.0997137
8.27591e-131
0.00944439
0.00605964
-1.81234e-05
-0.00354746
-0.0648314
-0.00292008
0.0310327
0.0635046
-0.0239114
-0.0450339
-7.71527e-06
-0.0376781
0
0.0659239
0.0218891
0.120208
-0.0672084
-0.0298537
-0.0434629
-7.71527e-06
5.63768e-07
0.050424
-1.14255e-13
-7.71527e-06
-0.00525695
0.0675287
0.00690308
-0.00118271
-0.0162893
-1.14255e-13
-0.171322
0.048963
0.0432982
-0.0602221
-0.028515
-0.05845
-0.0341503
0.00896488
0.0184263
-5.56063e-05
0.0649789
0.00160786
-0.000103119
0.0588562
-0.16792
-0.0444345
0.0131234
-0.0968864
-0.00236295
7.28125e-143
7.5725e-05
0.00997525
-1.00261e-09
0.0120175
0.00220157
0
0.00313868
-8.5374e-06
0
5.53503e-06
-0.028515
-0.0657039
0.00295883
-0.0880343
0.00686133
-8.28514e-05
-1.38647e-14
-0.0642665
0.0864612
-0.0990919
0.0103567
-0.000102839
0.00474152
0.193668
0.0331965
0.025325
0.0167442
-8.5374e-06
-0.0394493
-0.0570441
-8.79367e-14
-0.0148922
-0.0463285
0.00177686
0
-2.39475e-05
-0.0158238
0.100117
-0.132111
0.0120139
0.492603
-1.38647e-14
0.0186469
-0.111596
-0.000342905
-0.000260755
-0.0334013
0.0125136
0.120763
2.74597e-05
0.483585
0.0218446
-0.00916961
-0.0682073
0.0163713
-1.35843e-13
-2.07163e-06
-1.58984e-09
-0.0379362
0.0260028
0.0313847
0.0491791
-0.000285317
-1.78123e-06
0.0161326
-0.0612079
0.070259
0.0161677
-0.0305233
0.00963589
-4.55821e-05
6.98461e-05
0.278116
3.20612e-08
-0.0603393
-6.92545e-248
0.234476
0.00956718
0.00178198
0.0388807
0.0230367
0.0103567
0.0538691
-2.97535e-05
0.0934518
-0.0192778
0.0711083
-0.00628311
-0.0180751
-0.0283379
-4.06824e-05
-1.83751e-05
-0.00438661
-9.00009e-06
0.260236
0.121002
-0.0200444
0.00665554
-0.00695135
-0.056589
-1.97915e-05
0.0271423
0.0291113
0.0155271
0.0362409
-0.000111893
-0.00796828
0.0359674
0.0590258
-0.0221941
-5.57755e-16
0.000135066
0.000550557
7.28125e-143
0.0131234
-0.000174068
0.00859179
0.0840041
-1.82331e-07
-0.138864
0.0466451
-0.0435628
-0.0821442
-1.38647e-14
-0.11135
-0.50475
-0.0220961
-0.105055
0.114988
0.135478
-1.5347e-247
0.0130963
-0.077104
-0.0417914
-2.02467e-234
-0.000158278
-0.016884
-0.124101
-0.0136574
0.0748642
-0.0985339
0.0341568
0.10019
-1.11081e-05
-0.0500486
-2.02467e-234
-7.71527e-06
-2.29683e-05
-6.79657e-06
0.00842084
0.00842084
-0.0474612
0.075328
-0.000319667
-0.0394001
-0.00619281
9.66003e-05
-0.0454514
0.00953207
0.0144678
0.135908
-0.00574719
-0.0440414
-4.67684e-235
0.0310211
0.0293288
-0.0480158
-0.00231955
-1.19564e-321
0.0334367
0.0944255
0.0735088
-5.13422e-05
-0.0451745
-0.370989
0.00643567
-0.000342905
0.00725136
-0.00877792
0.0859803
-0.0135644
-0.146687
1.54606e-05
0.0165856
0.0616736
0.0126128
-0.000391129
1.48974e-05
-0.179943
0.0421447
-0.026727
-1.78123e-06
-0.0336563
-0.0326724
0.0010255
1.18431e-05
0.12564
0.0186545
0.000247882
-4.37586e-05
6.76831e-06
-0.0181294
0.0173482
0.0858654
0.0661549
0.0268234
0.289162
0.0604401
-2.96741e-05
0.0279506
-0.0314989
0.0492742
0.00762232
-0.00312291
-0.0230662
0.0120175
0.211144
-4.2943e-07
-0.0301588
0.0522928
0
-2.02467e-234
0.12965
-0.00262774
0.046351
-0.0069714
-0.219685
0.0279506
-0.0965174
-1.14255e-13
-6.18295e-06
-7.71527e-06
-1.58984e-09
-0.191046
0.0131234
0
-0.0601562
0.00523543
0.0100221
-0.0402201
-0.0192787
-0.000111893
-0.0260369
-2.01008e-10
0
-0.012048
-0.0376331
0.0199105
-0.122585
-0.0315206
-1.97901e-07
-0.145448
-0.0143501
-6.84029e-06
-0.0294603
-0.0250848
0.0633274
-8.5374e-06
0.0367451
-0.0138512
0.00011769
-0.0248509
0.0150948
0.35545
-0.0890863
-1.14915e-05
-0.0673383
0.0119166
-5.56063e-05
0.0102236
-0.0389243
-0.0300789
0.0815455
-0.132673
0.0264691
0.00121389
-7.71527e-06
0.0337832
0.0741139
-0.141432
0.0424447
4.8989e-140
-0.0267361
0.0128063
-0.0417914
0.244401
-0.00931464
0.162525
-0.0759272
-4.70588e-14
-0.0981151
-0.00057273
0.0749503
-0.085752
-0.0209324
-0.0308341
0.00170389
-0.132595
0.0150948
0.0135727
-0.0331936
-5.77661e-06
-0.108381
0.00831462
0.0161326
-1.05687e-13
-0.00907098
-0.0392706
0.45826
0.034102
-0.0244095
-0.00307177
-0.0599337
0.0195447
0.0475514
-0.00525695
0.0215263
-0.0177934
-0.00931461
-0.0672593
0.0293889
0.0244658
-0.120912
0.17973
-1.25981e-05
-0.0342047
-0.227011
-0.0135644
-1.24563e-11
-0.0283379
-4.10932e-05
-6.83708e-11
0.0662807
0.0873693
-0.0580719
0.0481609
-0.0476394
-8.5374e-06
-1.97901e-07
0.0683548
0.0537211
-0.0417914
-0.139445
-1.28192e-07
-0.0393922
-3.60708e-05
0.0310338
-0.0260369
-0.0115273
0.128901
0.0359448
0.0634517
-1.19181e-06
0.000725053
-0.00231955
0.0176663
-0.0461278
0.0526907
0.000922715
0.0150948
-0.0480158
-0.0195862
4.08738e-06
-0.0552081
-0.0217557
-0.159812
0.0808462
0.016631
0.0141292
0.0218891
0.029328
0.0898905
-4.37586e-05
0.0759163
-0.0162893
-0.0275795
-0.0632274
-0.0254058
-4.06824e-05
0.0131234
0.0476444
0.0139414
-0.0121134
0.00141816
0.00901974
0.0232702
0.0889936
-0.125215
0.0354431
-0.00525695
0.0737046
0.0120139
-0.000664348
-4.22008e-05
1.33398e-322
-0.0883786
0.0080706
-0.0696541
0.0475506
-0.0806458
-0.0318909
0.0131967
-7.97718e-05
-1.50732e-237
0.0100273
-1.02933e-06
0.0082164
0.00953207
-0.000811818
0.00562551
-0.00773296
-2.94312e-05
6.76831e-06
0.113382
-7.01605e-11
0.123516
-1.32659e-05
-0.0625009
-0.0665945
-0.0223686
-0.0436535
-0.0489193
0.0622199
0.07502
-0.0494257
0.00715817
0.0740012
0.103965
-0.0349172
-0.0759382
-4.03669e-08
0.126597
0.0191686
0.000573913
0.0277033
-0.0343152
0
-0.0567704
-2.02467e-234
-6.83708e-11
0.0255045
0.0835887
0.0199049
0.0450553
0.0711447
0.0115388
0.00235786
0.0684769
3.02271e-05
0
-0.0003246
-0.0374768
-3.76204e-05
-0.0444356
0.00141087
-1.50732e-237
-0.00749174
0.104396
8.95881e-05
0.0256639
-0.0467147
0.198893
-0.13329
0.00163249
0
0
-0.0215087
0.0582357
0.0491791
-4.3873e-05
-0.0198227
-0.0305692
0.00953207
-0.0347841
-0.00273133
-0.000539313
-0.0181641
-0.00731868
0.00261929
-0.0300789
-0.00010244
0.000681737
7.5725e-05
-0.0318909
-2.96681e-05
-0.00852181
-0.0855057
0.0180104
0.0139414
0.0775297
-0.130048
0.0586846
-1.78973e-12
0.02647
-0.043561
-8.5374e-06
-0.0532565
0.0203406
-0.00352486
-0.0935051
0.12016
-1.12809e-05
-8.77306e-05
-0.0238383
0.0711521
-0.0160732
2.07377e-06
0.00640517
0.0950131
-0.0318769
-0.0994036
-0.0731667
0.0825007
0.0131149
0
-7.53681e-09
0.173857
-0.0239114
0.0398987
0.0011685
0.00842084
-6.83708e-11
0.0113016
-0.0208738
0.0818452
-0.0922512
-0.00236295
0.105105
4.8989e-140
-0.000127121
-0.281413
0.00216368
-0.154287
-0.0135813
-0.0314989
0.0661287
0.0490653
-0.0136574
-0.0110531
0
0.0553406
-0.0368649
-0.0298586
0.139507
-4.88219e-15
0.0325118
-0.0136575
0.0566261
-0.0545258
-0.142889
0.0558005
-0.107692
-0.0304629
0.047212
0.00842084
0.124861
-0.0466399
1.45078e-05
0.0150948
-0.0890863
-0.047877
7.28125e-143
0.0235404
0.000220115
-1.16854e-09
0.047212
0
0.0664277
5.63768e-07
0.0309993
-0.0209314
0.110516
-4.82082e-12
-1.75518e-246
0.00075519
-0.00518715
0.0350125
0.0523879
-0.0481294
0.00115211
0.0309993
-0.000177364
-0.0553334
1.18431e-05
0.0445244
0.0180128
-0.022391
0.0857475
-6.38605e-05
0.0480747
0
-1.50732e-237
0.0101686
-0.0135644
0.0735958
-0.0451745
-5.86556e-08
0.00879999
0.060998
0.0443026
-0.0170209
-3.31559e-06
0.00176269
0.0291266
-8.99639e-06
-0.0357326
0.00180522
3.91204e-140
0.0583751
-1.59437e-06
-0.0439476
0.0119242
0.0287261
0.00395384
0
-1.14255e-13
-0.00458761
0.0131967
0.0198681
0.00261929
-0.034453
-0.00902046
-6.38605e-05
0.0542578
-0.118952
0.654788
0.0223859
1.16498e-05
0.0619331
0.132762
0.029328
-0.074659
-0.0223642
-0.166789
-0.0750983
-0.0617958
0.0318451
0.0239196
-0.00453643
0.000220328
-2.74366e-11
0.00261929
0.0243382
0.000726485
-0.0880107
-6.54548e-05
-0.0422422
-7.71527e-06
0
-0.0536005
-4.82082e-12
-0.0135691
-0.110611
4.05134e-322
0.0151581
0.0239189
0.0545012
-8.17489e-09
-1.97901e-07
0.00294154
-0.169452
0.0366754
-0.00252333
-0.0414991
0.0228326
0.270603
-0.0444345
0.00121389
-3.86757e-05
-2.69362e-07
0.0604818
0.117955
0.0534739
0.0245499
-1.66032e-07
-0.0372809
-1.05687e-13
0.0114708
-1.58984e-09
-2.02467e-234
-0.0409589
0.265687
0.109999
0
-9.34522e-07
-0.043699
-3.22032e-08
0.00460321
-5.35632e-06
0.0067306
0
-1.1801e-08
-0.00724231
-2.68485e-07
0.00953207
-4.82082e-12
-1.92012e-06
6.76831e-06
0.100587
-7.97718e-05
-0.00525695
-0.0542404
0.0217213
-0.0750629
0.0214891
-0.0318835
0.00196828
-0.0966202
-0.0261675
6.76831e-06
-1.82331e-07
-0.0279876
-0.119694
0.00365334
-0.017978
0.0114708
0.00345219
0.0712433
-0.00619182
-5.77661e-06
0.0607105
-7.22843e-06
-0.0197512
-0.0720336
0.109354
-0.0554668
0.0449676
0.0131977
-0.179347
0.0114708
0.0335806
-0.00189542
-3.27571e-15
0.00295883
-1.52172e-321
-0.0443741
0.0126784
-0.0267409
-0.0475126
0.00962764
0.000101007
-0.143007
0.000135066
-0.0735566
0.0199742
0.00896488
-0.229931
0
-0.109988
-0.0957551
0.00709257
-0.0930839
-1.38647e-14
-4.27434e-07
-0.0653821
-7.30468e-05
0.0150928
-0.00734552
0.0911217
-0.0379607
-0.0579772
-1.45939e-07
-0.0602388
0.0373577
-2.00289e-06
-0.0417914
-0.0634786
-9.00009e-06
-0.0334013
-0.0288728
-0.0298057
-0.304309
-0.0444345
-1.05236e-321
-6.83708e-11
0.0118398
-1.28457e-321
0.0271364
-0.0308429
-0.00907098
-4.37586e-05
0.0317581
0.0737249
0.0683126
0.0866938
0.000323568
-0.110952
0.0013538
-7.83073e-05
-0.00733681
-0.000182071
1.30562e-05
-0.0710964
-9.16988e-10
1.72429e-321
-5.13422e-05
0.0150948
-5.4868e-07
0.0306894
0.00606156
-0.0208633
0.0207208
-0.0115953
0.027019
0.02647
0.00636988
0.00474152
0.0748642
-0.0515251
-0.0682718
0.0587607
-0.0677731
-0.0963676
-0.197595
-0.0334013
-0.0751739
-0.0417914
-0.131915
0.00216368
0.00601446
0.0621546
-0.151083
-9.4813e-05
0.0638827
0.172567
0.0412592
-0.0027413
0.0234291
-0.166316
-0.00756521
0.00674589
0.0491144
0.00728293
0.336101
-0.000260755
-0.00352486
0
-0.00686942
-0.0121134
0.0283246
0.0332108
-0.042838
0.000101007
-0.0280546
-0.0254228
0.0595917
0.082786
-3.68091e-08
-4.3873e-05
0.0539433
-0.00403882
0.0551138
0.0304859
-0.082127
0.0586649
-0.0534264
0.0684023
0.0484969
0.00961558
-0.0211402
0.0359551
0.0422779
-0.0690879
0.00163249
0
-0.0244401
0.00169263
-0.00940436
0.0248581
0.039764
0.0232968
-1.34386e-321
0.042284
0.00956718
0.101467
0.0650277
0.0317294
-4.22008e-05
-0.0199345
0.000124646
2.28419e-08
0.00153074
-0.058964
0.00550555
7.28125e-143
0.0150948
0.0266636
0
-0.166317
-0.028515
0.00158408
0.00178198
0.00646958
-0.0463286
0.0304874
-1.14255e-13
0.008468
0.0771529
-0.0668312
-7.71527e-06
-0.000180727
7.28125e-143
-2.56435e-05
-0.0947153
0.0682659
0
0.117463
1.14102e-06
-7.71527e-06
0.000101007
-0.07043
-0.0763577
0.0173127
0.0620399
0.00674589
0.0273257
-0.158485
-0.0292333
-0.0348916
-0.0910091
-4.15024e-248
-0.0259068
0.00161885
0.0010892
-3.40428e-247
-0.0560952
-0.0394312
0.0137425
-7.71527e-06
-0.000111893
0.0530408
0.00552664
-1.00261e-09
-0.0182763
-0.0138801
-0.113953
-0.03683
0.0793072
-0.112807
-0.0338846
0.00183392
-0.000160488
0.0230842
0.0756421
-0.0145963
0.201475
0.00709257
1.27166e-05
0.216666
7.28125e-143
-0.0650036
0.00261929
0.00606156
-0.0320794
-0.231058
0.00636924
-0.0458774
0.146633
-0.0615636
0.00407704
0.000393547
-0.0572456
-0.0787183
0.0769645
-0.0351789
-0.0684754
-0.000111664
0.0529302
-0.0227425
6.76831e-06
0.0151678
-0.00408749
0.0825007
0.0731901
0.0332108
0.0193307
0.020383
-0.054132
0.0181146
0.0218891
0.0750361
-0.0127667
0.112581
0.0463603
0.0218891
2.8159e-05
0.0985101
-0.0743614
6.11487e-06
-0.106589
-0.0772313
-1.8999e-247
0.00285824
0.0775028
-0.0135691
0.00646961
-0.000111893
0
0.00956718
-0.00574719
-0.0262507
-0.0378512
-2.19664e-11
1.91123e-139
-0.00457169
0.0191686
-0.0380364
0.0334447
-0.00236295
-6.90565e-05
-1.02933e-06
-0.119749
-0.0135644
-0.0300789
-0.0437092
0.0920694
0.000726485
-0.0607963
-8.5374e-06
0.0398699
0.00324757
0.00499247
0.0131967
-8.79367e-14
-0.0267409
-0.0221057
0.0018044
0
0.000302392
0.000864912
-4.15024e-248
-7.83073e-05
0
-0.156545
-3.09454e-05
0.179757
0.0514126
0.0399023
0.0670838
-1.57809e-12
0.0151354
0.00262814
0.0690884
-8.5374e-06
-4.67684e-235
0.00606156
0.000287879
0.0621743
0.0474894
-0.00525695
-0.000111893
-0.325463
0.00592516
0.086567
-0.0775288
0.0151775
0.0120139
-0.168856
0.0327352
0.00293431
0.166701
-0.0475384
6.17748e-130
0.0113016
-7.71527e-06
0.0798427
-2.6551e-231
-1.32659e-05
0.0606099
0
0.0191686
0
0.356956
0.0304859
0.0306817
0.00913572
-0.0416266
-4.06824e-05
0.0445465
-0.000260755
-0.02638
-6.83708e-11
-0.349488
-0.0782036
-0.000271627
0.0548432
0
-0.0476792
-3.68091e-08
-1.82749e-07
0.0024016
-2.11898e-05
3.93733e-05
2.31778e-05
-0.0350275
0.032431
-0.0231959
0.0699022
0.206103
0.00842431
-0.00503683
-9.34453e-07
0.112078
-4.15024e-248
-0.017388
-0.062958
0.0423895
0.0127972
0.00874946
-0.043819
0.046076
-0.0143501
-6.92545e-248
-6.83708e-11
-0.0300416
-0.110999
0.00592516
0.00387269
0.0514905
0.148285
0.0197666
-3.12183e-05
0.0596694
-0.00907098
-0.000141581
0.0790361
-0.0625274
-0.0173752
0.00321797
0.0218891
0.00115211
0.0482988
0.00481807
-1.97901e-07
-0.119174
-7.71527e-06
0.216717
-0.0023701
-0.0379362
0.00126651
-0.00703287
-9.14617e-06
0.0506963
0.0103567
-2.15249e-06
0.00115211
0.0137425
-0.157392
0.0191686
0.0321581
0.0141292
-0.0749505
-0.109461
0.0180128
-0.0441911
0.0474894
-0.242221
-0.0428828
-1.24563e-11
0.114645
0.086868
0.00940118
-0.0121134
-0.0955263
0.0569703
-0.0164343
0.0103567
-0.0269654
-0.00916961
0.00674589
0.0030157
-0.0925677
-8.9027e-07
-1.45934e-05
-0.139996
-1.92012e-06
0.815235
-0.0318909
0.0684769
0.0109408
0.0675393
-2.76677e-322
-3.16211e-11
0.0424557
0.0626256
-0.000319667
0.0153288
0.00429852
0.00343929
0.00588041
-1.78973e-12
-0.0067213
-0.000131939
-6.38605e-05
0.00261912
-0.00982799
0.00953207
-0.000102839
-0.00848681
0.00901203
0.120372
0.000107166
-0.00185033
0.0348879
-0.0191093
-5.62413e-06
0.0292985
-0.0649288
0.0239196
-9.58452e-06
-0.0133435
0.00984514
3.25198e-07
1.54606e-05
-0.0260804
-1.15611e-321
-3.18128e-09
-1.38647e-14
-0.0488397
0
-8.67502e-07
-0.133556
0.0629799
-0.0869328
-0.0624761
-0.112971
0.101651
0.0484316
0.0597853
-0.00619281
-0.100961
0.120365
0.0530067
-3.60708e-05
0.0961237
0.0348879
-2.7508e-07
0.0128487
-0.0273294
-7.71527e-06
0.0669951
0.156533
0.0315605
-0.0602658
0.0150948
-0.0251979
-0.0135644
-0.0419668
0.0268763
-9.58452e-06
6.11487e-06
-4.66045e-05
-0.000483295
-1.76844e-07
-0.000301918
0.0102983
-0.0135644
-0.0116391
0.0150948
0.0920317
-0.0806458
-0.0117684
-0.0127486
0.00409483
0.0795378
0.00319129
0.0461875
0.0150899
-0.0458431
0.0458606
-0.00853831
-0.051707
-0.0219723
-0.043819
-0.0262751
-0.0978786
-0.00011569
-0.0911083
-1.97901e-07
0.0218891
0.00543019
-1.25981e-05
-0.107111
-0.128286
0.0557366
-0.100327
-1.05687e-13
-0.0311491
-0.0797697
-1.14255e-13
-0.00878181
-0.066256
0.0280657
0.0150948
-7.71527e-06
-0.00733681
-0.00525695
-2.19664e-11
-1.28457e-321
-0.00580457
-0.0890338
5.38832e-129
-0.00403882
-0.0398445
0.00581158
-0.00403882
-0.0298586
-0.0982702
-0.000177465
0.0388807
-9.53547e-322
0.00155733
-1.39831e-06
-0.00845706
0.0173176
0.0128487
-0.0555953
0.34095
-0.0368169
0.107835
0.00220157
-1.14255e-13
2.10595e-217
0.0425583
-1.97901e-07
-0.0559737
0.0813748
0.0729842
0.0779653
-0.0604337
0.29751
-1.32659e-05
0.0684023
-1.97915e-05
-0.00638977
0.00715817
0.0151963
-0.0273294
2.54471e-05
-0.168217
-0.0481226
0.018714
0.00217711
-0.0318909
-0.031132
-0.103489
-0.0174712
-0.00749174
-1.5316e-321
-0.0386889
0.0942789
0.0277941
-0.013561
-0.0379362
-0.0120175
0
0.0235404
0.0131389
0.113142
-0.0928049
0.0649789
-9.34453e-07
0.00224777
0.0268763
-0.0181294
-1.81816e-321
-3.31559e-06
0.02128
-0.000111893
-0.0606522
-0.0112263
0.00577912
0.029328
-4.03669e-08
-7.71527e-06
-0.165255
-1.24563e-11
0.0256125
1.18431e-05
0.0243422
-0.112851
0.122698
-8.99639e-06
0
0.00466219
0.745619
-0.0825732
0.0131234
-1.38647e-14
0.0115226
-0.0294142
-0.0280562
0.000914769
-0.0337684
-0.0642918
-1.97915e-05
-0.000119511
-0.0287445
-6.83708e-11
0.000285474
0.0547946
-0.0964223
0.0959049
-0.0272274
0.0290913
0.00621757
0.00953207
0.0304721
0.0139673
0.00581158
-0.0824052
-0.0165898
-0.1132
0.00313869
0.0108265
0.0277033
-0.000252149
0.00842084
-0.208562
-0.0482413
-0.0480158
-1.19564e-321
-0.0435046
0.00646961
-0.0276807
-0.0742708
-1.35843e-13
-4.13343e-05
1.49208e-321
-0.0117569
0.0131103
0.0282765
0.00278066
-0.0514223
-0.0693612
-0.0108441
-0.0566514
0.0125136
0
0.00700463
0.0585767
0.0277033
0.00953207
-0.0144735
-1.5316e-321
0.309912
-0.0494305
0.216635
-0.0240236
0.0184489
0.0213738
0.0423557
0.0490697
-5.8849e-11
-0.00525695
0.00953207
-0.0311792
0.0559135
-7.71527e-06
-5.48413e-07
0.169615
-0.0219723
-0.0147734
-0.0695568
-0.0862952
-0.000201044
-6.38605e-05
0
-0.0755284
0.00075519
7.28125e-143
-9.65911e-07
0
0.197135
0.00178198
-0.0253004
0.0507277
0.00854044
-6.83708e-11
0.00953207
-1.24563e-11
0.0280893
-2.49319e-06
0.0401917
-0.0338486
-0.00326867
-6.38605e-05
0.000180868
0.101123
0.0257049
0.00422544
0.397925
-0.348568
0.0268763
0.0950196
0.112105
-0.000160488
0.0131234
-3.81841e-05
0.0367689
0.000196078
0.0114708
0.000538329
0.029103
-3.11775e-09
0.0476444
0.0137425
0.00265123
-0.0717246
-0.0451745
-1.5435e-05
0.0102983
-0.0135691
0.0270066
0.0686241
-0.0136574
-1.57809e-12
0.0186306
0.0161326
0
-0.0120127
-0.000111893
-0.0821442
0.0166408
-6.10608e-06
-0.202527
0.0620542
-1.76844e-07
-0.0844217
-0.0692945
-0.00352486
0.00896488
-0.0299981
-9.34453e-07
0.0120175
-0.0225459
0.0146063
-6.27505e-09
-0.0724492
0.0120175
0.0283246
-0.00503701
-1.24563e-11
-0.0283224
-0.0375687
-0.0138791
-0.017978
7.16382e-07
0.0445967
0.00484373
-0.0252921
0.0139405
-5.70574e-06
-0.00829935
-0.000191964
0.116931
0.0126806
0.00589554
0.397453
0.00543019
-0.00733681
-1.78434e-07
-0.0831929
-0.0118644
-0.00798789
-0.0115953
-0.0603393
0
-0.00197891
-1.63792e-08
0.0423895
-0.0894523
0.0643306
0.0433343
-0.0684288
-0.202483
-0.00310418
0.00783767
-0.0292331
0.0302246
0.0708223
0.0700728
5.39969e-05
-0.0574102
0.024276
-0.123676
-0.0618748
0.0504218
-3.29704e-07
0.0330584
0.000318558
0.0726621
0.0462807
0.183999
-0.0226948
0.0584952
0.0643887
-0.0443741
0.0101277
-0.000111893
0.0366372
-0.0200444
-0.0876438
-0.155555
-0.0713183
-0.0432282
0.0757329
0.013726
-0.0611205
0.073686
-0.000102839
-0.0117569
0.0103567
0
-0.0166337
0.00183392
0.0704904
-0.0314311
0.0090407
0
-3.98283e-05
-0.0475755
0.0471755
0.0271582
-3.30302e-07
-7.71527e-06
0.0436653
5.58294e-322
-0.0659138
0.385349
-0.0894286
-0.0842962
0.0366754
-1.9964e-09
-0.000346833
0.00953207
-0.0356506
-9.16988e-10
-9.23508e-08
0.0817053
-0.0234079
0.345651
0.0090406
5.83385e-06
-6.90565e-05
0.179233
0.0454255
-0.0280546
-6.38605e-05
0.0231531
0.0825007
-1.81234e-05
-0.0759272
0.0545818
-7.71527e-06
0.0331968
0.00305235
-8.79367e-14
-0.123586
0
-0.00655225
-0.0182086
0.00219929
-0.0316398
-0.0218325
0.029171
0.0222093
0.00581158
0.0492868
0
-1.92895e-05
7.28125e-143
0.0487176
-1.43279e-321
-0.0325668
0.00161382
4.69186e-133
-0.077104
-0.0566618
0.0619671
0.0378088
0.0526387
-0.0171304
0.00551048
-1.19564e-321
-0.0517129
0.0313312
-6.84091e-11
0.0419711
-0.112686
-0.0257208
-7.2014e-06
-0.00653451
0.0517655
0.146029
0.0243909
0.0245499
-0.000231917
-1.1261e-06
0.0228326
0.0268763
0.168567
-0.0271359
0.0373577
-9.35078e-07
0.0188902
0.00285824
-0.0377897
0.0231424
-0.00575195
-0.0230511
-0.0702226
-3.93195e-06
0.00216368
-1.97901e-07
-0.171112
-5.57755e-16
0.00180522
-0.0480158
-4.13343e-05
-0.00403882
-0.00619182
-0.144746
-0.0257812
-0.0295242
-0.0767446
0.139346
-1.07895e-08
-0.0300789
7.16382e-07
0.00172956
-0.140901
-1.53766e-08
0.00606156
-6.83708e-11
0.0141332
-4.03669e-08
-0.0208202
-0.0164441
-0.0187503
0.115802
-0.00236295
-8.67502e-07
-0.0149841
-0.0157236
0.0292116
-0.0278595
-4.34081e-07
0.032963
-0.0823953
0.328185
-0.0906121
-0.0378839
-1.69465e-321
-1.69959e-321
-0.0292907
-0.301898
-0.0104972
-0.0606642
-0.0280546
-0.0201783
-0.0605618
-0.0537739
0.138974
-5.67111e-08
0.0840476
-3.47386e-11
0.139221
-0.133464
-8.46537e-05
0.0871216
-0.00734552
0.00178198
0.0686163
-3.98687e-05
3.47535e-06
0.0245943
-0.0702226
0.00075519
0.0273257
0.0244952
0.115114
-0.116173
0.0040157
-0.0334013
-0.00907098
0.0649789
0.00641448
-0.00407991
0.000247224
-0.0135691
-0.0732356
-0.074659
0.00357411
-0.000189497
-0.315626
0.0268234
-1.19564e-321
-0.0314165
0.0724016
-0.0622844
0.414341
0.0251939
-0.0360414
0.00345219
-0.0226942
0.219161
0.0586846
0.00285824
-0.103487
-0.0434314
0.00543019
0.063776
0.0455043
-1.1801e-08
-0.0433405
-0.135276
-0.0480158
-0.0223642
-0.0174336
-0.00403882
-4.66045e-05
-2.41577e-07
0.0208157
-3.18128e-09
0
-0.00520787
0.0482988
0.0282765
0
-0.11062
0.0147665
-0.198077
-7.71527e-06
-4.41599e-05
0
-0.0273294
-1.78973e-12
0.109487
0.0432717
-0.0983107
0
-0.0374371
0.0150948
-0.0143501
-4.91448e-06
-0.000260755
0.00446685
0.0863758
-0.0561464
-1.95711e-11
0.0131234
-1.1801e-08
0.0741139
0.0115527
0.205562
-4.06824e-05
-0.0177012
-0.0526964
-0.0180396
0.102788
-2.03608e-05
0.0238921
0.212839
0.0562938
0.305885
-6.84029e-06
-1.82331e-07
-6.83708e-11
0.047698
-0.0371315
0.00485889
-0.0337129
0.0599802
0.024276
0.00294154
-0.0935785
-0.00438775
0
-0.0138791
-1.19564e-321
-5.35632e-06
0.0120145
0.0282183
-0.0219183
-0.0144155
0.0769638
0.0216506
-0.0195854
0.111378
0.123892
0.0218891
-0.04334
-8.5374e-06
-6.83708e-11
0.0266636
-4.94066e-322
3.47535e-06
-0.0115612
0.0128033
0.123513
0.0236597
0.210952
0.275755
0.0469782
0.0522928
0.0255397
-0.00196116
-0.0365614
-1.05236e-321
0.100781
0.0137425
0.0499218
-0.0433405
-0.0419668
0.0186819
-0.000186188
-3.68091e-08
8.27591e-131
-0.0404269
0.00357411
-0.044267
-0.0135691
0.00412566
0.0501383
0.0484487
0.0114708
0.10003
-5.82524e-05
1.14102e-06
0.0463677
-0.0133956
0
0.0332108
-0.028229
-0.000301918
-0.0235092
-0.145161
0.024211
-0.11071
-0.0172559
0.0150948
-7.59683e-05
0.00601446
0.28561
0.0130114
-4.70588e-14
-1.1801e-08
0.04313
0.0184299
0.12968
-0.0258121
-0.0277409
0.0181127
-0.0332309
0.0198136
-0.0135691
-7.15186e-06
-0.0890863
8.27591e-131
-6.05131e-06
0.0394219
-7.71527e-06
-0.109873
0.12426
-5.57755e-16
0.024391
9.39516e-05
0.0101686
-1.97901e-07
0.0226512
-0.00458761
-4.82082e-12
-0.0023701
-0.0433405
0.00601446
-3.77525e-06
-0.0724553
-9.07813e-07
0.0128063
0.0335929
0.00581158
0.0474178
-1.38647e-14
0.0684023
0.0142949
-0.0630285
-0.000342905
0
0.000105565
-3.12183e-05
-7.71527e-06
0.0801681
0.0275848
0.029127
0.0492804
-4.55821e-05
0.00483105
-0.0334007
0.0408359
-0.0287367
0.0588562
0.715765
0.0484068
0.00178166
-0.0678348
-0.0971688
-0.00870485
8.27591e-131
0.0173482
-2.29087e-08
-0.0603393
-1.9386e-06
-0.00799786
0.0232776
-0.0175396
-0.0839032
0.0126416
0.0198136
0.00304499
-0.0298586
-0.0280546
0.0122313
0.0626011
-1.92895e-05
0.0586846
-4.82082e-12
-0.00652021
0.114988
-2.42199e-08
-1.55828e-05
6.93481e-142
-1.69465e-321
-7.56706e-10
-0.000177465
0.00620733
-0.109192
0.018714
0.0605558
0.0731901
0.0240742
0.0647536
-6.83708e-11
-0.0960108
0.0520828
-9.02309e-06
-0.110973
-0.104577
-5.77661e-06
0.11054
-1.53718e-08
0.0499216
-1.05687e-13
0.00207668
-0.0300789
-6.94783e-08
0.023458
-1.58984e-09
-0.0181294
-6.90565e-05
0.0707862
0.0214173
0.0131967
-7.71527e-06
0.142892
0.0237049
-7.71527e-06
-0.0581069
0
-0.0121304
0.0341948
-1.53718e-08
-0.0158377
-0.281706
0.00160786
-7.56706e-10
1.18431e-05
0.0022015
-0.049282
0.0328594
-0.0280546
0.00553884
0.00916879
0.00317723
0.023356
0.000480684
-0.0217474
0.0101686
0.000395467
-0.0544642
-0.0652551
-0.0370586
0.563863
7.28125e-143
0.00953207
-0.00315259
0.0126416
-0.0591331
-0.0561721
0.0574212
-0.0587027
-0.0980435
0.289868
-0.120169
-9.58452e-06
0
0.000109927
0.0961771
0.00592516
-1.36771e-08
-3.27571e-15
-0.0861707
4.08738e-06
0.00554816
-1.97901e-07
0.0336244
0.0711083
-0.097036
-0.0239252
-0.0124188
-0.0166921
-0.0437436
-0.0451745
0.095809
0.00178198
0.00477945
-0.044267
0.307695
0.0373209
0.0139414
0.0965027
0.00331255
-1.00261e-09
0.103984
-0.0283379
-0.0514716
-0.0434629
0
0.0230345
0.00115211
0.0122313
0.106631
0.0203406
-1.97901e-07
-0.231348
-0.0121134
0.0587989
-0.00750285
0.0229063
-0.000440952
0.0331932
-0.0648669
-9.65911e-07
-0.00525695
-0.0724492
-1.14255e-13
0.0334412
-0.0189765
-5.02439e-05
-0.143865
-0.0846417
-0.164715
-0.00718905
-0.0357326
-0.127473
-0.024668
-0.0177504
-0.0365614
-0.0818709
0.0575369
-0.0208633
0.100869
0.0332108
-1.5435e-05
-4.13343e-05
-0.0422159
0.0235
-1.1261e-06
-0.0756259
0.0756854
0.269332
-0.000303857
0.00859179
-0.000127121
0.0251925
-0.0968482
0.0070965
-3.83141e-14
-7.71527e-06
0.0119566
0.0471666
-0.0252462
3.28179e-08
0.00728382
0.209682
0
0.00686509
-0.000171272
0.0186473
0.0271054
-5.22593e-07
-7.97718e-05
-1.43279e-321
0.0114835
0.0605558
-1.5435e-05
-4.55821e-05
-0.0417914
0.00220157
-1.97626e-322
0.0139071
0.0352484
0.0191686
1.27166e-05
7.16382e-07
0
-0.00236295
-0.0399
-0.0422255
0.0114708
0.0622143
-0.00428113
0.000247882
-0.0280325
0.0304111
-0.0604337
0.000425989
0.0275219
0.0103567
0.020383
0.164407
-0.119749
0.0277033
0.00466219
-1.44001e-13
0.0203406
0.450765
0.00606156
-0.0783914
0.0682983
-1.02933e-06
-0.00916961
-0.0451422
-0.0287228
0.0359551
0.0125136
-0.118491
1.18452e-237
-7.71527e-06
0.327074
-0.0645073
-0.0260276
0.113882
-0.000111893
-0.0451745
-0.207495
0.053683
-1.81234e-05
-0.0664365
-0.0889874
-0.000319667
-0.0280546
0.00411386
0.00606531
-0.000180727
-3.11261e-322
0.0432982
-0.0267409
-3.98283e-05
-0.0221665
-0.000222998
-0.164336
-1.54577e-05
0.0291266
-0.10732
-0.0334013
-0.0244155
-0.0720127
4.05134e-322
-4.0898e-05
-1.38647e-14
-0.0362482
-0.000147097
0.0131234
-8.17489e-09
-0.136416
0.0236873
0.000810282
0.0268234
0.00081027
0.0378088
0.0101686
-0.0136588
0.0101686
0.0139071
-0.0441531
0.0913602
0.0632237
-1.28192e-07
-7.71527e-06
0.0857648
0.00113388
0.00261929
0.0210208
0.176578
-0.00185365
-7.71527e-06
-1.38982e-05
-0.0280132
-0.000260755
-0.00434668
-0.0227425
0.070171
-0.0273943
-0.043819
-0.00916961
-0.0463864
0.0427938
0.156609
0.0909879
0.00178198
-1.69778e-11
-4.42274e-09
0.00956718
0.00412568
0.0161935
0.13285
0.00236453
-3.81841e-05
0.00217711
-0.0120069
-0.0181641
-0.000182071
-0.0790285
0.0400059
-9.70603e-06
0.0271423
-0.0223642
-0.0106189
-4.4346e-08
-1.69465e-321
0.00553884
-0.0201325
0.000114401
0.404919
-3.81841e-05
-2.19664e-11
-0.0222753
0.164061
-0.0706461
-0.0374785
-4.27434e-07
0.00113864
0.0184263
-0.183271
0.0542867
0.0272428
0.0189702
-0.0977813
0.120506
-0.000156139
-0.088066
-4.91448e-06
5.82636e-07
0.0150948
0.0272706
0
-0.0254058
-0.0451838
-0.28081
0.0140529
-0.126231
-0.000158278
0.0218891
-0.0922512
0.00806634
0.00542442
-3.14036e-09
7.28125e-143
-0.102766
-0.00525695
0.0145114
0.00011769
0.0885889
0.00112116
0.105168
-1.16779e-08
-0.0379362
-0.0273637
-0.0267409
-0.0602713
0.0421116
-7.71527e-06
-4.82082e-12
0.0422707
-0.00306925
-0.0869328
0.063408
0.0822104
-0.0127498
0.0198483
-5.02439e-05
0.0184299
-5.26235e-07
1.27166e-05
-4.82082e-12
-0.0177934
0.00163916
0.0847052
-0.109667
-0.0463285
0.016631
-1.08789e-05
0.039591
-0.0379447
-4.13343e-05
0.0266257
-0.0491945
-0.0598238
-6.45005e-07
-0.0839032
7.5725e-05
0.0207208
0.000754095
-0.0273637
-0.00619281
0
0.0166323
-9.35078e-07
0.0276513
-0.0437466
-0.0260572
0.00243117
0.00729092
-8.79367e-14
-7.71527e-06
-0.0379451
0.117379
-0.000342905
-0.0112263
-0.0314936
0.0015278
-0.0285378
0.000679435
0.0374846
-0.0275354
0.0443026
-0.0838132
0
-0.0200444
0.0731901
0.000232831
0.188631
-0.25227
-1.78123e-06
-0.000260755
0.0830756
0.0486701
0.0240113
0.00043445
-1.39467e-247
0.0147665
0
0.186654
-0.00311019
0.107658
-0.00721602
0.0139414
-8.5374e-06
-0.0112263
0.0377681
-0.000196963
-0.0288728
-0.0288728
0.046917
0.0150948
0.252612
-0.0460571
-0.116802
-0.00116078
-0.0518864
0.177338
0.111378
0.0396667
0.0207208
-5.02439e-05
0.011646
0.0344352
-0.0976584
-0.101821
-0.00525695
0.0209428
0.00404976
5.73312e-06
0.0844713
-0.00619281
0.0410518
-0.0771714
-1.76844e-07
0.145343
-0.0187535
0.012946
-1.50732e-237
-1.66104e-08
-1.1801e-08
-0.0814097
0.0103567
-0.0398372
-0.0089027
-0.0318909
0.114988
-0.0326344
0.0401899
-7.71527e-06
-0.0672627
-0.00907098
0.0150948
0.00220157
2.2212e-130
-0.0890863
0.0725043
0.0566165
0.0671907
3.25198e-07
0.0273337
0.0218799
-4.95984e-06
0.0886763
-0.172254
-0.0933543
-0.0208633
-0.0926795
0
0.0987577
0.244792
-0.165076
0.0815459
-0.033693
-5.24425e-05
0.0674894
0.0162017
0.00011769
-0.394766
-1.97901e-07
-0.00845706
0.0101829
-0.0507094
0.00965497
-2.49319e-06
0.0268763
0.055629
0.0213779
0.0579189
5.38832e-129
-0.0420324
-4.2943e-07
0.187738
0.000633661
-1.82331e-07
0.0238146
0.0306894
0.0741139
-2.02467e-234
-1.24563e-11
-0.00200332
0.135919
0.0111881
0.164161
0.00404035
-0.031132
0.0484129
-0.109988
-9.14617e-06
-0.0394389
0.0585653
-0.0280557
0.0244544
0.0880881
-0.0724903
-0.168203
0.0377526
-6.3272e-07
-0.00403882
-1.05687e-13
0.0169286
-0.00765013
-0.107815
-0.00788056
-0.0104972
0.288272
-6.92545e-248
-0.0603393
0.00285824
-0.339602
-0.043819
-4.91448e-06
-0.0160057
0.00581158
-0.0222886
0.0480566
0.0547946
0
-9.16988e-10
-0.0135126
0.0482141
-1.81234e-05
-0.106577
3.06067e-258
-3.29704e-07
0
0.125457
0.154117
-3.27571e-15
-0.034518
-0.0349172
-0.075265
-0.0119298
0.0073805
-0.108828
-5.13422e-05
-6.83708e-11
0.00770317
-0.133118
-0.030079
-1.38647e-14
-0.0402971
-0.000262427
-0.0666678
0.0808462
-1.1801e-08
0.0203406
-0.0309399
-1.95711e-11
0.0184263
-0.0611539
0.215002
-0.0195854
-0.0857753
-0.0964223
0.0495042
0.133001
-0.0341503
-0.00525695
-0.000111664
0.163415
0.0125155
0.161715
0.0310211
0.0011685
0
-1.8999e-247
-8.28514e-05
0.0321581
-9.70603e-06
0.0538583
-1.5435e-05
-0.0208738
0.0268763
-0.0219723
0.000294208
-5.35632e-06
-4.70588e-14
0.000340126
0.00553884
0.0321445
-0.058578
0.0454545
-1.05687e-13
-0.0451422
-1.00261e-09
1.27166e-05
0.0131967
9.65993e-05
0.0427865
-0.0785109
0.0194249
-5.01483e-05
-1.14255e-13
0.0163892
2.10595e-217
-0.0110705
-0.0774041
-1.78123e-06
0.016631
0.0505346
-9.19444e-08
-0.280092
-0.0273294
-0.0413441
-6.83708e-11
-0.0300789
-0.000119511
-0.0131932
0.016631
0.0347932
-0.0162483
-0.0281488
-3.14036e-09
-0.0135691
0.0275219
-0.0522077
-0.123386
-0.0599937
1.91123e-139
-0.0451745
0.0421116
0.0169584
-0.00782454
0.000810282
0.00860307
0.00625948
-9.07813e-07
-0.0308341
-0.0362366
-0.0704045
-0.0160057
-7.71527e-06
4.69186e-133
0.0238102
0.0173482
0.0291266
0.0808399
0.0073191
0.0331968
-4.37586e-05
0.00285824
0.000220328
-9.14617e-06
-0.0257469
-1.83505e-05
0.000372228
-0.000177465
0.0118398
-0.0750656
1.18431e-05
0.0173482
-0.0491391
0.0231531
0.0445244
0.0690048
-0.0348495
-0.0756259
0.0575369
0.0239187
0.0688764
-0.273397
0.000733005
-1.45939e-07
0.0632198
-2.22021e-06
0.00560529
0.063408
-0.0636592
-1.08789e-05
-0.102657
0.00351311
-0.126108
2.30864e-130
0.101713
0.0523186
-0.0283379
-0.0822558
0.0215443
-0.0174097
-0.057905
-7.71527e-06
5.38832e-129
-0.0444345
0.0652211
0.186541
0.0166307
0.18
-0.0067213
-0.0460704
0.0125136
0.0150945
0
0.0512952
-0.00907098
0.000393547
8.53464e-06
-2.68485e-07
0.119241
0.0161156
0.0173482
0.0482988
0.00393716
-2.49319e-06
-0.0250848
0.0815459
0.00592516
0
-2.2864e-06
5.53503e-06
0.0751984
0.0492868
0.411352
-0.0368649
0.00180522
0.0199742
0.00896488
0.0163384
0.0781242
0.0139414
0.055435
-0.0195854
-0.00500752
0.00733818
-0.0241595
-7.71527e-06
0.0123877
-1.78973e-12
0.00678804
-0.00291879
0.0186473
0.190463
0.028585
-9.37996e-07
0.313771
0.0214474
-0.051707
-0.0557435
0.0432717
-0.0333934
-1.97901e-07
0.0131234
-0.0533331
0.0656885
-0.100551
0.084012
-0.0337684
0.0115788
0.020383
-1.97901e-07
-0.0968481
-2.02467e-234
-6.92545e-248
-0.114947
-1.14255e-13
0.0740436
-9.0286e-06
0.02647
0.008468
0.0427977
-0.00763925
-6.45005e-07
-6.65124e-10
-0.0464652
0.0030619
-0.0131932
0.0120066
0.0073805
0.0268234
0.0230345
0.103186
-0.00403934
-0.0603393
-0.0191505
0.070259
6.83416e-06
0.120263
0.00113864
0.00539897
-7.71527e-06
-1.96521e-07
0
-7.2014e-06
-1.34386e-321
-0.0720933
0.0961771
-0.0037705
0.0272346
0
-0.0754857
-0.0806458
-0.000201905
0.0131234
-2.56263e-247
-0.102588
-0.0138937
-0.0329778
0.167801
0.0083283
0.0289395
-0.0379811
0.000271728
0.02284
0.0245353
-1.95711e-11
-0.0315065
-0.0703491
0.00571586
0.0643888
0.0243164
-4.66045e-05
-0.00732216
0.0020461
-1.07895e-08
0.0821385
0.189971
0.00261929
-2.34252e-07
-0.0285065
0.373829
-0.043699
0.00606156
0.0659239
-0.178818
-6.48352e-08
-0.0284033
6.76831e-06
-0.00514356
0.311989
-9.00009e-06
0.0113016
-0.118299
-0.029305
-0.0657001
0.000712856
-0.127915
-0.0783914
0.0118398
-0.0404813
-4.55821e-05
0
4.0092e-140
5.17453e-05
0
-0.00291879
-0.0067213
0.0265376
-6.83708e-11
0.0366754
4.8989e-140
-0.0148922
0.122928
0.123556
0.00334009
-0.0138794
0.0548545
-0.00574719
0.00274624
0.00853863
-4.70588e-14
0.0686096
0.0287837
0.0163883
5.73312e-06
0.0696689
-1.13141e-321
-0.0508042
0
0.00547964
0.00121389
0.018714
0.0239196
-0.00668499
0.0184263
0.00220157
-1.24323e-08
-0.0341574
0.252629
-7.71527e-06
-1.34386e-321
0.0887123
0.0740377
-0.080071
0.074965
0.0445244
0.00376583
0.0656805
0.0239097
0.0186473
-8.78469e-07
0.0129842
1.54606e-05
-0.0452854
-0.029629
0.0310327
0.0396207
-0.00733681
0.107031
6.76831e-06
-1.35843e-13
0.0161326
-0.122773
-0.096216
-6.45005e-07
0.0131977
-1.50732e-237
-0.037692
0.0254474
-2.49505e-05
-0.0480158
-7.71527e-06
-0.0311415
0.118588
0.00199902
-0.11533
0.0536592
-0.0259068
-1.08789e-05
0
0.00640517
0.000247882
0.0107523
-0.000196963
0.0960439
-0.181313
-0.0452361
-0.0572809
0.0420976
-0.00256622
0.00606156
0.143977
0.0273257
-0.0350275
0.0218891
3.28179e-08
-0.0751012
-0.0802243
0.0161326
3.27623e-05
0.000474228
0.0268233
0.0100273
-1.05687e-13
-0.0106289
0.0480566
-0.0182299
0.0099452
-0.000160488
-4.13343e-05
0.0519753
-0.000139232
-6.79657e-06
-0.0257979
-0.0250948
-1.14255e-13
0.0435679
6.76831e-06
0.00180522
-2.03608e-05
0.0102866
-8.67502e-07
0.0131703
0.144797
0.137668
-0.0234499
0
0
0.245537
-6.83708e-11
0.0141292
-0.0201776
-0.042978
0.000271728
-0.0240639
-0.0781263
-2.68485e-07
0.0398987
0.0873747
0.0019679
-1.05687e-13
-4.66045e-05
0.0199237
-0.0333934
0.290133
-1.82331e-07
0.0303888
0.098001
-5.18401e-05
-9.19444e-08
-1.13141e-321
0.00900795
0.074965
0.0239196
-0.0379672
-0.100447
-0.0563512
0.0712786
0.000550734
-3.12183e-05
0.0517352
-0.0279982
-8.19382e-07
-0.114008
0.00601428
-5.8849e-11
-0.0165897
0.0121005
0.0963064
0.0949751
-3.12183e-05
-0.00525695
-0.101542
6.93481e-142
0.0507853
0.00115211
2.54471e-05
0.00407704
-1.36433e-05
-0.0591331
-1.39831e-06
-0.0476082
-8.66596e-09
-1.1801e-08
0.0291112
-2.55491e-05
-5.4868e-07
0.00606503
-0.0446124
-1.78973e-12
-0.0883786
6.93481e-142
0.0419171
-0.108369
0.00566554
-1.00789e-321
0.205781
0.0131234
-0.00709832
-0.0134634
-0.108999
-0.0370241
-0.00236295
0.0195809
0.0505346
0.165093
0.00261929
-0.0135644
0.0137425
0.0181174
0.0186473
0.114887
-0.068731
-1.38647e-14
0.0688764
-1.08789e-05
0.000128883
0
0.101869
0.00196828
-0.0267409
-7.71527e-06
0.115907
0
-0.0337684
0.106229
-0.0476792
0
0
0
-3.98283e-05
-1.78123e-06
-0.0287445
0.104125
0.110611
-2.02467e-234
-0.000271627
0.008468
-3.83141e-14
0.000604885
-0.0684754
-0.0164355
0.0120407
0.000137362
-3.03811e-07
-4.37586e-05
-0.326424
-1.11165e-321
-4.30316e-06
-0.0379362
0.0255519
-0.000260755
0.00859179
-0.000260755
-0.0763577
-0.351994
0.0186473
-0.122353
-0.0502617
-0.0277425
-1.78973e-12
0.0422713
0.0583751
0.0659775
0.047212
0.559451
-0.0523138
1.14102e-06
0
-1.9964e-09
-0.0699484
-0.0737248
-5.95345e-06
-0.0104972
-1.32659e-05
-0.1025
-0.0417914
0.00489574
-2.97535e-05
0.0378088
-2.32393e-05
-0.0722887
0.120627
-0.0368649
-0.000189497
-0.00574719
-2.74366e-11
-7.71527e-06
0.00043445
0.000538851
0.0482988
7.65526e-07
-0.0391937
0.0283234
0.0801808
0.0563289
-0.0162573
-5.77661e-06
0.0190235
-0.0720986
0.00843919
-2.56263e-247
0.0262862
-0.0298586
1.54606e-05
0.125764
0.0267818
-0.0292022
-0.065872
0.0665711
-4.34755e-05
-0.028515
-0.0545332
7.28125e-143
0.0184299
-7.30743e-07
6.93481e-142
-0.000167789
-0.0121134
-1.19181e-06
-0.0120663
3.2513e-07
-0.0412996
0.0559619
3.7434e-05
-0.0069714
-0.10061
0.270305
-1.1801e-08
-1.14255e-13
-0.0115459
-2.98757e-06
0.159119
-0.0343814
0.0936309
0.0734227
-0.0294559
-4.82082e-12
-3.83141e-14
-4.97487e-05
0.0445244
-0.0401822
0.0338971
-3.18515e-07
-0.0480295
0.0126416
1.14102e-06
-3.83141e-14
-6.00503e-05
0
-0.0330721
0.00177686
0.0186015
-1.69778e-11
-1.97901e-07
-1.92911e-05
0.0507149
0.00160786
6.93481e-142
-0.205098
-4.2943e-07
0.102375
-1.45939e-07
0.0310712
-7.71527e-06
0.006539
-6.45005e-07
0.00115211
0.0547512
-0.078984
0.0881383
-0.024491
0.0746221
0.0802093
0.0131234
-0.0761611
-0.0591331
-0.0191093
-0.0619616
0.00365533
0.00261929
0.0522832
-0.0630285
-0.0763577
-2.02467e-234
-0.0401078
0.0302773
-0.000245341
0.0437299
0.00601446
0.0222939
0.0131234
0.0566677
-0.0591388
-2.42199e-08
-5.57755e-16
0
0.0353463
-1.39831e-06
-0.412928
0.0103754
0.0125136
0.14176
0.0100897
-0.00909517
0.00645319
0.159205
-1.97901e-07
-5.13422e-05
-0.0992824
-1.20477e-08
-6.18295e-06
-7.56706e-10
-1.78123e-06
0.0198595
0.00294154
-0.0446124
0.0282915
0.00162997
5.38832e-129
0.00197906
0
-0.0448871
0.0103567
0.0688764
-7.71527e-06
-0.0165897
-0.0112658
-1.69778e-11
-0.00471731
0.0665711
0.0150948
0.0310327
0.0751785
0.0268763
-0.0221665
0.127607
-0.00562633
-0.0446124
0.0282765
-1.11165e-321
4.05134e-322
-1.97901e-07
-0.0925431
0.0198126
0.00928504
-0.0283443
-0.0139559
0.0202877
0.0209428
-0.00236295
-1.92012e-06
-9.23508e-08
-0.102376
3.27623e-05
0.0627608
-8.78469e-07
0.0191686
-0.0543499
0.0368187
-0.0182299
0
0.0176663
-0.00291879
-0.0952662
0.115827
-1.92012e-06
0.0406121
-0.124126
-1.05236e-321
0.0931195
0.00734365
0.0403456
-9.23508e-08
0.0829184
-6.05131e-06
0.0199742
0.00126565
0.160584
0.11137
-0.00505277
0.0557862
0.00480571
-1.05687e-13
-0.0773689
0.0150948
0.0131234
-1.9032e-05
0
-1.05687e-13
0.0760498
-7.71527e-06
-7.71527e-06
-0.00565723
0.0161892
-9.16988e-10
-0.093016
0.00694875
-0.000119511
-9.53547e-322
-0.139097
-0.0213077
5.90053e-05
-0.0615636
0.0633438
-1.78973e-12
-1.8999e-247
-0.0228963
-0.0223733
-0.00855857
0.0371235
0.0180128
-0.0665243
-4.2943e-07
0.10392
-0.0312246
-0.0520581
0.0649789
-3.11261e-322
2.36946e-05
0.210564
0.0199742
0.0359551
0.0519286
0.262072
-0.0273294
0.174991
-0.0258072
0.0341137
0.139903
0.0187422
0.00588314
5.38832e-129
0.0411306
-0.0530701
-0.0076175
0.032144
-0.00028409
-4.82082e-12
-5.35632e-06
-0.0549838
-0.0176044
0.0293288
0.0209428
-1.02933e-06
0.306396
-0.0498005
-0.000141581
0.0468113
-4.82082e-12
-0.0177012
-1.59437e-06
0.00143162
0.00196285
-0.0278256
-0.274352
0.0133737
0.0209322
0.001619
0.0363722
0.296526
0.00913473
0.0199742
-1.03005e-09
0.214462
0.039542
0.0141479
5.38832e-129
0.0712662
0.0911935
0.047212
0.0547666
-1.39831e-06
-0.100677
-2.03608e-05
0.0100421
-0.044267
0.00553311
0.0169085
0.150819
-0.0331548
-0.0367053
0.000114401
0.111299
0.0173551
0.0353302
0
-2.41577e-07
0.00178192
-5.4868e-07
0.0643323
0.0154713
-8.78469e-07
0.0113016
0.0406019
-5.57755e-16
0.0180128
-9.65911e-07
0.0130779
-0.0362706
0
-0.0451745
1.54606e-05
0.000960451
0.0293288
-0.0348916
-8.79367e-14
-0.00185033
0.00202326
0.0277033
-2.03608e-05
-0.0713177
0.0566533
0.120071
-9.65911e-07
-4.83976e-05
-1.78973e-12
0.0327766
0.0180956
0.0378088
0.00956718
-0.0952902
-8.79367e-14
-0.0120069
-9.00075e-06
0.00272348
0.117669
0
-8.67502e-07
-0.00236295
0
-0.0133556
0.114418
-0.0719054
0.011801
0.0659775
-0.00236295
3.47535e-06
0.150389
-0.00619182
0.0378088
0.627672
-0.0452854
-0.0190945
-0.0334013
-0.0476394
0.0943769
-1.96521e-07
-0.0401822
-0.0126614
-0.0643271
-0.0136617
0.00953207
0.0492868
0.0804452
0.0496645
-3.14036e-09
0.0277964
-0.0309397
-0.129513
0.122231
0.0309251
-1.78123e-06
-0.0584462
0.0589134
0.00137907
-0.0944586
-1.82331e-07
-7.71527e-06
-5.57755e-16
0.0207208
-0.0219751
4.0092e-140
-0.108618
-0.0849684
0.0198019
0.0530993
-0.0598959
-6.83708e-11
0.0191831
0.122699
-0.00526273
0.0513473
-0.0297551
-0.00525695
0.0484129
-0.0201809
-0.0023701
0.22048
-1.92895e-05
-3.27571e-15
-0.0481247
-9.35078e-07
0.0141292
-0.0484075
-0.0337684
-0.0831579
0.0135092
-0.0365627
-0.111065
0.0122313
-0.301529
0.0546526
0.00412568
0.00295883
-4.82082e-12
0.0139414
-0.130315
7.28125e-143
4.8989e-140
1.33398e-322
-0.122328
0.0227959
0.115821
-0.00574816
-0.0904505
5.38832e-129
-0.0180592
-0.0209314
-1.97901e-07
-0.0395226
-0.1261
-0.0313503
0.02647
-0.0292337
-0.0391622
0.0885949
0.0242025
-0.0452025
0.0547946
0.0842527
-0.0358406
0.00953207
-0.0922512
-1.97901e-07
0.0184299
-0.0545008
0.0228135
-1.97901e-07
-0.000245341
-6.45005e-07
-5.02439e-05
-0.0483568
0.468615
0.0228326
-0.0968482
-0.00579855
0.0888189
0.0101239
-5.02439e-05
0.0419116
0.0468513
0.000691221
0.0284293
0.0710875
0.058768
4.336e-06
-0.00189538
-0.0294603
-3.14036e-09
0.380987
0.00740381
-0.00378378
0.00332254
0.00842084
-0.016377
-0.0869337
-1.5316e-321
-0.107262
0.00163249
0.000480502
0.0293288
-0.0167274
-7.10085e-05
-0.0143501
0.148001
-0.00352486
0.0534657
0.00427659
-2.01008e-10
0.0460961
5.53354e-322
-0.000546137
0
-0.0135644
0.0111667
-4.99146e-06
-0.143701
0.0306028
7.28125e-143
0.0902923
6.76831e-06
-0.135622
0.481516
0.0449095
0.0365641
-0.096035
-0.064261
0.00953207
0.063776
-0.1451
0.0122313
0.0018044
-0.0177012
0.0912936
-0.0446124
0.0482437
-2.03608e-05
0.0786558
0.00285824
-7.80736e-06
0.0050677
-1.24563e-11
-0.0135644
4.7503e-130
-7.71527e-06
0.00508613
0.0305777
-0.0136617
0.0719839
-7.71527e-06
-0.00619281
-6.83708e-11
0.000933573
-0.123468
-0.0704075
-4.7446e-05
0.0126128
-7.71527e-06
0.286377
-0.156022
0.0130805
-0.00867272
-0.0964223
0.172833
-1.28192e-07
0.00670694
-0.00899034
-4.37586e-05
0.0228326
0.183557
-0.000261385
0.0415164
7.28125e-143
0.0565787
0.0651033
-0.0394312
-0.183704
5.82636e-07
-9.35078e-07
0.0235404
-0.000170959
0.0150948
-0.0684754
-0.00528343
0.0116457
5.82636e-07
0.0771632
-6.83708e-11
-0.0882173
-7.71527e-06
-0.000141581
0.00820573
-0.0433405
-1.25981e-05
0
0.0507277
-0.0692763
-0.0277425
0.0310211
-0.0437851
0.0101686
7.5725e-05
-0.0135691
0.0270038
0.018714
1.48974e-05
0.276449
-0.000245341
-0.0430831
0.306059
0.0318451
-1.38647e-14
-0.000186188
0.034102
0.111179
-4.3873e-05
0.0844571
0.061966
0.267055
-7.71527e-06
0.0306894
0.0613876
-1.46702e-05
0.0935101
0.0495042
0.0301574
5.38832e-129
0.0586427
0.0800809
-0.0231085
-0.0280546
0.0390781
-0.149104
0.00953207
0.0283968
0.00178198
0.018399
-3.81841e-05
0.0614935
-0.0724492
4.18875e-247
5.17454e-05
0.0482988
0.018714
-0.0961379
0.0173176
0.00261929
0.00953207
-0.0314311
0.0391912
-0.000147097
-0.253367
-1.5316e-321
0.0467055
-1.19564e-321
0.00606154
-7.71527e-06
-0.179169
-0.000136703
-1.11143e-15
0.0297651
0.0270888
0.197891
-0.0693639
-0.12853
-0.0198872
-0.000128798
-1.36433e-05
-0.0195854
0.0495042
0.0131234
0.11679
-0.0290807
8.66038e-07
-3.68091e-08
-3.83141e-14
-0.00991651
0.0277941
0.180115
0.130279
0.0596834
-0.0636367
0.00953207
0.0191686
-0.0342047
-0.000139232
-0.0200445
-0.0885606
-0.0394718
-3.14036e-09
0
0.0173482
-9.53547e-322
-5.77661e-06
0.0020461
0.0173482
-0.00916961
-0.00527238
0.137013
0.0574904
0.225693
0.168677
-7.56706e-10
-0.0257812
-0.00543838
0.0131234
-0.0467135
-0.00236295
-3.83141e-14
-0.0171795
-0.133529
0.00709257
-7.71527e-06
-0.0318909
-0.00907098
-3.29704e-07
0.0173482
0.108402
3.06067e-258
0.203842
0.0301015
-0.0461748
0.02647
-1.20477e-08
-0.0019397
-0.00352486
-0.000225193
0.0304859
0.00235356
0.0103567
-8.5374e-06
-0.0409868
0.0672373
-1.78973e-12
-0.0715656
0.259702
-0.00222331
0.0305472
5.83385e-06
0.00218253
-0.00907098
-0.109988
0.0329821
-0.000111664
-0.0631269
-0.162233
-0.0287705
-0.00057273
-0.0357837
0.0400543
-0.0267409
-2.02467e-234
0.074965
-0.0292257
0.169615
0.165568
0.117401
0.0929826
0
0.00643567
-5.13422e-05
0.220518
-6.79657e-06
0.189698
-0.000100762
-0.0629066
-4.12655e-09
9.10089e-05
-0.018692
-0.0572456
0.0150948
0.0131234
-0.210918
-1.09625e-05
0.00953207
-0.0334451
-0.0272274
-0.0155255
0.040787
0.00306656
-2.74366e-11
0.0551392
0.121113
0.0417277
-0.0254404
-0.0283999
-2.97535e-05
-0.031132
0.0638708
-1.14255e-13
-3.11261e-322
0.00953207
0.0388807
0.0328236
0.043298
-9.07813e-07
0.0610978
-0.0583285
0
0.0675393
0.0131103
-1.14255e-13
-0.169799
0.0876071
-0.0724492
0.0266065
-0.0160015
0.0331968
-0.0565073
-6.92545e-248
-1.14255e-13
0.0586649
0.0369564
-8.79367e-14
-0.362593
-0.123297
-0.00288297
-0.0862513
4.05134e-322
0.0605966
0.0974731
0.031021
-0.000111893
-1.8999e-247
-0.0274591
-5.09751e-05
-0.0139473
0.00172942
0.0584823
0.0721665
0.0146063
-8.77306e-05
-0.00478098
-1.11143e-15
0.115163
-0.0322621
0.344128
0.0547885
-0.0104972
0.00826783
-6.48352e-08
-1.78123e-06
-1.43279e-321
-7.71527e-06
-0.0303173
-0.0400136
0.0101686
-2.97536e-05
-0.000111893
-0.403785
-4.37586e-05
-2.20134e-11
-7.15186e-06
-0.0164441
0.0260482
0.011646
-0.0600895
-0.00311492
0.214708
-0.0653604
-7.71527e-06
0.011697
0.00447979
-4.70588e-14
0.00953207
-0.0142399
-0.189127
-0.0408052
-3.14036e-09
-3.83141e-14
0.108119
-0.0195854
1.20507e-06
-0.0572456
0.0044898
-0.0258696
-0.0135691
-0.206892
-0.0143501
-0.0313503
-6.18295e-06
-1.66104e-08
-0.337129
-0.000222998
-1.05687e-13
-0.115443
0.124807
0.0170965
-0.0216811
-7.71527e-06
0.0150948
-0.0229097
-1.39467e-247
-9.70603e-06
8.53464e-06
0.0186176
0.221566
0.0980164
0.0980164
0.0378345
0.1019
0.0744666
-0.00619281
-0.070259
-0.0449605
-7.71527e-06
-2.97535e-05
0.0359551
-7.71527e-06
-1.97901e-07
-0.0198227
0.0544157
0.063408
-6.54548e-05
-3.68091e-08
0.056847
0
-0.423665
0.0686096
-0.0249865
-1.19564e-321
0.0020686
-0.0162701
0.118751
0.0526533
0.00553884
-0.00422681
0.0100231
-0.0362706
0.00953207
-0.0443252
-0.134399
-0.0143501
0.0544128
-7.71527e-06
-0.0756032
0.0435858
-1.98833e-08
0.351691
0.0151581
0.00956718
-0.000158278
0.0183926
0.0218435
-0.03202
0.066048
0.00671956
-0.00525695
0
-0.253949
-1.24563e-11
0.0861259
-1.43279e-321
4.08738e-06
0.00160786
-0.153266
0.0445023
0.000975815
-2.74366e-11
-0.0267409
0.0286388
0.0116147
-0.0953881
0.00592516
-2.2864e-06
0.00731982
-5.82524e-05
0.0667908
0.012711
-8.30337e-05
-0.0165878
-0.017978
0.0907839
-3.83141e-14
-9.00009e-06
-0.00525695
-0.013566
0.000114401
0.0588529
0.0583748
-1.14255e-13
0.0186473
0.000220328
-1.65931e-10
-0.0423766
-7.71527e-06
0.0184299
-0.090898
-0.0755639
0
0.037923
0.000220115
0.00547096
0.0684023
0.107174
-2.10027e-05
0.151434
0.0235487
0.0454545
0.0259169
-1.1801e-08
0.0283711
0.0659326
-0.155826
0.0145157
-0.00732319
0.324889
-3.86435e-230
-0.0280325
-1.19564e-321
-0.0565073
0.00684689
0.00501445
0.0199742
0.038285
0.0103296
0.0696664
-0.0229166
-0.0191093
0
-6.83708e-11
-0.146476
-8.5374e-06
-0.0743798
-1.19181e-06
-0.0267409
-0.0251051
0.00156284
0.00240073
-0.00231937
-0.108038
0.0070142
4.33397e-07
-1.39831e-06
0.323423
-0.0713177
-0.0392287
0.00997525
-0.0101287
0.0550307
0.0102983
-0.0220031
-4.82082e-12
-0.0866515
-0.0334013
0.00180522
-7.71527e-06
-5.86556e-08
-0.0567704
-1.14255e-13
0.0489831
0.0268763
0.00791847
0.0310327
0.196296
-0.0348083
-7.71527e-06
0.0440949
0.260124
7.16382e-07
-1.14255e-13
0.00222995
0.0311423
0.0312115
-0.0110705
0.0111006
0.0470633
0.0119166
-0.0020361
-4.82082e-12
0.103783
-0.08112
0.0725013
0.0694166
6.76831e-06
0.0720574
-0.0913769
0.111007
0.0378088
-1.19564e-321
-6.04214e-12
-0.0334013
-0.0106535
0.0334093
0.0424557
4.69186e-133
-0.0207034
-1.23465e-08
-0.0240012
0.0125378
-0.00352486
0.00863704
0.00189309
-0.0181641
-0.00732216
0.0402567
-4.37586e-05
-7.15186e-06
-0.0454474
0.119261
0.0475716
0.0749455
-2.01008e-10
4.336e-06
0.0631981
0.0467109
0.106257
-0.00578587
-0.0165541
-0.0506862
0.00896488
-0.0197341
-2.02467e-234
-0.0120371
-0.055458
0.0594495
0
0.0173037
0.00163249
0.0945005
6.11487e-06
0.0321287
3.06067e-258
0.0150948
-7.71527e-06
0.0546691
-1.78973e-12
0.0268763
-0.0342649
-0.0201115
-0.11599
0.00953207
0.0735215
0.0783863
-4.66045e-05
-0.0328333
0.0422835
-2.29683e-05
4.0092e-140
0.0942789
0.00171699
-0.0230773
0.0849027
0
0.0725745
0.00261929
0.100653
0.0495042
0.0651031
-3.11261e-322
0.0113016
-4.37586e-05
0.0649789
-7.00829e-15
0.0472128
0.010973
0.0232752
-0.00438661
-1.11165e-321
0.194868
7.09635e-05
-4.06824e-05
0.0218891
-0.0606872
0.11731
-0.00236295
0.0967162
-0.0379362
4.05134e-322
0.0139071
-2.02467e-234
0.0656603
0
-0.0886235
-1.90944e-05
0.00963589
-3.18515e-07
0.00859179
-0.12268
0.116565
-0.0471465
-0.0117569
-0.00599229
-0.0195862
-0.17163
0.0101277
-0.0135644
0.00953207
0.0431315
0.00255213
-0.0995627
0.042082
0.00172411
0.0773599
0.0186473
0.0376616
-0.0600895
-1.97901e-07
-0.000139232
-0.033409
0.00482373
-0.0104972
-0.0567704
0.0211951
3.91204e-140
0.0430095
0.00178198
-1.46702e-05
0.0186015
0.0275247
-2.40422e-06
-0.0713177
-0.0326344
0.0469278
-0.0686237
0.00350602
-7.71527e-06
0.0135748
-0.0228412
-3.98283e-05
0
-0.111155
0.0443026
0.0149102
0.0373209
1.27166e-05
-0.083155
0.208665
0.0963138
-0.295238
-0.000125102
-1.32659e-05
-0.0894523
6.76831e-06
-0.00525695
-0.180894
-1.39467e-247
-6.92545e-248
0.0659775
0.0649139
0.0102769
-0.100097
0
-0.0680556
-0.013525
-0.0545008
-0.0181641
-0.00907098
-1.25981e-05
0
-0.0418376
-0.0172148
-0.0135691
0.184417
0.0150948
-1.92012e-06
-0.0135691
-0.0554668
-0.0446771
5.38832e-129
-0.0135644
0.080257
-0.0285378
0.103906
-9.79293e-05
-0.000342905
0.00859179
-1.78973e-12
-0.0250848
0.00397598
-0.000301918
-2.21757e-06
0.469578
-0.052785
0.0173176
0.0184477
0.068405
0.00581158
0.00581158
0.0218446
-5.02439e-05
0
0.132799
0.00180522
-0.0292331
8.53464e-06
0.000294208
0.0377839
-0.000117765
0.000953684
0.00840817
-0.305146
0.00953207
-0.000150727
0.0199744
0.0126782
0.0126784
-2.10829e-05
7.16382e-07
0.0145114
0.0128063
-0.122562
0.00606156
-0.000201905
-7.71527e-06
0.0113016
0.0540763
0.146959
-0.0713177
-0.0481294
-1.05687e-13
-0.0239114
-0.154869
-3.12183e-05
0.00513305
0.0105127
0.107658
0.065869
1.18452e-237
-0.0370042
0.151737
0.00220157
-7.71527e-06
-3.86757e-05
-0.0350121
-0.0554907
0.140248
-7.71527e-06
-0.0219879
-0.0326445
0.0591557
0.0945005
-0.0053398
-4.66045e-05
0.00887575
0.0214474
-1.9964e-09
-0.0657039
-7.71527e-06
-0.0855897
5.43472e-323
-7.71527e-06
-0.00438661
-0.0749229
-0.000160488
0.00180383
-0.0770682
-9.79293e-05
0.0198136
-1.71863e-12
0
0.000930689
-0.0780602
0.0704322
-0.0490646
0
8.27591e-131
-0.0275779
0
0.010476
-0.0227852
0
0.0587845
-0.00619281
-4.82082e-12
-7.71527e-06
0.135968
0
-0.044714
-0.00941772
0.0372341
-0.102376
0.00655552
7.28125e-143
-0.378499
0.107658
-0.029305
0.00178198
-1.43279e-321
-0.00236295
-8.99639e-06
-0.0575062
2.30864e-130
0.0696476
0.0563289
0.0425009
-1.22548e-09
-0.00413894
-9.16988e-10
-0.034442
0.162525
0.111299
-0.0314989
0.0720791
0.000105565
0.029328
0.0228762
-0.00352486
0.0542589
-0.0730962
0.00953207
-1.53718e-08
0.061071
-0.255831
-0.10226
-0.0451745
0.0150948
0.153829
-0.00839895
0.0139414
-0.0181294
-0.0401078
-0.0504018
-2.41772e-06
-1.24323e-08
-0.000111893
-7.71527e-06
0.0359551
-0.0806458
0.0403456
-5.62413e-06
-1.41303e-321
0.00729355
-1.05687e-13
0.067404
0.0484487
-9.16988e-10
-1.97901e-07
-1.39467e-247
-0.0602221
0.0147006
-1.6597e-10
-0.0417542
0.0562254
-3.22032e-08
-0.0417914
0.000725053
-0.0789842
-1.14255e-13
-1.20477e-08
-0.0986514
0.0243248
-0.221467
0.00321797
0.00601446
-0.0287445
0.00581158
-0.102376
0.0131234
-4.12655e-09
0.0273257
-7.71527e-06
0.0150948
-0.0470078
0
0.326069
-1.97915e-05
-0.0239114
0.0399025
-0.000539313
-0.0135644
0.0644836
-3.09369e-08
0.0896417
-6.84029e-06
-0.00323032
-0.0334506
0.133472
-0.108679
-0.0179637
-0.0713177
0.000805042
0
0.0920317
-0.0376613
-0.000128798
-0.0768969
0.0131234
0.0151037
0.161887
-0.0591331
0.131504
-7.71527e-06
-0.0395422
-4.64317e-09
-0.0308341
0.0139071
-1.19564e-321
0.000314523
0.00887575
0.200957
0.069496
-0.112196
-1.05687e-13
-0.00824763
-0.0293809
0.0184299
-0.0591331
0.0184263
0.0218891
0.0150948
0.0850713
-0.0876004
-0.0371945
0.0125136
0.13867
0.162848
0.018714
-0.0211463
0.0150948
-0.00189538
-0.0165897
-5.62413e-06
-9.34453e-07
0.0115527
0.0643888
-0.0915981
0.0320532
-5.68056e-06
-0.0185804
0.0474982
0.00476389
0.0304859
-0.0250848
-0.0135644
-7.71527e-06
-0.0655276
-1.78973e-12
0.0131234
0.0100897
-4.37586e-05
0.0421116
0.0573814
-1.25981e-05
1.54606e-05
0.00963589
-1.5316e-321
-0.0115719
-0.0138791
-0.0702739
0.10316
-4.37586e-05
-0.0635417
1.48974e-05
0.0656603
-4.82082e-12
0.108802
0.00507525
0.064697
-0.0144735
0.0328232
0.0067954
-9.35078e-07
0.0150948
0.00178198
-0.00732216
-0.0141364
0.109457
-0.0240272
-2.97535e-05
-9.79293e-05
-0.0123314
0.00392441
-0.0720127
-0.0949038
0.00249644
-5.3509e-09
3.47535e-06
0.047698
-7.71527e-06
0.0245499
-4.70588e-14
-0.0418376
-0.0362706
0.0685019
-0.0910011
-2.48369e-14
-0.0308731
0.0218891
-0.0242167
0.053712
0.0632237
-1.24563e-11
0.0131234
-3.83141e-14
0.0194264
0.0292985
0.0275219
0.0951648
-1.19181e-06
6.11487e-06
-0.0219183
-0.110999
0.143855
-0.0600895
-0.0864014
-1.39831e-06
-0.0572456
0.0306335
-1.24563e-11
0.0113016
-1.14255e-13
0.0825007
0
-0.0264498
-0.0287445
0.0243909
4.336e-06
-0.0118644
-4.37602e-05
-0.0192656
-0.00525695
-0.0587772
-7.71527e-06
0.000287878
-0.0143501
1.63868e-06
0.0133936
2.906e-08
-1.19181e-06
-0.0565104
-0.0279192
0.0908802
0.00940608
-0.0140482
-0.0136617
0.00606156
-9.53547e-322
-0.00611742
-0.0481294
-0.0135691
-0.0357837
-0.0385751
0.00501217
-1.95711e-11
-3.30302e-07
0.0586846
-0.0106962
-0.175037
-2.96417e-10
0.237437
0.0434316
0.0131234
-6.04214e-12
0.0120139
-0.0299744
0.0688764
0.0122313
-0.00215393
0.00842084
0.00560529
-0.00010244
0.0177967
-0.051707
0
-6.38605e-05
0.0837641
-0.0799809
-4.70588e-14
-0.148635
0.0370945
-0.0720127
0
0.0131108
0.00209478
-7.91823e-06
0.0695928
0.0243909
0.00606156
0.0711083
0
-0.0135644
-1.14255e-13
-0.00733681
-6.83708e-11
-0.00676352
0.0230345
-0.0267409
-2.74366e-11
0.0548852
-3.18515e-07
7.28125e-143
0.0700755
-0.000104675
0.172736
-0.0115612
0.0707722
-0.0103074
0.189254
0.104475
-0.0642665
0.0193345
0.00842084
-0.0165897
-0.0572456
0.0141069
-0.0681373
-1.02933e-06
0
0.00956718
-0.068987
-0.0221246
-0.0334013
0.00609396
-0.0570417
0.150511
-0.00734552
-0.0894286
-6.04747e-08
0.0388214
-9.70202e-05
-0.0195854
-2.02467e-234
-0.0528434
-0.0250146
-0.00291879
0.013779
0.00178198
0.0491507
0.0723816
-0.0143501
-0.0872403
0
0
-4.70588e-14
0.349605
0.0131967
0.00581158
0.0304859
-0.0277409
-7.56706e-10
6.93481e-142
-0.217598
-0.0850959
0.029328
-0.0286825
0.00172942
-0.0630285
-0.102628
-0.162353
5.90053e-05
-0.00236295
-7.10085e-05
2.5669e-05
-0.054216
0.164976
0.217022
-0.0229065
-0.0591331
0.0301182
-0.0318909
-0.00403882
0.0828197
-0.0283379
-0.0866711
-6.92545e-248
-0.18414
-0.00458761
-0.0724492
0.138786
0.0150422
0.00969495
0.00518896
0.00842084
0.0113016
0.156609
-0.0600895
0
1.52838e-05
0.0103567
-0.000391189
-0.176104
1.27166e-05
0.00953884
-0.0173904
-0.46905
0.00709257
-6.90565e-05
0.0321535
0.0927404
0.0675491
-0.0385957
0.00393716
0.114988
0.0103567
-0.0138801
0.0403456
-0.032148
0.00953207
0.0429382
-0.0885563
-0.101091
-0.0795506
-0.0876388
0.00011769
0.054511
-9.58452e-06
-0.0258562
-0.0135644
-6.17582e-322
0.0275338
-0.0952681
-0.0657102
-0.0395149
0.0725745
0.712352
-0.0121134
-0.0621755
0.0141292
-0.139899
0.00902367
0.0590702
0.044318
-0.0773885
5.38832e-129
-0.0394722
-0.00674715
-0.0379672
0.0139414
-0.011151
-7.71527e-06
0.0239196
0.0125136
-0.0288728
-1.39831e-06
0.000395467
-1.78973e-12
-0.0642672
-0.0880972
0.0769644
0.00953207
-0.0579022
-0.0342047
-0.0578973
0.171449
0.00871057
-2.02467e-234
0.109757
0.00137858
-1.58984e-09
-0.0602221
-0.0143501
0.000971368
-4.67684e-235
-0.034703
-0.0347841
-1.19181e-06
-0.107474
-0.00525695
-0.0943488
0.011646
0.0335929
-0.00940436
-0.0348342
0.0771688
0.0676226
-1.97901e-07
0.0612512
0.0885949
-0.000271627
-0.17516
-0.0658779
0.0985121
-7.91823e-06
0.00271764
0.0480566
0.105451
0.00601446
-0.0159414
0.0114708
0.0840476
0.0131234
-1.05687e-13
0.000810282
0.0310211
0.0493146
-0.0274482
-7.71527e-06
0.033701
-6.83708e-11
-0.0964711
-0.000111893
0.0472928
0.00370309
-4.15024e-248
0.0126128
-0.00840436
-0.0475384
0.0412029
-0.100447
0.0150946
0.0484487
0.0964298
0.00323044
-0.000111664
-6.83708e-11
0.0420149
0.0530408
-0.00619281
0.00412164
0.0696476
-5.35632e-06
-0.0658779
-0.0406826
0.139985
-0.0249159
-0.031132
-5.86556e-08
-0.0143501
0.253087
-0.0054678
-2.73494e-15
-0.0546688
-0.0276718
-0.123761
0.00560529
-0.0257208
0.0212466
0.00115211
0.0377839
0.00169262
-7.71527e-06
-0.0135691
-1.95711e-11
-0.0192902
0.0139071
0.0473384
0.0152322
-6.00503e-05
-0.120912
0.0507277
0
0.00304528
0.018714
-0.0200444
0.199212
0.0381585
0.0103567
-4.13343e-05
0.012073
-0.0745137
0.0139414
-0.060708
-0.150453
-1.38647e-14
0.0909681
0.0702637
-0.0313956
-1.43279e-321
5.43472e-323
0.0459135
0.0131234
0.030395
-4.70588e-14
0.265732
0.00297772
-5.13422e-05
-1.97901e-07
-0.096959
-0.0198237
-2.02467e-234
0.0649789
0.221022
-0.0316112
0.0115527
-4.2943e-07
-2.03608e-05
0.0378088
1.48974e-05
-0.00916961
-0.041008
0.000357475
-7.71527e-06
-8.67502e-07
0.0302511
0.008468
0.00108741
0.00953207
0.00896488
-0.0283663
0.00953207
-0.434541
0.0378336
-0.0642665
-0.0348787
0.00160786
0.0713973
-0.103552
-0.0287705
-3.98283e-05
0.000357416
0
5.53354e-322
0.0579515
-0.0186263
6.93481e-142
-0.101093
-0.000177465
0.0825007
-0.0519864
-0.0526455
0.00261929
0.145916
0.0791745
-0.0334013
-0.0646741
0.0334487
0.181349
8.10038e-06
0.013996
-0.0348312
-0.0318909
0
-0.0178141
-0.0267409
0.000114401
-0.120869
-0.0286825
0.0445944
-0.0911415
-0.11599
-0.0451014
0.0885949
0.0126416
-0.0653511
-0.108255
-0.00809707
0
-0.0890863
-0.00525696
-0.0143993
0.0557695
0.000232831
-0.115021
-4.82082e-12
-9.16988e-10
-0.00189538
0.054716
0.0807547
0.047212
0.024987
0.056305
-4.13343e-05
0.0280779
0.0011685
0.0280609
0.0178735
0.063408
-0.0167767
-2.47033e-323
-0.0279192
-0.0194574
0.0209428
-0.0218099
-1.05687e-13
0.0640868
-0.0164441
-0.0597868
-0.000300653
-0.051707
-0.000143762
0.170446
0.034233
0.0134664
-0.00726108
0.0408043
0.0443412
-4.9265e-12
-0.0744674
-0.031132
-0.0400472
-0.0286803
0.000101007
-1.19181e-06
-0.00309479
0.00357993
-0.000301918
-0.0349172
0.0476444
-0.051707
-1.97901e-07
-0.000253862
-0.0282833
0.0453253
0.0741139
-0.0195854
-0.0452025
-0.0121502
0.0139414
-0.100962
-0.000139232
-0.00236314
0.0507853
-0.288235
0.0150948
-1.1801e-08
0.00963536
-0.00704697
-0.0292257
0.0199742
-0.0211296
-3.31559e-06
-4.2943e-07
-5.48413e-07
-1.78973e-12
0.00319129
0.00953207
0.0615483
0.162525
0.00766923
-0.0318909
0.00847014
1.18464e-05
3.93733e-05
0.00890263
-0.0333934
0.00216354
-0.0686805
0.00261929
-0.0347034
-0.0298586
-3.29475e-07
-0.00458761
-0.0280546
0
-0.0622846
0.0654416
-2.03639e-05
-0.00320921
0.00261929
0.00178198
-1.11165e-321
-0.0318909
0
-0.0653821
0.0603297
0.00115824
0.0161326
0.163389
0.00253669
0.0445244
-5.56063e-05
0.1515
5.38832e-129
-0.0588245
0.0150948
0.043753
-0.000174068
0.0471755
0.000247882
0.0479846
0.260666
0.0643888
-0.0986425
-0.028516
0.00543019
-0.0192699
0.0203406
-4.36961e-10
-0.00948002
0.000101007
0.000474114
-7.01605e-11
0.00199902
-1.76844e-07
-0.00057273
0.0101686
-1.95711e-11
-3.12183e-05
-0.000160488
-0.0135644
0.020383
-0.0143671
0.0329821
-0.0498094
0.0443026
0.119916
7.16382e-07
0.184258
0.0497224
-0.0642586
-0.064259
-8.5374e-06
-0.0756252
-8.79367e-14
-0.0136574
-0.0294212
0.00680841
-0.00574719
0.00160786
-0.062573
0.0417819
-0.0665776
7.28125e-143
-0.0506036
-0.107682
-0.0121134
-0.0327732
-7.71527e-06
0.0131103
-0.0142693
0.0228326
-0.0401822
0
-2.14919e-321
-0.0860336
0.00261929
0.180003
-0.0218314
-2.03608e-05
-0.000111893
-0.0743679
-0.0952662
0.141754
-4.82082e-12
-0.00352486
0.0119608
0.0131234
0.00178198
0.0103567
0.0443026
-0.0511399
-0.105186
-1.13666e-07
-3.08112e-07
0.0115883
-9.79293e-05
-0.000345377
-0.0313503
0.0264744
-0.0589981
0.03692
-0.00639901
0.0661637
-0.0394312
-0.0300789
-1.76844e-07
-0.0349172
0.0131234
0.0377839
0.10897
-0.0557994
-3.83141e-14
0.0411022
-9.58452e-06
-0.0401167
5.38832e-129
-2.02467e-234
0.163078
0.0102983
-0.138711
0.0495042
3.20686e-06
0.00352531
0.0736567
0
-0.0406598
0.0825299
0.0200924
0.0132379
-0.0146629
0.0199742
0.200583
-0.31609
0.0473384
0.013779
-8.79367e-14
-5.77661e-06
-0.0399585
-0.043819
-0.0476394
-4.88219e-15
0
-0.0187272
-0.0538133
-0.000111893
0.0173533
0.0541096
-0.043699
0.000480684
3.28179e-08
0.0139071
0.125096
-0.0106296
-0.0220477
0.119658
6.93481e-142
-6.04214e-12
0.0682253
0.101052
1.14102e-06
-0.0184182
-0.0262122
-0.0746037
0.00440951
0.0456313
-1.5316e-321
0.0209428
0.24199
-0.0283379
-0.0695202
-0.0362103
-0.179917
0.04649
-0.0275779
0.073592
-0.00525695
-7.71527e-06
0.0191524
-0.0260369
-0.0825303
0.0421116
-0.0298586
0.00640517
0.0917221
-0.0135644
-0.0182763
-0.0318713
0.000395467
-1.07895e-08
0.0371235
-0.0283379
0.0223119
-0.000271627
0.0343875
-0.0584214
-0.127666
0.0150948
0.130248
-0.0136574
-0.0880972
0
-0.019179
-0.143102
-0.0195931
-0.0115953
-0.0135601
0.0213634
-0.0171992
-0.0499957
0.0457582
-0.0418376
-1.5316e-321
-0.0162
0
0.10019
0.0455895
0.00209478
0.0128503
-0.0314989
-3.11261e-322
0.0141292
-2.6551e-231
-0.0174781
0.0131234
1.18431e-05
-0.0527456
-0.0228412
0.00261929
-1.18011e-08
-0.0665022
0.0126128
-4.06824e-05
0.0127487
-1.76844e-07
0.0490683
-1.69465e-321
-3.5068e-07
-0.00749174
0.0179531
-0.0145126
0.0235404
0.0013978
-0.0747142
0
0.0548124
0.0723868
0.0610683
3.22136e-05
0.0212732
0.0144773
0.0558005
-0.0100944
0.0486701
-4.82082e-12
0.151035
0.0275219
0.00163249
-0.0565073
0.0509359
-1.46702e-05
-1.14255e-13
0.000271728
0.0416215
0.0636577
0.0209428
-0.00438664
0.0102983
-0.0606212
0.00956718
-0.144503
-1.58984e-09
3.47535e-06
-1.36433e-05
-0.0282476
0.0475515
0.00553884
0.0218891
0.207807
0.00152009
-0.106134
-5.57755e-16
-1.76844e-07
0.0245499
-1.19181e-06
-0.106686
0.00940608
-0.0164343
-4.82082e-12
0.0303226
-0.0332225
0.00295883
0.0725598
0.0887123
-0.00403882
-0.0722271
-0.0280457
-0.0111346
0.0419171
0.00261929
-4.82082e-12
-0.00940454
0.00963589
0.026322
-0.00236295
0.039995
0.0143897
-6.60643e-10
0.0600242
-0.0443741
-0.0266504
2.28385e-05
-0.000174068
-0.0566191
0.0821836
0
-0.0445752
-0.112088
0.109441
0.0450262
-0.0733052
0.0282765
0.024641
0.033701
0
0.0141247
-0.098885
0.001841
0.0810914
-1.78973e-12
-0.00424493
0.0279185
0.0180128
-0.0532118
0.0337311
-0.0618708
0.0686328
-0.152851
-0.107312
-2.02467e-234
-1.28951e-321
0.000114401
-0.0376749
-0.0219723
-7.71527e-06
3.15899e-05
0.0547946
-0.0158238
-7.97718e-05
-0.0541221
-7.71527e-06
0.00791052
0.0250384
-0.0658612
0.023356
0.0141292
-5.13422e-05
-0.0439752
0.00438896
-0.0417914
-0.074645
-0.00236646
0.0228326
0.090162
0.136951
0.0135101
0.0310211
0.0546802
-0.0143501
0.00262142
-0.047917
-0.00352486
0.0945591
-0.052642
0.0273684
-0.0247866
-1.39467e-247
-5.86556e-08
-6.45005e-07
-0.107943
-0.0452025
0.000395467
-0.0644038
-0.0421499
-0.0357326
0.0482988
-0.000174068
0.0181853
0.00135284
0.0306802
-0.0164343
0.0432982
-0.0145148
6.76831e-06
-0.0493841
-0.0331236
0.000395459
-0.0706605
0.0304859
0
-0.0089059
-0.000128798
0.0148172
0.0101686
4.27987e-05
0.0067306
0.0508219
-1.02933e-06
-0.0057264
-0.0188214
-0.0763577
3.93733e-05
-1.63792e-08
0.0268234
-4.82082e-12
0.0268234
-0.0687612
0
-0.0670293
0.17072
-0.0314989
-0.0170723
-3.86435e-230
0
0.0335364
-7.71527e-06
0.0631981
-1.67982e-321
-0.0382744
3.28179e-08
-1.02933e-06
0.0102983
0.00897759
-1.24563e-11
0.10637
2.30864e-130
-9.57929e-07
7.16382e-07
-0.0584462
0.318265
0.0471755
2.26979e-09
0.0531227
-3.60708e-05
-0.000272382
-0.089
-0.0734302
-0.0678769
-0.0167822
-0.0303077
0.00111328
-0.137103
0.0128063
-0.0087025
-4.45715e-05
-6.04747e-08
-0.00706767
-0.00775915
0.0363967
0.0752209
-0.145122
-0.00615215
-6.27505e-09
-1.82331e-07
-0.0817509
0.0186603
-7.71527e-06
0.0186299
0.0191031
0.00900795
-0.0201325
-0.101797
-0.0379765
-0.0476082
-0.170464
0.013779
0.00121389
0
-0.0613518
0.0582688
-0.0181641
0.0555586
0.105687
0.114274
0.0131234
0.011646
0.0173224
-0.00906751
-0.0277822
0.000294208
0.0265132
-1.33909e-08
0.0113016
-4.82082e-12
-0.0659619
-1.4822e-321
0.0177696
-0.0117569
0.239393
-0.000170823
0.0476424
-0.146687
0.242103
-4.03669e-08
-1.14255e-13
0.0484316
-0.0677425
-0.00352486
0.0040157
-6.04214e-12
0
-6.83708e-11
-0.0677811
0.0482981
0.000135066
0.0440878
0.133878
-0.0394168
-0.0536071
-2.40422e-06
-7.71527e-06
0
7.28125e-143
1.18431e-05
-0.0401822
0.00896487
-1.8999e-247
-0.0379362
0.0128487
-7.56706e-10
-6.54548e-05
-0.0452025
0.111197
-0.000111893
-0.000125652
-0.0724492
0.0122097
-0.000160488
-0.0756259
0.0131234
0.0482988
-0.0076199
-6.65124e-10
-0.0421499
-1.36433e-05
-0.0288728
0.0107546
-0.103901
0.071192
0.00191292
-0.0636336
-0.0269241
-1.36433e-05
0.0970124
-0.00574054
0.00552664
-0.0133188
-0.0655578
-3.16211e-11
-2.74366e-11
-0.0395168
0.0835055
0.0359551
-0.000136703
0.00690308
-0.0579657
0
-0.127867
0
0
0.00141087
-0.000189497
0.0228326
0.000220115
-0.00478098
-0.0370042
0.0753768
0.000357475
-0.00292838
0.0775122
-0.0533633
-0.0444345
8.84714e-06
0.0123773
0.0656603
0
0.00784354
0.00601446
0.0521732
-0.00189538
0
-0.0952662
0.139587
0.0449984
-0.138884
0.013779
-0.0689783
-0.107558
0.0568073
-0.0135644
-1.19181e-06
-9.34522e-07
0.0078006
-4.49497e-12
0.0876914
-1.1801e-08
0.169367
-5.4868e-07
0.0281417
0.00220157
-3.18515e-07
-4.88219e-15
-1.78973e-12
-0.0298084
-0.0308341
-0.0379672
-0.0136574
0.000247224
-6.60643e-10
0.0378088
-0.0676705
-1.58984e-09
0.203832
0.0507853
0.0449676
0.0137425
-0.0368649
0.042295
0.0265096
0.0304859
0.00357411
-0.000119511
0.0605558
0.0213779
-6.79657e-06
0.189679
-0.012418
1.25023e-05
0.00395933
-0.0020335
-2.02467e-234
-0.0117684
0.0239196
-4.82082e-12
-0.142714
0.0243909
-2.32393e-05
-0.12994
0.0119597
-0.00352486
0.122056
-0.000339319
1.54606e-05
-0.113838
-0.153002
0.0688764
-0.000104293
-0.0471541
0.0114708
-0.0303184
-0.0126614
0.0112967
0.0668553
0.0102983
0.0029455
0.0588152
-0.0547347
0.203763
-1.24563e-11
0.0090407
-0.0439645
-0.0822558
-2.74366e-11
0.010476
0.0303585
0.00606156
0.242103
-0.113004
-1.05236e-321
0.108331
-0.0625392
-0.248294
0.332705
0.0150948
0.00526191
0.00842084
-0.0691211
-0.0684754
0.0122309
-1.28951e-321
-1.36433e-05
-2.32395e-05
0.0445244
-1.14255e-13
0.0737249
-1.78123e-06
0.0521253
0
-0.0648227
-0.0894523
0.0103567
-0.0750446
-0.0143501
-0.0561973
0.118946
-0.00733681
0
0.0482988
-9.00009e-06
0.0749759
0.0161935
0.0228326
-0.00236295
-0.0775724
-1.14255e-13
-0.0398485
-4.49497e-12
-0.152795
-0.0342047
0.00180522
-8.67502e-07
-0.0610087
0.029372
-9.00009e-06
0.10019
-0.000342905
0.0510941
0.1242
-4.66045e-05
0.0376693
-0.0983346
0.0315498
-0.0267409
-0.074659
0.0340247
0.0102444
-0.0135691
-0.0212691
-0.0382744
-0.00452749
-0.0254908
0.0131234
0.0228326
-0.12241
-0.166389
0
-0.00564555
0.0548007
-0.0288728
-0.000290926
-0.0526801
5.39969e-05
-5.82524e-05
-0.0401738
-0.139739
0.00601446
-9.34453e-07
0.0379397
-0.0360816
0.00286043
0
-0.00268918
0.0184263
-0.16532
0.258056
-7.15186e-06
-0.00525695
0.0259296
0.0587607
0.0866377
-1.14255e-13
0.0125155
0.0128487
0.0205098
-0.0350984
0.0108705
-0.0955263
-0.0463285
0.0155353
-2.76677e-322
0.00606156
0.152723
0.0165858
-1.16779e-08
0.0198136
-0.0768341
0.0284643
-1.19564e-321
-6.54548e-05
-2.97535e-05
-0.101369
-0.00574719
-0.00525695
-1.58984e-09
-1.36433e-05
-9.30576e-05
1.54606e-05
-0.00749567
0.0460511
-1.09511e-06
0.0211447
2.906e-08
-0.0538018
0.029328
0.0270038
-6.60643e-10
0.0252583
0
-4.12655e-09
-0.0242701
0.0585203
-0.00525695
-0.0849674
-0.0763577
-4.15024e-248
0.233881
-0.0360486
0.0334979
0.0659244
-0.0743798
-0.0943162
-2.48369e-14
-0.0476167
-0.0285427
-0.165915
-0.064269
-4.5681e-09
0.0527593
0.0119608
0.0207208
0.00163249
-0.0633145
0.0682484
-0.0781823
0.0326879
7.28125e-143
-0.00587209
-0.0580367
-0.0962989
-0.0434629
0.0119608
-0.151606
0.00178198
-1.97901e-07
-5.22593e-07
-0.0253063
-7.56706e-10
-0.0286825
0.0228777
-0.0182801
0.00953207
-6.79657e-06
0
-3.30302e-07
0.0126416
-0.107127
0.00393716
0.0304859
7.41296e-06
0.0070473
-0.00189538
0.0392025
-0.0392379
0.0648147
0.0218891
0.32746
0
0.000220115
0.0173176
1.18452e-237
0.0135778
0.0112354
0.0362409
-0.0120069
-0.257387
0.0275219
0.0489116
0.0362409
-0.0899312
-0.0353825
0.0963424
0.0319817
-0.0357326
-0.0143501
-0.0759272
0.834762
0.0261731
-0.193401
0.0277033
-0.0837986
-0.00648351
0.00953207
0.0102983
-0.0208633
0.0840476
-0.00193691
0
0.0711083
-0.00403882
0.0450681
0.0139071
0.006539
-0.0245303
-0.000171327
0.0218891
-0.0164441
-0.0433405
-8.78469e-07
-0.044267
-0.0260804
0
0.0671302
-0.213339
0.010894
0.183433
0.0100897
-0.0202782
-0.0955677
0.0528129
-0.0890823
-4.15024e-248
-0.0225073
-0.0905787
-0.0280546
-0.0184551
-0.074659
5.32444e-07
0.114778
-0.122232
-0.0572258
0.0183689
-0.0334013
-5.59202e-07
-0.0369554
0.0350125
-0.153176
-0.0348083
0.0944069
-5.57755e-16
0.074375
1.14102e-06
0.0706981
2.28385e-05
5.38832e-129
-0.00931464
0
-0.0604337
-8.67502e-07
0.0208347
-3.83141e-14
-0.280497
9.30136e-05
-0.0983101
-0.0287705
-4.82082e-12
0
0.0421116
-2.69362e-07
0.0378088
-0.138114
0.0909399
0.031275
0.056305
0.0100897
-0.000160488
-0.013032
-0.0182299
-1.05687e-13
-5.53354e-322
-1.0951e-06
-7.71527e-06
-0.0239124
-0.00649195
0.1421
-0.0225753
0.0507851
0.00108834
-1.61819e-05
0.0623335
-2.32393e-05
0.0401917
0.138179
-0.0242701
-0.0198227
0.0898905
0.0610513
5.53503e-06
0.0334274
-0.044267
-1.78973e-12
-0.000152138
0.00180383
-0.0540335
-1.76755e-05
0.00956718
0.00878957
-1.66104e-08
0.00552664
0.00327877
-0.0292331
0.115533
-1.78973e-12
-9.58452e-06
-0.000175046
0.0558005
-0.000111893
0.00953207
-0.0119989
0.0373209
2.2212e-130
-5.13422e-05
-1.90944e-05
-1.24563e-11
0.0090407
0.013816
-0.145577
0.0244283
-0.104682
0.00953207
-0.00186148
-0.000188485
-0.0602027
-0.0267409
0.0448397
6.93481e-142
-0.031132
0.000922715
0.0811137
0.00166153
0.0524713
0
0.00409134
0.120584
0.0825007
-0.0352056
0.0304859
-0.0334013
0.0340317
0.107658
-0.0251877
-0.0869328
0.0199742
0.00566427
0.0264623
0.0139051
0.0019847
-0.138974
-0.000345377
0.0634517
-0.000301918
-7.71527e-06
-0.00180617
0.0217013
-7.83079e-05
-0.0131962
0.0443026
0.0712078
0.0432982
-1.76844e-07
0.0199375
0.0209428
-0.00733681
-0.0859286
-0.0223209
0.0563289
0.00356766
1.14102e-06
0.0345625
0.143013
0.0494613
-0.00845706
0.0301594
0.00417189
-0.0862513
-0.00733681
0.047212
0.0228326
-3.11261e-322
0.0217776
-0.0890863
0.0473384
0.0168698
-0.0824942
-2.17451e-08
0.0287119
0.037737
0.0675393
-4.67684e-235
-0.0110842
-0.0975148
-0.0349172
0
0.0200924
0.24734
-0.0624761
-0.0538755
0.0438929
-0.0695962
0.0623053
-1.97915e-05
-0.0160057
-1.92895e-05
-0.0271361
-7.69007e-05
-0.0191618
-0.0578973
0.0328711
-1.00261e-09
0.0937544
0.00617314
-8.59008e-05
0.048937
0.00592516
0.0262862
-5.77661e-06
0.0118146
0.00620285
4.27861e-06
0.00285416
0.00324757
-0.115652
-0.0267409
-0.0211746
0.0431327
-0.000158278
0.0447382
0.0482973
-3.18128e-09
0.00953207
0.000731085
-0.0433405
-8.67502e-07
-4.65095e-09
-0.064947
-7.71527e-06
-8.84895e-05
0.000190483
0.031561
0.0401917
0.034102
0.0540059
-0.0118644
0.0277033
1.54597e-05
-1.39831e-06
-0.0591405
0.207771
0.0174302
-0.017978
-1.20477e-08
-0.0368649
-0.137833
-0.128983
0
0.051414
-0.0117684
-0.0230381
-0.0119676
-2.29203e-10
-0.0736882
0.0189815
8.84714e-06
0.00249995
0.00357905
0
-0.000109207
0.330112
-0.0381011
0.000474228
-0.123965
0.0209428
-0.00291879
0
0.159468
-0.00525695
0.0484129
-0.0180591
0.0209428
0.0124383
-0.081987
-0.0737209
0.147109
0.00294154
0.096913
-0.0867195
0.0567408
-5.57755e-16
-0.00907098
-0.0370877
-0.000121799
-0.00313633
0.0373209
0.000810282
0.0182555
0.00259814
0.125059
-0.000189497
0.0239196
0.00953207
-0.0239252
-0.0376251
0
-0.0554873
0.00900795
0.0319817
-0.0165897
-4.70588e-14
-0.000342905
0.0273257
0.129325
0.0522928
0.0131234
-1.7813e-06
0.0262862
-3.86757e-05
-5.35632e-06
-0.101334
-0.0198873
0.0119608
-3.8649e-07
-1.24563e-11
0.0911217
-1.36433e-05
-0.0621236
-3.83141e-14
0.00141816
-0.238994
0.0757329
-1.14255e-13
-0.0273637
6.76831e-06
0
0.157623
0.002666
0.0390053
-2.02467e-234
-0.0853786
-4.57103e-05
-5.82524e-05
-0.0365614
0.0279506
0.0382929
0.0482988
-3.11261e-322
0.125457
0.0445244
-0.0130812
0.038939
-0.0417919
-3.47386e-11
0.0769217
7.28125e-143
0
-0.0477522
-0.0572456
2.10595e-217
0.185033
-0.028084
-0.139133
-0.0452854
0.017782
-0.00178427
-0.05535
7.28125e-143
1.16498e-05
-0.0378001
0.00235356
7.28125e-143
0.000810282
-1.25171e-07
0.0192613
-0.036874
0.0659244
0.0304858
0.199952
-0.0287445
0.00208234
-1.19181e-06
-0.0110397
-0.0518243
0.105263
0.0686096
-0.162138
-1.69465e-321
0.06516
-0.000266768
-0.025731
0.00562949
-0.0964223
-0.10315
0.00646961
-0.0232179
-7.41098e-323
-3.29704e-07
-0.0386583
0.00261929
-0.013884
0.0378088
-3.11261e-322
0.0112343
4.0092e-140
-0.33131
0
-9.65911e-07
0.0113016
3.25198e-07
-7.71527e-06
-0.0274482
-7.53681e-09
0.0147665
0.0090629
0.120798
0.0366754
0.0867065
-0.056946
0.076709
-0.034453
-0.0208932
0.0457495
0.00161885
0.047212
0.0432717
-0.0313503
0.00953207
0.0020202
-0.003364
-1.28951e-321
-4.42274e-09
0.0507801
0.00352531
0.00953207
-1.79526e-06
-3.11261e-322
0.0456313
0.0328752
0.0507277
0.00178198
-0.000831743
-2.97555e-05
0.0333936
3.61541e-05
5.38832e-129
-0.0165897
0.000114401
-0.0405141
0.0693501
0.0538677
-0.0717999
-0.0284833
0.0211452
0.0310635
0.212374
-0.0135691
0.116176
-0.0554637
-6.12562e-05
0.00597214
0.172485
0.0442414
-0.0135644
-0.0750774
0
0.0352971
0.0299425
-0.0735435
-8.56966e-06
0.0194521
0.0020583
0.0319507
0.00640517
0.013726
0.024276
0.0698206
0
-0.137382
0.0331355
-0.118895
0.0321287
-7.71527e-06
0.0266636
0.0238141
0.0824001
8.09666e-238
0.0103567
-0.0293833
-0.0559626
0.0272791
-0.0921898
-0.247778
-0.0456876
-0.194791
0
-0.000301918
-0.000139232
-0.0258553
-1.82331e-07
-0.00525695
0.0619245
0.00968709
-0.0520404
-7.97718e-05
2.38445e-08
-0.000539313
-0.0104972
0.0220688
0.0522614
0.0691345
0.0503378
-0.0162532
-0.00525695
0.195354
-0.00352486
0.0378088
-0.0252732
0.00601446
0.0169175
0.00178198
-0.000342905
-0.0357467
-0.000111664
-0.0352775
-0.0598808
0
0.00606156
-0.0407299
0.0228326
-1.78973e-12
0
0.0186819
0.0378088
-0.0703023
0.00222995
-0.0287705
-0.126706
0.124573
-0.00231169
0.0149554
-1.24563e-11
-0.0314936
-0.0952662
0.00953207
-0.0768422
0.016631
-5.7144e-06
-0.140828
-0.0347841
-1.14255e-13
-1.76844e-07
-0.0823305
-0.0449218
6.76831e-06
0.0377657
-0.0159286
-7.31916e-11
-6.05131e-06
-0.000111893
0.00741285
0.00592516
-1.97915e-05
0.00507366
0.0649833
-0.0642586
0.0137425
-6.65124e-10
0.0197752
-0.0816383
-0.0181294
0.00224777
0.131211
-1.8999e-247
-0.137619
-1.78973e-12
0.1562
-0.0177934
0.0821945
-0.0855897
-1.14255e-13
-0.0379362
-5.62413e-06
0.0013946
-0.017978
-0.000158278
-3.18515e-07
-0.0914296
0.00285824
0.133212
0.0164687
0.0557134
0.00112116
-0.0300789
-7.71527e-06
-0.0549352
-0.0955263
0.00843268
0.0491791
-9.00009e-06
-0.0160204
-1.02933e-06
0.0310327
0.0556009
0.0318451
0.0021853
-5.35632e-06
-6.48352e-08
0.0260581
0.00220157
-0.00797129
0.0882465
-0.0578973
-7.71527e-06
0.13921
0.000124351
-1.32659e-05
-0.0192902
-0.0481247
-0.0139473
-0.0376781
-0.00211591
2.30864e-130
-0.0702763
0.0218891
0
0.00141087
-0.032011
-0.0890863
0.00722231
-0.0300288
0.204393
0.0707722
0.0341134
-0.0283481
0.0421452
-1.23465e-08
-0.0915981
-0.0830683
-0.0218325
7.16382e-07
0.0610309
0.00640517
-7.71527e-06
-0.0145148
-6.45005e-07
0.0132379
-0.0554668
-0.00236295
0.000506739
0.090155
0.0333001
0.115639
0.0150948
-0.000108806
-0.00419212
0.0139414
0.469119
6.93481e-142
-5.35632e-06
0.00592516
0.0428028
0.00163249
-0.0169616
0.0890174
-5.02439e-05
-0.00155046
-0.103468
-3.83141e-14
-0.03364
-1.28951e-321
0.0584839
2.54471e-05
0.0512067
-0.174377
-0.0223642
0.10875
-0.110999
-0.0280546
0.0391912
0.00953207
-1.69465e-321
-0.0381968
-5.4868e-07
-9.00009e-06
0.00133464
0.00075519
-0.0480158
-0.0732787
0.0268763
0.00316773
0.016631
-0.0630285
-0.00200332
-0.0684754
0.0900449
-3.98283e-05
-0.0584462
0.0378088
-3.80216e-06
0.0254465
-0.000171602
-0.0280546
-0.0533331
0.00842084
0.0186819
-0.0845392
0.106275
-0.0483568
0.0378088
-1.67173e-07
0.011646
-7.71527e-06
-9.00009e-06
0.00956718
-0.0215468
-3.14036e-09
0.0499217
0.035765
0
-5.62413e-06
-0.000260755
0.00601446
-0.102396
-1.78973e-12
0.103663
7.28125e-143
0.0622199
-0.0750774
-0.0157575
-0.0243658
0.00507525
4.69186e-133
0.00261929
0.0128582
0.00956718
-7.71527e-06
-0.0340054
0.0619671
-0.0180591
0.0624123
-6.45005e-07
0.0499216
-0.000117765
0
-0.0449218
0.00728098
-0.0362084
-0.0348806
0.000378151
0.189174
0.00180594
-0.013543
0.00173174
-0.0192656
0.174252
-1.28192e-07
-0.0613694
3.91204e-140
0.0484487
-7.00829e-15
-0.142769
0.0434316
-2.03608e-05
7.82758e-05
-0.0602221
0.00553884
-0.000860399
-0.085752
-7.59683e-05
-2.03608e-05
0.0430708
0.0150948
-7.71527e-06
0.0268072
-1.1801e-08
0
-8.28514e-05
0.150438
-0.000111895
-7.71527e-06
-0.000651111
-0.00013967
-0.0928332
-0.0344074
-3.12183e-05
0.1026
0.0740436
0.114433
0.000567847
-0.199064
0.070259
-0.0572456
-6.79657e-06
0.00953207
-0.0575354
0.047212
-0.0131932
-9.53547e-322
0.132069
1.18452e-237
0.0198236
-0.000127121
1.02989e-05
-7.71527e-06
-5.57755e-16
-0.139962
-0.0642586
0.0242065
0.0243059
-0.00619182
0.0150948
0.0150948
-0.0267409
0.00243311
0.0260003
0.0218302
0.0763707
2.28385e-05
0.109732
-7.71527e-06
-0.000141581
-0.104199
0.0663365
-0.115021
-0.118971
-0.0723912
0.0770971
-9.34453e-07
-0.106734
-3.83141e-14
-0.0567704
-0.212373
0.0204575
-0.0280546
0.000977893
6.83416e-06
0.0921314
-3.5068e-07
0.000721467
0.0277033
0.000465438
0.00227925
-0.082564
5.38832e-129
-0.0343916
-0.0349172
-0.00525695
0.00286043
0.0583029
-0.0285378
-0.00864117
0.0591522
-0.0160057
-0.021147
-0.0116835
7.28125e-143
-0.00438661
7.28125e-143
0.0479092
0.0763635
-0.0339672
0.0359732
0.00160861
0.0341219
0.022069
-0.00521811
-1.93863e-06
-0.0195854
-0.0326344
-0.00628311
-0.206474
0.000933573
0.0274332
0.0100566
0.00941095
-0.0578973
0.0643888
-0.0216281
-0.0436833
-1.20477e-08
0.00686133
0.0270038
-0.0347651
-0.0195863
0.0213779
-0.000108806
-0.0362706
-1.34386e-321
0.0353886
-0.028515
3.47535e-06
-0.0118644
0
-0.0285065
-0.0283379
-0.00264191
0.0277941
-3.83141e-14
0.00592516
0.00840395
-3.12183e-05
-4.22008e-05
0.00733818
0.0429829
-8.12355e-06
-6.90565e-05
-0.0139473
-0.15598
-0.0229837
0.00601446
0.00560529
0.0198236
0.0267108
-0.000245341
-0.00438661
0.0563289
-7.83073e-05
0.037785
-2.00289e-06
-0.0196615
-0.0452854
-5.8261e-05
0.0239196
8.10038e-06
-8.5374e-06
-9.53547e-322
0.0855111
-0.0160837
-0.0573826
0.0314231
-4.13343e-05
0.0275233
-0.0269196
0.0157425
-0.0202193
0.0151775
-5.02439e-05
-0.0136617
-1.97901e-07
-1.69465e-321
-0.0720127
-4.03669e-08
-0.0454053
0.0161326
-0.000344844
-1.14255e-13
-0.0211296
0
-0.0267409
0.000101007
0.0348879
-0.000262427
0.0112212
-2.91352e-07
0.0527385
0
0.00285824
-0.00907098
0.0204172
-0.0869328
-0.0528357
-0.0314989
-0.0632274
0.00526191
0.00552608
-0.0145148
0.0547946
-0.0806503
0.313771
0.0231557
0.011646
0.0126416
0.00674589
-1.36433e-05
0.0184489
0.129601
-0.11778
0.000114401
5.38832e-129
-0.227524
-0.138427
0.00435967
0.0227953
0.00900795
-0.0947041
-4.03717e-08
0.00178198
0
0
-0.0903193
0.0280609
0.048272
-0.0385957
5.90053e-05
6.98461e-05
-0.0069714
6.98461e-05
-1.19564e-321
0.0279506
-0.068731
0.136765
-0.0365614
-0.0454626
0.0231893
-0.155737
0.0254519
0.0197252
-0.108409
-0.0172658
0.008468
-0.108663
0.049269
-0.0342047
0.0277033
-7.80736e-06
0.00261929
-0.000158278
-3.11261e-322
-0.0415449
0.0307537
-0.0514173
-0.0466487
0.022262
0.0114064
0.0268771
-5.57755e-16
-9.16988e-10
-0.0928506
0.129844
0.008468
-2.29203e-10
-0.0164441
0.0168537
-0.283625
0.0491996
0.00325371
0.0463484
0.0570133
-0.0273648
0.0103567
0.0665711
-0.0139473
0
-0.00010244
-0.0747617
-1.89857e-08
0.0491635
0.0137425
-0.00431816
-0.0135713
-0.0288728
-0.0115953
-0.000342905
-0.0585195
-0.0196367
-0.0099351
-0.0348083
0.202695
-0.0330158
0.000180868
-1.5316e-321
-0.0863204
-4.65095e-09
-1.78973e-12
0.0157578
0.247388
0.143855
0.0171947
-0.000112018
0.0405943
-0.124296
0.38093
-1.65931e-10
-1.78123e-06
0.223756
-0.00525695
-4.82082e-12
0.0131137
-1.05687e-13
0.156609
0.318327
0.0566242
-0.00539618
-0.0602221
0.0460961
-0.0182763
-0.052282
9.66003e-05
8.10038e-06
-0.0876658
0.0499216
-0.221115
-0.238136
0.00592516
-7.71527e-06
-1.66104e-08
-0.0846034
-0.0444345
-6.04214e-12
-0.0533331
0.00640517
-0.561397
0.0793895
0.00241038
0.0224199
-0.0716507
0.0723733
0.0125136
-0.0286929
-0.128731
-1.28192e-07
-4.1021e-05
0.153417
-0.0968482
-0.0457213
0.00321404
-0.000176085
-0.0023701
-0.0084662
0.0150948
-0.0236309
-0.00236295
0.0218891
-0.0191626
-0.0481247
0.000220328
-0.0467147
0.151346
0.0729842
-0.0758401
-8.54664e-06
0.00043445
-0.0603393
0.00872398
-0.000167784
-0.0222032
-7.71527e-06
-0.043699
0.00412164
0.200957
0.0535523
0.0198136
0.0558005
-0.0143501
0
0
-0.0992262
0.0259169
-0.0855897
0.00178198
-3.85371e-322
-7.24512e-05
-0.00236295
0.0151581
0.0344352
-0.0283663
0.0443026
0.0203406
-0.140839
-0.115862
-0.0362706
-1.24563e-11
-6.04214e-12
0.0250385
-0.0159239
-0.0435602
0.018714
-0.0578973
0.002666
-0.000201905
-0.0939324
-0.0362366
-0.0197528
-4.03669e-08
2.5669e-05
-0.0450926
-0.0600895
-4.15024e-248
0.0308771
-0.088821
0.0137702
-0.0306203
-8.79367e-14
0.437342
0.0173176
0.0207208
6.76831e-06
-0.0642665
0.0362409
0.202944
-7.10085e-05
0.0388021
-1.69959e-321
0.0184263
-1.77761e-07
-3.29475e-07
-0.0476082
0.00639938
-6.12562e-05
0.0719397
0.0916703
0.0135748
6.93481e-142
-0.000160488
-0.0413425
0.318265
-0.0257208
0.00294654
0.0551901
-2.56435e-05
-6.48352e-08
-0.157378
-3.98283e-05
-0.074659
0.027922
0.177092
0.13711
-9.65911e-07
0.0346169
0.0150948
-0.0280325
0.0140146
0.0113685
0.000480684
-0.0187259
1.48974e-05
-6.38605e-05
1.14102e-06
0.115617
0.0416215
0.0966171
-0.0317989
0.00256012
0.0628412
-0.0183838
-0.32677
0.0114708
0.0090393
-2.03608e-05
0.018714
-1.28951e-321
-0.036972
0.0268763
-5.57755e-16
-3.29704e-07
-1.14255e-13
-0.0587189
-0.0064865
-1.42401e-06
3.93733e-05
-9.16988e-10
-1.39467e-247
-6.12562e-05
-0.000111893
0.0418137
-0.0199832
-0.0116461
-1.97901e-07
0.0203042
0.00261929
0.0163895
0.0441416
0.0104776
0.221452
-0.099514
0.0139414
-1.78973e-12
-0.0764599
0.000724345
0.0261116
-7.71527e-06
0.0332575
-9.65911e-07
0.0438929
0.167856
0.00357411
0.0716464
-0.0964223
0.0577785
-1.58984e-09
-2.03639e-05
-0.0642665
-1.11165e-321
-0.0637285
-8.79367e-14
0.0491211
0.00601446
0.115938
0.0684023
-0.0673217
0.00285824
0.0747123
-6.54548e-05
-0.00438661
-0.17795
0.0150948
-0.0138791
-0.0131631
-0.0257681
0.0168126
-0.109045
5.53503e-06
-0.297921
0.192646
-0.0280325
-0.0260804
-0.0312336
0.0131234
-0.00931464
0.0378345
-0.0250848
-0.000200051
-0.0259069
-0.039367
0.108403
0.0273257
-7.00829e-15
-2.37159e-247
-9.47464e-06
0.0240742
-0.0556371
-1.32659e-05
-0.153974
0.0659747
-1.14255e-13
-0.0645904
-0.101861
0.0103567
0.00768249
-0.0379362
0.180461
-2.03639e-05
-0.150413
-1.14255e-13
0.0576669
-0.0461933
-0.048915
-0.00525695
0.0432982
0.0687591
0.0873842
-1.19564e-321
4.8989e-140
-0.194611
0.0362792
-7.71527e-06
-1.71863e-12
-0.0713177
-4.67684e-235
1.97717e-07
0.0131234
-9.53547e-322
0.000247224
5.17454e-05
-0.0583204
0.139091
-3.47386e-11
-0.000111893
0.0362409
0.00164299
-0.0201776
0
0.0366754
-9.58452e-06
-3.27571e-15
-1.00261e-09
-0.0286929
0.0978072
-9.00009e-06
-0.0554668
0.0132181
7.28125e-143
0.0230345
7.28125e-143
0.00953207
0.00108919
0.329884
-1.45939e-07
-2.02467e-234
-0.077852
0.0356475
0.0422743
0.0186015
0.00227878
-0.0162532
0.104259
-1.07895e-08
-7.97718e-05
-0.0297063
0.00407704
-0.00525695
0.00397598
-9.16988e-10
-3.83141e-14
0.0461823
-0.0401078
-1.14255e-13
-3.31559e-06
0.0114787
-3.30302e-07
-9.07813e-07
-0.0300789
-0.034453
-6.45005e-07
-2.2864e-06
-0.129227
-9.14617e-06
-1.97901e-07
-1.5316e-321
-1.8999e-247
-9.58452e-06
0.0944255
0.170082
-0.0359587
-0.020344
-2.68485e-07
-0.19527
-0.00525695
-0.00525695
0.042284
0.0615126
0.0275219
0.00269862
-1.78973e-12
-6.92148e-07
-0.0144735
0.0322699
-0.044267
-0.00619182
-0.0514173
-0.0135644
0.0119166
-0.0135644
-6.04747e-08
-0.0612737
-0.023114
0.00674589
-3.11261e-322
0.0150948
0.0181853
-0.0686947
-0.00012169
-8.5374e-06
0.0428594
-0.0829339
-1.9964e-09
-0.111143
-1.82331e-07
-4.65095e-09
0.00163249
-0.064274
-2.6551e-231
-0.000111664
0.0725955
0.142676
-9.00009e-06
-8.79367e-14
-0.000149682
0.166444
0.0119973
-0.0303184
-0.04334
-0.0643093
-1.76844e-07
0.0186473
-0.000189497
0.0475491
1.91123e-139
-0.0642672
0.000114401
-1.4822e-321
0.215582
0
-1.92895e-05
-0.0254058
0.0468645
0.00651148
-0.0598244
0.0275219
-0.0771714
-0.146407
0.0239553
0.0331968
-1.14255e-13
0
0.0366754
0.0937835
-0.000102905
0.165408
0.0473384
-4.82082e-12
-0.00931464
-7.71527e-06
-0.0658779
-0.0267345
0
0.0131234
-1.39965e-06
0.0492982
0.0559135
-0.0232179
-1.14255e-13
-0.0350275
2.8159e-05
-3.68091e-08
-0.0454031
0.0136143
7.28125e-143
-0.0491945
-0.0313732
0.00643567
-0.191347
0.0421116
0.0101686
-0.140576
0.0920317
0.0507277
-0.00013967
-7.71527e-06
-1.83505e-05
0.0184299
7.28125e-143
0.000220115
0.0398987
0
0.139211
0.045497
-0.00310345
0.00606156
-0.0606522
-0.0279531
-4.12655e-09
0.00859179
-0.0260369
0.018714
0.0131234
-1.14255e-13
-0.031132
-0.102047
-0.1879
0.0218698
0.00896488
-0.0180591
0.0422748
0.00953207
-0.000167784
-0.0467147
-0.031132
-0.0438732
-4.97487e-05
0.489635
-0.00836906
0.0128487
0
-0.0267409
0.033701
-3.83141e-14
0.0554676
0.00043445
-1.78973e-12
0.0186674
-0.0143501
0.0266065
0.00953207
0.0153083
0.0575277
-4.55821e-05
-7.97718e-05
-0.0117569
-1.43279e-321
0.00859179
0.0219907
0.0272409
0.0398034
-0.0973242
0.0867421
0.0268763
0.115617
0.0211564
0.382244
-1.97901e-07
-0.0475809
-1.24563e-11
0.0113016
-1.25171e-07
-1.05945e-05
0.00953207
0.0343375
-0.0642918
-7.98925e-06
0.096875
-0.00525695
-1.58984e-09
-0.0173904
-0.0596594
-0.122216
0.0173959
-6.61163e-05
0.00676559
