0.0304058
0.00533533
0.0169436
3.68059e-05
0.0183498
0.0570992
0.0582754
5.73987e-08
-0.106472
0.0582754
1.25952e-05
1.29445e-321
-0.0748964
0
-0.0144507
-2.46241e-09
-0.0579985
0.000858356
0.0705666
-4.496e-322
0.061501
0.115944
0.364723
-7.88774e-12
-2.54428e-36
-0.0144507
0.175509
0.0717386
2.83921e-08
0.0693282
0.128118
7.61107e-06
-0.00203619
0.0117042
-0.00405917
-0.033215
-1.09443e-10
0.0199653
0.0314276
0
-0.0769861
-0.0625969
-8.31024e-11
0.00267852
0.102928
0.0284206
0.0717386
-0.218906
0.00369536
-7.28941e-15
-8.66165e-07
0
-8.14664e-11
-0.000812738
2.07508e-322
0.000541355
0.0137638
2.65938e-05
-4.254e-08
-5.2145e-12
0.00604011
0.131488
1.20058e-321
-0.0290926
5.58294e-322
-0.00842794
0.0191396
-0.0121915
-0.0892612
-0.00591888
-0.0359695
0.0422698
-0.0346304
-0.0277349
0.366205
0.046388
-0.00189453
0
4.75392e-06
-0.00796263
0.164458
-0.125469
2.51427e-05
0.0314545
-0.0980263
-0.300568
-0.0950712
-0.0480777
0.169084
-0.00842794
0.0121487
-0.0591045
-0.247403
0.000261482
0.0389289
-1.1654e-07
0.0803512
-0.055891
-8.00863e-07
-0.00927081
-8.14664e-11
0.00604011
-9.35152e-09
0.0744702
0.0079728
-0.0640575
-0.000931565
0.0141813
0.037911
0.0934133
0.000354857
1.16599e-321
0.00828629
-0.00759744
0.12959
3.30075e-13
-0.0201097
-2.1765e-06
0.0399191
0.106802
0.0757905
0.0134005
0.413004
-0.162397
0
0.0118379
0.00580814
0.0208966
-8.35262e-09
1.63892e-05
0
-0.0651932
-0.00361321
-0.170355
0.00110483
-0.0675552
-0.196734
0.000541355
-0.00798768
-0.0775033
0.051017
0.00200559
0.000285337
-0.145898
0.0178309
-0.120078
-0.0524324
6.81298e-05
-0.0236676
-0.0899192
-0.0435858
-0.0798397
0
-8.54995e-11
-0.280616
-0.033215
0.0541017
0.035689
0.0310603
-0.0749712
-0.0359093
-8.26155e-08
-0.115508
-0.0820148
0.00604011
-0.0268552
2.71736e-322
-4.29916e-07
6.94015e-07
-0.235548
0.0978951
-0.00215493
-5.08507e-272
-3.29819e-13
0.0224203
0.0522357
-0.000804022
-0.155195
0.00260823
-3.12309e-09
-8.14664e-11
-0.0224402
0.0444842
-0.0326142
-2.21456e-06
-8.42665e-10
-0.0316099
0.188501
-0.011583
-7.88774e-12
-0.0157668
0.121242
0.0789744
0.0137638
-0.161063
0.0220059
0.0423897
8.49811e-06
-2.59064e-06
-0.0280294
-0.146564
0.0505189
-7.76162e-59
0
0.0371674
0.00604011
0
0.106323
0.0635688
1.16599e-321
-4.94128e-08
-0.0452909
0.0445375
0.287338
0.304081
0.0582754
-0.0206036
-0.00261412
0.14198
0.00369536
-0.0888651
0.0316217
0.0286526
-1.46783e-06
3.00788e-111
-1.70956e-06
-0.050608
-0.182995
0.0186757
0.000541355
-0.325532
-1.5726e-06
-0.00841776
-0.03703
0.0780904
0.197632
0.0396924
-0.0748324
-4.47233e-16
-4.15043e-07
-0.0229404
-0.0281603
0
-0.0747821
-0.0652154
0.000298319
-1.52881e-06
0.0152491
-0.0950477
-2.44861e-06
0.0513128
-0.056252
0.000768985
-0.0136422
-0.0224402
0.000285337
-0.0745214
-0.0569153
-0.00541607
0.0175688
-1.20983e-06
-0.0449122
-3.65449e-08
0.00260823
-4.496e-322
-0.166214
-0.0201973
-0.0662439
-0.0474785
-0.0760854
-4.13334e-07
-0.00284375
-0.00725329
-0.0345091
-0.00429315
-0.00834173
-0.0404499
0.0169436
0.0506354
0.02957
-3.56524e-61
5.73987e-08
0.183315
-0.00576594
0
-0.00942309
0.0226477
5.53835e-05
-0.0625601
0.00539231
0.0124483
6.57089e-05
-0.00902265
-4.04369e-09
-0.0333217
0.0463623
-0.00545772
0.225551
-0.20827
0
-0.0467857
0.0222471
-0.136503
-2.1765e-06
-0.147569
0.14651
1.29445e-321
0
-0.00632906
0.000200302
0.00698287
0.0121215
1.36771e-07
-8.10004e-09
0.0114292
7.90505e-322
-2.21456e-06
0.100819
0.149018
-2.31324e-14
0.0175776
0.192777
0.145957
1.25745e-05
-0.0310977
-0.0849512
0.060458
-0.0982845
0
0.0854719
-0.0344648
0.0895087
1.75416e-06
-0.0346304
-0.0761924
-0.0465844
0.000128012
-0.0562417
-0.0740192
-0.0280647
5.69433e-05
-1.44853e-08
-0.142934
0.132995
0.00369536
-0.027322
-1.07603e-07
-0.0389271
0.0793072
-0.13206
-0.0614687
0.0109788
-0.0510265
-0.124559
0.0717386
0.0423612
-0.0277349
0.0444652
-1.81832e-06
-4.15043e-07
-0.170042
0.0284082
0.0220267
-0.136143
-1.97638e-07
4.33534e-07
0.0784408
-1.21046e-321
-0.0160013
-5.2145e-12
0.239126
-1.22065e-13
3.4777e-06
0.0718724
-0.019161
0.00604011
-0.0957673
-0.158226
-0.0142416
0.00604011
-0.112311
8.49811e-06
0.0591511
-1.3161e-14
-0.127699
0.0115113
-0.00974241
0.0500155
-1.10702e-14
-0.00284375
0.0846907
0.00604011
2.19355e-13
0.00209549
-0.0569153
-0.0156798
1.63892e-05
0.0238791
-0.114855
-1.70956e-06
-9.35152e-09
-0.0229389
0.2182
0.120054
0.000466784
-8.54995e-11
0.0273468
-7.76162e-59
-0.0188638
-0.0135107
-0.0408525
1.55213e-11
-3.56524e-61
-0.0339447
0.101851
-3.46966e-15
0
0.0320446
-0.00405917
-3.0319e-06
0.0933756
0.0182728
0.0134996
-3.54524e-07
-4.47233e-16
0.01482
0.000768985
0.0395314
-0.0590649
-0.0366636
-0.0179218
0.0258207
-0.0775035
2.66145e-05
0.0314545
0.0137638
0.0654561
-0.00223525
-0.057096
-0.0680775
0.063761
0.0603131
-0.011583
0
0.0165105
-1.44267e-321
-0.196106
0.096866
3.79894e-05
-0.027477
-0.027322
-0.0406548
0
1.16599e-321
0.00604011
-0.403058
-4.79139e-59
-5.0979e-12
0.0449092
-0.0239157
0.00369536
0.0157276
0.0124483
0.00775224
0.341422
0.0218088
0.0764643
0.0493647
0.0146439
0.0783573
-3.60522e-09
0.0211262
-0.0272479
0.00930212
-0.0413358
0.00193333
0.0299733
-0.0273235
-0.114737
-0.00512559
-0.416966
-0.0538906
0.0198447
0.0278936
-0.0634483
-6.47665e-59
-0.0785175
-2.70498e-06
0.0287225
0.239841
0.000541355
-0.0977887
-0.0921574
0.0533668
-0.00665383
-4.13334e-07
-0.021967
-1.15826e-07
-3.29819e-13
-0.010885
-0.0415527
1.16599e-321
0.0407721
0.180875
-0.0980263
-1.22065e-13
0.0124483
0.000613231
-1.03639e-11
-0.0077051
0.0142952
0.0129359
0.170402
0.0419842
0.00473689
-0.220694
-4.5022e-11
1.29164e-05
0.0434189
-1.22065e-13
-5.46148e-07
0.0177333
-0.210099
-0.0760822
0.000491943
5.96931e-05
0.0175569
-0.150255
3.68059e-05
0.0146439
-0.0438496
0.179346
0.0515413
-0.137832
1.29162e-05
-0.0410101
-0.0393671
-1.77494e-13
0.0312864
-3.04562e-08
-0.0741415
0.121957
-1.23115e-07
0.077052
-0.0658075
0.110029
0.0352455
-0.11288
-4.93132e-07
-0.269429
-0.0767402
-0.0452815
0.00404409
0.0569937
-0.353404
6.83352e-09
-0.195974
-0.0480174
0.000868559
2.06364e-08
-0.0464165
-0.109609
0.106429
0.292197
0.000294897
-3.22632e-07
0.00034743
2.30606e-06
-1.56576e-14
0.0208966
-0.0569153
0.00525695
-0.0321486
-0.00225441
0.11634
0.106813
0.00385505
-2.14712e-07
-0.0433105
-0.0406541
0.0196862
0.0320949
0.000123937
0.0200074
0.0595595
0.000438841
0.0292933
0.034975
0.0411921
-0.056861
0
-0.0130992
0.29852
6.45814e-13
0.0172402
0.00604011
-9.35152e-09
-1.85226e-07
-0.187773
1.77409e-06
0.103797
-2.54428e-36
-0.0294402
0.118723
0
0.00584619
-9.53133e-07
-0.278594
-0.0861633
0.00209246
-0.0890262
-0.125042
-0.0603966
-0.0166192
0.000553526
0.0875842
-0.0325413
-2.12103e-07
-0.0778294
-0.0922963
-4.28109e-07
-1.45078e-11
0.346646
-0.0115693
-0.00338796
0.0571266
-1.03639e-11
-0.131719
0.0774965
-0.027322
0
0.324808
0.0208966
-0.00927063
-8.31024e-11
0.000541355
0
-0.206719
0
-0.012287
0.388915
-0.0998223
0.0622086
-8.54995e-11
0.0580654
-0.00479837
0.0139772
-1.02323e-14
-1.70957e-06
0.0957801
0.0497898
-0.05005
0.00468959
-0.0299535
0.0316055
0.00819978
-7.88774e-12
0.0755861
0.00607221
0.0743414
-0.0853182
-0.0698941
0.000613231
-0.0211994
0.0232235
0.0267875
0.00685155
-0.0362996
0.0500654
-1.01699e-07
-0.0192031
0.0115113
0.0356989
-0.0549188
0.150703
-5.92618e-10
-0.0963902
-0.0406277
0.0601985
-1.50565e-10
-1.86658e-06
0.0169436
0.507878
-0.0120446
-5.59665e-15
0.100961
0
-1.23944e-06
-0.0326704
-0.0331137
0.141677
-0.0870321
0.0525697
0.235894
0.0229558
-3.64603e-06
-1.20983e-06
0.353642
-0.019106
-3.56524e-61
0.111405
-0.0120078
0.00604011
0.00635123
-1.89583e-08
-0.076733
-0.0794023
6.88886e-07
-0.127402
-4.85327e-08
0.0492257
-8.10004e-09
0.000541355
-0.0668828
0.108044
-0.00746518
0.0156012
-0.056239
0.00473562
-0.876333
-0.0707782
-1.7722e-11
1.16599e-321
0.0199653
-0.078771
0
0.261808
0.0114247
0.113315
-8.8872e-16
-0.00320114
-0.0645054
2.58658e-07
-0.0100828
0.0016336
-0.222887
-0.246481
0.141753
0
0.127765
-0.142648
-0.55392
0.304052
0.117853
-1.76761e-09
0.171022
0.0175569
0
5.05565e-11
0.0518314
4.94066e-324
-1.96405e-07
-0.00703517
0.0328639
0.00515268
0.0611515
-0.0366636
0.0562045
-0.0640575
3.09289e-12
-0.0188639
0.0182728
-1.52881e-06
0.0117042
-0.0225912
-0.0880715
5.96931e-05
-0.0693249
-0.00371773
0.245089
0
0.000768985
-0.00841776
-3.89873e-07
0.00725382
-2.10542e-06
-0.0216377
-0.0686717
0.0440823
0.0186131
-0.0260254
0.0747491
-0.011583
-0.0864161
0.0299733
-0.0236742
0
0.0816318
-9.35152e-09
0.00048574
-0.621445
-0.00902498
0.0528825
-0.0948475
-0.164263
-0.00902498
-0.0419512
-0.00964844
-0.0518322
0.362434
-0.052827
-0.0362057
-0.0269114
0.0311703
-8.54995e-11
-0.0264277
-8.9945e-61
8.80088e-10
0.00604011
0.112291
-0.366359
0.00580987
-1.80721e-08
-0.00842794
0.0175569
9.25536e-10
0.000666752
0.120856
0.0336858
0.357336
0.291677
0.0278957
0.0456624
-0.0928233
0.0562778
2.8586e-05
-1.72248e-07
-1.20983e-06
-0.148645
0.12394
0.0439519
-0.0656893
-0.0383871
3.953e-08
0.00580987
-3.46966e-15
0.00883766
-0.0606924
0.0397804
0.0683041
-1.7723e-13
0.0196862
0.148271
0.0439885
0.0414034
0.0333967
0
-2.21456e-06
-0.0580174
-0.0536614
-5.87055e-13
-4.47233e-16
-0.00203619
0.0281352
-0.212043
0.0316166
-0.00541602
0.0079728
-0.0113104
0.0157276
-0.0709682
0.00580987
0
-0.0080014
-0.0749712
4.66919e-08
-0.373141
-0.0456845
-5.48434e-11
0.000541355
-1.01147e-06
0.0791573
0.0722175
0.0488873
0.0424907
-0.0312696
-0.0880987
-3.56524e-61
-0.0593762
0.00698287
1.25745e-05
-0.0588659
-0.185833
0.264911
-0.0285783
-0.0347487
0.0574937
-0.027322
-0.173102
0.000858356
8.03889e-06
0
0.139831
0.0131657
-0.0481899
-0.131719
-0.0433109
-0.030224
0.000143838
-0.0164921
-0.0201154
-2.25647e-57
-0.00770083
0.162285
0.00604011
-1.3161e-14
-2.12103e-07
-0.0114041
0.000768985
-2.46241e-09
-1.03639e-11
0.000465546
-0.056239
-0.00287861
-7.88774e-12
0.0806653
0.0334754
5.31966e-09
0.0238791
0.000229592
3.10355e-05
-8.54995e-11
0.0670956
0.0411921
-1.31421e-321
-5.40544e-09
-0.119018
-8.14664e-11
-6.03231e-14
-0.0504131
0.0264873
0.0338757
-0.126398
0.0943836
0.0143341
0.0156992
-0.000805578
5.73987e-08
0.0152491
-2.46241e-09
0.0613711
0.092661
0.0225986
0.0234512
0.00698287
8.49811e-06
-1.89583e-08
-2.89138e-14
-1.31421e-321
0.212181
1.79886e-06
-0.0143322
-0.012287
-4.94128e-08
5.99362e-05
-0.0226709
-1.60134e-13
-0.00992396
-2.25647e-06
1.57607e-321
0.00580857
-0.0083919
-0.00757748
-1.08639e-144
0
-1.21046e-321
0.117689
0.0494022
0.000402494
3.49687e-07
-2.6802e-09
0.0293535
0
0.0369834
-1.52881e-06
-2.64755e-06
-0.0169951
0.0427642
0.00600703
-0.0137363
-0.026855
-0.158183
-0.0472847
0.0580654
-2.76975e-10
-1.5726e-06
-0.0452928
-0.0502976
-0.072943
-0.269235
-0.0351958
-0.0147755
0.00604011
-0.0467949
0.0806654
-0.119902
-0.0623768
-5.45334e-09
-4.91111e-08
0.0859148
-4.94128e-08
-0.145869
0.0248862
0.0238791
-0.00725203
-1.1654e-07
-8.16768e-11
0.00485008
3.48079e-05
8.49811e-06
-0.0303172
0.101851
0.00604011
-0.0651932
0.0156012
3.97026e-08
-0.0142385
0.0156137
0
-0.00278938
-2.44861e-06
-5.35243e-09
-9.94651e-09
-0.0202525
0.000541355
8.64615e-322
0.10561
-4.74902e-15
-0.0501709
0.0569937
-1.45669e-08
-8.54995e-11
0.0903374
0.00604011
-0.0288258
0.00267852
0
-0.215357
0.00718027
-0.0575508
0.0976074
0.00718027
6.75433e-05
-0.130079
-0.0221186
6.4549e-06
-0.0301552
0.00485008
-8.92528e-10
-2.97148e-62
-0.0011046
8.6816e-13
-0.00284375
-0.000812277
1.22341e-05
-0.00902498
0.00533533
5.96931e-05
-3.65449e-08
-0.0445898
-0.000931565
-0.0655347
-0.0244159
-0.0269114
0.0524936
0.0352975
0.0188377
2.8704e-05
-0.00964844
0.0368418
0.0663503
-2.53925e-06
0.00260823
-0.39317
-0.011583
-8.31024e-11
-0.0467857
0.0580654
-0.0768317
2.72664e-05
-0.0900981
-0.0731103
-0.00405917
-0.0201986
0.235156
0.0292933
-0.0956642
0.0178287
-0.0120566
1.29445e-321
0.0812559
0.0431746
0.0597895
0.000541355
-0.0109566
0.142071
-0.0803336
-0.00545945
-0.0333837
2.8704e-05
-0.0777783
0.00604011
0.00604011
-3.18897e-12
-0.0313644
0.0136941
-0.00405917
0.00604011
-0.000866072
-0.067927
-5.0979e-12
0.06628
0.0675733
0.00229847
0.0842955
2.8704e-05
-0.0331137
1.16599e-321
0.0499732
-0.159148
-0.0372376
0.0552938
-4.63405e-13
0.00656775
0.0242535
-0.110012
-8.42665e-10
0.127069
-1.44853e-08
-0.0543106
-8.42665e-10
-6.03231e-14
-3.7065e-14
-0.0109355
0.000541355
-0.0852489
2.14515e-05
0.0804981
-7.65906e-08
-0.0636443
-0.0338055
2.33399e-224
0.244227
-2.21456e-06
0.081994
-0.00740695
0.0140103
0.00062295
0.0079728
-0.0246336
-1.89583e-08
0.0169436
0
-0.13487
0.0175569
0.0241879
-0.0303629
0.011365
-0.000231432
0.200956
-2.46241e-09
1.57104e-14
0.00796212
0.0408108
-1.3741e-11
0.00353878
0.00772601
0.0395156
-4.13334e-07
-1.97638e-07
-0.00964844
-0.00541602
-7.88774e-12
0.026938
1.66707e-09
0.0220267
0.0136592
2.67139e-175
-0.0112248
-0.110749
0.0397783
-1.22065e-13
-0.144551
0
0.0458958
-0.103258
0.0299733
0.0196835
0.127565
0.0222326
-0.0161867
0.07192
0.00353878
-3.60522e-09
-0.202147
0.0208601
0.0919079
0.0458958
0.0472304
0.0445472
0.000438823
-0.08821
0.120552
0.0273468
0.0157276
2.83072e-16
0.0104064
0.02732
-0.00401614
-0.0202899
0.0234537
-9.62355e-07
-1.21046e-321
0.00775235
0.0121215
0.0442639
1.16599e-321
-0.0688175
-0.0242713
0.0133739
-0.164652
0.0533668
-0.0688175
-0.301042
0.0329843
-0.134867
-0.0899331
-0.0718622
-0.0113356
-0.0153285
0.0705422
2.09299e-08
-0.013814
-1.509e-06
0.0221527
-2.9596e-62
0.0310588
-7.3886e-07
0.403779
0.261864
0.00436924
-0.0360725
-0.00284375
0.000216494
0.00978891
-0.00380344
0.0245012
-0.0142385
-0.0100828
-0.0100828
0.0378701
-0.00222643
0.270338
0.0275895
0.00501229
0.0976074
0.0776092
0.0316166
0.00501229
-0.056239
-0.175944
-0.0559385
-0.0351958
-5.46148e-07
-0.0533081
0.0617004
-0.0418223
-0.0765782
0.0400101
0.0109534
0.0987953
0.0238791
0.000203733
0.0580654
0.025665
0.118641
1.51152e-05
-0.0468021
-0.00166438
-0.0246319
0.088512
0.00193299
-0.0346304
0.00879582
-3.18897e-12
0.0861064
-0.0639028
0.0152823
-0.0350056
-2.46117e-06
0
0.0275939
-0.328949
0.0199653
0
0.123517
-0.0236692
0.12683
0.049274
0.0874074
9.68091e-05
-1.07054e-57
-0.0235298
-0.0443272
0.0161258
-0.150923
-0.0712571
0.0624775
0.0791789
0.0516397
1.25721e-05
-1.44727e-06
2.41967e-198
-0.0472847
-1.20222e-09
0.148744
-9.5067e-07
-0.0354447
-0.0715439
0.00036617
-3.61806e-13
-0.0127377
-0.038085
-0.0142416
0.00463721
-0.0600569
0.0474201
0.173325
-0.171717
0.000365337
-0.0610699
-0.00967159
-0.0164921
-0.0164921
-1.70956e-06
0.0276755
0.0220267
-0.0371687
-0.011583
-0.028795
1.16599e-321
-7.28689e-15
0.0127868
-0.010818
-8.54995e-11
0.00334751
-0.0898479
-0.135501
-0.0564429
-0.0650839
0.00572113
0.0771876
-0.040027
0.0987953
-4.51199e-16
2.06364e-08
-0.195041
0.177263
0.0182856
-0.117841
0.0333967
0.261963
0.0963291
0.0287225
-0.10873
0.0161508
-0.128682
-0.010885
0.00525695
0.114208
-0.0640575
-0.0590649
0.0220267
-0.0463103
-2.99999e-11
-1.77494e-13
3.30075e-13
-8.54995e-11
0.129327
-0.0188613
-0.0772558
0.0172372
-4.94128e-08
-0.00748523
0.0143497
-0.505485
1.29445e-321
0.0225226
-0.209171
-3.46966e-15
0.0419842
0.0323762
0.221721
-0.0628284
-2.09575e-190
-0.0057936
-0.0309195
0.0333967
0.0668002
0.00567487
-0.0441773
0.00842112
0.163634
0.0183498
0.00534848
0.00604011
-0.0453077
0
-0.0655347
8.46765e-06
0.0535916
0.0363143
4.93804e-05
0.000234218
0.00604011
-0.0794108
0.0214454
-8.31024e-11
0.00604011
-0.00902498
-0.196554
-0.00223525
-0.149819
3.68059e-05
-8.31024e-11
0.190495
0.177184
0.00762087
-0.0245098
-0.0235952
-0.0838272
-0.0471847
-9.5067e-07
1.98131e-13
0.000296006
0.0717386
-0.0187597
-0.090281
3.26208e-09
0.0381777
0.000613231
-1.03639e-11
-0.00201213
0.0124483
-1.89583e-08
-0.056239
0.0221617
-2.09607e-06
-1.97638e-07
0.000184221
0
-0.0889945
6.75433e-05
0
-1.67766e-06
7.897e-05
0.0958249
0.0111865
-0.0971871
0.0109534
0.0276755
0.0169436
-0.0780357
0.23174
-0.14326
-0.00380344
-1.50785e-07
0.0189148
-0.176892
-0.0145797
-0.0711171
0.00616405
6.75433e-05
0.117017
0.0502469
-9.35152e-09
-0.00618591
-1.50565e-10
-5.11157e-09
0
0.0316221
1.79886e-06
-0.074454
-0.154457
-0.0518871
-0.190203
0.0169436
-1.3161e-14
-0.00319018
-0.0100828
0.02957
-2.21456e-06
-0.0221186
0.115687
0.107961
0.416231
-1.17513e-57
-0.0658075
-0.00146841
-0.104823
0.0295044
-1.00636e-07
-4.94145e-08
0.013829
0.00285868
0.0969283
-2.11393e-10
0.000117958
-2.31324e-14
0.000622222
-0.069517
-7.01455e-07
0.0160627
-0.109381
0.0445847
0.0396384
0.00525695
-0.202165
-0.0145324
6.88886e-07
-1.08639e-144
-0.0514864
-0.00203619
0.00772601
0.0252514
-0.199229
-0.00380344
0.0638794
-0.00927063
-0.0467246
-0.0387104
-0.0852489
0.00699597
-0.0144509
-0.04986
-0.0662439
0.0582753
0.000261482
0.00369536
0.080886
-0.0122937
-0.030224
0.0285912
0.0674093
0.191748
0.0334754
-4.63405e-13
0.111264
-0.0629581
-5.88227e-09
-4.47233e-16
0.171476
-2.82501e-07
-0.0817849
-0.0632597
0.0146439
-0.0209944
-8.70893e-07
-1.89583e-08
-1.52882e-06
2.50571e-05
0.00113355
0.0980606
0.0196846
0.000437712
0.0704304
0.00773133
-0.0898479
0.0169436
0.274705
-0.655185
-0.0632848
4.60494e-05
0.0680805
0.000983527
-0.068043
-0.012261
-0.0344126
-3.60522e-09
-2.46241e-09
-7.96179e-11
-0.0680775
0.103391
-0.0480182
0.0057421
0.0338603
0.103578
0.00501229
-0.0800233
-0.054845
-2.46241e-09
0.00604011
0.0148202
5.96931e-05
2.65938e-05
2.65938e-05
-0.126725
-0.0504585
-0.0302514
0.0594877
2.83921e-08
0.0320949
0.0386828
-8.54995e-11
0.165005
0.0478105
-0.00204362
-0.0362363
-0.00222643
-0.0452586
0.046581
6.53507e-05
0.019708
-2.62177e-78
-0.0515568
0.0894883
-0.14163
0.0368418
-1.74089e-06
0.196032
0.0373261
-0.0100828
-1.18184e-08
-0.0379061
0.0214497
1.25745e-05
0.470356
-0.00405917
0.100684
0.00993045
-0.0136422
-0.0143946
0.000528091
-0.0330534
0.00940073
-0.0622428
-2.31324e-14
0.239165
0.0590738
1.26265e-15
8.61266e-15
-0.225308
0.0528579
-0.0854855
-0.0113356
-0.038549
4.79244e-322
-0.00320114
0.102452
-0.0356028
0.0314545
-0.0404455
0.0576412
0.000528012
-0.00724338
0.0439885
-0.0482432
-0.0187597
0.0232961
-0.00429315
-1.97638e-07
0.0951783
-4.81774e-07
0.00884489
-2.70498e-06
0
-2.46241e-09
0.123421
0.0268167
0.0967403
-0.0928745
-0.585005
-0.00724338
-0.186987
-8.31024e-11
0.0013976
0.00604011
-3.04562e-08
0.166682
-1.03639e-11
0
-0.0341337
-0.0124967
-0.184611
0.0882146
0.650685
-4.47233e-16
0.10561
-3.70774e-07
0
0.0363397
0.02531
0.0181199
-0.167521
-0.000536493
-7.88774e-12
0.0400975
3.30075e-13
0.0273768
-0.0605614
-6.30503e-09
-0.0499655
6.75433e-05
-0.236643
-0.00223599
0.00019772
0.00434655
0.00580987
-0.310749
0.0102593
-0.120078
0.0659286
-1.1488e-11
0.000296006
0.00648299
0.0124606
7.31217e-322
0.0198524
-0.190088
1.76698e-05
-9.67458e-08
0.00604011
-0.0556457
0.0500155
-0.10509
-0.120078
0.0117042
-0.00842938
-0.0419512
-3.60522e-09
-0.127314
-0.0472847
0.075313
0.0533279
-8.9945e-61
-0.0375615
-0.0160748
0.00707499
6.92759e-06
-0.0712571
0.06628
0.0743413
-0.334974
0.00580987
0.200093
-0.012287
0.0582754
0.0729528
-0.00218344
0.000622222
0.00533533
-1.10702e-14
-0.0490267
0.299484
-0.035994
-0.0734471
0.00688706
-1.5187e-06
-0.030562
-0.0034415
-0.00902498
0.0719074
-0.0254719
-0.0618171
0.0705086
-0.0700767
0.107897
0.0590457
0.123243
-1.64393e-59
-0.0443272
-0.1072
1.25745e-05
-0.0351958
-0.04986
0.0166214
0.000541355
-0.106846
0.0445316
-0.0509153
0.0130498
-2.53925e-06
6.75433e-05
-7.88774e-12
0.0165487
-0.0244475
-3.60522e-09
0.0126106
-0.0386939
-0.0127747
-4.55658e-08
-0.0452586
0.10561
0.0088449
0.172426
0.0915163
-0.060508
-1.22065e-13
-0.0711007
0.019708
0.0041333
0.0472439
0.0563524
0.0771322
0.00580987
6.53507e-05
0.0399235
0.0900936
-0.0187586
-0.0224821
0.0836931
-2.98744e-11
-0.00275108
0.0528932
8.49811e-06
-1.85226e-07
-0.0245929
-0.0113356
0.0372705
3.68059e-05
0.0100256
0.10311
-0.00576594
-0.0662439
-1.03639e-11
-0.0314677
-1.48724e-08
-0.012287
-0.00632151
0.154486
0.0593704
0.125414
-0.0470697
-0.0422265
-0.00902498
0.0770456
-0.0518871
-0.170819
0.000285337
-6.81811e-322
0.00343553
0.184133
-0.0578534
-2.61764e-06
0.000491602
0.0108332
7.41061e-08
0.0114292
-0.0225912
-0.0264304
0.00435579
-0.0628767
-8.54995e-11
-0.011518
-0.0425965
0.0897736
-0.163331
-0.038549
-0.00146376
0.000541355
0.0862547
-2.90897e-13
0.103133
-0.0433092
0.0854372
-0.0388165
0.328909
0.0705422
1.01924e-11
-0.0399452
0.0205627
0.00861962
0.020389
-0.0346304
-0.101946
-1.44853e-08
-0.349956
0.0178484
0.0844321
0.0157276
-0.032375
0
0.179011
-2.46241e-09
0.000541355
-1.07603e-07
-0.0463733
-0.0689954
0.0723392
-0.205635
0.375764
-0.0241643
0.0232235
0.0118949
0
-9.31749e-07
-0.0991087
-0.0455351
0.000613188
0.0142952
-0.0225912
-0.0362996
0.0365446
0.326105
0.0326283
0.0310603
0.199909
-0.110876
0.00339237
0
0
0.0669333
0.073293
-3.295e-10
-0.061998
0.0143341
-0.00909374
-8.54995e-11
-0.0685524
-0.022902
0.0976074
-0.0116022
9.68467e-09
2.06364e-08
-0.0192803
0.0287225
-0.0080953
-0.056239
0.0108332
6.67122e-08
-0.0709159
-0.0365389
-0.0174785
-1.48724e-08
0.36405
-0.0502976
-1.96405e-07
-8.14664e-11
2.02604e-05
-0.00334408
6.75433e-05
-0.0399088
-0.050608
0.0580654
-0.00816518
0.0250575
0.0383977
0.0615879
0.046016
-0.163963
-0.0510105
0.0806209
-0.0277349
0.0410794
-0.0206107
-0.146066
-0.0694027
9.68214e-05
0.0147114
0
-8.88768e-16
0.167238
0.0183498
-0.0550502
-0.0264665
2.65938e-05
0.000541355
0.000768985
-0.0137337
2.20769e-05
-0.0347801
0.0124483
-0.0321486
0.0117042
0.0182452
0.242005
0.0275939
-0.175793
-0.114752
0.0439885
-0.0317351
0.029504
-0.0480182
0.063285
0
0.00377927
-0.0410101
-0.0651932
-0.0101427
0.0121215
0.0128453
-0.043686
0.118748
0.0226737
-0.0872947
-0.0564429
-0.0786037
-0.00853558
0.00775235
2.65938e-05
-0.137506
-0.0142682
-0.136503
0.00580987
0.0102593
-0.0738805
-1.89583e-08
0.00858005
4.14248e-06
0.000345334
0.00775235
0
-0.109694
-0.0794108
-0.0504881
-0.0712545
0.101038
0.0175569
-5.74337e-204
0.000491943
-0.0260573
8.4981e-06
-0.00424283
4.03273e-08
-0.0419954
-0.0504881
0.0182442
0.118689
8.61266e-15
0.0292933
-0.00841776
-0.144331
0.13329
0.0218088
0.0571266
0
-0.0225912
-1.5726e-06
1.25745e-05
0.0840185
-3.82761e-06
-0.0210851
-0.0448191
-0.0112717
-0.0362057
-0.0866416
-2.1765e-06
0.0306818
-0.0142416
0.0328639
0.00333113
0.00505249
-0.0645054
-0.0331137
-0.0581836
0.034465
-0.0344043
-0.114112
-0.0658075
0
-8.31024e-11
0.0499833
7.41061e-08
0.0480986
2.06364e-08
-0.040027
-0.0201807
0.0218088
0.116611
0.359594
-0.121343
-4.15043e-07
-0.00598203
0.0472882
0.0528361
0.00851397
-0.0613002
0.00436206
-0.128214
0.192696
0.088617
0.0721262
0.0292574
-0.068223
-0.0651932
-0.00942309
0.0175569
-1.36661e-07
2.31109e-05
-0.0181315
0.0182728
0.0597462
0.00604011
0
-5.53822e-07
0.0175569
1.16599e-321
0.0166189
2.71736e-322
5.73987e-08
0.126805
0.137314
-0.0299535
-7.88774e-12
-1.70956e-06
-0.141972
-1.23965e-08
-3.61806e-13
-0.394255
0.000858356
-0.0055662
0.000613231
-9.67458e-08
-0.0545747
-1.39507e-10
-0.0647407
0.0326988
0.0316257
0.0406739
1.43835e-10
0.159238
0.00533533
0.0428459
-3.04562e-08
-2.46241e-09
-0.192333
-0.0132249
0.0442639
0
0.000541355
0.0174438
0.0304058
-0.0376725
0.0497898
-0.00104646
0
-4.94128e-08
-0.0466769
0.0411921
-8.54995e-11
0.0175569
-0.0236676
-0.038549
0.0290241
0.0114292
-0.00902498
-0.022711
-0.0275535
0.012122
-0.0386411
0.286022
0.0462096
-0.0288279
5.87318e-05
-0.038549
0.0196846
-7.28941e-15
-0.0972978
0.060329
0.0146653
0.0428459
-0.00358651
-0.18033
0.0265591
0.0582754
-0.413901
-0.0750118
0.0868485
0.0251233
0.0326559
-0.0319484
0.0132124
-0.0987151
-0.00725762
0.0604029
-0.24358
0.0528825
-0.0236742
0.0111865
-0.114471
0.0344658
-0.0144507
-8.31024e-11
-1.50294e-06
0.0585589
0.0115113
0.498604
-0.0209944
0.230971
0.0427642
-9.5067e-07
-0.165431
0
7.27668e-07
0.000136119
-8.92528e-10
-0.0456165
0.0169436
-2.9596e-62
-0.00896812
-0.0346134
-0.0230159
-0.0707699
-0.0543005
0.0145043
-0.00338796
0.00433216
0.0269986
-1.2295e-09
-0.0288258
-3.60522e-09
0.0289766
0.00369536
-2.21456e-06
-1.68759e-08
-0.231533
-0.852165
0.000613231
3.00788e-111
0.000541355
0.0312864
-7.95446e-322
-3.16236e-10
0.06628
-1.10702e-14
-0.0113356
-0.00673093
0.0399792
-1.14578e-08
0.300787
-0.0389271
-0.0676317
0.125483
0.0196862
0.0743414
-5.35243e-09
-0.00405954
-0.0705937
-2.12103e-07
-2.51863e-83
0.0368418
0.00580987
-1.96383e-09
-0.0147994
-0.00725188
0.0152491
0.000424353
-0.0291373
0.103009
2.02604e-05
-0.153753
0.0189148
0.0057421
-0.00358833
-0.00222819
-0.0398226
0.0882438
0.11008
0.122684
-4.66317e-06
-0.0141188
-3.60522e-09
0.0850225
0.0281352
-4.79139e-59
-0.0229415
-0.0120142
-0.15065
-1.08694e-13
-0.006517
0.143909
-0.0736035
-0.120694
-0.126262
0.00380833
0.0199653
0.0182856
0.0739265
-0.0407405
0.02957
0.0580654
0
0.000184221
-0.012287
0.0225735
0.0412542
-0.113545
0.0115113
-8.42665e-10
-0.0569415
0.0422504
-0.092996
-8.8872e-16
-0.061998
-0.119964
7.90505e-322
0.0781023
2.72664e-05
-0.00332601
-1.48064e-11
-0.0374883
-4.13334e-07
-0.0478278
-0.0426316
0.0749608
-4.15043e-07
0.0753836
-0.050608
0.00339237
0
-0.0977911
-9.91074e-09
3.953e-08
0.021419
-0.0668231
0.0615282
-0.0562603
-0.00842794
-0.00203619
-0.0858739
0.0122304
-0.0661369
0.000285337
-0.663348
0.0506354
0.0278936
0.180062
-0.0193288
0.0641422
-1.89583e-08
0.00580987
0.110927
0
-0.0404787
7.897e-05
0.0547261
0.0252829
-0.00625784
-1.50895e-10
-0.11299
-8.31024e-11
-2.97148e-62
0.0196844
0.0606884
0.00604011
-5.45334e-09
-1.89583e-08
-0.0289307
-0.0298786
0.0312503
0
0.0341143
-0.033215
0.00604011
0.0115113
-0.0147603
-0.0709682
0.154089
0.0201508
0.0199653
0.00515268
0.0226114
-0.0579986
5.58294e-322
-0.139098
1.20058e-321
-4.80767e-09
0.025915
9.12874e-06
-1.01283e-321
0.0746859
-0.0397442
-0.0201973
0.00604011
-4.47233e-16
-5.26254e-07
-3.76417e-07
-2.09607e-06
-0.0435846
-4.61331e-14
0.174052
0.194274
0.00844685
0.126285
-0.0443095
-0.012287
-0.0406548
0.244289
-0.0308208
-2.93541e-07
-0.014151
-8.92528e-10
1.55213e-11
0.0721096
-1.89583e-08
0.0847555
2.06364e-08
-0.00725188
0.0964694
0.103185
-0.168128
0.0139054
0.00764923
0.084669
-0.0632853
-0.0236676
-0.0650839
-0.0499579
-0.0112859
-0.153735
-0.0384371
-0.015763
0.0337193
-0.0504104
-0.038549
9.61603e-05
0.0257811
9.68214e-05
-0.052827
0.0764501
0.0764501
0.00440314
-2.14712e-07
-0.27178
8.49811e-06
0.0358496
-0.0041403
0.0530445
0.124967
8.49811e-06
0.0166319
0.0616386
0.0155289
0.0784408
-0.0996645
0.000234218
-0.0890262
-0.000812277
-0.00104322
1.16599e-321
-0.0366636
-4.47233e-16
0
-0.00203619
-0.00204362
0.0178471
-5.36936e-07
-2.99999e-11
-0.0386939
0.0937688
0.0178484
-0.026855
0.0112138
0.0124483
-1.23944e-06
0.00435579
-0.156048
1.25745e-05
7.31217e-322
2.04859e-08
0.0355368
2.31109e-05
6.93375e-07
6.75433e-05
0.0182706
0.0417222
0.0427524
7.41061e-08
-9.35152e-09
-4.496e-322
0.021308
0.00505249
0
-0.119315
1.29821e-06
1.20058e-321
0.0196862
0
-0.257788
-0.00872927
-0.0775054
0.0793
-0.00674671
-0.0460123
0.037911
0.000110478
-6.84598e-07
0.0433803
6.75433e-05
-0.00222643
-0.00725188
2.15777e-07
0.156545
0.00656775
-0.00902498
-4.47233e-16
0.188219
0.00473689
-0.0501269
-0.0588052
0.0118527
-0.0518871
-0.146804
0.0244821
-0.0750135
0.0339477
0.0877494
1.42785e-321
0.000768985
0.00604011
-0.145486
0.0481403
-2.90897e-13
0.093988
0
0.0178484
0
0.150728
2.72664e-05
0.131048
-0.0605721
0.0477601
-0.0662439
0.00113314
0.02957
-0.396751
0.000541355
-0.55065
0.016765
-5.59353e-08
-0.0847124
0
-0.0354447
-8.8872e-16
0.00433216
-0.077951
0.0354088
0.0118334
0.00029834
-3.7065e-14
0.106731
0.0226766
-0.108279
-0.220033
2.66035e-05
-0.00902084
-6.47665e-59
-0.0596482
1.20058e-321
-0.0763104
0.0871594
0.0738783
0.101929
-0.0754143
0.0745842
-0.0420629
3.30075e-13
-1.08639e-144
0.000541355
0.0212142
-0.0919697
0.00473689
-0.0874601
-0.0975302
0.282304
0.029474
0.0562778
0.14055
-1.10702e-14
-4.81876e-11
0.109981
0.0206769
-0.275411
0.0659092
8.49811e-06
-0.0419954
0.00485008
0.0683452
-7.88774e-12
-0.0272289
0.00604011
0.138309
-0.0036113
0.013829
-0.0436598
0.0974747
6.14987e-05
0.0952995
-0.00380344
-1.60134e-13
-0.0419954
-0.0201973
0.0446808
0.0178484
-0.0146718
-2.1374e-11
-0.207852
-0.159672
-0.00841776
-0.0288755
0.00656775
0.238513
-0.0297978
-0.0351958
0.000622212
-0.0678341
-0.0502646
-0.012287
-0.0888166
0.187
-0.0672933
-0.00380344
0.0515414
-0.0658075
0.0199653
-0.0978101
0.14862
-5.87643e-08
0.0225226
-0.000931565
-0.0236676
0.538379
0.0108332
0.0232235
-0.0241896
-0.0158352
-0.0591084
0.0624775
-1.70671e-08
-0.0169255
-0.0302514
-0.0996068
-0.131831
0.0474468
0.00212278
-8.14664e-11
8.76622e-05
-0.0847858
0.0218088
2.06361e-08
0.0378578
-8.54995e-11
-1.50785e-07
-0.0147283
0.0900926
0.162197
0.0380512
-0.0200673
-0.0569153
-0.0680294
0.00799181
-0.013155
-0.0597995
0.0292574
2.09299e-08
-0.138316
-0.0878682
-0.0161867
-0.00351782
0.0208966
1.82804e-321
-1.18107e-10
0.0169436
-0.0774115
0
-3.22632e-07
-0.21196
0.162546
0.000192974
-0.0161649
-0.077714
-0.0645776
-0.0110027
0.0351325
2.83921e-08
-0.0280647
0.140148
0.0178687
-4.55658e-08
0.0185932
-0.0569153
-0.0579985
-0.00541602
0.0488873
0.00604011
-0.109558
-0.103754
0.00694224
0.0206088
0.00580987
0.0210149
1.25745e-05
0.136567
0.0238791
2.09299e-08
0.0784408
0.00260823
-0.138108
-3.29819e-13
0.0349135
0.0133739
1.25745e-05
0.0408899
0.00580987
0.0267875
0.000491602
-0.0121915
-0.0771835
-0.0286172
-0.0346658
0.0213441
0.120858
0.00580987
0.0390301
0.16409
-0.0468305
0.0419842
-5.40544e-09
0.0463623
0.124522
-0.133186
0.0114247
0.121521
-7.88774e-12
8.49811e-06
-0.027322
-1.64393e-59
0.0533668
-0.124939
0.0831898
-0.037389
0.00533533
2.06371e-08
0.223646
-8.31024e-11
0.0490404
-0.0340709
-0.209867
0.00580987
0.00604011
0.0743414
-0.00902498
-2.99999e-11
-7.95446e-322
0.050662
4.84572e-05
1.29445e-321
7.90505e-322
-0.0384255
-1.509e-06
7.90505e-322
-0.0651932
1.69475e-06
-2.67339e-09
-0.0143322
-0.119018
-0.136864
0.00193333
-0.00545772
-7.28768e-12
-0.00541602
-0.210405
0.143937
0.026079
0.0894883
0.000184221
-8.31024e-11
-0.0591084
-0.151553
-7.88774e-12
-7.25891e-09
1.20627e-05
0.0196205
-0.0710134
-0.0691279
0.216169
-2.90897e-13
-4.13334e-07
0.0334754
2.8397e-08
0.0205627
-0.00725188
0.0488873
0.000437393
0.56454
-0.021363
-0.00284375
-5.86036e-62
0.0108332
0.0156012
0.0140539
0.0157259
-0.0362996
1.62054e-321
0.118985
0.104739
-0.0656893
-0.061113
0.013829
0.0379824
0
0.00858005
-0.00405917
0.103052
-0.176271
0.0717386
-6.47665e-59
-0.000536493
0.0238791
4.79244e-322
-0.0688175
-2.1765e-06
0.0331545
-4.47233e-16
-0.0254608
-1.15826e-07
-0.0878204
-1.85226e-07
-1.44853e-08
0.00604011
-0.16906
-0.0351958
0.00608774
8.61266e-15
-0.123724
0.233769
0.0480445
0.0328639
0
-0.012108
-0.0812699
-0.0940365
-1.03639e-11
0.0169436
0.036084
-0.0415315
-0.131719
0.0798813
6.45814e-13
-0.12339
0.0334754
-1.81832e-06
0.000373482
0.000541355
-0.0241337
-0.0142385
0.0197549
-0.03389
-0.0147994
-0.0566332
-0.0378776
-8.54995e-11
-0.0181859
0.0178484
-1.509e-06
-0.0610439
0.0223473
-0.162346
-0.091673
1.25745e-05
0.0157276
-2.71728e-06
2.65938e-05
-0.315034
4.03273e-08
6.53507e-05
-2.62177e-78
-0.0235298
-0.0366636
-0.0435845
-0.127005
0.0295044
-0.0185395
1.57607e-321
-0.0107634
0.00533533
0.0973408
0.011476
-0.0496523
4.00294e-12
0.0612246
-0.113852
-1.23811e-06
0
-8.86819e-07
0.035441
0.0157276
-8.54995e-11
0.0200184
1.62054e-321
0.0718362
0.120113
0.212711
-0.108689
0.000466784
-0.131701
0.0350262
0.132417
0.0150535
-0.00902498
-8.54995e-11
0.016117
0.00049993
0.00604011
-1.7722e-11
0.000542191
-5.40544e-09
-0.117467
0.0147493
0.0307518
0.101966
0.0218088
0
0.0743376
0.000491943
-1.89583e-08
-5.0979e-12
0
0.20913
0.00772601
6.45814e-13
0.061501
0.0379753
0.000541355
-8.54995e-11
-0.0351958
-0.0367099
-3.40017e-07
0.0143497
0.0125448
0.09729
0.0218088
-0.0709391
0.039105
-0.0634827
-0.0675552
0.258804
-0.346602
0.0238791
0.0303659
0.079424
-0.0406548
-1.03639e-11
0.0338757
-0.0478048
-4.49659e-12
0.0428459
-0.0201161
0.0338836
-0.0997883
-0.0314677
-0.0201973
0.141436
0.0399007
-1.73154e-06
4.05704e-07
0.0133739
1.16599e-321
0.0438665
0.00773841
-0.0480182
0.037911
-0.00283679
0.000622222
0
0.0583859
-4.47233e-16
-0.0898479
0.0274175
0.0582754
-0.156466
-0.0349013
-3.29819e-13
0.10187
0.0709335
0.0580654
-9.5067e-07
-0.0140099
-6.47665e-59
-1.97638e-07
-0.0214956
-0.085274
-8.813e-12
-1.5187e-06
-1.97638e-07
0.0225735
-0.0573306
-0.0351958
-0.0539192
0.102895
0.0868486
2.14515e-05
2.3061e-06
0.0843926
0.00876256
2.65938e-05
0.00054134
-0.0241782
0.0164595
0.0586916
0.301255
-0.0878391
0.0561808
-0.0977333
-0.027322
0.0743414
-3.04565e-08
-0.251609
9.68091e-05
-0.0032659
-0.0291373
6.88886e-07
0
-0.115341
0.0458958
0.0738783
0.0793072
0.0531124
0.0015425
-2.21456e-06
-0.245621
0.0396825
-0.14317
0.0146437
-0.0452613
0.0361741
0.0221526
-0.0751008
-0.097533
0.0901637
-0.0952518
0.0273407
0.0839136
-1.80755e-08
-0.0456524
0.0407857
0.103357
0.152531
0.428296
8.01208e-05
4.49175e-05
0.000203733
0.0344658
0.0141813
-4.47233e-16
0.0338757
-0.030224
-0.0276986
0.0447128
0.0234516
-0.0308063
0.0500155
0.00312277
0.00983506
0.0531124
-1.50785e-07
-0.0107634
-0.00380344
0
0.00835734
-0.012287
0.012794
-0.0452909
-1.45669e-08
0
-0.0026141
0.0533668
-0.0437249
0.0598914
-0.0640575
0.00604011
-0.0204481
-3.85371e-322
-0.195507
0.265417
-1.12971e-09
-0.117366
-1.23965e-08
-2.22358e-12
0.0247768
-8.54995e-11
0.00807394
-2.12103e-07
-0.00344126
-0.0446624
-0.10656
0.291094
-0.05624
-0.038549
-1.23944e-06
0.00426392
-0.000205529
-8.42665e-10
0.0218088
0.0381221
9.68214e-05
0.0333967
0.0753546
-0.158252
0.00604011
0.0434189
4.15466e-06
-9.35152e-09
0.00514112
0
0.0752471
-0.0116023
-0.0357511
-6.03231e-14
-0.0391645
0.0468528
-0.00311841
-1.509e-06
-0.0482431
0
0.0229558
-1.89583e-08
-0.0175473
-0.00251426
0.000858355
-0.0516232
2.07508e-322
-0.0344126
-0.0375524
-2.57474e-07
0.0152642
0.127204
0.000423816
0.0366405
-2.62177e-78
0.118351
-0.0235994
0.000541355
0.029689
-0.193114
0.0573987
-0.135501
-0.0051574
-0.00429315
0.0612948
-1.3741e-11
0.0406739
-0.109145
-4.254e-08
0.00139971
0.0238791
0.0842955
-0.101856
-1.2295e-09
-3.15795e-10
0.039875
-0.000812277
1.01253e-06
0.05775
0.0329679
-0.0163015
0.0569017
0.11186
0.0275939
-7.88774e-12
0.122231
0.0146439
0.00505249
6.53507e-05
-0.0185395
7.90505e-322
0.0265591
-0.19506
0.012527
-0.0387526
-0.213647
0.142242
-4.86049e-09
7.31217e-322
2.3061e-06
-0.101742
-0.0206548
0.0202354
-0.00725188
0.000541355
0.0900936
-1.44853e-08
0.0108978
-0.00964844
0.0880104
0.0153903
0.0124483
-3.22632e-07
0.00580987
0.00234117
0.157087
0.0337604
-0.0497558
-0.0242714
0.00771374
0.0928533
0.107611
-0.0369867
2.67139e-175
1.46737e-321
-0.0170289
-0.122652
-0.010885
-0.0920767
-8.42665e-10
-0.037717
0.0437748
0.136833
0.38528
0.0282219
0.0527728
0.0035421
0.223688
-0.184649
1.14977e-05
0.131679
-0.0707699
0.00772601
0.0381507
-0.00261412
9.68464e-09
0.0308014
0.0110058
0.000491943
0.0227096
0.104418
-0.17361
0.448307
0.011772
-2.21456e-06
-1.10702e-14
0.0717386
-0.204437
0.0166214
9.64831e-05
1.16599e-321
0.00476361
-0.0613002
3.10355e-05
-0.00223525
-0.894219
0.0314545
4.10074e-322
0.162733
0.0888021
-0.0906746
0.182979
-0.0275696
-0.201293
-0.00358651
0.0840651
0.00612485
-1.96405e-07
-0.000812277
-0.0590763
0.0449234
-0.027322
-1.17187e-07
0.0853831
-4.94128e-08
-2.04725e-08
0.0510224
6.53507e-05
0.00436206
-0.0191284
7.90505e-322
0.00260823
-1.76761e-09
-0.0299147
-1.18107e-10
0
-0.07183
0.00485008
0.0973408
0
-0.0184074
0.0358888
-0.125296
0.00604011
-0.119997
0
0.0488873
-8.14664e-11
0.11144
0.00321953
0.24342
0
-0.00593098
0.00635123
-8.27723e-11
2.28972e-14
0.02957
0.00571096
0.0214497
-0.0431027
0.00718027
-1.03639e-11
-4.94128e-08
0.0500155
-0.0661755
0.0564859
-0.0662439
0.0477797
0.00505249
-0.0364861
0.688099
-3.54524e-07
-0.038289
0.115371
-1.2739e-07
-0.0271882
0.0273768
0.0196846
0.000541355
-0.00358109
1.75419e-06
-0.0064411
-1.31421e-321
-1.56576e-14
0.0901637
-1.70956e-06
0.153722
-0.0601805
0
0.0868486
4.10074e-322
0.0497898
0.013964
0.00580987
-0.0676801
-0.016923
0.0020043
0.0182839
3.48079e-05
-0.0324531
0.281517
8.49811e-06
-0.0319575
6.75433e-05
0.000541355
0.110927
-5.21658e-204
9.68464e-09
-0.0151367
-0.0419527
0.250718
0.0136327
-0.129909
0.0552804
-0.0527275
-2.70498e-06
-0.018446
-0.00296231
1.22341e-05
3.00788e-111
0.0763087
-0.0201973
0.0379894
-2.04725e-08
0.136564
0.0518735
0.000416188
-8.8872e-16
-0.0224402
0.0082835
3.10355e-05
0.0562045
1.16599e-321
0.0212639
0.0398805
0.0125287
0.0428459
0.249238
0.0438665
-0.033215
0.0192794
-0.092409
0
-0.0233383
-0.243519
-0.00299746
-0.0463412
-0.0143366
-3.12245e-11
-0.0400852
0.162285
0.00580987
-0.0114425
-4.79139e-59
0.367614
0.0022213
-8.9945e-61
-4.94128e-08
0.00122522
0.0137638
-0.165678
0.0515413
0.0407721
0.0177323
-0.052363
-1.80787e-08
1.16599e-321
0.0314276
0.0102593
-2.09575e-190
0.0838116
0.108284
0.00604011
0.0247414
0.124374
0.0146439
-0.00383383
0.0185259
-1.5726e-06
-7.88774e-12
-0.0028438
0.0499833
0.0175569
-0.0036113
-2.04725e-08
-4.79139e-59
0.113869
-0.149819
-2.59059e-06
-0.0419512
-0.0833767
-1.509e-06
0.0411208
0.0169436
-4.13334e-07
-0.0639852
-4.64999e-09
-0.0100828
0
-0.0211697
0.0562778
0.00604011
0.000363702
0.109278
-0.0739678
0.126781
0.0396384
0.095731
0.0308177
-0.0349012
0.0444245
3.2709e-09
0.183622
0.0646071
0.0120582
-0.0598919
0.000795024
-0.018948
-2.09575e-190
-0.00320114
0.00267852
6.88886e-07
-0.0230893
0.0670971
0.0409224
-0.00512559
-0.0258695
0.0744826
-6.67513e-12
-0.182484
-0.0651932
-8.42665e-10
-2.76196e-08
-0.0856761
0.0229558
-1.96405e-07
0.0175569
0.0793999
0.0680805
-0.0467857
-0.121798
-1.80721e-08
2.67139e-175
0.000229611
-2.67339e-09
-0.040358
0.0195775
-0.00284375
0.0462164
-0.052827
-0.0659877
0.000875816
0.000541355
-0.0699518
0.0403323
0.00360632
0.169767
0.0576267
0.0582754
0.0911337
0.00267852
0.0345481
0.00533533
0.0257577
7.31217e-322
-0.0221174
-0.0677441
-3.04562e-08
4.79244e-322
-1.23944e-06
0.269974
0.0486689
7.41061e-08
0.00604011
0.0803599
-0.0219998
0.00604011
-0.0303628
0
0.329896
0.0217906
0.00267852
-0.176261
-0.110227
-0.0187597
0.000229611
8.61266e-15
-0.0219331
-0.0284701
-0.0476185
-8.42665e-10
2.83072e-16
0.0623802
-0.154404
-0.155307
0.0121058
-0.0103123
-1.5726e-06
-3.61806e-13
-0.12519
0.0228905
0.000428877
0.480259
-1.89583e-08
-8.54995e-11
0.0385745
0.0744826
-0.0235298
-0.102833
-0.0214439
-0.241767
-0.124867
0.212887
-0.150624
2.09299e-08
0
2.31743e-08
0.0537584
0.00473689
-0.0604419
-0.0236742
-0.186991
0.0900936
-0.00513444
-7.88774e-12
0.0680528
-0.0852489
0.136497
0.00607221
-0.0723868
0.0375674
-0.23767
-1.73154e-06
0.00396558
0.00772601
-0.0745443
0.0562045
-0.126505
0.00141299
-1.48724e-08
0.326327
0.224042
-2.09607e-06
-0.121851
-0.04986
-0.0448443
0.000234218
0
0.063761
-0.0419954
-2.76196e-08
0.000108324
-0.050608
-7.88774e-12
-0.185569
-0.012287
3.59397e-05
-0.0309135
0.0169427
1.25745e-05
0.0399754
-0.142687
-5.0979e-12
-0.00902498
-1.5187e-06
-8.31024e-11
-0.10907
-0.0896344
-9.62355e-07
0.00194338
0.0665831
-0.0946649
0.061501
0.00333113
-0.0292136
-0.0714577
0.000765997
1.22341e-05
-0.0412648
-0.0328686
0.0152491
0.111958
0.0764501
4.05787e-07
-0.0185395
0.0468236
0.0341897
-4.254e-08
0.000211138
0.0527949
0.197783
-0.0260867
0.00113355
0.0182452
0.0216582
0.033617
-0.0715122
-3.56524e-61
0.00604011
-0.0285948
0.0175823
0.0643437
-0.014762
0.0664506
0.189677
0
0.0253167
0.0225582
-1.3161e-14
-0.0828353
-0.0203996
0.0114292
-0.00251426
0.0428459
0.0462164
4.05787e-07
0.0396384
-3.60522e-09
0.000184221
-1.33888e-196
-2.76975e-10
-0.0840791
0.0178484
1.55213e-11
2.3061e-06
0
0.0124483
-0.0851904
0.0468236
0.0428444
0.347752
-0.00877184
-0.0854855
0.00796212
-0.0501709
-0.0691279
5.86903e-05
-2.66702e-11
-0.00380344
0.00440314
0.0687014
-0.156048
0.0157276
-0.012108
0.00533533
-0.050608
0.364144
-0.00725188
0.0994242
0.0617415
0.00435579
-0.0882477
-0.0699507
0.0125287
-4.15043e-07
-1.23811e-06
0.00561809
-0.0120446
0.00604011
-0.213517
-0.0585658
-0.0575968
-0.197419
-4.47233e-16
-1.73154e-06
-0.125948
-0.088278
0.0333967
-0.0156335
-0.0192836
-0.0302514
-8.42665e-10
-0.113782
-0.0379231
-5.45334e-09
-0.011583
0.00762087
-4.496e-322
-0.0026141
0.00566947
-0.0477551
0.189806
-0.121796
-0.0142416
-0.100851
-2.21456e-06
-0.0963902
9.30514e-06
2.71736e-322
0.00174167
0.0169436
0.0187377
0.0428065
-1.03639e-11
-0.0299535
-0.103327
0.005809
0.0148969
0.0431586
0.0191501
0.0152642
-1.5726e-06
1.26592e-05
-1.5726e-06
-2.76975e-10
-0.0288491
-0.00842809
0.0319148
-3.18897e-12
0.00604011
3.89687e-05
0.0299999
2.06364e-08
-0.28296
0.0841274
-0.0727793
0.00604011
0.00743771
-0.081775
0.02957
5.69799e-05
-0.0504104
0.000858356
-0.0282419
0.0463623
-0.0658075
0.11258
0.140342
-0.0547555
-0.0171306
0.00772601
0.0132902
0.0220267
-0.00203619
-0.0598277
0.128118
0.0202695
0.00952811
0.0338757
-5.86036e-62
0.000110478
-0.0116022
-5.35243e-09
-0.0510637
-0.016999
-7.4697e-08
-4.63405e-13
0.00436206
-0.0710586
-1.77749e-15
2.67139e-175
2.83072e-16
0.0424907
-0.00166438
0.239136
0.0338757
-2.99999e-11
0.0861867
0.113883
-0.181725
-0.0300636
-2.9596e-62
-0.0604305
1.98131e-13
-0.0140151
0.0367963
0.0328282
-0.0518197
0.105058
0.065003
-0.128283
0.0800169
2.28972e-14
-0.05923
0.00580987
0.0202184
0
-0.00576594
-0.0627356
0.0888705
-0.109973
-0.0614885
-7.96179e-11
8.49811e-06
-0.0347801
-0.0173671
0.0309535
0.0079728
-1.89583e-08
0.0597906
-0.00902498
-0.0504881
0.00019772
-0.0143322
0.0780067
0.000423817
0.00883766
0.013829
-0.0192006
-4.496e-322
0.0357383
-0.0524779
0.00604011
0.0175569
-0.00842802
-0.00579236
0.00019507
0.0423897
0.0182517
0.048778
0.110759
-9.62355e-07
0.0137638
-0.0209943
1.55213e-11
0.0175569
-0.0254719
0.0546172
-0.0830573
0.0185411
0.0840024
-0.00275108
-0.0891504
-0.0493545
0.0138966
-0.0185395
0.0312919
0.0316166
-1.74846e-10
-0.011583
-0.0258695
-0.056239
0.000424353
-0.0313212
-0.0192006
2.83921e-08
0
-0.0437249
-3.15795e-10
0.0157267
0.0308481
-0.0116023
-0.111538
0.0239139
-9.35152e-09
0.00604011
0.0138966
-0.040825
-0.0100828
-1.15826e-07
0.016117
0.0476711
0.0560233
-0.0590649
0.058033
-0.0122066
-0.0362057
0.0540479
0
-0.030224
-0.052827
0.000501543
0.0693084
0.279207
-2.31324e-14
0.02957
-1.96419e-07
-0.00521564
0.167648
0.0140235
1.98503e-197
0.0358888
0
0.169854
0.0232961
0.101851
0.0521029
-1.48724e-08
6.75433e-05
-1.15826e-07
0.066057
4.89054e-12
-1.68759e-08
-1.68759e-08
0.00224122
0.00580987
0.196708
-0.0614845
0.199824
-0.16171
2.05534e-08
-0.153148
-0.0324531
2.03345e-05
0.000424353
-9.62355e-07
-0.129358
-0.0744071
0.00278288
-0.0224717
-0.00902498
-0.0481599
-0.119758
-0.000208662
-0.0698364
2.83921e-08
0.00726689
-1.67897e-13
-8.34322e-11
-0.177826
0.105237
-2.68375e-09
-0.0225912
-5.94141e-10
-4.94128e-08
-0.160484
-0.00380344
-0.187896
0.000423094
0.0108332
0.0680805
-0.0109355
0.0143497
0.00604011
-0.019013
-1.10702e-14
0.00580987
0.000184221
-4.94406e-133
0.0102593
-0.0331137
0.0589609
0.119386
-0.0161867
0.0278033
6.97847e-05
-0.0267248
0.0467033
-0.130803
-0.114189
0.0152491
-0.0439697
0
-0.0208627
-0.109851
-0.214856
-0.100756
-0.056239
-0.107986
0.134714
-0.0612317
0.00019772
0.316401
-7.88774e-12
-0.00545772
0.024799
0.150312
-0.113392
-3.40017e-07
0.0238791
-0.0235193
0.0604109
0.128346
1.29445e-321
0.0272458
-4.81774e-07
-0.152699
3.7858e-06
0.0196846
0.0957117
-0.0147994
0.0500155
-2.46241e-09
-0.0351958
6.37703e-08
-0.00844207
-0.0153509
0.158075
0.0152621
0.0156012
-4.93132e-07
7.27668e-07
6.14987e-05
-0.00280498
0.00128366
-4.33826e-08
0.00810084
-0.0298519
0.0605543
0.191575
0.0608328
-0.0497553
7.90505e-322
0.00533533
0.252935
0.174538
-0.0291159
-0.0366655
-0.010885
0.0219922
-1.08639e-144
6.88886e-07
-0.000812277
-0.159888
0.0463623
2.28972e-14
-0.00992396
-1.509e-06
0.0615156
0.0871881
-0.0142385
0
-2.12103e-07
-0.0141018
-0.0229389
0.0333967
0.20584
2.41967e-198
-3.46499e-12
0
-1.10677e-06
0.0132206
-0.0236742
-0.0239033
-0.0346304
0.0488576
0.0183696
-5.26124e-08
0.101612
0.0368418
0.000541355
0.0117834
0.120779
-1.70917e-06
0.0169436
0.00552032
3.97026e-08
0.051663
0.0840024
-4.94128e-08
-0.050608
0.00884489
0.00718027
1.98131e-13
-1.20983e-06
0.0150894
3.48079e-05
0.0618783
0.0197549
0.0084491
-0.0650322
-0.0471847
-0.00204211
-0.015763
0.0200019
-1.56033e-83
0.0333256
-0.0452586
-0.0264665
0
-0.0890262
0.0276755
-0.0146718
-7.4697e-08
-0.0757858
4.05787e-07
-0.0137337
0.0238791
-5.40544e-09
0.000438841
0.0497898
-8.9945e-61
0.000143838
2.83072e-16
0.123728
-0.101765
-8.35262e-09
0.00533533
-0.0699507
-2.09607e-06
1.55213e-11
7.41061e-08
0.0320928
0.0645519
-0.206587
0.0302967
0.0363181
-8.31024e-11
0.0753017
1.27963e-321
0.122968
0.0225492
-2.31324e-14
-0.00275108
-0.0600569
0.0210067
0.051271
0.0488873
-0.11756
0.000541355
7.31217e-322
-1.81832e-06
1.63892e-05
-0.00275108
-0.0471514
-1.58101e-322
-0.0592682
0.0079728
1.16599e-321
-2.66702e-11
0.110231
0.351689
-0.103201
-0.0386939
-1.73154e-06
-0.0524779
-0.0406938
-0.0605133
0.0148969
-0.0209944
0.0133739
-2.59059e-06
0.06628
0.0780067
-0.126725
-0.00992396
0.00604011
2.07508e-322
0.0173637
-0.00320114
-0.0142416
0.00381694
0.0184733
0.0434189
-0.0113356
-0.000812277
-0.0651932
6.14987e-05
-0.139019
0.0253979
-0.0289307
-2.67339e-09
0.0312864
-0.217243
0.0117042
-0.00320114
-0.470129
0.0381221
0.0292933
-0.00624469
-0.0502796
0.000211089
-0.0328686
0.0292548
-0.0480777
0.199819
7.61107e-06
0.00433216
0.171596
-4.25483e-08
-3.12309e-09
0.0423897
0.000333567
-0.0891504
0.00867535
-0.169498
-0.275122
-0.0455701
0.0154849
-0.081707
-0.0578328
-0.02219
2.65938e-05
-0.00218824
-0.0410498
0.00604011
1.29445e-321
0.000613231
0.0624879
-0.536495
0.000787699
0.0560195
8.76622e-05
-0.127802
-1.23811e-06
-0.0521887
0
0.023923
-1.10702e-14
-0.0236676
2.17591e-06
0.0411921
0.264944
0.001913
-0.00320114
0.00485008
-4.91111e-08
-3.40017e-07
-6.30503e-09
-0.100756
0.00473689
0
-3.49473e-58
-1.67766e-06
0.0718724
-0.0482431
0.228473
-0.0410101
0.00505249
0.0427642
-9.5067e-07
-0.0147994
0.00906699
-1.48724e-08
0.0538768
3.48079e-05
-0.103624
-9.41163e-08
0.0531348
0.00604011
-0.0453478
-8.14664e-11
-0.029669
-3.11261e-322
-1.3161e-14
0.123632
-0.00203619
-4.48107e-13
0.176986
0.0348424
0.0419842
-0.110673
0.00321953
2.73971e-05
-7.88774e-12
-1.03639e-11
-0.0972881
0.0541764
8.03889e-06
-0.13017
6.45814e-13
0.141627
0.00440311
-7.88774e-12
-0.0282701
-2.46241e-09
-1.08639e-144
-0.0627287
-8.31024e-11
-0.010818
0.0632696
2.02604e-05
-2.97148e-62
0.0909594
0.0223064
-2.89138e-14
0.0281038
-0.0783431
-0.00275108
1.63892e-05
-0.0891506
-5.26124e-08
0.0314545
0.063761
-0.0204621
-0.0203996
6.88886e-07
0.0798451
-7.01455e-07
-0.0179218
-0.298451
-0.0604305
-0.0207446
0.00604011
0.0604372
0
-0.135501
-0.0562603
0.101384
0.0590938
0.0612739
-0.20578
0
-0.0390499
0.000491602
-1.75493e-06
-1.03639e-11
-0.0192803
-0.0252976
0.0225226
-0.0319442
-0.0105438
-0.193296
-0.0269266
0.089236
-0.0210305
-0.0964743
0.0500872
0.00718027
0.0223633
-0.0421764
-0.0976099
0.000203733
0.0146222
0.00260823
2.92624e-14
-2.97586e-09
-4.86049e-09
0.0819692
0.0860503
2.06364e-08
-0.0523723
-0.0164921
0.0200343
0.0174439
-0.00725188
-0.0655347
-0.207128
-0.0221174
-0.0315871
-0.038549
3.91684e-05
-0.149307
0.00369536
0.000768985
0.0321468
7.46685e-13
-0.0180436
-0.0301552
-0.0100738
0.0994242
0.0312864
0.069328
0.0396384
0
-2.44861e-06
0.000554271
0
-3.11261e-322
8.76622e-05
-0.0760221
0.000541355
-1.23965e-08
0.0117042
-0.00618591
0.00546953
0.259945
-0.089488
2.3061e-06
-0.0169648
-0.00204362
9.28111e-07
0.0164114
-8.9945e-61
-0.000805578
-0.0243244
0.0520751
-0.000208662
0.0713011
0.0611482
0.0117992
0
-0.0458879
-9.67458e-08
-0.00284375
0.0292574
-0.148005
1.98131e-13
0.000184221
-6.33347e-09
-0.0447624
-0.264328
0.00604011
-0.0562603
0.0467033
0.15219
-0.144927
0.00767777
0.0292933
-0.0412351
-0.144318
-0.241948
-1.3161e-14
0.00533533
0.0178287
-0.00405917
0.100788
-0.0602253
0.00842112
-0.212277
0.0743414
0.090264
-0.038549
0.0295044
0.000622222
-0.202407
0.0987038
-2.89138e-14
-0.0987151
-0.0225912
5.98055e-09
0.107108
0.0395974
6.53507e-05
0.00604011
0.0156012
-0.096151
-0.13201
0.212181
0.00110846
-4.80767e-09
-0.0891504
0
-0.0277349
-0.0854856
0.00128585
4.89054e-12
0.0536713
0.173673
0.0363143
0.0489301
0.0080492
-0.100473
-0.00725188
-0.00369986
0.00515268
-3.7065e-14
8.49811e-06
-0.014762
-1.2279e-06
0.204482
0.000622222
0.000298319
-0.00759744
0.0314545
-0.0264304
0.00533533
-0.0306012
0.0871881
1.26481e-321
-0.0194877
-0.0406548
-0.0185395
-0.00345538
0.0178287
5.96931e-05
-0.0456524
-0.000812277
-8.31024e-11
0.145514
-0.038549
0.00505249
-3.54524e-07
0.032724
-3.22632e-07
-0.0547539
0.372681
-0.029433
0.0701929
0
0
-0.140663
0.000541355
-2.1374e-11
-0.0316099
-0.0530034
-0.0210305
-0.116322
-0.0393671
0.0411921
-0.0550502
-0.406514
-1.23115e-07
0.00533533
0.00260823
0.0181199
2.73971e-05
0.124292
0.0196846
-0.164076
0.0101519
0.148517
0.0210067
0.0611482
-9.50589e-07
0.00767777
0.0292574
0.086615
1.69475e-06
-0.0200673
-0.0949281
-8.70893e-07
0.0562778
0.040493
0.00884318
-1.77494e-13
0.0834738
0.0196846
0.0150535
0.00884489
0.000505718
-0.0595567
-0.0141781
0.0562778
-0.00902498
-0.0376165
-1.80721e-08
0.0569944
-0.0419954
0.000437393
-0.0632853
0.0225226
-0.0235298
0.00193333
6.57089e-05
-1.27053e-10
-4.94128e-08
0.111264
-0.0797371
-1.96383e-09
-0.00725187
-0.0147599
-8.14664e-11
0.00343553
-1.80721e-08
0.0781022
-0.0284957
0.186342
8.74496e-322
-0.0972604
-1.03639e-11
-0.126101
0.0115239
0.111208
-8.28941e-11
0.0124483
0.521109
-0.0600569
-0.177113
2.06364e-08
-0.00941051
-0.0553932
-0.0799964
-1.3161e-14
0.122553
-0.0778294
0.0169436
-0.0480777
-0.0891504
-0.0195967
0
-0.0226081
0.0286526
-4.496e-322
0.00604011
0.0652892
0
6.45814e-13
-0.065584
-0.0354447
0
0
0
-0.0026141
-2.31324e-14
0.000373482
-0.0617366
-0.180302
-2.46241e-09
-5.59353e-08
0.0117042
-3.56524e-61
0.0449543
-0.0384371
-0.0672933
-0.0573832
0.0506354
-1.45078e-11
-0.0113356
-0.1027
1.56125e-321
-1.39075e-10
0.013829
-2.70498e-06
0.02957
-0.117884
0.02957
-0.0709682
0.373455
-1.3161e-14
0.0184829
-0.107129
-0.0174115
-8.14664e-11
0.0574932
-0.0331137
0.0963291
0.00775235
0.135261
-0.0258785
-0.033215
0
-2.22358e-12
0.0616994
-0.349025
0.0582754
-0.00554963
-2.90897e-13
-0.0820261
-3.60522e-09
-0.0343223
-0.00927063
0.0152642
-0.0113738
0.0818265
0.0218045
-0.0410101
-0.00223525
-0.00204362
-0.0318633
0.00604011
0.0140235
0.000283443
0.00485008
1.87191e-05
-0.0209539
0.0225735
0.0586474
0.00385505
-0.167083
0.0582754
0.0525697
-0.00501941
0.000310993
-0.0192803
-7.18856e-09
-0.0651932
-0.00405917
0.0225533
-0.121795
-0.0577651
-0.448413
0.0178561
-0.0385499
7.897e-05
-0.0557591
-1.89583e-08
0.0137638
0.0196846
-1.80721e-08
-0.0108706
-0.012287
-1.22065e-13
-0.09547
-0.0156453
-0.198042
0.0722772
0.016848
-0.0928745
-0.0955874
0.0177355
-4.94128e-08
-8.31024e-11
-0.16089
-1.44719e-06
0.0460522
-0.0796129
0.0934951
0.152054
-0.0175825
0.0175569
-3.56524e-61
-1.65823e-57
0.0292933
8.80088e-10
-0.0442071
0.00353878
0.0225879
0.0744826
-0.033215
-3.56524e-61
-0.0316413
0
-0.0607967
-5.11157e-09
0.036753
0.0132902
-7.88774e-12
0.0229558
0.0371675
-0.0187597
-1.80721e-08
0.0125353
-4.81774e-07
0.103797
0.00433216
-8.10004e-09
0.00604011
1.70036e-10
-2.89138e-14
-0.0419954
1.13424e-06
-0.0116015
0.107818
0.0741153
-0.00240505
0.0253907
-1.03639e-11
-0.0338194
-0.0235298
-0.0680294
0.20628
-0.0979666
2.06364e-08
-2.68405e-06
-4.64999e-09
-0.0709682
-2.46241e-09
-6.03231e-14
0.0825528
-4.04369e-09
0.0178924
-4.79139e-59
-0.07386
-1.03639e-11
0.0463076
-0.0477079
-0.0467857
0.0146439
0
0.000857117
0.00193333
-0.325637
0.099965
-1.23811e-06
0.15925
-2.01715e-07
-0.0334709
0.0572289
0.0582247
-7.88774e-12
0.0368418
-0.00132224
-1.0753e-06
0.0013976
0.000229611
-2.31324e-14
0.000533093
-1.70956e-06
-0.0147599
0.00580995
0.0121057
1.29445e-321
0.0284545
0
-0.0254742
-0.00380344
-0.0480777
0.00604011
0.00884489
-0.000183344
0.0132902
0.0464459
0.0178561
0.00580987
0.00842112
9.68214e-05
0.0238791
0.00566947
-0.00430672
0.0739436
-0.0147599
0.0973408
9.93072e-322
2.71736e-322
-7.88774e-12
0.0387443
-0.199076
0.0628765
-0.0547441
6.75433e-05
0.0254357
-0.0481599
0.0471421
-0.0236676
-0.00344126
-0.155057
0.000298319
-0.0779707
-4.74902e-15
0.0178484
0.107565
0.0178982
0.0840024
0
4.98511e-05
-3.11261e-322
-4.62322e-07
0.385703
-0.0236676
-0.0313651
-0.101514
3.00788e-111
-0.206914
-0.0934804
0.0601413
-0.00344126
0.127311
0.0838116
0.0427642
0.0555565
0.166314
-0.026413
0.0708433
0.00379884
0.130582
0.00533533
0.0140419
0.00580987
-1.03639e-11
0.00883765
0
0.00533533
0.0509151
0.00604011
0.00604011
-0.0938143
-0.227777
-2.12103e-07
-0.146681
0.033763
-1.81832e-06
-0.119018
0.118805
-0.0684876
5.63441e-05
0.084669
0.0463343
-8.14664e-11
-0.0890262
0.0947369
0.0300425
-0.0421491
0.0569937
0.00328641
0.0981444
-4.81774e-07
-0.097751
0.0322094
-0.158938
0.0717386
-0.011583
-0.000629683
-0.130245
0.0427642
-4.15043e-07
0.0717376
0.067339
0.0488873
0.0166673
0.128739
0.124532
-0.10667
0.0137882
-0.00380421
1.29445e-321
0.0141888
-0.0119315
0.0412015
0.115915
-0.0389844
0.0175569
0.0497898
-0.00759744
-0.00941051
0.046581
-0.0481599
0.00435579
0.243917
0.0139258
-4.81876e-11
-0.0440514
0.0175569
0.0477797
-0.0581836
-0.00713366
-0.0533439
0.0563478
0.137503
-0.0866425
-0.0102879
-2.60382e-09
0.0102582
0.0891036
-4.51199e-16
0.0427642
-0.00942518
0.161329
0.0627459
0.149616
1.29445e-321
0.101001
0.0341613
0.00775235
7.28454e-07
0.00193333
0.0829871
-3.54524e-07
0.0232473
0.0562045
0.0288043
1.66707e-09
0.042292
0.00850823
-0.0210235
-0.00166438
0.0305157
-0.021123
-2.63289e-06
0
-1.76761e-09
0.00419783
-1.96383e-09
-0.143356
-0.0823156
-4.74902e-15
0.000768985
-0.00283525
0.0146439
-0.00841776
-5.0979e-12
0.0396384
0.0562049
0
-1.73154e-06
-0.00405917
-0.0184406
0.046581
-1.23022e-321
-9.35152e-09
-0.0200673
-2.97672e-09
0.0157276
-3.54524e-07
-6.3995e-10
-0.15113
-0.0831373
-5.0979e-12
-0.174675
-8.14664e-11
0.031372
0.14019
0.0152642
-0.00203619
0.0316216
-9.35152e-09
0.000110478
0.0393943
0.229862
-0.0432108
0
-3.22633e-07
0.0124483
0
0.0376065
0.00786095
-0.191457
-0.0278164
0.0963291
0.0124483
9.68464e-09
-0.0895753
0.0265591
0.0152642
0.232132
0.100788
-0.0607137
-2.21456e-06
-2.53925e-06
0.0191396
0.0604372
8.80088e-10
-0.149819
-0.239749
-7.3886e-07
-8.54995e-11
-0.0482431
0.032767
-0.00842799
0.0079728
-0.0337826
0.00884489
-0.139367
0.00145272
0.0452055
-2.31324e-14
0.0444262
-0.205635
0.0609574
-0.0470777
0.0196846
0.00604011
0.0146439
0.000424353
0.0606941
-2.44861e-06
0.125341
0.00768789
-0.122862
-0.0681609
0.184027
0.000541355
0.0151809
0.0393026
0.0492505
-2.64975e-06
-0.0571087
-0.00902498
-4.93132e-07
-0.0481805
-0.0036113
-0.224735
0.0229558
-0.0236742
0.0203071
-3.15795e-10
-2.1374e-11
-0.0748488
6.45814e-13
0.0803882
0.159059
0.0544658
-0.0214148
0.0220266
-0.0582467
0.0207971
-0.0246319
0.0111865
0.0175569
-1.48724e-08
-0.178277
-1.89583e-08
0.0117042
-6.81811e-322
0.119637
0.105979
0.0644027
-0.00204362
-0.169203
1.29445e-321
0.00828225
-0.0712545
-7.88774e-12
9.82461e-06
-0.0245098
0.0857992
2.02604e-05
-0.0270902
-0.0456255
-0.0506267
-2.55461e-08
2.65528e-09
-0.0142385
0.0436401
-0.15815
-8.54995e-11
-0.0347801
-7.88774e-12
0.0137638
-7.76162e-59
0.000858207
-7.88774e-12
-4.04369e-09
-2.89138e-14
-9.62355e-07
0.0146439
0.233989
0.000858356
0.033617
-0.043873
-0.00544492
0.00219771
-9.62355e-07
-0.000455063
0.096141
0.0222896
0.0144703
0.10493
0.014231
-0.0480174
0.0528825
-0.0605614
0.0079728
0.297796
-3.89873e-07
5.05565e-11
-0.109406
2.65938e-05
0.0616247
0.00019507
1.62054e-321
0.0907129
0.00339237
0.0317905
0.046581
0.0435328
-0.0226286
3.30075e-13
-0.100334
0.0580654
0.085737
0.0240308
-3.70774e-07
-0.0286566
-0.024134
-0.0575471
0
1.25745e-05
-0.0057661
0.0370608
-0.121063
-0.13093
-1.89583e-08
-0.0188927
-0.038549
-0.123547
0.425854
-0.0616062
-0.0308391
-0.0344487
-0.0780374
-8.54995e-11
-1.17187e-07
-0.0682585
-2.76196e-08
0.00505249
0.0477797
0.242754
-0.0147599
-0.0871379
-3.54524e-07
0.0478338
-0.000812295
-0.0607326
3.29398e-09
-0.0351983
1.25745e-05
-0.00986912
0.00604011
0.0529411
0.0133593
-7.3886e-07
0.251208
0.00604011
2.83921e-08
0.000541355
-0.027079
0.0067355
-0.126726
0.00010089
-0.0136422
0.00604011
0.133763
-0.0852314
-0.0360047
2.21835e-321
0.0197549
0.142583
-3.18897e-12
-0.0926078
0.011511
-0.0113356
0.000858356
0.0638353
-7.64594e-13
-0.0274703
-1.89583e-08
-0.0433736
-0.0873816
-0.0397442
-0.0205746
-0.05923
-3.15795e-10
0.00912119
0.0765666
0.00580987
-0.0384371
0.0304118
-0.00680091
-0.05923
0.0449961
0.000541355
0.164463
0.00604011
-4.81876e-11
0.0305727
-2.04725e-08
0.0146439
0
0.061501
-0.105601
-0.0174115
-0.0452586
0.0714227
-1.5726e-06
-0.056239
1.16599e-321
0.0316055
-0.00284375
0.000528091
0.501481
-4.04369e-09
-0.0472847
0.322012
0.0721262
0.0169436
0.000416188
-0.035994
0.120043
-0.061998
-4.61299e-07
0.00435554
-0.0256885
0.00604011
-0.0147994
0.0617627
0.00941329
0.0826402
0.0084491
0.00180116
1.29445e-321
0.0955202
-0.058318
-0.00556837
-8.42665e-10
0.0141222
0.0068676
-8.54995e-11
0.0669656
0.00772601
0.0143173
0.0338757
0.064908
-1.5187e-06
-0.0102222
1.29162e-05
0.00485008
-0.00284375
0.0582665
-7.28768e-12
2.06364e-08
-8.54995e-11
-0.0452909
-0.0445854
0.0428065
0.505559
1.71177e-197
0.0080674
4.10074e-322
-0.00725193
0.00604011
0.0214425
0.00819978
-3.23016e-10
0.0498608
1.43585e-10
0.0777865
0.100295
-0.305964
0.066891
-0.0188639
0.0225226
3.48079e-05
0.0084491
-1.03639e-11
0.112706
-0.00429315
-0.0987152
-8.8872e-16
-3.56524e-61
0.0116773
-0.0656893
0.11305
0.0617333
0.000216652
-0.119347
-8.54995e-11
0.0178484
-0.0443272
0.0178287
0.0892268
-0.190259
-0.105988
0.0079728
0
-0.00320114
-0.119018
0.0582754
-2.97586e-09
-0.00320114
-0.0658075
-0.00902458
-0.110276
0.0443727
-0.0721915
0.159713
0.000229611
0.012527
0.009089
-1.03639e-11
-0.00215474
0.0124483
-3.56524e-61
-4.34427e-09
-0.00199319
-8.92528e-10
0.00604011
0.0108332
-1.10702e-14
-3.46499e-12
-0.00320114
0.276067
2.41967e-198
0.137453
0.0107866
-0.133525
-0.0467654
-1.0753e-06
0.084556
0.0580654
0.0174758
2.72664e-05
-0.0749712
-0.00380344
6.75433e-05
0.000869137
0.00306204
-8.14664e-11
0.0107012
0.109912
-0.0903898
0.0276753
-0.038549
0.0434437
-1.10702e-14
7.27668e-07
-0.0242713
-0.015763
-0.188725
-0.068128
1.51153e-05
-0.0160748
2.19216e-110
0.0233821
-4.496e-322
-2.46241e-09
0.00767777
0.0588307
8.36256e-07
0.233447
0.109426
0.0455282
0
0.0373261
0.0368418
-0.149718
5.96931e-05
0.0329421
0.00601174
0.0146056
0.00698287
-0.0161385
0.0289754
-0.0650839
0.00580987
-1.03639e-11
-0.138175
-0.120078
-8.54995e-11
-0.0751422
-0.0147994
-0.0103886
0.110029
-0.0240835
-0.00942309
0.03744
0.144212
-0.0107276
-0.0468064
0.0146439
-0.0683791
0.0156012
0.10887
-8.31024e-11
-0.011583
-8.54995e-11
-0.0137908
-1.44136e-06
0.00762087
-2.59059e-06
0.076936
0.164831
0
-0.0158352
0.00533533
-8.31024e-11
-0.285592
0.0669377
-1.5187e-06
0.0718724
0.0257852
0.0434189
-0.0941474
-1.08639e-144
-8.31024e-11
0.0278957
0.0853718
-9.35152e-09
-0.195591
0.0816435
0.0840027
0.0225117
2.71736e-322
-0.110367
0.0345481
-0.0920443
-4.47233e-16
-0.0890262
-0.124916
-5.92972e-08
7.95446e-322
0.0124414
0.00493755
0.0404924
-0.085274
0.0615879
-0.06351
-3.23016e-10
0.0758478
6.0716e-09
0.0205059
-0.0821891
0.00667196
-0.0665717
-0.0221174
-2.31324e-14
-0.00251426
0.00604011
0.130682
0.144342
-1.5726e-06
-0.00872927
-4.47233e-16
0.419091
-0.0113356
-2.99999e-11
0.0314276
-0.0212315
-0.369785
-0.00766114
-3.46966e-15
-0.131459
0.0146506
-0.00884011
0.00604011
0.071835
0.0512124
-8.9945e-61
-8.54995e-11
0.0120584
0.0791127
-0.0925961
0.0079728
-3.56524e-61
0.0389077
3.48079e-05
6.50123e-05
-0.0650839
0.0251027
0.0372952
1.16599e-321
-0.171441
-8.27723e-11
0.0857992
0.0013976
-5.94141e-10
-0.128272
-0.0477551
0.00533533
3.46375e-05
0.110134
-0.0340562
-0.0363963
0.00604011
0.00580987
-0.137311
1.98503e-197
-7.4697e-08
2.17591e-06
-0.0263093
0.102754
0.0060927
0.0060927
0.0962952
0.0374119
-0.0552632
2.83921e-08
-0.10068
0.268427
0.00604011
-0.00927063
-4.15043e-07
0.00604011
-7.88774e-12
0.0143341
-1.46783e-06
0.0423897
0.0182728
-8.8872e-16
0.00149318
0
0.336313
-0.000805578
0.0749474
4.10074e-322
0.00199196
0.083618
0.00604012
-0.0487752
2.83072e-16
-0.00891792
-3.69237e-07
0.0562049
-8.54995e-11
0.0156176
-0.20927
3.30075e-13
0.0482448
0.00604011
-0.0433105
-0.0528825
0.00425316
0.0753036
5.73987e-08
-0.00203619
-7.96179e-11
0.0649293
0.0396469
-0.0338666
-0.107451
-0.0611385
-0.00902498
0
0.552158
-0.0351958
0.0786503
-0.00251426
0.0900936
-0.0187597
0.0836151
0.00132148
0.000253149
-0.0318633
-4.496e-322
-0.0137787
-0.0286698
0.134928
0.00473689
-3.49473e-58
-0.0223301
0.0438665
0.00539545
0.0554472
0.0473601
-0.00964852
2.14515e-05
-0.0317141
-3.56524e-61
0.0183392
-0.00902498
-0.0581711
-0.00166438
-2.17323e-06
-0.0295749
-8.31024e-11
-1.3161e-14
-0.0651932
0.00034743
-0.0300632
0.00604011
0.0137638
-0.0408525
-0.032001
0
0.098181
4.14248e-06
0.220101
-4.13334e-07
0.000197446
0.00851598
-0.0503436
-0.071012
-2.01914e-09
0.0705666
-4.94128e-08
-0.061724
-0.0987648
0.0137061
-0.208407
0.00435579
-0.178075
-0.0504189
0.00796212
-2.62177e-78
-0.0941474
0.0314767
-0.0775082
0.0427642
0.011436
0.000339224
-0.0811623
-0.192787
-0.0680294
0
0.000541355
-0.0647327
6.75433e-05
-0.133722
-1.22065e-13
-4.496e-322
0.00455326
-0.171758
-0.03485
2.34142e-05
-0.0205829
-0.0772318
-0.00864321
0.00193333
0.17581
-6.3995e-10
0.0544662
0.0221617
0.0481041
0.0670971
0.0133739
3.25391e-05
0.0175569
0.0193311
-2.21456e-06
-0.0301434
0.00604011
-0.0210851
0.179011
-8.31024e-11
0.287877
0.0238791
-0.0295061
0.00842112
0.0965865
-2.59776e-06
0.00604011
0.0448185
0.132371
2.3061e-06
-8.31024e-11
-0.08821
0.0615359
-0.0449122
0.108324
-0.0487721
0.0770593
-1.1488e-11
0.00608071
0.0175569
0.00656762
-0.0539825
0.0181904
0.039309
-0.038549
0.108242
-0.174338
-0.0151618
0.0152642
-2.62177e-78
-0.110012
-2.21456e-06
0.0185717
-0.040826
-1.70671e-08
2.07508e-322
-0.0401134
0.00425316
0.1681
-0.00703517
0.0580654
0.0700702
-0.234859
-0.0116022
2.92624e-14
-0.139138
-0.0113356
0.0314276
-0.0564294
-0.0853546
0.0269433
-0.0599382
-3.70774e-07
-0.0480174
0.0248862
0.0100515
0.168223
-0.0566183
-0.0433109
-0.0170713
-9.5067e-07
-0.0652621
-2.46241e-09
-0.0152844
3.09289e-12
0.134628
0
-0.104063
0.00339237
-0.0216377
0.0784408
0.16649
2.41967e-198
0.00580987
0.00604011
-0.00178815
-8.14664e-11
0.0238791
0.0269375
-0.241782
0.0227196
-8.54995e-11
0.0713112
-0.225861
0.00260823
-0.0357717
-0.00842842
0.0148202
-2.44861e-06
0.104739
0.0209988
-0.00284375
0.0898584
0
-0.0381887
2.06364e-08
0.170534
0.0084491
0.0401982
-0.011583
0.000768985
-0.0113356
0.0717386
-1.29341e-12
0.00777107
-0.0847892
0.0796507
0.000261482
9.93072e-322
-0.107883
0.0383015
-0.0662439
8.49811e-06
-0.0684134
-0.0063493
0.0124483
0.0162015
0.0191643
2.71736e-322
-2.76975e-10
-2.46241e-09
-2.64754e-06
0
0.0260597
-1.48267e-07
0.0445847
0.00353878
0.00113355
0.0432537
-0.0625969
0.105488
-0.0107634
-0.053585
0.0399235
-0.289741
0.0141813
1.25745e-05
-8.54995e-11
-0.0506271
0.0101644
0.0407551
-0.0524779
-0.140337
-0.0112859
-1.3161e-14
0.0244642
-3.46966e-15
-7.88774e-12
0.0178287
0.0060379
-0.0120793
-0.010885
0.179011
0.18603
-0.0645054
-0.00931345
0.00772601
0.00941329
0.036753
0.0291901
-4.11898e-14
-6.3995e-10
-0.0109355
-0.0107636
0.452725
0.0429632
0.00604011
-0.136864
3.63244e-05
-0.0026141
0
0.00609116
-0.0362057
0.0506519
0.00141299
-0.0120446
0.000354857
0.195633
-0.0617919
0.173482
0.0931273
-2.90897e-13
0.0793072
-0.038549
-0.00902498
-0.19574
1.98503e-197
-1.08639e-144
0.0963291
-0.00816663
0.00762572
-8.94634e-11
0
-0.0588713
0.011846
-7.76162e-59
-0.0116022
-1.10702e-14
-1.64393e-59
0
0.0730789
-0.0555172
1.16599e-321
-0.153148
0.00580987
-0.0236676
0.00718027
-0.0319484
-0.0379993
1.29445e-321
1.25745e-05
-0.0601679
0.0560233
-0.0236528
2.51427e-05
-0.0100828
0.00113355
-8.14664e-11
-5.57178e-08
0.0086714
-0.00299746
0.00433206
0.213942
0.0377794
0.0528932
0.000466784
0.00556915
-1.509e-06
-1.509e-06
-1.17513e-57
-9.62355e-07
0
0.000125139
0.00505249
-1.1654e-07
2.17591e-06
0.000438841
0.0978104
-1.38704e-07
0.0127533
-0.0220909
0.357919
-8.54995e-11
6.14986e-05
0.0804892
-0.113206
-0.0144507
-0.0216626
2.3061e-06
-0.0504881
-0.0419512
-0.200431
-0.00725188
-1.75493e-06
0.00604011
0.000768985
0.0106527
-0.0151467
-6.3995e-10
4.03273e-08
0.00533533
0.0183498
-0.109689
0.0562778
0.0367902
-0.0259592
0.101851
-0.144318
-0.0120446
1.26635e-07
0.103254
0.000184221
0.00604011
-0.0545747
-0.00405917
0.00235033
-0.107855
0.00604011
0.06209
-0.0724728
0.0391068
-0.0216377
0.0186505
0.00260823
0.0625448
0.0348424
-2.22358e-12
0.0958249
0.00604011
-0.0789991
2.33399e-224
0.00604011
0.000261482
0.0210139
-0.0406548
-0.0357511
-0.0639257
2.51427e-05
-6.67513e-12
-2.25647e-57
0
1.25111e-05
-0.0541141
0.128345
-0.0432301
0
-0.0224402
0.0522357
0
6.94015e-07
-0.00529179
0
0.10135
2.83921e-08
0.0175569
0.00604011
-0.010818
0
-0.0837219
-0.0899217
0.0225226
-0.155057
-2.87904e-08
-1.89583e-08
-0.149211
0.101851
7.46685e-13
0.00772601
-0.00251426
0.0124483
0.0328639
-0.0728431
-0.0455701
0.0161508
0.00385505
-0.0952019
0.0528932
-0.0106236
-2.12103e-07
-0.282778
0.075313
0.0305157
0.0439885
0.0293955
-0.0211697
-1.85226e-07
0.0426574
0.0580654
0.0197312
0.144416
-8.54995e-11
0.00267852
-0.1261
0.0353215
0.0775844
-1.73154e-06
0.0061573
0.165882
-0.0264304
-1.48724e-08
4.79244e-322
-6.03231e-14
0.0601781
0.000167217
-6.33347e-09
-4.47233e-16
0.00604011
-4.15043e-07
0.000491602
0.0601413
0.00799181
-0.410802
0.0763284
0.00533533
0.0407337
0.0125287
-2.12103e-07
-7.88774e-12
1.98503e-197
-0.0245098
0.273778
0.00034743
-0.0307078
-0.019832
0.0304058
-3.60522e-09
-0.0711007
0.00106142
-8.31024e-11
-1.0753e-06
-0.243925
-0.116597
0.112755
0.054205
-4.79139e-59
0.000373482
-1.509e-06
-0.155057
-1.03639e-11
0.00698287
0.00515268
0.00604011
0.00580987
-0.0128831
0
-0.166919
0.0334754
0.0183498
0.114695
0.0976074
1.25745e-05
-0.0525306
-4.28109e-07
-0.0635433
0.0273768
1.60721e-12
0.0825202
0.0636159
-0.140765
-0.215369
-6.3995e-10
0.22927
0
0.0267875
0.15299
-0.0188639
-0.363739
-1.03639e-11
0.00580917
-0.0338778
-0.026044
-3.75737e-07
0.00604011
-0.174046
-8.31024e-11
0.06628
-2.76975e-10
4.10074e-322
-0.0844995
0.0625448
0.313505
-0.113261
0.0516634
0.00533533
-0.00715029
0.156373
0.0137638
-0.0235298
1.98131e-13
8.49811e-06
0.00580987
0.0123382
-0.0364651
0.201446
0.0169424
-0.00846918
0.189748
-0.00284375
-0.367993
0.00580987
0.0528823
0.00884489
0.00799181
-6.47665e-59
-0.0661755
0.000203733
0.0499649
-0.262506
-0.024372
0.0527728
0.00656705
-0.0207794
2.7264e-05
-6.30503e-09
1.25745e-05
0.00604011
-0.0805526
-8.14664e-11
-1.03639e-11
-2.01715e-07
-0.0113356
-0.0524779
-0.0319968
-1.64393e-59
-0.00405917
0.0445847
1.62054e-321
-0.0392594
0.0868486
-0.0184163
0.208538
-0.0113356
-0.000675435
0.000528091
-2.64754e-06
0.0175569
0.0653449
0.025665
0.0170937
0.0200184
0.0273614
-0.000812326
-3.15795e-10
0.00580987
0.00772601
2.92624e-14
-0.0117287
0.17205
0.0144499
-0.00927063
2.51427e-05
-0.0363775
-0.0229625
-3.33418e-11
-0.0438246
6.75433e-05
3.2372e-12
9.68464e-09
-0.00358109
0.00604011
0.0406739
-8.9945e-61
0.0730789
0.0562049
-0.0746415
-0.125798
-4.5022e-11
-0.0302339
8.49811e-06
-0.0054182
-0.0128472
0.0319148
-0.0351958
-1.03639e-11
-3.56524e-61
0.0743177
-0.013155
-2.66702e-11
0.0364501
-1.22065e-13
0.0784408
-0.0676801
-0.0919697
-0.0813418
-3.46966e-15
0.028856
0.00193333
-0.0650839
-0.115928
-0.0351958
0.000768985
-8.31024e-11
9.68214e-05
0
6.33492e-05
0.000373482
-1.3741e-11
-0.0480174
9.68091e-05
-0.0113356
-1.4379e-08
-0.00902498
-0.102602
0.00604011
0.000347646
-8.27723e-11
5.41079e-07
0.0476306
-0.038085
-1.22065e-13
0.086215
-8.27723e-11
8.44235e-05
0.0607786
-0.0399681
-7.3886e-07
-0.00725188
-0.119018
-0.0737108
4.03273e-08
1.16599e-321
2.19216e-110
0.034046
-0.0775082
0.00718027
-0.0640575
-1.96405e-07
-0.0683217
-0.113842
-3.62682e-08
0.00465146
0.0867062
-1.03639e-11
-0.110012
-0.0518871
0.264994
-0.0480777
-2.76196e-08
0.154175
2.65938e-05
-3.12309e-09
0.0287225
-0.0483779
0.0419842
0
0.0218088
-0.0868595
0.0760283
-8.9945e-61
-0.112115
0.0381221
-3.33418e-11
0
-0.0810827
-0.0135107
0.0810751
0.0520607
-1.3741e-11
-0.00725188
-0.0852489
0
1.25745e-05
-8.31024e-11
0.0743414
0.000541355
-0.0447928
0.063761
-4.496e-322
-0.0318633
-0.195516
0.00353878
-1.89583e-08
-0.128827
-1.75899e-13
0.0311969
0.00594844
3.23681e-06
0.00614548
0.125944
0.0591815
-0.0780357
-0.0641673
2.65938e-05
0.00884489
-0.0650839
-0.0339108
0.0453439
0.00435579
0
0.0155207
0.0105748
-0.0463908
-2.21456e-06
0.0215777
-0.0810212
-0.019336
-0.0707699
-1.12971e-09
0.0664209
-0.119443
-0.147636
3.48079e-05
-2.46241e-09
0.0724895
0.0517318
0.0146439
0.0221527
0.00772601
-0.0705346
-0.161649
-8.27723e-11
-0.0881993
0
0
-8.9945e-61
0.059517
7.41061e-08
-1.509e-06
2.72664e-05
0.0407721
0.000229611
-1.80721e-08
0.0402287
-0.0602343
-1.85226e-07
-0.0359093
0.0124414
-4.64999e-09
-5.59665e-15
-0.10183
5.63441e-05
0.0124483
-0.0226286
0.000524182
-0.0768135
-0.208426
0.0167246
0.111792
-0.0235298
-0.0298401
0.0108332
7.90505e-322
-0.0926004
-0.04986
0.000113927
-1.08639e-144
-0.238318
0.0499833
-1.5187e-06
-0.0589893
0.0625773
0.170376
-0.00552878
2.65938e-05
0.000768985
-0.0547555
-3.46966e-15
0
-0.00405917
-0.00380344
0.0520263
-0.0206781
1.55213e-11
-0.0209921
-0.0251441
0.338921
0.0175569
-1.23944e-06
0.0780785
0.0655338
-0.0546697
0.0774965
-4.91111e-08
0.0680805
-0.00380344
-4.61331e-14
0.0601413
0.150608
-8.54995e-11
0.172223
0.0680892
0.0730623
-0.0200086
0.00505289
0.00019772
-0.0385181
2.09299e-08
-0.0515116
1.25745e-05
0.00685155
-2.66616e-11
-0.0230897
-0.0777523
0.0698127
-0.0381887
0.468506
-0.012287
-0.00463812
-2.1374e-11
-0.134184
-0.0377027
0.0769488
-0.0402648
-0.134667
1.29445e-321
-0.105641
0.0180253
0.104172
-1.48724e-08
-0.186814
0.00604011
0.0292574
-1.23811e-06
0.0117042
0.00193333
-3.61806e-13
-8.14664e-11
0.0963425
-0.0886681
-0.0112859
-8.54995e-11
-0.0738147
-0.0443272
-0.0470899
-0.0122861
0.040254
-2.46241e-09
0.0029761
-0.0540718
-3.04562e-08
-0.0245098
3.30075e-13
-0.0627284
-0.00222643
-0.157111
-0.0685524
-1.22065e-13
-0.0719623
-0.00902498
-0.134238
-0.0103397
-0.0833767
3.953e-08
0.0230498
-0.0673515
0.0954084
-7.88774e-12
-3.75128e-08
-0.0506267
-5.83977e-08
0.147725
-5.48434e-11
-9.94651e-09
0.0810751
-0.0693506
0.0871881
8.16182e-12
-4.79139e-59
-0.0175824
0.0428459
0.0527728
-1.03639e-11
0.00533533
0.0148969
-0.0452586
0.0576996
-0.000900778
0.00604011
-0.0284868
0.000541355
0.0884603
-4.47233e-16
0.0396384
0.138677
1.20058e-321
-0.0136422
0.180062
0.0877494
-0.0251179
1.69475e-06
0.0254945
0.0125287
0.0591683
0.00590668
-0.015763
0.000541355
0.00858024
-5.26254e-07
2.83921e-08
-0.147897
0.0161508
0.0497898
-5.48434e-11
0.0381916
-0.0246356
-0.091673
0.0156012
-0.0210851
3.30075e-13
0.0523155
-0.0565473
0.0806653
-0.116366
0.0457776
-0.160098
-3.12309e-09
0.0573987
0.193487
-0.0419954
0.0978104
0.0150535
0.00604011
1.16599e-321
0.00718027
3.47908e-05
-2.76975e-10
-2.54428e-36
-0.252532
-0.0316413
0.0590457
0.061501
0
5.87203e-05
-0.00284375
-0.030224
-0.124785
-0.0142416
-0.00380344
-0.0185395
-2.76993e-08
-0.115417
-1.48724e-08
-0.0112
0.143451
0.0169436
0.0542263
0.104919
-0.0840573
-0.00251426
2.33399e-224
0.162735
-9.18302e-11
-0.045377
-8.9945e-61
0.0296991
-0.0539982
0.0368418
-7.88774e-12
0.0659973
0.0143341
-2.46241e-09
0.0717386
0.000190832
-0.0235298
-0.0661755
-4.81774e-07
-3.54524e-07
0.0152642
0.000528091
-0.0658075
0.00840751
-0.0882558
0.00604011
-3.22632e-07
-0.0709393
-2.97148e-62
0.00534445
-8.54995e-11
-9.5067e-07
-0.0510265
-8.54995e-11
0.325443
0.0962952
-0.0780357
-0.0504902
-0.0187597
0.0383653
-0.211197
1.51153e-05
-0.0026141
-0.109341
0
-0.024134
-0.126878
0.0705422
-1.80721e-08
-0.0373355
-2.67339e-09
9.68214e-05
0.00036617
-0.116366
2.06364e-08
0.0769338
0.151584
-2.21456e-06
0.0139533
0.0292401
0.174956
-0.0474802
0.00534379
0.0119939
0.0108332
0
-0.0697152
-4.496e-322
-0.00166438
-0.0142645
-0.0359093
0.00842111
-0.0261534
0.0227196
-0.0340923
-0.0506267
0.0744826
0.0364089
-0.082222
0.0504205
0
0.0102593
-0.00902503
0.0247591
0.0715506
0.000501543
0.0751449
0.0175569
-2.12103e-07
0.0528825
-0.0349012
0.103773
0.00775235
0.0258352
0.00385258
-0.0185395
0.332652
-0.0264665
0.125811
0.00564491
0.0423897
0.0472402
-0.0390148
-8.27723e-11
-0.0889306
-0.0481599
-0.153944
0.00533533
-0.00279373
-0.00964844
0.0182035
0.0498351
0.0419842
0.037959
0.016046
-0.0791102
-0.0755528
0.0181023
0.0300995
0.0623143
0.0228922
-0.0308213
0.0156012
-0.0209943
0.135892
0.0115113
-1.22065e-13
0.0389631
0.035455
-0.00299746
-0.0346304
-0.0314677
0.0419842
-7.88774e-12
0.083893
0.00842376
-0.0172254
0.0500155
0.000576163
-0.0299535
-0.0809072
0.00054134
-0.0280647
0.0178287
-0.0626941
0.0569944
0.1475
0.00580987
-4.94128e-08
0.0445847
-0.0721954
0.0588307
0.0427642
0.0370888
-2.1765e-06
-4.81774e-07
-1.7722e-11
-8.14664e-11
0.0213441
-8.54995e-11
0.0996134
0.075313
0.00367108
0.0108332
0.0306046
9.30517e-06
0.0118334
-0.0302145
2.73971e-05
0.0570991
-0.0712544
2.06364e-08
-0.0141915
-0.0651932
-3.4577e-12
0.0499833
0.000541354
0
-0.0709899
-0.0205636
-3.54642e-07
0.0100279
2.05533e-08
0.00772601
9.93072e-322
0.0108332
0
-0.00896812
0.0438235
-0.0632853
0.000622222
-0.0158549
0.0508135
0.0292933
0.000296006
0.121848
1.29445e-321
0.00840041
0.00580987
-0.0107384
2.50571e-05
-0.0437249
-0.0854855
-0.0639442
-0.00744866
0.000203733
0.0542371
0.00443476
-0.027322
-0.0074735
-0.050608
-1.52881e-06
0.011667
0.0115113
0.000918542
0.000541355
-0.13201
-3.29819e-13
-0.0160748
-1.5726e-06
0.00718027
0.0562778
-0.0406548
1.25745e-05
0.00440314
0.0118488
-0.0242713
-0.164957
-0.0362057
0.10798
0.0295067
-0.0590966
-0.185614
0.00799314
-0.00831411
6.75433e-05
-0.000502043
-9.35152e-09
-0.0480182
0.100526
0.0497285
-0.0140882
-0.0187597
0.145587
0.0312208
0.0479677
-1.89583e-08
0.029278
-0.313201
-0.012287
0.34045
0.00604011
-2.97405e-62
0.0515297
0.000858356
8.80088e-10
0
-1.44267e-321
-0.0915808
2.06364e-08
0.344883
-0.018523
-3.54524e-07
-4.47233e-16
-0.01112
-4.62322e-07
-0.284349
0.0175569
0.0580654
-6.93433e-07
-1.03639e-11
0.00772601
-0.00380344
-0.0215618
-0.0102588
0.0994525
0.00851598
0.0232267
0.101107
2.51427e-05
-1.36257e-08
0.0857992
-0.0567823
0.0628684
0.0945828
0.189409
-0.0475904
-0.0397442
7.31217e-322
-3.29819e-13
-0.0346304
-1.03639e-11
0.0978104
0.267648
-0.0106137
-3.56524e-61
-0.0905645
2.09299e-08
0.0827316
1.29445e-321
-2.46241e-09
-0.150689
0.0133739
-0.155325
0.0084491
0.0411921
0.0200074
-0.100753
0
0.0174431
0.043745
-0.0740442
-0.00166438
-0.155194
0.0427642
0.104028
0.129645
-2.54428e-36
0.0221527
-9.35152e-09
0.0582754
-0.0231527
0.0463623
-2.53925e-06
0.0121215
0
0.0594483
0.0603308
-4.47233e-16
0.00381008
0.0544582
0.0174439
0.0126472
-0.014762
-2.76975e-10
0.16356
-0.0288275
0.0654946
-0.098901
-1.80721e-08
-0.110012
0.11252
0.0780178
-0.033215
-7.98571e-10
-0.0931422
-0.145556
-0.118041
-0.0580511
1.62054e-321
-0.0481599
0.0319419
-0.04986
0.000610624
-0.00590367
-0.0796872
2.8704e-05
0.0522357
-0.085007
-0.00902498
0.00604011
0.0178484
0.10561
0.0888005
-0.0524779
-0.0651932
-0.0277349
-0.13913
1.25744e-05
-0.0435846
-0.0427825
-3.61806e-13
-4.86049e-09
0.0569937
-0.04986
-0.0358566
-5.59353e-08
-0.00259815
0.0177091
-0.179724
0.00580987
0.0704205
-0.0480182
-0.0886681
0
-0.0385186
-0.0348695
0.00607492
-0.0291373
-0.0480049
0.00781641
0.0533645
-0.0410702
-0.0444071
0.0730789
1.62054e-321
-0.0467795
0
0.00535972
0.41152
-0.0135107
-7.3886e-07
0.0439885
-0.011583
-2.1374e-11
0.0513476
-0.0681348
-1.03639e-11
8.61266e-15
0.0932078
3.63244e-05
2.06364e-08
-4.94959e-08
0.0646962
-0.0136422
-0.0662439
0.0177444
-3.29819e-13
0.0401794
2.67139e-175
0.0256609
-0.0362996
0.0049976
-0.00476485
0.00858005
0.0329102
-0.0385487
0
0.103751
0.009014
-0.235945
0.000298317
0.0332142
-0.0257065
-0.0564429
-0.037281
-0.00521564
0.0175569
-0.0680071
-2.66702e-11
0.00339237
-0.0941474
0.0150119
0.00941329
-8.31024e-11
-0.0210305
0.121242
-0.0376351
-0.0481599
0.000261054
0.0133739
-0.0860669
-0.00203619
0.427969
-3.04562e-08
9.68464e-09
0.0225226
0.078879
-2.70495e-08
2.83072e-16
8.49811e-06
0.0204128
-0.0691077
-0.116694
0.0146439
-3.29819e-13
0.0406739
-1.22065e-13
0.166348
0.0607786
-0.0672933
0.0175569
0.0157277
-0.00284376
0.0111865
-0.0287754
0.0467033
7.90505e-322
0.209649
-7.06077e-07
-0.0716924
0.0781022
0.0169436
0.0175569
0.0196847
0.0445847
0.049409
0.0124483
0.0143586
0.0772438
0.0356989
-0.0491409
0.0350071
-0.174966
8.6816e-13
2.50571e-05
0.0222389
0.0949021
0
0.0379942
-0.136297
0.0613896
0.0238184
1.69489e-06
0.0973408
0.0157276
-0.0284868
0
-0.0797065
0.129998
-0.0763445
0.0264591
-8.14664e-11
-0.0475979
0.0300413
-0.00841776
0.254706
0.102702
-0.141651
0.068912
0.294359
-5.57175e-08
-2.46241e-09
1.67488e-321
-0.00166438
-0.0599207
-5.40544e-09
0.00604011
-0.00358651
-0.0142385
1.79886e-06
0.0114292
-0.0830477
0.00604011
-0.107652
0.00454866
-0.146234
-0.155307
0.0528932
0.0368418
0.0218335
0.133324
-3.60522e-09
-0.0348201
-4.12962e-07
0.000858356
0.0239356
0.165211
-1.92795e-06
-0.0452586
0.0901634
-8.27723e-11
-4.86741e-07
0.0283296
0.0580654
0.142783
-0.11643
0.0636312
0.0515413
1.98503e-197
-0.0210851
-2.89138e-14
-0.0551369
2.73838e-09
-3.61806e-13
0.114741
-0.0316099
0.00333113
0.00485008
2.50571e-05
8.52966e-10
0.0185672
-0.0147379
-0.0672933
0.00762087
-1.44136e-06
-0.038549
-0.00265391
0.0274811
-0.0299535
-0.0434848
2.72664e-05
0
0.0463245
-0.0188639
-0.0402871
-1.5726e-06
-0.0492921
-0.00104646
0.0840469
0.00435579
-0.0338855
-0.00901241
-0.0709682
0.0118334
0.0458958
0.0314545
0.0175569
0.0314545
0.00732433
0
0.260793
-0.0773361
0.0439885
-0.0289463
-0.0114041
0
0.0914989
0.00604011
0.0248862
2.09978e-321
-0.0302145
-0.014762
0.00435579
0.0133739
-9.50655e-07
-0.0351958
0.121149
-0.0455701
-2.26057e-10
2.3061e-06
-0.0280293
0.15615
-0.0437249
-0.0043686
0.0334349
-4.55658e-08
-0.0406548
0.241451
-0.156536
1.57113e-321
-0.0483131
-0.0795226
0.00574011
0.0401915
-0.0419512
0.0370985
-7.9064e-08
0.0664209
0.0137857
-0.0332017
0.0716947
0.161737
0.0996219
0.00183482
-8.813e-12
0.0196846
-0.0419805
-0.00541753
0.00604011
0.0151803
0.0361212
-9.50589e-07
0.0424907
0.192222
0.00712281
6.57089e-05
-0.234202
0.0221527
-0.0890263
0
0.0821878
0.108105
-0.0116022
-0.060508
-0.0749589
-0.00688032
-1.03639e-11
-0.0103397
-0.0192965
9.68463e-09
0.0222326
0.000438841
-7.28941e-15
-7.9869e-08
0.000768985
0.0175569
0.072712
0.0346938
-0.0631816
-0.0107634
0.265951
-0.0991274
-0.0602935
0.470356
0.103251
-1.44853e-08
-8.31024e-11
-0.0110027
-0.041538
0.0580654
0.011772
-0.110012
0
0.000541355
0.0202855
-0.02224
-0.0209944
-0.044179
0.11144
0.0292018
-0.0157934
-4.11898e-14
0.00604011
0
-1.89583e-08
0.0840024
8.80088e-10
0.000540404
-0.0890262
0.013829
-0.0201781
0.000229611
0.0182728
2.73838e-09
0.159915
-4.47233e-16
-0.0458879
-1.5187e-06
-0.0260432
-0.0406548
0.000211138
-1.03639e-11
0.00485008
0.00342335
0.0281038
-0.0316099
0.0225226
-1.68759e-08
-0.0510446
-0.199885
0.0640658
-0.212048
0.175465
0.114481
0.0225226
-0.0265314
-0.253512
0.0150531
-0.0458715
-0.169683
0.0624775
-0.00942309
-0.0527832
-0.0997351
-4.15043e-07
0.00819978
-0.00223525
-0.0532497
0
-0.00629974
0
0
0.0142952
-0.00223525
0.000858356
4.14248e-06
-0.06351
1.26635e-07
-0.0837107
-0.0882558
2.09299e-08
0.000203733
0.18685
0.000613231
-7.05235e-07
-0.0347792
-2.64754e-06
0
0.000474127
-4.79139e-59
0.00629657
0.0176866
0
0.0356984
0.00791649
0.226287
-0.0163742
0.0221527
0.102918
-1.12971e-09
-0.187453
-0.0236616
-1.22065e-13
0.000538906
0.00884488
0.0234516
0.00903686
-4.94128e-08
0.0631205
-1.96383e-09
0.0843958
0.000184221
0.00353878
0.0121215
-8.14664e-11
4.75392e-06
0.06628
0.086615
-0.0480182
9.64831e-05
0.0356989
0.0152642
0.0227023
-3.04562e-08
0.114509
0.0569944
0.0132124
-0.0201973
-0.0410101
-0.190632
7.22345e-06
2.72664e-05
3.10355e-05
-1.81832e-06
0.0462164
0.0604109
5.96931e-05
-0.268018
0.0127574
2.18689e-05
0.0612616
0.0338721
-2.46241e-09
-0.0121915
0.0292574
0.0175569
0.0844602
-1.3741e-11
-0.0289307
-0.106346
-7.35972e-07
0.0580654
-1.6736e-08
0.0145343
-0.00405917
0.00586867
-0.270941
-0.0480777
-0.0762517
0.0783223
0.0428459
-0.0542181
-0.149819
0.000768985
0.0574494
0.0133739
-0.0999814
0.0166214
0.229166
0.669802
-0.0351958
-1.45669e-08
-0.071009
-0.02219
-0.00942309
6.94015e-07
0.0291205
-0.00725188
0.103251
-0.139514
3.00788e-111
0.017448
0.099738
0.263707
-0.120889
0.00580987
-0.0164921
0.0357255
-0.0624048
-0.0384371
-2.76248e-08
1.67488e-321
0.0225226
-0.0285833
0.0292933
-8.31024e-11
0.0399792
-2.31324e-14
0.227572
0
-0.0556792
0.0793072
-0.00380344
-0.0250685
3.30075e-13
-0.0027334
0.103493
0.0743414
0
0.00485008
0.00369536
-0.0346979
0.128118
0.000858356
0.0124483
-0.0261534
-8.31024e-11
0.130034
0.0234516
-0.119804
-0.0443272
0.00505249
-3.22632e-07
-0.158071
0.116792
0.00369536
0.00501229
-0.0100828
-0.000193581
0.0033366
0.00260823
-0.00743708
-0.184218
-0.110012
-4.496e-322
-0.0613003
-0.148501
0.0330093
1.16599e-321
0.104639
-0.0302145
-0.00964844
-0.214357
-1.03639e-11
0.000858356
0.0914167
-0.0601739
0
0.0147211
0.0642022
-1.68759e-08
0.0385223
-0.0422475
-0.0751008
0.0438665
-0.00785256
-0.061505
-4.79139e-59
-6.47665e-59
0.0415378
-0.129654
4.68767e-05
0
-0.00343892
1.98131e-13
0.139711
-0.0277054
0.0314276
-0.00902498
0.0705666
-0.0398226
-0.0645091
-8.31024e-11
-1.56033e-83
-0.00541603
0.148791
0.087543
-0.0729669
-0.0888166
-1.50565e-10
0.0125861
-0.0591084
-0.00725188
3.20778e-05
0.0809997
0.00883766
-6.67513e-12
-0.0374401
-0.0552778
4.10074e-322
0.0182728
-0.00927063
0.14882
-0.00204362
-0.00902498
-3.04562e-08
0.0225226
-1.01699e-07
-0.00405917
-0.0793858
-0.112685
-0.067009
0.0599608
-0.038085
-0.0433109
-1.85226e-07
0.043727
0.0356989
0.0209729
0
0.00698287
0.0377004
-0.139831
-0.00902498
0.00768789
-0.0709682
1.20058e-321
-0.0297269
0.12531
0.198252
-0.0655347
-0.133722
0.0413685
-4.5022e-11
0.00309891
0.0963606
-0.0280496
0.0575164
-1.20222e-09
-0.0289808
-6.93433e-07
0.000424353
0.00339237
0.0458943
-0.0842931
-0.085384
0.0238776
-1.89583e-08
-1.1808e-08
-0.166645
0.0978581
0.000234218
-6.93433e-07
-0.00145885
0.00772601
-7.88774e-12
-0.0203996
0.00391367
0.000229611
-0.0359093
0.0179237
-9.71706e-07
-8.54995e-11
5.9693e-05
0
-0.0640575
0.0744826
0.0400894
-4.91111e-08
2.72664e-05
4.66919e-08
-0.0383538
0.0528825
-0.0574164
0.0816755
0.000262432
8.49811e-06
0.383457
0
4.14002e-06
-7.28768e-12
-0.0120446
0.0402293
0.0909496
-5.88227e-09
0.000110478
-0.103368
-2.66702e-11
-0.105409
-5.88227e-09
-0.344597
0.128722
0.0479293
-0.00844752
0.00333113
3.30075e-13
0.0533279
-0.560783
0.0539181
0.0825863
0.0157276
-0.118416
1.84107e-05
-8.54995e-11
0.0133739
0.0152491
0.0527728
-0.107578
0
-0.0852489
7.90505e-322
-0.0361929
-2.76975e-10
1.70036e-10
-0.0446215
0.0122696
8.49811e-06
-0.00964844
-2.04725e-08
-4.74902e-15
0.0562045
0.0208966
0
0.110311
0.147802
1.66707e-09
0.0136618
-2.01715e-07
0.0183609
-0.20765
0.00675406
-0.178539
1.20058e-321
-2.21289e-06
-1.5187e-06
-8.42665e-10
0.0174427
-0.0613002
0.000271804
0.050232
0.330372
0.141986
0.0428585
-2.21456e-06
-4.87821e-09
0.041194
8.4981e-06
-8.35156e-07
-2.59776e-06
0.0912147
0.0146439
-0.107184
-0.033215
0.0676295
8.6816e-13
1.29445e-321
-0.0472847
0
-0.0691279
-3.22632e-07
0.0597526
-3.56524e-61
-0.0325155
0.0185259
-0.0851434
1.51153e-05
0.0175569
0
-0.0524779
-1.39507e-10
0.0152642
0.116002
-0.0252552
-0.0163659
0.00385258
-2.01715e-07
-0.0406548
-0.148769
1.26481e-321
0.00533533
1.00789e-321
-0.0318132
0.00604011
0.0183498
0.00304479
0.0292786
8.19392e-05
-0.295267
-0.0951851
-8.95499e-10
-0.0370179
-0.0289307
0.0143497
0.066668
0.0377004
0.0143341
-0.0245929
0.0165134
-1.67766e-06
0.0146694
0.0562045
-8.14664e-11
0.00820018
-0.0357511
0.0208966
-0.0890907
-0.00203619
0.00782628
-5.94141e-10
-3.76417e-07
-0.172337
-1.1654e-07
0.248445
-8.14664e-11
2.09299e-08
-1.50294e-06
-0.0564429
-4.47233e-16
-8.54995e-11
-0.150442
0.00141299
-4.94406e-133
0.0368418
-1.48267e-07
-0.0351958
-1.45669e-08
-0.0719304
0.106178
0.0786123
0.116472
-8.54995e-11
-0.025032
-2.55323e-08
-0.256617
-4.496e-322
-0.113201
-1.80721e-08
0.0156012
0.0771322
0.068843
-0.0947895
0.0309692
0
-0.0658081
-0.0201391
9.68214e-05
0.14992
2.72664e-05
-2.21456e-06
-0.113021
0.101851
-0.0360294
0.00019507
0.0427642
-0.0527468
0.00606037
-0.0230893
-0.0309608
0.117303
-1.36257e-08
-0.060508
-0.00299746
0.00604011
-0.0120302
-0.0984002
0.0553851
1.49421e-05
-0.0362057
0.0962565
0.00762087
-3.29819e-13
0.00909986
-0.0481599
0.0743414
-0.0614656
0.0612607
0.00385505
0.0928319
-0.033215
0.014386
0.177782
1.48949e-07
-0.00545772
-0.0453086
-0.00240098
0.0225117
0.0743414
0.00775235
0.000858143
-0.011583
-0.0219774
0.0102593
-2.54428e-36
-0.0737466
-0.111794
0.119451
-0.0558211
0.00772559
-0.0158352
-0.00222643
0.130847
-0.00225437
-0.0346304
0
-0.0740442
0.18741
-0.0161649
0.056882
0.0573576
0.107978
0.541015
0.0334754
-0.00992396
0.0229558
-7.88972e-07
0.0407857
0.0556473
-0.0470899
-0.0985279
-2.09607e-06
0.148508
-8.28104e-07
0.044481
0.127122
0.00473689
-7.18856e-09
0.0582754
-0.050339
-0.144499
-0.019161
0.0111865
0.0417222
0.00420455
-4.496e-322
0.0518863
0.00819958
-7.96179e-11
-0.0346642
-0.0366372
-1.18107e-10
-8.54995e-11
-0.0645665
-2.04725e-08
-3.22632e-07
-0.0497553
0.0295382
0.00604011
0.00927606
0.000346419
0.0273418
0.0143497
-0.035994
0.38299
9.68091e-05
0.0157276
-0.00405938
0.00193333
-0.000573932
0.412914
-0.0504881
2.14515e-05
-1.0753e-06
-0.0410101
-0.0300697
-0.126475
0
0.0773667
-0.0121915
-0.0699928
-0.0744474
-7.28689e-15
-0.092303
0.0597
-7.05235e-07
-0.122499
6.4549e-06
0
-0.0178731
-0.0212811
-0.0682176
-0.00759744
-0.12846
-0.0481599
-3.11261e-322
0
-0.0555678
-0.00902498
-0.0380855
-0.0188883
-0.0481599
0.0499124
0.000541492
0.0987953
-0.0109355
-1.70956e-06
-0.126345
-0.0716749
0.0643436
0.0146439
-1.10702e-14
-0.0236735
0.0422047
-0.0480777
0.0189699
0.0148969
0.0023014
-0.0363257
0.0398312
-0.00223525
0.0292574
-8.54995e-11
0.00607221
-0.103858
0
0.0631053
-9.50589e-07
-0.00844752
0.00884489
-8.9945e-61
-0.0100828
0.00515268
-0.00645088
-2.70498e-06
-1.03639e-11
0.000541355
-7.18856e-09
-0.0545747
0.0497898
0.0301796
-0.0024213
-6.93433e-07
-5.2145e-12
-0.0351958
-0.0543005
0.0225226
-0.114828
-3.56524e-61
-0.00632151
0.0496847
0.0500155
-8.31024e-11
-0.0192006
-0.038549
0
0.0122495
-4.07677e-07
0.0363032
-2.46241e-09
-0.076209
0.0396384
0.0438665
1.22341e-05
-0.00724338
-1.1359e-06
0.00485008
-0.011583
-1.10677e-06
0.0292933
-0.0592161
-0.0386121
0.0278957
0.0035421
-0.0161591
-1.89583e-08
0
-0.0700581
-0.0650839
-0.0591084
-0.137065
-0.0715116
0.118807
0.100788
0.016239
-0.0552716
0.146501
-1.89583e-08
-0.00598203
-0.0410983
-0.0749712
-1.89583e-08
0.0148969
-1.70917e-06
0.0346092
-0.0409486
-0.0575619
0.00305321
-0.00861002
0.0179304
0.0442345
-1.22065e-13
-0.117166
0.0419841
1.83248e-06
-0.000805578
0.0266919
2.67139e-175
-0.132111
-7.41964e-08
0.022408
-0.0623817
0.0197549
-0.00961536
-0.0366636
-0.037281
-1.23022e-321
-1.80755e-08
-0.0090272
2.06364e-08
0.0766643
0.0152642
-0.011583
-0.0702202
-2.44861e-06
-0.245468
0
-5.0979e-12
0.000768985
-0.0161867
0.00604011
-0.000900778
-8.88768e-16
0.0358888
0.0111376
0.00430775
0.0175569
-0.0746047
0.100698
0.149861
-0.040027
-0.0599107
0.166838
0.025915
0.00775235
0.00321953
0.0857992
-8.54995e-11
0.0115179
0.0130214
1.67488e-321
0.0220267
0.0213941
0.0200074
-8.54995e-11
0.00609981
-0.011583
-0.0580511
0.099328
0.061501
0.00772601
-0.234134
-0.00927063
0.0391999
-2.07491e-06
1.29445e-321
0.00884489
-0.00166438
0.122022
0.0537379
0.0223326
-0.089364
-0.168939
0.125404
0.0060401
-0.0756452
1.16599e-321
-0.189257
-0.0573579
0.0571574
-0.00725186
-0.150689
-0.139181
1.21464e-05
-0.0780322
0
0.0239057
0.0403339
-0.100867
0.001436
-0.0698244
0.0471287
-0.0449122
-0.0277349
0.00312277
0.0901637
0.0586603
0
-0.0890042
0.198568
-0.0121898
0.16649
0.00604011
0.110927
0.0397803
-0.0322296
-0.0591084
-0.00380344
-0.0729728
-0.174907
0.00776091
-0.00882991
0.150707
0.0891684
-0.0187039
0
-0.00299746
0.0178287
-0.0338107
0.0196846
-0.00902498
-9.54355e-10
0.0254485
-0.0607312
0.0114292
0.0278957
0.0976074
-0.010885
0.0323707
0.0188404
0.214061
-0.0274442
0.0574511
-0.00902498
0.0383997
0.0580654
0.0152642
-0.156044
-4.79139e-59
-0.0520883
0.00772601
-0.0100828
-0.0462109
-0.015763
-0.159638
4.7781e-05
0
-0.00725188
-0.042354
0.000858356
-8.14664e-11
0
0.0518735
0.0152642
-0.260134
-0.08821
1.51153e-05
-0.409756
0.137474
0.00542441
-0.122915
-0.0351958
0.101401
-4.62322e-07
-8.54995e-11
-0.388309
-0.00275108
-0.0241782
-0.142077
-0.0685524
-8.31024e-11
-3.29819e-13
-0.0232064
0.0363143
-0.038549
0.0588602
-0.00233108
0.0180983
0.0838116
-4.47233e-16
-0.00271165
0.00473689
0.0334754
-0.0577052
0.0237211
0.00799314
-0.0201973
0.0281038
-0.127081
-0.1335
-0.00251426
-0.000536493
0.000216678
-0.0890262
-0.0186737
-8.14664e-11
0.157392
-0.0254719
-0.0354975
-0.0789991
-8.31024e-11
0.013829
0.00799181
-0.0896961
2.14515e-05
-7.96179e-11
0.00353878
0.0372133
-0.000812277
-0.0368478
-0.0368075
0.0388983
0.0780067
-0.0192803
0.00604011
-0.0707937
-0.0888166
2.65938e-05
-2.11393e-10
0.00369536
0.118058
0.00435579
0.00842112
-0.0536619
0.0721262
0.0572272
0.0497898
-0.0221174
0.187405
0.000184221
0.0480634
0.079978
-0.0470899
0.00604011
0.0555908
-0.0666028
-2.90897e-13
3.47908e-05
0.016765
-8.31024e-11
-0.0453077
0.226078
-0.0455701
0.0813255
8.49811e-06
0
-0.0209006
0.0185659
0.0102593
-0.0657694
-0.0251316
-0.275406
3.23681e-06
0.0287999
0.190326
-0.0114337
0.00425316
0.0499649
-0.0441978
-0.0434177
2.3061e-06
-0.123578
-0.0277349
0.00604011
-1.44136e-06
0.0146439
-0.00166438
-0.0319484
0.0124483
-0.0635933
0.0966507
5.70005e-05
-0.067292
0.00580987
-0.0120019
0.052118
-1.48724e-08
-0.282498
-1.80721e-08
0.0497898
0.00473689
-5.39883e-07
0.00339237
0.0239699
0.00485015
-9.62355e-07
-0.0518745
-0.0947751
-3.56524e-61
-0.00900219
1.67488e-321
-0.104643
0.000437393
-0.186194
0.224309
0.00436206
0.0101685
-0.0919697
-8.42665e-10
-0.0445854
-8.54995e-11
2.67139e-175
-0.0362512
-1.96383e-09
0.00369536
-0.0093419
0.000491943
6.53507e-05
-0.0136058
0.0238791
0.0816318
-0.00275108
-4.64999e-09
6.37703e-08
-0.0384371
-0.0713448
-0.0026141
0.0444262
0.0152642
0.0586328
-0.0984475
0.0225582
-8.42665e-10
-0.0972881
2.65938e-05
0.0518735
-0.127999
-0.0735517
1.3519e-08
0.0152642
4.20503e-14
-0.0103397
0.00604011
0.00369536
-0.00203619
-0.00500025
0.0079728
0.0345481
0.0229691
0
0.00799181
0.02957
-4.79139e-59
-0.0812383
-8.14664e-11
0.389891
-1.89583e-08
0.0705422
-0.0780322
0.0558377
0.0577531
0.0262064
2.07508e-322
2.06364e-08
0.0118761
-0.00203619
0.00604011
1.84107e-05
-2.57474e-07
-0.0188883
0.0552937
-2.89138e-14
0.0345481
-1.38704e-07
0
-0.0165789
-0.0142354
0.0243449
-0.0735795
-0.0185348
-0.205402
0.00505479
-0.0496826
0.00772504
-1.4379e-08
0.0544286
-3.18897e-12
0.00232704
-0.0645054
0.0125287
-1.29341e-12
-0.219215
0.0867062
-3.54524e-07
0.0156992
-0.0245098
2.83072e-16
-0.166694
6.92759e-06
-0.0114425
-3.54524e-07
0.0117334
0.00580987
0.00604011
0.0238779
-4.94128e-08
0
0.0276755
0.203617
-3.04562e-08
0.00604011
2.65938e-05
-9.52943e-07
-0.212802
0.0297558
0.0562778
-0.0100619
-0.010818
0.242452
-8.06909e-07
0.207736
-7.01455e-07
-0.0650839
5.96931e-05
-8.54995e-11
-0.302612
0.00775235
1.63892e-05
-0.119018
0.0316301
-0.0120446
-0.0668767
0.0182452
-0.0118774
0.00604011
0.0146439
0.0141008
0.00799314
0.0182266
-0.00786513
0.0265591
0.00580987
0.00580987
-4.496e-322
4.73781e-13
0.0824902
0.035548
-0.104332
8.6816e-13
-3.49583e-07
0.00604011
-4.81876e-11
0.0224079
-0.0963938
0.0751449
0.168019
0.00899773
-0.0563198
-6.47665e-59
-0.0851008
-3.56524e-61
0.179011
-0.0291635
-0.460212
-8.42665e-10
0.0321784
-0.0179218
-0.0136863
0.0256609
-7.65906e-08
0.0157276
-0.12021
0.0653558
-0.00720038
1.29445e-321
-0.0852521
-0.0346304
-0.00902498
4.68767e-05
0.10492
0.0560233
-0.0805201
0.0158755
-0.00992396
-0.0701507
-0.0609731
-1.89583e-08
0.000261482
-1.89583e-08
-0.0791407
-0.119591
0.0143504
0.0828426
-0.0413358
0.000855739
0.0292535
0.0285472
0.120054
3.48079e-05
-0.0109355
0.00699597
-0.393692
-0.027079
-0.050608
-0.0230667
-0.0498336
-0.0470899
0.000203733
0.0753502
0.0117854
-1.0753e-06
0.0109534
0.0316055
0.0230511
3.48079e-05
0.0604109
-0.0120019
0.0562049
-0.0562603
-0.00725207
7.897e-05
9.68464e-09
9.68091e-05
0
-0.0164921
-0.04986
0.0129604
-0.0656893
-3.56524e-61
0.0222938
0.0659787
0.0562778
0.000285337
-9.41163e-08
-0.0307534
-0.0319295
-1.23944e-06
0.0220267
-0.0595586
-0.00637558
-4.79139e-59
-3.12309e-09
-0.0668767
-0.198732
-4.04369e-09
0.000261482
0.00385505
0.0196862
-0.0422522
-0.0288258
-0.0121916
0.100788
0.0438665
0.0292574
-0.0474802
6.75433e-05
-0.119018
0.0904774
-2.21457e-06
0.113953
0.0116865
-0.0185395
1.49879e-05
-0.13139
1.88585e-08
-0.0253832
0.0118527
-9.62355e-07
-7.3886e-07
-7.88774e-12
2.67139e-175
-3.33418e-11
-1.44853e-08
-0.244175
0.000622222
0.00027179
-8.31024e-11
0.0370888
0
-4.496e-322
0.0115113
-0.0569153
3.97026e-08
-0.104095
-1.48401e-06
-0.17361
0
-0.000812277
-1.10702e-14
0.0291194
0.00019507
-0.0669953
0.0439885
0.10311
-0.0164921
-0.0296417
-1.44136e-06
-0.0142385
-0.0108701
0.176986
-0.0596466
-0.0103397
0.0744826
0.0199653
0.0225226
0.000466784
-0.115575
-0.055889
-0.00166438
1.29445e-321
-0.208247
0.239719
-0.0788026
-0.00513067
-9.50589e-07
1.52192e-05
-0.021137
0.00772601
0
0
-0.0591023
0.125811
-0.0153781
0.0774965
0.0151099
0.00525695
-0.0928745
0.00525695
-2.62177e-78
-0.00724338
-0.0322592
-0.0350799
1.22341e-05
-0.062983
0.0069764
0.135863
0.000858376
0.131236
0.0318911
-0.0377403
-2.97148e-62
0.113844
-0.0647037
-0.0443272
0.0157276
-0.0632469
2.56438e-09
-7.96179e-11
-0.011583
0.0191388
0.0799126
-0.0347487
-0.0142675
-0.00902643
-0.00138727
0.0238978
0.0146439
-2.12103e-07
-0.0595882
0.0515702
-2.97148e-62
-7.28689e-15
-0.00964844
0.0118379
0.123469
0.0143488
-0.000812277
0.0422353
0.00484179
-0.0510138
-0.00380344
0.0178561
-0.00986912
0
0.0287225
0.0811937
-1.57193e-10
-0.00739054
-0.0201973
-0.020468
-0.0139711
-1.68759e-08
-0.0291373
-0.0100828
-0.0932314
0.013324
-5.45904e-12
-2.59776e-06
-0.0674859
0.021293
-0.0610699
1.62054e-321
0.0225104
-0.0497553
-8.14664e-11
-0.00540199
0.227422
-0.0813418
-0.0237838
0.0272629
-0.0128834
0.0538892
-0.38259
0.00034743
-2.31324e-14
-0.0802171
-0.00902498
0.0175569
-7.47074e-08
0.00533533
-0.0547555
0.255745
-0.0802566
0.00880369
-0.0245098
-0.0286566
-0.0435846
0.00859614
0.0320949
-0.0474802
0.287735
0.0345481
0.205341
-0.0439152
0.00473689
0.00604011
-5.94141e-10
0.0263906
0.000613231
-0.110012
-0.0884505
-0.0277349
-0.38624
-0.120488
0.148504
0.0355475
-0.0408373
0.0344721
-1.23811e-06
-0.128673
0.0449251
-3.18897e-12
-0.00261432
0.103205
0.033617
-0.027477
0.166065
0.00184995
-0.0036113
-0.00539622
0.00580987
-0.0648717
0.0124483
8.49811e-06
-0.0197439
0.016765
-0.0651932
0.0310603
-0.0781013
0.0196205
1.72515e-13
0.000200302
0.0140235
6.88886e-07
0.0292766
-0.0328973
0.0614584
0.00604011
0.0174439
-0.112198
0.313505
0.11246
-6.67513e-12
-0.0564429
-8.27723e-11
0
0
0.124899
0.0705666
-0.0789991
0.00772601
-0.0224402
-0.0853588
0.0124483
5.73987e-08
-0.0744071
-0.0510265
-0.0362057
-0.0500667
-0.118345
-0.428647
0.0562049
-0.0351958
-0.110012
0.000216494
0.00218719
-0.00334408
-0.00284375
-0.0470899
-4.07677e-07
-1.75493e-06
0.0146865
0.0780067
0.0195911
-1.44853e-08
0.000524182
8.03889e-06
-3.46966e-15
1.20058e-321
0.0551218
-0.0925307
0.231787
-0.0161985
-9.35152e-09
-0.0392825
-7.28768e-12
0.000424353
-0.038549
-0.0780357
-5.88227e-09
0.120945
-0.0226286
0.0411944
1.46737e-321
1.98131e-13
-2.12103e-07
-3.4577e-12
6.57089e-05
-0.00286055
0.0718013
0.108044
7.8113e-09
-0.136864
-1.80721e-08
-0.0406548
-0.0593762
0.15615
0.0573987
0.00288344
-0.0850274
-0.0289307
-0.0221174
-0.139527
-0.0026141
-0.0613002
-0.0506595
0.113821
0.0478324
-5.0979e-12
-0.253822
0.0233668
0.00796212
0.0750501
-0.0736136
0.0121058
0.475089
0.000528091
0.0218088
-0.033215
-0.0319409
0.121242
-0.133419
0.0231651
-0.0536614
-0.209041
0.0612606
0.0419361
0.0428459
0.00891619
-3.54524e-07
-0.00284375
1.67488e-321
-0.124072
0.0238791
0.0146439
-1.80755e-08
-8.31024e-11
-0.00111577
0.0271162
0.0311391
0.0118334
-2.12103e-07
1.98503e-197
0.0571574
-4.47233e-16
0.0309764
-0.0192007
0.00580987
-7.88774e-12
-0.0470693
2.06364e-08
0.0520751
-0.00562248
1.23509e-06
0.360786
0.0539551
-1.48724e-08
-8.14664e-11
-0.0426112
-0.0113521
0.00779344
0.00604011
-0.0614693
-5.0979e-12
0.0573576
-0.018572
3.10355e-05
-0.0106876
0.0197549
-0.0625657
-3.04562e-08
-3.54642e-07
-0.0780357
9.93072e-322
0.209712
-9.35152e-09
-0.019722
-4.79139e-59
-0.172424
-4.13334e-07
-0.0719587
-0.000812277
-0.0793146
0.0182728
0.000261482
-0.126736
0.00580987
0.0868486
-0.0232449
-0.0737289
0.225547
-0.0504989
-1.67766e-06
-0.537255
-0.0924641
0.00796212
0.0208966
0.00580987
-1.03639e-11
-0.0472847
0.0962952
-6.30503e-09
-0.0903898
0.00851598
-0.160123
-3.37667e-07
0.00515268
-1.29341e-12
1.5069e-321
0.000414973
-0.0659877
0.089422
-2.90897e-13
-0.00800017
0.0670515
-8.31024e-11
-0.0344138
-0.0987105
-0.00380344
0.111267
0.013829
0.247609
-3.54642e-07
-0.0738868
-8.31024e-11
-0.0116868
0.000428877
0.0617877
-0.00902498
0.00762087
-0.0480779
0.0341143
-2.62177e-78
0.0117042
0.192914
0.0302699
0.00604011
-2.25647e-57
-6.3995e-10
-0.00222643
0.037725
-1.03639e-11
-0.119018
9.64831e-05
1.29162e-05
0.0167414
0.0524939
0.0035421
-4.47233e-16
-5.88227e-09
-0.0588438
-0.0316099
0
-1.23965e-08
2.09299e-08
-0.0236742
-2.09607e-06
-0.128673
-0.00333151
0.00369536
-0.0319484
-0.095125
-1.89583e-08
0.063761
-1.89583e-08
-8.54995e-11
7.03267e-06
-0.203074
0.00433216
-2.46241e-09
-0.0623431
0.0198764
1.04475e-05
0.036753
0.0408325
0.0574511
-0.0486066
-4.86049e-09
0.0114292
0.0208482
-0.0632853
-0.00902498
0.0086714
-2.12103e-07
-3.56524e-61
-0.0677199
0.0806653
-8.31024e-11
-2.1765e-06
-3.42985e-12
-0.0640575
-2.59059e-06
0.0220267
-0.040027
-2.89138e-14
-3.49473e-58
0.213311
6.14987e-05
-7.88774e-12
1.62054e-321
-0.0890262
2.09299e-08
0.0894883
0.0326032
-0.198239
0.0937936
0.0411921
0.113013
-0.00902498
-0.00902498
-0.00842794
-0.0036113
-2.66702e-11
0.0174675
-8.14664e-11
-0.0270901
0.0200184
0.0300006
0.0562045
0.0265591
-0.0347487
1.25745e-05
-1.1488e-11
1.25745e-05
0.0664209
-0.0667815
-0.129293
0.0199653
-0.011583
0.00580987
8.52966e-10
-0.0482678
0.000268303
6.75433e-05
0.111021
0.0491761
-2.22358e-12
-0.0369842
0.0196846
-0.0497553
0.00339237
0.00799355
0.0513476
-0.015763
0.0170037
1.36601e-08
0.00369536
-9.35152e-09
-0.0788145
0.16555
0.0741216
-0.0542181
-0.0319575
0.0181516
-3.29819e-13
-1.3161e-14
-0.00223525
-0.0135107
-0.0386939
0.0963425
-0.00166438
0.0346938
0.0360905
0
0.0229558
-0.00576594
-1.40843e-06
0.0640195
0.208791
-2.66702e-11
-1.67897e-13
0.0954962
0.0370933
0.0434189
-8.31024e-11
0
-1.23965e-08
0.0351026
-2.11276e-09
-0.0102243
-2.54428e-36
0.0175569
-0.0470551
0.00604011
-5.48434e-11
-0.0182549
0
-1.03639e-11
0.00193333
-0.0791647
0.00049993
-0.037281
-8.31024e-11
-3.7065e-14
0.0166319
-8.8872e-16
-1.29901e-06
0.0147666
-1.89583e-08
0.0533668
-0.0139617
0.0373261
-0.164974
-0.0524779
-1.5726e-06
-0.149965
0.0267875
0.061501
-9.52943e-07
0.00604011
0.0490721
0.0137638
-1.89583e-08
4.14248e-06
-0.0550502
0
0.087404
0.0100516
0.04655
-0.00725188
-0.0254608
2.19355e-13
0.00698287
0.00113355
0.10561
-0.00284375
-1.03639e-11
-8.31024e-11
0.0156012
-0.0453708
-0.0680328
0.0229643
-9.5067e-07
-0.0188883
-0.00836644
-8.54995e-11
-0.0328973
0.0310603
0.0156012
-0.0105787
-1.65823e-57
0.241341
-0.00261409
-0.00541602
0
-4.496e-322
-0.0284868
-3.56524e-61
0.0236875
0.0140235
-8.14664e-11
-0.143866
-8.27723e-11
0.0718724
-8.54995e-11
0.00889106
0.0734254
0.0396384
0.0114292
-0.0107634
-0.00251426
0.00113355
-0.0281534
0.0416366
0.000110324
0.0239175
0.0264591
0.0238791
-0.0319409
-0.00144201
-0.03713
-7.88774e-12
-0.0150206
-0.0351958
0.000768985
-1.70917e-06
0.0378719
-8.54995e-11
0.0286347
-0.12339
-8.45534e-10
0.0700934
-0.00902498
-3.04562e-08
-0.0251441
-0.097062
-0.17354
0.0502613
-5.46148e-07
-0.133681
2.51427e-05
-0.110012
-0.026855
0.124961
-0.0753862
0.0182853
0.0173641
-0.000536493
-0.00405917
0.0684184
-0.0494199
0.119049
1.25745e-05
0.0572758
0.136616
0.0683442
0.0861536
0.000285337
0.0449251
-0.103604
-0.0114014
0.0387405
0.0282649
0.0115113
-0.00405958
-2.55323e-08
-0.0549932
0.0152768
0.0170843
0.00260823
-4.04369e-09
-0.0306763
0.039585
2.11573e-05
0.0773667
0.0120602
-8.31024e-11
-0.182513
-2.31324e-14
-0.0324531
0.0232267
1.29445e-321
0.000197715
0
-0.036594
-0.0542044
-0.0645054
-8.54995e-11
-2.22358e-12
0
0.000622222
0.0109788
0.0234516
-1.85226e-07
0
0.0310603
1.22341e-05
0.11793
-0.076733
0.00834624
0.0838116
2.83921e-08
-0.0471639
0.0183168
-0.00380323
-0.0193646
