-1.07641e-06
-4.70977e-120
-0.0193625
0.00942231
0.0231626
-4.4403e-07
-3.72622e-07
-0.000180283
-0.0333064
-3.72622e-07
0.00241921
0.0236253
-0.0449148
0
-6.12537e-05
-1.8709e-08
-6.61309e-09
0.0188718
0.00174202
1.08016e-177
-1.20456e-06
-0.0759082
-0.152365
0.0209516
-3.73079e-06
-6.12537e-05
0.0803187
0.0189977
-0.0171159
0.00208181
-0.00674849
0.00198312
-1.39705e-09
1.16209e-113
0.0091877
0.0298347
0.0103983
0.0185502
-2.78658e-05
0
0.110649
0.0393404
-4.19306e-116
-5.27668e-07
0.00808448
0.0746705
0.0189977
-2.63702e-06
-0.00024942
-0.0224796
-0.0854886
0
-0.0209353
0.0910977
-2.02057e-36
-1.53755e-235
0.026514
-0.00461911
-3.40959e-10
0.066667
-5.27435e-120
0.0476419
3.20478e-227
0.0482599
-0.151782
0.0283723
-0.0142308
0.0310472
-0.0511242
0.00288796
0.013194
0.0513761
-0.0331176
-0.00726636
-0.356549
-0.0111226
-8.47754e-07
0
-4.13911e-05
-0.063092
0.0305022
-0.00923657
0.00139513
0.088574
0.0490299
0.0721699
0.0014978
-0.000279749
0.117309
0.0283723
0.0755758
0.00346158
0.0425719
-0.0162653
0.0677409
-0.0431721
0.219599
0.174094
-8.98474e-05
0.0594953
-0.0209353
-5.27435e-120
-0.00494424
0.0146539
0.00321794
-6.12365e-14
-0.0100453
-9.61924e-07
-1.95216e-05
0.178751
-9.86105e-09
-0.0220892
0.019317
0.00989508
8.34462e-62
-1.29016e-06
-0.0847478
-1.10701e-06
-0.112257
0.0139303
0.0813537
-0.00466092
-0.150197
-0.0467377
0
-1.86601e-09
-0.0134459
-0.0147564
-0.02687
9.93666e-06
0
0.0012362
-6.39643e-08
0.0264593
0.0152392
0.0700903
-0.0238974
-1.53755e-235
-0.0720115
0.00413719
0.0460339
4.40161e-05
-8.27293e-05
0.174108
-1.25662e-05
0.0191964
0.0197982
-3.64268e-05
0.02602
0.0750889
-0.0233848
-0.00950294
0
0.0178017
0.149838
0.0298347
-0.0104723
-0.0051198
0.00227321
-0.000253746
0.075198
-0.0067702
0.0392262
0.12091
-5.27435e-120
-0.0301983
-0.00278857
0.0280019
0.0133076
0.00560622
0.129834
0.000611826
-0.00285415
0.0114755
0.11739
-0.01403
0.00309078
-0.0466497
-0.0325635
-2.58558e-07
-0.0209353
-0.00479266
0.00441413
0.00130736
-0.0290957
-0.020643
-0.035343
0.123555
0.0215088
0.0209516
-0.0114688
-0.0841201
-0.00991658
0.026514
0.0576296
-0.193138
-0.0844418
-0.000279945
-0.102868
-0.0875064
-0.139674
-0.0147884
0.0175544
0
0.0708044
-5.27435e-120
0
0.0573253
0.00708909
-0.0220892
-5.40151e-15
-0.00203551
0.0385638
-0.128537
-0.119683
-3.72622e-07
-0.105551
0.0314569
0.0416702
-6.88538e-07
0.0391741
-0.0209357
-0.00373616
0.0185957
-0.00937145
-9.37287e-05
-7.53848e-10
0.194114
-0.0145554
-1.53755e-235
0.070822
-3.7274e-07
-0.00400393
0.0848085
-0.0314528
-0.0766063
0.0875831
-0.0283732
-8.04491e-08
0.0152884
-0.0117706
-0.0110281
0
0.0473406
0.0295391
0.00377365
0.0292689
0.114279
0.189976
-1.04101e-08
-0.128865
0.110226
-1.64564e-15
0.0560371
-0.00479266
-0.0298743
-0.0551279
-5.41996e-07
-0.0264658
0.0843756
-0.0697255
-0.163933
-0.0219104
-0.0325635
1.08016e-177
0.120299
-0.0290151
-8.04491e-08
-0.0370028
-0.00361776
-0.0243289
-0.0354604
0.0201468
-0.079828
2.20203e-05
-0.0306112
-0.128425
-0.0193625
0.00853456
-1.16601e-07
-7.33337e-13
-0.000180283
-0.364913
0.00655976
0
-7.11882e-117
0.0516202
-0.109405
0.0708519
-0.0286022
-0.0149266
-0.0263111
-0.12576
-1.60651e-05
-0.0195434
-0.00923393
0.0206865
0.0364221
-0.13195
0
-0.0183545
-0.0177952
0.00278575
-1.10701e-06
0.15546
0.132622
0.0236253
0
-0.00869019
-0.0178639
-0.00012102
0.0341485
-7.30773e-05
0.117951
0.0514426
-0.0297916
-0.0290957
0.0700147
0.0931477
-3.99088e-09
0.109234
0.0124991
0.211352
0.00240383
-0.0294759
-0.0642846
0.00104217
4.24819e-06
0
0.377683
0.095873
-0.139461
0.0850539
-0.0331176
0.0506957
-0.00851357
-0.00996606
-0.0158529
0.0189025
-0.105513
-0.0462961
-7.42045e-06
-0.0597379
0.165654
-6.88538e-07
0.00768369
0.00404612
0.00440858
0.0393168
0.126888
0.147838
-0.04334
0.1119
0.11699
0.0189977
-0.0554526
-0.00726636
-0.0287957
-0.0445125
0.0152884
0.13329
0.0948901
-0.017164
0.108997
0.0400968
-0.0191159
-0.013578
-0.0571691
0.138438
0.066667
-0.132173
0.00369989
0.0150136
-5.79829e-06
0.116401
-5.27435e-120
-0.0372086
0.0583546
-1.71351e-53
-5.27435e-120
-0.0433464
-0.000279945
-0.0377239
-0.000248731
-0.0207498
0.0438879
-0.047255
0.000532675
-0.0269232
-0.0354604
-0.19259
-5.27435e-120
-0.0825793
-0.0472551
-5.41996e-07
0.0354694
9.93666e-06
0.0198161
-0.079341
-9.37287e-05
-0.00494424
-0.0141163
-0.00422972
0.013448
-2.00435e-06
0.0178017
0.0238218
0.0175544
-0.0196178
-0.000210765
0.0304293
0.0301239
-7.33337e-13
0.0104297
-0.0524518
-0.00589758
0
0.0228696
0.0091877
8.12425e-06
-0.0101756
-1.5801e-10
0.0593714
-1.50084e-06
-8.04491e-08
0.0038912
-1.64564e-15
0.0274347
0.0853197
-1.26942e-05
0.0406528
0.00296696
-0.0906193
-0.00460373
0.088574
0.026514
0.0478175
-5.43248e-05
-0.0606358
0.153416
-0.000118464
-0.0362009
0.0215088
0
0.023507
0.00415822
-0.0177953
-0.0284817
-0.0161117
-0.0551322
0.00768369
0.0418112
0
-0.0220892
-5.27435e-120
-0.0638992
-0.0252275
0.0113673
-0.150747
0.0284305
-4.41932e-06
-0.0606339
-0.0149266
0.0160904
-0.00208131
-4.48161e-06
0.0428784
0.0349568
0.0134132
0.151981
0.0113936
-0.0624555
-0.00044708
-0.00484925
-1.92924e-06
-0.0472187
-0.0958572
0.00765083
-0.118173
-0.00871644
-0.330046
-4.04561e-05
-0.0556398
-0.00296165
0.0849212
0.0188327
-0.0485113
-0.0158318
-0.0282593
-0.212001
-1.53755e-235
0.164162
-0.00030365
0.0107702
0.142512
-0.0243289
0.0383433
0.0460441
0.0114755
-1.54537e-07
0.115633
-0.0220892
-8.42007e-12
-0.0238636
0.0490299
0.00369989
-0.0149266
0.0135788
0.00383771
-0.0916805
0.00227326
0.113836
0.0836056
0.0770008
-1.3857e-12
-0.231016
-1.81996e-07
0.0260898
0.0155301
0.00369989
-1.64285e-05
-0.0375755
-0.166311
-0.131487
0.00397051
-3.12475e-05
-3.78697e-07
-0.114624
0.0315115
0.0134132
-0.0948703
-0.151018
-0.0374355
0.105057
0.02609
0.0220083
-0.0488198
-1.43447e-09
0.0110455
-0.0161129
6.54317e-05
0.173207
0.00179394
-0.0419706
-0.0148167
0.0265165
-0.140614
-0.311573
-8.89127e-12
-0.110608
0.0351387
0.0478009
0.149576
0.0142022
0.0707794
0.00306722
-0.143726
-0.0259741
-0.00196755
-0.0260822
-0.0952738
0.0545665
-0.0704404
0.349763
-0.0246546
-4.18976e-05
-3.69737e-07
-0.0586033
-0.004755
-0.0147564
-5.41996e-07
0.000120543
-0.0215633
0.0529382
0.123382
-0.0775629
-0.023402
-0.0301983
-0.00011662
0.054861
0.00137397
0.00314582
0.00657226
-0.0202502
-0.181873
-1.95208e-10
-0.0166179
-0.0129008
-0.0277165
6.31801e-05
0
-0.010738
0.250099
-0.0312868
0.00110621
-5.27435e-120
-0.00494424
-1.64338e-05
0.0877183
0.00213213
0.0677429
-3.73079e-06
-5.98162e-05
-0.162149
0
-0.0525964
-0.000218768
0.0480676
0.0608964
0.023063
1.70995e-250
-0.0443367
0.180729
-0.0355293
0.0545276
0.0811911
0.0367342
-6.3363e-05
0.0466308
0.0531695
-0.000228559
-2.4399e-117
-0.111442
0.207417
0.0529384
-0.112776
0.00383771
0.00490205
-0.0668994
0.00768369
0
-0.00336738
-0.0147564
0.0306846
-4.19306e-116
-1.53755e-235
0
0.0696344
0
-1.60667e-05
-0.173599
-0.109837
0.0940796
0.0178017
0.00298955
0.00111495
-0.0232218
0.055803
0.00374398
0.166879
0.030222
-0.0417648
0.142513
-0.0381547
-0.033304
-0.0255561
0.0209516
-1.13184e-05
-1.01345e-11
0.00229356
-1.25904e-05
0.0126576
0.0135788
-0.0206448
-0.00468394
0.00557015
-4.05134e-322
-0.0121211
0.00551253
-2.93667e-07
-1.04265e-08
0.0438879
-1.69767e-07
-0.0771921
-0.027314
0.0746658
0.0872464
-0.151175
0.121389
0.0364261
-1.98588e-06
-0.0193625
-0.0608596
1.23022e-321
0.00113904
-0.0783945
0
0.0199531
-0.102411
-0.024505
-0.121622
-0.171279
0.114501
-0.0765334
-0.000132148
-0.0972372
-0.0697255
-0.155062
0.0785108
-7.33337e-13
0.00717255
0.0616355
-5.27435e-120
-6.39643e-08
-4.21451e-11
-0.0679907
-0.0182078
0.0130498
-0.0399367
-5.42401e-07
0.0498595
0.117951
-1.53755e-235
-0.0181144
-0.0246317
0.123827
0.00726217
-2.11762e-05
-0.0137806
0.661942
-0.0606733
-5.57001e-08
-0.0220892
0.0299175
-0.0327327
0
-0.0585042
-0.023025
-0.0220098
2.02676e-06
0.0335749
-2.96519e-05
0.0610313
0.0324257
-0.0205638
0.226177
-0.157919
0.0773248
0
0.151476
0.131094
0.371365
0.129411
-0.0815934
-0.000275021
-0.0555688
-3.78697e-07
0
0.0633713
0.106176
0.114452
-0.0302206
-0.00355677
0.0742901
0.0187132
-0.106405
-1.26942e-05
-0.0105648
0.0191219
-5.59259e-07
-0.0496463
-1.5801e-10
0.0292689
1.16209e-113
-1.17094e-321
-0.140801
-3.12475e-05
0.0275137
0.0280583
-0.110781
0
-1.64564e-15
-0.0218056
9.59449e-07
-0.083437
0.00972172
0.00510318
-0.129469
-0.0191482
0.0162259
0.132639
0.0116634
0.0215088
-0.0135937
-0.0592232
-1.65037e-08
0
0.0834101
-0.00494424
-0.155398
-0.145149
-0.0135565
0.0257691
0.0609162
-0.223757
-0.0135565
0.0142469
-7.0686e-10
0.0573516
0.468621
-0.0769108
0.000499556
-0.0164187
0.0601312
0.0178017
0.0381438
-0.0228712
-5.42401e-07
-5.27435e-120
-0.219043
0.400941
-6.39643e-08
-7.61757e-05
0.0283723
-2.98996e-05
-9.386e-07
0.214332
0.0307665
0.0867832
-0.142577
-0.0866143
-0.00296165
0.00198514
0.213371
0.0214811
-0.000148822
0.0347058
-0.0697255
-0.134863
0.162433
-0.0577782
0.144791
-1.60452e-05
-0.0325207
-6.39643e-08
-0.00589758
0.0511279
-0.150979
0.00243394
-0.0566198
0.024535
0.00137397
0.016669
-0.0727127
0.00421123
0.00244246
0
-0.0290957
-6.12365e-14
-2.63537e-13
-6.54314e-09
-8.04491e-08
-1.39705e-09
0.0579263
-0.0717534
-0.00859249
0.000481969
0.00321794
0.00139509
-0.0606339
-0.0222972
-6.39643e-08
0
0.0776754
-0.000253746
0.0839476
0.0847815
0.0873128
0.0129716
-1.53755e-235
0.00930979
-0.0514757
0.0571018
0.000499221
-0.0353858
0.00398795
0.0217445
-7.33337e-13
-0.00729711
-0.00012102
0.00240383
0.0521947
-0.058838
-0.0710163
-0.0346913
-9.09389e-07
0.144997
0.00768369
-0.070348
0.0188718
9.91671e-05
0
0.0915711
0.109927
-0.130638
0.00490205
0.0341586
0.0194072
0.000709854
0.0182452
0.0941745
-3.2729e-10
-0.000210829
-0.0780892
0.114452
-0.000248731
-6.3363e-05
-9.44351e-251
0.00470621
-1.8709e-08
0.00383771
0.00686161
-2.11762e-05
0.288557
0.0209516
-0.0525999
-2.47895e-06
0.00476279
0.0198161
0.00647446
-0.0220958
0.0178017
-0.0520413
-0.0277165
-0.00573407
0.00223522
-0.0249456
-0.0209353
-0.0532129
-0.0591313
-0.0127474
-5.54304e-07
-0.00484734
-0.0041708
1.37848e-215
-0.0556186
0.00342557
-0.0614393
0.114279
-1.8709e-08
-0.00296413
-0.122386
-0.054316
-0.00822576
-0.00012102
-0.000279945
-4.21451e-11
-0.0402479
-0.00573407
0.0374679
-3.90246e-05
0.0260775
-1.60667e-05
-5.40151e-15
0.0611828
0.0929465
0.0103727
-0.0390338
0.00614837
0.0318481
-0.0250245
0.0497399
0.0881766
-0.00947129
0
-0.0571691
-1.00844e-05
-0.0176902
-0.0422195
-1.22469e-06
-0.025784
0.13246
0
-0.000111299
0.0292689
0.0574473
0.190379
-1.97001e-07
0.128478
-0.111377
-2.07959e-08
0.124483
-0.020644
0.00298955
0.0409281
-3.7274e-07
-0.0348338
-0.00582528
0.181578
-0.0120698
-0.0426622
6.29739e-05
-5.27435e-120
-0.00830993
-0.051814
0.149812
-0.035084
-1.82407e-05
-2.45932e-05
-0.182287
-5.40151e-15
0.0396648
0.116818
0.0198161
0.0119171
-0.0431721
-0.000193048
0.00111495
-4.14237e-11
-0.000279945
0.171853
-0.0251719
-5.27435e-120
0.0012362
0.00726217
0.000312552
-0.0313022
0.009666
0
-0.00493753
0.0602487
-6.40697e-06
-0.0650638
-0.0500058
-0.0587232
3.96932e-250
0.0786481
-0.0296751
0.00139457
0.0142347
0.00480679
0.0178017
0.0810057
-5.27435e-120
0.0205833
-5.27813e-07
0
-0.169039
0.00225786
0.0155237
-0.00331911
0.00225786
0.00373626
-0.2581
-0.0259752
0.0358158
0.00380712
0.00111495
0.00157014
-1.45267e-10
0.077427
-1.14083e-09
-0.0240668
-0.0107219
-0.0689228
-0.0135565
-4.70977e-120
-3.12475e-05
-0.0219104
0.0218758
-0.0100453
-0.0624061
0.0236921
-0.0164187
0.121351
-1.71679e-05
-0.154002
0.00697922
-7.0686e-10
-0.0161591
-0.155105
-0.0352208
-0.0325635
-0.0145121
0.0215088
-4.19306e-116
-0.0183545
0.00298955
0.105483
0.00619915
0.00969614
0.0439189
0.0091877
-0.0364445
0.437303
-0.0166179
0.231046
0.00028394
0.0438438
0.0236253
-0.05299
0.0493475
-0.0979405
-1.53755e-235
-0.0432542
-0.0246346
-0.109101
0.00760104
-0.092037
0.00697922
0.0738573
-5.27435e-120
-5.27435e-120
-0.0817292
0.0127332
-0.0843751
0.0091877
-5.27435e-120
-0.0164978
-0.0502816
0.0113673
0.000443164
0.004705
-0.080379
0.0531129
0.00697922
0.00644634
-0.0220892
-0.00795186
-0.0262093
-0.0318871
-0.031233
-0.0322971
0.0802782
-0.101187
-4.01078e-08
-0.020643
0.183262
-7.42045e-06
0.0601851
-0.020643
-0.0532129
4.55891e-05
-0.00871637
-1.53755e-235
0.068097
0.0419709
0.116766
-0.00413327
-0.0177698
0.10504
0.0448263
0.357315
-0.0290957
-0.0385484
0.114036
0.0118835
0.0785238
0.00321794
0.0464698
-4.21451e-11
-0.0045241
0
0.0983751
-3.78697e-07
-0.073245
-0.028226
0.00615734
-1.44291e-05
-0.229801
-1.8709e-08
-2.99202e-08
-0.0820001
-0.0164003
0.00470621
-9.7239e-07
-9.41311e-05
-2.47895e-06
-0.0243289
0.0400968
-7.0686e-10
0.000481969
0.0209516
-0.0772373
-0.000184189
-0.017164
0.00951513
-0.0107951
0.0292079
-0.111548
-9.08583e-05
0.00369989
-0.10785
0
-6.81798e-07
-0.00645815
-0.0592232
0.00610101
-0.0238292
0.00317984
-0.0767605
-0.0898554
-9.7239e-07
0.0113936
-0.0380634
0.0885226
-0.113234
-6.81798e-07
-0.00911836
0.0657614
-7.61758e-05
-0.0259975
-0.16704
0.0238218
-0.0606339
-1.24015e-09
-0.0352689
0.167902
0.298752
-0.011405
-0.0319228
0.00933438
-0.0571691
0.0120443
0.0341485
0.0897241
-0.0220892
0.0316758
-4.9064e-05
-4.18106e-05
-0.0177057
0.0107698
0.0421252
0.713933
-0.0832308
-0.0169823
0.0992939
-0.138509
-3.22586e-08
0.00256983
0.0835799
-3.24872e-05
0.00515104
-0.0299878
0.00599308
-0.043984
-0.0277146
0.0142347
-0.220502
-0.263892
0.0211662
-0.0354626
-0.0563957
-0.000174517
0.126154
-0.0153049
-0.105074
-0.0313022
0.0383632
0.0383632
0.0992198
0.0576887
-0.307858
0.103323
-0.0572433
-0.00331911
-0.0286382
-0.00859249
-0.0572433
-2.11762e-05
-0.0684345
0.054495
-0.0426622
-1.64285e-05
0.126243
-0.0376791
0.168637
-0.0545601
-0.079359
-0.0703555
0.0818218
0.0198161
-7.09635e-07
0.00298955
-0.00707618
-0.0514298
0.00768793
-0.105945
-2.11751e-05
-0.0327193
-0.119982
0.0152149
-0.0331176
-0.0524775
-0.0817292
-0.122605
-0.0137244
-0.000359395
-0.2119
-1.6305e-07
0
0.0579263
-0.0960114
0.0185502
0
-0.00574413
-0.00396783
0.0443444
-0.223346
-6.98087e-07
0.0214995
-0.0735366
-4.60093e-07
-5.01196e-07
-0.00769591
0.140846
-0.0883256
0.0604901
0.00410112
0.0164286
0.00240381
0.0202461
7.75683e-322
-0.020644
0.0144487
0.0855275
-0.000218749
-0.00234016
0.157198
-0.0001092
0.0260216
0.0233486
2.13138e-07
-1.71351e-53
-0.0403698
0.00451013
0.0535518
0.0211513
-0.0783241
2.46054e-06
0.00109997
0.252591
0.0182452
0.0182452
-9.37287e-05
-2.42172e-05
-0.017164
-0.00605046
0.0215088
-0.0774671
-0.0220892
0.0110188
-0.00724737
0.103607
0.0178017
-0.00204809
0.00435862
-0.113466
-0.0653265
-0.0369075
-0.199486
-0.0157796
-0.0408482
0.0818218
-4.18544e-05
1.53819e-05
0.0286194
0.00354336
5.99856e-08
0.0997796
0.00244246
0.130877
0.0881943
-0.0282593
0.053032
-0.0378005
0.0455986
-1.54537e-07
0.000120543
-0.0177715
-6.12365e-14
0.066487
-0.017164
-1.72355e-07
0.0302969
-1.43447e-09
-1.29016e-06
0.0178017
0.106473
-0.0976317
0.148775
0.039271
-5.40151e-15
0.111109
0.066759
0.511976
0.0236253
-2.59531e-12
-0.127798
-0.00589758
0.0770008
0.00435505
0.261309
0.039326
-0.00479266
0.000674456
0.00709549
0.00244246
0.0146693
0.0162636
0.0131049
0.0508462
-0.0916152
0.0231626
-0.0162856
-5.27435e-120
0.0293444
0
-0.0624061
-0.0163928
-0.0267879
0.0765708
0.0339154
-0.0169904
-5.27435e-120
-0.0179433
0.0313897
-4.19306e-116
-5.27435e-120
-0.0135565
0.0346435
0.00151582
-0.042335
0.0315115
-4.19306e-116
-0.0850268
0.0881735
0.0579322
-4.21366e-06
0.046796
-0.0425621
-0.0368976
-0.000218749
0.0602487
-0.0298835
0.0189977
0.00175754
0.110094
-0.00967238
-0.041416
0.0135788
0.00383771
0.170712
-0.0149266
-4.21451e-11
-2.11762e-05
-0.0699612
-3.36281e-10
0.0400968
0.0332446
0
-0.0137148
0.00373626
0
0.000340288
0.046796
0.000206939
-2.80096e-05
-0.0147666
-0.0703555
-2.42172e-05
-0.0193625
-0.0154519
-0.116217
-0.032035
-0.0153049
0.000113788
-0.0596131
-0.142224
0.01553
0.121355
0.00657226
0.00373626
0.04603
-0.103243
-0.00494424
-0.0301541
0.0364261
-0.0157279
0
-9.00165e-08
-3.90246e-05
0.131858
-0.220173
0.0124232
-0.0651344
-0.0193625
-0.0442328
-0.0750626
0.0383632
-1.16601e-07
-0.0290957
-0.0259752
-0.0436656
-0.0301307
-0.358918
0.0947181
-0.0196094
-0.149894
0.0689149
-1.65262e-15
0.0407299
-0.0161129
0.0436295
0.0022619
0.123431
-5.68272e-07
-0.0388317
-3.99088e-09
-1.24884e-07
-0.0730785
-0.0966679
0.0612103
-0.110734
0.0293336
0.0263193
0.000120543
-0.0467946
0.0232058
0.0130498
-0.00947129
0.298496
-1.39705e-09
-9.41311e-05
0.00891318
0.0753619
-0.0153049
0.0824177
0.0193173
0.080784
-0.0462711
0.068097
0.0469659
0.0390019
-0.00539511
-0.0209353
-5.18412e-07
-0.0162653
-6.88538e-07
0.0171222
-0.0333484
0.0264724
-0.0192368
0.0246594
-0.0479722
-2.47895e-06
-0.0322971
0.0773906
0.0914824
0.0657866
-8.04491e-08
-0.0962529
-0.0363494
0.0211919
0.0330156
0.0134132
-1.86458e-06
0.0145819
-4.21451e-11
0.0331066
-0.00357836
-1.69971e-07
0.326051
0.00610101
0.016103
0.00367346
0.00929896
0.00435862
-0.0193625
0.0668002
-0.518142
0.0316205
-6.54755e-05
0.123968
0.0568969
-0.0340534
-0.021832
-0.0214409
0.0113936
-1.8709e-08
-0.0410706
0.153416
0.105749
-0.0117394
-0.00494784
-0.045724
0.193158
-0.0572433
-0.0136764
-0.0987481
-1.8709e-08
-5.27435e-120
0.000654205
-3.12475e-05
-0.00461911
-0.00461911
-2.50077e-06
-0.0643541
0.0758692
-0.158773
-0.0171159
0.00314582
-0.0477883
0.0178017
-0.00335188
-2.91265e-05
0.0370631
-0.0217313
0.0576887
-0.0622133
-0.00669125
-1.17349e-14
0.00785444
2.69809e-241
-0.0456464
0.0581959
-0.0630812
-4.61703e-05
-0.00494931
0.145308
0.0123035
0.0383632
0.0630406
-0.0813579
0.00729474
-0.00706746
-0.0629844
0.0091877
0.0282083
-0.0829636
0.0560371
0.0694245
6.24158e-05
0.499987
0.0286562
0.0453173
-3.99088e-09
0.120967
0.0740468
0.014666
-0.0210099
0.154051
-0.0295063
-0.0314434
-3.22586e-08
0.00325442
0.0446666
0.0335749
-0.0117087
-0.0564766
0.088574
0.116957
-0.0366453
-1.65038e-05
0.00681713
-0.0457896
0.0639351
-0.0234699
0.069269
-0.0252055
0.0400968
0.0356017
-1.59233e-14
-0.0220894
-0.0158318
0
-1.8709e-08
0.000908326
0.00129599
0.00874667
0.0389598
-0.189543
0.00681713
-0.140776
-4.19306e-116
-0.000990317
-5.27435e-120
-0.0161129
-0.0774774
0.00383771
0
0.00219727
-0.0827482
-0.171161
0.0176189
-0.391588
-8.04491e-08
0.0786481
-1.59005e-106
0
-0.0640333
0.0654129
0.0239038
-0.0341254
-0.0208875
0.0209516
-0.218111
-1.29016e-06
0.0531964
-0.0111144
-0.0193898
0.102802
0.00373626
0.46087
0.0141804
-1.43227e-07
-7.56656e-05
-6.39643e-08
0.225691
0.0772887
0.0191964
-0.095003
0.0322017
-0.0298835
-0.0564116
-0.0838494
1.66994e-321
0.0530471
0.00785207
-0.07938
0.00325681
-5.27435e-120
-0.00719575
0.000532675
-0.021932
0.12392
1.16209e-113
0.122178
0.0142469
0.0113936
0.262546
-0.020644
-0.0982393
-0.0897435
-0.0228712
0.0227803
0.028093
0.116958
0.00429453
-0.10588
0.000443164
0.00710035
0.155749
-6.39643e-08
-0.121095
2.95224e-05
-3.72622e-07
0.00456501
0.000760646
-1.24884e-07
-4.70977e-120
-0.0269232
-0.0316333
0.166516
-0.0356255
-0.028402
-0.119009
-0.0331061
0.104561
0.0517511
-0.0135565
-0.0922592
-0.0398366
0.00256179
0.174076
-0.0900844
-0.0139543
-0.0447575
0.13744
0.00227189
-5.01196e-07
-0.130579
0.00240383
-0.0426622
-0.00539511
0.0178483
-1.53755e-235
0.016133
0.0757222
0.0127136
-0.0244411
-0.0352208
0.00373626
0.0209516
0.00754813
-0.122518
0.0113936
-0.0594795
-0.0817294
0.0152701
-5.88634e-05
-0.0320893
0.0786481
-0.0441336
-0.0932625
-0.0448505
-0.0375529
0.00369989
0.000113142
0.00785444
0.0215231
-0.00738693
0.143535
-0.0324691
-6.39643e-08
-1.17349e-14
-0.00519983
0.0390534
0.0252368
-0.0465282
0.0274964
-0.0107402
0.00672583
-0.000444053
-0.000279945
-1.64338e-05
0.0790927
-3.22586e-08
-0.086183
0.0315115
0.0283246
-0.0328013
0.00655976
-4.86512e-15
0.00383771
-0.0127114
0.0127136
-1.60667e-05
-0.0794122
0.0739681
0.0788851
0.0724438
0.112899
-0.00541113
-0.0135565
-0.0167042
0.0124232
-0.15004
-8.27293e-05
-5.97819e-322
0.134352
0.0451305
0.00427705
-0.0785721
-0.0502865
6.12532e-05
-2.14084e-09
0.0514426
-1.17094e-321
0.0990441
-0.000194516
0.0949422
0.0178017
-0.00948735
0.0744576
-0.127962
-2.05391e-06
0.00325442
-0.0332613
-0.0209353
0.258789
-3.1742e-08
0.00294198
-0.0647186
0.0448189
-0.109964
-0.115526
0.068047
0.148667
-0.112858
-0.0533637
-0.0232587
-0.0871378
-0.0331176
-0.113209
-7.42045e-06
0.0505277
0.035104
-0.031623
-0.0606339
0.0245482
0
0.00292488
-1.8709e-08
-1.53755e-235
0.00404612
0.0405206
0.0587759
-7.80265e-06
-0.0338452
-0.210894
-0.0754616
-0.00468394
0.00421134
0
-6.49905e-05
-0.0165568
-0.0179438
0.0135788
0.00227326
-1.17094e-321
-0.0121211
-0.0421928
-0.0740485
-0.0176847
0.00227321
-0.0798002
-0.00360177
-3.75007e-12
0
0
-0.0391307
0.0738096
-0.0403148
0.00492382
1.37848e-215
0.148565
0.0178017
-0.000586508
-0.0590982
-0.00331911
0.05098
-0.000713433
1.53819e-05
1.66994e-321
-0.0282593
0.0479117
-2.11762e-05
6.12532e-05
-0.0833666
-0.0840607
0.0155752
0.0299035
0.0127136
0.221036
-0.00582528
-0.0302206
-0.0209353
-3.61991e-06
-7.66494e-06
0.00373626
0.182348
-7.53848e-10
0.00298955
-0.104343
0.116791
0.0246028
-3.27119e-05
0.010488
0.0401935
-0.0484229
0.00186551
-0.00726636
0.118898
-0.104081
-0.0474731
0.201007
0.030152
0.0209872
0
0.0294807
0.0139975
0.0231626
-0.0395974
-3.30186e-06
-0.00461911
-1.53755e-235
-1.64564e-15
-0.0319602
-0.000907579
-0.0503976
-0.0149266
-0.0215633
1.16209e-113
-1.25529e-05
0.0832193
0.0579263
-0.121845
-0.0323284
-0.0457896
0.00126711
-0.0165994
-0.0117394
-0.0380569
0
0.0973007
0.0220083
0.0012362
0.0920009
0.0341485
-0.146999
0.00456112
-0.0932676
0.0435659
-0.044999
-0.0653265
-0.0165007
0.0461284
0.0120443
-0.00461911
-0.0893563
0.0847515
0.00278575
-6.39643e-08
0.0772887
-0.157633
-4.21451e-11
0.0917567
-0.000136031
-3.70073e-07
0.0120443
0
-0.0834635
-0.0179433
0.0391223
-0.0265036
-0.0124018
-3.78697e-07
-1.92686e-322
0.00397051
0.00348699
0.00355777
0.0352615
-0.0105675
0.065959
0.0391223
0.00932183
-0.240585
-0.0210099
-0.0166179
-0.0218056
0.0836778
0.225446
-4.48161e-06
-0.102326
0
-1.17094e-321
-3.7274e-07
0.00240383
0.169427
-5.06935e-06
0.0437948
-0.0953785
-0.00708809
0.000499556
-0.023823
-0.00937256
-0.000226279
-1.71351e-53
0.0742901
0.00288621
-3.63305e-05
-2.96519e-05
0.0219048
0.0361296
-0.0670704
-0.0628245
-0.124735
-0.010979
0
-4.19306e-116
0.00467831
-2.14084e-09
-0.0271421
1.53819e-05
-0.0408482
0.121872
-4.48161e-06
0.196213
0.161656
0.138344
-0.00680089
0.00351323
0.0121133
0.0184981
0.0032015
0.0218346
0.0417766
-0.0737747
-0.0957433
0.0936913
-1.19664e-06
-1.71679e-05
-0.00345418
0.0012362
-7.11882e-117
1.50032e-05
-0.0668389
0.0357433
0.023808
-1.5801e-10
0.0227265
-5.27435e-120
0
0.0287171
-3.78697e-07
-0.0220892
-0.0847029
-0.00278857
-0.000180283
0.0157569
-0.0903226
-0.0381547
0.0209516
-9.37287e-05
-0.138323
0.0314569
-7.59352e-05
-0.238527
0.0188718
0.125394
0.0135788
0.00325681
-1.13165e-09
0.000398728
-0.0324852
-0.0556403
-0.00351605
-2.5355e-05
0.00246182
-0.0377068
-4.70977e-120
-0.031032
-0.0161129
-1.8709e-08
0.00680084
-0.0987807
0.0897241
0
0.0188327
-0.0713655
-1.07641e-06
0.0319074
5.42896e-12
0.0235073
0
-5.40151e-15
-0.0248749
-0.0277165
0.0178017
-3.78697e-07
-0.0209369
0.00325442
0.129145
0.0514426
-0.0135565
0.168817
-0.0257507
0.0870201
0.0115441
0.00216838
-0.00373654
0.00134094
0.00273053
0.00325442
0.00610101
-0.00492513
0.00456499
-0.0352792
0.0553841
-0.031032
0.0570877
-0.0220803
0.00183515
-3.72622e-07
-0.0941017
-0.0377434
-0.00958559
0.022402
0.360974
0.00204762
-0.0692198
0.0516523
0.0164628
-0.000735476
-0.337365
0.0257711
-1.65037e-08
-2.80096e-05
1.78852e-321
-0.0669806
-6.12537e-05
-4.19306e-116
-0.0465591
0.0332536
0.0438879
-0.256421
-1.86458e-06
-0.0215318
-1.97001e-07
-0.000218749
0.297451
0
0.0785239
-0.0759471
0.00157014
0.0100669
-0.0193625
-0.043984
-0.000255918
-0.0187722
0.0205832
-0.0093231
0.0151324
0.0130071
0.0529384
0.0163005
0.0288607
0.000324997
0.0205833
0.0113936
0.032271
-6.88538e-07
-0.0290957
1.32414e-06
0.0786746
0.535632
0.0135788
-0.00937145
-1.53755e-235
0.0110455
-0.131931
-0.0322971
0.000443104
-0.0269232
-3.22586e-08
0.164226
0.0582959
0.000544137
-0.0614353
0.00440858
-0.0652116
0.000334815
0.00137397
0.00229356
-6.40697e-06
0.0247174
-0.00978409
-6.3363e-05
8.39912e-322
-4.61703e-05
-6.39643e-08
-0.0390519
0.0252967
0.00709708
0.114279
-7.43192e-07
0.0648653
0.0246249
-3.61991e-06
-0.233609
-0.0596131
-0.00494784
0.0012317
0.0531135
-0.012559
-0.052886
-0.0939126
0.0428223
-0.0290957
-0.00596711
0.0113936
0.248311
0.0579263
-0.0252275
-0.080779
0.00625674
0.0047193
-0.0534699
-0.0090023
0.116203
-0.203456
0.0657569
0.14503
0.0745801
0.0185502
5.99856e-08
-0.0357922
-0.0429123
-1.16601e-07
0.00298955
0
0.00632146
-1.60667e-05
-7.74814e-07
-0.0198725
-0.0430259
0.0438879
-0.020643
-0.091553
-0.0891697
-0.127302
2.02676e-06
0.00492382
-0.117668
-0.0297916
0.11328
0.00619915
0.0612207
0.00246278
0.034723
-0.0243289
-0.0264444
-0.0447442
0.00265243
0.0152884
0.0283722
-2.42109e-05
-3.75007e-12
0
0.00934475
-0.0377965
-0.0325207
-0.0245432
0.189203
0.0061976
-1.62548e-321
0.187069
-1.39705e-09
-0.00073699
-0.144316
0.0569684
-8.27293e-05
0.226689
0.00853456
-0.00296165
0.000622353
0.0621949
-0.174558
-4.21451e-11
-6.39643e-08
-0.000249787
0
-0.1603
0.046796
0.000116393
-9.45098e-05
-1.37706e-05
0.0479016
0.0470818
-4.19306e-116
-1.45267e-10
0.00603466
0.00658243
-5.27435e-120
-1.82407e-05
-4.21451e-11
0.0401382
0.0272454
0.00372398
0
-0.0467656
0.0298347
-5.27435e-120
0.0410337
0.0297908
-0.0222972
0.231848
-0.190364
0.0185502
0.0187132
0.167229
-0.0431721
-0.151782
0.193838
3.20478e-227
-0.00974019
-6.34538e-12
-0.0616597
-1.37844e-321
0.0252954
-0.0381713
-0.0290151
-5.27435e-120
-8.04491e-08
0.0114327
-5.99065e-07
-3.36281e-10
-0.0302484
0.0104495
-0.04238
0.00877641
-0.0277229
-0.0584552
-0.0949532
-1.60667e-05
0.0418112
0.191136
0.0108816
-0.00305989
-0.172975
0.00157014
0.0301239
-0.0275649
-4.21451e-11
0.019089
1.53819e-05
0.00709708
-0.0548046
0.0451906
0.112062
-0.0239767
-0.0828276
0.00150831
0.0331822
0.02602
-0.0391794
-0.128269
0.0871179
0.0311274
0.107394
-2.95294e-06
-0.140887
-0.0432995
0.00325442
-0.0560127
-0.153931
0.030152
-0.0944652
0.0227897
0.0332391
-5.02926e-05
-0.0301983
-0.00999577
-0.000279945
0.0758183
0.0656546
-0.0671775
0.246539
-0.000279945
0.00174478
-0.168805
0.0217352
-0.013578
0.0676164
-0.0482772
1.70995e-250
-0.0107219
0.0234766
-0.0220892
-1.26942e-05
-8.04491e-08
0
-1.39705e-09
0.0370631
-0.00254988
0.0248781
0.0302969
-1.48913e-07
0.0769504
0.035104
-2.07959e-08
0.00617114
-0.0149266
0.0199531
-0.000194516
-0.08803
0.00240383
1.66994e-321
0.0364415
-0.0451586
0.0357433
-0.0492306
0.00373626
-0.00941499
0.00123166
-0.000146101
-2.14084e-09
-0.00494424
1.08016e-177
-0.031514
-3.6332e-05
0
-0.024803
0.000150163
3.20478e-227
0.00137397
0
-0.104502
0.0230172
0.14439
-0.0640148
0.0473534
-0.00260764
-1.95216e-05
0.0228957
0.015566
-0.0056089
0.00373626
0.0576887
0.00709708
0.036512
-0.0203569
0.0802782
-0.0135565
-8.04491e-08
-0.220432
-1.3857e-12
0.0190795
-0.0512666
0.00167737
0.0124232
0.0103698
-0.00446288
-0.0378371
-0.0974876
0.00206541
-0.061259
-1.64564e-15
-5.27435e-120
-0.0656332
-0.104358
-3.1742e-08
0.0882393
0
0.035104
0
0.0419877
0.00619915
-0.0423629
-0.00320151
-0.0386882
-4.86512e-15
0.0152882
-1.16601e-07
0.017396
-1.53755e-235
-0.199887
-4.85962e-08
0.0148909
0.210171
0
-0.00234016
2.02676e-06
0.0163025
0.0343306
-2.48512e-06
0.00421134
0.00374116
4.55891e-05
0.143334
0.249464
-0.139988
0.300599
-0.0244545
-0.0136926
0.0188327
-0.100929
3.20478e-227
-0.02053
-0.0909477
0.00257034
0.229592
0.15865
-0.00925351
-0.0622134
-1.29016e-06
-0.00947129
-1.53755e-235
0.0135396
-0.0754288
-1.3857e-12
-0.0342641
0.0664651
0.159784
0.0229346
0.0214811
0.0846934
-0.0269232
-0.023492
-0.120186
-4.4977e-05
0.103017
2.35988e-10
-0.000279945
0.065959
0.00111495
0.0104211
0.0209516
-0.00102009
-5.27435e-120
0.0638105
6.31801e-05
0.0436295
0.0659378
-0.104869
-2.04341e-09
0.177685
-0.0153049
0.0103727
0.065959
-0.0290151
0.0351436
0.035104
-9.10084e-05
-0.000178089
-0.0508034
0.116031
-0.0218056
0.038367
0.0802782
0.24194
0.020076
-0.0426622
-0.0650639
-0.0680943
0.0466585
-1.60667e-05
-0.0574012
0.114879
-8.07082e-06
-0.0153049
-0.0374368
-0.0148167
0.0185502
-0.126757
-0.0904279
-0.0346193
0.00240824
-0.0100453
-1.58788e-06
0.140492
6.12532e-05
-0.00468394
-0.00176426
-0.000185014
0.00584529
0.0604901
0.104724
-0.0701317
0.0758692
-0.100987
-0.0151558
0.0393958
-2.04203e-08
-0.0209353
-0.0557327
-0.0664111
-4.48161e-06
0.0114909
0.00270107
0.0178017
0.000113788
0.0400038
0.0390276
-0.00547749
-0.0147372
0.0942013
-5.41996e-07
0.076229
5.45025e-06
0.0260791
-0.160189
-1.71866e-05
-3.24872e-05
0.117889
0.0321846
-0.0767605
0.0091877
-0.0147564
-0.0184676
-0.0403142
-0.0193625
0.052266
0
-4.18976e-05
0.092793
-0.000989124
0.0588342
1.19328e-06
-0.203687
-0.00403655
0.0939928
-0.028078
-0.0171159
-0.105513
0.120501
0.0625714
-5.88634e-05
0.00424279
-5.41996e-07
-6.61309e-09
0.000481969
0.000499221
-5.27435e-120
0.0258876
0.344398
-0.0813216
-0.00706933
-6.39643e-08
-0.0749075
0.00240383
0.0575306
0.0198161
-3.24872e-05
-0.013578
-0.0325635
0.110212
0.0114755
-0.0104914
-4.18106e-05
0.00240383
-0.00443945
-6.39643e-08
0.00557017
-0.0502865
0.0310472
0.00225542
0.109881
0.00524455
-0.0418287
0.0597289
-6.39664e-08
0.0331941
-0.0305362
-0.632766
0.0770008
0.00223522
-0.00923393
0.360311
0.131788
-0.0418577
0.021881
0.0209516
-0.000279945
0.00768369
0.00227189
0.0107698
-0.129353
-0.0427115
-0.0375085
-4.70977e-120
-0.0312714
0.14161
-4.19306e-116
-0.010567
-0.0416914
0.00527559
-6.39643e-08
-5.27435e-120
0.00229356
-0.0135565
0.0302969
-0.131931
0.00391416
-0.0202144
0.0236253
-0.0297916
-0.0756451
-0.0299878
-0.0297916
0.0012362
0.0271199
0.00573392
0.0260775
-0.0249456
-0.0615011
-6.17696e-09
0.0206865
-0.0272799
0.000481969
-0.126957
0.50917
-0.00419583
0.0678356
0.0332446
-4.19306e-116
0.0359968
0.137913
0.0209516
-0.0712623
0.249627
0.0303933
0.113465
0.0805403
-0.0297481
-3.1742e-08
-0.0243289
-2.47895e-06
0.00154833
-0.0533637
0.00705522
0.000499221
-1.19277e-07
-0.0950239
0.0810957
-0.0354604
-0.000159468
6.12532e-05
0.00726217
-0.00520268
-0.060639
-0.0121211
-0.0331189
0.0803277
0.110707
0.144393
0.00323608
0.0436295
0.0551441
0
0.0917567
0.0130254
0.0111492
0.333455
0.0189977
0.0188327
0.0103993
0.0198161
0.0446666
0.0316758
-1.10701e-06
-0.0602858
-8.04491e-08
0.0984627
0.0460441
-0.0426146
-1.64338e-05
-7.42045e-06
-5.27435e-120
-0.0343465
-0.0426622
0.105004
-0.0210099
0.040117
-0.0944157
-0.0401324
0.0742901
0
-5.9073e-05
0.231822
-0.118463
0.00383771
-0.0193625
0.00088923
0.0127557
0.00490205
-0.0324546
-0.0312868
-0.0581663
-2.47895e-06
-0.0445125
0.00142991
-1.53755e-235
0.0520417
-0.0313022
-0.0529888
-0.0663664
0.0252964
-0.00531618
-0.0221398
0.0178017
0.0527647
0.0947443
-0.0299878
-0.0386357
0.0316476
0.0322841
-0.0137143
0.00711004
-0.0606339
0.00929392
-0.00461911
-0.158546
-0.0105675
-1.17349e-14
2.69809e-241
-0.0884535
-1.26942e-05
-0.0627691
-0.128343
-1.65262e-15
0.00317984
0.0318481
0.00428087
-0.0318877
-0.0386512
0.194265
0.0516513
-6.89108e-07
0.0508604
-0.0631478
0.00686361
0
-0.000222651
-0.0497973
-0.0606339
0.0178017
-0.146512
-0.0331189
0.0053058
-0.0694657
0.16954
0.000177171
-2.00435e-06
0.0298489
0.0283491
0.122375
-3.58793e-07
-0.0135565
0.0178017
-0.0293454
-0.0282323
-5.27435e-120
-5.57001e-08
0.0896527
0.00223522
-0.119772
0.00449868
0.000842329
0.0204347
-4.48161e-06
0
-0.00146739
-0.014497
-4.21451e-11
0.0113673
0
0.335053
-9.41311e-05
-0.0312868
-1.20456e-06
-4.63403e-05
-1.53755e-235
0.0178017
-0.0426622
0.00412942
0.0254568
0.066759
-0.0322776
0.062707
-4.48161e-06
0.00109997
0.0043194
-0.0227017
0.0700903
-0.385042
-0.112918
0.0198161
0.0119805
0.0642996
0.0418112
0.00383771
-5.54304e-07
-0.0899488
0.0020441
-0.031032
-0.115623
0.046241
-5.54513e-08
-0.0127114
-0.0290151
-0.0531811
-0.0798667
-5.06902e-06
0.0855249
-4.18106e-05
-0.0220892
-0.0192697
0.0228257
-0.0117394
-1.95216e-05
0.00723933
-1.24884e-07
0
0.0551924
-8.04491e-08
0.00435862
0.0207069
-0.0476532
4.648e-05
0.147131
0.0114755
0.00683125
0.00309326
0.00298955
-0.000218749
0.118223
0.0188327
0.0400968
0.047127
0.00968286
-0.0498668
-0.0479446
0.0400968
-7.74814e-07
-3.97676e-05
-0.0426622
0.00379259
0.120936
-0.0687885
0.0419709
-0.0645763
-0.00502938
-0.127719
-0.0103532
0.0315463
0.00491956
0.0261339
-0.0689322
0.11127
-0.00417162
-0.0993404
0.305109
0.00768369
0.00229356
-0.00463734
0.328878
-0.000181269
0.119795
0.0648653
0.0130498
0
-0.00271398
-6.81798e-07
0.00257034
0.0393168
-0.0835403
0.0589452
-0.0290501
-0.267691
-0.0822538
0.194208
-0.0297589
-0.0903341
-0.000545288
0.00923007
0.0687132
-0.17415
-5.80818e-05
-0.0321759
-0.02339
-0.0915606
-0.0367102
-0.00535806
0.0776668
-0.0622786
0.035386
-0.183018
-0.0248689
0.155772
-7.09635e-07
-0.0669806
-9.61924e-07
-8.04491e-08
0.0314563
0.0264724
0.0534453
-0.0315646
0.0607145
0.032902
-0.0173163
-0.0711429
-0.023287
-0.0502148
0.000113788
0.00428087
-0.0153049
0
0.0232493
-1.60667e-05
-0.109837
-0.00203551
0.00480679
0
-2.04168e-08
-0.00707876
-0.0150356
-0.171201
-6.12365e-14
-5.27435e-120
0.0260013
-1.64684
0.0435527
0.27345
-2.42102e-05
0.137185
0.0314569
-5.13944e-09
-0.0407601
0.0178017
-0.103582
-6.3363e-05
0.0510103
-0.0656055
-0.144775
-0.115331
-0.000239925
0.0220871
0.0199531
0.210656
-0.0235368
-0.020643
-4.48161e-06
0.0446776
0.030152
0.00244246
-0.106907
-0.108857
-5.27435e-120
0.0155301
-1.09942e-05
-0.00494424
-0.0968456
0
0.100817
0.0509011
0.0306897
-0.0532129
0.00113736
-0.105366
0.00263473
-0.0299878
0.0777761
0
-0.000132148
-4.21451e-11
0.0238882
0.0254631
0.0283747
0.000140517
-2.02057e-36
-0.0214409
-0.0746939
-5.42552e-05
-0.0176742
-0.0463797
0.0248774
-0.0939173
2.69809e-241
-0.124971
0.234875
-7.33337e-13
0.019816
-0.214128
0.0657131
-0.113466
-0.0653279
-0.0107182
-0.0838509
0.00470621
-2.5355e-05
0.0604482
-3.40959e-10
0.0188718
0.0198161
0.0531129
-0.0219374
0.000324997
-7.08481e-12
0.0349046
-0.0107219
-0.00826126
-0.0641361
-0.0576254
0.0609846
-0.0239421
0.000498602
0.0579263
0.0209516
0.0245916
0.0134132
-3.63305e-05
-1.17349e-14
0.00317984
-0.0297916
0.00183515
-0.0901431
-0.058815
-0.0111189
-0.018099
-0.109499
0.00172411
1.66994e-321
-0.0645763
-0.0503205
0.010491
-9.06366e-07
0.00709708
-1.53755e-235
0.0388753
-7.42045e-06
0.0679283
-0.0209353
0.0922552
0.168476
-0.0149266
-4.18976e-05
0.00508526
0.282114
-0.23188
-0.0874133
0.0129129
-0.00010122
0.00584971
0.636498
-0.0409006
-0.00978909
-0.0107951
-0.00754012
-0.0726777
-0.148201
-1.54537e-07
-0.0635621
-0.020643
-6.078e-05
0.0665004
-0.0762857
0.063517
-1.95803e-05
0.0589794
0.0215252
0.15114
-0.0906038
0.12075
0.114207
-0.0093231
-9.41311e-05
-0.0383391
-7.44086e-06
-0.0198354
-0.0271942
-0.0239414
0.00397051
0.0187128
-0.0142772
0.183384
-0.063016
9.62367e-07
-0.0290957
-0.0269232
0.0189977
-0.120133
-0.0119433
0.0129311
-0.0220892
-0.0238191
0.0218346
-0.0220958
-5.43248e-05
-0.137373
0.088574
9.93072e-322
-0.032299
0.0960776
-0.0753955
0.0736394
-0.0293829
0.0580699
0.0570877
-0.0700866
-0.0444729
-0.0302206
-0.0107219
-0.0521781
-0.00551031
-0.0254352
0.0655774
-0.179418
-5.40151e-15
1.74329e-05
0.085351
-1.17349e-14
0.0417766
-0.0169357
-0.0297916
-0.0325635
-0.000275021
-1.31078e-05
-0.0403142
0
0.0352782
0.00111495
-0.0386512
0
0.0284593
0.0228251
0.108063
-5.27435e-120
0.00492382
0
0.000499221
-0.0209353
-1.00204e-05
-1.28542e-07
-0.0700418
0
0.016582
-6.39643e-08
-1.29016e-06
-2.03135e-12
-1.16601e-07
0.0226925
0.0333163
-0.0606976
0.00225786
0.00383771
-5.40151e-15
0.000532675
-3.95996e-05
-0.0326737
-4.86512e-15
0.0642364
0.0175181
-0.00543692
-0.44036
-1.50084e-06
-0.0228317
-0.00125621
0.00323699
-0.029738
0.0531964
0.00610101
-1.53755e-235
0.123066
0.0746544
0.0101349
-0.00573407
-0.004755
-5.80818e-05
-9.37287e-05
-0.14619
-0.0165284
0
-0.0687885
9.93072e-322
5.42896e-12
-0.01352
0.00383765
-0.0449972
-0.0426635
0.0468674
-0.0133407
-4.14237e-11
0.0142187
-0.0729737
-0.000279945
0.000199433
0.00373626
-1.53755e-235
-0.000249787
0.0634153
-0.0198354
0.0821848
0.034493
0.13699
-0.000524195
-0.0618927
-0.0597135
0.013778
-0.0158318
-0.0179168
0.131675
-0.0689228
-0.00937145
-0.00320583
-0.0290151
-0.0749622
1.74329e-05
0.0575306
-0.000267434
-0.0689318
2.02676e-06
-0.00479266
-0.0153097
-0.0220958
-0.0105648
-0.0220892
-0.03272
-0.0275611
7.42821e-08
-0.031032
0.0425711
-0.035821
0.0298347
-1.46904e-05
-0.000788171
0
0.0227896
0.0425775
-0.0104719
0.148429
0.0786727
0.000916444
-0.0858637
-0.0780892
-6.39643e-08
0.0634917
-0.0252275
0.350486
0.219465
-0.0228712
-5.40151e-15
-0.015928
0.026514
0.134069
-0.0374355
-8.42007e-12
0.000910092
-0.041802
0.000537003
-0.0220892
-2.78658e-05
0.0772887
-0.00479266
-8.15884e-08
-0.0478982
-5.27435e-120
-0.122019
-0.109581
0.0134132
-0.0416161
-0.0240539
-0.00479304
0.0209516
-0.035485
0.00467831
-3.78697e-07
6.31801e-05
1.74329e-05
-0.0252275
3.08563e-05
0.0910606
-0.0793763
0.0142469
-8.78848e-05
-0.0299878
0.057516
-0.0193625
-0.0243289
0.00635845
-0.0605357
0.0383632
0
0.000466181
0.0214811
-5.27435e-120
0.0704538
0.0757459
0.0117831
-0.027386
0.0263193
0.000947607
-0.0552944
0.0854803
-0.13628
0.0401944
0.177221
-0.126988
0.0276819
-0.0545662
-0.0746462
0.0522414
-0.00479266
0.0335749
0.0294802
0.0130498
0.00555773
-0.0825891
0.0358611
-0.00871644
-2.84617e-06
-0.00195496
0.000613179
0.0652077
0.0012362
-0.020643
0.030222
-0.000773352
-0.000132148
-0.0302206
-3.78697e-07
-0.0986568
0.123968
-0.0183545
-2.06152e-06
-7.61757e-05
-0.0107951
0.00647446
0.00573392
-0.0409529
0.0522473
-0.0354604
0.00521236
-0.0944652
-0.000155078
0.105945
-1.53755e-235
-0.0735736
-0.0504938
-0.0722729
0.151751
5.06851e-05
-3.72622e-07
-0.0518712
-5.27668e-07
-0.0239498
-4.70977e-120
0.0125323
1.66994e-321
-0.0937954
-0.0415097
-0.0161129
0.0446666
0.0199531
0.101551
0.054073
-2.14084e-09
-5.27435e-120
0.0845261
-0.000304398
-5.27435e-120
-0.0443249
0
-0.0291587
0.0239007
-5.27668e-07
-0.0161649
-0.20123
0.00175754
0.00647446
-0.0210099
0.000405854
-0.0987344
0.0322011
-0.020643
-1.24015e-09
-0.0159247
0.0747924
0.0469846
-0.0450922
0.0760252
-3.7274e-07
0.0260216
-0.052873
-0.0492629
-0.0181682
-0.0752509
-4.21451e-11
0.0178017
-0.0124519
-0.00195496
-4.60093e-07
-0.0964988
-0.0405904
0.0118731
-0.0973369
0.033416
-0.0746222
-3.24872e-05
0
0.0775294
0.00114545
-1.3857e-12
-0.0002631
-1.65037e-08
0.227322
0.0390534
-0.00327173
0.0209516
0.03639
0.068097
-0.0403802
-1.01345e-11
-0.120112
-0.0282595
0.0482809
-5.06902e-06
-0.0639641
-9.41311e-05
-0.0329
-0.0105648
0.186131
0.0610254
0.0127136
-0.0826545
0.295228
-3.36281e-10
0.0326805
-0.00539511
-0.0426166
-0.0169904
0
-0.000118464
0.065959
0.030222
0.00340093
-7.53848e-10
0.0209516
-0.0729267
-1.60667e-05
-0.0539771
0.00950089
0.0234292
0.00624154
0.0619019
-0.0667717
0.0113673
-0.0135565
-0.0479446
-4.19306e-116
0.049465
-0.0164397
0.00933438
-0.0162281
0.118001
-0.143012
-1.55384e-06
0.00288621
-4.29969e-05
-0.220586
-0.00137902
-0.0689228
-0.0830642
0.00126726
0.114279
-0.00201916
0.0227897
0.0855249
0.00317984
-0.00724763
0.0657537
-3.40959e-10
0.0324937
0.0395736
0.0675776
-0.00491416
-1.69971e-07
-1.25529e-05
0.0188098
-0.0325549
0.046814
-7.33337e-13
-5.27435e-120
-0.0580682
-0.122514
0.0763012
0.0167314
-0.0349452
0.24174
0
0.0844492
0.0166822
-0.000248731
-0.164633
-2.41188e-11
0.0514426
0.0254631
-0.00090802
0.00521236
0.0855249
0.0263193
0.0113936
0.0332446
1.88563e-250
0.0409281
-0.0685875
0.035104
0.0301239
-0.0645763
0
-0.0149266
-0.0205402
-0.00728011
-0.034882
0.22725
-0.011148
-0.0314434
-0.0820001
0.0127618
0.0805403
0.0302533
0.0103996
-0.0153049
-5.02926e-05
0.226097
-0.08803
-0.0606339
-5.9073e-05
-7.33337e-13
-7.53848e-10
0.333262
0.00709708
0.0799445
0.0598609
-0.000194516
-0.0148167
-0.0125344
-0.0587213
0.0152884
0.00686361
0.0333849
1.23022e-321
-5.27435e-120
0.189502
0.048041
-0.0228896
0.158719
-8.04491e-08
-5.06902e-06
-0.279314
-0.0817699
0.00244246
-0.0773398
0.0794741
0.0758692
-0.020643
0.0253702
-0.0766243
-1.82407e-05
0.0215088
0.0579322
1.08016e-177
-2.04168e-08
-0.0352689
-0.0701476
0.0806007
-2.05391e-06
-1.71351e-53
0.0366884
-0.0290957
0.0872464
0.070688
-0.00278857
-0.000201957
-0.0193625
0.136037
-0.00982641
0.00383771
-0.0381547
-0.0134489
-0.0223081
-0.0164949
0.088574
-0.0165745
-0.0176742
-3.7274e-07
0.000192223
-3.7274e-07
0.0409281
-3.05187e-06
0.0284855
-0.00469665
-0.0817292
-5.27435e-120
0.111812
-0.0907655
1.53819e-05
0.010477
0.00292556
0.0586728
-5.27435e-120
-0.000990317
0.0943267
-1.16601e-07
-0.0574736
-0.0432995
0.00807293
0.0257499
-0.00923393
-0.0148167
0.140933
0.00441058
-0.0748488
-0.101212
-9.41311e-05
-2.63285e-06
-0.017164
-1.39705e-09
-0.0753815
-0.00674849
0.0515945
-0.0309526
-5.54304e-07
-0.000159468
0.0551927
0.05098
-6.40697e-06
0.0817123
-0.0543347
-0.000151895
-0.0322971
0.0417766
-0.0202987
0.0294828
-0.0107951
-1.24015e-09
-0.0353858
-2.11751e-05
0.152302
-5.54304e-07
0.0302969
-0.0900804
-0.0574448
-0.0970735
0.115686
-0.043984
-0.0480339
0.0602487
0.211016
0.0410226
0.018689
0.0597555
-0.0187144
-0.0132005
-0.135752
0.0215919
-2.03135e-12
0.000223321
-6.39643e-08
0.0448534
0
0.00655976
0.104733
-0.552535
0.185364
-0.228657
-0.0410706
-0.000279945
-0.0503976
-0.103325
0.00768332
0.00321794
-4.21451e-11
0.288709
-0.0135565
-0.0090645
-1.43227e-07
-0.0501611
0.000619779
0.101667
0.0511279
0.0436295
-1.63958e-11
1.08016e-177
-0.0342888
0.0515903
-0.0184676
-3.78697e-07
0.0122594
0.0509799
0.0588342
-0.0844418
-0.0373823
-0.00815149
-0.0215337
0.00933438
0.026514
0.0518021
0.0301239
-3.78697e-07
-0.0398366
0.00115793
-0.0275643
-0.0148348
0.0364261
0.00672583
0.0392568
0.0391221
0.0473657
0.00317984
-0.0614977
-0.00859249
0.0729329
-0.0187391
-2.84617e-06
-2.11762e-05
-7.43192e-07
-0.0596733
-1.63958e-11
-0.0171159
0
0.0325628
-7.08481e-12
-0.0512996
-0.0390338
0.0290696
0.0142325
0.0198161
-0.00494424
-5.27435e-120
0.00338166
-0.0667071
0.0383632
0.0460441
0.0453204
-0.000118756
0.000172715
0.066487
0.0796724
0.0610404
0.000499556
0.136778
0
0.0264724
-0.0944652
-0.0500057
0.143279
0.185326
-3.99088e-09
-1.16601e-07
-0.0255144
-0.0294661
0.280935
-0.0575069
-0.0148005
0.0228251
0
0.00610824
0.0993929
-0.00167986
0.0110836
0.0127136
0.00373626
0.0460441
-0.0667866
0.0186643
1.32414e-06
1.32414e-06
0.0693255
-6.39643e-08
0.0470574
0.0996427
0.055847
-0.155771
0.0175698
0.0762381
-0.00673292
-3.62205e-06
0.158696
0.00933438
0.00220278
0.000185831
-0.11351
-0.00991996
-0.0135565
-5.54877e-07
-0.0267904
-0.0121775
0.00519781
-0.0171159
0.0560152
-0.0587214
0.0114755
-6.98556e-05
0.000646791
0.00957163
-1.17094e-321
-2.95209e-05
-5.40151e-15
-0.0521322
-0.0153049
-0.00892641
-0.0381514
6.12532e-05
0.123968
-0.00871637
0.066759
-5.27435e-120
-0.0279377
-0.0269232
-6.39643e-08
0.0332446
4.99006e-322
0.0772887
-0.0246831
-0.0187793
-0.0783322
-0.0767605
0.00874712
-0.00034331
0.0542279
-0.0322921
-0.0401134
0.0595613
0.114279
-0.0236513
0
0.115075
-0.0683222
-0.261288
-0.0510147
-0.031308
-0.0104966
-0.210792
0.0275943
-1.43227e-07
0.0458337
0.0209516
0.0206865
0.0511189
-0.0504415
-0.0408493
0.0254568
0.0198161
0.0418888
0.0880299
-0.0507655
0.0236253
0.000522454
-1.59233e-14
0.0988158
-0.000518335
0.00610101
-0.173343
0.0252967
0.000532675
-1.8709e-08
-0.0426622
-0.00019695
0.0648054
-0.0328198
-0.0550934
-0.048961
0.00726217
-8.89127e-12
0.0785239
-2.04341e-09
0.102436
0.0241086
-0.020643
0.00439707
-0.0376121
0.0861604
-0.0793922
0.103783
0.0583696
-0.0297916
-4.70977e-120
0.0682462
0.0491945
0.227894
-1.59702e-05
-1.54537e-07
0.462292
-0.00947129
0.0130498
-0.0107219
-0.282443
-0.00923393
-2.03135e-12
-0.0390338
-0.0299878
-0.0181641
0.00596543
-0.0313022
0
-6.3363e-05
-0.0516052
-0.0141163
0.00244246
0.0541584
7.75683e-322
-0.036634
0
-0.0620164
0.0782449
-1.65037e-08
0.0295195
-0.0331176
0.0902833
-0.000181269
0.0537952
-0.0282286
-4.61703e-05
-1.53755e-235
0.118006
0.0325228
-7.61227e-09
-0.0193625
-0.119774
0.000312552
-0.00514088
-0.0107402
-5.40151e-15
-7.53848e-10
-0.0817307
0.00225786
0.0602487
-0.0697255
0.257079
-4.14237e-11
0.0115904
-0.0529888
0.00518061
-0.129712
-0.0368976
-0.0136775
-2.95294e-06
-0.0422942
0.0148384
0.13188
-0.0622133
-3.30186e-06
0
1.70995e-250
-2.42172e-05
-9.10084e-05
-0.000151895
0.0806644
0.0855249
-0.0319602
0.0198161
0.00223522
-4.99403e-11
5.42896e-12
-0.0228712
0.000709854
-1.24015e-09
0.0814692
0.174888
-0.02687
-4.70977e-120
-0.0125344
-3.36281e-10
0.0301239
-2.14084e-09
0.00314582
0.05411
0.177404
0.0201928
0.00311875
-4.19306e-116
-0.0689918
0.0301515
-0.0428747
0.233697
-3.99088e-09
0.00672583
-0.000282533
0.000608822
-0.126467
0.000499221
0.0288325
-1.53755e-235
1.66994e-321
-0.0445125
9.93666e-06
0.00672583
-0.141464
0.114452
-0.0394722
0.00321794
-0.0220892
0.0103996
0.0597739
-0.0222971
0.0330484
-1.48913e-07
-5.06902e-06
0.0515903
0.249046
0.0875836
-0.0164949
-1.86473e-06
-0.0281093
-0.0793763
0.000443164
0.000294782
-0.0195818
-0.0390338
-5.27435e-120
-2.02057e-36
0.0152778
0.0335749
-1.71351e-53
-0.0199941
0.0349852
0.0155301
-3.22586e-08
-0.0107219
0.0012362
-2.04341e-09
-0.303562
-0.128022
0.0506301
0.00573392
0.0110455
-0.0622008
-0.0210099
0.0335749
0.580788
0.0446776
-0.0166179
0.0287618
-0.000586508
0.0324937
0.00126728
-0.0793935
-0.000279749
-0.113153
0.00198312
0.0163005
0.0154814
-0.070362
-2.58558e-07
-0.0844418
-0.0329223
0.0392568
-0.0956591
-0.00412089
-0.361335
-1.1858e-107
0.0766081
-0.00655446
-0.00861304
0.0115744
-0.000781395
0.00136788
-3.81823e-06
-5.27435e-120
0.0236253
0.0135788
0.176362
0.0244899
0.00672486
0.050934
-0.0557327
0.082624
0.00686361
-7.05774e-08
0
0.111088
-0.0269232
0.02602
-0.0591056
-0.0277165
-0.0879637
0.00434663
0.0335749
0.00111495
-2.45932e-05
0.0254568
-0.0193898
-0.0510147
-1.3857e-12
0
-2.43791e-10
0.000340288
0.0636528
0.0777761
0.120037
0.0220083
-3.63305e-05
-1.97001e-07
-0.000218749
0.0252954
-0.0873632
0.0127136
0.0510821
-4.14237e-11
-0.0204014
0.0721005
-0.182592
-5.27435e-120
-0.0119061
-0.0209353
0.0428404
-0.0260975
-0.000248731
0.115264
-0.0061904
-0.00260707
0.0961091
0.0463144
0.0770008
0.0514195
-1.28542e-07
0.0488768
0.0209516
0.00383771
-0.067124
0.0356978
9.86078e-05
0.0905867
-0.0312868
-0.0406252
-0.0161632
0.0209516
0.000283883
-1.8709e-08
-0.00947129
-0.00014425
-4.19306e-116
-3.56051e-09
0.074289
-3.61991e-06
-1.45267e-10
0.0644021
0.00240345
-0.0402479
0.0293183
0.0838329
-0.0153634
9.93666e-06
0.0793536
0.0537952
0.088574
-0.000118464
0.0172122
-0.0297916
0.0130498
0.105158
-0.0966679
0.0406528
-0.221378
-0.0480339
0.0030518
-5.27435e-120
0.0434703
0
-0.113466
-1.62548e-321
-0.0248891
0.00114545
0.126821
-0.020959
0
-0.000588526
-0.0502865
-4.04565e-05
0.00383771
-1.74405e-321
-0.234042
0.0104495
0.0887047
-0.0613195
0.00964001
0.11154
0.00259466
-0.0453952
0.0415813
-2.9512e-05
0.00225786
-0.024617
0.0946283
0.128964
-4.22109e-07
0.141234
-0.0325635
0.0191219
-0.00706519
0.00172411
0.0763175
0.0711266
1.53819e-05
0.0260519
0.0182452
0.00117312
-0.0552526
0.00709708
-0.0624061
-0.21432
-0.0328388
-0.00539511
0.00325442
-0.00221528
0.154017
-6.88538e-07
-1.64564e-15
0.0166934
-1.19726e-06
0.000176083
0.00380712
0.0471895
0.0799445
0.0110455
-0.0281388
0.0263193
0
-1.04101e-08
0.02609
0
-0.0260975
-0.0557327
-0.0592032
-1.53755e-235
0.0314569
1.16209e-113
-0.0301541
-0.0658036
0.327638
0.000177171
-0.0541268
0.0453404
0.0370631
-0.0356706
-0.0550476
-0.0228712
0.00342355
0.0383632
-0.0713549
-0.0121775
0.0891448
9.14021e-322
0.0316263
0
-0.0184188
0.00325681
-0.0354604
-1.71679e-05
0.0505383
0.0602487
0.0332446
-0.0285289
0.0850468
0.116567
-5.27435e-120
0.0259933
-0.0322332
-0.135122
0.0785398
0.00446477
-0.0166179
-0.020873
-0.0491368
-0.197952
-0.000248731
-0.0296751
0.00412165
0.0091877
-0.00974884
0.0350721
0.0491221
-0.00841018
0.00229356
-0.0720315
0.00325442
-1.65262e-15
-1.24884e-07
0.00652964
0.00690074
-0.0402479
0.0516523
-1.17094e-321
-9.92548e-06
-0.00246484
0.0645112
-1.17349e-14
-5.27435e-120
0.00722969
-0.0735716
0.146202
0.0374679
-0.00909808
-0.00974019
0.0392568
0
-0.00726636
-0.0315196
0.00370638
0.0186643
0.0704417
-0.154498
0.0743355
0.0332333
0.00223113
-0.0102851
0.00709708
0.141994
0.0187132
4.55891e-05
-0.000279945
0.0167314
-0.102921
-0.0289975
-1.24884e-07
0.00377365
0.00989508
0.0371416
0.0990441
-4.70977e-120
0.0373765
0.00596543
-0.00979008
0.0692029
0.0418112
0.00317984
0.0729334
0.00028394
-3.12475e-05
-0.0455525
-0.0933012
-4.19306e-116
0.101698
0.00325442
-3.63305e-05
-1.50084e-06
0.0198159
-4.18976e-05
0.174956
-0.409747
0.0833344
0.00464541
0
0
-0.0407184
-1.53755e-235
-0.000178089
-0.0375782
-0.0304826
-0.0453952
-0.0463862
-0.0488198
-0.0277165
-0.0395974
-0.0586505
0.00179394
-4.70977e-120
-0.0325635
0.0239039
0.0488768
0.0889383
0.00610101
-0.107873
0.152284
0.0288829
0.000608822
9.14021e-322
-2.57015e-05
0.00446477
-1.71679e-05
-9.76033e-08
-0.0022014
0.0714415
0.029191
0.00310631
0.0214811
-0.137481
-9.51868e-05
-1.43447e-09
-0.00633084
-0.0191265
-3.58793e-07
-1.67955e-07
-3.94755e-10
0.0367444
-6.37861e-05
0.0214811
-0.0135565
-0.231314
-7.61757e-05
-2.60341e-08
0.065959
-1.19277e-07
0.0331822
-2.59531e-12
-4.60093e-07
-6.17696e-09
-0.0263111
0.00508532
-5.40151e-15
0.0824759
0.0392526
-0.0390519
-0.0127383
0.0297911
-0.0209353
0.134352
-7.61757e-05
0.11328
-0.10007
0.217997
-1.97626e-321
0.066036
0.00383771
0.00150758
0.0462917
-0.0172871
-0.109502
-0.0149266
-0.118289
0.00451013
0.0679905
1.53819e-05
0.00240383
-0.0716773
-0.0671329
-0.000248731
0.145515
0.0466308
-0.0193625
-0.000279749
0.0392568
-0.000992182
0
0.0287319
-0.00373616
1.08016e-177
-5.27435e-120
0.0325775
0
-0.0312868
-0.0864286
-0.00234016
0
0
0
-2.04168e-08
-3.99088e-09
0.00142991
0.0690019
0.0566052
-1.8709e-08
0.0148909
-1.45267e-10
-7.33337e-13
0.060981
0.107394
0.00369182
0.144099
0.0386585
-2.4399e-117
-3.22586e-08
0.206855
1.04742e-321
-0.023203
0.0436295
-0.0158318
-1.16601e-07
-0.0249458
-1.16601e-07
-0.0222972
-0.767553
-0.000248731
0.00800171
-0.00902535
0.0361296
-0.0209353
-0.0376058
-0.00839209
0.0881943
0.0120443
0.172651
0.113515
0.0298347
0
-5.13944e-09
0.269711
0.156472
0.0114752
-1.54537e-07
-3.1742e-08
-0.104289
0.0113936
0.043349
0.0193173
-0.0176742
0.0246081
-0.000104987
0.0987553
0.0220083
-5.43248e-05
0.0370631
-0.00479266
-5.27435e-120
-0.0575069
-0.115623
0.00111495
-0.0101887
-0.0631495
-0.0402487
-0.00213997
-0.023402
0.0673811
-3.72622e-07
0.114501
0.0902847
-2.42352e-05
-0.088636
-0.0421946
0.0012362
0.0091877
0.0149821
-0.016884
0.0060157
0.210609
0.0601675
0.0125888
0.046796
-0.0228247
-4.21451e-11
0.026514
-0.0551581
-7.61757e-05
-0.0426348
-1.60667e-05
0.00369989
0.172625
-0.0767605
0.113567
0.0570706
0.0390874
0.0389598
-0.0628498
-0.217611
-5.40151e-15
-4.19306e-116
0.133229
0.0202461
0.00476069
0.159509
0.00127717
0.000721682
-0.108133
-3.78697e-07
-7.33337e-13
-1.80364e-05
-0.0166179
-5.42401e-07
0.0359256
-9.7239e-07
-2.60704e-12
-0.00195496
0.0298347
-7.33337e-13
-4.06483e-06
0
-0.105668
-0.0157279
-0.000159478
-2.63285e-06
0.0209516
-0.016245
0.0757486
0.00175754
-7.61757e-05
-0.0400497
-1.59233e-14
0.0677429
0.0163005
0.117951
-5.27435e-120
-2.82417e-07
-0.0402479
0.065959
0.109459
-0.053057
0.247067
-0.0420078
0.042828
0.0921765
0.00383771
-0.0676107
-4.60093e-07
0.076229
-0.0217423
0.0492866
-0.0107797
-0.0158643
-0.0605357
-0.0222972
-1.8709e-08
-0.0532129
-0.0264561
-1.60651e-05
0.0180572
-0.0252275
0.0373289
0.00383771
0.0360035
0.0049191
-0.0183545
0.0134132
0
0.0257354
-6.17696e-09
-0.484955
0.00243761
0.00686361
0.0255757
-0.0174626
0.070562
0.0383979
-0.074956
0.0209516
-4.61703e-05
0.0128167
-4.9651e-13
-0.000990317
0.00647446
-3.99088e-09
-0.0017371
-9.37287e-05
0.0297911
-6.61052e-08
-0.0174615
0.0236253
-0.0634938
0
-0.00765586
-0.0153049
-0.000279749
-5.27435e-120
-1.67955e-07
-0.0306172
-2.63285e-06
-0.0529047
0.0601675
-6.39643e-08
0.0491221
0.0492739
0.0198161
-0.0352689
-0.0427611
0.00257034
0.0297911
-0.0386512
0.0259933
-0.00278857
0.0209516
0.100377
-0.0764204
-0.17017
0.0414724
0.00373626
-5.18354e-05
-5.54877e-07
-0.0365357
-1.58788e-06
0.0510103
-0.0558335
0.00377365
0.287901
-0.0296751
0.035104
-0.0372628
-0.00941525
-0.00979008
0
-2.10842e-06
-0.0260975
-0.0668738
0.207619
-1.58788e-06
0.00054827
-0.0205416
-0.00937145
-0.27171
-0.0511209
0.0171093
0.0510103
-0.0153175
-8.15884e-08
-1.97001e-07
0.0170679
-0.0758824
0.0142187
-0.0762835
-0.000104409
0.0277922
-4.70977e-120
0.121089
-6.39643e-08
0.00383771
0.0508529
0
-4.70977e-120
0.215198
-5.27435e-120
-5.27435e-120
-0.101661
-0.0284542
-6.3363e-05
-0.188909
-0.0874217
-0.0445125
-0.0249456
0.082794
-0.0587138
-0.0220331
0.00150831
-0.0735946
-0.0209353
1.70995e-250
0.0331151
0.0219505
-0.0528563
0.0142347
-0.0218056
-3.94399e-06
-1.59233e-14
0.0296229
0.133077
0.00334882
0.0189977
0.0215088
0.0710533
0.0158711
-1.97001e-07
0.0152884
-0.0141103
-0.0211502
0.000499221
0.10339
-0.0437392
-0.0318848
-0.0879889
-0.0337156
-0.0278145
0.0236253
0.0450021
-0.0120656
0.0151947
0.0127489
0.0112263
-3.78697e-07
5.42896e-12
0.00989452
-0.0236878
-0.00669125
-5.54877e-07
-0.000194516
-0.0241394
0.0434482
-0.023492
0.168872
-3.78697e-07
0.0642364
0.0361296
0.145295
0.00100584
-0.0495664
-0.227048
0.0894855
-4.9203e-05
-0.0178489
0.0152723
0.263199
-4.18544e-05
-1.97001e-07
-3.36281e-10
0.230537
-0.118071
0.0189992
0.0236253
-0.0398395
0.069433
0.0120443
0.0239345
-6.17696e-09
-0.0131877
-1.50084e-06
-0.00322325
-0.0105648
0.078533
-0.0254117
-0.0567235
-0.0278783
0.108676
-2.11751e-05
0.10421
0.0742277
0.00614777
0
-0.000275021
0.0408461
-0.0390519
-0.0650155
0.410341
-0.0296751
-1.64564e-15
-0.0320404
0.0134132
-0.0218056
0.0113673
0.030157
-0.0250355
0
-5.06902e-06
0.0091877
0.000945078
-0.00669125
-0.151782
-0.00494424
0.0942013
-0.00706519
-0.0606339
-1.50084e-06
0.0252925
-0.199805
0.0362629
0.0113673
-0.131931
-0.0209353
-0.0514398
0.160417
-0.0176742
-1.39705e-09
-0.0651498
-0.00494424
0.0551927
-8.58305e-07
0.185129
0.155694
0
-6.04469e-05
-0.0149266
0
0.0762291
0.110946
0.108226
0.0245481
0.0881943
-0.0149266
-0.0198354
0.00491771
0.00183515
-0.0176742
0.422939
-0.0400457
0.232034
-0.0290957
-0.0352208
-0.0142308
0.0434703
-5.42401e-07
-0.042335
-0.131179
0.0142347
0.0178017
0.0777761
0.135624
0.0821675
0.00321794
0.0630458
-1.45812e-06
-0.0159001
-0.25021
0.171432
-3.99088e-09
-0.0833731
-0.0640672
0.0242024
-0.0689266
0.00610101
-5.27435e-120
0.0134132
-7.43192e-07
0.0226459
-1.04101e-08
0.0265731
0.0144822
0.0476462
-0.0166282
0.0416724
-1.53755e-235
-0.237444
0.211824
-0.016411
-0.0500816
-0.0125518
-0.0135565
-8.89127e-12
-0.0673197
6.31801e-05
0.052227
-0.000132148
-1.65037e-08
0.0215252
-7.08481e-12
-0.000178089
0.0245439
-0.0312868
0.0389811
-0.0638292
-0.0248334
0.0203558
0.013058
0.0906368
-0.0158938
-0.0327193
-2.80096e-05
-3.78697e-07
0.0127136
0.35823
-4.21451e-11
1.16209e-113
-5.97819e-322
-0.0118067
-0.0353959
0.0698708
0.0376353
-0.0619508
0.0236253
0.00288642
-0.0265036
0.0209516
-0.0121444
0.00542726
0.0383799
-3.61991e-06
-0.0310833
-0.01807
0.0869188
0.00470498
0.0353432
-0.0313022
0.00702452
0.0531616
0.0178017
-0.0503976
0.0209516
0.026514
0.0175544
0.0188196
0.0209516
-1.60651e-05
-0.0402479
0.00933438
0.0233462
0.388342
0.0188718
-0.0325549
-0.0966237
0.173325
-0.0576071
0.00933438
0.00950099
-0.00776526
0.0302741
0.00390836
0.14107
0.0295239
-0.0259741
0.0257691
-0.0111144
0.00321794
0.463154
9.59449e-07
0.0633713
0.155462
-0.00461911
0.0314788
0.0776669
-0.0331189
-0.0127768
-3.75007e-12
-0.0389911
-0.00669127
0.0730201
-0.000187978
-1.29016e-06
0.0350526
0.00298955
-0.0485948
-0.0798057
-1.59005e-106
-0.0141114
2.3814e-321
0.00485568
0
0.00240383
0.0617558
-0.00252118
0.115141
-0.0439792
-4.21451e-11
0.0309934
0.00325442
-0.0183711
0.186337
0.140437
-0.00485244
0.101092
-0.0151116
0.0178017
0.0655774
0.132859
0.030222
-3.6332e-05
0.0642364
0.393009
0.0297911
0.0248372
-1.50084e-06
0.000244671
-0.0107981
0.0916654
-0.000149431
-0.0426622
0.00240383
-4.34778e-322
-5.27435e-120
0.0609574
-0.0202786
0.0142347
-0.0403329
-5.27435e-120
-0.0171159
-1.53755e-235
2.22229e-05
-0.253828
0.000664324
0.0568904
0.0560371
-5.27435e-120
-0.452538
-0.00921545
-0.0570226
-0.0129832
-0.0529888
-0.034475
-0.0817292
0.0185502
0.0169632
-3.22586e-08
0.0188718
0.0110335
-0.0340858
-0.051854
-4.21451e-11
-0.0545286
-0.0510565
-0.0381713
-0.119742
0.000223321
-7.08481e-12
0.0916933
0.000140023
-6.39643e-08
0.107394
-0.0513619
-0.00990077
0.000223321
0.0960854
-1.53755e-235
-0.0167541
-5.27435e-120
-0.023492
0.031047
1.74329e-05
0.0156851
0
-1.20456e-06
0.210722
0.0361296
-0.0622133
0.101295
-3.7274e-07
-2.11762e-05
-0.0220892
-0.00351243
-0.0354604
6.24158e-05
0.323744
-1.60651e-05
-0.0519308
0.154385
-1.19664e-06
-0.0193625
-0.0689318
-0.0356255
0.037666
0.00492382
0.10182
-0.000248771
0.0401805
-5.27435e-120
0.0252967
-0.0692871
-4.15695e-06
-0.00918716
0.00518061
-0.0379314
0.0236253
-0.075578
-0.0908154
-0.124777
-0.020643
0.13773
-0.0477304
0.0178017
0.0822029
-9.41311e-05
-0.00135786
-5.54304e-07
0.0227862
-0.0479446
-0.0340534
0.02609
0.00111495
-0.0354604
-0.0461915
-0.0272799
1.53819e-05
0.0178017
-0.00203551
0.147618
-0.00982641
-0.311595
-1.54643e-321
0.0311178
9.93072e-322
0.00709708
-5.27435e-120
0.153664
-0.0255561
-9.42334e-14
-0.0432027
-1.3103e-08
0.0956187
-0.045066
-0.325963
0.0361184
-0.0496463
-2.59531e-12
-4.14237e-11
0.00518061
0.00383771
0.00148935
2.20203e-05
0.0541141
2.02676e-06
-7.33337e-13
0.0252012
0.144393
-0.0406481
0.050854
0.00994174
-0.136344
0.0178017
0.035104
-5.01196e-07
0.00028394
0.0264719
-0.12007
-0.0381713
0.00321794
0
0.0335749
-0.0249456
-3.72622e-07
-0.00706519
0.0335749
-0.0148167
0.0719684
0.107358
0.266004
-0.134598
-0.0796655
0.00647446
-0.058815
-0.0134315
0.00383771
0.0111727
-0.0149266
-7.33337e-13
-0.0789206
0.126658
0.00157014
-0.0184676
6.12532e-05
-0.0269232
-0.036634
0.0335749
-0.0485261
7.75683e-322
0.480778
0.092594
-0.0390859
-0.0183581
-4.9651e-13
-0.0348259
0.00298955
-0.0429816
0.00619915
-0.000253746
-0.0153049
0.00373626
-0.0112401
0.0237801
-0.0209353
-0.0587235
0.00436213
-0.0486483
-0.0508878
0.0220871
-0.0316253
-0.0269232
0.0785239
-4.9064e-05
-2.95294e-06
0.0335767
-0.0964382
0.00541486
0.028093
-0.00643056
0.0493484
1.08016e-177
-1.8709e-08
0.00446477
0.104817
0.0896527
-0.094996
0.0359866
0.0823712
0
0.0123035
-4.61703e-05
0.0786786
-3.12475e-05
-0.200185
0.0191098
0.0215975
-0.00012102
-0.0579463
0.015667
-0.0391794
-6.39643e-08
0.00383771
0.0428599
0.0191964
0.0178017
-0.000154945
0.0252964
0.0308535
0.0265165
0.0677275
-7.11882e-117
-0.0281044
0.0921836
-0.0152673
0.0061434
-0.00723282
0.0251626
0.00726217
-0.000201493
-4.19306e-116
0.0215088
0.0178017
0.0260775
0.102074
0.0788838
-0.0793763
0.0289363
0.272271
0
-0.000185014
-0.0318877
-4.19306e-116
-0.160837
0.0745781
-0.0479446
-5.79829e-06
0.117965
0.0155301
1.08808e-06
-0.00947129
-4.19306e-116
-0.000498871
0.0115254
-0.00494424
-0.302757
-0.0392421
0.073868
0.00076363
-0.00278857
0.197588
-0.0231456
-0.0805678
-8.04491e-08
1.70995e-250
0.110445
0.0533369
9.18962e-322
-0.0193543
-0.0231293
-0.0735946
0.00968286
-3.27119e-05
-0.0289008
-9.42334e-14
-0.0366253
-4.58406e-05
0.0446054
-0.00510938
-5.33234e-07
0.0576918
-0.0328388
-3.99088e-09
0.0254631
-5.27435e-120
-0.069082
0.0406923
-0.00479304
0.0193173
-8.04491e-08
-0.209084
-3.22586e-08
0.00742564
-2.78658e-05
0.0215088
0.188477
0.0271478
-0.00589758
-0.233253
0.257079
-0.010222
-5.27435e-120
0.101437
-0.00811898
-0.0228712
0.0178017
0.0619521
0.0487701
-0.018163
0.00321794
-7.33337e-13
-0.00724278
-4.14237e-11
-0.139137
-0.0391794
0.019402
-0.13636
-0.0220892
-0.127409
-1.29016e-06
0.0383799
-0.000990317
-2.95209e-05
-0.282928
-0.0701476
-4.70977e-120
-3.87904e-05
0.0607647
-0.158608
-0.00246161
-5.27435e-120
-6.39643e-08
0.115803
-0.0148005
-0.000151895
-0.0591056
0.0981018
0.0662222
0.161472
0.161472
-0.0739671
-0.0430824
-0.00281293
-0.0171159
0.103676
-0.12582
-5.27435e-120
0.0193173
0.0152884
-5.27435e-120
0.0209516
1.37848e-215
0.0374284
-0.0844418
-1.5801e-10
2.02676e-06
-0.0191454
0
-0.281653
0.00342355
0.0583786
9.93072e-322
0.0333848
-0.031032
-0.0588242
0.161103
-1.24015e-09
-0.153242
1.63414e-05
-0.0250355
0.0178017
0.00727211
-0.0235886
-1.29016e-06
0.0323008
-5.27435e-120
-0.00011662
-0.0896422
0.0294011
0.473071
-0.000180283
-1.39705e-09
-0.0410706
0.123913
0.0260394
0.015087
0.00585281
-0.0641269
-0.0135565
0
0.159986
-0.0426622
0.0203943
0.0254631
0.0390534
0.00175754
-0.185607
-0.0260693
0.00240851
-0.00479266
1.08016e-177
-0.114953
0.124153
0.063581
-1.3857e-12
-2.43791e-10
-0.108609
-0.035821
0.0701431
-0.0861158
0.00607679
-5.14221e-06
0.0419709
0.223608
-7.33337e-13
0.0134125
-0.0135565
0.0175982
-2.11751e-05
0.0401933
-0.00839306
-4.19306e-116
-0.000248731
0.0012362
-3.69737e-07
0.0303918
-5.27435e-120
0.026514
0.0304293
0.00274596
0
0.19136
-0.000136031
0.116008
-0.0243289
0.0229843
0.0371388
0.21454
0.0948693
0.00165883
0.001742
-5.40151e-15
-0.0607654
0.0388893
0.0252901
-0.0991632
0.0189274
-0.229328
0.032381
-0.0820001
2.69809e-241
1.08808e-06
0.0624381
0.0271711
-1.97001e-07
-0.13031
0.0402301
0.0883588
0.227554
0.076229
0
-1.53755e-235
-0.0666701
0.00373626
-0.0809462
0.00369989
1.08016e-177
-0.0480251
0.167333
0.00136786
0.00175343
0.175694
-0.127668
4.03106e-05
-6.17696e-09
0.09974
0.0252925
-0.0541715
-0.0699612
0.0538196
-0.0220535
-4.18106e-05
0.0400786
-3.78697e-07
0.0856525
-0.0290957
-0.0426985
-5.27435e-120
0.0437948
0.00292488
-4.19306e-116
0.0729826
0.0198161
0.020055
0.0491221
0.0124446
8.43946e-06
-5.27435e-120
-0.126564
0.201531
-0.0645763
-4.19306e-116
-0.0259975
-1.2046e-06
-0.062171
-0.0562879
-0.0625027
0.109056
0.0322017
-0.00027995
-3.78697e-07
0.0835151
-0.0592856
-0.0198745
0.00127885
0.00325442
-0.0246318
0.0407261
0.0692174
-0.0176742
2.69809e-241
-4.01078e-08
-0.0290957
-0.0486926
0.00960697
0.104724
-2.02057e-36
0.024694
-7.96142e-05
0.0695701
-0.00725666
0.00298955
0.00309948
0.269441
0.05098
0.0191219
0.124242
-3.22586e-08
-2.78658e-05
0.154015
0.0226604
0.12362
0.0749207
-1.59005e-106
-0.0259741
0.116818
0.00455285
-0.0388948
0.0370631
0.0341586
-0.0149901
-0.000218749
0.240933
-1.8709e-08
-0.0473851
-5.59259e-07
0.0190996
0
-0.0251328
-3.75007e-12
0.00510318
-0.013578
-0.0470032
7.75683e-322
-6.39643e-08
-5.27435e-120
0.0946003
-0.0209353
0.0198161
-0.0554278
-0.0973561
0.00407464
0.0178017
0.0728396
0.258684
-0.0534988
0.0053166
0.0283723
0.000654205
-1.04101e-08
0.110707
-0.0377016
-0.0240668
0.0429016
0
-0.0215633
1.53819e-05
0.0206023
0.00518061
0.0227303
0.0215088
-1.64564e-15
-3.22586e-08
0.0189977
-1.85493e-05
0.00185554
0.0494544
-0.0165771
-0.0162653
0.0259933
-0.0108313
-0.000941304
-4.86512e-15
-0.000279945
-0.0986876
0.048877
-0.0149266
0.0172249
0.0436295
-0.00278857
0.0409281
-1.8709e-08
0.04608
0
-0.0962483
-5.21562e-05
0.0293336
-9.7239e-07
-1.69971e-07
-0.0455365
0.0393404
-0.0482261
0.00428087
-0.0323618
-0.00519983
-0.0593444
-9.61924e-07
0.00240383
0.0178017
0.105689
0.000515319
-0.0074636
-0.0317763
-0.0090869
0.11314
-0.000248731
0.0540089
-0.00589758
0.0209516
0.00028394
-0.038567
0.0433462
-1.54537e-07
0.00292488
-0.118887
-2.96519e-05
-0.0179817
-9.41311e-05
-4.15695e-06
-0.000159478
0.182374
0.0155297
0.0252925
-0.00871637
-0.0259397
-0.0669016
-0.0203824
-5.27435e-120
-0.0214043
-0.0421103
-2.04168e-08
0
-0.157074
0.000499556
-0.0724782
0.0610254
0.0301239
-9.86105e-09
-0.0594245
0.0180258
0.0294426
0.00332995
-3.1742e-08
0.0393168
0.00325442
-0.0135565
0.0895443
-0.0148005
-0.00947129
0.0881943
0.0167871
0.0361377
-0.0151373
0
-0.0383567
0.00661517
0.0175544
0.05098
-0.0269232
0.00227189
0
-0.0925405
0.0430934
-0.0220892
0.0200355
-6.39643e-08
-1.58788e-06
-0.0198314
0.00204762
0.194084
0.0236253
0.00240383
-0.0907483
0.000172715
-0.0211085
0.00139513
0.0383632
-1.69971e-07
-0.0209353
-0.0193898
-0.0392995
-0.0104719
0.0570304
-0.123116
0.100994
-0.0275459
0.00369789
0.0601515
-0.0299878
-0.0299878
0.0947181
0.00933438
0
0.0516202
-3.63305e-05
-0.0431721
-0.0591056
-4.99403e-11
0.0576791
-0.000159801
0.0654225
-0.037458
-0.154433
0.0178017
-0.023492
0.0027826
0.02485
-6.12537e-05
0.00086482
-0.0645763
-0.0090645
0.0142469
-0.0828255
0.00709708
-0.00758058
-5.27435e-120
-1.64564e-15
0.0234014
0.150952
0.0252925
-0.0105675
-4.70977e-120
0.0231626
0.0329789
0.0214811
0.0594549
0.0454858
-0.00167986
-0.0491355
1.23022e-321
0.018704
0.142946
0.0332446
-5.27435e-120
-1.85504e-05
0.00923329
-0.117169
-0.0233092
-5.27435e-120
-0.00820318
0.0717961
0.0337506
0.00510318
-0.0135807
-0.0325635
-0.0621947
0.0463144
-5.13944e-09
0.000206939
-5.27435e-120
-0.127175
0.0448263
-5.27435e-120
-0.0162653
-0.0300149
0.0418112
0.00466807
0.00737629
0.00139513
0.000613179
-3.2729e-10
0
-0.0655388
-0.0840422
-0.0805359
0.0795453
0
-0.00479266
-0.01403
0
-0.00149286
-0.0433016
0
-0.0706781
-0.0171159
-3.78697e-07
-5.27435e-120
0.103607
0
0.0302205
0.18059
0.024535
-0.0558335
-9.21124e-06
-4.21451e-11
-0.13561
-0.00167986
-1.19726e-06
-0.0210294
0.0254631
-0.0149266
0.0742901
-0.132878
-1.1858e-107
-0.0378005
-0.023402
-0.0210607
-0.000265964
0.0275943
-6.3363e-05
-0.225344
-0.0982393
0.10421
-0.0457896
0.0162527
0.000466181
-1.64338e-05
-0.0788409
0.00298955
0.297646
-0.032814
0.0178017
-5.27668e-07
-0.00786172
0.0540867
-0.0787604
-5.06902e-06
-4.33701e-07
0.0983536
0.0387955
0.0127136
0.0446666
-0.0532129
0.151444
0.0290393
-0.0285289
-8.04491e-08
-5.27435e-120
0.0152884
-0.0502865
0.0171093
5.45025e-06
0.52899
-0.0290437
-4.70977e-120
0.0260999
7.42821e-08
-6.3363e-05
0.0209516
-0.0148005
-4.21366e-06
0.061008
-3.69738e-07
0.0186115
0.0410859
-1.07641e-06
0.0113936
0.000113142
-0.0572998
-4.19306e-116
-4.9651e-13
-0.0994078
0.144354
-0.0444951
2.35988e-10
-0.0252275
0.00142991
-0.0299878
-0.0558335
0.00383771
-0.00012102
0.0187132
-5.27435e-120
-6.39643e-08
0.001835
0
0.202187
-2.47895e-06
0.0231626
0.00409932
-0.00331911
0.00240383
0.206908
-0.000228559
0.0208062
0.0531964
0.06265
-0.0190346
0.00186267
-0.112001
-0.0869571
0.0252925
-0.00462135
0
0.00557017
-0.078098
-0.0496463
-0.00937958
0.00383771
0.0155506
-0.242981
0.0254626
-0.0847842
-5.27435e-120
0.000265527
-0.0609566
0.000443164
0.0409281
9.93072e-322
0.000476085
-0.0621947
0.01007
0.0479029
-0.060187
-4.70977e-120
0.0583526
0.0456846
0.026514
-4.60093e-07
0.0602487
-0.000279945
-6.39643e-08
0.0364951
0.00487928
-0.0785466
-0.0124989
0.392299
0.504629
-0.0354604
-0.112901
-6.39643e-08
0.0257057
-1.67955e-07
5.45025e-06
0.0188327
-3.95996e-05
-4.22109e-07
-0.074584
-0.0995144
0.0305
0.0601184
0.0958288
0.00665042
0.00619913
-0.0193898
-0.000384742
-5.27435e-120
-0.0361679
-0.0209353
0.00383771
-0.0174626
-3.22586e-08
0.0515903
0.03877
0.00227189
0.0091877
0.0293336
-0.0331189
0.0133494
-0.0687885
-0.0477827
0.225644
-3.22586e-08
0.0679623
6.24158e-05
0.04608
-3.78697e-07
0.135094
-0.00707618
0.0746036
-0.146512
0.162546
-0.0107465
-7.08481e-12
-6.39643e-08
-9.41311e-05
0.00832683
0.0820891
0.16805
0.0351914
0.0193173
0.00139513
-0.0263314
-0.147967
0.00227307
0.241689
-0.0885545
-2.87526e-07
-0.0198354
0.123066
-5.27435e-120
-2.5355e-05
-0.0228712
-0.0925405
-0.0250355
0.033605
0.140524
-1.81996e-07
0.0675189
-0.000279945
-0.0455987
0.0963935
-0.00469665
-0.0426622
0.00383771
-7.33337e-13
-0.00153987
0.0260791
0.0103996
-0.0418639
0.00369989
-0.013578
-0.0449972
-0.0754288
0.170876
-0.00589758
-0.0315723
-6.17696e-09
-0.0391794
0.00434658
-0.0426622
-1.64564e-15
-4.19306e-116
0.030152
0
-0.0949746
0.00142991
0.00470621
-0.0259741
-0.000181269
-0.0161129
0.00101998
-0.0135565
-0.0642802
-5.27435e-120
0.0365116
-1.29016e-06
0.000621388
0.0119409
2.13138e-07
0.00369989
0.14429
-0.0220905
0.0216194
0.0653656
-0.0366109
0.0142347
0.00709708
-0.0249456
-0.015313
-0.0105675
-0.0220892
-0.00643056
0.0322763
0.0271711
0.00225786
-6.12365e-14
-0.0302206
-0.0519535
-0.182835
-1.40144e-10
0.206776
0.069478
0.00383771
-4.01078e-08
0.0124232
-0.0805448
-0.000279749
0.030222
-0.0851295
-0.00461911
-2.58558e-07
-0.0282593
-0.000679504
0.0770008
0
-4.48161e-06
0.0885122
0.0814775
-0.0228712
-0.091443
0.0573912
0.00227307
0
0.0335051
-0.000210765
0.0228776
0.0864625
0.00470621
0.00709708
0.068097
0
0.00240383
-4.19306e-116
0.00229356
-1.53755e-235
-0.0273514
-0.000118464
1.08016e-177
-0.00479266
-0.0662544
-9.7239e-07
-4.21451e-11
0.0596836
-0.0424041
-0.0650083
0.03839
-3.07181e-05
-0.0202212
0.152639
0.0687808
-0.0154519
-0.023368
-0.00461911
-1.67955e-07
-0.0391794
-0.00537259
0.0718989
-0.000194516
0
-3.80094e-07
0.0846072
-0.0191906
-0.0290957
-0.0364559
-0.0523082
-0.0651034
-0.0093231
-2.42102e-05
0.0700695
-0.00902492
0.151724
-4.14237e-11
-1.8709e-08
-0.147969
0.0260667
-0.0126844
0.00599308
-9.41311e-05
0.0534911
-0.124185
-1.29016e-06
-0.106691
0
0
-0.0228712
0.077545
-2.14084e-09
-0.0299878
0.00619915
-8.42007e-12
0.00647446
-7.61757e-05
-0.0298407
-0.0467384
-1.64338e-05
0.075198
-0.0193543
-0.0605357
0.00113904
-0.109429
-0.0220331
-0.0149266
-0.000187978
0.0454607
-0.0563606
-0.175799
0.0105123
-0.0364698
-4.60093e-07
-0.0750804
6.12532e-05
-0.0297916
0.00985063
-0.00539511
-0.0304768
-0.00947129
-0.221475
0.00467831
-0.0479446
-0.0685605
0.0535807
-0.0866719
0.0252721
-0.00461911
-1.64564e-15
-0.0748488
-0.0287688
0
0.0206632
-0.0153049
0.139494
-0.0989202
0.0301239
0.0210557
0.00150003
0.314244
0.00156977
0.0199531
-0.0344576
-0.104429
-0.0860075
-0.0668994
-2.45932e-05
0.123968
-0.0153049
0.0104495
0.0171093
-0.00176268
0.0178017
-0.201611
-0.156451
-0.0312733
-1.47709e-05
0.0854644
-1.43227e-07
0.00803761
-3.24872e-05
-0.0518742
0.00240383
-4.05134e-322
-0.0106103
-0.0613161
-0.0540155
-0.016849
-0.0215633
0.0718279
-1.60667e-05
-0.0430898
-0.000178089
-0.204256
-0.000101398
0.0538633
0.00968726
-0.0761976
0.0236253
0.0660901
-0.0691247
-0.0107956
0.0127136
0.013823
-5.27435e-120
-1.71679e-05
0.00686361
1.32414e-06
-6.17696e-09
0.0260216
-0.0209353
-0.0427526
-0.0691189
0.0871105
0.0178017
0.0636954
-5.01196e-07
-3.81823e-06
0.0896367
0.0136967
-1.8709e-08
-0.0572433
0.0523368
-0.0161129
-4.21366e-06
-1.29016e-06
3.72116e-05
0.0576887
-0.0177688
-0.000586508
0.00369989
-0.0956791
-0.0135565
-0.0511518
0.0271484
-8.78848e-05
-0.0325207
-0.0549544
0.02108
0.0552896
0.0209516
-1.13778e-07
0.0869188
0.0148909
-0.131951
0.0129716
-0.0650638
0.0228776
-6.92945e-05
0.00596543
0.0355131
-0.0252275
0.0174931
-0.031032
0.0589794
0.00383771
-4.70977e-120
-0.0164949
-0.0622133
-0.0146946
2.20203e-05
-5.27435e-120
-0.0815231
-1.53755e-235
0.00988234
-8.04491e-08
0.0263156
0.0636786
3.20478e-227
0.0560371
-0.0292507
0.00206541
-0.0400266
-0.0022014
0.00610095
7.42821e-08
0.000468766
0.023444
-2.95294e-06
-1.53755e-235
-0.16404
0.0114327
-0.0171159
-0.0774609
-0.0378005
-7.61757e-05
0.0129716
-0.0425001
-0.0494917
-0.0343572
0.00726217
0.0437948
-1.29016e-06
0.375129
-0.0808064
-0.0525999
0.0285559
0.11167
-0.0775047
-2.58558e-07
0.0657131
-0.169991
0.065959
0.0576791
-0.0377969
-5.27435e-120
-0.0220892
0.00225786
-0.0563793
0.0409281
-3.73079e-06
-0.22081
-4.06483e-06
-0.0447575
-1.20456e-06
0
0.035213
-0.0354604
0.0264724
-0.077687
0.00479931
-0.0153049
0.00317984
-0.0108486
-0.08099
0.0127136
0.192469
-0.0983614
-0.0193625
0.333029
0.0429045
0.146871
0.0254631
0.0448263
0.00195329
-0.0170976
0.0538871
-0.0228712
0.100164
0.0100681
-4.61703e-05
0.0209516
-0.0124506
0.0188253
-1.8709e-08
0.0189977
-0.0407488
0.0103991
-3.95996e-05
-1.59233e-14
-1.50084e-06
-0.0176742
6.24158e-05
-0.0148167
-0.130204
0.0634226
-5.27435e-120
-4.18976e-05
-0.0802589
-1.45267e-10
-0.0616597
0.0178017
-0.000218749
0.1119
0.0178017
-0.211516
-0.103642
-0.0154519
0.0520939
0.00175754
-0.0406214
0.05396
0.00541486
-2.04168e-08
0.107217
0
2.3814e-321
0.163656
0.0835799
-7.61757e-05
-0.0860816
0.00573392
0.030152
-0.00948065
0.0214907
1.53819e-05
0.0104417
0.148647
-0.0290957
0.267137
0.0588179
-0.137376
-0.0348014
-0.0221903
0.0107708
6.12532e-05
0
0.00380546
1.08016e-177
-2.11751e-05
0.0577073
0.075198
0.0900471
0.0851795
0.00407464
0.0851687
0.0869188
-0.00195496
0.0443219
0.107957
0.00580003
0
0.0772887
-0.0135565
-0.0341199
-0.01882
-0.0500057
0.00198486
-3.78697e-07
-6.3363e-05
0.0257691
0.0750308
-0.0804754
0.0120443
0.0446616
-0.0234021
0.00317984
-0.00708295
-3.30186e-06
0.121572
0.128842
-0.0844418
0.00497866
0.032381
-0.0220905
-0.0435895
-5.54877e-07
-0.125359
-4.70977e-120
-0.0104723
-7.0686e-10
0.169225
0.0999641
0.0770008
0.00137397
0.0113107
-0.182285
0.0170032
0.00227238
-0.00910629
-0.144494
-3.78697e-07
-0.109406
0.00726217
-2.40698e-06
-0.0548365
0.0438879
0.00369989
0.175464
0.00116931
-0.0104719
-0.0331176
-0.0127114
0.0770008
0.0209516
0.0546314
0.0014547
-0.0342081
0.000532675
-4.14237e-11
-0.00281148
0.053172
0.0127136
-0.105513
0.00028394
0.00458751
-2.60341e-08
0.103013
-6.39643e-08
-5.40151e-15
0.0293336
-0.0858717
0.104817
-1.97001e-07
0.00270107
-1.10701e-06
-1.59233e-14
-5.57001e-08
-0.0209353
-0.0418287
0.0178017
-0.307969
-0.0982393
0.0128757
6.12532e-05
0.0446161
0.0474051
0.00421134
-0.0379998
0.0488768
-7.86448e-06
0.00680521
1.53819e-05
-0.151811
0.0012362
-0.0476528
0.00467831
-0.020643
0
-0.0692944
0.0356752
-0.0403157
0.0273023
0.0260087
-9.41311e-05
0.0259933
6.12532e-05
0
-0.000255918
-0.0188246
0.0070847
-1.24884e-07
-0.0583618
0.0100866
-0.0166179
-0.0298835
-0.051184
0.0236253
0.0141767
-6.39643e-08
-0.00657359
-0.00357836
-0.0150356
-0.0314434
0.0255333
0.0726354
-4.22109e-07
0.174702
0.0466015
0.00768369
-0.0466939
-7.53848e-10
0.0292689
-0.0630853
0.0438879
0.00988894
-0.0209353
0.146202
0.0114755
0.028093
-0.00479304
0.00225786
0.0214811
0.0418112
0.00240383
-5.02926e-05
-0.00850152
-4.9064e-05
-0.0898529
0.000499556
-0.08391
-0.0646524
-0.163656
0.038841
0.00270723
0.00476802
0.00373626
0.00373852
-0.00494424
-0.0117394
-0.031981
-0.0589261
0.0370631
0.00175754
-0.0751723
0.0183582
0.000589192
-4.21451e-11
0.0102146
0.0154801
-1.60667e-05
-0.147258
-5.27435e-120
-0.0318877
0.0930901
0.0188718
-5.42401e-07
0
0.00415822
0.254334
1.53819e-05
-0.0579838
-0.031197
-1.50084e-06
-8.04491e-08
0.0922828
-0.0668738
-0.0250131
-3.78697e-07
0.00298955
0.0048271
0.00383771
-9.41311e-05
-0.0153049
0.0442096
0.569409
0.109878
-6.14512e-06
-0.0431688
0.0846147
0.00139513
-3.05115e-06
0.0383799
-6.11658e-05
-0.0420606
-0.0463912
0.159697
-0.00588813
-0.0381713
1.66994e-321
0.0114755
-0.0331176
0.00383771
0.0576791
0.06014
-0.0336276
-7.33337e-13
-0.0321035
-3.24872e-05
-0.0073617
0.0236253
-1.8709e-08
0.234046
-4.18106e-05
-0.0854629
0.00518061
-0.0475519
-0.0202502
0.0538596
0
0.0258502
-0.0245503
0.00408425
0.00381654
-0.0271117
-1.97001e-07
0.0441518
-0.103419
-3.73079e-06
0.00599308
-0.00494424
-3.72622e-07
-0.0436334
-0.00923393
-0.0352208
0.0341485
0
-0.00837934
-0.0749823
-8.04491e-08
0.0728643
0.00503022
-0.0552526
-0.0450922
0.0167314
0.0409281
0.111874
-0.00159966
-0.153296
7.73222e-05
-7.61757e-05
-4.01078e-08
0.0326696
0.0271621
0.0298347
-0.0203263
-0.059787
0.000413426
0.154228
0.00366343
-0.0331189
-5.54877e-07
0.0295371
-0.00539511
-0.0901316
-0.0319827
-0.0851333
0.00697922
-0.01403
-0.24333
-0.0135565
-5.27435e-120
-0.00941314
0.0786481
0.107539
0.0515903
0.0012362
-0.00726636
0.108163
-0.0185315
-0.0302484
0.159397
0.0260216
0.00172411
0.0142347
-0.00539511
0.0175042
0.0148909
-0.0310977
-0.0860343
-0.13383
-6.39643e-08
0.0501983
-0.0117394
-0.0691189
0
0.0170878
-0.0102476
-4.14237e-11
0.0648653
-0.0235703
-0.0524711
-0.12476
-0.137973
0.0292448
-0.0925405
-0.0331189
0.0708416
0
-0.0572437
-0.0710561
-0.000210765
-0.00454493
-0.0457896
0.0215088
-0.000178089
-0.140944
-0.0295663
0.00383771
-0.0210099
0.0379233
-0.0421103
1.53819e-05
-5.40151e-15
-0.0978794
0.0560371
0.158697
0.0174093
0.0114755
-0.054718
-0.0107951
-3.40569e-117
-0.0121211
-0.010722
-0.0197312
0.0917567
0.0027054
0.118056
0
-0.0279525
0.0389349
0.0346687
-0.0581495
-0.060317
-0.0253442
-0.0653265
-0.00996035
-0.0294661
-3.78697e-07
0.143696
0.0103996
-3.75007e-12
1.08808e-06
0.0957925
-4.15695e-06
-4.19306e-116
-0.0453952
-0.0841201
-0.0044627
-5.54877e-07
-0.0164939
-4.18106e-05
0.00208227
-1.39705e-09
-0.11962
-0.0161129
-0.0198354
-2.59531e-12
-0.0874184
0.000804183
-1.24015e-09
-0.000279945
-0.118269
-0.0663028
-0.0137352
0.0134132
0.0114755
-2.5355e-05
0.00369989
-0.0355027
0.0653656
-8.07082e-06
-3.78697e-07
-0.0606186
-0.0097752
-2.80096e-05
-0.0215675
-0.0322332
-0.0297916
-0.151841
-0.00509233
-0.0947937
0.11328
-0.0193471
-3.78697e-07
-0.0264197
0.0293336
-0.0615962
-0.0149266
-0.0668162
0.0186167
-1.69767e-07
-0.0145536
-0.0669806
-0.0697552
-1.14083e-09
-0.00357836
0.143338
0.08303
0
0.0121879
0.0910824
0.219934
-0.105982
-0.0320367
-0.0386512
-0.00139589
-0.0815231
0
0.151871
0.0245101
-0.00470448
0.00422324
-0.0209353
0.0587335
0.0692003
-0.0218056
-0.0325868
0.00825324
0.127609
-0.00176786
-0.058239
-0.0193911
-1.8709e-08
-0.0765993
-2.11751e-05
-0.0503964
0.00223522
-5.27435e-120
0.00128473
-0.0313022
-3.90246e-05
0.0514426
0.0910824
-5.27435e-120
-0.0922586
0.016126
0.128878
0.0469846
-0.000444053
-4.61703e-05
-0.0668205
0.0444568
0.0113936
-0.0167534
-0.021911
0.0188718
-0.0182606
0.0691508
-0.0302257
-0.0622133
-0.0206427
-1.29016e-06
0.0292592
0.0835636
0.00298955
-0.131328
-0.0132621
0.0582682
-0.0227695
-0.0148005
0.0437948
-0.0402479
0.0787578
0.0353432
0.0260216
0.016367
-0.035343
0.00288621
0.00111495
-0.00357836
0.00307715
-0.0298583
0.0252967
-8.07082e-06
0.0579322
0.102078
0.00325442
-0.0601605
-0.0703449
-0.0121331
-0.0152034
0.00619915
0
-0.0154009
-0.0496463
-0.0195533
-3.7274e-07
0.00511977
0.0235073
0.000389293
-0.000194516
0.0266911
-0.0111527
-0.0222972
0.00421134
-6.81798e-07
0.088574
-3.78697e-07
0.088574
0.256956
0
-0.0520211
0.111227
-0.0457896
-0.0681705
-9.44351e-251
0
0.236255
-5.27435e-120
0.116818
4.84184e-322
-0.0379191
0.0167314
-0.000194516
-4.18106e-05
0.0299052
-0.0426622
0.0529045
-1.1858e-107
-1.86157e-05
-0.0645763
-0.0833731
0.152494
-0.0150356
0.0326864
0.0308511
-5.88634e-05
0.0418112
-0.137621
-0.040613
-7.41098e-322
0.0176065
0.00445892
0.0231141
0.0574002
0.0142469
-0.0100408
-7.89196e-05
0.0700695
0.0115677
-0.0868947
0.158938
-0.0486178
0.0267315
-0.0841718
-0.0498668
0.00610101
-0.00280845
-0.0389772
-5.27435e-120
-0.00224397
0.035104
-2.57015e-05
-0.0353858
0.0736149
-0.0672195
-0.0263111
-0.208986
0.00599308
0.00325681
0
-0.0532077
-0.0103969
0.05098
-0.0594632
0.0786886
0.0525783
0.00383771
0.0271484
-0.0555905
-0.0467585
0.00317984
-4.99403e-11
-0.0224796
-0.0161129
-1.64564e-15
-3.78697e-07
-0.0325526
-0.0216091
-0.0413081
0.00428087
-0.137112
0.092132
0.00787188
-0.0629844
0.203316
-7.42045e-06
-4.19306e-116
0.0939928
0.00143961
0.00298955
9.62367e-07
-4.01078e-08
0
-1.53755e-235
0.0570094
0.0132037
-1.86458e-06
0.0330404
0.00469619
-0.0418498
0.0491432
0.0155297
-5.27435e-120
0
-4.21451e-11
-0.0210099
-5.42401e-07
-0.000218749
1.70995e-250
0.0436295
0.0172133
0.00647446
-1.5801e-10
0.0353432
-0.0421113
-8.04491e-08
-0.0184185
-0.0479446
-0.0582438
0.0418112
0.0324937
0.00383771
0.00111495
-0.0284832
0.0293183
-0.035343
-2.59531e-12
1.32414e-06
-0.0654563
0.124867
-0.153896
0.215553
-0.202388
-0.109119
-2.59531e-12
0.0412819
0.0191354
-9.57857e-07
-0.0184086
0.060889
0.0604901
-7.11882e-117
-6.53674e-05
-0.0580509
0.0152884
-0.0255561
0.00151582
-9.25225e-13
0
-0.156985
0
0
0.00227326
-5.43248e-05
0.0188718
-0.000136031
-0.0289008
0.018704
-0.0801553
0.0634226
-0.02613
0.00383729
0.0427431
0.0135788
0.0155506
0.192189
0.04608
0
0.00700295
-0.0252275
0.0680374
-0.0168932
0
-0.066874
0.0903742
-0.028756
0.110848
0.00599308
2.90344e-05
0.0764904
-0.0871503
0.00240381
0.00369989
0.0188327
-0.0404861
0.035422
0.0185187
-5.40151e-15
0.0844796
-0.0390519
-0.067239
0.0332446
-9.7239e-07
0.0341485
-0.0209353
-4.13911e-05
0.000443164
-9.76033e-08
-0.0117394
0.0129311
-1.69767e-07
-0.0176742
-0.0568401
-0.0161129
0.16332
-2.60341e-08
-0.0692198
-0.0290151
0.0220083
-0.122834
-0.0153267
0.00619915
-0.0220958
-0.0445125
0.00521236
0.0880299
-3.12475e-05
0.130961
-0.0281982
0.000177029
0.0680954
0.0823394
-1.8709e-08
0.0310472
-1.71679e-05
-3.78697e-07
-0.0544887
0.00470621
0.0246085
0.114847
0.0048271
0.00298955
0.0539116
0.0316344
0.0091877
-0.0970182
-0.134796
-0.000279749
0.00319488
0.227664
-0.031032
1.20058e-321
-0.042335
-2.033e-12
-0.274809
-4.18106e-05
0.115557
0.0580427
0.191618
-0.0177403
-0.0426622
0.00480679
0.0479676
0.0115744
-7.11882e-117
0.0133076
0.0321544
0.00709708
0.203316
0.035867
-0.00937145
-0.0374928
0.0179514
0.0977334
-0.294705
-6.39643e-08
-0.0138832
-0.00461928
-0.0470611
0.107394
0.096889
-0.0765993
-2.59531e-12
0.0246081
-0.0166179
-4.19306e-116
0.0582959
-3.99088e-09
0.140126
0
0.00445342
0.0393168
-0.0153049
-0.0142922
-1.29016e-06
0.177201
-0.0788692
0.00229356
0
0.00111495
-6.88538e-07
0.0277262
-0.00674849
0.0188718
-0.0149266
0.107269
-4.19306e-116
0.10752
0.035422
0.0103581
-5.01196e-07
-3.63305e-05
-4.18976e-05
0.0102421
0.0426924
-6.88538e-07
-0.0572433
0.0383632
0.0153249
0.133377
-0.0325635
0.012476
0.0342593
0.0640863
1.08016e-177
0.0218346
0.0215286
0.0197332
-0.0220892
0.00349641
-0.0379191
0.0322017
-0.194
0.00383771
0.0188718
-0.0191943
-0.0458045
0
0.138118
-0.0448802
1.32414e-06
0.00329207
-0.0141302
0.0687132
-0.035821
0.0236524
-0.0816199
-0.0252275
0.0188327
0.0276095
0.0566094
0.142823
0
0.157046
0.0602487
0.0209014
-0.0639227
-2.78658e-05
-0.0135565
0.0318659
-0.012559
-0.117716
-4.19306e-116
0.0148384
0.000452448
-0.022973
0.0118478
0.0595067
-0.0574012
0.0364261
-0.0864445
0.00584529
0.00709708
0.133633
0.0221073
0.0511279
0.000613179
0.0184434
-0.0293207
9.93072e-322
-1.5801e-10
0.0193173
0.0560362
0.0370631
-0.0135565
-0.0161129
-2.59531e-12
-2.93667e-07
0.0091877
-0.00239971
-0.0467255
-0.0878385
0.0943104
2.13138e-07
0.0096236
-1.64338e-05
0.0306361
-1.69767e-07
0.0708711
0
-0.00012102
0.0541983
-0.0198161
-0.0135565
0.00311493
-0.0222972
3.20478e-227
-0.0219568
-0.00859756
0.0328989
-0.0233542
-0.0809462
-0.0360661
-1.81996e-07
-0.0198575
-0.0589887
0.199175
-0.0568392
0.0144487
0.0282657
0.0048271
-7.43192e-07
-3.75007e-12
-0.0479871
-0.10819
-0.0342703
-0.0101718
-4.21451e-11
0.0592029
0.316859
-0.0127373
-0.0169904
0.0048271
-0.115766
-9.41311e-05
0.0209516
-2.41188e-11
-2.52084e-05
0.00647446
0.075198
-0.0372565
-0.00539994
0.0178017
-0.0209665
0
-6.12365e-14
-0.00195496
-0.0526787
-2.45932e-05
0.00619915
0.0839476
0.0487986
0.0257691
0.058434
0.0317208
0.0351972
-0.000279945
0.296511
0
-0.000136049
-0.0272799
0.0448263
-0.0339608
0.00893414
0.0657866
0.0551927
-0.139293
0.0103996
0.0572547
0.0657866
-0.16903
0.045945
0.195653
0.0689685
0.00288619
-1.29016e-06
-0.0897435
-0.0736704
-0.0284196
-0.114794
-0.0606339
-0.0923003
0.108425
0.0178017
-4.18106e-05
0.114279
0.0589794
-0.0188306
0
0.068097
-0.0297916
-0.126758
0.0409281
-2.82417e-07
-0.00314628
-4.07281e-07
-0.000279945
-7.07594e-10
1.74329e-05
-0.0296751
-0.0105648
-0.0147564
0
0.111874
-0.393307
-0.000184189
0.0883577
-0.0174626
-0.0220411
0.274192
-0.00565571
-0.0547535
3.20478e-227
-0.0292799
-0.00327801
-0.020643
0.00138741
0.0218346
-0.0576039
-0.0174908
-0.100128
0.0102187
0.00690893
-0.0290957
0.00172406
-0.0137055
0.00355777
-0.042018
8.43946e-06
0.0683085
0.0134132
0.229646
0.0298347
0.123018
-1.14083e-09
0.0236253
-0.020644
0
0.0805403
-4.18976e-05
0.0559523
-7.33337e-13
0.00421603
-0.026661
-0.377677
0.00541486
-3.78697e-07
0
0.0515903
0.000398728
-0.0176742
-0.19264
0.0108256
0.019227
-0.0234021
-0.0174626
0.0418112
-0.0314104
-0.00979008
-4.70977e-120
-9.92645e-221
-0.0451763
-5.27435e-120
0.0231626
0.00718389
0.0242344
0.0196436
-0.109838
0.00152795
-0.0445172
-0.0168901
0.0246085
0.066759
0.38835
0.0541983
1.37848e-215
0.0790927
-0.0712595
0.000340288
0.0195186
-0.0105648
-0.0209353
0.0599689
0.00466807
-0.0973356
0.0392255
-1.39705e-09
-0.0492088
-2.95209e-05
-5.99065e-07
0.281033
-0.0431721
-0.0596223
-0.0209353
-3.24872e-05
0.0161884
-0.0653265
-8.04491e-08
0.0178017
-0.200586
0.0610254
4.99006e-322
-4.61703e-05
-5.21562e-05
-0.0426622
0.00480679
0.0134844
-0.0329549
-0.0857219
-0.0402468
0.0178017
0.000910289
-1.22764e-06
0.357648
1.08016e-177
0.115285
-7.61757e-05
0.00726217
-0.0324691
0.0281852
-0.0658961
0.0797123
0
-0.0495038
0.0511492
-0.0584841
0.19904
0.00619915
-0.0290957
-0.164218
-0.00167986
-0.153806
0.0493629
-1.97001e-07
0.0118472
-3.61991e-06
0.0464858
-0.074626
-0.00494138
-3.05115e-06
-0.0375529
-0.0104719
-5.27435e-120
0.0950141
-0.0501133
0.0013738
0.020256
0.000499556
-0.0675917
0.0579322
0.0114755
0.025254
-5.54877e-07
0.00229356
0.111717
-0.00047346
-0.023402
-0.0471931
0.0298347
0.0265138
0.0401112
-1.30486e-05
0.0206865
-0.0147891
-0.000541553
0.00076363
0.00229356
0.0120443
0.0188084
0.0215088
0.0575016
0.0772887
-3.73079e-06
-0.0280435
-0.0877773
-5.47225e-07
-0.140717
0.0151942
-0.000185014
0.0576887
-0.0562879
0.0423708
-0.0331176
0
0.00408425
0.0667305
1.19328e-06
-0.00540941
0.0040646
-0.0944095
0.0512064
-2.47895e-06
-0.0390338
-0.000132148
-0.0250673
0.0465598
-0.0430639
-3.81823e-06
-0.116822
-3.36281e-10
0.0307401
-0.0623661
0.0465592
-0.0244625
-1.3857e-12
-0.0421946
-3.72622e-07
0.0245481
0.0148697
0.116401
-0.0424323
0.00123166
0.0238266
1.08016e-177
7.01905e-07
-0.0128589
-0.0410706
0.0699143
-0.0344666
-0.0403142
0.0178017
0.00135895
1.74329e-05
-4.18976e-05
0.0129129
-0.0273797
-5.27435e-120
-0.0174255
4.23193e-05
-0.0813216
0.066759
-0.0356255
-0.0751097
-0.000181269
-0.0606339
0.00912434
-6.17696e-09
-0.0211425
-0.000738277
0.017033
0.0419709
-4.9651e-13
0.0220083
-0.0415565
0.097618
0
-0.0640148
0.0310472
0.00939047
0.153809
0.0110188
-0.0178679
0.0574066
0.0155506
-0.0186374
0.0358158
0
-0.0951185
0.0483504
-0.0757058
0.00989508
0.167839
-5.54877e-07
-0.0260975
0
-0.0867007
-0.0135565
2.13129e-07
-0.00201822
-5.54877e-07
0.0503276
-7.30773e-05
0.0818218
0.43995
-9.37287e-05
-0.194317
0.135681
0.0763742
0.0134132
-0.0269232
-0.342181
0.041282
0.00199332
0.0610251
-0.0164949
0.00667126
0.000597142
0.249446
-5.43248e-05
-1.71679e-05
0.0178017
-1.01345e-11
-7.54773e-10
0
-0.051017
-2.57015e-05
0.0689685
-1.67955e-07
-0.0228712
0.0383632
0.0187132
0.157482
-0.0158318
0.00383771
-3.99088e-09
0.116502
-1.13165e-09
5.42896e-12
0.0496228
-0.0104719
0.0048271
0.066667
-0.0426622
0.0151324
-2.59531e-12
-0.0215359
-7.33337e-13
-0.0794122
-0.19709
-0.0173163
-4.19306e-116
-1.63958e-11
0.00325442
0
0.124832
0.0293381
0.0346121
-1.8709e-08
-0.0371894
-0.0554099
-0.035821
-0.0689228
0.00681713
-0.000235183
0.00111495
0.0215088
-0.0620164
-0.0166179
0.00286314
0.0574614
-0.03062
0.0215252
-0.015143
-4.21451e-11
0
-0.0211124
-0.0391794
0.0359968
0.0803316
0.0185883
0.069294
-0.0400457
-0.0386309
-0.0346301
0.000311983
-4.21451e-11
0.00351323
-0.173477
-0.000253746
-4.21451e-11
-0.0164949
-7.61227e-09
0.0468018
0.0220083
-0.0201362
-0.014737
0.032438
0.00142953
0.0685673
0.00369989
-0.0104943
0.0345965
-1.30493e-05
0.00342355
0.0562398
-0.0107951
-0.428858
0.0364459
0.00810259
-0.0258702
-0.0529888
-0.00295754
-0.00948398
-0.0137981
-3.64555e-106
-0.0367102
-0.0426523
1.53819e-05
-0.0317142
-0.0176742
0.0215088
0.0641389
-1.04101e-08
-0.00766809
0
0.0113673
-1.64564e-15
-0.0767605
-5.27435e-120
2.20203e-05
0.0294807
0.0228251
-0.0371109
0.0617694
0.0314565
0.0487627
-0.0620616
0.00838978
-0.0408482
0.00790898
0.00741949
-6.34538e-12
0.0120443
-1.28542e-07
0.0383799
0.0178017
0.0128362
0.0204351
-0.0765993
-0.017164
0.0156976
-0.0202502
0.0178017
0.0300927
0.0215088
0.00366343
0.000607802
-1.20456e-06
-9.41311e-05
-0.00737835
0.0193173
-0.0191526
0.0135
0.0236253
-1.67955e-07
-2.11751e-05
-0.110976
0.0446408
0.0174674
-0.0648148
-0.013333
0.0405284
0.117951
0.43703
-0.0220892
0.165182
-0.0392735
-1.77488e-06
0.00709706
0.234244
-0.00490713
0.00217527
-0.0868228
0
0.015197
-0.0591489
0.0783906
-0.0393514
0.436681
0.0100115
-0.0650251
-0.00726636
-0.0711429
-5.80818e-05
0.157431
0
-0.00671911
-0.0520212
-0.00244101
-0.0470032
-5.27435e-120
-0.000249787
0.00243089
-0.0290805
0.00584529
-0.0153049
-0.0103544
0.0041357
-0.0138503
0.0452777
-0.0146426
-0.108704
0.0471216
0
-0.0104719
0.00028394
-0.0371363
0.00610101
-0.0135565
0.103607
0.0336462
-0.0255155
0.0514426
-0.00296165
-0.00331911
-1.54537e-07
-0.0493961
-0.000139727
-0.0062606
-0.0438391
-0.0568392
-0.0135565
0.0382998
0.00298955
-0.0176742
0.0642263
-0.0252275
-0.0172233
-9.41311e-05
0.0383632
-0.0215258
-2.95294e-06
0.0699983
-6.04064e-05
0
0.00709708
-0.057821
0.0188718
-0.0209353
0
-0.000267434
-0.0176742
0.112287
-0.0259975
0.00541486
-0.00655521
-0.0221775
0.296181
0.021121
-0.0426622
-0.0532639
-0.0668738
0.0178017
0.268364
0.00672583
0.0100049
0.103255
-0.000586508
-4.19306e-116
0.0114755
-0.000195065
-0.000330234
0.00325442
-0.17684
0.0938682
-3.78697e-07
-8.15884e-08
-8.04491e-08
-0.0388035
-1.3857e-12
-2.47895e-06
0.147101
-0.00697641
0.00270723
-0.0290151
0.0293183
-0.0614682
0.126175
0.0701296
0.0103993
0.0775819
1.70995e-250
-0.013738
-0.0209353
0.128847
-0.0398366
-0.0695893
-0.127175
-4.19306e-116
0.0436295
5.45025e-06
-0.0812071
0.0391168
-0.0410706
-9.7239e-07
-0.0521148
-0.0107219
-0.0391346
-0.00535823
-0.0375832
0.000619779
1.66994e-321
-5.27435e-120
-0.00449662
-0.0574012
-0.025629
-5.68272e-07
-8.70535e-07
0.194229
-0.000194516
0.0491221
0.0114327
-1.19664e-06
-0.0099665
5.42896e-12
-0.0328388
-0.0118412
0.0332446
0.00326202
0.0163416
-3.81823e-06
-5.27435e-120
-0.0412952
0.0658077
-3.1742e-08
-0.0563793
-4.85962e-08
-4.19306e-116
0.0293444
0.00176229
-1.1858e-107
0.0616739
-0.000279945
0
-0.040389
0.0436295
0.0772887
-5.9073e-05
-0.086128
-0.0126015
-3.07181e-05
0.0583185
-0.0643448
0.139112
-7.96142e-05
-0.074584
0.298392
0.00121697
-0.0645763
-0.00189011
-0.00726636
-5.27435e-120
0.102078
-0.0268347
0.00381654
0.00204762
-0.0257217
-0.114562
-0.0202824
-0.0889031
0.00643694
-6.39643e-08
-0.100461
0.0707096
0.0127136
0.08708
-7.61757e-05
5.42896e-12
-1.3857e-12
-0.0758285
-3.75007e-12
0.258926
0.0115145
0.00933438
0.0148271
-0.0521278
-7.33337e-13
0.0123094
-0.0765993
-0.0261126
-1.19277e-07
0.056787
0.031268
0.0417766
-0.0147627
-0.0754288
-0.020643
0.147618
0.0178017
-0.0107951
0.00452702
-0.0390519
-6.88538e-07
-0.0778184
-0.014497
-1.17349e-14
0.0143512
0.0198161
-0.0294961
0.00672583
-0.0605357
-0.00019695
0.107394
0.0536405
-2.04168e-08
-0.0833731
-0.0176742
-0.0259123
-0.260627
-0.0199518
-0.020643
-0.067124
-0.00461911
-0.000267434
0.0465482
0.0104069
0.00993302
-0.0176742
-0.0760082
0.0271484
-5.27435e-120
-6.88538e-07
-1.39705e-09
0.00493371
0.00321794
-0.0239518
-0.0655228
0
5.45025e-06
-1.16601e-07
-0.0252275
-0.0928914
-0.0209353
0.179862
-4.21451e-11
0.0728396
-0.0868228
-0.0701217
0.0339724
-0.00707618
-2.02057e-36
1.53819e-05
0.0034308
-1.39705e-09
-5.27435e-120
0.0980257
-5.42552e-05
-0.00201822
-0.0908653
-0.0402479
-0.0239498
-0.000159801
0
-6.42705e-05
0.00836002
-0.0527346
0.0576516
0.000104935
-0.0230993
-0.0646126
-0.0117605
0.00924025
0.00101998
0.147986
-0.0817292
0.0139653
-2.96519e-05
7.42821e-08
-1.85493e-05
-0.0551785
0.069478
-1.50084e-06
-0.0556186
-4.21366e-06
-1.24015e-09
0.0434086
0.00429453
0.0634917
-1.50084e-06
0.0334158
-6.39643e-08
-5.27435e-120
0.0397692
-0.0331189
0
-2.42172e-05
0.0902149
-0.016113
-5.27435e-120
-0.020175
-0.0191945
-0.101507
-0.0648005
0.0214811
0.213762
-3.56051e-09
0.16216
-0.0622897
-0.0316016
-0.0966679
-0.0391794
-3.12475e-05
0.0178017
-0.105901
0.0120443
9.93666e-06
-0.0249456
0.0734877
1.23022e-321
-0.0614682
-1.25529e-05
0.0591633
-5.27435e-120
0.0134132
0.0184857
0.00270723
0.151984
0.0703432
0.00183515
-6.39643e-08
-6.39643e-08
1.08016e-177
-0.00423795
-0.0106244
0.111062
-0.00489034
-1.14083e-09
0.0291515
-5.27435e-120
-0.023492
-0.415749
0.147722
0.00198486
0.570316
0.0529326
-0.0152178
0.0188327
-0.0202857
-7.33337e-13
0.00292488
-0.0379903
1.19803
-0.020643
-0.00713988
0.0406528
0.0372171
-3.40569e-117
-0.00413327
-0.0606339
0.0803484
0.00808124
-0.195155
0.0236253
-0.0060158
-0.0331176
-0.0135565
0.142823
0.0380774
0.000172715
-0.114057
-0.00364187
-0.0390338
-0.0734238
0.000918698
-4.21451e-11
-0.0162653
-4.21451e-11
-0.0596922
-0.060628
0.0294733
0.00247271
-1.92924e-06
-0.0605058
-0.000210962
0.00391198
0.013448
-4.14237e-11
-0.00871637
0.0968327
0.129015
2.22229e-05
0.00157014
-0.0607162
-0.0100306
-3.81823e-06
-4.22109e-07
0.0482627
0.0806926
-4.9651e-13
-0.0703555
-0.00351243
-0.0749075
0.0188327
0.0880299
-0.100461
-0.0250355
-1.62548e-321
0.0259134
0.046796
-0.0198354
-0.000181269
0
0.0182452
-0.00539511
0.0029126
0.144393
-7.33337e-13
-3.78699e-07
0.00856736
0.0214811
-8.27293e-05
0.0721005
0.158604
-0.00340648
0.0199531
-0.017164
-0.133371
0.0718395
-0.0252275
-2.58558e-07
-0.0614682
0.0274033
-1.60651e-05
-0.0162653
-0.023402
0.00129779
0.0977194
0.0205833
0.00913683
-0.0400457
-0.0307356
-1.71679e-05
-0.0348014
0.00373626
-0.0249456
0.00636694
-0.0563757
-0.0698266
-0.0399001
0.00317984
0.00865185
-0.118158
0.00357807
0.0567346
0.00167737
0.00933438
0.0142347
0.0209516
-0.0107951
0.00227307
-7.42045e-06
0.0622995
-1.24884e-07
-0.057607
-4.19306e-116
0.00270107
0
1.08016e-177
0.0438879
-5.41996e-07
0.000312552
0.0964647
0.0862299
0.151672
0
-0.0107219
-0.0269232
-0.00373816
0.0559801
-0.0121829
-0.0457896
-0.0328013
-0.0138832
0.0234271
0.102078
-0.0313022
-0.00871637
0.0961091
-0.0324367
0.0271484
-0.00195496
0.0185502
-2.59531e-12
-2.00435e-06
0.0812391
-4.17362e-05
-2.11751e-05
0.0236253
0.103363
-0.0845529
-0.0378506
0.0292334
-2.57015e-05
-0.0770095
-7.94806e-06
-0.0108892
0
0
-0.055644
0.121572
-0.0140502
-0.0668994
-0.0220335
0.000120543
0.0389598
0.000120543
2.69809e-241
0.00681713
0.0466308
-0.13754
-0.0717769
0.0120813
-0.074618
0.149585
0.0188871
0.0302903
0.00795487
0.0622195
-1.45267e-10
-0.028959
0.0629035
-5.01196e-07
-0.0606339
0.117128
-6.07938e-05
-0.0410706
0.0215088
0.0275872
-0.0474278
-9.09389e-07
0.0692009
0.0170891
-0.00233535
0.00962735
0.0134132
-6.3363e-05
-0.00616953
-0.0161438
-1.45267e-10
0.0110188
-7.0686e-10
-1.86601e-09
0.0999956
0.0667333
-0.0250146
-0.0611034
0.138442
-0.0451763
-0.0153049
0.0601675
9.14021e-322
0
-0.0282593
0.0119876
-1.72884e-11
-0.0072991
-0.0290151
-0.000569489
0.01743
1.32414e-06
0.0648653
0.0383632
0.0348418
0.00933175
-0.029873
8.43946e-06
0.0429525
0.0320888
0.00109997
-0.0331189
0.0207167
0.0129129
-0.0209353
-0.00955012
0.00126651
0.170876
0.0280726
-0.000199513
-0.0148232
0.0377967
-0.133499
-3.69737e-07
-3.99088e-09
-0.0438909
-0.0135565
-3.78697e-07
0.00368582
-4.70977e-120
-0.0748488
0.0412968
-0.0415679
-0.0132726
-4.21366e-06
0.0190075
-0.0801152
0.0611647
0.00314582
-0.0348014
0.229163
-0.0239498
-0.288677
0.370878
-1.3857e-12
-5.27435e-120
-2.95209e-05
0.105799
0.0135788
-4.01078e-08
-0.0159961
-0.00726636
0.416545
0.29408
0.0248227
0.0149835
0.0141379
0.0211121
0.00686361
0.0549935
0.000206909
-0.0817292
0.00363651
0.0988846
-0.0325549
-0.0551322
0.000498603
-6.70401e-05
6.31801e-05
0.0206865
-6.39643e-08
0.0588387
-0.0149266
-0.000279945
0.115628
-4.85962e-08
0.0012362
0.00227321
-1.10556e-06
0.0303933
-2.83692e-07
-0.0178637
-0.0575069
0.0130498
-0.0851508
-0.0254708
-0.000473604
-5.27435e-120
-0.0552526
-0.0774611
0.01007
-0.0965562
0.000613179
-0.0653265
-1.29016e-06
0
0
-0.0255597
0.00174202
-0.127175
-9.41311e-05
9.83191e-322
-1.64164e-06
-0.0149266
-0.000180283
0.000185831
0.1119
0.000499556
-7.53848e-10
0.122079
0.175315
-0.0250355
-0.0426622
-4.01078e-08
-0.000174517
0.0052908
-7.6635e-06
-0.0354604
-3.81823e-06
0.0293381
-4.04565e-05
-0.114804
0.000294782
0.000120543
-7.42045e-06
0.0454607
9.91671e-05
-0.00589758
3.20478e-227
0.0866935
-0.018163
-0.0992926
0.0308536
-0.00494424
0.453122
-0.0272799
-7.43192e-07
0.00325442
-0.0154519
0.0657866
0.0933203
-0.000187978
-0.119649
-0.00754012
0.0602487
0.0114122
-0.0476528
-0.0263111
0.00989508
0.0134114
-0.0246317
0.025474
-0.0214043
-7.61757e-05
0.0418112
-0.00729711
0.152494
0.0657131
0.0308545
-0.00412989
0.0401382
-0.0328388
0.392387
-2.04168e-08
0.0218346
-0.0980432
0.00338636
-0.0456811
0.0113673
-0.0129609
-4.42662e-07
-0.0820001
0.068153
-0.0894744
-0.0450922
-0.470155
6.24158e-05
-4.48161e-06
0.0298347
-0.0669108
-0.0841201
-0.0331804
-0.289258
-2.63537e-13
-0.0374533
-0.000498054
0.0893928
-0.031032
0.00468577
-1.50084e-06
-0.0354604
-0.0765993
-0.0424642
0.0198161
0.0134132
-0.0367102
-4.19306e-116
-0.0238656
-5.40853e-07
0.0434388
0.00421134
-6.3363e-05
-0.0148005
-1.77488e-06
-8.04491e-08
0.00945822
0.0555193
-6.39643e-08
0.0209516
-5.98366e-05
1.53819e-05
-0.025823
0.0252019
0.013929
0.241667
0.0731462
0.0127136
-0.0209353
-0.0852833
-0.113635
-0.0470839
-5.27435e-120
0.108531
0.0113673
0.0040646
0.00579617
-0.0220958
-0.249871
-0.0529888
0.0342416
-0.0161129
-0.0403157
-0.0154519
0.0259933
-0.186294
-0.00494424
0.00325448
-0.0252275
0.078971
-0.0243289
0.185615
-0.0107219
-0.0510966
-1.5801e-10
-0.0162653
0.0770592
-6.39643e-08
-0.0687885
0.048413
0.00331697
-0.150041
0.0438497
0.000340288
0.102622
0.421301
-0.0820001
-0.0147564
0.036426
0.00383771
-0.020644
-0.0739671
-0.0193898
-0.0557135
-0.00974634
-0.0676417
0.0815044
0.0187132
-1.85493e-05
-0.0446909
0.00373588
-0.000155078
-0.0734698
-3.1742e-08
0.0244248
-0.0717594
-4.19306e-116
-0.0293777
0.0649035
-0.0153049
0.194465
0.0436295
-0.116026
-0.0403157
-0.236334
-4.19306e-116
0.0338037
-0.0181263
-0.0280197
-0.0135565
0.0579322
-0.042684
-0.0467656
2.69809e-241
1.16209e-113
-0.0141632
0.0132021
-5.27435e-120
-3.2729e-10
0.0252925
0.0576887
0.0027828
0.00383771
-0.0249456
0.0129311
0.02609
0.0278871
0.0151834
0.0215252
-8.04491e-08
0.0657866
-0.0439446
-0.0375782
0
0.0314569
-3.24872e-05
-1.65037e-08
-3.36281e-10
0.0549935
0.135116
-6.88538e-07
0.00204762
0.0883355
-4.21451e-11
-0.000118464
-4.21451e-11
0.0178017
-0.0616597
0.0779339
0.0163005
-1.8709e-08
0.0404363
0.0636628
0.0308761
-0.000159478
-0.0730074
-0.0568392
0.0276079
0.00172411
0.0514426
-0.03408
0.0331822
-0.0135565
-0.0392995
-6.3363e-05
-7.33337e-13
0.00105404
-0.105813
-4.19306e-116
-1.10701e-06
-6.26679e-10
-6.12365e-14
-0.0793763
-0.017164
-0.0408482
-0.0402479
-2.43791e-10
-0.0415234
-2.04341e-09
0.0209516
-0.0331189
1.70995e-250
-3.24872e-05
0.0581959
-6.74473e-06
0.00787965
0.0260877
-0.0277165
0.21051
-0.0135565
-0.0135565
0.0283723
-0.0534068
0.0103996
0.0738988
-0.0209353
0.0120887
-0.146512
-0.0530241
-0.0105648
0.00183515
-9.09389e-07
0.00240383
0.0322017
0.00240383
0.0700695
-0.0321451
-0.196559
0.0185502
0.0215088
-6.39643e-08
0.00307715
-0.0148806
-0.0200355
0.00373626
-1.18619e-05
-0.0243286
-5.13944e-09
-0.0428773
0.00610101
0.0129129
-3.75007e-12
0.0882322
-0.140944
-2.95294e-06
-0.0587822
-0.0521426
-6.88538e-07
-0.00494424
0.0708197
0.032109
0.00502548
1.20058e-321
0.000199433
-0.0163071
0.0114755
-0.000248731
-5.43248e-05
-0.024619
-1.48913e-07
-0.0427452
-2.11751e-05
-0.0216091
0.145919
0
-0.000132148
0.00655976
-0.00562659
-0.213108
-0.0333273
0.0103996
-0.0587214
0.0366663
-0.0770397
0.0155301
-4.19306e-116
0
0.0314569
-0.0652829
-0.0156609
0.145791
-3.73079e-06
-3.78697e-07
-0.0141696
-5.27435e-120
0.0129716
-0.118875
0
0.00383771
-0.0472187
-0.100976
-0.0282323
-0.0137981
-4.19306e-116
4.55891e-05
0.00174478
2.02676e-06
0.00686326
0.0234122
-4.21451e-11
0.0107702
-0.0514504
0.0123035
-0.19776
0.0515903
-3.7274e-07
0.00404308
0.00557017
-1.20456e-06
-0.0191945
-5.27435e-120
-0.128022
0.026514
-4.21451e-11
-0.000136031
-0.0395974
0
0.00388108
0.00129604
-0.0277099
0.00709708
0.0984627
-0.0825793
-0.00012102
-1.69971e-07
0.0786481
-0.0354604
0.00383771
-4.19306e-116
0.00726217
0.00159998
-0.0357766
-0.000412093
-0.000218749
-0.00201822
0.0283723
0.0178017
-0.0254708
0.00227321
0.00726217
-1.12914e-08
-1.80364e-05
-0.025303
-0.0279259
0.000481969
0
1.08016e-177
-0.142782
-7.33337e-13
0.200698
-0.0575069
-0.0209353
-0.0306275
-1.29016e-06
-5.79829e-06
0.0178017
0.0520898
0.164961
0.0263193
0.0514426
0.00428087
0.0254631
-1.69971e-07
-0.0416847
-0.0138509
-0.0444658
0.0387856
-0.0102254
0.0198161
-0.0669108
0.00709701
-0.11041
0.0209516
0.0187155
-0.0426622
-1.64564e-15
-7.61227e-09
-4.86481e-05
0.0178017
0.0102028
-0.0581663
0.0688142
-0.0404178
-0.0135565
-0.0161129
0.00150003
0.0446704
-0.0706276
-0.0310325
-1.64285e-05
-0.103243
0.00139513
-4.01078e-08
-2.07959e-08
0.00285135
0.0842119
0.0531368
-1.05619e-05
0.0103993
0.0091877
0.0104488
-0.0369519
0.0450648
0.00240383
-0.00061266
0.0575284
-0.0605982
0.0901891
-8.27293e-05
0.0116825
0.00307446
0.026789
0.0376361
0.142296
0.0438879
0.0533642
-1.22764e-06
-0.0179145
-0.0521935
0.0751379
-0.0325635
-1.60651e-05
0.000612404
-0.0868129
-0.082667
-0.0640148
-0.071946
-4.19306e-116
0.0827275
-3.99088e-09
-0.0016476
-0.0431688
