0.0163257
-1.54282e-14
1.04532e-73
-0.0417159
-0.00106108
-2.16948e-06
-0.000249914
-0.0173519
0.067847
-0.000249914
0.0138932
1.21057e-145
-0.0997042
0
-0.0116226
-3.61842e-14
-1.97581e-08
0.0291235
-5.48404e-05
-0.0198378
0.0444367
0.00997582
-0.0993835
-5.23436e-07
0.0128915
-0.0116226
0.0138654
0.00987823
-0.0286013
-0.00834386
0.04759
-0.0794749
-1.58001e-05
-1.4654e-13
-0.0263112
0.00282947
0.0135501
0.0112472
0.00862575
0
0.0656368
0.11971
-1.10808e-15
-2.99345e-06
-0.00628912
0.0602215
0.00988705
-1.24652e-05
0.0206338
-0.0799519
0.0346143
0
-6.35046e-11
0.0607841
3.05575e-64
-3.2757e-15
0.019021
-7.8766e-08
-2.90108e-11
0.0529242
-6.93865e-08
-0.000938272
1.82804e-321
-0.0399926
1.56619e-321
0.0278303
0.110396
-0.00679747
-0.115155
0.173857
-0.0886328
-0.0404676
-0.0109569
-2.90589e-06
0.0397772
-0.0687795
0.0241244
0
-0.031078
-0.0447974
0.00259972
-0.0696105
0.00144691
0.0534566
-0.000113704
0.276021
0.194526
-0.0104389
0.148788
0.0278303
0.0186964
0.000571495
-0.213097
-4.82372e-05
-0.10521
0.00322069
0.185548
0.000492188
-0.000185295
0.0415409
-6.35046e-11
-6.93865e-08
-3.02184e-10
-6.06344e-05
8.56872e-74
-1.22857e-07
-0.0275554
0.0134276
0.0124882
0.282649
-0.0339353
-0.0293678
-0.0165897
0.0513299
-1.36856e-321
-2.59934e-08
0.00259899
-9.59589e-10
-0.0567751
0.0501332
0.0828075
0.00880721
0.143061
-0.0301909
0
0.0196759
-0.0488075
-0.0999138
-3.45131e-05
0.00091281
0
-0.041528
-0.00191156
0.00212846
0.0306313
-0.0239837
0.00348107
-3.2757e-15
-0.0328472
-0.0202425
0.0698373
-0.00229852
0.032251
-0.168097
-0.0481813
-6.72667e-11
-0.0425203
0.0177321
-0.000244699
-0.0590593
-0.0313188
0.00310935
0
0.00749814
0.223373
0.00282947
-7.58733e-05
0.0190108
-0.0337798
0.0550755
-0.0440508
-5.44386e-08
-0.120831
-0.0879763
-6.93865e-08
-0.115489
-0.0345734
0.0454527
0.0155749
-0.0687672
-0.00125205
-0.125084
-0.065239
-9.45702e-10
-0.029832
-0.0104895
0.0133378
0.00336826
-0.00851692
-4.21691e-09
-6.35046e-11
-0.0230496
-0.000872695
-0.027328
0.0416674
-9.90114e-08
-0.0107844
0.242054
-0.0320088
-5.23436e-07
-0.0714569
0.0404609
0.137247
0.019021
-0.032701
-0.0115402
0.0245788
0.00348173
0.0123227
-0.0908731
0.00341848
-0.0296065
-4.17337e-11
0
-0.0552927
-6.93865e-08
0
0.288324
-0.105488
-0.0293678
6.54894e-73
-0.0422051
0.0330504
0.127832
0.0305826
-0.000249914
0.0681175
0.00948046
0.0393948
-1.10581e-15
0.0321558
-2.0581e-05
-0.00818738
0.0427703
-1.09683e-321
-2.31339e-08
0.0241265
-0.00908558
0.00261111
-3.2757e-15
0.022489
0.0215603
0.0273639
-0.0472384
0.0043751
0.138782
0.1242
-0.00323124
-0.000296387
0.0109555
0.0402546
-0.0504331
0
0.0321055
-0.08198
0.00189737
-1.64837e-08
0.00134345
-0.0189027
3.22174e-74
-0.0883334
-0.0325952
-3.83482e-11
0.029
-0.0230496
0.031015
-0.000198138
-1.40049e-10
0.0072322
0.0114166
-0.0378432
0.100497
-0.0440494
-0.00851692
-0.0198378
0.0844418
0.00266581
-0.000378516
-0.0559604
-0.0907093
-0.0140308
0.00616522
0.0188783
-0.0160569
-0.000715677
0.0161801
-0.0231098
1.04532e-73
0.0633576
-8.67864e-11
1.96757e-73
-0.0173519
0.281031
0.0388131
0
-0.000132579
-0.000172814
-0.158201
0.107362
-0.0795715
0.0312914
-0.0127745
-0.0104026
-2.33496e-05
0.0114922
-0.0462372
-0.0197245
-0.171978
-0.187873
0
-0.000202887
0.0275626
1.25794e-07
-9.59589e-10
0.0282529
0.216756
1.21057e-145
0
0.000869798
-0.0191934
-9.82222e-07
-1.10808e-15
-0.0266607
-0.0321664
0.0298234
-0.00123603
0.0416674
-0.0195926
-0.105914
-2.68829e-06
0.0621013
0.588572
0.149285
0.0192883
-0.0390903
0.0934383
0.00187747
0.00128543
0
-0.13743
0.0315729
-0.0644
-0.0176681
-0.0109569
-0.00405357
-0.0636711
9.17113e-05
0.00344287
0.00552172
-0.000316311
-0.122011
-1.93423e-05
0.0332844
-0.0958493
-1.10581e-15
-1.07038e-14
0.0908854
-0.0455437
0.00566735
-0.101551
-0.0592085
-0.0195031
0.00115167
-0.064842
0.00988705
0.0259656
-2.90589e-06
-0.130764
0.0364945
0.0109555
0.115031
0.014937
-1.3083e-09
0.0191404
-1.39308e-09
-0.059007
-0.015996
-7.90505e-322
-0.0869758
0.0529242
0.140886
0.00125673
-0.107999
-2.06217e-13
6.64212e-05
-6.93865e-08
-0.0344831
-0.016997
-3.30274e-06
-6.93865e-08
-0.117683
0.00348173
0.179673
0.0206338
0.0473361
0.000991918
-0.0445702
0.0946891
-0.00626006
0.00616522
-0.0245535
-6.93865e-08
3.51619e-06
-0.0248943
-1.40049e-10
0.044917
0.00091281
0.0111567
2.65686e-06
-2.31339e-08
-3.02184e-10
0.0465147
-7.44712e-05
-0.00028113
-2.90364e-08
0.00749814
0.0961197
-4.17337e-11
0.054918
0.00206926
0.0489461
7.82368e-06
1.96757e-73
0.0403906
0.0168536
-0.0268508
0
0.100104
-0.0263112
0.00450289
-0.00262791
-3.30873e-05
0.316537
0.017625
-0.000296387
0.165072
-3.83482e-11
-0.00454591
-0.00817235
-8.61826e-08
-0.00740189
-0.0242098
-1.71795e-05
-0.00539515
0.0534566
0.019021
0.0750016
-0.000229646
-0.172762
0.096242
0.0317818
0.00551663
-0.0320088
0
-0.0141543
4.39718e-322
-0.0541672
0.141389
-0.0787144
-0.0430029
-1.07038e-14
-8.31764e-05
0
-0.0293678
-6.93865e-08
0.0343683
-9.02256e-05
-0.000158872
-0.0260314
-0.0107393
0.0128915
0.00570647
0.0312914
0.0978779
0.0410743
-0.00025971
-0.02195
-0.0263166
-5.42733e-05
-0.000136567
0.00350314
0.0309863
0.0245394
0.00887552
-0.000221888
-6.1715e-05
-0.00374768
0.0215603
-0.071922
0.00806508
-0.239033
-0.073618
0.017902
0.00321423
-0.249915
0.00969154
-0.0882982
-1.87748e-05
0.0471999
-0.241622
-3.2757e-15
-0.000147465
0.0257938
-0.0232107
0.0358468
-0.0140308
3.35879e-05
-2.32844e-05
-9.45702e-10
0.0347838
0.0320522
-0.0293678
0.0258575
0.0442855
-0.000113704
0.00125673
0.0312914
-0.0141935
-1.90518e-09
5.46569e-05
-0.000196413
0.0501987
-0.0465753
0.0570579
-4.24701e-05
-0.0707575
-1.33344e-14
-0.0147455
-0.000115401
0.00125673
-2.23782e-05
-0.0199261
0.343529
0.000307643
0.00250811
-1.29072e-07
-7.79237e-08
0.0598328
-0.0123481
-5.42733e-05
-0.0256957
-0.220382
0.0127421
0.119451
-0.0147447
-0.00783284
-0.0441935
-1.06748e-05
-0.000256458
6.84823e-74
0.00133205
0.235942
-0.000112862
-0.0740817
-0.003266
0.0330116
0.0169081
0.212486
0.0122112
-0.044441
0.00563247
0.0385751
0.0284155
-0.0354063
-0.109207
0.0545349
0.0587175
0.000623955
-0.0615574
-0.0197806
-0.00257572
0.0735846
0.122177
0.16251
-0.0703102
-4.15026e-06
-4.72174e-10
-0.0301356
0.0696514
-0.0999138
-1.40049e-10
0.0028975
0.082985
0.0616355
0.0759728
-0.0621473
0.0258667
-0.0208976
-0.0232294
0.00170841
-3.04865e-05
0.000162761
0.0449535
0.00121328
-0.128032
3.64749e-07
0.0470386
-0.0114171
0.017326
-0.0185838
0
0.00707975
-0.133318
-0.0317472
-0.0265959
-6.93865e-08
-3.02184e-10
-2.70367e-08
-0.073782
0.106287
0.0427201
0.0128915
-0.000133787
-0.0930802
0
-0.021121
-5.22986e-08
0.0177102
0.0399969
0.0486841
4.55183e-135
0.0230677
-0.160403
-0.137615
-0.0333599
0.030672
-0.0327302
-6.31969e-07
-0.0860336
-0.120567
-1.05573e-06
-1.64587e-06
0.150654
0.13439
0.0447864
0.00081617
-1.90518e-09
-0.000678267
-0.0223338
-1.07038e-14
0
0.164793
-0.0999138
-0.0167485
-1.10808e-15
-3.2757e-15
0
-0.053019
0
-0.0030403
0.224298
0.103632
0.181779
0.00749814
0.00140753
0.036574
-0.0697314
-5.04186e-08
-2.50391e-08
-0.00884568
-0.0330048
-0.0228266
0.00696686
-0.0758176
0.0634657
0.029442
-5.23436e-07
-2.29738e-06
-0.00844625
0.00204875
-0.0822437
0.0512769
-0.0141935
-0.0258843
0.103589
-0.0330154
-3.40905e-322
0.000175468
0.217211
-1.26773e-06
0.0297812
0.000991918
-1.98322e-05
0.0865212
0.0013622
-7.50128e-06
-0.0309572
0.122419
-0.00882481
-0.0521826
-5.03172e-69
1.04532e-73
0.197024
-1.17094e-321
0.0741584
-0.0526289
0
-3.70773e-05
0.134361
0.0170693
0.0477788
0.106772
0.0162098
-0.0388018
-1.90987e-07
0.117259
-0.0378432
0.115881
-0.0469647
1.96757e-73
0.288982
-0.0123403
-6.93865e-08
0.0180588
-1.5959e-13
0.00944774
-0.00187727
0.00179159
-0.0125601
-0.043262
-0.0192776
-0.0321664
-3.2757e-15
-0.138718
0.0725582
-0.00719691
-0.0412169
0.00346164
0.00195993
0.228825
-0.0867979
-3.02265e-05
-0.0293678
0.0110883
0.0312774
0
0.0751228
0.0459046
0.134521
-2.07504e-05
0.0121932
-1.41445e-11
-0.0732294
0.0151574
0.0553071
0.0187266
-0.0441547
0.048483
0
-0.0595673
0.0185848
0.0377684
0.0146921
0.0743774
0.000221283
-0.0839256
-7.79237e-08
0
0.081484
0.0548193
-1.5069e-321
-2.17428e-05
0.0959069
0.00752343
0.0277093
-0.0337687
-8.61826e-08
0.0117725
0.000260602
-0.0429913
2.79238e-73
-3.30873e-05
-1.64837e-08
-1.4654e-13
-1.23516e-321
0.368441
-1.29072e-07
-0.121902
-0.0627995
-0.0413214
0
-3.83482e-11
0.0198658
0.00287903
-0.00980348
-0.0108893
-0.0333507
0.0334508
-0.110698
0.0969029
0.00112878
0.111005
-0.0320088
0.00312363
-0.00374768
-8.46088e-07
0
-1.93718e-05
-3.02184e-10
-0.0669502
-0.117365
-0.0104895
-5.47755e-06
0.120968
-0.180932
-0.0104895
-0.0121251
0.00980639
-1.81678e-05
0.121593
0.0224782
0.0455233
-0.0335429
0.0474826
0.00749814
-0.00673176
3.31588e-05
-0.043262
-6.93865e-08
0.0682505
-0.273166
0.0180588
-3.79312e-07
0.0278303
-1.67213e-05
0.00363944
0.242854
-0.0318911
0.0964081
-0.0278179
0.102572
0.00321423
0.00305732
0.108855
-8.49495e-06
-0.0294675
0.182145
-0.0378432
0.092415
0.345564
-0.0931863
0.0655974
0.123238
0.00119203
0.0180588
-0.0268508
0.0358222
0.0230198
0.025952
0.0790408
-1.12674e-05
-3.04865e-05
-0.0174224
-0.0601407
0.00288322
0.0474826
0
0.0416674
-1.92244e-07
-9.90755e-06
-1.24732e-08
-0.000296387
-1.58001e-05
0.0330504
-0.0475232
-0.0232107
0.0134934
8.56872e-74
0.00112418
0.00570647
-9.39044e-06
0.0180588
0
-0.0162134
0.0550755
0.00106673
0.00555702
0.0538735
0.0219995
-3.2757e-15
0.0125872
-0.0664171
0.0285412
-0.0165971
-0.00624352
0.0738452
-0.0469679
1.96757e-73
-0.0605934
-9.82222e-07
0.0192883
-0.116685
0.0961232
0.0677248
0.0211118
-0.0216692
0.01492
-1.07038e-14
0.135861
0.0291235
-0.0312058
0
-0.174393
0.178375
-0.0434483
-0.000678267
-0.0709973
0.0499242
-0.0154268
-0.0390461
-0.0494647
9.85195e-76
0.0201281
-0.00407445
-6.93865e-08
0.0206338
-6.31969e-07
6.86751e-322
0.0325767
-3.61842e-14
-1.90518e-09
0.002017
0.00346164
0.0275684
-5.23436e-07
6.64957e-73
0.013419
0.105512
0.0111567
-0.000113156
-0.0220107
0.00749814
-0.0695509
0.017326
-1.4822e-323
-0.0142817
-0.0287271
-6.35046e-11
-0.0164165
-0.0592752
0.0026398
-1.25618e-07
-0.0299278
-0.0357004
-0.0269175
-0.00361874
-0.028209
-0.0173519
0.00134345
-3.61842e-14
0.0166332
-0.0193729
-0.00329581
0.0863084
-9.82222e-07
0.00348173
-1.5959e-13
0.0101982
-1.4822e-323
-0.0966982
0.000152781
0.0407154
-0.0030403
6.54894e-73
-0.0313898
0.168377
-0.000154194
0.000294955
0.0186478
9.09081e-322
-0.0244916
0.133282
0.0169496
1.31916e-321
0
-7.90505e-322
0.0204973
0.025572
-0.0758915
0.00161744
0.0752343
-0.0216934
0
0.0134889
-1.64837e-08
0.0778866
0.034788
0.0290679
0.0900328
-0.0664881
-0.0945916
0.13178
-0.00420288
0.00140753
0.0238534
0.0215603
-0.0422051
-0.0870313
-0.108584
0.0134785
2.08433e-73
0.00079298
-6.93865e-08
-0.036881
0.0668551
0.0581669
0.368602
0.0299063
-1.10087e-06
-0.0719558
6.54894e-73
-0.0113679
-0.00409591
0.0111567
-0.00149062
0.00322069
-3.38863e-08
0.0267676
0.00499136
0.00348173
0.0132502
0.00466847
-6.93865e-08
-0.041528
-0.0412169
-0.0325055
0.037839
-0.0219286
0
-0.02639
-1.86055e-09
-3.81429e-05
-0.0508994
-0.057373
-0.0293678
-0.013354
0.0972922
0.0321199
0.00143046
-0.0354063
-0.0698415
0.00749814
0.0284401
-6.93865e-08
0.0106833
-3.17471e-06
0
-0.113361
-6.88902e-06
0.120035
-0.0492494
-6.88902e-06
0.00250771
-0.0522655
0.00201685
-0.035094
-0.0414318
0.0267676
-2.28233e-08
-1.81257e-07
-0.0563796
7.10452e-05
0.00966836
0.0101201
-0.0643097
-0.0104895
-1.54282e-14
-1.29072e-07
-0.0440494
0.0247308
-0.0275554
0.0035344
-0.00850022
-0.0335429
0.0567435
0.0134888
-0.100318
0.0874923
0.00980639
-1.48228e-12
0.0133569
0.0637251
-0.00851692
-0.396664
-0.0320088
-1.10808e-15
-0.000202887
0.00140753
-0.0225537
0.0190697
0.0157574
-0.0814481
-0.0263112
0.0334724
0.495452
0.0470386
0.0584158
-0.0131038
0.076621
1.21057e-145
-2.39801e-05
0.0325129
-0.0316265
-3.2757e-15
-0.0165273
0.0398173
-0.132929
3.39061e-07
-0.0415854
0.0874923
0.158038
-6.93865e-08
-6.93865e-08
-9.68256e-06
0.015912
0.0613819
-0.0263112
-6.93865e-08
-0.00988582
-0.055496
-0.000158872
0.00279688
0.0685671
-0.153977
0.0862054
0.0874923
-0.0597172
-0.0293678
-0.0520146
-0.106996
0.0328947
0.0561199
0.0479113
0.0467387
0.0886476
-1.14995e-07
-9.90114e-08
0.121712
-1.93423e-05
0.0988402
-9.90114e-08
-0.0164165
-0.0452995
-0.00999376
-3.2757e-15
0.0619865
0.000165111
0.0611148
-0.00931654
-0.0801837
0.183851
2.76271e-135
0.288255
0.0416674
-0.0973031
0.0812887
0.0468266
-0.0231198
8.56872e-74
0.0756615
-1.5959e-13
-0.0767892
0
0.0903923
-7.79237e-08
0.0913137
0.0608924
0.0278611
-0.0125369
-0.0241785
-3.61842e-14
-0.0173109
0.0989446
-0.0267573
0.0325767
-1.1385e-11
-5.5967e-16
0.0134189
-0.0140308
-1.39308e-09
0.00980639
0.0134934
-5.23436e-07
0.0239548
0.0529092
-1.3083e-09
0.0410558
2.18871e-321
-0.030487
-0.0537732
0.00725642
0.00125673
-0.0569386
0
0.0249017
0.0447668
-0.00374768
-7.00447e-15
-0.0349541
0.0290475
0.000102072
0.0522068
-1.1385e-11
0.00350314
-0.13815
0.0530724
0.0286724
0.0249017
0.0163952
0.046003
1.66694e-07
-0.00281508
-0.174967
0.0961197
0.00570647
0.00962812
-0.0920768
0.299815
0.29449
-0.0852854
0.0468466
0.0125883
-7.90505e-322
0.00699244
-5.47466e-37
0.0951752
-0.0293678
-0.0121637
-9.04914e-06
0.00880729
0.0171583
-0.0677782
-0.0246625
-0.0551759
-0.162914
-0.0972707
-0.0593385
-0.0728836
-0.000322726
0.0128344
-0.0175892
-2.67881e-10
0.219331
0.0178665
0.0546564
-8.91237e-09
-0.0159133
4.41731e-07
-0.0147925
-0.124949
0.0342477
-0.0701724
0.00616522
0.0190803
0.00463534
-0.000176183
-0.00762494
0.037839
0.0028343
0.0028343
-0.00014113
4.54974e-16
-0.0325589
-0.0476286
0.0712052
-0.0492494
-0.000320945
-0.0232107
0.0712052
0.00346164
0.00290535
-0.108231
2.08433e-73
-2.23782e-05
-0.0295501
0.00383546
0.0146268
0.0153287
0.0201427
-2.42551e-05
0.0424531
0.0111567
-4.11513e-05
0.00140753
-0.0110945
-0.0421648
-0.0228382
0.0270637
0.00346192
-0.00969501
0.199844
0.230957
-0.0109569
0.0424937
-9.68256e-06
0.0679798
-2.32749e-05
0.0293801
0.146686
-2.70926e-05
0
0.0330504
0.0121209
0.0112472
0
-0.00280313
0.0176218
-0.00634413
0.00911231
-2.13001e-06
-0.0470832
-2.51794e-05
0.0120086
-0.0224817
0.0246669
0.00138629
-0.0381408
-4.65787e-08
-0.0228581
0.0591964
0.0192883
-1.52277e-10
8.53724e-147
-0.00420288
-1.15409e-05
0.0870601
-5.22986e-08
-0.0314114
-0.11547
-0.0492105
-0.000175718
-0.00929045
2.46168e-08
-3.30274e-06
0.0711207
0.00301469
0.000385125
0.0739046
0.00291143
0.0370252
-0.0573475
0.0281323
-0.0390461
-0.0390461
-2.31339e-08
0.00704613
-0.00298269
0.0606851
-0.0320088
-0.0569841
-0.0293678
7.28452e-74
-0.0322668
0.0275963
0.00749814
0.000891925
-0.0433515
-0.000121955
-0.00779678
-3.95446e-06
-0.0291291
-0.0212893
-0.00339591
0.0424531
0.00305424
-0.00539508
-0.0367676
0.0141803
-0.00997792
0.00098013
0.0474826
-0.15381
-0.0801966
0.0472001
-0.00843191
0.0383365
-0.139119
0.0347838
0.0028975
-0.043952
-1.22857e-07
-0.0178639
-1.3083e-09
-0.000256756
-9.21182e-12
-1.06748e-05
-2.59934e-08
0.00749814
0.0835306
-0.179797
0.170678
0.0106604
6.54894e-73
0.0924012
0.00257943
-0.0978612
1.21057e-145
-1.07521e-11
-0.108255
-0.0268508
0.0570579
-0.000943585
-0.16574
0.107173
-0.0230496
0.0134557
0.0170178
0.0474826
-0.00226317
0.0030756
0.039776
0.00500688
-0.0253403
-0.00106108
0.0614625
-6.93865e-08
-0.0465931
0
0.0035344
0.00348173
-0.0556434
-0.00431038
0.00694013
-0.0474921
-6.93865e-08
3.60671e-05
0.0635639
-1.10808e-15
-6.93865e-08
-0.0104895
0.115221
-0.000229669
-0.0143881
-0.0123481
-1.10808e-15
-0.0689602
-0.0234382
0.014088
-0.000178024
0.000167525
0.0909961
-0.0267566
-5.22986e-08
-1.86055e-09
0.0831306
0.00988705
3.35879e-05
-2.34287e-05
0.0581305
-0.10979
-0.0141935
-1.90518e-09
-0.100133
0.0312914
-1.5959e-13
0.00346164
0.00321856
-4.6058e-68
-1.39308e-09
-0.0461831
0
0.000223135
0.00250771
0
0.000101646
0.000168371
-0.0437134
-9.27766e-05
-0.11785
-2.42551e-05
0.00704613
1.04532e-73
-0.00412844
-0.135561
-0.166364
-0.000176183
-0.051154
-0.00866397
-0.191728
-0.000115421
-0.00843689
0.0449534
0.00250771
0.0737451
-0.0255048
-3.02184e-10
0.0186524
-0.0521826
-0.0123009
0
-6.68416e-06
0.000152781
0.0874892
-0.148816
-2.56666e-05
-0.0359034
1.04532e-73
0.0206338
0.00146449
0.0028343
-8.67864e-11
0.0416674
0.00201685
-0.0318709
0.000395249
-0.187158
-6.50653e-05
-0.0263156
0.00214566
-0.00501575
-1.14529e-06
0.0785091
-1.5959e-13
0.0127861
-0.12941
0.0804606
-0.000228198
-0.0719247
-2.68829e-06
0.0238447
-0.00208274
0.0900424
0.0829785
-0.00930725
0.0425371
-4.86069e-06
0.0028975
-0.0980495
-0.000113147
0.00179159
1.31916e-321
0.237865
-1.58001e-05
-5.5967e-16
0.0407153
0.154281
-0.000176183
0.0673792
-0.0165896
-0.0471602
0.108719
0.0619865
-0.0730188
0.00205487
-4.03452e-05
-8.21294e-05
0.00689805
-4.82372e-05
-1.10581e-15
0.660842
0.0432257
0.0499223
0.0157094
-0.0603575
0.0713054
0.013419
0.0479113
0.0560599
0.051029
0.12988
-0.000296387
-0.146976
0.0109555
0.0565005
0.0455338
-5.42733e-05
-0.000117202
0.00188643
-1.5959e-13
-1.83889e-08
-0.000148263
0.0168491
-0.0720065
6.86079e-73
0.0428084
0.143749
0.0146097
-0.0433515
1.04532e-73
0.0279615
-0.292261
0.0440869
-0.0542685
0.0560474
0.000382465
6.19282e-146
0.0981681
-0.105141
0.00350314
-3.61842e-14
-0.0741784
0.096242
-0.0223555
0.000624396
0.102493
-0.0959657
0.171852
0.0712052
0.0331233
-0.055309
-3.61842e-14
-6.93865e-08
0.0523942
-1.29072e-07
-7.8766e-08
-7.8766e-08
0.0877095
-0.075882
0.0056639
-0.104476
-0.0286013
0.000162761
-0.0397725
0.00749814
-0.00500675
-0.00314173
-0.0215202
-0.080037
4.54974e-16
0.0467611
0.138571
-0.0379809
0.00345207
-1.33398e-321
0.0881545
-0.000239688
-0.261948
-1.48228e-12
-0.0146838
-0.131231
-0.056634
0.0028343
0.0401821
0.217975
0.0652433
0.0192883
-0.0173145
-0.0263112
0.0494898
0.0167442
0.029
0.00158856
-0.0334012
0.219005
0.0147265
-0.0461594
-2.68829e-06
0.0263169
0.0581658
-0.0108893
-0.0291982
0.30775
0.0311099
0.000250451
-0.000322726
-0.00671836
-6.7687e-322
0.0121932
0.0679771
0.0479232
0.0534566
0.171787
0.0362125
-0.0335106
0.0205685
-0.0538807
0.0617382
-5.66378e-05
0.00311027
-0.000805903
-1.39308e-09
0.00164069
-5.8999e-06
-0.0293678
-1.87748e-05
0
-3.61842e-14
0.0968747
-0.0288134
0.0474747
0.0021753
-0.167565
0.0205685
-0.116622
-1.10808e-15
0.00593156
-6.93865e-08
6.84823e-74
0.00849658
-1.90518e-09
0
0.00131958
0.100413
0.0347839
-0.0272794
-0.0876112
-0.000296387
0.0972922
-1.41686e-09
0
-0.0218615
0.14728
-0.000109905
0.093444
-0.0811372
-5.23436e-07
-0.0122201
-2.59934e-08
-0.000137884
0.00264505
-0.0222108
-0.0717697
0.00250771
-0.0884847
-0.000229204
0.0105683
-0.0405021
0.0180588
0.379633
-0.0203104
-6.72673e-11
-0.0638916
-2.25586e-08
0.0831306
0.0131414
-0.0330182
-0.0415317
0.0773438
0.0848689
-4.43792e-06
9.65566e-05
-6.93865e-08
-0.0129709
0.0946891
0.0273243
0.0215112
-1.4654e-13
0.0278386
-0.0121251
0.00350314
0.0222282
-0.00420288
-0.0700877
-0.0759412
3.31588e-05
0.088712
-0.0572546
0.293968
0.00237262
-0.0381408
0.00279688
-0.0677928
-0.346748
0.0180588
-0.0111365
-0.0453571
-0.000249914
0.13062
-0.0850917
0.0238447
-1.54282e-14
-0.00626006
0.0321053
0.214798
0.0530269
0.0657619
0.0307116
-0.118534
-0.11025
-2.81407e-05
-0.0104895
0.0329185
-0.0471935
-0.00431603
0.097464
0.0557997
0.0180698
-0.0713375
0.101036
-2.19184e-08
-0.0224817
-0.443748
0.0192883
2.08433e-73
-4.03452e-05
0.0120603
-3.2757e-15
0.0581141
0.0311691
-0.0471031
0.0562096
0.0637251
0.00250771
-5.23436e-07
-0.0143167
0.0380844
0.00350314
-0.0388742
-9.68256e-06
-0.0480835
-4.33124e-06
0.0467689
0.0972922
0.00256358
0.194558
-0.0315918
-2.14597e-05
0.00125673
0.000138968
0.00345207
0.0485238
0.0425906
0.059129
0.0485351
0.0180588
-0.0379809
0.00250996
0.0152921
-0.0278115
0.117884
-0.0227484
-7.86822e-06
-3.44223e-06
-3.8969e-05
0.00348173
-2.70367e-08
-0.146729
-0.000322726
0.117267
-0.0123481
0.0126099
0.0204507
0.0388131
-8.21293e-05
-1.90518e-09
-0.011338
0.0344973
-0.0030403
-0.0358372
0.0645544
0.0393902
0.0208215
0.0886309
0.027074
-0.0104895
0.0274137
-2.56666e-05
-0.15716
0.032251
1.31916e-321
6.92244e-05
-0.0482695
0.0358896
-1.31526e-05
0.0209713
-0.0157867
0.0105243
0.0298234
-1.23516e-321
-0.0486531
-0.000284704
-0.0371616
0.00749814
-0.0030403
-0.0738188
-0.0217557
-1.98285e-06
-0.00671836
-0.103288
-6.35079e-11
0.117489
-8.8129e-06
0.0213495
-0.0318006
-0.000373081
0.0454519
-0.16177
-0.0406466
-0.0153965
-0.153838
0.0738634
0.0207709
0.199379
-0.0109569
-0.0759412
-1.93423e-05
-0.0923549
-7.66621e-06
0.150996
0.00570647
9.6202e-05
0
-0.0885954
-3.61842e-14
-3.2757e-15
0.0908854
0.0746487
0.013332
-2.90366e-08
-0.00448014
0.0264622
-0.0101207
0.103589
0.0187143
0
-2.4409e-05
0.0543093
3.59415e-05
-0.0141935
-0.000196413
-1.23516e-321
0.000175468
-0.0945287
0.16024
-0.0206177
-0.0337798
0.14784
-0.0244176
-1.36356e-10
0
0
-0.0272693
0.127958
-0.000228198
-0.00020565
-0.0269175
-0.0580145
0.00749814
-0.0226804
-0.0440671
-0.0492494
-0.00662021
-1.92375e-05
-0.00539508
-0.0415317
0.0472001
0.0896477
0.00346164
-0.0157867
-0.119691
-0.0565795
0.0639017
0.00643114
0.0344973
0.258663
-0.0870313
-2.17428e-05
-6.35046e-11
-4.05414e-06
-0.000314295
0.00250771
0.0970257
0.0241265
0.00140753
-0.0145742
0.0617366
-0.000188238
0.0261838
-0.0563682
0.0575545
-0.0347727
0.00167451
-2.90589e-06
0.051997
0.113423
-0.0249296
0.161462
-0.0173187
0.00245343
0
-4.13738e-06
0.010664
-0.00106108
0.0753577
0.000510606
-7.8766e-08
-3.2757e-15
-3.83482e-11
-0.050326
-0.113751
-0.0687033
0.0312914
0.170408
-1.4654e-13
0.0468603
-0.119366
0.0330504
-0.158637
0.000339011
-0.0538807
0.109597
0.0109543
0.000624396
0.0307468
0
0.115382
-0.00783284
-0.041528
-0.0225079
-5.47466e-37
0.0249154
0.00882211
0.279717
0.0127855
0.0710447
-0.00779678
-0.0417077
-0.0199174
0.00699244
-7.8766e-08
0.155554
0.0763186
1.25794e-07
0.0180588
-0.0203104
0.121256
-1.5959e-13
0.0565277
0.000410475
-4.72174e-10
0.00699244
0
-0.0138957
3.60671e-05
0.0653229
-0.0381404
0.00246545
-7.79237e-08
-1.12647e-321
0.00250811
0.0218942
0.00348173
0.087446
-0.0900823
-0.00803601
0.0653229
0.0594486
0.00116373
-0.0291982
0.0470386
0.0198658
0.0388356
0.107374
-0.00025971
-0.0116827
0
-1.23516e-321
0.0215603
0.0192883
0.0703865
-0.0146838
-5.20697e-05
-0.0494545
0.0339955
0.0455233
-0.0529607
-9.59589e-10
-1.90987e-07
-3.30274e-06
0.00752343
-2.08845e-05
-3.98307e-06
-1.41445e-11
0.0170693
-1.04477e-05
0.0660639
-0.00133275
0.01433
-0.003266
0
-1.10808e-15
0.0301444
0.0105243
0.0228078
-0.00539508
-0.00339591
0.133638
-0.00025971
-0.000102125
-0.058837
0.187392
-0.0184123
0.000172388
-0.000221101
0.110047
-2.70367e-08
-0.102618
-6.0729e-05
0.0723392
0.0560195
-0.0624942
-0.0256466
0.0134889
-0.0521264
3.79092e-06
-0.000132579
-0.00539515
-0.0288398
0.000898852
-0.0283789
-3.30873e-05
0.0506353
-6.93865e-08
0
0.013568
-7.79237e-08
-0.0293678
0.0762476
-0.0345734
-0.0173519
0.0228524
0.19158
-0.0758176
-5.23436e-07
-2.31339e-08
-0.121788
-0.000147644
-0.0145613
-0.170543
0.0291235
0.147342
-0.0141935
9.65566e-05
-2.78523e-07
-4.68269e-06
-0.138759
0.11297
0.0646977
-1.72956e-05
-3.64378e-06
0.178371
-1.54282e-14
-8.89977e-06
6.84823e-74
-3.61842e-14
0.00448737
-0.0410157
0.0951752
0
0.00969154
0.0447647
0.0163257
-0.0147947
-0.0327409
-0.0141543
0
6.54894e-73
-0.0194767
0.017326
0.00749814
-7.79237e-08
-6.89807e-05
-0.00671836
0.120264
0.0298234
-0.0104895
0.06228
-0.0671282
-0.017825
0.0409039
0.112903
-0.00818746
0.0927516
0.00202352
-0.00671836
6.86079e-73
-0.0799519
-0.178324
0.00189418
0.000110838
-8.89977e-06
4.72808e-05
0.0886271
-9.25477e-07
-0.000249914
-0.140775
0.0286592
-0.0398474
0.0140618
-0.00277084
0.0991686
-0.058681
0.011338
0.00981691
-8.97771e-06
-0.163666
-2.62279e-05
-8.46088e-07
-9.27766e-05
-1.85275e-321
0.0662492
-0.0116226
-0.0198378
-0.0611817
-0.012403
0.000991918
-0.173887
-0.000117202
-0.0657983
0.0290679
-5.22986e-08
-0.00358307
0
-0.0469645
-0.0400595
-2.28233e-08
-0.075017
1.04532e-73
-8.91237e-09
0.00124344
7.892e-05
0.0287422
0.00175828
0.0346155
-0.029679
0.0447864
0.00819771
-0.00112618
0.0707152
0.0106833
0.00350314
-0.0464409
-1.10581e-15
0.0416674
-0.0554384
0.0644797
-0.104337
-0.0141935
-1.09683e-321
-3.2757e-15
-0.000256458
-7.90505e-322
0.0505795
0.00279688
-0.00626006
-0.000322726
0.136152
0.0327855
0.0579688
-0.0156138
-0.0455437
-0.0791902
7.8554e-05
-3.04865e-05
0.00204875
-3.81429e-05
-0.0214594
0.0917995
-6.31969e-07
4.99006e-322
-1.48228e-12
0.0180588
-3.1217e-06
-1.90181e-05
0.0170867
0.00134345
-0.0216424
0.000262471
0.0562253
-4.05414e-06
0.0161986
-0.00866397
0.102493
-0.04121
0.00385944
0.0870085
0.0256866
-0.0259997
-0.0118831
0.0416674
0.154196
0.00350314
0.0067763
0.0330504
-9.02256e-05
0.0810116
-0.00174365
0.173184
0.00417416
0.051246
-0.0733577
-0.0078103
0.0305751
0.228813
0.096473
0.0112472
-0.00997792
0.025205
-0.0892004
-8.67864e-11
0.00140753
0
-0.0524431
-0.0030403
0.0025847
0.0562262
0.0135407
0.000991918
-9.90114e-08
-0.0025432
0.10832
0.128636
-2.07504e-05
-0.00020565
0.0458156
-0.00123603
0.141416
0.0190697
-0.054026
0.0594264
-0.0529315
-0.0140308
-0.0783811
-0.0648256
-0.0483697
0.0109555
0.0278303
-0.032767
-1.36356e-10
0
-0.0396371
-0.0197356
0.00119203
0.00111302
0.00192361
0.0189389
1.46243e-321
0.0278303
-1.58001e-05
0.0477835
0.0323142
0.0212142
0.032251
-1.15611e-321
0.0633576
0.00321423
0.00173829
0.090647
0.0217944
-1.5959e-13
0.0180588
0.0294859
0
-0.226433
0.000168371
0.00202091
-7.79237e-08
0.0163256
-0.0521826
-0.0700836
-1.10808e-15
-1.81257e-07
0.0306819
-0.0955017
-6.93865e-08
0.0299063
-1.5959e-13
-0.032029
-0.115981
0.0284179
0
-0.0218464
0.00282947
-6.93865e-08
-0.0642471
-0.0402338
-9.39044e-06
0.102191
0.151651
0.0112472
0.0277093
-0.0726864
0.00322067
1.56619e-321
-0.135392
1.82804e-321
4.15069e-05
-1.47108e-10
0.00197055
4.54377e-145
-0.0677924
-0.0317692
0.00266581
-6.93865e-08
-0.000296387
0.0408849
-3.5399e-10
-4.6058e-68
-0.0333358
-0.0124988
-0.0587401
-0.0926335
0.0769015
0.0263895
0.0306509
-5.76097e-05
-8.31764e-05
0.052053
0.0691953
-0.00217438
-0.0217385
-2.28233e-08
7.82368e-06
-0.112064
-1.5959e-13
0.143604
-0.00539508
0.0170867
-0.0174974
0.00637207
0.0281609
-0.0674791
0.150181
-0.0428336
0.00582124
-0.000244699
-3.93254e-06
-0.0272244
0.000448565
-0.00904111
0.0723552
-1.03946e-07
-0.153591
-0.0592564
-0.00671836
0.00341491
-0.151223
-0.0173187
0.0224782
0.0562262
0.0437274
0.00777539
-0.0208976
0.0595924
0.00348173
0.26224
0.119982
-0.00143135
0.246406
0.00348173
0.00129192
0.00469871
-0.0352616
-0.015996
-0.0873289
-0.0792393
4.55183e-135
0.0101201
0.103497
-0.0293678
-8.61826e-08
-0.000296387
0
-1.58001e-05
-0.0215202
-0.0202312
0.0690064
-9.21182e-12
-5.3051e-13
0.0696529
-7.66621e-06
-0.0945916
0.0189769
0.0312914
-3.70773e-05
-0.000284704
-0.0657174
0.0192883
-0.0415317
-0.0575776
0.0776327
0.000898852
0.0162602
0.00250771
0.000676815
-0.0716984
0.0445873
0.0105243
-3.02184e-10
-0.0198378
0.00436336
-1.46579e-05
0
4.67252e-07
0.000292093
1.82804e-321
-3.04865e-05
0
-0.0646733
-0.0153328
0.318445
-0.0451583
0.0739291
0.0636714
0.0124882
0.0823856
-0.00536182
0.0784474
0.00250771
4.54974e-16
0.0170867
-0.0414701
0.169801
0.0467387
-0.0104895
-0.000296387
-0.158033
-4.24701e-05
-0.0633624
0.00402779
0.0325278
-2.56666e-05
-0.119216
0.0879421
0.0286592
0.0237436
-0.0251745
8.39912e-322
-3.83482e-11
-6.93865e-08
-0.185047
5.39897e-64
-8.8129e-06
0.0800666
0
-7.66621e-06
0
0.21424
0.0190697
0.0441365
-0.0721842
-0.0791382
-8.21293e-05
0.0278029
-8.67864e-11
0.725814
-3.2757e-15
-0.344614
-0.0751045
-0.0401209
0.441855
0
-0.0314114
-2.07504e-05
0.00817696
-0.0804525
0.0134188
0.00288322
0.00189737
-0.0452995
0.0993351
-0.0768203
-0.0834727
0.257749
-0.000280041
-0.010079
0.00969154
-0.13634
1.82804e-321
-0.0806407
0.0685512
-0.00525836
0.131412
0.124752
-0.0462557
0.0648199
-2.59934e-08
1.31916e-321
-3.2757e-15
0.0530421
-0.0874246
-4.24701e-05
-0.0015486
-0.285435
0.182434
0.00559632
-8.49495e-06
0.145865
-0.00626006
0.0123231
-0.126381
0.00114093
-0.0932086
2.24048e-05
0.00348173
-0.00803601
0.0267676
-0.0212769
-5.23436e-07
-0.0714849
-6.93865e-08
0.220073
-0.0185838
0.0127861
-0.00457409
0.146914
0.0158311
0.0726313
-0.000176183
-0.000154194
-0.00803601
0.00266581
-0.0481255
-7.66621e-06
0.0157093
-3.89345e-05
-0.0298631
0.150372
0.0198658
-0.0159586
0.0467387
0.207802
-0.0781763
2.08433e-73
-0.0270548
0.105216
0.0319661
-0.0030403
-1.72423e-06
-0.0393525
0.0381358
-0.000176183
0.0232664
-0.003266
0.0112472
0.00415437
0.0241765
0.0321199
0.000644545
-0.0275554
-6.89807e-05
0.246796
-0.0157867
0.103589
0.134935
0.0227941
6.47226e-322
-4.65787e-08
0.0215112
0.0994322
0.0056639
0.145913
0.0273557
-0.0814881
0.00262573
-6.35046e-11
-6.68227e-05
-0.0603427
-0.00025971
-0.00539508
-0.0483541
0.00749814
-0.051154
-0.0363141
0.0152921
0.102519
0.00692771
-0.0391502
-1.40049e-10
-0.0648709
-4.96815e-06
0.0573
-0.0623634
0.0134889
-2.67881e-10
-0.0843009
0.00962525
0.000102072
-0.0263112
-0.0999138
-0.00147252
-6.20076e-12
1.04532e-73
0.0678226
0
-4.15026e-06
-0.143348
0.0807197
0.0397383
0.00114093
-0.106339
0.143967
-0.0359093
0.0228108
-0.0286013
-0.000316311
0.176777
0.0217358
-4.33124e-06
0.0788713
-1.40049e-10
-1.97581e-08
0.0134934
-0.0165971
-6.93865e-08
0.0568677
0.396782
0.00227323
0.000458094
0.0180588
-0.00208339
0.0192883
0.124849
0.0111567
-2.67881e-10
-0.015996
-0.00851692
0.0587088
-9.45702e-10
0.0124145
0.00880729
0.0192883
0.0419817
0.0180588
-0.0330154
0.0209713
-0.00679747
0.0215199
-0.0643368
0.0384211
0.196168
0.0562176
0.0207271
-0.0312663
-0.112815
0.0419111
0.0570579
-0.0142817
-0.0462372
0.0219946
0.106671
0.0362131
-0.0526898
-5.23436e-07
0.00348173
-1.07038e-14
-2.19184e-08
-0.0677782
-0.105979
-0.00436969
0.00314938
-1.54282e-14
-0.0371422
-0.0562828
-1.10808e-15
-0.00908199
0.0680042
-0.00974433
0.0180588
-6.93865e-08
0.00204875
-0.0104895
-9.21182e-12
-7.90505e-322
0.0633575
-0.0399926
1.21057e-145
-0.00123603
-0.0843389
0.0178665
-0.00123603
-0.041528
-0.0561754
-4.37987e-06
0.0407154
-0.0287271
-0.00300326
-1.51452e-07
-0.0197245
0.0121851
0.0134934
-0.0411292
0.286065
-0.00327878
-0.000242189
-0.0461831
-1.10808e-15
-0.0120771
0.0278539
-5.23436e-07
-0.0293784
0.285199
-0.000171878
0.0821602
-0.0589204
0.166598
-8.8129e-06
-0.0140308
0.013419
-0.00312228
0.0738634
0.020141
-0.0165971
1.70556e-06
-0.190879
-0.097499
0.00616522
-0.000174073
-0.0157867
-0.0412169
-0.0245421
-0.00897729
0.000175468
1.09189e-321
0.0191894
0.0689961
0.0656021
0.0194226
0.0127861
0.0344587
0
0.0565277
-0.0263112
0.110771
-0.0313638
0.00988705
0.00969154
-0.0493901
0.0111567
-6.7687e-322
-0.0121637
-9.59589e-10
-3.96353e-05
-0.000296387
0.00132339
-2.32844e-05
0.0137427
-2.70367e-08
-1.93423e-05
-6.93865e-08
-0.0276601
2.08433e-73
0.0049944
-0.0291982
0.0819797
-0.0370628
-0.0138897
0.00752343
0
-7.08895e-05
0.230482
-0.143251
-1.90518e-09
1.04532e-73
-0.0110703
-0.0672847
-0.000678267
0.00179197
-0.0317472
-0.0396018
0.013419
0.0364945
0.00638168
-3.2757e-15
-0.0751605
0.037839
-0.0444607
0.0350703
-0.0445865
-2.96004e-08
-0.0360839
0.00749814
0.0602566
0.123655
0.0178665
-0.077399
-1.47399e-05
-0.0562235
0.000226128
0.0518649
0.00570647
0.0458155
-7.8766e-08
-0.0829969
-0.0903787
-0.0379809
-1.33398e-321
0.069004
-8.61826e-08
-0.0321437
-0.0773902
-1.14529e-06
0.00318999
9.09081e-322
-0.0115139
-7.60543e-09
0.142539
0.0301825
-0.0208555
-0.0995684
0.0343518
-0.0291858
0.00201702
0
-0.0216267
-0.0297334
0.00570647
0.00749814
-0.000262054
1.09189e-321
0.176187
0.117646
0.277996
-0.0151399
-2.90364e-08
-0.0331635
0.0312838
0.0120138
-3.50716e-08
-0.0104895
0.00749814
0.0126447
1.28773e-05
-6.93865e-08
-3.02265e-05
-0.0273755
-0.0142817
-0.023734
-0.104502
-0.0771883
-3.26828e-05
-0.00025971
0
0.0609644
0.00103558
-1.5959e-13
-0.000158872
0
0.109567
-5.5967e-16
-0.0317474
0.0444367
0.0168491
-3.2757e-15
0.00749814
2.08433e-73
0.0304851
-4.09518e-09
0.00257943
-0.0503269
-1.40952e-05
-0.00025971
-0.115387
0.121644
0.00770124
-0.0239837
0.490692
0.183003
0.0111567
-0.0045994
0.274731
-8.31764e-05
-1.90518e-09
-1.25618e-07
0.0345299
0.000738436
-8.89977e-06
1.54414e-05
0.00344432
-7.61177e-06
-0.011338
0.00266581
-0.0185756
0.00192717
-0.0146838
-2.58764e-07
0.00880729
-0.0293678
0.0623817
-0.00950399
0.000624396
0.0124882
-0.00463481
0.0238447
0
0.0342244
-0.000296387
-0.0433515
0.0291226
-0.000249914
-0.0207193
-0.000159816
-9.45702e-10
0.158359
0.0674889
0.00140753
-5.22986e-08
0.119549
0.00969154
-1.39308e-09
0.0422122
-0.188013
-3.06772e-09
-0.0417475
-1.39308e-09
0.0025847
0.0154531
2.08433e-73
-0.0263515
-0.0363555
-0.0800295
0.000165111
-0.00857119
0.0255539
0.0521399
-7.8766e-08
0.0441888
-3.99942e-06
-0.0120933
0.0151717
0.217214
0.0441465
0.0695238
0.115751
-1.07038e-14
0.00204875
-9.45702e-10
-0.0173575
0.0181671
-0.00920355
0.000262471
0.00179159
0
-0.0440919
0.0249017
-0.00525836
0.00566735
0.0565527
0.00501363
-0.00363215
-0.174984
-0.0703384
0.094333
0.00316642
0.0636361
-0.0946923
0.167334
6.96654e-05
-0.0467559
0.0229309
-0.0805771
-0.0696228
0.0720998
-3.79312e-07
0.0324468
0.0265336
0.00892422
0.0372506
0.15395
0.0115114
-0.0627778
-4.11513e-05
0.0662492
0.0134276
-0.000296387
-0.00014777
0.0499223
-0.0266738
-0.162396
0.0415808
-0.0898957
0.0574469
0.00313204
-0.115441
0.0502926
-0.051154
-0.0115139
-0.000176183
0
0.00734306
-5.76097e-05
-0.0899541
-0.0422051
-0.0698415
0
-1.38709e-08
-0.0604529
0.0219749
0.125915
-1.22857e-07
-6.93865e-08
-0.000244699
1.24505e-321
-0.0140812
0.615791
-0.0568935
-0.0388493
-0.000147644
-1.23632e-07
-0.0927658
0.00749814
0.0155749
-6.31969e-07
-1.47399e-05
-0.0203272
0.00950992
0.550026
0.00346159
0.00297318
-3.70773e-05
0.023442
-0.0191202
-9.90114e-08
-0.00025971
-5.97752e-05
-0.0173187
0.0474826
-0.0759412
0.201277
-6.93865e-08
-0.000115401
-0.0110574
-3.02184e-10
-0.00127795
0
-0.0158061
-0.00672953
-0.0803769
-0.0164166
-0.0337497
0.0673418
-0.0366484
0.0178665
0.0617382
0
-1.90987e-07
-1.5959e-13
0.0481258
1.07706e-321
-0.0293191
0.000472058
3.05575e-64
-0.105141
-0.0267964
0.030682
0.0275635
-0.103755
0.047364
-0.0625289
-1.33398e-321
0.195858
0.0100432
-3.2757e-15
0.0292156
0.101218
-0.0157984
-0.000121955
0.0507991
-0.000723545
0.007125
0.0325767
-1.72956e-05
-2.34287e-05
-2.90108e-11
0.0291235
0.0111567
0.0862054
-0.135258
0.0707152
-9.41542e-10
0.00647544
0.0101201
-0.126462
-0.0190114
-0.0657612
0.130119
0.0248616
0.0905261
0.0330504
-5.23436e-07
-0.114609
-5.42733e-05
-3.98307e-06
-0.0379809
0.00318999
-0.00123603
-9.25477e-07
-0.0155166
-0.0461957
0.00238534
-0.0648732
0.234933
-8.8308e-11
-0.0415317
-0.00857119
0.0276719
-0.014454
-3.07137e-06
0.0170867
-3.2757e-15
0.0152532
-1.93423e-05
-0.0223178
0.00980639
0.0355011
0.0369982
0.0312914
-4.15026e-06
-0.0234729
-0.113251
-0.102098
0.00449703
-2.18847e-05
0.0103943
0.0331977
0.0374884
-0.0276792
-0.0621104
2.18871e-321
9.79134e-147
-0.0492164
-0.0267654
0.0347838
-0.0391873
-9.90114e-08
0.00242166
-0.0289135
0.00220198
-0.00981138
-1.85297e-05
-0.000182186
0.0114733
-0.00793915
-0.15338
0.00641147
0.00141746
0.00175828
-5.5967e-16
-0.0245321
-1.93562e-05
-0.000279963
-8.90168e-06
-4.01009e-05
0.00250811
0.0277092
0.0899307
0.0311927
-0.012932
-0.0160122
0.0416674
-0.00626006
0.00988705
0.0233828
0.0108242
0.0578395
-0.0293678
-0.074133
-0.102618
-0.0220107
-0.000229646
-0.281438
0.0534566
1.26975e-321
-0.054597
0.0655096
0.0706458
0.121746
0.0227073
0.164456
4.72808e-05
0.0407936
0.203174
-2.17428e-05
0.0101201
-0.0421025
-0.00280313
-1.07038e-14
0.052054
0.0621139
6.54894e-73
0.00233792
0.000977713
-0.0379809
-6.0729e-05
-0.0199435
-0.00123603
-0.00851692
0.000221283
0.0468596
-6.20076e-12
0
-0.00190595
0.0267676
0.142539
0
-0.060004
0.0318134
0.0056245
-6.93865e-08
-0.00020567
0
-0.0165971
-6.35046e-11
0.00243794
-4.17257e-13
-0.0195142
0
-0.0259225
0.0180588
-2.59934e-08
0.00266821
-8.67864e-11
0.0601207
0.0650675
-0.0797516
-6.88902e-06
-1.90518e-09
6.54894e-73
0.0946891
0.0154531
-0.0103655
-8.21293e-05
0.0622192
-1.4658e-05
0.00876694
0.0601828
0.017625
-0.0974405
0.30044
0.112677
0.273022
-0.000137884
6.86079e-73
-3.2757e-15
0.0253297
-0.0338865
-0.000155747
-1.4822e-323
0.0696514
0.0229309
-2.31339e-08
0.199405
-0.102786
0
-0.0800295
1.26975e-321
-0.0327409
-0.054459
0.0180588
-0.0391976
-3.31132e-05
0.0106467
-0.011968
0.00499136
0.074051
-0.0152141
0.00348173
-0.0049168
0.00250771
-3.2757e-15
0.0294859
-9.7825e-322
-0.000279963
0.0487979
-0.0121251
0.0436132
0.0568597
0.00302639
0.266142
-0.00769092
-1.87748e-05
-0.000315788
0.0794642
-0.0643097
-1.09683e-321
0.102438
0.00266581
0.0249402
0.00233792
0.124849
-1.36324e-09
0.0154216
-2.07504e-05
-0.0230496
0.0888472
-0.0220107
0.0117725
-0.0293678
0.0152067
0.100199
6.57278e-06
-8.89977e-06
-0.187678
0.0278844
0.00282947
-0.000315816
-0.0364123
0
0.0562186
-0.03819
-7.37038e-05
-0.0276448
0.10629
0.0230935
-0.155355
-0.00407445
0.0180588
0.0217469
-9.02256e-05
0.328315
0.0124428
3.31588e-05
6.54894e-73
0.0101786
0.019021
-0.0762901
0.0127421
0.0258575
0.0292433
-0.0576742
0.0630957
-0.0293678
0.00862575
-0.0203104
-0.0230496
-3.59855e-10
0.0503758
-6.93865e-08
-0.0161862
-0.0352659
-5.42733e-05
0.0367226
-0.0186006
-0.00148929
-5.23436e-07
0.00616412
0.0301444
-7.79237e-08
-0.0185838
0.00233792
-9.02256e-05
-0.0550573
-0.0654906
-3.8378e-07
-0.0121251
-4.68731e-05
0.0178665
0.0155983
1.04532e-73
-0.0140308
-0.0895223
-0.0197477
0.0028343
0
3.97715e-05
-8.49495e-06
-6.93865e-08
0.112153
0.0924978
3.27644e-05
-0.148446
-4.86069e-06
-0.00428233
0.053572
-0.0126214
-0.0788824
0.0581305
0.638972
0.0441269
0.00819771
0.0102922
-0.0473741
0.0458409
-0.0230496
0.0121932
-7.13083e-06
0.00179159
-0.000281084
-0.107165
0.0583255
0.00806508
-0.027052
0.0206864
0.0630961
-0.0751566
-0.041528
-9.90114e-08
-0.000263919
0.00445464
-1.90987e-07
-2.17428e-05
-7.79237e-08
0.134044
0.0560474
-0.000202887
-1.85998e-06
-3.79312e-07
2.18871e-321
-0.000113156
-4.37987e-06
-2.3781e-07
-0.175193
0.00616522
-5.69825e-07
0.0224782
0.0113377
0.0843457
-3.2757e-15
-0.0972578
-0.115385
-0.053387
0.132974
-0.0435068
-0.000249914
0.135272
-2.99345e-06
0.0249048
-1.54282e-14
0.0526254
-0.0415317
-4.07436e-07
0.00611243
6.84823e-74
-6.7687e-322
-3.70773e-05
-0.153536
0.0756678
0.0105243
-6.93865e-08
0.118522
0.0110567
-6.93865e-08
-0.0263414
0
0.0998882
-0.00763486
-2.99345e-06
-0.0375517
-0.257625
3.35879e-05
-0.000113156
-0.0291982
-0.0461833
-0.103562
-6.7696e-07
-9.90114e-08
0.00962812
-0.00273561
0.0323676
0.030654
-0.0353127
0.0498073
0.0215603
-0.000175718
-0.0102798
-0.0909677
0.027318
0.603931
-1.5959e-13
0.00749814
-0.0201852
0.0206864
0.0120086
-0.0461049
0.128961
0.0418805
-0.157813
0.261787
-0.120474
-2.67881e-10
0
1.19536e-05
-0.0490465
-4.24701e-05
-0.102737
-8.46088e-07
0.196367
0.0152921
0.0881963
-5.23436e-07
0.0190347
0.0619865
-0.0585075
-0.00844625
-0.0359562
0.0472001
-0.206578
-0.0146838
0.0244452
-5.5967e-16
-0.0842485
0.0117725
0.150464
-0.0484315
0.0344973
-0.0288307
0.0707324
-4.6058e-68
-0.0083005
-4.03452e-05
-0.0354931
-0.0474921
0
0.0317818
-0.00803601
-0.000263919
-0.0713171
0.0241265
-5.23436e-07
-0.370241
-0.0030403
0.0222662
0.0363742
0.0344972
0.0192883
-0.000130143
-0.089979
-0.000158872
-0.0104895
-0.0417475
-1.10808e-15
0.136264
0.0031942
0.0125883
-0.0299541
0.127204
-0.0839704
-0.000130751
-2.08845e-05
-0.0273557
-0.093693
-0.066463
-0.0643097
-0.0481912
0.0927479
0.00134345
0.0487829
0.0562262
-2.58764e-07
0.00318999
-0.0296065
-0.0861428
-2.90108e-11
-0.0950495
0.0223453
0.0619195
-0.000354788
0.0168491
0.0468603
0.0289212
0.0755145
-0.0489348
1.96757e-73
-6.93865e-08
-0.000217319
0.0797755
-0.0199506
9.20419e-09
0.0175917
0.172854
0
0.128727
0.0169555
0.0206338
-0.0312466
-6.86495e-69
0.0298234
1.07706e-321
-1.07609e-06
-5.69825e-07
-2.58764e-07
-4.86069e-06
0.00350314
-0.0461831
-1.53654e-321
0.0238534
-0.00691255
-7.66621e-06
7.82368e-06
-0.00857119
0
0.0312914
0.284913
-0.0296065
-8.91626e-06
0.144613
-0.009409
0.000250451
0.0989446
0.00127158
-0.0589204
-0.0150171
0.0135501
-0.000176183
0.00777539
0.0653768
-0.0657174
0.00570647
-7.08895e-05
-1.54282e-14
0.0241265
0.453667
0.0170867
0.093371
-0.0297404
-0.000284704
-0.003266
0.0613124
-0.0461957
0.0109555
0.00201702
-0.100021
-1.17094e-321
-6.93865e-08
0.20489
0.171233
0.0998649
0.310495
-0.000296387
-0.0146838
-0.166886
-0.00372404
0.0474826
-0.107971
-0.0282575
0.0056639
-9.90114e-08
-9.86809e-05
0.0147307
0.0299063
-0.0320088
0.014088
-0.0198378
-1.38709e-08
-0.0920343
-1.73487e-05
0.175557
-1.85998e-06
-3.30274e-06
-0.110538
0.0416674
-0.0309572
-0.0189163
-0.0345734
-0.000304061
1.04532e-73
0.095949
0.0717568
-1.90518e-09
-0.0758176
-0.114014
-0.000784697
-0.00988572
0.0534566
-0.00988572
0.0275635
0.0215603
0.00144154
0.0215603
0.0238534
0.0395875
-0.023552
0.055071
-9.68256e-06
-6.93865e-08
-0.137034
-0.0100078
-0.00539508
-0.0377363
0.0886164
0.0221776
-6.93865e-08
0.00593149
0.232994
-8.67864e-11
-0.113845
-0.0592564
0.042015
0.0130743
-0.0462372
-0.003266
0.0895069
0.100011
0.00514681
-0.00374768
-5.5967e-16
-3.04172e-08
-1.3083e-09
-1.58001e-05
-0.00969501
0.04759
0.0030294
0.000139044
-1.25618e-07
-0.000174073
0.0344743
-0.00662021
-3.81429e-05
-0.217734
0.0822854
0.00760835
0.0479113
-6.0729e-05
-0.138182
-2.48878e-05
2.18871e-321
0.00962812
-0.00624352
0.00346192
0.0354696
-1.25618e-07
-9.21182e-12
0.0276048
-0.00381077
-0.0570458
-0.137101
-8.91237e-09
-0.00246761
-1.86055e-09
-0.12164
-0.0327405
0.0347554
0.0192701
-0.0954827
0.0190726
0.170129
-0.00430207
0.00266821
2.06128e-07
0.0180588
0.0323375
0
0.0388131
-0.0485709
-0.0944387
-0.185426
-0.096889
-0.0741784
0.00348173
-0.0687033
-0.0456095
-0.000249914
8.56872e-74
-1.5959e-13
0.0554278
-0.0104895
0.0215696
0.0105683
-0.0152188
0.005808
0.0366291
0.0358222
0.0127861
0.0297812
-0.0198378
0.0105685
0.0357726
-0.00147259
-7.79237e-08
0.0278215
0.0114386
0.0397383
0.0245788
0.101574
-0.114039
0.0838567
0.0125883
0.019021
0.0447422
7.82368e-06
-7.79237e-08
-0.0471935
0.0147085
-0.033631
-0.0504783
-0.0521826
-3.44223e-06
-9.52058e-05
0.082172
0.0152938
0.00318999
-0.0153025
-0.0232107
-0.0574601
-0.0218106
-0.027052
0.00346164
-0.0216424
0.00103546
0.0297812
-0.0286013
0
0.0252572
-9.41542e-10
0.0182921
0.0261524
-0.0506696
0.0627565
0.0161481
-3.02184e-10
-6.93865e-08
0.0152938
0.0353908
0.0028343
-2.32844e-05
0.0126372
0.00700178
5.11146e-06
-0.0178639
0.0334196
-0.0602286
0.0455233
-0.0211539
0
0.0499223
0.0224782
-0.0341175
0.246052
-0.0120344
-2.68829e-06
-8.67864e-11
0.0325549
-0.0139968
0.0831515
-0.0303029
-0.0111929
0.0318134
0
-0.0948957
0.00311809
-0.00765461
-0.0247655
0.0344973
0.00250771
-2.32844e-05
-0.00218667
0.025479
-0.0554384
-0.0554384
0.0549283
0.0180588
0.187762
0.0487282
0.0737307
-0.0650007
-0.00272686
0.0463852
0.0740515
0.0105202
-0.0216424
0.0125883
0.010736
0.0873981
-0.00853941
-0.0622918
-0.0104895
-6.54402e-07
-0.0824183
2.26975e-06
-0.0201584
-0.0286013
0.0350466
-0.0462023
-9.45703e-10
0.236129
0.129379
-4.38177e-06
-1.23516e-321
-1.66434e-05
6.54894e-73
-0.106395
-0.000176183
-0.110492
-0.0116328
-0.0157867
0.0560474
-0.00999376
0.00257674
-6.93865e-08
-0.0611597
-0.00626006
0.0180588
-0.0461831
-0.0401196
-0.0203104
0.0170304
0.0324321
0.0759006
0.000102072
0.027801
0.0193122
-2.48614e-05
-0.0592111
-0.0647921
0.0150281
0.00134345
-0.0301596
0
0.00444131
-0.109116
-0.124686
-0.0560765
-0.0282872
0.0361807
0.014204
0.0286639
0.0105683
-0.253657
-5.23436e-07
-0.0197245
0.0451222
-0.150075
-0.0360568
-4.09518e-09
0.0111567
0.00368698
0.0658019
0.00877541
1.21057e-145
-0.0608584
-5.8999e-06
0.212699
8.69669e-05
6.86079e-73
-0.130814
-1.90181e-05
0.0946891
-3.61842e-14
2.08433e-73
-0.0216267
0.0117016
-0.0437782
-0.113961
-0.00418362
-0.0412169
0.0122112
-0.0469645
0.0158311
-0.0378055
0.103722
-9.90404e-08
-0.0040753
0.0289756
-0.0194234
-0.0129377
0.126129
0.0531295
-0.00123603
-1.54282e-14
0.0307687
-0.123721
-0.0752635
-1.12176e-07
0.0347838
0.356434
1.31916e-321
0.00179159
0.0101201
-0.222872
-0.0462372
0.00266821
0.000294955
0.0178665
0.108806
0.0404136
0.037839
0
-6.31969e-07
0.0338684
0.0465147
0.0474826
-0.0614375
8.53724e-147
-5.70817e-68
0
0.0535336
0.0960312
-8.46088e-07
0.0277844
-0.0109569
-0.0267291
0.0181341
-2.33253e-05
-0.0752779
-1.48228e-12
-3.2757e-15
0.125813
0.0923837
-0.0415317
1.04532e-73
-0.0572061
-0.0325055
-0.107663
-7.86822e-06
6.54894e-73
0.0241265
-9.70862e-06
-6.88902e-06
-1.86055e-09
-0.0378432
0.238862
0.00499136
-0.0246722
-0.0444607
0.0582569
-0.0231218
-0.0267566
-0.0104905
-1.03946e-07
0.086246
-0.0767865
-0.0170893
0.00664145
0.000510606
0
4.55183e-135
0.00704613
0.0157093
0.00760835
0.221095
-2.58764e-07
-0.050326
0.0111567
-0.0142817
5.46006e-07
-0.0327409
3.31588e-05
-0.0154268
0.00962812
0.264918
0.0149487
-3.45131e-05
-1.54282e-14
0.0613124
-4.6058e-68
7.82368e-06
0.0105243
0.000162761
0.108403
-0.025603
0.0258887
0.00126143
-1.10808e-15
0.0222142
-0.0120771
0.0710137
0.144718
-2.68829e-06
-3.44223e-06
-0.0199529
-3.55386e-06
-0.214847
-0.0165971
-0.0606038
-3.2757e-15
-0.0415317
0.0364945
0.00091281
-3.44223e-06
-0.0690187
-1.5069e-321
-0.00562193
8.56872e-74
-0.0293678
0.0135501
-0.159261
0.281456
-0.0845668
-5.3051e-13
-0.0146838
0.0357726
-0.0355631
-0.0348582
-0.00988572
-0.000117383
0.00757125
-3.8378e-07
0.00279688
-0.0649072
-0.03492
0.000294955
-6.93865e-08
3.05575e-64
-0.0372258
0.0121932
-3.30274e-06
-0.0731944
-0.0152418
-0.000115401
-0.000322726
0.0101201
3.79092e-06
0.0158311
-0.0292176
-0.0741418
-0.0370565
-4.37987e-06
-0.000256458
-0.0899274
-0.0291982
0.0121932
-0.0290801
-5.97752e-05
0.0470386
0.071346
-0.0227135
-0.0950495
0.0927479
0.0134885
-0.0104389
-0.197206
-0.0794749
0.00819771
0.257431
-0.000168555
-4.21691e-09
0.0245788
-0.00112514
-9.52058e-05
-0.0291807
0.189876
-0.316021
-2.5828e-126
0.00878381
0.17483
-4.03452e-05
-0.054026
-8.06711e-08
1.48074e-07
0.0474034
-6.93865e-08
1.21057e-145
-0.0141935
0.232865
-0.153959
-3.44224e-06
0.14462
-6.68227e-05
0.0734289
0.00201702
0.0180588
0
0.233722
-0.00626006
-0.000244699
0.00366012
0.017326
0.102369
-0.0120232
0.0121932
0.0267676
-1.10087e-06
-4.09518e-09
-0.0222108
-0.0560765
-4.24701e-05
0
0.0213367
0.000101646
-0.000147667
0.0617382
0.446425
-0.00783284
-3.98307e-06
0.0290679
-5.22986e-08
-1.9045e-05
-0.0290497
0.0344973
0.0354366
0.00499136
0.00614128
-3.72857e-05
-0.176387
-6.93865e-08
0.0585096
-6.35046e-11
0.0179856
-0.0143855
0.0206338
-0.0915239
-2.70676e-05
-0.0821903
0.263074
0.0176591
0.0570579
0.0115045
-4.17257e-13
0.0103442
-5.23436e-07
-1.90518e-09
-0.0481963
0.13221
-0.0741971
0.0858602
-0.0317472
-0.0819612
0.00777539
-5.23436e-07
0.0755147
-3.61842e-14
1.31916e-321
0.0639976
-1.10808e-15
-2.81229e-07
0.0238491
-4.05414e-06
-1.81257e-07
0.00948462
0.0192457
0.0101982
-6.42477e-09
0.0274979
-0.0293712
0.00091281
-9.52072e-05
-2.33253e-05
0.0534566
0.0317818
0.0652492
-0.00123603
0.00179159
0.198138
0.0900424
-0.00740189
0.0989712
-0.00246761
0.0263278
-6.93865e-08
-4.55948e-05
0
-0.000121955
1.46243e-321
0.0124904
-0.0490465
-0.0498754
0.0096507
0
-0.0455108
0.0209713
0.0332272
-1.90518e-09
-1.7114e-97
-0.0238391
-0.0124988
-0.0167323
0.0622653
0.122873
0.0828555
-0.0834514
0.0011635
0.0217577
0.0295185
-6.88902e-06
-0.0463632
0.0288849
-0.00194943
-4.11099e-05
0.186935
-0.00851692
0.000260725
7.29887e-05
-8.8308e-11
0.130199
0.0515745
-0.00539508
-0.00026331
-0.0390461
0.0204156
0.0447647
0.0170867
0.0035344
-0.159698
-1.72531e-07
-7.34324e-05
-0.00671836
0.0192882
0.172754
-1.10581e-15
-3.83482e-11
0.00953517
-0.0238568
0.0113439
-0.0414318
-0.0825357
0.093371
-0.000256458
-0.00836561
-4.86069e-06
0
3.22174e-74
-0.0147447
0
-0.0143855
-6.68227e-05
0.108412
-3.2757e-15
-0.000147644
-1.4654e-13
0.0186524
-0.00705714
0.209491
-0.0449211
-0.02107
0.265335
-0.0215202
0.00332904
-0.0925688
3.31588e-05
-0.0281882
0.00283099
0.023471
2.26975e-06
0.0925694
-1.02766e-321
-0.0402208
0
0.0562717
9.65566e-05
0.00616522
0.0134889
-0.00232575
-1.86055e-09
-0.0461831
-1.04824e-05
-0.0472134
-0.225305
-6.93865e-08
-0.0120771
-0.0592068
-0.125842
-0.0699724
0.046421
0.0470386
-0.00927471
-0.0841364
-0.0757528
0.0206338
0.0321199
-0.0131038
-0.0263112
-0.0384623
0.0070398
0.00500688
-0.0106096
0.00204875
0.00286602
-0.00671836
-1.14529e-06
0.0238447
-0.0222694
0.0763316
0.0101982
0.011338
-1.23516e-321
0.054605
-0.0502595
-0.000104331
-0.0379809
-6.93865e-08
-0.0412169
0.112361
0.000301078
-0.0966982
0.0102952
4.15069e-05
-9.52058e-05
0
-2.90589e-06
0.000250071
-0.0188685
0.025479
0.0401159
-0.241717
0.00997137
-0.133841
0.077339
0.00283469
0.0170867
0.333679
0.0277093
-0.0452995
0.00348173
9.20419e-09
-0.0408263
0.0258984
0.0238447
0.00189737
0.0513299
0.053447
-0.0486531
-1.54282e-14
-0.0710398
0.0404136
2.91799e-146
0.0146186
-8.31764e-05
0.00318999
0.0427577
-0.0131038
-1.29072e-07
-0.0256837
0.0101236
-1.10808e-15
0.280033
-0.00671836
-3.98307e-06
0.017625
0.0111567
-4.15026e-06
0.00397393
0.395556
0.0471055
0.0781798
0
0
0.206835
-3.2757e-15
-3.89345e-05
0.00349738
-0.0721779
0.0011635
-0.117351
-0.0441935
0.017326
0.0753577
-0.227342
-0.000112862
-1.54282e-14
-0.00851692
-0.000101092
0.0103442
0.127784
6.86079e-73
-0.0869581
0.26589
0.138493
-3.55386e-06
-1.02766e-321
-1.84123e-08
0.046421
0.0134889
-0.100932
-0.0559972
-0.0391502
0.0753027
0.00188643
-8.49495e-06
-0.0140958
-4.91938e-08
-1.06748e-05
-0.065775
-9.02256e-05
-3.50716e-08
-6.65234e-11
-6.02224e-07
-0.134826
0.0306631
-8.49495e-06
-0.0104895
-0.0724172
-3.79312e-07
-0.0354067
-0.00803601
1.70556e-06
0.00582124
-1.07521e-11
0.0120086
-1.51452e-07
-0.0127745
-1.84685e-12
6.54894e-73
0.0560599
0.0294406
-3.1217e-06
0.0168068
-0.0402199
-6.35046e-11
6.92244e-05
-3.79312e-07
0.130891
0.0447862
0.000176859
3.65609e-322
0.175931
-1.90518e-09
0.114753
0.0202802
-0.107707
-0.00625654
0.0312914
-0.309762
0.0030967
0.105863
-0.00539508
0.0191557
0.00266581
-0.116167
0.0206338
0.0633867
-0.0860336
1.04532e-73
-0.0104389
-9.52058e-05
0.00581436
0
-0.0664983
-0.00818738
-0.0198378
-6.93865e-08
0.154763
0
-0.0317472
0.0503383
-0.0314114
0
0
0
-1.38709e-08
-2.68829e-06
0.00638168
0.0990477
0.00965775
-3.61842e-14
-1.23479e-06
-1.81257e-07
1.96757e-73
0.00131448
0.0723552
0.0393925
0.0196456
0.0633654
-1.64587e-06
-0.000322726
-0.166391
-4.69362e-322
-2.73993e-09
0.0127861
-0.0198566
-8.67864e-11
-0.011878
-8.67864e-11
-9.39044e-06
-0.537373
0.0206338
-0.0890168
-0.0313946
0.025847
-6.35046e-11
-0.0260251
0.0170693
-0.0801966
0.00699244
0.279236
-0.00968058
0.00282947
0
-1.23632e-07
0.0147316
-0.136862
-0.000249915
0.0347838
-8.8129e-06
-0.0462137
0.00350314
0.0162672
-0.0165896
0.0275635
-0.0368809
-0.00197693
-0.000826618
-0.00783284
-0.000229646
-0.0215202
-0.0231821
-6.93865e-08
-0.0303029
1.54414e-05
0.0267676
0.000352972
-0.0682057
0.0127526
0.0434804
0.0258667
-0.0102321
-0.000249914
0.0162098
-0.0771733
0.0515829
-1.7114e-97
-4.23183e-05
-0.041528
-0.0263112
0.00391749
0.0412271
-0.0550169
0.0114352
0.00244751
0.00586998
0.000168371
0.0536435
-1.5959e-13
0.019021
-3.02265e-05
-3.79312e-07
-0.07061
-0.0030403
0.00125673
0.0415551
0.000102072
0.118481
0.0286121
0.00260213
0.0021753
-0.0423452
-0.0417699
6.54894e-73
-1.10808e-15
-0.0259762
-1.52276e-10
0.0230377
-0.0316045
0.218597
-0.00843709
-0.0285507
-7.79237e-08
1.96757e-73
1.47735e-73
0.0470386
-0.043262
-0.0208466
-1.1385e-11
-0.0379809
0.0206864
0.00282947
1.96757e-73
-9.66718e-07
0
-0.0671129
-0.0123009
0.0654724
-3.04172e-08
-5.23436e-07
-1.90987e-07
-0.0552927
3.35879e-05
-3.79312e-07
0.0369666
-5.8999e-06
0.0427201
0.00819771
-0.0321664
-6.93865e-08
-7.67223e-07
0.0101982
-0.00803601
-0.0633173
-0.00718998
0.0823254
0.0406051
0.0492553
0.0376799
-1.90518e-09
-0.105095
0.0120086
-0.0648709
0.0592153
-0.0326204
-0.00539508
-1.87751e-05
-0.0197477
-9.39044e-06
-3.61842e-14
-0.0164165
-0.050127
-2.33496e-05
-0.0242334
-9.02256e-05
-0.0216888
-1.90518e-09
-0.0462873
0.0120046
-0.000202887
-5.42733e-05
0
0.0311406
-1.51452e-07
-0.423729
0.0261098
0.00201702
0.161948
0.0260781
-0.0683765
-0.0144054
0.103984
-5.23436e-07
-1.48228e-12
0.0221353
-7.00447e-15
0.00593156
-0.000113156
-2.68829e-06
-0.0328327
-2.31339e-08
-0.0402199
0.0285831
-0.00593945
1.21057e-145
-0.0956402
0
-5.72128e-05
-0.000176183
-0.0104389
-6.93865e-08
-6.65234e-11
0.00206927
-3.04172e-08
-0.11331
0.00244751
0.0180588
0.00500688
-0.017058
0.0111567
-0.0920343
0.000877453
-0.0432393
-0.0402199
0.142539
-0.0120771
-0.0345734
-5.23436e-07
-0.0148754
-0.0500327
-0.0540158
-0.0887502
-0.000474986
0.00755221
-6.54402e-07
0.0312914
-6.89807e-05
-1.47399e-05
-0.0761126
0.00189737
0.0148922
0.0321199
-7.66621e-06
0.0127472
0.0593697
4.23231e-146
0
0.0370505
-0.0143855
-0.0872961
-0.0605866
-6.89807e-05
0.0947885
-0.046295
-1.09683e-321
-0.36094
-0.020785
0.0966931
-1.47399e-05
0.0861248
-3.59855e-10
0.0290679
-0.0881864
-0.0124099
0.0740509
-0.0226155
0.038684
0.0691549
-1.54282e-14
-0.0342705
0.0180588
-1.90518e-09
0.0360434
0
-1.54282e-14
0.135625
-6.93865e-08
-6.93865e-08
-0.0389984
0.0996333
-6.31969e-07
-0.0494588
-1.97625e-05
0.0364945
-0.0287271
0.116527
-0.0490292
-0.0779337
-0.0428336
0.0154842
-6.35046e-11
4.55183e-135
-0.155131
0.0318424
0.000986359
-0.0354063
0.0198658
-0.0141835
-5.8999e-06
0.110342
0.0682558
-0.0362664
0.00988705
-0.0320088
0.036813
0.142646
0.0290679
0.0109555
0.16376
0.0155337
-0.0165971
0.098304
0.0891935
-0.000132112
0.0103435
0.00745714
-0.00738382
1.21057e-145
0.0383002
-0.0105898
0.205682
0.148796
-0.0174012
-7.79237e-08
-0.0327409
0.00833861
0.0191764
0.138571
-6.54402e-07
-0.000284704
0.0321556
0.0309533
0.0123231
0.0551266
-7.79237e-08
0.0622192
-1.04477e-05
0.00857001
-0.0573475
0.06884
-0.0691266
-0.00898651
-1.62547e-05
-0.0372422
0.0332259
0.462013
0.00305424
0.0290679
-0.000132579
0.0877775
-0.163544
0.00350766
1.21057e-145
0.25859
-0.0630868
0.00699244
-0.0633171
-1.51452e-07
-0.0771594
0.017625
0.0881809
0.0117725
-0.0187877
0.052819
0.0585323
-0.0881331
0.0629518
0.00346192
0.0182203
0.00479134
0.0186478
0
0.000221283
-0.0652912
-3.1217e-06
-0.097418
0.117973
0.0321199
-3.83482e-11
0.0109037
-5.42733e-05
0.0198658
-0.000158872
-4.8626e-06
-6.33475e-05
0
-0.0146838
-0.0263112
-0.0745784
0.138571
-1.09189e-321
-3.02184e-10
-0.0391502
1.94342e-06
0.00570647
0.017625
-1.91803e-06
0.0212229
0.0465653
-0.000158872
-8.21987e-05
-6.35046e-11
0.145464
0.0609841
0.0275635
-1.58001e-05
-0.0873027
-3.02184e-10
0.0344743
-1.98322e-05
-0.0747014
-0.0698712
0
-4.15045e-06
0.0312914
0
0.00707933
-0.0439149
-0.0109868
-0.00800079
-0.0801966
0.0312914
-0.000279963
-0.00565246
-9.25477e-07
0.0275635
0.354891
-0.0384623
0.0321187
0.0416674
0.0637251
0.110396
-4.55948e-05
-0.043262
-0.0143881
-0.0184571
4.41731e-07
0.00749814
0.0617382
-0.0598851
0.0278069
8.56872e-74
0.00741621
-2.60599e-08
-0.0569447
-0.0669887
-0.0454081
-2.68829e-06
-0.0815566
-0.00421622
-5.25163e-05
-0.0169062
6.86079e-73
-6.93865e-08
-5.42733e-05
-0.0216424
0.0015777
3.22174e-74
0.157937
-0.0346303
0.0159194
0.0507419
-0.035359
-3.2757e-15
0.0499866
-0.0318664
-0.0759785
-0.0853361
-0.0133119
-0.0104895
0.0122112
-0.0469332
-0.0185838
0.0193972
-1.90987e-07
-8.46088e-07
-0.0220994
-9.41542e-10
-3.89345e-05
-0.00817881
-0.0317472
-0.0434967
0.00256969
0.0482182
-0.056301
-0.00026392
-0.230546
-0.000221155
-0.00969501
-9.27766e-05
-7.79237e-08
0.0344973
-0.0540655
-1.5959e-13
-1.4654e-13
1.31916e-321
-0.122436
-0.0367056
0.00676696
-0.0216791
-0.00841739
1.21057e-145
-6.06364e-08
-0.0381404
-5.23436e-07
0.00177177
0.0218215
0.0548269
-4.05414e-06
0.0031186
-0.0682104
0.119053
0.0325621
-6.65988e-05
0.037839
0.119261
0.0199798
0.00749814
-0.0687033
-5.23436e-07
0.019021
-4.17337e-11
0.0395269
-5.23436e-07
-2.33496e-05
0.0101982
0.0125883
0.00311614
0.438669
0.0291235
0.0755145
-0.0291477
-0.123445
-0.00877154
0.0125883
0.00898678
0.0222644
0.012947
0.0357957
0.100485
0.0399285
0.000623955
-5.47755e-06
0.00264505
8.56872e-74
0.392546
0.00287903
0.081484
-0.071207
-7.8766e-08
0.0138356
0.0494299
1.09189e-321
-0.115549
-1.36356e-10
-0.0353127
0.138571
-0.0965309
0.00928356
-2.59934e-08
0.0115114
0.00140753
0.147235
-0.0285728
-1.41686e-09
0.0158341
-0.0385422
0.000385079
0
0.0192883
-0.0124886
0.00189973
-0.151444
0.0191571
-1.5959e-13
0.0867666
-0.00671836
-0.123495
0.283611
0.101553
-0.00159443
0.0642861
-0.0040268
0.00749814
0.052054
-0.101783
-0.000263919
-1.46579e-05
0.0622192
0.429628
-0.0402199
0.0719696
0.017625
-0.0999696
0.0101197
-6.92959e-05
-0.000104621
2.40651e-73
0.0192883
-0.0580393
-6.93865e-08
-0.0204188
0.140509
4.41731e-07
-0.0367759
-6.93865e-08
-0.0286013
-3.2757e-15
6.41309e-05
-0.115662
-0.03492
-0.0350986
0.029
-6.93865e-08
0.666397
-0.0596696
0.0386477
-0.080085
-0.0444607
0.111281
-9.68256e-06
0.0112469
0.0123568
-0.000322726
0.0291235
0.112906
-0.0152124
-0.0105276
-1.5959e-13
0.0220142
-0.067107
-0.0317692
-0.144874
2.06128e-07
-9.41542e-10
0.056527
-0.0813928
0.0180588
0.0723552
0.0471911
0.0394631
2.06128e-07
0.0161927
-3.2757e-15
0.114655
-6.93865e-08
0.0123231
0.0222705
0.00233792
-5.42952e-05
0
0.0444367
-0.132775
0.025847
0.0467611
0.0871908
0.0215603
0.00346164
-0.0293678
0.0647018
0.00616522
-0.0334012
0.183169
-2.33496e-05
-0.0359501
0.182382
-0.0256466
1.04532e-73
0.0154216
0.0530269
0.0906219
-0.00020565
0.0506632
0.0303973
0.031292
-6.93865e-08
-1.90181e-05
0.113
0.0295358
0.00468335
0.0582569
0.0802625
1.21057e-145
-0.0500295
0.0368371
-0.0334691
-9.90114e-08
0.0379313
0.00497608
0.00749814
-0.111754
-5.5967e-16
0.0601464
-1.25618e-07
0.0712655
-0.0417475
6.19282e-146
-0.0147447
0.0267676
0.00616522
-0.22311
0.0121851
-0.00539508
0.00749814
-0.0422051
0.0244848
0.0717568
-0.233339
1.99603e-321
-0.0934432
1.26975e-321
0.0170867
-6.93865e-08
0.0896661
0.029442
-8.20085e-05
-0.0209864
0.0445151
0.0955045
-0.076001
-0.198711
0.0215652
2.79238e-73
-1.07521e-11
0.00499136
0.0582569
-1.90518e-09
0.194374
-0.000715677
0.000810036
-2.07504e-05
1.96757e-73
0.00260546
0.0656021
0.145313
-0.089796
0.000754419
-0.0965861
0.00749814
-7.66621e-06
-0.0224817
-0.0131038
0.0497185
-0.00728024
-0.0318514
8.56872e-74
0
0.0121932
-0.0287271
-0.000249914
7.29887e-05
0.0121932
-0.003266
-0.0104898
0.360908
-0.0511793
0.0697693
-0.00127252
-0.000113156
-0.0461957
0.00865732
-1.90518e-09
-0.0309503
0.0312914
1.96757e-73
-0.100317
0.408681
-2.28233e-08
-0.00147259
-0.0157867
-0.00626006
-5.70817e-68
0.0121932
0.500198
8.53724e-147
0.608667
0.000675543
-0.0669254
-0.000206941
-7.00447e-15
0.201925
0.00140753
0.0302042
0.0190697
0.0550755
-0.000176183
0.00250771
-0.0159727
0.0687953
-6.35046e-11
-0.0293949
0.312357
3.92718e-07
0.00702429
0.00297318
0.150774
-0.00626006
-0.0469645
-9.04914e-06
-1.03946e-07
0.0271726
-0.0430024
-1.70425e-05
-0.0572546
7.01573e-322
0.0176631
-0.0198378
-3.61842e-14
0.046421
0.0460527
-0.0273755
0.0719604
0.0916384
0.0102082
0
-0.056634
-1.48228e-12
0.244126
-1.29072e-07
-0.126057
0.00518214
-0.0790986
-9.82222e-07
0.000772711
-0.0113098
-3.93254e-06
0.0180588
-1.90518e-09
-0.0697046
-6.72667e-11
0.00749814
5.36562e-05
-0.0445865
0.0180494
0.0330116
0.0709744
-0.000132579
-0.0617176
0.251344
-0.00809783
0.0709325
-5.45022e-05
-0.0165896
-0.0412169
-0.0750159
-1.10808e-15
-0.0320088
0.00749814
0.0407154
0.0129035
0.0140875
-3.8378e-07
0.0275637
-0.0975183
0
0.0227941
-7.60543e-09
-1.10808e-15
0.059743
0.0794485
-0.0417475
-2.06217e-13
0.0550465
-0.000115401
3.05544e-05
1.31916e-321
-1.10808e-15
0.0626407
0.213527
-3.02184e-10
-0.259274
0.0189533
-0.0126914
-0.0512472
-0.0345734
0.0424543
0.024892
0.0465582
-0.000296387
4.55183e-135
0.0392778
0.000173588
-0.00298269
-0.027712
0.023997
0.00587158
-0.188013
0.0261838
-0.0113684
-8.20085e-05
0.122882
-0.0432224
0.354355
0.0314387
0.0347837
-0.0399578
-1.72531e-07
-2.68829e-06
1.07706e-321
-6.93865e-08
-0.0399872
-0.0322119
-0.00148929
-0.0165896
-0.000296387
-0.264793
-0.000322726
3.31588e-05
0.00862575
-0.0222024
0.226056
0.0394601
-0.0268508
0.0273396
0.238861
0.00133515
-6.93865e-08
0.16294
-0.0194695
3.31588e-05
0.00749814
-0.0304454
-0.0550038
-0.0625667
8.56872e-74
1.96757e-73
0.00418326
0.00499136
4.57775e-07
-3.93254e-06
0.0101279
-0.00781144
-0.0293678
-0.211566
-2.59934e-08
0.0548269
0.00593156
-1.66434e-05
-0.44817
-1.73487e-05
-1.54282e-14
0.00131929
-0.0317312
0.079831
-0.0350836
-6.93865e-08
0.0180588
-0.119822
-0.0111929
0.00760835
0.00366012
-0.0114075
0.183077
0.239579
0.239579
-0.0106515
0.0359383
0.119332
-0.0286013
-0.00398043
0.101803
-6.93865e-08
-0.0165896
0.0109555
-6.93865e-08
-5.23436e-07
-0.0269175
0.0524618
0.0245788
-3.30873e-05
-2.07504e-05
0.0282021
0
-0.16273
-0.0281882
0.118165
1.26975e-321
0.0672006
0.0258486
0.0282732
0.0283466
0.00962812
-0.0168913
-0.00251604
-6.33475e-05
0.00749814
-0.0403041
-0.157623
-2.59934e-08
0.162131
-6.93865e-08
-0.0232294
0.00100056
-4.13751e-06
0.476182
-0.0173519
-1.58001e-05
-0.0741784
0.159328
0.00347687
-0.0223699
0.345188
0.0428275
-0.0104895
0
0.00408964
2.08433e-73
0.121986
1.07706e-321
0.0152921
3.35879e-05
-0.0769772
-0.0626715
0.00108052
-0.0231821
-0.0198378
-0.0252241
-0.0271698
0.138344
-4.24701e-05
0.0213367
0.0239202
0.0278844
0.149102
-0.003204
0.00704613
0.00978181
0.000165111
0.00677538
1.96757e-73
-5.42733e-05
-0.0104895
0.0192778
0.00346192
0.0581305
0.0170693
-1.10808e-15
0.0206338
3.79092e-06
-4.72174e-10
-0.0221937
-6.93865e-08
0.019021
0.0489461
-0.00719003
0
0.138526
0.000410475
-0.154118
-0.0140308
0.0823926
-1.35326e-05
0.155013
0.0393899
-2.40307e-05
-5.48404e-05
6.54894e-73
-0.0264086
0.0876575
-0.00809868
0.227164
-2.39794e-05
-0.0872935
6.86751e-322
0.0989446
-1.33398e-321
3.05544e-05
0.0122391
0.0496574
0.0290679
0.0108479
-0.000735913
0.0242972
-0.0781954
-0.0648709
0
-3.2757e-15
-0.12841
0.00250771
-0.0289012
0.00125673
-0.0198378
-0.0452813
-0.000194514
-0.0611359
0.00345207
-0.0451513
-0.0882074
4.34182e-06
-1.51452e-07
0.00916057
-1.91803e-06
2.20971e-05
0.00321856
0.13127
-0.0874174
0.00880729
0.0344498
-7.79237e-08
-0.105203
0.0416674
-3.98307e-06
-6.93865e-08
-5.20697e-05
-0.0885954
-1.10808e-15
0.225176
0.0111567
0.0549262
0.00500688
0.186549
0.00451679
-6.93865e-08
0.0462115
0.0533141
-0.00857119
-1.10808e-15
-0.00281508
0.0494281
0.0435014
0.071068
0.00579465
0.0955909
-2.25586e-08
-0.00496463
-7.79237e-08
0.159416
-0.0257035
0.133785
0.0182483
-0.00671836
0.0831266
0.0480271
0.229811
0.0275635
-1.33398e-321
-1.14995e-07
0.0416674
0.0787542
-0.0693928
0.0215112
3.05575e-64
-0.0286845
-1.28407e-10
-0.049879
0.0946502
0.00140753
0.0170118
0.0987363
-0.00662021
0.000260725
0.045676
-0.000322726
0.00862575
-0.0177183
-0.0554125
0.0756304
0.00751908
-1.41686e-09
0.000623955
-0.00409591
0.00485591
-0.0535407
-0.0215205
-0.0709973
-0.0582251
-5.22986e-08
0.110925
-3.61842e-14
-0.0407114
-0.0429913
0.174794
0
-0.0331116
-1.36356e-10
-0.0333507
-0.015996
0.080524
8.53724e-147
0.0180588
-6.93865e-08
-0.0362382
-6.35046e-11
0.0111567
0.00271738
-0.0769986
0.0823261
0.00749814
-0.017597
0.163211
-0.00851692
0.0418131
0.0278244
0.0523942
3.22174e-74
0.0689961
0.000743327
0.00966836
0.00978595
0
0.0829851
-0.00539508
0.0991414
0.0582569
0.0731902
-0.0320088
-3.83482e-11
-0.000322726
0.00988705
-1.98844e-10
0.00734541
0.165809
0.0101199
-4.82372e-05
-0.0120771
0.123133
0.00111829
-8.21293e-05
0.00348173
0.0913157
-0.0878075
0.0312914
0.0652493
0.0127861
-0.0345734
0.0238534
-3.61842e-14
0.0780455
0
0.103353
0.0104033
0.0425371
-1.1385e-11
0.0168491
0.131572
0.11971
-0.046748
-0.0115139
0.137847
0.00250996
-0.173552
0.0134276
0.0192883
0.00749814
0.0771668
-0.0307019
-0.0347463
-0.0839187
0.0169609
0.000272847
0.0206338
0.0711006
-0.0268508
-5.23436e-07
-0.0131038
0.0416673
0.0352389
0.0347838
-0.0885954
0.117419
-1.41445e-11
0.0499437
-5.5967e-16
0.0295358
0.0654724
0.014461
0.00485178
-1.91803e-06
-0.00999376
-0.0115356
0.0249065
0.00121309
-6.93865e-08
-0.00300326
-0.026681
-1.38709e-08
0
0.0189585
0.0455233
-0.0671518
-0.0484315
7.82368e-06
-0.0339353
0.00377603
-0.160534
0.20383
-0.00304436
-8.8129e-06
0.00566735
-0.00671836
-0.0104895
-0.110639
-0.0111929
1.31916e-321
-0.0801966
0.0315255
0.0296472
-0.0550973
0
0.0179512
0.0221715
-4.17337e-11
-0.00662021
-0.00626006
-2.19184e-08
0
-0.0666329
0.0163595
-0.0293678
0.137271
0.0180588
-6.89807e-05
-0.0293747
0.0991686
0.109084
1.21057e-145
0.0192883
0.036845
5.11146e-06
-0.0618738
0.00144691
0.0028343
0.0168491
-6.35046e-11
-0.0222108
0.00155106
-7.37038e-05
0.0867068
-0.113308
0.0571674
0.0121851
0.0012567
0.0023899
0.0178665
0.0178665
-6.50653e-05
0.0125883
0
-0.000172814
-3.98307e-06
0.00322069
0.00366012
5.46006e-07
0.0838393
0.00123992
-0.0283272
0.00714771
-0.212853
0.00749814
0.0281542
0.0290681
-0.0497622
-0.0116226
-0.0483554
-0.00857119
0.0215696
-0.0121251
-0.102969
0.0170867
0.0332272
-6.93865e-08
-3.83493e-11
0.0109445
0.0423927
-1.91803e-06
-0.0900823
-1.54282e-14
-0.00106108
-0.1473
-8.49495e-06
-0.0158951
-0.0508127
-0.00765461
-0.0841219
-1.17094e-321
0.00192454
0.0844441
-0.0461831
-6.93865e-08
-2.78722e-07
-0.0716107
-0.0325562
0.0360338
-6.93865e-08
-0.00035222
0.0500909
0.00504284
-0.0333507
-0.00344339
-0.00851692
-2.02902e-05
0.0176591
-1.23632e-07
-0.0437134
-6.93865e-08
-0.0705105
2.76271e-135
-6.93865e-08
-4.82372e-05
0.000726263
-8.31764e-05
-0.0802011
0.00426864
0.00144691
0.0630961
9.85195e-76
0
0.00279138
-0.0564168
0.0107924
-0.0648077
0
-0.0230496
-0.0104895
0
0.00438199
-0.0592649
0
-0.0803469
-0.0286013
-7.79237e-08
-6.93865e-08
0.0275963
0
0.027236
-0.0504532
-1.12674e-05
-0.0761126
-0.00539618
-1.5959e-13
-0.295056
-0.00765461
-0.0238568
-6.35052e-11
1.07706e-321
0.0312914
0.00752343
-0.0299265
-2.5828e-126
0.0383365
0.0258667
0.0058311
-3.45441e-08
0.00453733
-6.31969e-07
-0.0648604
-0.0700877
0.0182203
-0.0538807
0.0910403
3.97715e-05
-2.70367e-08
0.0665127
0.00140753
0.149663
-0.0416254
0.00749814
-2.99345e-06
-0.0115385
0.0743768
-0.0407199
-0.0146838
0.0180588
-0.0619837
-0.0486531
0.0344973
-6.7687e-322
-0.0164165
-0.0449469
0.0977114
-1.04824e-05
-0.000296387
-6.93865e-08
0.0109555
0.0209713
0.0966931
-4.96815e-06
-1.47232e-321
0.0209528
-1.54282e-14
0.0554694
6.57278e-06
-6.31969e-07
-5.23436e-07
-0.0111929
-0.000178024
0.11402
-4.72174e-10
-0.0314543
0.0623275
0.0163257
0.00350314
0.000138968
-0.00718999
-1.10808e-15
-7.00447e-15
-0.048037
0.301392
-0.125166
2.24048e-05
-9.02256e-05
0.00638168
0.0178665
-0.0761126
-1.90518e-09
-9.82222e-07
0.0277093
-6.93865e-08
0.0180588
0.0347439
0
0.305882
0.013419
-0.00106108
0.0803736
-0.0492494
0.0192883
0.140451
-1.05573e-06
-0.0636714
-0.000137884
-6.94644e-05
0.0100343
-0.0395817
0.00138483
-0.154174
-1.91803e-06
-0.0540757
0
-0.0330154
-0.111839
2.79238e-73
0.0334948
-1.90518e-09
0.0180921
0.167949
0.0120086
0.133968
-6.93865e-08
-0.10701
-2.34906e-07
0.00279688
0.0238534
1.26975e-321
-0.046713
-2.02902e-05
0.0339384
0.00248918
-0.122408
-1.54282e-14
0.00885809
-0.0282881
0.019021
0.0120086
-1.86055e-09
0.00348173
0.0180588
0.034327
-0.0569551
0.246392
0.00201702
-0.20827
0.0430399
0.00616522
0.0969995
0.0180588
-6.10952e-06
-6.65234e-11
-4.96815e-06
0.00969154
0.0154531
-4.11099e-05
0.0481549
-0.125363
0.00162651
0.0739762
0.0467719
0.018648
0.0190697
-0.0222108
-0.0152852
-6.93865e-08
-0.00872901
-6.35046e-11
-1.90518e-09
0.0260781
-0.000322726
0.0357726
0.17631
-2.19184e-08
-0.0263112
0.0425371
1.09189e-321
-0.0221524
-0.0800295
-0.0397695
0.295239
-0.000322726
-0.0954612
-0.0334012
0.0780455
-7.79237e-08
0.104347
-0.0110945
0.0220533
-0.000262054
0.103981
0.010119
-9.41542e-10
0.0180588
-5.5967e-16
0.000260725
0.0896418
0.0447573
-0.034952
-0.0165896
0.00144691
-0.0908931
-0.0936043
-0.0228212
-0.0772706
0.0595031
-4.13999e-08
-0.000279963
0.0253297
-6.93865e-08
-1.72956e-05
3.31588e-05
-0.0666329
-6.33475e-05
0.11971
0.0489226
-1.33344e-14
-0.0417189
0.00348173
-0.0256837
-0.032635
0.055071
2.08433e-73
-1.90518e-09
1.96757e-73
-0.0148246
0.0573
0.0135501
-0.00469171
0.00125673
-0.015996
-0.0391976
-0.0874246
-0.0526858
-0.0268508
-0.121129
-1.51452e-07
-3.93254e-06
0.0299253
2.08433e-73
-3.83482e-11
-1.10808e-15
-0.0173187
0
-0.000758901
0.00638168
0.0325767
0.000623955
0.0181671
-0.000322726
0.00597537
-0.0104895
0.127201
-6.93865e-08
-0.0414701
-2.59934e-08
6.29178e-05
0.124111
2.46168e-08
0.00125673
-0.00432406
-0.0293678
0.0997898
0.146837
-0.0647806
4.41731e-07
0.0170867
-0.0287271
0.0379596
-0.0900823
-0.0293678
7.01573e-322
0.0118932
0.0709941
-6.88902e-06
-1.22857e-07
-2.17428e-05
-0.0501731
-0.0458819
2.69682e-77
0.223629
0.0478093
-1.90518e-09
-1.14995e-07
-2.56666e-05
-0.0198593
-0.0104389
-0.000263919
-0.0467388
-7.8766e-08
-4.21691e-09
0.0472001
-0.00811089
0.0570579
0
-0.00025971
0.0531057
0.118074
3.31588e-05
-0.141254
0.0344375
-0.0228212
0
-0.000113706
0.00206926
-3.23897e-05
0.137536
0.0325767
0.0170867
0.0619865
0
0.0192883
-1.10808e-15
0.00204875
-3.2757e-15
-0.0997003
0.0317818
-0.0198378
-0.0231821
-0.0438246
-1.1385e-11
-1.5959e-13
0.0868994
-2.61165e-05
-0.000418893
0.04885
0.117652
0.0412345
0.357501
-0.0362438
-0.00412844
0.19429
-7.8766e-08
-6.65234e-11
-3.93254e-06
0.0046044
0.0279312
-0.000284704
0
-1.5878e-05
-0.0303741
-0.0757957
0.0416674
-0.0178825
-0.0867526
-0.0677756
0.00175828
-0.0568935
-0.000104293
-0.0179751
0.0257452
0.00499136
-3.61842e-14
0.105768
0.0950992
-0.0144398
0.0546564
-5.5967e-16
0.0166646
0.0568539
-2.59934e-08
-0.0739772
0
0
3.31588e-05
-0.0343513
0.0105243
0.0178665
0.0190697
0.0258575
-0.000113156
-3.79312e-07
-0.106794
-0.0114675
-2.70367e-08
-0.0440508
-0.027712
-0.0197477
0.0741584
-0.0185728
-0.0779337
0.0312914
0.00928356
-6.10368e-05
-0.0235767
-0.103388
-0.187616
0.0179248
0.0120086
0.0802624
-0.0157867
-0.00123603
0.0409108
-4.03452e-05
-0.109
1.31916e-321
0.0359074
0.0301444
-0.0417475
-0.0432078
0.017662
-0.0617134
-0.0289738
-7.8766e-08
-3.83482e-11
0.00514681
-0.0268176
0
-0.0263112
-0.000176183
0.00148427
-0.161993
7.82368e-06
0.000779705
3.39061e-07
-0.358624
-1.00747e-07
-3.70773e-05
0.0324601
-0.0862979
0.127214
-0.0223338
-1.10087e-06
0.0560474
-0.000176183
-0.0124988
0.0966931
0.0218486
0.00749814
-0.214325
-0.0736616
-0.114282
-6.11761e-07
-0.0568978
0.0105683
0.0110673
-2.67881e-10
0.0125365
0.0192883
-3.40905e-322
-0.015648
-0.0875771
-0.143241
-0.0748892
0.0829851
0.202707
-0.0030403
-0.0906396
-3.89345e-05
-0.204867
0.00285175
0.0611166
0.0192121
0.179984
1.21057e-145
0.147641
0.109143
-0.100932
0.0344973
-0.0613365
-6.93865e-08
0.0134889
0.00201702
-0.0554384
-1.51452e-07
-0.000175718
-6.35046e-11
0.000977778
-0.0758929
0.000429223
0.00749814
0.0473787
-0.0224817
0.0474035
-0.0274331
-0.0170972
-3.61842e-14
0.0711894
0.00196567
6.84823e-74
-0.000178024
-2.59934e-08
-0.000194878
4.54974e-16
0.0335951
-0.0226804
0.00125673
-0.0862113
-0.0104895
0.201027
0.0394631
-4.68731e-05
0.00119203
-0.00210466
-0.0227136
-8.56025e-06
-5.23436e-07
-7.42202e-06
0.119053
-1.23479e-06
0.0396117
0.0219995
-0.0508994
-3.23897e-05
-0.0170873
0.0404136
0.0872455
-9.02256e-05
0.0131893
-8.89977e-06
-0.000182186
-1.90518e-09
-1.54282e-14
-0.00988572
0.0467611
0.0300357
-0.000715677
-6.93865e-08
-0.0844956
-3.2757e-15
0.0605382
-0.000296387
0.0128866
-0.0142002
1.82804e-321
0.029
0.00607627
-0.0251745
-0.0486039
-0.0559972
0.0180588
6.57278e-06
0.123916
0.036226
-1.03946e-07
-3.2757e-15
-0.0506809
0.0408849
-0.0286013
0.000983818
0.0383365
-0.0327413
0.0219995
-0.0481762
0.131249
0.000226029
-0.0412169
-5.20697e-05
-2.59934e-08
0.0812458
0.0906215
6.64957e-73
0.0214379
0.149453
-0.0786845
-4.21691e-09
-0.0157984
-0.0969245
-0.00803601
0.0838393
-0.0197357
-6.93865e-08
-0.0293678
-6.88902e-06
-0.0813929
0.0238534
0.0128915
-0.09665
-9.66718e-07
-0.0713375
0.0444367
0
-0.0204122
0.00616522
0.0499223
0.195079
-0.0698642
-0.000176183
0.00318999
-0.0744423
0.017959
0.0344973
-0.024551
-0.0754502
1.04532e-73
0.013419
0.0129533
0.0482873
1.07706e-321
2.76271e-135
-0.0630485
-1.96869e-09
0.153548
3.31588e-05
-0.105465
-0.0262692
-1.48228e-12
-5.23436e-07
0.0196748
-0.0172453
-3.61842e-14
0.00988705
0.172881
0.0255587
0.0154531
-5.8999e-06
0.017625
0.0275635
-0.0334012
-0.003266
0.0121797
-0.0874304
-6.93865e-08
-4.15026e-06
0.0357554
-1.81257e-07
0.00196786
0.00749814
-5.22986e-08
0.00115167
0.00749814
0.0453948
0.0214683
-0.00412844
0.0873224
3.35879e-05
0.156639
-0.0143296
-1.70425e-05
-1.38709e-08
-0.0874825
0
-0.0385422
-0.110559
-0.0175892
-3.79312e-07
-0.0680599
-4.37987e-06
-0.0173187
-0.0492105
0.0214398
-0.00539508
-0.113808
-0.0668122
0.0416674
0.207401
0.00150611
0.122727
3.67879e-05
-0.0405677
0.0187063
-0.0157867
0
-0.0295249
-0.0198378
0.00346192
0.0674757
-0.0440508
0.0288602
0.0554414
0.0823261
-0.0110615
0.119053
0.0206864
0.00228759
-0.0482006
0.0456517
0
-0.0203104
-0.0104895
-0.00803251
0.0894273
-0.0341175
-0.0450813
-7.79237e-08
-6.31969e-07
-5.47755e-06
-0.00012253
0.0958245
0.00699244
-0.000117385
0.0258396
0.00318999
0.00615098
0.000510606
0.0520813
0.0170953
0.0245788
0.0048166
-9.7825e-322
-0.0293678
-0.0448789
-6.54402e-07
-0.0684092
-1.54282e-14
-0.000114814
0.00980639
-0.0489958
0.040263
0.0570579
-6.35738e-05
-0.0747833
-0.0687755
-0.145598
0.00551039
0.0188933
-0.0558283
-7.79237e-08
0.0247878
-0.0412169
-0.0433792
-0.105912
0.000991918
0.00125673
-0.0135441
0.00313505
-7.37038e-05
-0.0109569
-0.011338
0.0570579
-5.23436e-07
0.102788
0.0738857
0.0351468
0.0946891
0.00499136
-0.0758842
-0.00685957
0.0344973
-0.000316312
-0.0131038
0.031237
-0.0354067
0.163009
0.0180588
6.54894e-73
0.0425371
-0.100786
0.0460527
0.0290679
-0.0483541
-9.59589e-10
-5.8999e-06
-3.02265e-05
-6.35046e-11
0.196168
0.00749814
-0.289657
-0.0700877
0.00831978
-0.0157867
-0.000913503
-0.0252933
0.00288322
-0.0431719
0.0103442
-2.15118e-05
-0.0358574
-0.00539508
0.0515609
-0.041528
-5.70817e-68
0.0301444
-9.90114e-08
0
0.0706458
0.0516298
0.017625
0.0391139
-0.0174722
-5.5967e-16
-0.0120771
-0.0157867
0
0.00124344
0.0344539
-0.0085643
0.0238447
0.161718
0.0184943
0.0470386
0.0831306
-0.131295
1.21057e-145
-0.000156376
0.0180588
-0.00226716
-0.000148263
0.0219749
0.000250451
0.0954616
0.069389
-4.11099e-05
0.00608489
-0.000116334
-1.07038e-14
0.00592093
0.0241265
-1.64837e-08
-0.108105
0.000991918
0.0513173
-6.35079e-11
0.000301078
-9.45702e-10
-0.0572546
-0.00148929
-6.88902e-06
-8.49495e-06
-8.31764e-05
0.0192883
0.00777539
0.0203605
-9.04914e-06
0.355321
0.0455233
-0.0583707
-0.00857271
0.00408327
-0.160865
0.0457876
-0.00160364
0.00250771
-0.111033
-3.02184e-10
0.000624396
-0.196383
-2.44075e-05
-0.0215202
3.35879e-05
0.0444668
0.0328649
-0.0552453
-1.5959e-13
-0.0441066
-0.0149947
-0.0030403
0.0135015
-6.93865e-08
-7.60542e-09
-0.0285583
0.0291235
-0.043262
0
4.39718e-322
-0.0464111
-0.00539508
0.303707
-0.0556598
0.017625
-0.000296387
0.107365
-0.0872961
0.288458
-7.79237e-08
0.00140753
0.00352844
-1.90518e-09
-5.5967e-16
-0.000176183
0.045469
-1.5069e-321
0.0639071
-1.26136e-05
-1.23039e-07
0.178747
0.00144691
-1.29928e-07
0.0548269
-1.1737e-05
-0.226148
-0.0135082
0.0941388
-0.142256
-0.0317692
-0.0415317
-9.45702e-10
-0.0109569
-1.90518e-09
0.0838393
0.1673
-0.182372
1.96757e-73
0.0503205
-2.67881e-10
0.0361426
1.21057e-145
-3.61842e-14
-0.144522
0.00880729
-0.0781222
0.0582569
0.017046
0.00121328
0.025836
0
-0.0480129
0.092594
0.0244943
0.00346192
-0.00930806
0.0290679
0.0828835
-0.353806
0.0128915
0.0546564
-3.02184e-10
-0.000249914
-0.00355418
-0.0462372
0.0637251
-5.47466e-37
0
-0.0550791
0.00462246
-0.000296387
0.0469084
-0.00699442
0.0447647
-0.0353127
9.20419e-09
0.0238534
0.120399
-0.0186845
0.0690677
-0.0163915
-3.79312e-07
-1.14995e-07
0.0415205
0.103374
0.00282947
-0.018231
0.0651605
-0.0308961
0.110096
0.00320813
1.09189e-321
-6.54402e-07
0.157431
-4.03452e-05
-0.0364046
-0.0841315
0.0797114
0.0874923
-0.0104895
-0.0125456
-0.0104895
-6.93865e-08
0.0223192
0.0972922
0.0979083
0.0357726
-0.041528
-2.90589e-06
-0.0377527
0.0192881
-0.0333358
0.220816
-0.000175718
-8.8308e-11
-0.0354063
-4.03452e-05
0.0395272
-1.23479e-06
-0.00723978
-0.0348946
-0.0634932
0.0180588
0.0210584
0.000624396
-0.0758929
0
-0.0390338
-0.113657
0.00499129
0.000262471
0.0199122
0.034717
-0.0687615
-0.0577864
-0.0352956
-0.0666329
1.09189e-321
-0.112214
0
0.0712052
-0.00881268
0.00206926
-0.0786947
-0.0538807
-0.0320088
-3.89345e-05
5.39897e-64
-0.097864
-1.90518e-09
-0.0291982
0.00430482
-0.026681
-0.00539508
-1.10808e-15
-0.0435077
0.029
-8.21293e-05
0.121427
-9.45702e-10
0.00364775
2.18871e-321
-3.90016e-05
0.000175468
0.0281789
0.0691891
0.0565277
2.16488e-05
0.0629204
0
0.0403905
0.0226791
-0.0095952
0.00192741
-3.97644e-05
0.0524814
-0.00779678
-0.0616125
-0.0139968
-7.79237e-08
0.0416832
0.0135501
-1.36356e-10
3.05544e-05
0.046768
0.0295358
-1.10808e-15
0.0011635
0.0404609
0.0591865
-6.54402e-07
-4.92929e-05
0.00880729
0.0625523
-1.58001e-05
-0.301277
6.84823e-74
-0.000279963
-1.07521e-11
0.00448847
-1.27688e-05
0.00962812
0.00348173
0.0117578
0.0383082
-0.0559921
-5.42733e-05
-9.45702e-10
-1.72956e-05
0.00125673
-0.129062
0.146837
0.0381358
-7.79237e-08
0.000311393
0.062662
-9.27766e-05
0.112521
-0.0592068
-0.00123603
-0.0683848
3.31538e-05
-0.0308293
0.130891
-0.00539508
-7.79237e-08
0.00119203
0.0425371
-0.0496973
0.0312914
-0.0225437
-0.029381
-1.98322e-05
0.0354682
0.0662492
-0.0096218
7.10452e-05
-0.000148263
-0.027387
0.132219
0
0.0631282
-0.0587465
0.136359
-0.082389
-0.00808954
0.142539
0.0778739
-0.0844956
0
-0.0551571
-0.100428
0.00100899
0.0115162
-6.35046e-11
-0.00015698
0.148438
0.0198658
-0.013964
0.00441481
-0.170974
0.0270186
0.221204
-0.0222108
-3.61842e-14
-1.75887e-321
0.00346192
-0.037834
-0.0142817
-6.93865e-08
4.73313e-05
0.037839
0.000152781
0.0298234
-0.0587465
-6.93865e-08
-0.00989509
0.027278
-0.00617429
0.030654
-3.8969e-05
-1.48228e-12
0.00872945
0.0198306
0.00350314
-0.0381566
-0.0440494
0.0291235
-0.0807084
0.16021
-0.0147055
0.0467611
0.0554167
-2.59934e-08
0.0480868
-0.00755493
0.00140753
-0.00563961
0.178891
-0.0255461
0.00185281
-0.0111929
-5.20697e-05
0.0101982
-0.0110972
-6.65988e-05
-0.000175718
-0.0770983
-0.0107844
-2.08845e-05
0.0267676
-0.000148263
-7.01154e-05
-0.0053547
0.0158121
0.0381358
0.014088
1.20036e-05
-0.00671836
0.0837272
-0.0682973
-0.0759933
0.0145775
0.0190697
0
-0.00621627
2.79238e-73
-0.0220041
0.0215603
0.00301794
-0.0141543
0.00576844
-0.000284704
-0.073514
0.00879874
-9.39044e-06
0.00288322
0.0249017
0.0534566
-7.79237e-08
0.0534566
0.252112
0
-0.0503919
0.176428
-0.0538807
-0.0788988
6.86751e-322
0
0.180554
-6.93865e-08
-0.00409591
1.22034e-321
-0.0555766
9.20419e-09
-0.000284704
0.00880729
7.77138e-06
2.08433e-73
0.0529266
-2.5828e-126
-1.87388e-07
-0.00857119
-0.0815566
-0.0412363
0.0219749
3.51437e-05
0.0371467
-4.33124e-06
-0.000379563
-0.117195
-0.00755412
3.36293e-146
0.0453519
0.128962
0.081422
-0.0845372
-0.0121251
0.00473402
-0.000109315
-0.000104293
0.0859001
-0.108171
0.0948317
-0.0712979
0.067685
-0.130493
-3.06772e-09
6.86079e-73
-0.0289506
0.0313599
-6.93865e-08
-0.0277719
-4.07535e-05
-1.84123e-08
-0.00624352
0.0704418
0.056592
-0.0127745
0.208449
0.0546564
9.65566e-05
0
-0.0792364
0.0883898
-0.00662021
-0.0440709
-0.00527552
0.0489921
-1.90518e-09
0.0394631
0.000862425
-0.00654002
0.0290475
5.46006e-07
-0.0799519
7.23376e-73
-3.83482e-11
-7.79237e-08
0.148653
3.7852e-146
-0.00247106
-0.0115139
0.118377
0.129242
-0.000654693
-0.0173145
0.196935
-1.93423e-05
-1.10808e-15
-0.0359093
0.00227683
0.00140753
-0.0160122
-1.14995e-07
0
-3.2757e-15
-0.0455108
0.0266655
-0.000117202
-0.0523709
0.0350146
0.149444
0.102281
0.00485178
-6.93865e-08
0
-1.5959e-13
-0.0291982
-0.043262
-5.22986e-08
4.55183e-135
0.0127861
0.0134934
-0.000113156
-3.30873e-05
-6.65988e-05
0.060221
-0.000296387
0.0562717
-0.0417475
-0.0741452
-8.31764e-05
-0.0950495
-1.90518e-09
0.0267676
0.0208019
-6.42477e-09
-0.0107844
-1.07521e-11
-0.0554384
-0.000231006
-0.0339891
0.0565284
0.317212
-0.0791665
-0.054993
-1.07521e-11
0.102893
-0.118935
-3.54256e-08
0.0571845
-0.0497227
-4.65787e-08
-0.000132579
-6.61005e-07
-0.117635
0.0109555
0.029442
-0.000229669
-2.90133e-68
0
-0.00962345
0
0
-0.000196413
-0.000229646
0.0291235
0.000410475
-0.0113684
0.00192454
-0.000168471
-0.0874304
-0.0143855
-4.11118e-05
-0.0847283
-0.0141935
3.32528e-05
-0.0982076
0.0780455
0
0.0170867
-9.02256e-05
0.100202
-5.47755e-06
0
-0.0873159
-0.0574443
0.0872858
-0.0376534
0.0546564
-0.0326094
-0.0568935
0.133886
0.0192874
0.00125673
0.00969154
0.0427748
0.0416129
0.0558308
6.54894e-73
0.0926374
-3.1217e-06
-0.0223229
-0.0461831
-1.1385e-11
-5.47466e-37
-6.35046e-11
-0.031078
0.00279688
-0.100932
0.000624396
0.0578395
-1.98322e-05
0.0275635
-0.0870241
6.84823e-74
0.0974864
-0.0354067
-0.058681
0.00266581
-0.00783284
0.024479
-0.0385506
0.0190697
-0.0220107
0.0364945
-5.69825e-07
0.0658019
-1.29072e-07
0.13844
-0.0350516
0.000672507
0.127218
-0.0912716
-3.61842e-14
-0.00679747
0.0134889
-7.79237e-08
0.0159388
0.0325767
-0.0368808
-0.0835605
0.00352844
0.00140753
0.0899878
-0.0135915
-0.0263112
-0.0867403
-0.0727576
-0.0104389
-0.00692085
-0.221419
-8.89977e-06
9.77475e-145
-0.0143881
0.00266821
0.0736889
0.00880729
0.0349707
0.0701907
0.181334
-0.026693
2.08433e-73
-0.0698415
-0.0154141
-0.054026
-0.000132579
0.0155749
0.0594193
0.0170867
0.196935
0.11158
-1.09683e-321
-0.0521771
0.0195048
0.0200113
-0.049145
0.0180588
-0.00729892
-1.99109e-05
-0.11985
0.0723552
0.0526602
-1.75887e-321
-1.07521e-11
-0.0368808
0.0470386
-1.10808e-15
0.0327855
-2.68829e-06
-0.0603958
0
0.0504939
0.00566735
-0.000176183
0.0455708
-2.59934e-08
-0.037096
0.138187
0.00204875
0
0.0267676
-1.10581e-15
0.018368
0.04759
0.0291235
0.0312914
0.0848091
-1.10808e-15
-0.00448557
0.0416129
0.10344
-0.0224817
-3.98307e-06
-4.15026e-06
-0.0196573
0.0308002
-1.10581e-15
0.0712052
0.0028343
0.0383063
0.0140192
-0.00851692
0.0302131
-0.101987
-1.1876e-07
-0.0198378
-0.102618
-0.0728243
0.0434077
-0.0293678
-0.0620675
-0.0555766
0.00980637
0.00120581
-1.90518e-09
0.0291235
-0.0882012
-0.0830032
0
0.0270404
0.021843
-0.0554384
-4.21037e-05
-0.033617
6.96654e-05
0.0278844
0.126451
-0.060355
-9.02256e-05
0.00969154
0.0161714
-0.0248912
0.000359076
0
-0.0714328
-1.86055e-09
0.0300269
0.25451
0.00862575
-0.0104895
-4.70167e-05
0.0870085
0.0204093
-1.10808e-15
-0.0767865
0.0134767
-0.0641947
0.00647825
0.01479
-1.72423e-06
-0.0521826
-0.080975
6.47226e-322
0.0170867
0.0956902
0.0494898
0.0358222
0.0630961
0.0903677
0.0252417
1.26975e-321
-3.30873e-05
-0.0165896
-0.00245876
-0.0215202
-0.0104895
6.84823e-74
-1.07521e-11
-1.26773e-06
-0.0263112
0.000148529
0.110722
-1.23867e-07
0.0183638
2.46168e-08
-0.0709861
-2.70367e-08
0.0647018
-1.98322e-05
0.00426773
0
-9.82222e-07
0.056999
-0.0253
-0.0104895
-0.0344715
-9.39044e-06
1.82804e-321
0.00290164
-0.0298741
0.0987844
0.00353752
-0.0289012
-0.0687871
-1.33344e-14
0.0202138
0.0142141
-0.00790222
-0.103336
-1.15409e-05
0.0189595
0.00352844
-0.0216424
-1.36356e-10
-0.0137915
0.162311
0.00353866
0.0290232
-1.5959e-13
0.0401821
0.0481738
-0.129008
-0.0474921
0.00352844
-0.0675516
-5.5967e-16
-5.23436e-07
-6.86495e-69
0.104565
-0.000113156
-0.0440508
0.0630039
0.0125883
0.00749814
-1.29135e-07
0
-1.22857e-07
0.0206864
-0.044243
-1.10087e-06
0.0190697
0.00106673
0.0512136
-5.47755e-06
-0.15349
0.0551408
-0.0150582
0.00348173
-0.209547
0
0.000410475
0.0121851
2.76271e-135
-0.090948
0.0407198
0.12988
0.0344743
-0.07002
0.0135501
0.0759783
0.12988
0.015853
0.0708606
-0.0419781
0.0294951
-2.08845e-05
-2.59934e-08
-0.0759412
-0.0755472
0.0386191
0.0699741
0.00570647
-0.177124
-0.088495
0.00749814
0.00880729
0.00134345
-0.000182186
-0.0201521
0
0.0619865
-0.00123603
-0.044622
0.0238534
-7.67223e-07
0.00423204
-4.43573e-05
0.00348173
0.00980639
0.00233792
0.0321199
0.0117725
-0.0999138
0
0.120399
-0.189198
0.0529092
0.000724606
0.0260781
0.0416674
-0.182554
0.110151
-0.0584801
1.82804e-321
0.0945766
-0.0417475
-9.90114e-08
0.015189
-0.102618
0.00294877
0.0861551
-0.0105085
0.0311676
-0.0184673
0.0416674
-3.02266e-05
0.0562719
0.00348173
-0.0329342
0.00451679
0.0314955
-5.42733e-05
0.114442
0.00282947
0.0709658
7.10452e-05
1.21057e-145
-0.00420288
0
-0.0589204
-4.15026e-06
-0.0309415
1.96757e-73
-0.0584867
-0.100791
-0.153244
-1.70425e-05
-7.79237e-08
0
0.0357726
-4.68269e-06
0.0275635
-0.0383399
-0.0182847
0.00954356
0.0258396
0.0260781
-8.31764e-05
-0.0137967
2.91799e-146
-1.54282e-14
2.14424e-321
-1.23867e-07
-6.93865e-08
-0.00106108
-0.0394694
0.0418067
-0.0249831
-0.0765258
-0.109506
0.0223269
0.10331
-0.0368808
0.00257943
0.101096
0.056999
-0.0269175
-0.146729
0.0389402
0.000101646
0.0190154
0.0117725
-6.35046e-11
0.0294417
-0.0802011
-0.0999103
-9.53349e-05
-1.58001e-05
-0.10876
-1.66434e-05
-3.5399e-10
-0.0500888
0.00322069
0.0534224
-6.35046e-11
-2.67881e-10
-6.67829e-05
-0.00779678
-0.000296387
0.00749814
0.0805112
-0.0484315
-0.0401196
-1.48228e-12
0.0104033
2.08433e-73
-0.0698415
-0.0293463
-0.052078
0.116995
-0.0230106
0.00749814
0.000175316
-1.45289e-05
-0.0954123
-0.0198378
0.0167147
-3.79312e-07
-0.0412169
0.0485351
0.00741175
0.00127064
0.0673576
0
0.0597648
-0.108452
-0.0173187
-0.0887511
0.0190697
0.0416674
-0.059861
-0.00765461
-0.0340951
0.0397383
0.0290679
0.0379798
-4.12352e-06
0.0235724
-0.00900696
-0.190494
-1.29928e-07
-2.14597e-05
-7.37038e-05
-6.93865e-08
-0.032894
0.0387721
-5.03187e-05
0.00091281
0.0455233
-0.101053
0.014088
-9.45702e-10
0.0594363
-6.54402e-07
0.00204875
-0.017499
1.73708e-117
0.0258667
-0.141371
0.00282947
0.0428657
-0.066966
-1.69413e-05
-0.0197245
0.176324
0.0175178
-0.0512472
0.00204875
0.00699244
0.0157689
-0.0320088
0.0681894
-0.0203104
0.0128915
0.0263182
0.0331812
-0.000203811
0.0659492
0.0109555
0.0227941
4.54974e-16
0.071068
-0.0284468
-0.0109569
0
0.0244943
0.123834
0.00114093
0.0016821
-0.0524286
0.0911667
-0.00444597
0.013419
0.000294955
-1.90987e-07
-0.0263748
0.0267093
0.0312969
0.0474035
0.0901532
-4.6058e-68
0.174191
-0.0393462
0.0267093
0.0926409
-4.24701e-05
-4.23183e-05
-0.000249914
-0.00800079
0.140778
6.64212e-05
-0.000118893
-0.0716984
-0.00256311
-0.0198378
0.00732731
0.0639392
-0.0741784
0.070489
0.0267152
-6.20076e-12
0.00749814
-0.0132342
0.00233792
-4.15026e-06
-1.59848e-05
-0.0154836
-6.93865e-08
0.000762272
-0.00325966
0.00227323
0.00257943
0.0530269
-0.128974
0.0181671
0.00570647
-0.0263118
-1.51452e-07
-0.0171898
0.14261
0.0359552
0.000165111
-7.00447e-15
-0.00783284
-0.0276691
-0.0199636
0
-0.0451582
-0.00679747
-0.0658483
-0.0799695
7.28452e-74
-0.123078
0.0186149
3.32528e-05
-0.0542556
-0.035094
0
0.104356
0.480814
0.0268972
0.0513299
-0.108798
-6.54402e-07
-0.0143855
0
-0.0499722
-0.0104895
0.0122112
-0.0940557
-6.54402e-07
0.0691108
-0.0266607
0.0424531
-0.0347733
-2.31339e-08
0.0154023
-0.0187194
0.00671013
-5.42733e-05
-0.00626006
-0.219605
0.00396709
-0.0332601
-0.0484315
-0.00988572
0.0298989
-0.156506
0.130184
-0.000229646
0.0134889
0.00749814
-0.00844625
0.0241265
0
0.000200116
-1.84123e-08
0.0294951
-6.65234e-11
3.31588e-05
0.0028343
0.0277093
0.047646
-1.87748e-05
-1.90518e-09
-2.68829e-06
-4.23183e-05
-2.78523e-07
-0.0327409
-0.0420482
0.00491766
0.00352844
0.0529242
2.08433e-73
0.0346155
-1.07521e-11
-0.00745559
1.96757e-73
-0.0358372
-0.384598
0.0574469
-1.10808e-15
0.0297812
-0.00671836
0
0.02086
0.0481961
0.104073
-3.61842e-14
-0.0991353
-1.45433e-05
0.0278844
-0.0643097
0.0205685
-7.93353e-08
0.0267676
-0.0320088
0.0535336
0.0470386
0.0164266
-0.0415357
0.00671426
0.0114733
-0.0220675
-1.5959e-13
0
-0.0313324
-3.93254e-06
-0.0120771
0.138962
-0.031443
0.116532
-0.0384623
-0.000133553
0.0355776
0.00128558
-1.5959e-13
0.000172388
-0.0666004
0.0550755
-1.5959e-13
-0.00988572
-1.33272e-14
-0.0655936
0.00799824
0.00353752
0.0190667
0.114256
0.0063816
-0.0258315
0.00125673
-0.0724504
0.0641798
0.0272937
-0.0281882
-0.0656043
2.18871e-321
-0.179917
-1.27148e-07
0.0103204
0.0637426
-0.0444607
-0.0568941
-8.61826e-08
-0.0616125
-7.26276e-322
-3.79312e-07
0.0311779
-0.00539508
0.0780272
0.0275635
-0.0320088
0.0329182
3.22174e-74
-0.276741
0
-0.000158872
-3.83482e-11
0.000102072
-6.93865e-08
-0.000715677
-4.13738e-06
0.0318134
-0.0462073
0.0554106
-0.000147722
0.0779938
0.000451691
-0.0848023
-0.00339591
-0.0307461
0.114179
-1.47108e-10
0.00699244
-4.17257e-13
0.0548269
0.00749814
0.0578395
0.0616513
-1.75887e-321
-1.3083e-09
0.0637547
0.00121328
0.00749814
7.62522e-06
-0.0320088
0.00320813
-0.0255031
0.0444367
-5.5967e-16
0.0893333
-0.0165897
0.0300668
-4.55583e-06
1.21057e-145
-6.65245e-11
0.00346192
-0.0911812
0.0413292
0.113036
-0.0635431
-0.0937331
-5.15057e-05
-0.0321665
0.293272
-0.0293678
-0.0444185
-3.93254e-06
-1.3569e-06
0.0503662
-0.120017
0.100623
0.0192872
-0.0741088
0
0.0111566
-0.0155996
-0.0389115
0.00244258
-0.100056
0.0533508
-0.0390485
-2.90589e-06
0.00313204
0.0229309
0.177351
0
-0.131992
-0.0648325
-0.0500267
0.080524
-6.93865e-08
0.0294859
0.0259518
0.0937149
2.10837e-147
-0.000176183
-0.0211819
-0.0153255
0.0191924
0.0292488
-0.158544
-0.012567
0.1234
0
-7.37038e-05
-0.0131038
-0.0395759
6.86079e-73
-0.0104895
0.0275966
0.0759397
0.0458046
0.0298234
0.00321423
-0.0492494
0.0347838
-0.154334
-0.0820253
0.156701
-0.0750039
-0.0653549
-0.0104895
0.152758
0.00140753
0.0275635
-0.085222
-9.02256e-05
0.0190925
-5.5967e-16
0.0028343
-0.00698645
-1.03946e-07
0.0434046
-0.0395847
0
0.0170867
-0.0957694
0.0291235
-6.35046e-11
0
-1.36324e-09
0.0275635
-0.0694685
-0.00281508
-1.70425e-05
-0.129735
0.0264617
0.12397
0.0147889
2.08433e-73
0.0402678
-0.0872961
0.00749814
-0.0712418
-3.44223e-06
-3.99942e-06
0.0645917
-0.0226804
-1.10808e-15
-9.45702e-10
-0.0563391
0.00997887
-0.00671836
-0.0902653
2.25156e-06
-7.79237e-08
-3.59855e-10
-0.000296387
-0.0500382
-4.24701e-05
0.013419
-0.0106312
0.010511
0.0457876
0.00266581
-6.42477e-09
-0.0501149
-0.015881
1.07706e-321
-0.0493901
-0.0565272
4.55183e-135
0.0635093
-6.35046e-11
-0.0437362
-0.0471935
0.0504016
-0.0705105
-1.10808e-15
0.0127861
-4.96815e-06
-0.0262962
-0.0650739
-0.0741784
-1.1385e-11
0.0831714
0.0101201
-0.0800009
0.0324468
-0.0628413
0.005808
-0.0415317
-6.93865e-08
0.239083
-1.72423e-06
-0.0291983
-0.000228198
-1.44403e-14
-0.0463582
-0.000284704
0.00500688
0.040875
-0.0256466
8.95419e-05
-0.0327409
-1.72531e-07
0.0686349
-0.0461831
-0.00229778
-0.0442242
0.0474035
-6.93865e-08
-0.0397185
-0.0547741
-8.8129e-06
-0.0813929
-0.0335727
-0.00298269
-0.0465931
0.00350868
-2.5828e-126
0.0517574
0.00348173
0
-0.000196413
0.0127436
-0.0203104
-8.07971e-05
-0.026576
0.00386808
0.117652
-0.0052086
-0.116733
0.0215511
-1.28407e-10
0.0481549
-0.0673425
-0.0337497
-0.00857119
0.0463696
-2.90589e-06
-6.93865e-08
1.20036e-05
0.0101439
0.00346192
0.0991686
0.0312914
-0.055047
0.0696377
-0.0724678
0.130737
0.0180588
0.020558
-0.0360455
0.0344973
0.288083
-3.79312e-07
-0.0327409
-4.24701e-05
0.020952
-1.36356e-10
0.0820161
0.050842
0.0125883
0.0192626
-0.0524652
1.96757e-73
0.0869085
-1.75887e-321
0.0287145
1.70556e-06
0.0658199
-0.179525
-6.0729e-05
-0.00193361
-0.0874246
-9.90114e-08
0.0244848
0.00749814
2.18871e-321
-0.0784645
-3.1217e-06
-1.10581e-15
0.0636514
0.00103558
-0.0379809
-0.15198
0.0111567
-0.0412508
-3.44223e-06
-0.0197477
-0.0216267
0.0723552
0.0567716
-1.38709e-08
-0.0815566
0.0275635
0.0349041
0.130271
0.0169555
-9.90114e-08
-0.0481963
-7.8766e-08
-1.36324e-09
0.0293063
-0.00744139
0.00317041
0.0275635
-0.0558947
0.0394631
-6.93865e-08
-1.10581e-15
-1.58001e-05
-0.0187533
8.56872e-74
0.0249255
0.0784706
0
-4.96815e-06
-8.67864e-11
-9.02256e-05
-0.094567
-6.35046e-11
-0.048304
-1.5959e-13
-0.017597
-0.0741088
0.00565999
0.0825978
-0.0110945
3.05575e-64
-0.00539508
0.0359799
-1.58001e-05
-6.93865e-08
-0.102045
0.030682
-0.0940557
-0.0565669
0.0101982
0.0249048
0.00123992
0
0.0099789
-0.0412443
-0.0314203
0.0870414
-0.0774151
0.0882622
-0.00857517
0.00408632
0.0125883
0.00597537
0.0760539
-9.68256e-06
-0.0637021
-1.41445e-11
6.57278e-06
-1.98844e-10
-0.244633
0.0478093
0.017625
-0.00361874
-0.000178024
0.00962812
0.0404591
0.00237262
0.0217469
0.017625
0.000918214
0.0180588
-6.93865e-08
0.0111196
6.54894e-73
0
0.00704613
-0.0743287
-0.000296387
-6.93865e-08
-0.00641901
0.0458573
-0.0594752
-0.0247426
-8.49495e-06
0.159638
-2.81229e-07
0.108011
-0.0393459
-0.31189
0.0900424
-3.93254e-06
-1.29072e-07
0.00749814
0.00655502
0.00699244
0.00091281
-0.0287271
0.0370671
-1.17094e-321
-0.0500327
0.0468603
0.0977192
-6.93865e-08
-5.42733e-05
-0.0759317
0.0457876
4.07867e-05
0.0279954
-9.25477e-07
0.0180588
0.0180588
-0.0198378
0.0630536
-0.0121273
-0.0407413
-0.0154871
7.10452e-05
-0.000124759
-6.93865e-08
0.0123231
-0.371344
0.430016
-0.0450813
0.215024
0.0443941
-0.0206466
0.00969154
0.0222712
1.96757e-73
-0.0885954
0.0463103
-0.0106872
-9.90114e-08
0.0271142
-0.00740189
0.0575231
-3.90016e-05
-0.00931654
0.00570647
-0.135113
-0.0272118
-0.106486
1.21057e-145
0.00108357
-0.0109569
-0.0104895
0.000359076
0.00942482
5.11146e-06
-0.118847
0.0701845
0.000294955
-0.0129051
-0.0391803
-1.5959e-13
-4.82372e-05
-1.5959e-13
0.0583162
0.154732
-0.0274698
0.0950967
-0.000221888
0.0291086
0.0311372
-0.0284963
-0.00028113
0.00499136
-0.00999376
-0.0730188
-0.236593
6.41309e-05
0.0241265
-0.0457113
-4.0451e-05
0.0474035
-4.11099e-05
0.0610497
-0.00873407
-7.00447e-15
-2.42551e-05
0.0647018
-0.00206759
0.0146829
0.0658019
0.020558
-6.33475e-05
1.46243e-321
0.0267783
0.000168371
-0.000279963
0.0181671
0
-0.0390461
-4.03452e-05
0.0124322
0.0656021
1.96757e-73
-4.25481e-05
-0.0648213
-8.49495e-06
0.032251
-3.72857e-05
0.0758235
0.00565036
-3.70773e-05
-0.00298269
-0.00431844
0.194601
-9.02256e-05
-4.21691e-09
-0.0500327
-0.00122791
-2.33496e-05
-4.82372e-05
0.0258667
-3.08658e-05
0.0727724
0.0106833
-0.0508469
-0.0384623
0.0278844
0.0134889
3.67879e-05
0.00250771
-0.0287271
-0.0579588
0.0538525
-0.0251624
-0.0419465
0.00318999
0.11266
-0.149498
-0.00517379
-0.00893981
0.0325278
0.0125883
4.41731e-07
-5.23436e-07
2.18871e-321
-0.0228212
-1.93423e-05
0.0308302
0.0238447
0.00294864
-1.10808e-15
-0.0483541
0
-0.0198378
0.000991918
-1.40049e-10
-0.0325055
0.208411
-7.70894e-07
-0.138723
0
0.0101201
-0.00626006
-0.00818741
-0.0255007
0.0129899
-0.0538807
0.0204507
-0.00729892
-0.0327845
1.20036e-05
0.037839
-0.0479747
0.263074
-0.0545881
0.0394631
0.0206864
0.0112472
-1.07521e-11
-2.90364e-08
0.0887497
0.141579
0.00346192
1.21057e-145
-0.284391
0.0214942
-0.00367068
0.0749825
-1.84123e-08
-0.0998896
-1.94203e-05
-5.5967e-16
0
0
0.00423162
0.0520813
0.0874915
-0.0223338
-0.0779337
0.0028975
0.0021753
0.0028975
-1.33398e-321
0.0205685
-0.0860336
-0.0493576
-0.129549
-0.0416283
-0.0010798
-0.0183289
0.0237285
0.00249923
0.133811
0.0346681
-1.81257e-07
-0.0443131
0.132373
-0.0224817
0.00570647
-6.92959e-05
-0.00539545
-0.0741784
-0.0320088
0.0750153
0.0893543
-0.0216692
0.0762854
0.00306062
0.0183142
0.0115097
-5.42733e-05
-6.31969e-07
-0.0367097
0.154233
-1.81257e-07
7.28452e-74
0.00980639
0.0196759
0.0118669
0.00257941
0.00994434
-0.000316241
0.0393572
0.0297811
-0.000176183
0.00244751
-0.061022
0
0.0472001
0.0646861
-1.23338e-12
0.0320679
0.00266581
0.0099282
0.031773
-0.0554384
0.000262471
0.0028343
-0.0517412
0.0175797
0.00433798
0.00451679
0.0983543
0.00996328
-0.0573475
1.09189e-321
-0.0512843
-1.59848e-05
-6.35046e-11
-0.0883643
0.106852
-0.0526858
0.00271309
-1.60573e-05
0.073451
-0.0776415
0.150445
-4.72174e-10
-2.68829e-06
-0.152103
-0.0104895
-7.79237e-08
0.00760835
-1.54282e-14
0.00514681
0.175081
0.024073
-0.0235933
-0.000178024
0.0158341
-0.0333358
-0.0151446
0.000162761
3.67879e-05
0.242422
0.0249048
-0.168471
-0.106673
-4.24701e-05
-6.93865e-08
-1.66434e-05
-0.0257466
-0.0141935
-1.14995e-07
-0.0123741
-2.90589e-06
-0.38269
0.018017
0.0630038
0.0285711
0.0217963
0.0159161
0.00201702
-0.0418898
0.000880049
-9.68256e-06
0.00125609
0.175518
0.0755145
-0.0430029
0.0905485
-7.85114e-06
-0.0185838
-0.00389343
0.0180588
0.00553178
0.0312914
0.00348173
0.0317925
-0.0335727
3.79092e-06
-0.0337798
-0.0165939
-0.000171878
-0.0814863
-0.0191934
-0.0303029
0.00179159
-0.094568
-0.0706099
0.0105683
-6.93865e-08
0.0447647
0.000963986
0.0339384
-0.0390954
0.0630961
-0.00779678
-2.59934e-08
0
0
-0.0350473
-5.48404e-05
-0.0705105
-5.5967e-16
7.70742e-322
0.0547557
0.0312914
-0.0173519
0.0873981
0.00115167
0.0455233
0.0241265
-0.211777
-0.109568
-6.33475e-05
2.08433e-73
-1.14995e-07
0.0190803
-0.0435994
-0.00030362
0.00616522
0.0474035
0.0481961
0.0332272
0.0862989
-0.0649072
-0.02402
-1.93423e-05
-6.10368e-05
-0.0312058
-0.0268508
1.82804e-321
0.0284369
-0.100548
0.198362
-9.48171e-06
-3.02184e-10
0.269087
0.0121851
-0.0216424
-0.00671836
-0.00412844
0.12988
0.108405
0.00928356
-0.0680741
9.79134e-147
-1.86055e-09
-6.32914e-07
-5.70817e-68
-0.0127745
0.0512874
-5.56302e-05
0.0725582
-0.0162419
-0.00300326
-3.79312e-07
-8.31764e-05
-0.0605934
-0.0412363
-0.0157984
0.0255574
0.0147748
-0.032029
-1.72531e-07
-0.338803
-1.38709e-08
-0.102618
0.00805886
0.0799578
0.0620675
-0.000158872
0.0187187
0.0180588
0.0989446
0.0396183
-0.0766294
-0.0353127
-0.218225
-0.0334012
-0.00025971
0.00282947
0.00019992
0.0404609
0.200089
-0.0503104
-9.90755e-06
0.112238
-1.10087e-06
0.068203
-8.89977e-06
-0.0698427
0.017625
0.00616522
-1.75887e-321
0.0291542
0.0111567
-5.42733e-05
-3.79312e-07
-1.10808e-15
-0.0397106
0.0215272
0.0399183
0.00288322
-6.31969e-07
-0.0111929
-1.3569e-06
-0.000296387
0.0513984
0.0297579
-0.00177898
-5.23436e-07
0.0241222
-0.00539508
0.0222143
0.0314806
0.0156378
0.435724
-0.0194873
0.0344973
-6.35046e-11
-0.0818291
0.000757606
-0.0263321
-6.93865e-08
-0.00941888
-0.000158872
-0.0524286
0.0796368
-0.0220107
0.0430834
-0.0444607
0.17143
6.84823e-74
0.017625
-0.00412844
-0.0120771
-0.0892691
-3.02184e-10
-0.0166963
-9.02256e-05
-0.0802258
-0.0140308
-0.0407
0.0101201
0.0771709
-3.30873e-05
-4.82372e-05
-0.138659
0.0180588
-0.0800295
0.06475
0.000209473
0.211577
0.00295032
0.000101646
-0.0827835
0.483202
0.0989446
-0.0999138
-0.0341237
-1.90518e-09
-0.00420288
-0.0106515
-0.0222108
2.33614e-06
2.88933e-05
-0.0550515
0.0794345
0.0277093
-1.98844e-10
-0.0845529
0.00250758
0.0113377
-0.0632748
-8.8129e-06
-0.0540673
0.00587065
-1.10808e-15
-0.114317
-0.167681
-0.000176183
0.225453
0.0127861
0.162756
0.017625
-0.147769
-1.10808e-15
0.0683322
0.0242637
0.0164522
-0.0104895
0.014088
-0.00331705
-0.0633781
-1.33398e-321
-1.4654e-13
0.0417214
0.00746451
-6.93865e-08
9.85195e-76
-1.91803e-06
4.54974e-16
1.85271e-07
-1.90518e-09
-0.0287271
0.0578395
-0.0147447
0.0192649
-0.00554879
0.0114733
-0.000296387
0.12988
-0.0210043
0.00349738
0
-0.000147644
-2.67881e-10
-8.46088e-07
-4.6058e-68
-0.0418898
-0.0563855
-1.10581e-15
0.0991686
-0.00571066
-1.5959e-13
0.0317818
-1.5959e-13
0.00749814
0.00197055
0.315715
0.00819771
-3.61842e-14
0.0478091
-0.0335219
-3.11122e-05
0.0654724
0.145096
-0.0653549
0.0517384
-8.8308e-11
0.0298234
-0.0567545
0.00582124
-0.0104895
0.00155106
-6.31969e-07
1.96757e-73
0.0518737
-0.0164165
-1.10808e-15
-9.59589e-10
-1.09118e-11
-1.22857e-07
-3.8378e-07
-0.0415317
-0.00339591
0.0101982
0.0213367
0.00101627
0.0158311
-5.23436e-07
1.09189e-321
4.55183e-135
-2.67881e-10
-0.000239688
0.144549
-0.0166888
0.00637861
0.017326
-0.0876174
-0.0104895
-0.0104895
0.0278303
-0.0144096
0.0135501
0.154668
-6.35046e-11
-0.000102091
-0.000262054
0.015322
0.0117725
-9.25477e-07
-0.0216692
0.0192883
-2.25586e-08
0.0192883
-0.000104293
-0.111019
-0.030771
0.0112472
-0.0320088
0.0180588
-7.01154e-05
0.0882121
-0.0702281
0.00250771
0.00661392
-0.0586516
-1.23632e-07
-0.112098
6.86079e-73
-1.59848e-05
-1.36356e-10
0.0457873
5.39897e-64
-1.03946e-07
0.115556
-0.017581
-1.10581e-15
-3.02184e-10
0.101304
-0.0642263
0.067751
9.77475e-145
-0.0049168
-0.0251763
-9.45702e-10
0.0206338
-0.000229646
0.0020311
-5.3051e-13
0.00099712
0.00346192
3.7852e-146
0.13068
0
-1.90987e-07
0.0388131
0.00730078
0.0323505
0.0015894
0.0135501
-0.0462023
-0.243473
0.0257236
-0.000115401
-1.10808e-15
0
-0.000147644
0.0879126
-0.115962
0.0149877
0.0128915
-7.79237e-08
-0.00431604
-6.93865e-08
0.0219995
0.00649155
0
-1.90518e-09
-6.1715e-05
0.0850804
1.28773e-05
-0.0616125
-1.10808e-15
-0.0452995
0.00129192
-2.07504e-05
-0.0425505
0.0311432
-1.5959e-13
-0.0232107
0.00590772
-0.056634
-0.0295332
0.0357726
0.0215603
0.169231
-0.0330154
0.0444367
0.0458573
-6.93865e-08
-0.074141
0.019021
-1.5959e-13
0.000410475
0.0753577
0
-0.0397184
0.00475935
-0.00112571
0.0170867
0.00132339
3.51619e-06
-9.82222e-07
0.0168491
0.0972922
0.00616522
-1.90518e-09
-1.10808e-15
-0.0412169
0.0013547
-0.224894
0.00348154
-5.22986e-08
-0.0940557
0.0436613
0.00749814
-0.0706099
-0.0337798
-0.0412169
0.0395545
1.47735e-73
0.601132
-0.0141594
0.0134934
0
-0.0198378
-0.0844956
1.96757e-73
0.0401333
-0.0303029
-6.35046e-11
-0.108063
-2.59934e-08
-2.06217e-13
0.00749814
0.00228941
0.130603
-4.86069e-06
0.0298234
-0.0115139
1.07706e-321
0.0168491
-0.00627642
0.0191923
0.0692073
-2.10333e-05
0.0214522
0.0111567
0.00019992
