-0.000238628
-1.48589e-09
1.37854e-40
-0.0272248
0.0553175
0.0133079
0.00715651
-0.0105733
0.1573
0.00715651
0.0018004
1.27385e-73
0.000556999
0
0.00773365
2.32678e-89
-0.078344
0.0180894
0.0470098
1.70792e-52
-3.97487e-05
0.0441283
-0.000638822
0.0181915
0.0116025
0.00773365
-0.0959394
0.014555
0.0308004
0.000509413
0.0867415
0.104059
-5.57962e-07
-3.70181e-12
0.00509448
-0.0768549
-0.000346612
0.0231018
-0.000240068
0
0.0798443
-0.0187754
-0.000346592
0.00515355
-0.034787
-0.0310264
0.00592563
0.00463613
-0.000254332
-0.081196
0.0485195
0
-3.56329e-07
0.00718918
-1.00295e-321
-0.000340506
0.067478
-2.42148e-08
-2.72702e-10
-0.000246217
0.00495442
-0.00770289
-9.88131e-323
-0.113712
-7.21336e-322
0.0467915
-0.041179
0.0214235
0.0183214
0.00742
-0.0722343
-0.0603295
-0.0529286
-6.61743e-07
-0.0774822
-0.0158649
-9.84741e-05
0
-0.0516909
-0.0805815
0.00485776
-0.0294516
-0.000254821
-3.15769e-05
0.00768
0.0822336
-0.0311795
-0.0133247
0.0876951
0.0467915
0.0102108
-0.0604999
-0.166763
0.0214171
-0.105848
-0.0321523
0.134833
0.0508959
0.019795
0.0267844
-3.56329e-07
0.00495442
-2.96363e-08
-0.000262594
-8.32352e-08
-1.11325e-05
0.00748752
-0.0105683
-2.96438e-09
0.233051
-0.050852
-0.0139684
0.00736804
0.0311156
1.48714e-321
-1.9623e-08
-0.055213
-1.42118e-08
-0.0450995
-0.0580152
0.128097
-1.90772e-07
-0.0123753
-0.132404
0
-0.0441616
-0.00773678
-1.59433e-08
-8.26643e-06
-1.03806e-05
0
-0.0207684
-0.000336834
-0.0294848
-0.060055
-0.0685697
-0.0489772
-0.000340506
-0.0451791
-0.032888
-0.0746468
-0.0145036
0.0385221
0.27625
-0.0354888
-5.92884e-08
0.0966635
0.0259818
-0.000261373
-0.255747
-0.0775658
-0.0282161
0
0.00318303
0.174372
-0.0768549
0.0171796
0.008854
-0.0233175
0.0660545
-0.0469824
-1.13997e-06
-0.0530387
-0.0761688
0.00495442
-0.0233325
-0.0498818
0.0104032
0.003664
-0.0642216
0.0264572
-0.193369
-0.0195301
-6.07505e-08
-0.100375
-0.00295049
0.011384
0.150252
-0.0178883
-9.02896e-05
-3.56329e-07
-0.00193863
-0.00504646
-0.0176281
-0.0123892
0.0138887
-0.00714129
0.253021
-0.000601045
0.0181915
-0.0211962
0.0537078
-0.0626609
0.067478
-0.126859
-0.0739602
0.028039
0.011888
9.72778e-05
-0.0261552
0.0068762
0.0275853
-1.425e-12
0
-0.0660589
0.00495442
0
0.508681
-0.172253
-0.0139684
-1.64167e-08
-3.06988e-06
-0.0256694
0.0187194
0.0966505
0.00715651
0.12759
0.00592704
-0.0758415
-0.000248327
0.0694211
-0.0244986
-0.0166693
-0.000121969
5.87938e-322
-3.44735e-08
-1.65235e-05
0.00256361
0.00528034
-0.000340506
0.103332
0.0227576
0.00293609
-0.0596955
0.0306891
0.169134
-0.0408094
-0.0423901
0.00715361
-0.000254735
0.0796825
-0.077301
0
-0.0187738
0.125219
0.000562038
-6.35948e-09
0.0720265
-0.0611358
-8.93434e-13
0.131108
-0.0259467
-2.1046e-08
-0.0151835
-0.00193863
0.0385221
0.0731727
-1.15211e-12
0.0264707
-0.0462621
-0.0220888
-0.0648001
0.00259786
-0.0178883
1.70792e-52
-0.027747
-0.0174664
0.00690098
-0.0676783
-0.169678
-0.0290823
0.00487045
-0.0176009
-0.0251243
1.49486e-05
0.0230003
0.00992105
1.37854e-40
0.0547814
-5.09188e-08
-3.8883e-80
-0.0105733
0.0891841
0.0582124
0
-2.94599e-09
0.00772701
-0.0489251
-0.0320319
-0.0746325
0.00988678
-0.0337148
0.0124661
-0.000246106
0.00532706
0.0222407
-0.0118122
0.0594944
0.0553728
0
-0.0559293
0.0301963
0.000428499
-1.42118e-08
0.0601085
0.0642109
1.27385e-73
0
-0.0754707
6.88305e-05
-3.58486e-05
-0.000346592
0.0358215
-0.0648079
0.044977
6.81811e-322
-0.0123892
0.0749942
0.0402169
-8.86606e-15
0.0447477
0.568621
0.071886
0.00753509
0.057215
-0.0064983
-0.0668821
-0.0238271
0
-0.0223928
0.242378
0.0414445
-0.016432
-0.0529286
-0.0307039
-0.0468634
0.00125463
0.010211
-0.0269131
-0.0178804
-0.0505241
0.0157522
-0.117959
-0.0113234
-0.000248327
-5.99348e-06
0.0533724
-0.0401524
0.00165707
-0.202443
-0.0159768
0.00402057
0.00112304
0.0873794
0.00592563
0.0596655
-6.61743e-07
-0.0696424
0.033379
-0.000254735
0.204062
-0.00887069
-3.53992e-06
-0.0984898
-2.27443e-08
-0.0666699
-0.0339809
5.08888e-322
0.0269816
-0.000246217
0.0532983
0.0120065
-0.0689018
-3.7156e-07
-0.0148399
0.00495442
-0.044003
0.0297464
0.0415477
0.00495442
-0.0899789
0.011888
0.159821
-6.00554e-06
0.0716345
0.00341851
0.0176798
0.0917182
0.00450574
0.00487045
-0.0251221
0.00495442
-0.0245285
-0.0264819
-1.15211e-12
0.0465454
-1.03806e-05
0.00393854
0.000355115
-3.44735e-08
-2.96363e-08
0.0751768
0.0254847
0.0375045
-1.75929e-07
0.00318303
0.0830647
-1.425e-12
-0.00751346
0.0415098
0.0174193
0.00339786
-3.8883e-80
0.010094
0.0266417
-0.00963072
0
-0.13323
0.00509448
-0.0716317
0.0188252
-0.000252404
0.198652
0.00150999
0.00715361
0.199553
-2.1046e-08
-0.0172698
-0.0368214
-0.000254305
-0.015397
-0.164283
0.0318641
-0.00573472
-3.15769e-05
0.067478
0.0431387
-9.51471e-05
-0.173703
0.0457729
0.0359951
0.0616683
-0.000601045
0
0.00769535
1.26481e-321
0.0861017
0.00645707
-0.00247344
-0.0775643
-5.99348e-06
-2.5197e-09
0
-0.0139684
0.00495442
0.271383
-1.07743e-08
0.0228171
0.0251764
-0.0265523
0.0113541
0.0227903
0.00988678
0.0531281
0.391871
0.0364311
-0.0887333
0.0357082
0.0015828
0.0169398
0.0206151
0.0386989
0.0532064
-0.000756932
-3.66111e-05
0.0206479
-0.0891173
0.0227516
-0.115114
-0.0265404
-0.268786
-0.0752703
0.0523536
0.00132414
-0.290934
-0.00259921
0.00679099
-2.41014e-11
-0.01024
-0.150064
-0.000340506
0.00754009
0.00780748
-0.0140605
-0.0730372
-0.0290823
-0.0298351
0.0309421
-6.07505e-08
-0.0320491
-0.0832323
-0.0139684
-0.0598045
0.00519641
0.00768
0.0120065
0.00988678
5.1107e-06
-0.000329244
3.53762e-05
0.0292513
-0.039844
-0.0425447
0.0243933
-1.0996e-07
-0.0474568
-1.31614e-12
0.00267603
0.0415794
0.0120065
0.012824
0.154369
0.836515
0.00943894
0.00187821
-2.51283e-05
-0.00027869
-0.0418788
-0.0132564
0.0015828
-0.0262954
-0.0545686
0.00824652
0.211276
0.00267735
-0.000200491
-0.0433967
-1.73756e-08
-5.38907e-05
-0.000270709
0.00278156
0.163001
-0.000245808
-0.0546862
-0.0394394
0.00435124
-0.100398
0.212369
0.0103669
0.159153
0.0720863
0.0271788
0.0301914
0.0103706
0.188322
-0.0293822
0.130463
0.0273194
-0.0524836
-0.00573469
0.0067982
0.0309685
0.109573
0.256157
-0.0187051
0.0208573
0.0139606
-0.00235398
-0.00610435
-1.59433e-08
-1.15211e-12
0.00771275
0.0496718
-0.0707438
0.0675403
-0.105235
-0.000242314
0.00513987
0.0101349
-0.0173547
0.0154278
-0.0626409
-0.0378499
0.000545909
0.0741329
0.000113568
0.0237896
-0.010368
-1.00284e-06
0.00669576
0
0.00712371
-0.216423
-0.0231107
0.00508837
0.00495442
-2.96363e-08
-2.69206e-09
-0.367854
0.0880067
-0.000485455
0.0116025
0.0431582
0.127951
0
-0.0263842
0.00614759
0.00932817
0.0823014
-0.0437097
-0.0105791
-0.00667932
0.0276422
-0.0533504
0.0594422
-0.084569
-0.0515778
-1.35541e-08
-0.0181195
-0.0880711
-7.14447e-06
-2.02286e-06
0.243617
0.148668
-0.0735602
0.0285917
-0.000329244
-0.0207709
0.0872318
-5.99348e-06
0
0.0721567
-1.59433e-08
0.0304639
-0.000346592
-0.000340506
0
-0.305812
0
0.00735695
0.0026795
0.126526
0.196078
0.00318303
-0.0023187
-2.11368e-06
-0.0285163
-1.95547e-05
-0.000329279
0.0344075
-0.0161708
-0.114939
0.00253673
-0.0579619
-2.29922e-05
-1.25413e-06
0.0181915
-4.36883e-07
0.00503203
0.0072954
-0.0750303
0.110258
5.1107e-06
-0.036981
0.0986274
0.000132638
-1.44761e-321
0.000459185
0.0544676
-4.78449e-05
0.0523689
0.00341851
-0.000252176
0.150355
0.019993
0.0526008
-0.0258389
-0.0622346
0.138362
-0.000248179
-1.1946e-10
1.37854e-40
0.205732
2.28499e-98
-0.011646
0.0127477
0
-0.00025219
-0.0182575
0.0325044
0.0634172
0.0250736
0.112569
-0.0812751
-4.63787e-08
0.0469227
-0.0220888
0.289673
-0.0283622
-3.8883e-80
0.293647
-0.00985856
0.00495442
-0.000677337
-1.46365e-13
-0.0223339
0.00651117
-0.0173547
-0.116914
-0.0161212
-0.0740163
-0.0648079
-0.000340506
-0.0713757
0.061438
0.00627426
-0.0276179
0.010211
0.0138877
0.0844652
-0.092941
0.0192963
-0.0139684
0.045919
-0.0780709
0
0.0751456
0.0861518
-0.00729628
-7.34355e-09
0.031437
-3.81436e-09
-0.0917952
0.00566532
0.00109203
-0.253777
-0.153449
-0.0544148
0
-0.0454972
0.0353676
-0.117144
-0.0255926
0.0967923
0.0332662
-0.0452418
-0.00027869
0
-0.0385337
0.110821
-2.28752e-321
0.0294525
-0.0236761
0.0547521
0.0408394
0.0267961
-0.000254305
-0.0740412
-1.32386e-05
-0.0195433
-1.19072e-11
-0.000252404
-6.35948e-09
-3.70181e-12
-1.86757e-321
0.153238
-2.51283e-05
-0.0505535
-0.0916015
0.0434259
0
-2.1046e-08
-0.000246943
0.0198755
-0.0383353
1.37698e-05
0.00405994
0.100189
0.116193
0.172575
-0.00880065
0.100415
-0.000601045
-0.0524039
0.00310522
-2.52567e-06
0
-0.00903558
-2.96363e-08
-0.165126
-0.286667
-0.00295049
0.0309542
0.0562616
-0.139139
-0.00295049
-0.0126512
-2.05065e-06
-0.000131519
0.270413
0.0205049
0.0300541
-0.0166335
0.0417224
0.00318303
0.0407277
0.0196652
-0.0161212
0.00495442
0.136988
0.00245706
-0.000336831
-0.000278836
0.0467915
-0.000279239
0.00137352
0.227905
0.00541098
0.0257771
-0.103386
0.077451
0.00132417
-0.000132368
-0.0417516
-0.00013852
-0.0976157
0.107209
-0.0220888
-0.0205392
0.137523
0.0312548
0.101496
-0.0422992
0.0077602
-0.000336831
-0.00963072
0.0238324
0.065527
0.0444719
-0.0243484
-8.26344e-08
0.0154278
0.0139263
-0.0845859
0.0319005
0.0417224
0
-0.0123892
0.00494329
-3.23627e-07
-0.0447351
0.00715361
-5.57962e-07
-0.0260099
-0.0493633
-0.0140605
0.0129744
-8.32352e-08
0.00979932
0.0227903
0.0467954
-0.000336831
0
-0.0182207
0.0660545
0.00396839
0.00481286
0.147009
0.0357501
-0.000340506
0.00899017
-0.0902107
0.03263
-0.0282308
-0.0433451
0.0751094
-0.0540836
-3.8883e-80
0.0385515
-3.58486e-05
0.00753509
-0.0684764
0.112669
-0.00925259
0.0291166
-3.64857e-07
0.0136847
-5.99348e-06
-0.0838825
0.0180894
0.0861867
0
0.187285
0.156539
-0.061422
-0.0207709
0.0380681
0.0159743
0.000152397
0.000107351
0.0464389
-1.16905e-10
0.0411729
-0.00748816
0.00495442
-6.00554e-06
-1.35541e-08
-1.29445e-321
0.0431493
2.32678e-89
-0.000329244
-1.75929e-07
0.010211
-0.117829
0.0181915
-6.32343e-07
0.0143288
0.126977
0.00393854
-1.27963e-08
-0.0106663
0.00318303
0.00390616
-1.00284e-06
-0.000911398
-0.00757068
-2.93797e-91
-3.56329e-07
-0.0238723
-0.0721602
-0.0139498
-9.76296e-07
0.143562
-0.0375493
-0.0196074
0.0424525
-0.0369045
-0.0105733
0.0720265
2.32678e-89
0.015653
-0.00724386
0.0437047
0.048724
-3.58486e-05
0.011888
-1.46365e-13
-6.25744e-06
-0.000911398
-0.0663653
0.00823669
0.0377255
0.00735695
-1.64167e-08
0.0419442
-0.000512612
0.0509203
0.00038138
0.0406884
1.52666e-321
-0.025728
-0.0187367
-0.0120402
-0.0028559
0
5.08888e-322
-0.0407186
0.039671
-0.0304535
-0.000475025
0.0409128
0.0349854
0
0.0336846
-6.35948e-09
0.0520676
0.0156162
-0.0182174
0.0548882
-0.0773929
-0.0284724
0.173065
0.0032864
-0.0023187
0.0244417
0.0227576
-0.0925549
-0.0772933
-0.137451
-0.141746
-1.81768e-14
0.00160091
0.00495442
-0.0144763
0.0277666
0.0093313
0.269478
0.0195781
0.00899059
0.0268099
-1.64167e-08
0.00524281
0.155476
0.00393854
0.00707605
-0.0321523
-7.52407e-07
-6.30297e-08
-0.0328384
0.011888
-0.0971017
0.000117959
0.00495442
-0.0207684
-0.0276179
0.0974923
0.0310826
-0.0200829
0
-0.0433356
-0.000247608
-3.27576e-06
-0.0214793
-0.0355421
-0.106531
2.89028e-98
0.0797719
0.0342506
0.0195427
0.0103706
-0.0309521
0.00318303
0.0396636
0.00495442
0.0659635
0.00515355
0
-0.094549
-7.57942e-12
-0.0433365
-0.0726251
-7.57942e-12
0.030073
-0.147663
-0.000252123
0.0672824
0.00372279
-6.30297e-08
-5.82425e-06
-3.71435e-14
-0.0126481
0.0114042
0.0254856
-0.000233235
-0.0415365
-0.00295049
-1.48589e-09
-2.51283e-05
0.00259786
0.0649598
0.00748752
0.0733952
-0.0261479
-0.0166335
-0.0439843
0.038639
-0.116385
0.00408364
-2.05065e-06
-0.000270709
0.176271
-0.065674
-0.0178883
-0.0354639
-0.000601045
-0.000346592
-0.0559293
-0.0023187
5.25234e-05
0.00323312
0.0259183
-0.0761013
0.00509448
0.0390728
0.27762
0.0237896
-0.0646177
0.0026205
0.10207
1.27385e-73
-0.0535739
0.0599801
0.10176
-0.000340506
0.135703
0.045263
-0.0625733
-7.08942e-05
0.0830532
0.00408364
0.1987
0.00495442
0.00495442
-0.000243292
0.111739
0.0482294
0.00509448
0.00495442
0.00232307
-0.0411056
0.0228171
0.00483851
0.0484882
0.0192103
0.0836779
0.00408364
0.0409231
-0.0139684
-0.0864845
0.243996
0.100403
0.0542188
-0.027709
0.0338634
0.0502861
-0.0736222
0.0138887
0.140734
0.0157522
-0.03043
0.0138887
-0.0238723
-0.045614
-0.0262035
-0.000340506
0.0210237
0.0597209
0.122256
0.00702734
0.0494779
0.272755
1.58101e-321
0.273858
-0.0123892
-0.0306497
0.176715
0.0435356
-0.00369162
-8.32352e-08
0.0133636
-1.46365e-13
0.00814795
0
-0.114353
-0.00027869
-0.0971815
-0.0628791
0.00323239
0.00135171
-0.019157
2.32678e-89
0.00744152
0.0874072
-0.0243808
0.0434959
-1.22238e-07
1.45452e-24
0.0192832
-0.0290823
-2.27443e-08
-2.05065e-06
0.0129744
0.0181915
-0.0636804
0.09026
-3.53992e-06
0.0384935
-1.26481e-321
-6.6906e-08
-0.127853
-0.0183867
0.0120065
-0.0715737
0
0.04788
0.0870616
0.00310522
-1.13334e-07
0.185356
-0.0562943
0.0608737
0.108344
-1.22238e-07
0.0206151
-0.205378
0.164799
0.118384
0.04788
0.0281478
0.0542907
-0.000165268
-0.0332958
-0.18223
0.0830647
0.0227903
0.00592721
-2.36027e-07
0.078378
0.369621
-0.00553613
-0.00958778
-4.23106e-07
5.08888e-322
-0.000244332
-2.63336e-11
0.081863
-0.0139684
-0.0224773
0.064184
-1.66557e-07
-0.0144627
-0.0394279
-0.043974
-0.0410912
0.00740635
-0.0501787
-0.110504
-0.269155
0.0100541
-0.00335006
-0.0231218
-4.18244e-14
0.362794
0.0368832
0.0162249
-2.36072e-10
0.0135656
0.00784719
-0.225138
-0.0249422
0.0373689
-0.0274903
0.0048701
0.0166438
0.0409757
-0.0333769
-0.188931
0.0310826
0.00556804
0.00556804
-0.0547319
4.09592e-73
0.0362091
-0.0289089
-2.05876e-07
-0.0726251
-0.0100768
-0.0140605
-2.05876e-07
0.010211
-0.0704771
0.0210591
-1.81768e-14
0.012824
-0.133757
0.0344167
-0.0784413
0.0771932
-0.0045098
0.0225292
0.0420908
0.00393854
0.0113926
-0.0023187
0.00752657
-0.0520531
0.0060428
-0.10598
0.0102379
-0.0320603
0.107258
-0.18004
-0.0529286
0.044804
-0.000243292
0.00302661
-0.0612147
0.0164393
0.68473
-5.70853e-05
0
-0.0256694
0.243126
0.0231018
0
0.0157233
0.0366218
0.0332351
-0.10297
-8.19505e-05
-0.019541
-1.01316e-05
-0.0141447
-0.00887867
-0.077279
0.00625978
0.0504821
-4.51975e-07
-0.0732025
0.0711451
0.00753509
-0.000352112
7.21336e-322
0.0032864
-0.00025872
0.0840465
0.00614759
-0.0138344
-0.0391084
-0.0259935
-7.06862e-08
0.0178301
-0.025666
0.0415477
0.0450832
0.0430469
0.00057035
0.168868
-0.0102519
0.00246712
-0.0776101
0.132456
0.000107351
0.000107351
-3.44735e-08
0.0174346
-3.53992e-06
0.0427136
-0.000601045
-0.0538892
-0.0139684
-1.4078e-07
0.14992
0.0137424
0.00318303
0.0458449
-0.0499142
-0.129595
-0.00680473
-0.0769687
0.0124172
0.00319121
0.000339971
0.0420908
-0.0854368
-0.00573469
-0.216529
0.0523689
0.00271414
0.102798
0.0417224
-0.01529
-0.0776933
-0.01024
-0.0323258
0.0294985
-0.0934221
-0.0320491
0.00771275
-0.00932773
-1.11325e-05
-0.0342222
-3.53992e-06
0.00470979
-3.11854e-12
-1.73756e-08
-1.9623e-08
0.00318303
0.0306871
-0.175018
-0.178657
0.0280521
-1.64167e-08
-0.0177828
0.0307927
-0.302675
1.27385e-73
-1.76039e-07
-0.0481768
-0.00963072
0.0243933
-0.0559215
0.000419731
-0.0174237
-0.00193863
0.0725138
-0.000507393
0.0417224
0.0063049
-0.0177152
0.0174087
-0.000158354
-0.0694692
0.0553175
-0.0843838
0.00495442
-0.0516456
0
0.0733952
0.0116173
-0.121867
0.0772885
-0.00572133
0.0332301
0.00495442
0.000357884
0.0734579
-0.000346592
0.00495442
-0.00295049
-0.0604211
-0.000100971
0.00425138
-0.0132564
-0.000346592
-0.0163817
0.00209767
0.0173228
-0.000249652
0.00698402
0.0203848
-0.0324963
0.00614759
-0.000247608
-2.86303e-06
0.00592563
-0.0298351
-0.000126544
0.0191215
-0.183023
5.1107e-06
-0.000329244
0.0177024
0.00988678
-1.46365e-13
0.010211
0.0357106
-2.40438e-08
-2.27443e-08
-0.000251401
0
-0.0549631
0.030073
0
2.20783e-05
0.00698655
0.0503409
-9.93401e-06
-0.105709
0.0225292
0.0174346
1.37854e-40
0.00266597
-0.259351
0.0873032
-0.0333769
-0.0361737
-0.0206635
-0.0417514
-0.0367647
-0.0806846
-0.0328955
0.030073
-0.0286037
0.0282376
-2.96363e-08
-0.0148461
-0.000248179
-0.0437795
0
-1.31792e-11
0.00823669
0.118746
-0.0784724
0.000711488
0.0794632
1.37854e-40
-6.00577e-06
0.0450161
0.00556804
-5.09188e-08
-0.0123892
-0.000252123
-0.0538716
0.000340105
-0.0729527
0.0534217
-0.041378
-0.203904
-0.0117476
-1.17069e-05
0.0239916
-0.000270709
0.020384
-0.0727466
-0.0663069
0.0350969
-0.115469
-8.86606e-15
0.0241376
-0.00642005
-0.060181
0.0507082
-0.0353584
0.0634183
0.00756454
0.00771275
0.201159
-0.0126096
-0.0173547
-0.0028559
0.230735
-5.57962e-07
1.45452e-24
0.0374433
-0.0409484
-0.0333769
0.0210715
0.00764673
0.0680164
0.230728
0.0210237
-0.0541539
-0.00406629
-0.000254575
-0.000252981
0.00690851
0.0214171
-0.000248327
0.878221
0.0296772
0.015973
0.0305812
0.00773172
0.0117383
0.0143288
-0.027709
0.0413534
0.0456256
0.0867469
0.00715361
-0.021031
-0.000254145
-0.0572754
-0.0358458
0.0015828
-0.00787602
-0.0269619
-1.46365e-13
-0.000329251
-0.000244611
0.0028164
-0.0776769
-1.51052e-10
0.00351881
-0.0867113
0.0960476
-0.0499142
1.37854e-40
-0.0469237
-0.462244
-0.035591
-0.104046
0.0705257
0.0135029
-9.28843e-322
-0.111081
-5.42002e-07
0.0206151
2.32678e-89
-0.0764205
0.0457729
0.00850147
0.0351666
0.00463598
-0.00974194
0.234404
-2.05876e-07
-3.91624e-07
-0.0860571
2.32678e-89
0.00495442
0.0675346
-2.51283e-05
-2.42148e-08
-2.42148e-08
0.0518892
0.00735643
0.0300579
-0.0338148
0.0308004
-0.0626409
0.0206592
0.00318303
-0.0158681
0.00225088
-0.0141339
-0.0270917
4.09592e-73
0.0209823
0.0255249
-0.0318
2.92315e-05
3.53254e-102
-0.0382395
0.0815699
0.145251
-1.81313e-13
-0.00713566
-0.395909
7.16613e-05
0.00556804
-0.0296751
0.103673
0.077237
0.00467919
-0.0623524
0.00509448
0.0822436
0.0972281
-0.0151835
0.00255055
0.0358022
0.0727714
0.049412
0.00509447
-8.86606e-15
-0.138387
0.0884623
1.38235e-05
-0.0136805
0.0336161
0.057014
-0.0465006
0.0100541
0.0407455
1.37844e-321
0.031437
-0.0278081
0.0515223
-3.15769e-05
0.223513
0.088637
0.0431205
0.0116419
-0.0890917
0.0946911
-0.0298351
0.060388
1.49379e-05
-2.27443e-08
0.061093
-0.0738931
-0.0142584
-2.41014e-11
0
2.32678e-89
0.0841228
-0.0512253
0.0112401
-0.0136592
-0.220059
0.0116419
-0.11045
-0.000346592
-0.000251231
0.00495442
-0.000270709
-0.293998
-0.000329244
0
-0.012547
-0.0387191
-0.120613
0.0700558
-0.0539061
0.00715361
0.0797719
-1.7112e-05
0
-0.0277112
-0.0689243
0.0156629
-0.0699795
-0.0156808
0.0181915
-0.0227458
-1.9623e-08
-1.18895e-06
-0.0414002
-0.0471624
0.0404524
0.030073
-0.0660433
0.00775205
0.0497674
-0.0534854
-0.000336831
0.212806
-0.0327711
-1.02933e-06
-0.140798
-7.4235e-06
-2.86303e-06
-0.0725871
-0.0316497
-0.021166
-0.0516977
0.0616325
0.00259532
0.00738265
0.00495442
0.109814
0.0917182
-0.069227
-0.000195191
-3.70181e-12
0.0567424
-0.0126512
0.0206151
-0.122884
0.0032864
-0.0956906
-0.0854144
0.0196652
0.00845205
-3.87629e-09
0.285612
-0.0541535
0.0504821
0.00483851
-0.0236567
0.00337
-0.000336831
-0.135673
-0.0382571
0.00715651
-0.103093
-0.0957536
0.0241376
-1.48589e-09
0.00450574
0.0342245
0.233212
0.0642558
0.0102764
-0.0653633
-0.0142901
0.000582313
-1.78337e-05
-0.00295049
0.100809
-0.0255762
-0.00932321
0.0297213
-0.0202158
-0.055066
0.115377
-0.00645142
-0.000250087
-0.00887867
-0.520356
0.00753509
-1.81768e-14
-0.000254575
0.0579092
-0.000340506
0.102199
0.0337232
-0.0231015
-1.31743e-06
-0.065674
0.030073
0.0181915
0.0159878
0.0104729
0.0206151
-0.066392
-0.000243292
0.0853196
-7.07434e-06
0.0243802
0.0797719
-0.000438263
0.130119
0.0274317
-0.0316805
0.0120065
0.00176497
2.92315e-05
0.068718
-0.0633614
0.0128017
-0.00321572
-0.000336831
-0.0318
-0.0452927
0.0616194
-0.00991309
0.0463748
-0.0456232
0.025727
-6.27356e-05
0.00774237
0.011888
-2.69206e-09
0.0445205
0.0100541
0.0105297
-0.0132564
-0.0129929
0.0769551
0.0582124
-0.000252625
-0.000329244
-0.053441
0.0106579
0.00735695
-0.0329198
0.0292292
0.0997167
0.0448571
-0.00390929
0.0760052
-0.00295049
0.110881
0.000711488
-0.116429
0.0385221
1.06224e-321
-0.0358205
0.175469
-0.101208
-1.7742e-05
-0.0845016
-0.0225209
-1.50017e-07
0.044977
-1.86757e-321
-0.000244867
-6.04561e-06
0.055479
0.00318303
0.00450102
-0.0629468
-0.0124345
-0.000278833
0.0407455
0.169294
-0.000340862
0.0828111
0.00862934
0.078665
-0.00411998
0.0184054
-0.00282364
-0.232091
0.000666596
-0.0239378
-0.0920292
0.0752409
0.0243298
0.0247138
-0.0529286
-0.0854145
0.0157522
0.049607
0.002874
-0.0506077
0.0227903
-0.0284866
0
0.112695
2.32678e-89
-0.000340506
0.0533724
-0.00157238
-0.00972066
-5.4749e-07
-0.0992143
-0.0358381
-0.0226314
0.0986274
0.0353862
0
-0.00021318
0.181053
0.000356908
5.11043e-06
0.0292513
-1.86757e-321
0.000459185
-0.0670764
0.0872091
-0.00525642
-0.0233175
0.160984
-0.18038
-2.64819e-05
0
0
-0.0250398
0.165111
0.0350969
-0.000248431
-0.0196074
0.00219198
0.00318303
-0.0224645
-0.0254407
-0.0726251
0.0728506
2.29826e-06
-0.00573469
-0.021166
-0.01024
0.0163288
0.0098644
-0.0225209
-0.0293884
-0.0440093
-0.0156978
0.0428467
0.0106579
0.104088
-0.0772933
0.0294525
-3.56329e-07
0.00259532
-0.0530744
0.030073
-0.0337651
-1.65235e-05
-0.0023187
-0.0218751
-0.00885252
0.033055
0.0570939
-0.0443107
0.16681
-0.0141668
-0.128534
-6.61743e-07
0.0315005
-0.000254482
-0.0426509
0.344726
-0.0286644
0.0313265
0
-0.0868583
-0.0566229
0.0553175
0.0474135
0.00408176
-2.42148e-08
-0.000340506
-2.1046e-08
-0.0340581
-0.100645
0.000384777
0.00988678
-0.0189855
-3.70181e-12
0.0310836
-0.0621147
-0.0256694
-0.164013
0.00356588
-0.0890917
-0.0168485
-0.000290254
0.0351666
0.00839526
0
0.073782
-0.000200491
-0.0207684
0.0322088
-2.63336e-11
0.0389486
0.047558
0.0852138
0.0197473
0.192143
-0.00680473
-0.133051
-0.0375248
-0.000244332
-2.42148e-08
-0.0642244
0.172621
0.000428499
-0.000336831
-0.0327711
-0.0119367
-1.46365e-13
0.0763893
0.00732096
0.0139605
-0.000244332
0
-0.0378879
0.000357884
0.0301802
0.0504821
-0.000212553
-0.00027869
-8.99199e-322
0.00187821
-0.00771866
0.0115587
0.00404306
0.0483833
0.00209942
0.0301802
0.0310831
-0.172411
-0.0136805
0.0237896
-0.000246943
0.0828175
0.130126
0.0364311
0.00709502
0
-1.86757e-321
0.0227576
0.00753509
-0.0459595
-0.00713565
-1.56398e-07
-0.0700366
0.0516619
0.0300541
-0.0864618
-1.42118e-08
-4.63787e-08
0.0415477
0.0547521
0.0458553
0.016605
-3.81436e-09
0.0327752
-6.01162e-10
0.0344321
0.0148613
0.00131587
-0.0397687
0
-0.000346592
0.0324043
-1.50017e-07
-0.00756408
-0.00573469
0.000339971
-0.0124694
0.0364311
0.185638
0.173128
0.0190349
-0.0142231
0.00056353
0.047182
0.0687992
-0.000340592
-0.0898031
0.018401
-0.0552105
0.0134335
-0.0259002
0.0075917
0.0336846
0.00476577
0.000397548
-2.94599e-09
-0.00601338
-0.0224858
0.00170992
-0.0236722
-0.000252404
-0.0312998
0.00495442
0
0.00741036
-0.00027869
-0.0139684
0.0281044
-0.0498818
-0.0105733
0.0533534
0.028625
-0.0579619
0.0181915
-3.44735e-08
-0.0782014
-1.26364e-07
-7.06862e-08
-0.2052
0.0180894
0.179721
5.1107e-06
0.00738265
-2.68865e-05
-4.14568e-10
0.0421429
0.177805
0.00257233
0.0194695
0.0126441
0.324989
-1.48589e-09
1.07294e-05
-0.000270709
2.32678e-89
0.155059
-0.10051
0.081863
0
-0.00293972
-0.0037611
-0.000238628
0.00690306
-0.0161708
0.00797404
0
-1.64167e-08
0.00688043
-1.00284e-06
0.00318303
-0.00027869
-0.000261659
0.0407455
0.057153
0.044977
-0.00295049
-0.062348
0.0277298
0.0159114
-0.0359143
0.203083
-0.0169479
-0.0974342
0.00776599
0.0407455
-1.51052e-10
-0.081196
-0.152609
0.0557167
0.0613037
1.07294e-05
-0.00408579
-0.109916
0.0249878
0.00715651
0.0159371
-3.18428e-05
-0.0896375
0.031844
0.0323096
-0.0306172
-0.0832768
0.00331209
-0.0665009
-0.000267961
0.0118679
0.0309542
-2.52567e-06
-9.93401e-06
0.0108779
0.014637
0.00773365
-0.000346592
-0.037274
0.0337534
0.00341851
-0.127327
-0.00787602
-0.0390787
-0.0182174
0.00614759
0.0606418
0
-0.0278292
-0.0679069
-5.82425e-06
0.0252538
1.37854e-40
-2.36072e-10
0.00766382
0.00140654
0.0656267
0.00773405
0.0276091
-0.0641688
-0.0735602
0.0123914
-0.0860983
0.0476584
0.0659635
0.0206151
-0.0783628
-0.000248327
-0.0123892
-0.0227733
0.154219
-0.299939
5.1107e-06
5.87938e-322
-0.000340506
-5.38907e-05
5.08888e-322
-0.027709
0.00483836
0.00450574
0.0100541
0.114464
0.022907
0.0245841
-0.0835485
-0.0401524
-0.0813248
0.00362231
0.0154278
0.0072954
-3.27576e-06
0.0222131
-0.00941441
-1.35541e-08
1.66006e-321
-1.81313e-13
-0.000336831
0.00655593
-4.95711e-08
-0.000246091
0.0720265
-0.0402669
-0.0339902
0.0290312
0.00259532
0.34613
-0.0206635
0.00463598
-0.0857218
-0.00410706
0.032882
0.0562529
0.0297202
0.134386
-0.0123892
0.22086
0.0206151
-0.155855
-0.0260099
-1.07743e-08
0.0858347
-0.0669275
0.0866236
-0.0655178
0.0520579
-0.0391104
-0.0398821
0.00718926
0.190412
0.0110854
0.0231018
0.00271414
0.120995
-0.0443752
-5.09188e-08
-0.0023187
0
0.00425434
0.00735695
0.00361933
0.00404343
0.0143347
0.00341851
0.0138887
-0.0582575
-0.0392635
-0.0229935
-7.34355e-09
-0.000248431
0.0308329
6.81811e-322
0.0581645
0.00323312
0.00499059
9.58518e-05
-0.0279683
-0.0290823
0.00669362
0.0147084
-0.0842787
-0.000254735
0.0467906
-0.0726601
-2.64819e-05
0
-0.0735161
-0.0582819
0.0077602
0.0215971
-0.113507
-0.022174
-1.33036e-91
0.0467915
-5.57962e-07
0.0532701
-0.143177
0.0311633
0.0385221
-1.33026e-187
0.0547814
0.00132414
-0.0420693
-0.104649
-0.0491799
-1.46365e-13
-0.000336831
0.00675148
0
-0.104212
0.00698655
0.00751606
-0.00027869
-0.000492932
-0.00024824
0.0159871
-0.000346592
-3.71435e-14
-4.94295e-06
-0.0580035
0.00495442
0.0195781
-1.46365e-13
0.00291164
-0.0685484
0.0122702
0
-0.0913241
-0.0768549
0.00495442
-0.0161116
-0.12009
0.0467954
0.106186
0.143439
0.0231018
0.0408394
-0.0670646
-0.110496
-7.21336e-322
-0.0651838
-9.88131e-323
-0.0276722
-2.6658e-05
-0.00167867
-1.15611e-321
-0.0174541
-0.0114992
-0.0174664
0.00495442
0.00715361
-0.000139963
-1.55555e-05
-2.40438e-08
-0.0775658
-0.0214967
0.00434322
-0.0596184
0.0668207
-0.0711413
-0.0254623
0.00735695
-2.5197e-09
-0.014545
0.045881
-0.037887
-0.112227
-5.82425e-06
0.00339786
-0.0865271
-1.46365e-13
0.0708164
-0.00573469
-0.000246091
-0.0168752
0.0323998
-0.0622689
-0.054203
-0.0138049
7.07681e-05
-0.0355908
-0.000261373
-0.0767186
-0.0351055
-0.0159353
-0.0845307
0.0390988
-4.2834e-06
-0.176857
-0.0721602
0.0407455
-0.0258587
-0.0776106
-0.0286644
0.0205049
0.00404343
-0.0174533
-3.55929e-06
0.00513987
0.125516
0.011888
0.0469027
0.0525418
0.0482974
0.135707
0.011888
0.0074034
-0.201674
0.00513095
-0.0339809
0.137824
0.0101194
-0.0105791
-0.000233235
0.0620209
-0.0139684
-0.000254305
0.00715361
0
-5.57962e-07
-0.0141339
-0.059853
0.0305129
-3.11854e-12
-9.74912e-11
0.0428706
0.002874
-0.0284724
0.00322318
0.00988678
-0.00025219
-6.04561e-06
-0.231103
0.00753509
-0.021166
-0.00598287
0.0759701
0.00170992
0.00433068
0.030073
-0.0747526
0.0498483
0.103059
-1.50017e-07
-2.96363e-08
1.70792e-52
-0.0568778
0.016605
0
4.52117e-05
4.12001e-05
-9.88131e-323
0.0154278
0
-0.10187
0.0193127
0.0965379
-0.0321282
0.0488243
-0.0575876
-2.96438e-09
0.0272265
0.071693
0.0201632
0.030073
4.09592e-73
-0.000246091
0.00785291
0.131337
0.0338634
-0.00295049
0.00715361
-0.237135
-1.0996e-07
-0.0130524
0.00506372
-1.19259e-05
0.000711488
-0.105664
0.13822
-3.18773e-05
-0.0876731
-0.0564612
7.00835e-103
-2.1046e-08
0.00495442
-0.136473
5.86419e-102
0.00862934
0.151717
0
0.002874
0
0.404648
0.00323312
0.0583699
-0.00812103
0.0593168
-0.000252625
0.00255965
-5.09188e-08
0.200309
-0.000340506
-0.308371
-0.0737347
0.00693415
0.275861
0
-0.0138344
-7.34355e-09
0.0123914
-0.0467325
0.0143288
0.0319006
0.000562038
-0.045614
-0.0632281
0.0743282
-0.221917
0.301717
4.38015e-06
0.00437047
-0.00259921
-0.155503
-9.88131e-323
-0.0978424
-0.139899
0.00456628
0.169827
0.0887045
0.0219849
0.0206454
-1.9623e-08
-0.0028559
-0.000340506
0.00849361
-0.0279562
-1.0996e-07
-0.00854928
-0.156476
0.185223
0.00670468
-0.00013852
0.135699
0.00450574
9.72778e-05
-0.121895
2.47105e-05
-0.125472
3.87772e-05
0.011888
0.00209942
-6.30297e-08
0.0161604
0.0181915
-0.0382176
0.00495442
0.0205406
0.00669576
0.020384
0.0123373
-0.0797077
0.00348568
0.0509327
-0.0333769
0.0509203
0.00209942
-0.0174664
-0.000498838
0.002874
-0.000119945
0.00775652
-0.000661545
0.0924375
-0.000246943
-0.0135937
0.0338634
0.176826
-0.0930311
-1.81768e-14
0.00265825
0.0655272
0.0724593
0.00735695
0.0439214
0.013593
-0.0189903
-0.0333769
0.00824636
-0.0394394
0.0231018
-0.005955
0.144403
0.0342505
0.0122534
0.00748752
-0.000261302
0.177316
-0.0225209
0.0986274
0.0353715
0.00337676
7.95446e-322
-4.51975e-07
-0.000195131
-0.00970524
0.0300579
0.0494917
0.0709517
0.0361907
-2.45975e-07
-3.56329e-07
-0.0377466
-0.0478791
0.0364311
-0.00573475
-0.0141674
0.00318303
-0.0361737
-0.00416546
0.0677678
0.0726501
-0.000217501
-0.0117616
-1.15211e-12
0.0146395
-8.09129e-07
-0.035156
-0.0136131
0.0336846
-4.18244e-14
0.0247043
-0.0892467
0.0608737
0.00475397
-1.59433e-08
-8.99199e-322
-2.12813e-11
1.37854e-40
0.0681831
0
0.0208573
-0.0629479
0.0126744
-4.62987e-05
2.47105e-05
-0.25523
-0.12965
0.147673
-0.0394399
0.0308004
-0.0178804
0.123865
0.00728674
-7.07434e-06
0.0759712
-1.15211e-12
-0.078344
0.0129744
-0.0282308
0.00495442
-0.0779209
0.301784
0.0258624
0.00899084
-0.000336831
-0.00703589
0.00753509
0.0863285
0.00393854
-4.18244e-14
-0.0339809
-0.0178883
-0.0676093
-6.07505e-08
0.00387175
-1.66557e-07
0.00753509
0.00107217
-0.000336831
0.000132638
-0.0845016
0.0214235
0.0224723
-0.00713472
0.0334009
-0.030188
0.0319052
-0.000336917
0.0281351
-0.0330601
0.160962
0.0243933
-0.00757068
0.0222407
-0.0198748
-0.0449359
0.088751
0.156065
0.0181915
0.011888
-5.99348e-06
-0.000250087
-0.0394279
-0.0905944
-0.00642397
-0.00211747
-1.48589e-09
-0.0288454
0.0113674
-0.000346592
-0.00526919
-0.0267829
-0.0180423
-0.000336831
0.00495442
0.0072954
-0.00295049
-3.11854e-12
5.08888e-322
0.0547814
-0.0301603
1.27385e-73
6.81811e-322
-0.0256595
0.0368832
6.81811e-322
-0.0207684
-0.158812
0.00172711
0.0377255
-2.93797e-91
-0.00293945
-5.03323e-10
-0.0118122
0.0265238
0.0129744
-0.0766146
-0.0511515
0.0374579
0.0815414
-0.000251401
-0.000346592
-2.39545e-92
-0.0691581
0.0181915
-0.000426374
0.129213
-0.000234664
0.0432133
0.0333999
0.184136
0.00862934
-0.0290823
0.0143288
-0.0203487
0.0752409
-0.0856829
-0.0282308
1.4935e-05
-0.0904711
0.0329862
0.00487045
-0.0718713
-0.0225209
-0.0276179
-0.0681116
0.0156546
0.000459185
-1.33892e-321
0.0276835
-8.79005e-05
0.101496
0.10211
0.020384
-0.0151759
0
0.0763893
0.00476523
-0.115664
-0.165078
0.00592563
-0.00259921
0.00742994
0.00393854
1.37844e-321
-0.0224773
-1.42118e-08
-2.97865e-05
0.00715361
-0.00806677
0.0309421
0.00492378
-2.69206e-09
0.0157522
0.00495442
-0.00659582
-1.81768e-14
0.0430457
-0.0136805
-0.0455938
0.107217
-0.073139
0.0547521
0
-0.050875
0.178376
-0.0501026
-0.000329244
1.37854e-40
-0.016979
0.129833
-0.0207709
-0.0264232
-0.0231107
-0.00843067
0.0143288
0.033379
-1.5543e-05
-0.000340506
0.0249887
0.0310826
-0.0535342
0.0362723
-0.0253674
-2.71083e-07
-0.0807954
0.00318303
0.047806
0.0799841
0.0368832
-0.0634184
-0.000636679
-0.0944084
-0.0601167
0.051031
0.0227903
0.00986093
-2.42148e-08
-0.219248
0.0555369
-0.0318
3.53254e-102
-0.104721
-0.000254305
-0.0698056
-0.265312
-1.17069e-05
0.00351022
1.52666e-321
-0.0627943
-2.38138e-05
0.0162701
0.0881888
0.00331093
-0.02013
0.0347591
0.174925
3.48956e-22
0
-0.012506
-0.0123857
0.0227903
0.00318303
-0.0193656
-1.33892e-321
-0.191719
-0.0136099
0.105571
0.0563859
-1.75929e-07
-0.0301129
0.0568722
0.171353
-1.89545e-07
-0.00295049
0.00318303
0.014792
0.000169794
0.00495442
0.0192963
-0.00958873
-0.00757068
-0.0351728
-0.021634
-0.0540627
-0.000259075
0.0364311
0
0.0185507
0.00187821
-1.46365e-13
0.0228171
0
0.210541
1.45452e-24
-0.0231107
-3.97487e-05
0.0028164
-0.000340506
0.00318303
-1.81768e-14
-0.00227632
-1.69882e-08
0.0307927
-0.033964
0.0584694
0.0364311
-0.117431
-0.0180772
0.0983281
-0.0685697
0.609409
0.0399367
0.00393854
0.0462491
0.16927
-2.5197e-09
-0.000329244
-9.76296e-07
0.0136068
0.00183697
1.07294e-05
0.000133126
0.0427235
-0.000249897
-0.053441
-0.0174664
0.149448
0.000736786
-0.00713563
0.0714299
-1.66557e-07
-0.0139684
0.0100715
-0.014716
0.0351666
-2.96438e-09
0.00918768
0.0241376
0
0.062092
0.00715361
-0.0499142
0.0430772
-0.0850659
-0.0257789
0.0897467
-6.07505e-08
0.0630361
-0.0209889
-0.00266529
0.00614759
0.27402
-0.00259921
-2.27443e-08
0.0113947
-0.12562
-1.61379e-05
-0.022438
-2.27443e-08
0.00361933
-0.000713018
-1.81768e-14
0.0048399
0.097619
-0.0602916
0.0597209
-0.0204033
0.088854
0.0793111
-0.000911422
0.00771817
-1.89334e-05
-0.00952851
0.0375885
0.0466865
0.0742239
0.0606309
0.0283895
-5.99348e-06
0.0072954
-0.000270769
-0.151704
-1.08692e-05
0.000522969
-0.0339902
-0.0173547
0
0.0022511
0.04788
0.00456628
0.00165707
0.00145193
0.0593728
-0.0580033
-0.0601207
0.0984921
0.104252
-0.0305695
-0.055373
-0.0193557
0.148243
0.000131549
-0.067593
0.0419171
0.0217936
0.0301106
0.135453
-0.0925014
0.146577
0.030203
-0.0483493
0.0177065
0.41247
-0.0218334
-0.0578113
0.0113926
0.014637
-0.0105683
0.00715361
-1.10266e-06
0.015973
-0.0172731
-0.00144928
0.0576548
-0.065028
0.038797
-0.00280575
0.0276642
0.00571006
-0.0361737
-0.0627943
-0.0333769
0
-0.0195392
0.00735695
0.0891107
-3.06988e-06
-0.0309521
0
-5.03332e-08
-0.0669817
0.0368674
0.0744592
-1.11325e-05
0.00495442
-0.000307866
1.52995
-0.060481
0.209272
-0.0726436
0.0680906
-1.26364e-07
-3.92824e-11
-0.0495493
0.00318303
-0.0589259
-1.35541e-08
-7.81129e-08
0.00566136
-0.0159224
0.310661
0.0163586
0.0381463
-0.00025219
-0.0170483
0.0627403
0.0138887
0.0364311
-0.000120729
-0.0286644
0.0417224
-0.085418
0.157249
0.00495442
0.0415794
0.00752571
-2.96363e-08
-0.0633545
0
0.0101633
0.0801689
-0.0779613
-0.0238723
-0.0668837
-0.0790405
-0.0388629
0.0368832
0.0952119
0
-4.63787e-08
-1.46365e-13
0.0572554
-9.53547e-322
0.022347
-0.0336182
-1.00295e-321
-5.42002e-07
-0.0116312
-4.51739e-06
0.0302322
-0.166081
-0.00975406
0.0221693
3.53254e-102
0.151518
-0.0288208
-0.000340506
0.00360171
0.0680973
0.00728934
-0.129595
0.013254
0.0257419
0.0643863
0.0434959
0.0194695
-0.000126544
-2.72702e-10
0.0177489
0.00393854
0.0836779
-0.00848047
0.0476584
-9.31967e-14
0.0366633
-0.000233235
-0.130607
-0.0235998
0.0459313
0.0710202
0.0273977
0.0300435
-0.0256694
0.0181915
-0.128844
0.0015828
0.016605
-0.0318
0.00351022
6.81811e-322
0.0249878
-0.141287
-0.0568529
-0.00496913
-0.0251119
0.0273144
-6.70787e-07
-0.021166
-0.0204033
0.0722433
0.0514892
0.00487486
-0.000246091
-0.000340506
0.0693759
0.0157522
-0.00548542
-2.40698e-06
0.00970558
0.107076
0.00988678
0.0208573
-0.0217531
-0.0281184
0.00297418
-0.047192
-0.0738931
0.0639239
0.064355
0.107458
0.0192575
-0.0162667
-1.26481e-321
8.79437e-322
-0.0155159
-0.271753
-0.0320491
-0.0880846
0.0138887
0.0030878
-0.0423288
-0.02308
0.0790145
-0.000255805
0.00635921
0.0327718
-0.1
-0.2023
-2.1747e-05
0.112473
0.00773405
1.45452e-24
-0.0494537
0.0157521
4.40436e-06
-0.000318515
-0.0204824
0.00187821
0.0405608
0.0555477
0.131706
0.000584462
0.000578116
-0.0123892
0.00450574
0.00592563
-0.0699141
0.0579092
-0.0724435
-0.0139684
-0.023979
-0.0898031
-0.0106663
-9.51471e-05
-0.262686
-3.15769e-05
-9.09081e-322
-0.0379337
0.166655
-0.0619301
0.216873
0.00875661
0.249044
-0.00408579
0.00208356
0.0860452
0.0294525
-0.000233235
-0.0632237
-0.0369861
-5.99348e-06
0.039418
0.093348
-1.64167e-08
0.0441658
0.0183581
-0.0318
0.018401
0.00881075
6.81811e-322
-0.0178883
0.0332662
0.0508816
-2.12813e-11
0
0.0399107
-6.30297e-08
0.0162701
0
-0.0814075
0.00780284
0.0222984
0.00495442
-0.0785925
0
-0.0282308
-3.56329e-07
-0.0404954
-7.52415e-06
-0.208422
0
0.0633226
-0.000677337
-0.000346612
-8.56815e-08
-5.09188e-08
-0.079167
0.0772369
-0.0755064
-7.57942e-12
-0.000329244
-1.64167e-08
0.0917182
-7.6417e-05
-0.0401957
-0.000252625
0.104152
0.016605
-0.000254742
-0.000865605
0.00150999
0.0236206
0.198451
0.132019
-0.148259
-1.18895e-06
-1.51052e-10
-0.000340506
-0.0431327
-0.0164319
0.0413248
-0.000911398
-0.00610435
0.0419171
-3.44735e-08
0.0904872
-0.0324084
0
-0.0602916
-9.09081e-322
-0.0161708
-0.0298901
-0.000666075
-0.0511645
-0.000599016
-0.0159421
0.0637788
-0.0328384
0.0554473
0.168886
0.011888
0.00740452
0.030073
-0.000340506
0.00675148
1.54148e-321
4.40436e-06
0.0772627
-0.0126568
0.0590291
-0.000353706
-0.0553489
0.201759
-0.0363747
-2.41014e-11
0.0600346
0.0732451
-0.0415365
5.87938e-322
0.0516458
-0.0174664
0.0386831
0.0441658
0.0863285
-6.98176e-08
0.030432
-7.34355e-09
-0.00193863
-0.093848
-0.0106663
-0.0740412
-0.0139684
0.0158197
-0.0314144
2.1623e-10
1.07294e-05
0.12209
-0.000257157
-0.0768549
0.0134547
0.0206753
0
0.00379354
-0.0808013
0.00387175
-0.00332871
0.0925683
0.0369776
-0.0995497
-0.00748816
-0.000336831
0.024769
-1.07743e-08
0.362999
0.0444502
0.0196652
-1.64167e-08
0.047021
0.067478
-0.044794
0.00824652
-0.0598045
-0.0180474
-0.0751303
0.027464
-0.0139684
-0.000240068
-0.0327711
-0.00193863
-9.42856e-07
0.0795895
0.00495442
-0.105786
0.0340671
0.0015828
0.0435642
0.0483265
0.020819
0.0181915
0.013861
0.0324043
-0.00027869
0.00669576
0.0441658
-1.07743e-08
-0.057921
0.0705015
-4.42583e-13
-0.0126512
0.0549204
0.0368832
0.0139719
1.37854e-40
-0.0290823
0.098282
-0.0545286
0.00556804
0
0.000172338
-0.00013852
0.00495442
0.0683906
0.0480158
0.0419056
0.00402998
0.00756454
-0.060388
-0.00349056
0.0371421
0.00365068
0.0191377
0.531547
-0.0491023
0.0123914
0.0429794
-0.0481988
0.0193137
-0.00193863
0.031437
-0.0820514
-0.0173547
0.0375056
-0.0875056
0.122608
-0.0265404
-0.022819
0.0225467
0.0277428
-0.0210639
-0.0207684
0.0138887
-5.49253e-08
0.0184814
-4.63787e-08
0.0294525
-0.00027869
-0.100234
0.0705257
-0.0559293
-0.00026753
-0.000278836
-1.26481e-321
-1.27962e-08
0.00172711
-0.000255027
0.0457742
0.00487045
-0.00011397
0.0205049
0.009853
0.0968381
-0.000340506
-0.00334002
-0.143781
0.0167176
0.124479
-0.123715
0.00715651
0.192594
0.00515355
0.038683
-1.48589e-09
0.0106466
-0.021166
-0.000285626
-0.0201535
-0.000270709
1.37844e-321
-0.00025219
0.172009
0.0441245
-1.50017e-07
0.00495442
0.156368
0.0224125
0.00495442
0.071395
0
0.147462
0.0190111
0.00515355
-0.0350999
-0.354806
-0.0298351
-1.27962e-08
-0.0136805
-0.000503523
-0.0667335
0.0194501
0.0138887
0.00592721
0.0496894
-0.0421499
0.0085958
0.00732707
0.0619688
0.0227576
-7.06862e-08
-0.0435319
-0.084595
-0.102865
0.367376
-1.46365e-13
0.00318303
0.00128519
0.0225467
-0.0141447
0.0793052
0.0694327
0.0913623
0.0208226
0.326093
-0.210585
-4.18244e-14
0
-0.0128124
0.00591113
-1.0996e-07
-0.0538255
-2.52567e-06
0.178519
0.0616194
-0.00965145
0.0181915
0.0031821
0.0210237
-0.10392
0.00503203
-0.0612197
-0.01053
0.589548
-0.00713563
0.0410243
1.45452e-24
-0.0721602
-0.0743878
0.283106
0.00777845
0.0106579
-0.409852
-0.01852
-2.40438e-08
-0.0220687
-0.000254575
-0.0456161
0.0332301
0
0.0359951
0.00209942
-5.49253e-08
-0.00919618
-1.65235e-05
0.0181915
-0.154772
0.00735695
0.0352631
0.00728647
0.0168055
0.00720585
0.0413085
0.0455324
0.0228171
-0.00295049
-0.022438
-0.000346592
-0.00220569
0.158768
-4.23106e-07
-0.125727
0.0279168
0.104379
-0.0254071
0.0458553
-0.0758934
-0.100203
-0.0384382
-0.0415365
0.078248
-0.0193183
0.0720265
0.172211
0.00404343
0.0717765
0.00351022
0.0278336
-0.0934763
-2.72702e-10
-0.0214449
0.0404402
0.234429
0.0413774
0.0028164
0.0310836
0.0180894
-0.0141569
-9.45132e-09
-3.8883e-80
0.00495442
-0.0282266
0.0590456
0.0744924
-0.0126096
-0.0116342
0.0843886
0
0.0556061
0.0384908
-6.00554e-06
-0.0144973
-1.14106e-15
0.044977
-9.53547e-322
0.00340859
-0.00011397
0.0717765
0.00756454
0.0206151
-0.000251401
-1.56125e-321
0.0244417
-0.0070054
0.002874
0.00339786
-0.0204033
0
0.00988678
0.0475485
0.0278336
1.0723e-05
0.313889
-0.00101868
-0.0465006
0.0874072
0.0423598
0.0333999
-0.0289917
-1.14772e-15
-0.0333769
-3.55929e-06
0.196031
-0.231103
0.0227903
-0.050875
-1.48589e-09
-1.65235e-05
0.495745
-0.000246091
0.108868
0.000361509
-6.04561e-06
-0.0394394
-0.000240136
-0.0568529
-0.000254735
3.48956e-22
-0.153106
2.28499e-98
0.00495442
0.19889
0.0566298
0.113237
0.256478
0.00715361
-0.00713563
-0.140471
-0.0343505
0.0417224
0.112721
-0.0465869
0.0300579
0.0138887
-0.00376049
0.00480081
0.0195781
-0.000601045
0.0173228
1.70792e-52
-5.03332e-08
-1.26067e-07
0.0830329
0.0063685
-0.000267524
0.0415477
0.0184668
-0.0123892
-0.0258389
0.0135962
-0.0498818
0.0157461
1.37854e-40
0.00591096
-1.37267e-05
-0.000329244
-0.0579619
-0.200315
-0.00815781
0.00232735
-3.15769e-05
0.00232727
0.0302322
0.0227576
-0.0726391
0.0227576
0.0244417
0.0523629
0.0457147
-0.0100002
-0.000243292
0.00495442
0.0765808
0.00761093
-0.00573469
-0.149682
-0.00309942
0.0896521
0.00495442
0.00470319
0.1701
-5.09188e-08
-0.0987498
-0.0721602
0.0296919
0.0808729
0.0222407
-0.0394394
0.0532168
0.094829
6.89717e-06
-0.0256394
1.45452e-24
-5.57664e-07
-3.53992e-06
-5.57962e-07
-0.0320603
0.0867415
0.0543962
0.00267032
-9.76296e-07
-0.0718713
0.0549355
0.0728506
-3.27576e-06
-0.15102
0.047196
-0.00025431
-0.027709
0.018401
-0.113463
-0.0868583
-1.26481e-321
0.00592721
-0.0433451
0.0102379
0.0234168
-9.76296e-07
-3.11854e-12
0.0139953
0.135623
-0.0679833
-0.19161
-2.36072e-10
-0.0543182
-0.000247608
0.030843
-0.00711536
0.0582741
0.00740357
-0.0580035
-0.059041
-0.0313923
-0.0671682
-8.56815e-08
0.00244327
-0.000336831
0.13209
0
0.0582124
0.00429448
-0.287887
-0.158018
-0.0302123
-0.0764205
0.011888
0.000384777
0.0997662
0.00715052
-8.32352e-08
-1.46365e-13
0.20044
-0.00295049
0.0162118
0.0497674
0.0243281
0.0194324
-0.0357939
0.0238324
0.020384
0.0523689
1.70792e-52
0.0309755
0.0342594
0.00495442
-0.00027869
0.0551501
0.0725138
-4.62747e-05
0.028039
-0.0433474
-0.0416723
0.0510516
-4.23106e-07
0.067478
-0.0182593
0.00339786
-0.00027869
-0.0255762
-0.0434445
-0.135758
-0.0794449
-0.014867
-6.27356e-05
0.030899
0.0329966
0.050457
0.00351022
0.0418721
-0.0140605
-0.032031
-0.000607302
-0.022819
0.010211
-0.0402669
0.016462
0.0523689
0.0308004
0
0.003989
-9.31967e-14
0.0227898
-0.0594231
0.0754485
0.0501675
-0.0288999
-2.96363e-08
0.00495442
0.050457
-0.030215
0.00556804
0.0309421
0.0673928
0.0174203
0.000248335
-0.0342222
0.1077
0.0985464
0.0300541
0.00564216
0
0.015973
0.0205049
0.0363278
0.235421
0.00898905
-8.86606e-15
-5.09188e-08
0.0729484
-0.00153341
0.00703876
0.0073089
-1.55816e-253
0.00780284
0
-0.103115
0.0637858
2.06816e-05
0.0092456
0.0106579
0.030073
0.0309421
0.0170991
-0.0511491
-0.0227733
-0.0227733
0.0969452
-0.000336831
0.153455
-0.0358633
-0.111752
-0.149048
-0.00608137
0.133662
0.0372558
0.00259517
-0.0402669
-4.23106e-07
0.0193698
0.0832423
0.00397198
-0.0795004
-0.00295049
0.0197981
-0.0183502
0.00738338
-0.089191
0.0308004
-0.00132625
-0.0568529
-0.000346653
0.332579
0.160109
0.00139786
-1.86757e-321
-5.49437e-07
-1.64167e-08
-0.187468
-0.0333769
-0.236672
-0.0162119
-0.0225209
0.0705257
-0.0265501
0.0307927
0.00495442
0.0253265
0.00450574
-0.000336831
-0.000251401
-0.00022281
-0.0327711
0.040261
0.0906192
0.0841657
0.0608737
0.0420939
0.0153736
0.00521956
-0.0586671
0.144289
0.138768
0.0720265
-0.0556829
0
-0.0876209
-0.0602303
-0.101409
0.0071527
-0.0129017
0.00350983
0.130777
8.81678e-05
0.0497674
-0.296271
0.0181915
-0.0118122
0.0889783
-0.0575349
-0.10161
-1.69882e-08
0.00393854
-0.108503
-0.0708398
-0.0273529
1.27385e-73
-0.0429958
-0.0738931
0.0232495
0.0154221
-1.51052e-10
-0.249301
-4.95711e-08
0.0917182
2.32678e-89
-1.81768e-14
-0.0186544
0.0585529
0.0580183
-0.012363
0.00712146
-0.0276179
0.0103669
-0.0278292
0.00348568
-0.0111143
0.0646764
0.0138887
-0.164386
-0.100773
0.0192834
0.00817879
0.120718
0.0330196
6.81811e-322
-1.48589e-09
0.0935501
-0.0573383
-0.0537883
-0.000254324
-0.0320491
0.0350629
-0.0028559
-0.0173547
-0.000233235
-0.185962
0.0222407
-8.56815e-08
0.00038138
0.0368832
-0.00522856
-0.0580403
0.0310826
0
-1.35541e-08
-0.00189076
0.0751768
0.0417224
0.0131362
7.21336e-322
-0.0922226
0
0.112597
0.0760486
-2.52567e-06
0.115864
-0.0529286
-0.0119524
-0.000263273
0.00317316
0.0539274
-1.81313e-13
-0.000340506
0.0626047
-0.0483099
-0.021166
1.37854e-40
-0.108904
0.0974923
0.112421
0.0111082
-1.64167e-08
-1.65235e-05
-0.000879913
-7.57942e-12
-0.000247608
-0.0220888
0.247176
-0.0328384
0.000719526
-0.0535342
0.0195764
-0.204805
-0.0324963
-0.00298634
-4.2834e-06
-0.0398513
0.00814795
0.00363222
0.0207595
0.00408176
0
-0.0105791
0.0174346
-0.000119945
-0.00025431
0.0925912
0.0717765
-0.0340581
0.00393854
-0.00757068
0.000113568
-0.0161708
0.0196652
0.000152397
0.00592721
0.194598
-0.000506775
-8.26643e-06
-1.48589e-09
-0.000240136
-2.40438e-08
0.00339786
-1.50017e-07
-0.0626409
0.0397442
0.00674819
0.00702609
0.0228312
-0.000346592
0.0317006
-2.39545e-92
-0.061671
0.0549542
-8.86606e-15
-6.27356e-05
0.0322251
0.0335785
-0.147459
-0.0282308
0.0385515
-0.000340506
-0.021166
0.033379
-1.03806e-05
-6.27356e-05
0.0539205
-2.28752e-321
-0.0478639
-8.32352e-08
-0.0139684
-1.14772e-15
-0.121347
0.318724
-0.138138
-9.74912e-11
-0.00713563
0.0342594
-0.114943
-0.00670799
0.00232735
-0.00787602
-8.37344e-07
-4.42583e-13
0.00483851
-0.028226
0.135918
0.00038138
0.00495442
-1.00295e-321
-0.0357433
0.031437
0.0415477
-0.128013
0.0386653
0.0415794
0.0100541
-0.000233235
0.000397548
0.00348568
-0.0119283
-0.0741241
-0.0142242
0.00172711
-5.38907e-05
0.00490999
-0.0136805
0.031437
0.260227
-0.000120729
0.0237896
0.00248609
-0.0227169
-0.0214449
-0.0193183
0.0336846
-0.0133247
-0.106794
0.104059
0.0123914
0.319013
0.0225739
-9.02896e-05
0.028039
-0.0860429
0.030899
-0.0900119
-0.0604044
-0.177154
2.28002e-102
0.0863595
-0.012698
-0.000254492
0.00499059
-0.000329269
0.000275652
-0.0334594
0.00495442
1.27385e-73
5.1107e-06
0.102723
0.0717394
-6.28579e-05
0.101963
-0.0377466
0.0801141
3.48956e-22
-0.0786809
0
0.122407
0.00450574
-0.000261373
-0.0315655
-1.00284e-06
-0.00236748
0.0802313
0.031437
-6.30297e-08
0.00899059
-1.69882e-08
-0.0471624
0.0071527
-1.0996e-07
0
-0.000136097
2.20783e-05
-7.92143e-06
0.0952119
-0.145795
-0.000200491
0.016605
-0.0182174
0.00614759
-6.91944e-08
-0.0792743
0.0106579
0.139602
-0.0328384
0.0469725
0.0311079
-0.15143
0.00495442
0.119522
-3.56329e-07
0.00146383
-1.01283e-321
-6.00554e-06
0.172118
-0.0228439
0.00671914
0.284274
0.0157769
0.0243933
-0.0613788
-7.52415e-06
0.042599
0.0181915
-0.000329244
0.0782703
0.0739633
0.0666433
0.0486242
-0.0231107
0.0609022
-0.00062086
0.0181915
0.000714029
2.32678e-89
-0.0028559
0.0689265
-0.000346592
0.0032899
0.0545135
0.00259532
-3.71435e-14
0.064785
0.00725629
-6.25744e-06
-2.83736e-09
0.0729645
-0.0140311
-1.03806e-05
0.030899
0.00317316
-3.15769e-05
0.0359951
0.0190777
-1.14106e-15
-0.0173547
0.0518766
-0.060181
-0.015397
-0.114964
-0.0543182
0.0096243
0.00495442
0.00855812
0
-0.129595
-1.33036e-91
-0.0618605
0.00591113
-0.0218593
-0.027709
0
-0.0138468
-0.0845016
0.00986136
-0.000329244
1.55538e-12
0.0477228
-0.0214969
0.0431498
-0.0403231
0.0102655
0.073404
-0.0616545
-0.0017676
0.00305037
0.0824087
-7.57942e-12
-0.0434694
-0.0551324
-0.000163474
0.0114173
0.0997394
-0.0178883
-2.1061e-06
0.0114055
-6.70787e-07
0.212628
-0.0865557
-0.00573469
0.00380657
0.000107351
0.327068
-0.00349039
-0.000246091
0.0733952
0.000655569
-0.000252123
-0.000506979
0.0407455
0.00753507
-0.0461005
-0.000248327
-2.1046e-08
0.0128982
-0.00023508
0.108262
0.00372279
-0.0837744
0.108868
-5.38907e-05
0.0299619
0.00756454
0
-8.93434e-13
0.00233685
0
-1.01283e-321
-0.0377466
0.0586759
-0.000340506
-1.26364e-07
-3.70181e-12
-0.0148461
-0.0686965
0.245006
0.00401697
-0.0419
0.162022
-0.0141339
0.000134358
0.00643297
0.0196652
-0.0369044
0.0471158
0.0115529
0.00738338
-0.0658854
-1.23917e-92
-0.0706042
0
0.0867849
0.00738265
0.00487045
0.0336846
-0.101418
-0.000247608
-0.000251401
-9.14633e-08
-0.0978601
-0.190209
0.00495442
-1.33036e-91
-0.05866
0.176853
-0.180947
0.0219395
0.0237896
0.0351487
-0.0355035
-0.158024
-6.00554e-06
0.033904
0.00229125
0.00509448
-0.0629005
0.00950388
-0.000157684
-0.146531
0.0072954
0.000237866
0.0407455
-1.17069e-05
0.0241376
-0.0613991
0.159787
-6.25744e-06
0.00331209
-1.86757e-321
-0.0291304
-0.0357033
-0.000239438
-0.0318
0.00495442
-0.0276179
0.00545924
-0.0101381
-0.0663653
-0.0181199
-0.0276722
0.030899
0
-6.61743e-07
-0.0467795
0.00601997
-0.0511491
0.0733559
-0.315871
0.0848592
-0.0655388
0.0882012
-0.0521081
-0.000246091
0.181258
0.0408394
-0.045614
0.011888
-0.0126096
-0.0223676
-0.00185349
0.0241376
0.000562038
0.0311156
-0.000274869
-0.000244867
-1.48589e-09
0.0380679
-0.0580403
-0.0224963
0.0387022
-2.5197e-09
0.00351022
-0.033737
0.0026205
-2.51283e-05
0.12744
-0.0247617
-0.000346592
0.196069
0.0407455
0.016605
0.00150999
0.00330194
0.0208573
-0.0052093
-0.0475366
0.0857778
0.0109863
0
0
0.0602691
-0.000340506
0.00775652
0.00042939
-0.0716812
-0.001421
0.0166936
-0.0433967
-1.00284e-06
0.0474135
-0.0736195
-0.000245808
-1.48589e-09
-0.0178883
0.00703356
0.042599
0.28774
-1.51052e-10
-0.10363
0.216773
0.286723
0.0335785
-1.23917e-92
0.00614834
0.0219395
0.0336846
-0.0512115
-8.20287e-05
-0.0117616
0.0406156
-0.0269618
-0.00013852
0.0493047
-0.000290063
-1.73756e-08
-0.0713883
-1.09253e-08
-1.89545e-07
-0.000290009
-7.48595e-07
-0.133697
0.0587535
-0.00013852
-0.00295049
-0.128592
-0.000278836
0.0025234
0.00209942
1.4935e-05
-0.0355908
-1.76039e-07
-0.0141447
-5.03323e-10
-0.0337148
-0.000250272
-1.64167e-08
0.0411031
0.0938382
0.00655593
-0.000241686
-0.095592
-3.56329e-07
-0.0358205
-0.000278836
0.0581646
0.0164953
0.000320429
-2.42254e-92
0.174361
-0.000329244
0.069818
0.0109536
-0.0310301
-0.0203694
0.00988678
-0.127806
0.0341638
0.0107634
-0.00573469
0.00753509
-0.0174664
0.0265571
-6.00554e-06
0.038436
-0.0181195
1.37854e-40
-0.0133247
0.030899
-0.00812725
0
-0.03512
-0.0166693
1.70792e-52
0.00495442
0.0693178
0
-0.0231107
-0.0268437
-0.0138344
0
0
0
-5.03332e-08
-8.86606e-15
-1.5543e-05
0.134848
0.00981566
2.32678e-89
0.00715696
-3.73895e-12
-3.8883e-80
0.110333
0.0390988
-0.00698382
0.0553907
0.0581793
-2.02286e-06
0.0100541
-0.269567
-9.28843e-322
-0.000250599
0.020384
-2.41014e-11
-5.09188e-08
0.0028164
-5.09188e-08
0.0467954
-0.658493
-6.00554e-06
0.0544044
-0.0474842
-0.0598045
-3.56329e-07
-0.0105257
0.0327752
-0.0776933
-0.000244332
0.581786
0.0619215
-0.0768549
0
-3.92824e-11
0.240184
-0.130073
0.00680986
-0.0323957
0.00862934
-0.00445794
0.0206151
0.05207
0.00764673
0.0302322
-0.0145028
-0.0406322
0.0122874
-0.000200491
-9.51471e-05
-0.0141339
-0.00193863
0.00495442
0.0073089
0.000133126
-6.30297e-08
0.000241012
-0.0436957
0.0229094
0.0259235
-0.000242314
0.0412972
0.00715651
0.112569
0.0120856
-0.00535824
1.55538e-12
-6.39003e-07
-0.0207684
0.00509448
0.0119067
-0.0251712
-0.0474102
0.0482878
-0.000248353
0.0407451
0.00698655
-0.0150894
-1.46365e-13
0.067478
0.0192963
-0.000278836
0.0158383
0.00735695
0.0120065
-0.00286085
0.0605332
0.0297038
0.0440091
0.0694062
-0.0136592
-0.0629447
0.267104
-1.64167e-08
-0.000346592
-0.0963617
-5.52033e-06
0.0516292
0.00705361
0.127614
-0.0826168
0.0242114
-0.00027869
-3.8883e-80
-2.79036e-14
0.0237896
-0.0161212
0.06616
-1.22238e-07
-0.0318002
0.0225467
-0.0768549
-3.8883e-80
-2.25732e-06
0
-0.0738725
-0.0437795
-0.0382739
-5.57664e-07
0.0181915
-0.000270755
-0.0660589
-0.0298351
-0.000278836
-0.0561029
-0.0738931
-0.000485455
0.0123914
-0.0648079
0.00495442
-1.32267e-06
-6.25744e-06
0.00209942
0.0887921
0.000774266
0.0783592
0.0315184
0.0275075
-0.03801
-0.000329244
0.000437493
-0.0141447
0.0146395
-0.0269082
0.113791
-0.00573469
-2.41432e-11
-0.0545286
0.0467954
2.32678e-89
-0.0238723
-0.0546554
-0.000246106
-0.00470832
-1.07743e-08
0.0183444
-0.000329244
-0.112671
-0.0141636
-0.0559293
0.0015828
0
0.0180894
-5.03323e-10
-0.238855
0.0445001
3.48956e-22
-0.15316
0.0361005
0.126792
0.0222875
0.0963249
0.0181915
-1.81313e-13
-0.0441445
-1.13183e-07
-0.000251231
-1.27962e-08
-8.86606e-15
0.125422
-3.44735e-08
-0.095592
-0.000336981
-0.0483911
1.27385e-73
-0.0732242
0
-0.00613349
-0.0333769
-0.0133247
0.00495442
-0.000290009
-0.00257781
-5.57664e-07
-0.0308951
-0.000248353
-0.000336831
-0.000157684
-0.0286665
0.00393854
-1.26067e-07
0.0367435
-0.0272337
-0.095592
0.0162701
9.58487e-322
-0.0498818
0.0181915
0.0965397
-0.0034201
-0.0221741
-0.12272
0.030073
-0.000267089
0.0197981
0.00988678
-0.000261302
-7.81129e-08
0.16968
0.000562038
0.0305037
0.0342506
0.002874
0.00849486
0.0018011
-0.0371151
0
0.0362868
-1.01283e-321
-0.063854
-0.163342
-0.000261302
0.177697
-0.0463635
5.87938e-322
-0.172104
0.0387468
0.0841763
-7.81129e-08
0.0764902
-9.42856e-07
-0.0182174
0.06832
-0.206092
0.0604017
-0.0294411
0.0215819
0.0447113
-1.48589e-09
-0.0740285
-0.000336831
-0.000329244
0.0570937
0
-1.48589e-09
0.0885995
0.00495442
0.00495442
-0.0394136
0.143971
-1.35541e-08
-0.16494
-5.85598e-05
0.033379
-2.93797e-91
0.0769333
-0.0945605
-0.019625
7.07681e-05
-0.00194167
-3.56329e-07
-0.0105791
-0.160096
0.0373692
0.0362394
0.0103706
-0.000246943
-0.000247387
-0.0738931
0.0936983
0.0153451
-0.040178
0.00592563
-0.000601045
0.0435929
-0.0733025
-0.0182174
-0.000254735
0.041713
0.0837569
-0.0282308
0.0959877
-0.314831
-0.0397422
0.000113294
0.0119273
-0.0330939
1.27385e-73
0.048374
-0.0208914
0.227827
0.246998
-0.0672588
-0.00027869
-0.0161708
0.0115722
0.0195416
0.0255249
0.0197981
-6.04561e-06
-0.18368
0.0203731
9.72778e-05
-0.0217103
-0.00027869
0.104152
-6.01162e-10
0.329887
-0.0776101
0.0394593
-0.0210379
0.0554434
-0.0503133
-0.0529211
0.0798257
0.212636
-0.0854368
-0.0182174
-2.69898e-08
0.0667895
-0.16108
0.0570001
1.27385e-73
0.139764
0.114061
-0.000244332
0.0170156
-5.03323e-10
-0.130906
0.00150999
-0.0387644
-0.0740412
0.059831
0.09026
0.00448964
-0.10652
0.00153133
0.0102379
0.0389416
0.01604
0.0406729
0
0.0332662
-0.0198089
0.00655593
0.00825127
-0.00392919
0.0342506
-2.1046e-08
0.0287649
0.0015828
-0.000246943
0.0228171
0.0072353
-0.000139914
0
-0.00713563
0.00509448
-0.0284783
0.0255249
-7.21336e-322
-2.96363e-08
-0.0117616
1.29162e-06
0.0227903
0.00150999
-7.07822e-08
0.0145865
-0.082689
0.0228171
0.0155797
-3.56329e-07
-0.0165096
-0.0357341
0.0302322
-5.57962e-07
-0.0638547
-2.96363e-08
0.0549355
-0.000500503
-0.128763
-0.141077
0
0.0208183
0.00988678
0
0.103643
-0.00249162
0.114714
-0.00486587
-0.0776933
0.00988678
4.40436e-06
0.000714047
0.0249878
0.0302322
0.287541
-0.0629005
-0.0980722
-0.0123892
-0.065674
-0.041179
0.00855812
-0.0161212
0.00425138
-0.103716
0.00784719
0.00318303
0.0952119
0.0340084
0.0499647
-8.32352e-08
0.0291738
-0.000290029
0.0472699
-0.055603
-0.0621886
-8.86606e-15
-0.0331825
-0.0992143
-0.000345622
-0.0799503
-1.51052e-10
0.00495442
0.0015828
-0.0402669
0.0439961
-8.93434e-13
-0.0700672
-0.0105626
0.125502
0.0228835
0.161184
-0.000340506
0.181475
0.154869
-0.0153241
-0.0186663
0.0348662
-0.00295049
0.0103669
-0.000364024
0.00669576
0.133675
-4.63787e-08
-2.52567e-06
-0.019797
-9.31967e-14
0.00775652
-0.00511535
-0.0231107
0.154833
-0.0801466
-0.030774
-0.0641879
-3.59484e-06
-0.303285
-6.97642e-08
-0.0320603
-9.93401e-06
-0.00027869
0.0106579
0.080506
-1.46365e-13
-3.70181e-12
1.06224e-321
0.0572224
-0.109966
0.0416241
0.00868323
-0.266259
1.27385e-73
0.0118713
0.0504821
0.0181915
-0.0275177
0.0355005
0.0417696
0.00259532
-0.0324122
-0.0477621
0.0296635
0.0434949
0.0247044
0.0310826
0.0869005
-0.0398051
0.00318303
0.000384777
0.0181915
0.067478
-1.425e-12
0.0178294
0.0181915
-0.000246106
-6.25744e-06
-4.23106e-07
0.0273795
0.440181
0.0180894
-0.0141569
-0.0263246
0.121898
-0.107265
-4.23106e-07
0.0328228
0.0125241
0.039594
0.103524
0.0592099
0.0335122
0.0273194
0.0309542
-0.0414002
-8.32352e-08
0.362014
0.0198755
-0.0385337
-0.0768842
-2.42148e-08
0.0434909
-0.00264549
-1.33892e-321
-0.0681622
-2.64819e-05
0.00732707
0.0255249
0.0961012
0.0166936
-1.9623e-08
0.0834419
-0.0023187
0.27202
0.0229345
-1.7112e-05
0.0552964
4.34778e-322
0.0605002
0
0.00753509
0.0220385
-0.0190402
-0.0876326
-0.00995608
-1.46365e-13
0.0423038
0.0403989
-0.44294
0.193258
0.225071
-0.0227834
-0.066534
0.00268805
0.00318303
0.039418
0.0104303
-5.49253e-08
0.016605
0.104152
0.415321
-0.095592
0.118136
0.00150999
-0.0742329
-0.000512071
0.0152156
-0.000148167
-9.11611e-13
0.00753509
-0.0398208
0.00495442
0.00521846
-0.121608
0.00784719
0.0660042
0.00495442
0.0308004
-0.000340506
0.00589391
-0.0988366
0.135912
-0.00351038
-0.0151835
0.00495442
0.0772459
0.0988927
0.0241509
-0.0714645
-0.0535342
-0.00252455
-0.000243292
-0.0552691
0.00943424
0.0100541
0.0180894
0.0215437
3.29777e-05
-0.00914306
-1.46365e-13
0.0341878
0.00715254
-0.0114992
-0.1214
0.00244327
-9.31967e-14
0.0760487
-0.0433071
-0.000336831
0.0390988
0.0437201
0.0190986
0.00244327
0.00306731
-0.000340506
-0.0151885
0.00495442
9.72778e-05
0.00320609
0.0441658
0.00133271
0
-3.97487e-05
-0.0575537
-0.0598045
0.0209823
0.0571255
0.0227576
0.010211
-0.0139684
-2.29922e-05
0.00487045
0.0358022
0.0878051
-0.000246106
-0.0198243
0.182203
0.0075917
1.37854e-40
0.030432
0.0642558
0.0462958
-0.000248431
0.00472739
-1.0563e-05
-0.00253388
0.00495442
-4.95711e-08
0.0491177
0.0629392
0.00521481
0.0195764
0.0297612
1.27385e-73
-0.013861
-0.0396118
-0.0607466
0.0138887
0.0950903
0.0515362
0.00318303
-0.0654144
1.45452e-24
-0.0118428
-9.76296e-07
-0.0639584
-0.022438
-9.28843e-322
0.00267735
-6.30297e-08
0.00487045
-0.161009
0.0265238
-0.00573469
0.00318303
-3.06988e-06
0.0271181
-1.37267e-05
-0.451796
-1.09189e-321
-0.0569176
-9.09081e-322
-0.000246107
0.00495442
-0.153913
-1.25413e-06
0.0088831
-0.0740615
-0.000250982
0.166639
-0.0861717
-0.177464
0.0604334
-1.19072e-11
-1.76039e-07
-0.0328384
0.0195764
-0.000329244
0.147349
1.49486e-05
0.0159564
-7.34355e-09
-3.8883e-80
0.0300674
0.101496
0.0641699
0.0862028
0.100587
0.0256438
0.00318303
0.002874
-0.00887867
0.0026205
0.0788552
-0.128668
-0.0117518
-8.32352e-08
0
0.031437
-2.93797e-91
0.00715651
0.0114055
0.031437
-0.0394394
0.068826
0.391893
-0.0831869
0.108222
0.0448446
-1.27962e-08
-0.0568529
0.0379133
-0.000329244
-0.100173
0.00988678
-3.8883e-80
0.0747999
0.0692537
-5.82425e-06
0.00495442
-0.0225209
0.00450574
-0.0922226
0.031437
0.303524
7.21336e-322
0.526994
-0.00499435
0.104681
-0.053334
-1.13183e-07
-0.0886986
-0.0023187
0.00332211
0.00323312
0.0660545
-0.0333769
0.030073
0.00693583
0.129099
-3.56329e-07
-0.10659
0.302455
-0.0576761
0.0607759
0.0381463
-0.0366838
0.00450574
-0.0278292
0.064184
-4.2834e-06
-0.115729
-0.0588733
-3.54238e-09
-3.87629e-09
-4.19208e-92
0.0882582
1.70792e-52
2.32678e-89
0.0219395
0.0398072
-0.00924822
0.0899025
0.14581
0.0120659
0
7.16613e-05
-1.81313e-13
0.0317357
-2.51283e-05
0.0346658
0.0243403
0.0593466
-3.58486e-05
0.0685661
0.0238474
-0.0767186
-0.000336831
-0.000329244
0.0504518
-5.92884e-08
0.00318303
-0.0801473
-0.0253674
-0.00033688
0.00435124
0.0162591
-2.94599e-09
-0.00198171
0.101879
-0.0137275
-0.111989
0.0154676
0.00764673
-0.0276179
0.135624
-0.000346592
-0.000601045
0.00318303
0.037385
0.00890959
0.0355143
-4.42583e-13
0.0662029
-0.102839
0
0.00337676
-2.38138e-05
-0.000346592
-0.0420267
0.0601271
-0.022438
-3.7156e-07
-0.0296041
0.0415794
0.00608634
-0.0028559
-0.000346592
0.00142002
0.159243
-2.96363e-08
-0.321634
0.0974128
0.0538084
0.0726719
-0.0498818
0.0335542
0.0386652
-0.034947
0.00715361
-0.0105791
-0.0647759
-6.37643e-05
-5.30451e-93
-0.00203955
0.0325577
-0.00168245
-0.12562
0.0570939
0.095095
0.0088831
0.0318156
0.0428072
0.181603
0.0598997
-0.0323278
-0.0451776
-0.000252123
-8.86606e-15
-9.53547e-322
0.00495442
0.00579569
-0.0996992
0.020819
0.00730622
0.00715361
-0.398875
0.0100541
0.0196652
-0.000240068
-0.000603096
0.0454774
0.0245233
-0.00963072
0.0040618
0.247063
0.00891845
0.00495442
0.101297
0.0222406
0.0196652
0.00318303
-0.0434335
-0.0953445
-0.0280074
-8.32352e-08
-3.8883e-80
0.0861645
-0.0328384
0.00632074
-0.0767186
0.00313797
-0.0217506
-0.0139684
-0.316702
-0.000346612
0.0417696
-0.000251231
-5.49437e-07
-0.250974
0.0830329
-1.48589e-09
-0.0912802
0.0531871
-0.139606
-0.0278238
0.00495442
-0.000336831
-0.101351
-1.55816e-253
-0.00025431
-0.0315655
0.0279868
0.256008
0.221868
0.221868
0.0750312
0.0245031
0.417349
0.0308004
0.0901284
-0.0515631
0.00495442
0.00764673
-0.000254735
0.00495442
0.0181915
-0.0196074
-0.00272118
0.028039
-0.000252404
-7.34355e-09
-0.000265812
0
-0.176067
-0.0369044
-0.097036
-9.09081e-322
-0.0218783
-0.0601404
-0.00552447
0.049889
0.00592721
-0.0336464
0.0141408
-0.000139914
0.00318303
-0.0276283
-0.0651907
-1.9623e-08
0.125026
0.00495442
0.0101349
-0.0571391
-0.0868584
0.305897
-0.0105733
-5.57962e-07
-0.0764205
0.12755
0.0194525
-0.0583937
0.335321
-0.00692379
-0.00295049
0
-0.0849412
-1.81768e-14
0.178798
-9.53547e-322
0.0616194
-0.0298351
0.203534
0.0212943
0.0019318
-0.00193863
1.70792e-52
-0.208152
-0.0462391
0.0326221
-1.0996e-07
-0.000136097
-1.63765e-05
-0.000257157
0.0704847
-0.0490729
0.0174346
-4.8364e-05
0.0597209
0.086369
-3.8883e-80
0.00133447
-0.00295049
0.00753473
0.0102379
0.0191377
0.032775
-0.000346592
-6.00554e-06
0.000397548
0.0139606
-0.0250168
0.00495442
0.067478
0.0174193
0.000754712
0
-0.078111
0.00732096
-0.126971
-0.0290823
0.00630315
-0.000489154
0.099994
0.0433352
-8.17496e-06
0.0470098
-1.64167e-08
0.027961
-0.0129716
-0.0147896
-0.220597
-8.15171e-06
-0.0605495
1.14623e-321
0.0874072
3.53254e-102
0.00608634
0.0265203
0.0681941
-0.0182174
-0.00129991
0.0438719
0.028354
-0.0800369
0.0146395
0
-0.000340506
-0.0335019
0.030073
-0.13882
0.0120065
1.70792e-52
-0.0344342
-0.0559387
-0.0793815
2.92316e-05
-0.0422958
-0.0653281
-0.00787977
-5.03323e-10
0.216948
-7.07822e-08
-0.0742161
0.0357106
-0.0108395
-0.032977
-1.66557e-07
0.0546386
-0.00027869
-0.0579962
-0.0123892
0.016605
0.00495442
-1.56398e-07
0.112695
-0.000346592
0.110237
0.00393854
0.112627
-0.000157684
0.13548
-0.0471335
0.00495442
-0.0378153
0.221091
-0.0204033
-0.000346592
-0.0332958
-0.0328782
0.0283034
-0.0632538
0.022355
0.169831
-7.4235e-06
0.01692
-0.00027869
0.165882
-0.0348395
0.0145228
0.0350281
0.0407455
0.111205
-0.0766743
0.129484
0.0302322
3.53254e-102
-0.0736222
-0.0123892
0.0620086
-0.0876127
-0.000195131
-1.00295e-321
0.0304599
-8.42019e-08
0.0333934
-0.0356825
-0.0023187
-0.0598245
0.155771
0.0728506
-2.1061e-06
-0.0229327
0.0100541
-0.000240068
-0.0980975
-0.0334257
0.0674244
0.101793
-1.7112e-05
0.0273194
0.155476
0.00872614
0.0498605
-0.0141608
0.0380681
-0.0342139
0.00614759
0.0773189
2.32678e-89
0.0130125
-0.0195433
0.0335819
0
-0.0867714
-2.64819e-05
0.00405994
-0.0339809
0.0776358
7.21336e-322
-0.000336831
0.00495442
0.0392154
-3.56329e-07
0.00393854
-0.0215955
-0.0357582
0.0405346
0.00318303
0.00260521
0.0905173
-0.0178886
-0.0728484
-0.0271016
0.0675346
-8.93434e-13
-8.79005e-05
0.00720118
0.0254856
0.0129592
0
0.0447174
-0.00573469
0.0557858
0.0195764
0.0214426
-0.000601045
-2.1046e-08
0.0100541
0.00592563
-3.89689e-05
-3.31959e-06
0.103269
-0.0189558
0.0210705
9.58487e-322
0.226581
0.0078272
-0.000252625
0.011888
-0.0632497
0.117087
0.00988678
0.019332
0.020384
-0.0498818
0.0244417
2.32678e-89
0.0292504
0
0.121366
-0.000260072
0.0634183
-1.22238e-07
0.0028164
0.0360724
-0.0187754
0.106499
-0.0627943
0.025622
-0.0452927
-0.245906
-0.0105683
0.00753509
0.00318303
0.121489
-0.0401722
-0.018716
0.00487101
-0.0660856
-0.0159354
-6.00554e-06
0.0482288
-0.00963072
0.0181915
0.0026205
-0.0102907
-0.0470396
-0.0320491
0.112695
0.323874
-3.81436e-09
0.044773
1.45452e-24
0.0629392
-0.0382739
0.00731141
0.0171357
-7.07822e-08
-0.0262035
-0.0333418
0.12605
0.000545862
0.00495442
-0.00293948
-0.00445997
-5.03332e-08
0
-0.0234322
0.0300541
0.104235
0.00777845
0.00339786
-0.050852
0.0276097
-0.0826429
-0.140813
0.0645563
0.00862934
0.00165707
0.0407455
-0.00295049
-0.0886352
-1.55816e-253
-0.0028559
-0.0776933
0.0267414
0.0116002
-0.0117894
0
-0.0755996
0.0394357
-1.425e-12
0.0728506
0.00450574
-0.000250087
0
0.00340285
-0.0391587
-0.0139684
0.187282
-0.000336831
-0.000261302
-0.0139684
-0.0306172
0.13379
1.27385e-73
0.00753509
-0.0394888
0.000248335
-0.0791778
-0.000254821
0.00556804
0.0028164
-3.56329e-07
-0.0471624
-0.0480882
0.00352516
0.036383
-0.0621666
-0.0119445
0.0265096
0.0120063
0.0071086
0.0368832
0.0368832
0.0534217
-4.23106e-07
0
0.00772719
0.016605
-0.0321523
-0.0315655
0.000113568
0.082753
-4.30795e-07
-0.00893221
-0.000500144
-0.165537
0.00318303
0.00358295
-0.0182035
-0.0514771
0.00773365
-0.0531387
-0.0204033
0.0162118
-0.0126512
-0.158827
-0.000246091
0.00986136
0.00495442
-0.000346613
0.0444833
-0.0065896
-7.07822e-08
0.0483833
-1.48589e-09
0.0553175
-0.102306
-0.00013852
0.0329649
-0.0355192
2.06816e-05
-0.0355026
2.28499e-98
-0.00434219
0.111742
-0.000251401
0.00495442
-6.58553e-05
-0.0405196
-0.0560783
0.252166
0.00495442
0.0283292
-0.116861
-0.0117403
0.00405994
0.0144841
-0.0178883
-0.000243174
0.0157769
-3.92824e-11
0.0503409
0.00495442
-0.0453869
1.58101e-321
0.00495442
0.0214171
0.00695108
-2.5197e-09
-0.0779613
-0.0488899
-0.000254821
0.0277428
-1.16905e-10
0
-0.03645
0.00155349
-0.119576
-0.0792411
0
-0.00193863
-0.00295049
0
0.003664
-0.0723174
0
-0.0590766
0.0308004
-0.00027869
0.00495442
0.0137424
0
0.00784979
-0.00700809
-2.58673e-07
0.16968
0.0032559
-1.46365e-13
-0.200716
2.06816e-05
-0.00023508
-3.56329e-07
-9.53547e-322
0.00988678
0.0547521
0.0639163
2.28002e-102
0.0294985
-0.000242314
0.00813027
-1.41548e-05
0.000104691
-1.35541e-08
-0.0724632
-0.0956906
0.0389416
-0.0890917
0.126811
0.000172338
-2.69206e-09
-0.0322155
-0.0023187
0.2537
-0.0591484
0.00318303
0.00515355
-0.000882041
0.0678918
0.0326562
-0.00713563
0.0136237
0.0198312
2.74127e-06
0.0106579
1.37844e-321
-0.0238723
-0.0577626
0.0676875
-9.14633e-08
0.00715361
0.00495442
-0.000254735
-0.0845016
0.0841763
-8.09129e-07
2.42092e-322
0.164062
-1.48589e-09
0.0789738
2.1623e-10
-1.35541e-08
0.0181915
-1.55816e-253
-0.000249652
0.145732
0.0139606
0.00435701
0.0574494
-0.000238628
0.0206151
0.00176497
0.000417562
-0.000346592
-1.13183e-07
-0.122312
-0.0712501
0.102835
3.87772e-05
-1.07743e-08
-1.5543e-05
0.0368832
0.16968
-0.000329244
-3.58486e-05
0.0408394
0.00495442
-0.000336831
-0.00912411
0
0.389778
0.0143288
0.0553175
0.0367865
-0.0726251
0.00753509
0.179331
-7.14447e-06
-0.0804847
-1.18895e-06
-1.82417e-07
0.00792202
-0.0171544
0.00360919
-0.191222
-7.07822e-08
-0.0342081
0
0.000132638
-0.0529941
-1.19072e-11
0.0192577
-0.000329244
0.0770908
0.138135
-0.0141447
0.11297
0.00495442
0.152362
-0.000380096
0.00483851
0.0244417
-9.09081e-322
0.131141
-0.000243174
0.338437
0.0345753
-0.0848264
-1.48589e-09
-0.0133653
-0.0746352
0.067478
-0.0141447
-0.000247608
0.011888
-0.000336831
0.0261042
-0.0653056
-0.0802582
3.48956e-22
-0.253853
0.12988
0.00487045
0.595136
-0.000336831
0.0309542
-0.000290009
-8.09129e-07
-0.00259921
-7.6417e-05
0.0114173
-0.00485408
-0.0996713
-7.9943e-06
-0.0052868
0.111291
0.066809
0.00323312
-0.0471624
-0.0423467
0.00495442
-0.0523175
-3.56329e-07
-0.000329244
0.0361005
0.0100541
0.0342594
0.116208
-0.000250087
0.00509448
0.0634183
-1.33892e-321
0.0170037
-0.0602916
0.00736213
0.173636
0.0100541
-0.0285568
0.0358022
0.0292504
-0.00027869
0.011389
0.00752657
0.089538
-0.0193656
-0.0593467
0.00875735
-9.31967e-14
-0.000336831
1.45452e-24
-2.1061e-06
-0.0432044
-0.0542945
-0.0613827
0.00764673
-0.000254821
-0.0720483
-0.0883264
0.0060428
0.0280417
-0.0601746
-2.47331e-05
4.40436e-06
-0.0431327
0.00495442
0.0194695
0.0196652
0.00340285
-0.000139914
-0.0200334
0.0172928
-1.31614e-12
-0.00999149
0.011888
0.127413
0.118285
-0.0100002
-1.81768e-14
-0.000329244
-3.8883e-80
0.134202
-0.035156
-1.14772e-15
0.0660738
0.0120065
-0.0339809
-0.0511645
-0.0279562
-0.0788007
-0.00963072
0.160423
-5.03323e-10
-0.0767186
0.0839147
-1.81768e-14
-2.1046e-08
-0.000346592
-0.0286644
0
-0.0529349
-1.5543e-05
0.0434959
0.0273194
-1.08692e-05
0.00978344
-0.00024098
-0.00295049
-0.101601
0.00495442
0.0218135
-0.000346612
-0.00445258
-0.0531717
-0.025666
0.0120065
-0.067807
-0.014315
0.11834
0.18711
-0.0307682
0.00784719
-0.000246091
-2.93797e-91
-0.0523672
0.0483833
-0.0139684
-4.19208e-92
0.0700943
0.068058
-7.57942e-12
-1.11325e-05
0.0294525
-0.00489067
-0.216456
1.00472e-23
0.244774
-0.0328033
-0.000329244
-0.0736222
0.000711488
0.152197
-0.0133247
-5.49253e-08
-0.041194
-2.42148e-08
-9.02896e-05
-0.01024
-0.00512293
0.0243933
0
0.0364311
-0.0577468
0.209896
0.0196652
-0.0629038
0.0105372
0.0060428
0
0.00735075
0.0415098
-4.02038e-13
0.1127
0.0434959
-0.000246091
0.0210237
0
0.00753509
-0.000346592
0.0072954
-0.000340506
-0.0318974
0.0359951
1.70792e-52
-0.00193863
-0.158215
-1.22238e-07
-1.46365e-13
0.0411113
0.0465923
-0.114903
0.0772629
0.0540469
0.0150876
0.305948
-0.017027
0.00266597
0.15225
-2.42148e-08
-0.000290009
-0.0767186
0.00295693
0.0810216
-6.04561e-06
0
-0.000279248
-0.0892933
-0.104299
-0.0123892
-0.0490083
-0.157227
-0.0190684
0.00773405
-0.0726436
-1.58417e-07
-0.124812
0.0300355
-0.0328384
2.32678e-89
0.0347357
0.0165664
0.0015828
0.0162249
1.45452e-24
0.11653
0.113703
-0.000346612
-0.175911
0
0
0.0196652
-0.0362181
-1.50017e-07
0.0368832
0.00323312
-0.0598045
-1.27962e-08
-0.000278836
0.104002
-0.0236066
-2.69206e-09
-0.0469824
-0.00203955
-0.0545286
-0.011646
0.0338834
-0.019625
0.00988678
0.0166936
-0.0374411
0.0609792
-0.0447678
-0.0945528
0.0505349
-0.0141447
0.0299939
-0.0225209
6.81811e-322
0.0293561
-0.000254575
-0.165159
-0.0028559
-0.271953
0.0324043
-0.022438
-0.122146
0.0157775
0.0967406
0.090779
-2.42148e-08
-2.1046e-08
6.89717e-06
0.0100345
0
0.00509441
-0.0333769
0.0025504
-0.214094
0.00339786
0.0433032
0.000275698
-0.123532
-0.000284514
-0.00025219
-0.0185616
-0.0655544
-0.0279041
0.0872318
0.00899059
0.0705257
-0.0333769
-0.0214967
0.0841763
0.00554077
0.00318303
-0.0920883
-0.0420917
-0.0283395
-1.34879e-14
0.0157378
0.0497674
-0.0695412
-4.18244e-14
-0.0703459
0.00753509
-1.44761e-321
-0.0136805
-0.0263484
0.0728557
-0.0789605
0.0447174
0.0512224
0.00735695
-0.0318105
0.00775652
0.00920899
-0.0486011
0.114896
0.0351485
-0.0999755
1.27385e-73
0.0702482
-0.18456
-0.0514902
0.0106579
0.0880347
0.00495442
0.0336846
3.48956e-22
-0.0227733
-5.03323e-10
-7.06862e-08
-3.56329e-07
0.0303001
-0.0965418
-0.000183106
0.00318303
-0.0303384
-0.00887867
-0.0384138
-0.00189127
-0.0160055
2.32678e-89
-7.63838e-07
0.00754701
-0.000270709
-0.000249652
-1.9623e-08
0.0189921
4.09592e-73
0.0648081
-0.0224645
0.0120065
-0.0274103
-0.00295049
-0.0852511
0.0193698
0.0549204
0.0077602
-0.00694093
-0.0113069
0.0465183
0.0181915
-1.42067e-07
0.0296635
0.00715696
-0.0669534
0.0357501
-0.0214793
-4.02038e-13
-0.0495835
-0.0580403
-0.0688247
-1.07743e-08
0.014244
1.07294e-05
0.00635921
-0.000329244
-1.48589e-09
0.00232735
0.0209823
0.0525164
-1.15333e-05
0.00495442
-0.0830851
-0.000340506
-0.0803109
0.00715361
0.019167
0.00146062
-9.88131e-323
-0.0151835
-0.0864509
-0.0564612
-0.101185
-8.20287e-05
-0.000336831
2.1623e-10
-0.0327937
-0.0003477
-4.2834e-06
-0.000340506
0.159613
-0.000139963
0.0308004
-0.0767672
0.0294985
-0.0164496
0.0357501
-0.0352403
0.10071
-0.0462279
-0.0276179
-1.56398e-07
-1.9623e-08
0.0668503
0.0268482
-6.32343e-07
0.0627121
0.113858
0.0867452
-9.02896e-05
0.00728934
-0.196857
0.00209942
0.082753
-0.0582821
0.00495442
-0.0139684
-7.57942e-12
0.00725411
0.0244417
0.0116025
-0.125535
-2.25732e-06
0.115377
-3.97487e-05
0
-0.0347263
0.00487045
0.015973
0.146066
0.0263477
-0.0333769
0.00351022
-0.0764205
-0.107761
0.0106579
-0.068152
-0.00754325
1.37854e-40
0.0143288
-0.0109776
-0.0677525
-9.53547e-322
1.58101e-321
-0.0265914
-0.000329601
0.204628
0.0196652
-0.0411243
0.0999383
-1.81313e-13
0.0181915
0.0324
-0.00645437
2.32678e-89
0.00592563
-0.0701763
-0.0141447
-7.6417e-05
-0.0738931
0.00150999
0.0302322
0.0358022
-0.0394394
0.0530659
-0.064527
0.00495442
0.0208573
-0.00334597
-3.71435e-14
-0.00167867
0.00318303
0.00614759
0.00112304
0.00318303
-0.000984314
0.109282
0.00266597
0.0659303
-0.0298351
0.0191928
-0.0326608
-3.54238e-09
-5.03332e-08
-0.0645272
0
4.34778e-322
-0.0435029
-0.0231218
-0.000278836
-0.0464075
0.00172711
-0.0286644
-0.0259935
0.0627134
-0.00573469
-0.105637
-0.0379533
-0.0123892
0.10028
0.0583374
0.181084
-0.0675963
0.0144858
0.0203004
-0.0225209
0
0.025547
1.70792e-52
0.0102379
0.0344651
-0.0469824
0.0242801
-0.0841634
0.0405346
0.000907091
0.0296635
0.0225467
0.0625766
-0.0702068
0.0666139
0
-0.0327711
-0.0029505
-0.116912
0.0144799
0.0363278
-0.027133
-0.00027869
-1.35541e-08
0.0309542
0.0586388
0.136624
-0.000244332
0.00723622
-0.000299399
0.00351022
0.0581479
0.00408176
0.0316488
-0.0998583
0.028039
0.00397846
1.14623e-321
-0.014315
-0.099113
0.0197981
-0.120218
-1.48589e-09
0.0152891
-2.05065e-06
-0.0341949
0.131281
0.0243933
0.0151754
-0.120892
0.0477313
-0.0696653
0.0175064
-0.0301447
0.0708482
-0.000278692
-0.0678818
-0.0276179
-0.0239972
-0.141001
0.00341851
0.0120065
-0.0282376
-0.0318386
0.00387175
-0.0529286
-0.053441
0.0243933
0.0181915
0.0563811
-0.0329416
-0.0252217
0.0917182
-0.0331789
-0.0329109
-0.0497166
0.0103174
-0.0178804
0.0026205
-0.0624931
0.0025234
0.259686
-0.000336831
-1.64167e-08
0.0634173
0.04027
0.0398072
-0.0182174
-0.0141674
-1.42118e-08
-0.0738931
0.0192963
-3.56329e-07
-0.030188
0.00318303
0.129987
-0.0956906
-5.57503e-09
-0.0225209
0.0531852
-0.00612708
0.0319006
0.000887147
0.042599
0.0290601
0.0260277
-0.00573469
0.0655527
-0.0207684
-0.0922224
0.0324043
0.0135482
0
-0.0619301
0.0359888
0.00150999
0.0300083
-0.00608128
1.45452e-24
9.58487e-322
-0.0225209
0
0.00766382
0.0150909
-0.0355908
0.0241376
0.0330221
-0.00256479
0.0237896
-2.86303e-06
-0.141864
1.27385e-73
0.00731588
-0.000336831
0.00195144
-0.000244611
0.0368674
-0.0465006
0.0816637
-0.000901898
0.0114173
0.205122
0.0069805
-5.99348e-06
0.00108937
-1.65235e-05
-6.35948e-09
-0.0864581
0.00341851
0.0308614
-0.000340862
-0.0101381
-6.07505e-08
-3.87629e-09
0.020819
-7.57942e-12
-0.00013852
-2.5197e-09
0.00753509
-3.55929e-06
-0.0441874
0.064184
0.0997301
0.0300541
0.0719663
-0.0206938
-0.0998451
-0.0762461
-0.0942595
-0.0115058
0.030073
-0.0986285
-2.96363e-08
0.0351666
-0.072555
0.0225291
-0.0141339
-0.0298351
-0.00469804
0.0659437
-0.0250437
-1.46365e-13
0.00168673
-0.0442084
0.00735695
-0.0263185
0.00495442
-2.38124e-05
0.00154
0.0180894
-0.0161212
0
1.26481e-321
0.0142088
-0.00573469
0.198232
0.100367
0.00150999
0.00715361
0.039567
-0.063854
-0.0418824
-0.00027869
-0.0023187
-0.0107132
-0.000329244
1.45452e-24
-0.0333769
0.0316369
0.0659627
0.035507
-0.000254191
0.0318835
0.00157512
-0.000254821
-3.93719e-06
0.0417696
-0.0875668
-0.0340931
-0.0141536
0.096826
-0.0612658
-0.0114992
-0.021166
-6.07505e-08
-0.0529286
-0.000329244
0.082753
0.118558
0.0709384
-3.8883e-80
-0.049412
-4.18244e-14
0.0118913
1.27385e-73
2.32678e-89
-0.0998264
-1.66557e-07
-0.0944279
0.0195764
3.40153e-06
0.000545909
-0.00503141
0
-0.0285024
0.11327
0.0185958
0.00990864
-0.068816
-0.0182174
0.0189615
-0.284807
0.0116025
0.0162249
-2.96363e-08
0.00715651
-0.031089
0.0222407
-0.065674
-2.63336e-11
0
-0.0698302
0.0775166
0.00715361
0.0422628
0.0110158
-0.00349039
0.00698657
-0.0126096
0.0244417
0.0860692
0.0519951
0.29295
-0.05788
-0.000278836
-0.0736222
-0.0212776
0.0898002
-0.0768549
-0.047488
0.0447776
0.0432652
0.0818612
0.00953002
-1.33892e-321
0.0197981
0.160965
-0.000254575
-0.0471573
-0.0105986
-0.101999
0.00408364
-0.00295049
0.129339
-0.00295049
0.00495442
-0.0344857
0.0797719
0.108972
0.0342594
-0.0207684
-6.61743e-07
0.10711
0.00753473
-0.0775658
0.205108
-7.06862e-08
-6.70787e-07
0.0103706
-0.000254575
0.0289284
0.00715696
0.0113605
-0.0581096
-0.158813
-0.000336831
0.108933
0.0351666
-0.0965418
0
-0.0596283
0.128898
-0.027884
-0.0339902
0.0348545
0.0451139
0.0995904
-0.033166
0.0238326
0.00340285
-1.33892e-321
-0.0204043
0
0.0139603
-0.0188149
0.0415098
-0.0613424
-0.0890917
-0.000601045
0.00775652
1.02272e-321
-0.033589
-0.000329244
-0.0136805
-0.137833
-0.00445997
-0.00573469
-0.000346608
-0.0346002
-0.0151835
-0.000252625
-0.0689697
-6.07505e-08
0.0184317
-1.26481e-321
-4.26284e-07
0.000459185
-0.000570066
0.100893
0.0763893
0.00756559
-0.0710293
0
0.0302534
0.0132733
-0.042341
0.0267832
-5.49148e-05
0.107596
-0.00680473
-0.0218094
-0.00153341
-0.00027869
-0.101666
-1.14772e-15
-2.64819e-05
0.00608634
0.12787
0.0629392
-0.000346592
-0.001421
0.0537078
0.168793
0.0197981
0.0214099
-1.66557e-07
-3.47032e-06
-5.57962e-07
-0.221832
-0.000270709
4.40436e-06
-1.76039e-07
-0.0473532
-1.7742e-05
0.00592721
0.011888
0.0775585
0.081406
-0.0486222
0.0015828
-6.07505e-08
0.0194695
0.0120065
-0.169608
0.18711
-0.0189903
-0.00027869
0.0170556
0.0512785
-9.93401e-06
0.107657
-0.05866
6.81811e-322
-0.0208336
0.0913164
-0.0737408
0.0581646
-0.00573469
-0.00027869
0.0077602
0.0634183
-0.0118349
0.00988678
-0.0729253
0.00581163
-0.000252176
0.0498417
0.0142965
-0.0766811
0.0114042
-0.000244611
-0.019358
0.103033
0
0.00503907
-0.085272
0.0116565
0.0381006
-0.0151469
0.0162701
-0.00871612
-0.0830851
0
-0.0501938
0.101734
0.0113142
0.00680899
-3.56329e-07
0.0397675
0.0148344
-0.000246943
-0.100125
-0.0167512
0.0296763
-0.0148849
0.134007
-0.0471624
2.32678e-89
-0.0477398
0.0102379
0.0418201
-0.00757068
0.00495442
-0.00406624
0.0310826
0.00823669
0.044977
-0.085272
0.00495442
-0.0482994
0.0290353
-0.067858
0.0085958
0.00774237
-1.81313e-13
-0.0218633
-0.00795918
0.0206151
-0.0260773
0.0025823
0.0180894
-0.113163
-0.0422381
0.0223169
0.0209823
0.085413
-0.000346612
0.0507603
0.0226899
-0.0023187
0.200354
0.037933
0.0262305
0.00826035
-1.55816e-253
-1.56398e-07
-6.25744e-06
-0.0768974
0.025051
-7.06862e-08
0.00695654
-0.00714129
0.0458553
-6.30297e-08
-0.000244611
-0.000251834
-0.00394426
0.00348563
-0.0189903
0.0173228
-0.00269288
0.0407455
-0.0859191
-0.0772656
-0.057962
0.00857988
0.00323312
0
0.00691466
-1.19072e-11
-0.0542254
0.0227576
0.126754
0.00797404
0.0243447
-6.04561e-06
-0.0467497
0.0045846
0.0467954
0.0319006
0.04788
-3.15769e-05
-0.00027869
-3.15769e-05
0.188183
0
0.159498
0.13624
-0.0890917
-0.0423629
-1.29445e-321
0
0.19531
0.00495442
0.155476
-1.18576e-321
-0.0286615
-0.0126096
-0.000352638
-1.66557e-07
0.00954545
-1.81768e-14
0.04844
2.28002e-102
-2.37992e-05
-0.0204033
-0.0331825
0.209184
0.0368674
-0.0117357
0.0618035
-7.07434e-06
0.0071536
0.235903
0.00584385
1.23022e-321
-0.00898827
-0.00972213
0.0917682
-0.0677765
-0.0126512
-0.0529869
0.00731825
-1.58417e-07
6.49246e-05
0.101685
0.142088
-0.0238573
0.134763
-0.000333586
-1.61379e-05
-1.51052e-10
0.00723928
0.0470016
0.00495442
-0.0607357
0.0026216
0.00614834
-0.0433451
0.0282779
-0.131099
-0.0337148
-0.163083
0.0162249
-0.00319643
0
0.23352
0.0727709
0.0728506
-0.0290826
-0.00302999
0.126886
-0.000329244
0.0193698
-0.0123953
0.00451014
-0.0562943
0.000113568
-0.081196
-0.000270725
-2.1046e-08
-0.00027869
0.150626
8.44852e-322
-0.054381
-0.0627943
0.104162
0.0953159
0.0125226
-0.0623524
0.243264
0.0157522
-0.000346592
0.147673
-0.00138976
-0.0023187
0.000578116
-0.0736222
0
-0.000340506
-0.0371698
-0.000260002
-0.00787602
-0.0311698
0.00300049
0.0885125
0.163787
0.0171357
0.00495442
0
-1.46365e-13
-0.0282993
-0.0161212
0.00580708
-0.0105791
0.020384
0.000364766
-1.27962e-08
-0.000252404
0.025051
0.0759516
0.00715361
0.0868752
-0.022438
-0.0318048
-2.5197e-09
-0.0214449
-0.000329244
-6.30297e-08
0.00693629
-2.83736e-09
-0.00714129
-1.76039e-07
-0.0227733
0.0312713
0.0426075
0.0239811
-0.139381
-0.0912891
-0.0269812
-1.76039e-07
-0.147182
-0.113696
-1.5745e-05
0.0868648
-0.0394984
-4.51975e-07
-2.94599e-09
-1.89487e-07
-0.144614
-0.000254735
-1.25413e-06
-0.000100971
-3.17719e-12
0
-0.049702
0
0
0.0292513
-9.51471e-05
0.0180894
0.00732096
0.095095
-0.00434219
-0.000302629
-0.064527
-4.18244e-14
0.0110881
0.0435963
5.1107e-06
0.0774277
-0.0825863
0.0292504
0
-0.000592683
-1.07743e-08
0.0227532
0.0309542
0
-0.0641062
0.0108484
0.134581
-0.0220581
0.0162249
-0.0707705
-0.0726436
0.269403
0.00753256
0.0120065
-0.00293972
0.042853
0.0383586
0.0639446
-1.64167e-08
0.0751006
0.00655593
0.0180103
-0.000251401
-1.22238e-07
-2.63336e-11
-3.56329e-07
-0.0516909
0.00483851
-0.0512115
0.0351666
-0.0724435
-0.000252176
0.0302322
0.0114129
-0.000270709
0.252132
0.0025234
-0.0832768
-0.0174664
-0.000200491
-0.00455728
0.0144858
0.00323312
-0.0106663
0.033379
-0.00011397
-0.0708398
-2.51283e-05
0.0998342
-0.0227475
0.004051
0.154609
-0.100359
2.32678e-89
0.0214235
0.0336846
-0.00027869
0.0723541
0.0434959
-0.0142241
-0.0743373
-0.0107132
-0.0023187
0.0599503
-0.022233
0.00509448
0.0138529
-0.0223212
-0.0133247
0.0775812
-0.0481747
1.07294e-05
-0.00206237
0.00425138
-1.06728e-07
0.0518904
-1.66557e-07
-0.0908676
0.0770469
0.308049
0.138744
-1.81768e-14
-0.0309521
-0.0242018
0.00499059
-2.94599e-09
0.003664
0.0538493
-0.000246091
0.243264
0.0947863
5.87938e-322
0.115847
0.029477
-0.0462413
-0.128414
-0.000336831
0.023218
-0.000252201
0.111116
0.0390988
-0.000246272
-0.0477398
-1.76039e-07
-0.000263551
0.0237896
-0.000346592
0.022907
-8.86606e-15
0.081782
0
0.0685937
0.00165707
-0.0333769
-0.0623893
-1.9623e-08
0.104796
0.0991248
0.0072954
0
-6.30297e-08
-0.000248327
0.0368282
0.0867415
0.0180894
0.00988678
-0.070195
-0.000346592
0.0392393
0.0383586
-0.110248
-0.00887867
0.016605
0.0208573
-0.0857807
-0.0402231
-0.000248327
-2.05876e-07
0.00556804
0.0682083
0.0216652
-0.0178883
0.027972
-0.127858
-0.074199
1.70792e-52
-0.0898031
-0.120863
0.041824
-0.0139684
0.0495642
-0.0286615
-9.47416e-06
-0.0865421
-0.000329244
0.0180894
-0.0539604
-0.218064
0
0.0456648
-0.00289834
-0.0227733
-6.72818e-06
-0.00530014
0.000131549
-0.000257157
0.151392
-0.044802
-1.07743e-08
-0.00259921
-0.0195189
0.000788765
0.0432118
0
-0.104354
-0.000247608
0.0181062
0.320742
-0.000240068
-0.00295049
0.0504076
0.032882
0.0476345
-0.000346592
0.00814795
0.0129738
-0.0487606
-0.108893
0.00829574
0.0439214
-0.000248179
-0.160187
7.95446e-322
-0.000246091
0.0671118
0.0822436
0.0238324
0.0277428
0.105928
-0.0134788
-9.09081e-322
-0.000252404
0.00764673
0.0636539
-0.0141339
-0.00295049
-0.000270709
-1.76039e-07
-4.78449e-05
0.00509448
0.000111151
0.1137
0.0145838
-0.0316204
-0.025666
0.0380682
-2.69206e-09
-2.29922e-05
-0.000252176
-0.164935
0
-3.58486e-05
-0.018931
0.114981
-0.00295049
-0.0333798
0.0467954
-9.88131e-323
-0.0243679
-0.0284467
0.0030308
0.0668392
-0.13882
0.116748
-1.31614e-12
0.0396312
0.0525094
-0.0951752
-0.0203867
-0.00025872
0.00976367
-0.0107132
-0.0402669
-2.64819e-05
-0.0599948
-0.0690854
0.29288
0.0408217
-1.46365e-13
-0.0293459
0.201787
0.0161118
0.0332301
-0.0107132
-0.15635
1.45452e-24
0.0181915
-1.14106e-15
0.036188
-1.27962e-08
-0.0469824
0.059954
-0.0224967
0.00318303
-2.54847e-05
0
-1.11325e-05
0.0225467
0.00854428
0.00899059
0.00323312
0.00396839
0.165528
0.0309542
0.0900042
0.0315255
-0.0175743
0.011888
-0.157252
0
0.00732096
0.0265238
2.28499e-98
-0.0200841
0.0900198
0.0867469
0.0549355
0.0219981
-1.14772e-15
-0.0200146
0.0867469
0.0108267
0.0235238
-0.0384798
-0.000244845
0.0458553
-1.9623e-08
-0.0854144
-0.200208
0.000595085
0.909087
0.0227903
-0.0748843
-0.0594527
0.00318303
-1.66557e-07
0.0720265
0.00635921
0.237358
0
0.0210237
6.81811e-322
-0.0721255
0.0244417
-1.32267e-06
-0.0108331
-1.43232e-05
0.011888
-2.05065e-06
0.0441658
0.0342506
-0.0740412
-1.59433e-08
0
0.0860692
-0.0410923
0.09026
0.0569895
0.0361005
-0.0127187
-0.0877382
0.063211
0.350803
-9.88131e-323
0.0778708
-0.022438
0.0138887
-0.000264036
-0.0898031
-0.0281449
0.0613681
-0.0740737
-0.0113222
0.0512828
-0.0123892
0.0192956
-0.0870582
0.0115587
-0.0180002
-0.0471335
0.070384
0.0015828
0.114703
-0.0768549
0.0630258
0.0114042
1.27385e-73
0.0032864
0
0.0333999
0.0208573
0.0538538
-3.8883e-80
-0.167744
0.0550457
0.0116701
-3.54238e-09
-0.00027869
0
0.0342594
-4.14568e-10
0.0302322
0.00519472
0.0914329
0.0140204
-0.000299399
0.0361005
-2.5197e-09
-0.0271983
-0.0224963
-1.48589e-09
-1.04248e-321
0.0145838
0.00495442
0.0553175
-0.0230956
0.0924954
-0.0552125
0.0299
0.14343
-0.0373597
0.0474094
-0.0142241
0.0307927
0.0539789
-0.018931
-0.0196074
0.0445205
-0.00017479
2.20783e-05
0.00481588
-0.0740412
-3.56329e-07
0.0717752
-0.0779613
-0.0245285
0.0308739
-5.57962e-07
-0.144278
-5.49437e-07
-1.55555e-05
-0.0494675
-0.0321523
0.139618
-3.56329e-07
-4.18244e-14
-0.000194894
-0.00680473
0.00715361
0.00318303
0.0135534
0.00777845
-0.00022281
-1.81313e-13
-0.000260072
-1.81768e-14
-0.0309521
0.00740228
-0.0866244
0.0565433
0.0637745
0.00318303
0.000169998
-9.56676e-07
0.0222457
1.70792e-52
0.00859523
-0.000278836
-0.0276179
-0.00321572
0.0434465
-0.0388198
0.0135059
0
0.00266788
-0.0158477
-0.0286644
-0.0310722
0.00323312
-0.0123892
-0.0775289
2.06816e-05
-0.0487654
-0.00290218
-0.0182174
-0.0453392
0.00754974
0.0619473
-0.0574436
-0.0985039
-3.93719e-06
-0.0316805
0.00387175
0.00495442
-0.0430438
-0.0387091
0.0151756
-1.59009e-05
0.0300541
0.069009
0.0173228
-6.07505e-08
-0.0199195
0.0197981
0.0072954
0.292438
1.63042e-321
-0.000242314
0.0914999
-0.0768549
0.0916155
-0.0888277
0.0705112
-0.0118122
0.0903401
0.0474754
0.0726719
0.0072954
-0.000244332
0.0180894
-0.000601045
0.0937937
-0.0327711
0.0116025
0.00963502
0.0150357
0.0628822
0.0737219
-0.000254735
0.00337676
4.09592e-73
-0.063254
-0.0223606
-0.0529286
0
0.0185958
0.0993718
2.47105e-05
0.132561
-3.64225e-05
-0.0731731
-0.0373902
0.0143288
0.00038138
-4.63787e-08
-0.0919159
0.0304533
0.0336042
-0.0384138
0.110301
-2.40438e-08
0.0843044
-0.041675
0.030205
0.0583495
-1.0996e-07
-6.39003e-07
0.00715651
-0.00486569
0.110622
-0.0148399
0.0465824
0.0498483
0.0289622
1.70792e-52
0.0324883
0.01031
-0.0764205
-0.00509767
-2.19428e-07
-2.12813e-11
0.00318303
0.0227254
0.0441658
0.0208573
-2.21481e-08
0.132078
0.00495442
0.00332337
0.00732105
0.0258624
0.0307927
0.0642558
-0.0352863
-1.08692e-05
0.0227903
0.00509446
-5.03323e-10
-0.0278253
-0.0114901
0.0162118
0.0597209
-1.13183e-07
-0.000200491
0.052886
0.135661
0
-0.0321282
0.0214235
0.00486343
-0.135322
-1.4078e-07
-0.0957138
0.0463721
0.0774277
0.144187
0.0672824
0
-0.00516862
0.327239
0.00580619
0.0311156
-0.0689974
0.0197981
-1.01283e-321
0
-0.0197571
-0.00295049
-0.0152992
-0.0532626
0.0197981
0.00896126
0.035481
0.0420908
-0.2352
-3.44735e-08
0.0672435
-0.16197
0.0386709
0.0015828
0.00450574
-0.177429
-0.0181282
-0.00728191
0.00749976
0.00232735
0.0361203
-0.113233
0.135245
-9.51471e-05
0.0336846
0.00318303
0.00503203
-1.65235e-05
0
0.077835
0.00614834
-0.000244845
-0.000290009
0.0196652
0.00556804
0.0408394
0.157541
-2.41014e-11
-0.000329244
-0.000340506
-6.39003e-07
-2.68865e-05
-0.0161708
-0.0303058
-0.0293072
-0.0107132
-0.000246217
-1.81768e-14
0.0276091
-1.76039e-07
-0.0104791
-3.8883e-80
-0.0329198
-0.308843
0.038797
-0.000346592
0.0523689
0.0407455
0
0.000466886
0.043442
0.0925069
2.32678e-89
-0.00603996
0.00732125
-0.000257157
-0.0415365
0.0116419
0.00614758
-6.30297e-08
-0.000601045
0.112597
0.0237896
-0.0207886
0.0231727
0.0284952
0.0327718
-0.0106189
-1.46365e-13
0
-0.0124279
-0.0767186
-2.39545e-92
0.121026
-0.0441533
0.0770119
-0.0629005
0.0628581
0.0718037
-0.0803367
-1.46365e-13
0.00056353
-0.0206814
0.0660545
-1.46365e-13
0.00232735
-5.79234e-09
0.0328326
0.00328519
0.0668391
0.0223469
0.00809063
-0.000294233
-0.0646319
0.0120065
-0.0664646
0.0707376
0.206682
-0.0369044
-0.0114634
-1.26481e-321
0.1321
-5.7625e-06
0.0489976
-0.00759568
-0.0535342
-0.0648022
-0.00311021
-0.0214801
-1.30927e-321
-0.0925014
-0.0153397
-0.00573469
0.00854684
0.0302322
-0.000601045
0.0856153
-8.93434e-13
-0.0505203
0
0.0228171
-2.1046e-08
0.0608737
0.00495442
-1.15333e-05
-0.0868583
0.00780284
0.0222778
0.0389756
-0.000278816
-0.0460003
0.0145439
0.0676335
0.000339971
-0.0495312
0.0274908
-2.6658e-05
-0.000244332
-7.52415e-06
0.0417696
0.00318303
-0.0726918
0.0238013
-0.0477398
-3.53992e-06
0.0224734
0.000545909
0.00318303
0.00832715
-0.000601045
0.00953002
-0.0777321
-3.97487e-05
1.45452e-24
0.0771061
0.00764673
-0.0105151
-7.85882e-05
1.27385e-73
-0.000636601
0.0102379
-0.0719559
0.0594105
-0.0420192
-0.11058
-0.140167
0.00773851
-0.0598535
-0.014584
-0.0139684
-0.200509
-0.0767186
-0.000193018
-0.0745797
-0.0612965
-0.00810089
0.00752795
-0.106731
0
0.00393851
0.128458
0.00751098
0.0130183
-0.256562
0.0386316
0.0162148
-6.61743e-07
-0.00280575
0.0419171
-0.0780351
0
-0.0640675
0.029517
-0.00202021
0.0776358
0.00495442
0.00675148
0.044468
-0.0866803
-1.26481e-321
-0.0333769
-0.0282599
-0.0261255
0.0229512
-0.00299676
-0.180817
0.000430125
0.0444091
0
0.00387175
0.0026205
-0.0511508
-1.51052e-10
-0.00295049
0.0104525
-0.000125832
0.0112592
0.044977
0.00132417
-0.0726251
-0.0320491
-0.188536
-0.0566339
0.0860353
0.0405315
0.0114133
-0.00295049
0.126583
-0.0023187
0.0302322
0.0066015
-1.07743e-08
-0.0221761
1.45452e-24
0.00556804
0.0173859
-4.2834e-06
-0.0161928
-0.0969101
0
-0.000246091
0.0305566
0.0180894
-3.56329e-07
0
-6.98176e-08
0.0302322
-0.0309313
-0.0332958
-3.54238e-09
0.276942
0.0189743
0.0455644
-0.0289889
-1.81768e-14
0.0574885
-0.063854
0.00318303
0.168869
-6.27356e-05
-0.000269205
-0.20718
-0.0224645
-0.000346592
-6.07505e-08
-0.0614535
0.0322584
0.0407455
-0.0553688
0.000128503
-0.000619196
-9.42856e-07
0.00715361
-0.023094
-1.0996e-07
0.0143288
-0.0547456
0.033245
-0.0942595
-0.0174664
-2.83736e-09
0.00128176
0.0092648
-9.53547e-322
0.00742994
-0.0805397
-0.0105791
0.0469818
-3.56329e-07
0.053324
-0.0255762
0.136794
-0.0453869
-0.000346592
0.0203839
-8.09129e-07
-0.0338778
0.0401908
-0.0764205
-1.22238e-07
0.122411
-0.000233235
-0.0744879
0.146287
-0.0940019
0.0194324
-0.021166
0.00495442
-0.0841427
0.0439214
-0.0136805
0.0350969
-0.000248327
0.057269
-6.04561e-06
-0.000157684
-0.000140287
0.0075917
0.0145625
-0.0161708
-0.000252123
0.0983164
-0.000251401
0.0111636
-0.0323762
-0.0384138
0.00495442
0.0890382
-0.00548683
0.00862934
0.00725411
-0.0525688
-0.000346592
-0.0516456
0.00175946
2.28002e-102
0.0614663
0.011888
0
0.0292513
0.0203838
-0.0327711
-0.0508754
-0.0504893
-0.0167135
0.0540469
-0.0342783
0.00784538
0.0591811
-8.42019e-08
-0.00485408
-0.0795862
-0.0668836
-0.0204033
-0.0488088
-6.61743e-07
0.00495442
-0.00269288
0.00157654
0.00990864
-0.0306172
0.00988678
-0.0931505
-0.00642237
-0.0588866
-0.0263816
-0.000336831
-0.0495203
0.0255577
0.0106579
0.210469
-0.000278836
-0.0161708
-1.0996e-07
0.107535
-2.64819e-05
-0.150182
-2.13047e-07
-4.23106e-07
0.00824658
-0.0627115
-3.8883e-80
0.180074
-0.0477398
0.0137615
1.4935e-05
0.0868179
-0.107537
0.018401
0.0285326
-0.0279562
0.0138887
0.0271181
0.00318303
-1.26481e-321
-0.0118849
0.00655593
-0.000248327
0.0235616
0.00187821
-0.0318
0.0551969
0.00393854
-0.0409448
-6.27356e-05
-0.0545286
-0.0186544
0.0390988
0.110491
-5.03332e-08
-0.0331825
0.0302322
0.0381856
-0.245241
-0.0537318
0.0138887
0.0782703
-0.000346616
-6.98176e-08
0.0312565
0.0491466
0.0257967
0.0302322
-0.0133553
0.0193698
0.00495442
-0.000248327
-5.57962e-07
-0.0366971
-8.32352e-08
0.038683
-0.120748
0
-8.09129e-07
-5.09188e-08
-1.07743e-08
-0.0402067
-3.56329e-07
-0.0417119
-1.46365e-13
0.00260523
-0.106731
-0.0859513
-0.0137793
0.00718607
-1.00295e-321
-0.00573469
1.73058e-05
-5.57962e-07
0.00495442
-0.0594527
-4.51739e-06
-0.0532626
-0.0129764
-6.25744e-06
0.038683
-4.30795e-07
0
0.0322725
-0.0704365
-0.0138237
0.103436
-0.0319282
0.153002
-0.00379826
0.0454045
-4.23106e-07
-0.00024098
0.0754015
-0.000243292
-0.0422088
-3.81436e-09
2.1623e-10
-3.89689e-05
0.00611009
-0.0328033
0.00150999
0.0424525
-0.000249652
0.00592721
-0.110252
-0.0541535
0.024769
0.00150999
0.00728274
-0.000336831
0.00495442
0.00368635
-1.64167e-08
0
0.0174346
-0.0773708
0.0068829
0.00495442
0.0273229
-0.0743341
-0.150536
0.0320315
-0.00013852
0.239262
0.0032899
0.0486959
-0.0413059
-0.213468
-0.060181
-0.0767186
-2.51283e-05
0.00318303
-0.121746
-0.000244332
-1.03806e-05
-2.93797e-91
0.0875285
2.28499e-98
-0.00342004
0.0310836
0.0710853
0.00495442
0.0015828
0.00176625
-0.0942595
0.0159511
0.106172
0.0249878
-0.000336831
-0.000336831
1.70792e-52
0.0126619
-0.0228554
-0.0133488
-0.0448593
0.0114042
-0.000248424
0.00495442
9.72778e-05
-0.171439
0.0627688
-0.027133
0.326339
-0.0371291
-0.030948
-0.00259921
0.0533609
-3.8883e-80
0.112695
0.0683325
-0.0265983
0.0138887
-0.0380728
-0.015397
0.0800144
-4.26284e-07
0.00702734
0.0227903
-0.0565004
-0.0441794
-0.152091
1.27385e-73
-0.0506918
-0.0529286
-0.00295049
0.0432118
-0.000264389
0.000248335
0.29118
-0.0258309
0.00038138
0.0910456
-0.077621
-1.46365e-13
0.0214171
-1.46365e-13
-0.134038
-0.0107707
0.0913549
0.0295988
-3.66111e-05
0.0180885
0.0232924
0.0329855
0.0375045
-0.0328384
-0.0262035
-0.0541377
-0.135637
0.00589391
-2.23478e-05
0.0155809
-0.000254602
-0.0384138
0.0114173
-0.0768099
0.00625004
-1.13183e-07
0.0225292
-2.29922e-05
-0.00668874
-0.0354376
-0.0708398
-0.0495203
-0.000139914
-1.33036e-91
-0.0031919
0.00698655
4.40436e-06
-1.08692e-05
0
0.000107351
-0.000254575
0.0680212
0.101496
-3.8883e-80
-0.0002788
-0.0165976
-0.00013852
0.0385221
0.0311079
0.0376067
0.0242209
-0.00025219
-3.53992e-06
-0.0387095
0.371433
-1.07743e-08
-9.02896e-05
-0.00342004
-0.0342394
-0.000246106
0.0214171
-0.000242314
0.015149
0.0249348
0.0659635
0.0240214
-0.0629005
-0.000507429
0.0336846
-0.0675963
0.030073
-2.93797e-91
-0.0210586
0.0141345
-0.0256645
-0.0353053
0.00351022
0.132019
-0.0862033
0.0272023
0.000270901
-1.19259e-05
-4.23106e-07
0.00784719
0.0181915
-1.26481e-321
0.0060428
0.0157522
-0.147955
0.0241376
-0.0281489
-0.000346592
-0.0141674
0
1.70792e-52
0.00341851
-1.15211e-12
0.0974923
-0.0942851
0.0158986
-0.0754723
0
-0.000233235
0.00450574
-0.0166694
-0.0195764
-0.020906
-0.0890917
0.0769551
0.023218
0.0738428
-0.00269288
0.0310826
-0.0580035
0.284274
-0.0329363
0.0193698
0.0225467
0.0231018
-1.76039e-07
-1.75929e-07
-0.159028
0.140977
0.0102379
1.27385e-73
-0.132444
-0.00668421
-0.0452841
0.00929222
0.00614834
-0.0655952
0.0154735
1.45452e-24
0
0
-0.0920654
0.0316488
0.00374025
0.0872318
-0.0196252
0.00771275
-0.0136592
0.00771275
3.53254e-102
0.0116419
-0.0181195
-0.0178751
-0.0610666
-0.00981776
0.0121284
-0.037896
0.0123547
0.0304881
-0.0996142
0.117949
-3.71435e-14
0.0963684
0.105658
-0.00887867
0.0227903
0.0152156
-0.00601353
-0.0764205
-0.000601045
0.02034
0.0173195
-3.64857e-07
0.0951931
-0.00295601
-0.0327862
0.00417955
0.0015828
-1.35541e-08
0.098716
-0.119657
-3.71435e-14
-1.4078e-07
-2.05065e-06
-0.0441616
0.000374918
0.0369411
-0.000233306
0.0134211
0.0893181
0.0669527
-0.0333769
-0.000248353
-0.0398208
0
-0.01024
-0.173733
-9.63522e-12
0.0335668
-0.0174664
-0.0475519
0.00754827
-0.0227733
-0.0339902
0.00556804
0.0360499
-0.033186
-0.0443816
-0.0471335
-0.119569
-0.0378463
-0.0776101
-1.33892e-321
0.0724197
-2.21481e-08
-3.56329e-07
-0.0843889
0.069931
-0.0788007
-0.0215522
-0.00024835
0.0834424
-0.127813
0.050865
0.0139606
-8.86606e-15
0.102142
-0.00295049
-0.00027869
-0.000583555
-1.48589e-09
6.89717e-06
0.0876397
0.0387699
-0.00032999
-0.000249652
0.0552964
-0.0775819
0.0301502
-0.0626409
-0.0675963
0.125378
0.038683
-0.0239684
-0.19724
-1.0996e-07
0.00495442
-5.49437e-07
-0.0118804
5.1107e-06
-0.0736222
0.102103
-6.61743e-07
-0.510568
0.0977549
0.0569173
0.111914
0.0117029
0.00494153
3.48956e-22
-0.0390272
0.000365881
-0.000243292
0.0120064
-0.0186923
-0.0141569
-0.0775643
0.0300823
-0.000122999
0.00669576
-0.00832651
-0.000336831
0.0021515
0.00988678
0.011888
-0.0468012
-0.0525688
0.000397548
-0.0233175
-0.0578801
-0.000234664
0.00733585
6.88305e-05
0.0073089
-0.0173547
-0.0138538
0.0158418
0.0497674
0.00495442
-0.00349039
-0.0770193
0.338437
0.00938906
0.0277428
-0.00680473
-0.000346612
0
0
-0.0325466
0.0470098
-0.0453869
1.45452e-24
-7.46039e-322
0.11636
0.00988678
-0.0105733
0.0832423
0.00112304
0.0300541
-0.000357029
-0.0587452
0.201167
-0.000139914
-1.81768e-14
-0.0736222
0.0166438
-0.0379968
-0.0530744
0.00487045
-0.0384138
0.043442
0.00986136
0.00497296
-0.028226
-0.0118946
0.0157522
-0.0374411
0.0861867
-0.00963072
-9.88131e-323
-0.0292594
-0.0598074
-0.0117124
-4.86233e-08
-2.96363e-08
0.207554
0.0265238
-0.0402669
0.0407455
0.00266597
0.0867469
-0.00205677
0.0166936
-0.0122569
8.79437e-322
-0.000247608
-7.43046e-08
-0.0922224
-0.0337148
0.0311155
0.00138978
0.061438
-0.0102279
-0.00293948
-0.000278836
-2.5197e-09
0.0385515
0.209184
0.00728934
-0.022299
-0.101045
0.00291164
-0.000252123
-0.445343
-5.03332e-08
-0.0898031
0.123313
-0.00380842
0.0705527
0.0228171
-0.094287
-0.000615521
0.0874072
0.0829988
-0.0520317
0.00732707
-0.142669
0.0358022
0.0364311
-0.0768549
-0.00847216
0.0537078
0.160676
0.0406305
-0.000346916
0.104205
0.00899059
0.165864
1.07294e-05
-0.0309879
0.00150999
0.00487045
-0.0477398
0.0644399
0.00393854
0.0015828
-0.0925014
-0.000346592
0.0286918
0.0222152
0.0766307
0.0319006
-1.35541e-08
-1.55816e-253
-0.000193018
0.00715361
-0.0164106
0.0555414
-0.000336831
0.0181915
-2.37201e-05
-0.00573469
-0.000182876
-0.0677459
-0.000788583
0.332796
-0.0511297
0.0106579
-3.56329e-07
0.0132469
0.0231145
0.00785792
0.00495442
-0.0535027
0.0228171
-3.64225e-05
0.0242617
-0.0106663
-0.0829357
-0.0535342
0.00112392
-0.000270709
0.00150999
0.00266597
9.58487e-322
-0.163977
-2.96363e-08
0.0431191
-1.07743e-08
-0.0263292
-0.0290823
-0.0176508
-0.000233235
-0.00853067
-0.000252404
0.0214171
0.0523972
-0.000336831
-0.0602916
-0.0813117
-0.0244766
0.0412745
-0.0805039
2.20783e-05
-0.154936
0.480197
0.0874072
-1.59433e-08
-0.00058501
-0.000329244
0.0032864
0.0750312
-0.0471624
-0.0576748
-0.0279264
0.124349
0.0188827
0.0408394
-3.89689e-05
-0.0646362
0.0440335
0.009853
-0.132551
0.00862934
-0.108521
0.0233053
-0.000346592
-5.42002e-07
-0.125407
-0.0333769
0.155539
0.020384
0.142292
0.00150999
-0.142204
-0.000346592
0.134049
-0.0174279
-0.00504975
-0.00295049
0.0173228
0.0330196
-0.11249
3.53254e-102
-3.70181e-12
0.108742
0.0142624
0.00495442
-1.16905e-10
-7.07822e-08
4.09592e-73
1.39535e-05
-0.000329244
-2.93797e-91
-0.0724435
0.00267735
0.329753
0.0200514
0.0327718
0.00715361
0.0867469
-0.0926372
0.00042939
0
-1.26364e-07
-4.18244e-14
-2.52567e-06
-2.40438e-08
-0.0390272
-0.0865412
-0.000248327
-0.0306172
-0.0166957
-1.46365e-13
0.0359951
-1.46365e-13
0.00318303
-0.00167869
-0.0252235
0.0123914
2.32678e-89
0.0886623
-0.0755151
0.0418
-0.0382739
-0.0506168
0.0114133
0.0309323
-6.70787e-07
0.044977
0.0897243
-0.0355908
-0.00295049
-0.0480882
-1.35541e-08
-3.8883e-80
0.0101345
-0.023873
-0.000346592
-1.42118e-08
-5.53783e-11
-1.11325e-05
-4.42583e-13
-0.0211695
0.000339971
-6.25744e-06
-0.000136097
-0.0263908
0.00348568
0.0181915
-1.33892e-321
-0.0105791
-4.18244e-14
0.0815699
0.1296
-0.0480444
0.0575766
-1.00284e-06
0.0133755
-0.00295049
-0.00295049
0.0467915
-0.0588221
-1.14772e-15
0.0600415
-3.56329e-07
-0.000259939
-0.0193656
0.00633834
-0.0740412
0.0249878
-3.64857e-07
0.00753509
-7.4235e-06
0.00753509
-1.58417e-07
0.0771192
0.122157
0.0231018
-0.000601045
-0.000336831
-0.000251834
0.00642964
-0.0275881
0.030073
0.0350885
-0.0175609
-3.92824e-11
0.0990804
-1.51052e-10
-2.21481e-08
-2.64819e-05
-0.022483
1.02272e-321
-4.2834e-06
0.00156176
-0.0267622
-0.000248327
-2.96363e-08
0.100418
-0.0286558
-0.0463457
-0.00206237
0.00740452
-0.0294616
-6.07505e-08
-6.00554e-06
-9.51471e-05
0.0541456
-9.74912e-11
0.0145479
0.0102379
8.44852e-322
0.271542
0
-4.63787e-08
0.0582124
-0.0289845
-0.0282844
-0.0721033
-1.14772e-15
-0.0568529
-0.256759
0.0858005
0.0415794
-0.000346592
0
-1.26364e-07
0.0418488
0.0739456
0.0247117
0.0116025
-0.00027869
0.00328639
0.00495442
0.0357501
0.0812548
0
-0.000329244
0.0206479
-0.0494581
0.000169794
-0.0214801
-0.000346592
-0.045614
0.0074034
-7.34355e-09
-0.0253673
0.00235999
-1.46365e-13
-0.0140605
-0.0492029
7.16613e-05
-0.219102
0.0342594
0.0227576
0.117473
0.000132638
-3.97487e-05
-0.0743341
0.00495442
-0.0741216
0.067478
-1.46365e-13
0.00732096
0.0474135
0
0.0744544
0.00134349
-0.0861569
-0.000246091
-0.00806677
-0.0245285
-3.58486e-05
0.0028164
0.0797719
0.00487045
-0.000329244
-0.000346592
-0.0276179
-0.055025
-0.221432
0.0118879
0.00614759
-0.0532626
0.0502772
0.00318303
0.0158418
-0.0233175
-0.0276179
0.0521145
-2.79036e-14
0.771562
0.0093524
0.0129744
0
1.70792e-52
-0.0830851
-3.8883e-80
0.000701389
0.0073089
-3.56329e-07
0.242857
-0.000346612
-3.7156e-07
0.00318303
-0.0454242
0.0213204
0.00756454
0.044977
-0.0627943
-9.53547e-322
0.0028164
-0.0366515
0.0229502
-0.000277679
-0.0581663
0.00584132
0.00393854
-0.00847216
-0.000582921
0.408618
0.0181915
0.0177994
-1.81768e-14
-2.1046e-08
-5.79234e-09
-0.0701114
0.00318303
-0.0793896
-0.00843067
-0.000239289
0.0945197
-0.00295049
-0.000270709
0.000275698
-0.102084
-0.0391722
0.00516417
0.012824
0.0129762
-0.000254821
-0.0736222
-0.0284724
-0.0429838
-0.0584042
-0.0140079
-0.0354886
0.00742994
0.00509448
0.0263831
-0.0325914
-0.0338293
0.00753509
0.0653261
0.122615
-0.0264016
-0.0119524
0.0385221
0.000365821
0.0136581
0.0710895
0.0677431
0.119508
0.00341851
0.0566844
-9.56676e-07
0.0062131
-0.0486842
0.12549
-0.0178883
-0.000246106
0.0313621
-0.0305256
-0.0852796
-0.0321282
0.0372051
-0.000346592
-0.01699
-8.86606e-15
0.0370055
0.0318835
1.27385e-73
0.0220952
0
-0.0317454
-0.0439987
-3.81436e-09
0.00318303
-3.92824e-11
0
0.0241376
0.00402057
0.0383586
-2.69206e-09
0
-0.0233175
-0.0415365
